741 128
161 0.019368233 -0.09890354 0.04613463 -0.063333355 0.017574428 -0.08116091 0.09080647 0.04240775 0.06868299 0.25325018 0.30360234 -0.030290795 -0.10520712 0.12491198 -0.044071604 -0.27697158 0.14283073 -0.08048006 0.15199539 0.2110899 0.042651102 0.09735203 -0.266564 0.17897883 0.04496747 -0.18348941 -0.16455972 0.033545487 0.12577385 0.12964039 0.035539206 0.021587238 -0.02661595 -0.049626928 -0.14946802 -0.18095098 0.20767593 -0.061393686 -0.006684575 0.10798662 0.18225658 0.10249054 -0.19799395 -0.14677085 -0.10247685 0.02958661 -0.064586096 -0.073098466 -0.21429376 -0.039136175 -0.1331148 -0.022127384 -0.45082244 0.031005392 0.03564779 -0.16205786 -0.10635099 0.009998836 -0.027839882 -0.16488175 0.1966975 -0.15916958 0.033444244 -0.44191134 -0.17489901 -0.027293341 0.08829673 0.22272785 -0.026138347 -5.2665186e-05 -0.0038813348 0.23131779 0.13146155 0.023386976 -0.076451175 -0.35390866 -0.09679072 -0.14042413 -0.30471838 0.44274142 0.19348627 0.06366112 0.251136 -0.078029454 -0.049216725 0.20662679 -0.34885064 0.02772199 -0.08527443 -0.18616429 -0.016080208 -0.069618694 0.040593825 -0.2152702 -0.013733579 0.08241774 0.27492684 -0.13915393 -0.06883731 -0.19255391 0.07768354 -0.074292175 -0.046524093 0.25817144 0.16597278 0.17440033 -0.013388962 -0.21776941 0.2955901 -0.03799651 0.11232316 0.18193144 0.13249744 0.032728817 -0.1108997 -0.23741049 0.0433236 0.1084307 -0.08336844 0.15824859 0.08102448 -0.032751475 0.16233169 -0.18923873 0.240785 0.050629504 0.3583204 -0.022964051
122 -0.00450564 -0.124778785 -0.05601061 -0.20009533 -0.088613294 -0.2205201 0.03335664 -0.14935794 -0.12658256 0.19663668 0.08035662 0.32965997 -0.31699157 0.18979894 0.151183 -0.053845756 0.10099355 0.059683334 0.07105545 0.23639591 -0.04331183 -0.21536 -0.32467347 0.3418964 0.048010543 0.076751925 -0.07537921 0.07142097 0.1472235 0.19779871 0.28271255 -0.006438271 -0.06515462 0.22183676 -0.098083556 -0.028556582 0.14787126 0.010742183 -0.052573223 -0.16131136 0.07182752 0.11536856 -0.13739197 -0.18934262 0.12180302 -0.1296 -0.24513698 -0.1630401 -0.085920595 0.03983162 -0.15570351 -0.0046139415 -0.26253396 0.0800815 0.07361237 -0.16005348 0.079369925 0.1390935 -0.13305968 0.09324477 0.19458464 -0.29474178 -0.02722847 -0.4467923 -0.071077384 -0.2105386 -0.12944221 -0.036910202 0.12271755 -0.08601224 -0.031269524 0.20607674 -0.03299027 0.10755644 0.12675065 -0.47958753 0.04825585 -0.013993156 -0.39660007 0.22241761 0.17571314 -0.11577888 0.0366316 -0.15691523 -0.15361194 0.08321144 -0.16345029 -0.15922476 0.11071865 0.16238116 0.011828504 -0.2236132 -0.016624292 0.060479753 -0.08889222 0.08471216 0.068338916 -0.08102478 0.11312225 -0.18582326 -0.03187468 -0.0007607782 0.06019824 0.016558168 -0.03216658 0.06271415 -0.16017582 0.059179828 0.10118205 -0.04945393 -0.05409048 0.15608718 0.10211208 0.13748683 -0.14289379 -0.21709307 0.05173909 -0.15109749 -0.04522465 0.11891116 0.07391141 -0.080521725 0.22517945 -0.12111726 0.13368224 0.1678975 0.28965372 0.01956817
108 0.2486896 -0.25655487 0.07783214 -0.009938811 0.052246142 -0.14672266 0.008793468 0.08574806 0.032070767 -0.103863284 0.068096854 0.24191824 -0.27167943 0.16631125 0.020168083 -0.13327797 0.34426725 -0.07946879 0.04451912 0.1309153 -0.09835151 -0.0024453336 -0.30321893 0.111598 -0.043983497 -0.07082438 -0.16391034 0.112285085 -0.009019103 0.08137411 0.4316647 0.060511325 -0.21242037 0.20104676 -0.15369987 -0.077509396 0.061762597 -0.005350149 0.06386326 -0.0047826027 -0.097918004 0.06039631 -0.014669242 -0.1884527 0.2398685 -0.09309636 0.03464338 0.1277161 -0.027809873 0.2193098 -0.15250187 -0.046887375 -0.35448307 0.09558978 0.028068207 0.043935753 -0.114102006 0.2048914 -0.12813814 -0.1157546 0.1609844 -0.3456352 0.04687678 -0.18262024 -0.07779163 0.014177156 -0.18547922 -0.08183168 0.061729994 0.09970163 0.024640072 0.25029007 -0.090546474 0.0297323 0.116677 -0.20710486 0.018993095 -0.08386546 -0.2037041 0.42863292 -0.009431282 -0.019986913 -0.027249644 -0.018742466 -0.10841295 0.1258885 -0.35618198 -0.1337373 0.10726216 0.04204562 0.17525873 -0.12355108 -0.040686533 0.005066546 -0.03147747 0.1372379 0.243328 -0.1270184 -0.075540245 -0.10122982 -0.196023 0.025037276 0.085799955 0.18613154 -0.007595265 -0.10797547 -0.08306393 -0.08487057 0.31719252 0.43142074 0.23747465 -0.1501239 0.006573281 0.075272664 -0.08015944 -0.18060872 0.18460536 -0.02788502 0.0021438205 0.084923275 0.15488349 0.06435186 0.07185825 -0.109199576 0.23900297 0.043561734 0.31062216 0.20575444
83 0.18411192 -0.120211996 -0.17778127 -0.121808365 0.067526095 -0.06416299 0.041797936 0.004375878 -0.0055787954 0.18130814 -0.00969262 0.3506064 -0.17020044 0.36793798 -0.065773614 0.060704075 0.26143998 -0.03767367 0.07144282 0.029933454 -0.03722961 -0.15467416 -0.25480402 0.25338957 -0.12814541 -0.0038237316 0.051988047 0.013382099 0.33333275 0.25110954 0.28196862 -0.14312647 -0.14345258 0.036640752 -0.0884169 -0.111379296 0.29890049 0.195034 0.05665843 -0.19630267 0.013988203 -0.093810186 -0.06259793 0.05181598 -0.014175378 -0.2544193 -0.037612177 0.038637877 0.045236036 -0.08622532 -0.16848817 0.070489995 -0.29099312 0.058448713 0.023602124 -0.29998767 -0.020575507 0.017181827 -0.121007524 0.040458266 -0.04520383 -0.037113756 -0.05139165 -0.42033255 -0.14218226 0.015463059 0.2058397 0.030197343 -0.05417398 -0.019984892 -0.037557073 0.2130054 -0.043792054 0.033349305 -0.0039047643 -0.38266802 -0.04292323 0.016377797 -0.14503777 0.38173696 -0.0061980607 -0.10585448 -0.0025342656 -0.27487743 -0.022673102 0.068853244 -0.18685177 0.15656361 0.22108471 -0.05389455 0.14173155 -0.2264684 -0.07124138 0.054273922 -0.077582695 0.12502837 0.0076465947 0.15673867 -0.06989986 -0.13528395 -0.038581356 -0.027471524 -0.02160066 0.32439044 -0.058221217 -0.057834994 -0.15607798 0.073019564 0.013937936 -0.0664838 -0.048808537 0.15183567 -0.20165835 0.039256506 -0.23346576 -0.3995536 0.09787063 -0.25981453 -0.031224662 0.07487493 0.15758635 0.09171995 0.173494 -0.07647172 0.08456006 0.2028505 0.17384799 -0.08435513
85 0.02891497 0.12108988 -0.03585523 -0.006861751 -0.11411298 0.019502293 -0.049212866 0.06995562 -0.03455715 0.18750088 -0.3610298 0.24235524 -0.20956162 0.08094176 0.018363895 -0.21489424 0.0066776946 0.26376656 0.304747 -0.032399196 0.06466154 -0.22492558 -0.20633519 0.16214499 -0.10851815 -0.11949774 0.20435326 0.21225819 0.12121836 0.117123984 0.071228385 0.058215514 -0.11059749 0.22128981 0.045620356 0.13808112 0.39042592 -0.028103594 -0.18865995 0.08623872 -0.14168058 -0.13220392 0.07590522 -0.0816518 0.1755924 -0.03965149 -0.067929596 -0.12571156 -0.27832562 0.11455335 -0.1903286 -0.19670255 -0.36207372 -0.18777208 -0.19125202 -0.1548984 -0.21350363 0.115040846 -0.24406737 0.2935749 -0.059162702 -0.14821614 0.23268442 -0.48025283 -0.23000233 -0.13838881 0.12613828 0.016313976 0.009327757 -0.15179801 0.1776806 0.038457595 -0.047722407 0.0008633378 0.07744465 -0.32333156 0.070808835 -0.030678226 -0.40654168 0.47201583 0.1894896 0.105504386 -0.066516355 -0.08047782 -0.076196305 0.40096703 -0.07151591 0.13659577 0.045196123 0.16261353 -0.16254158 -0.29251358 0.35596037 0.0022539846 -0.1900276 0.23483855 0.03383378 0.3000666 -0.32073912 -0.24957196 -0.14787734 -0.14351322 -0.06589397 0.19542406 -0.03673566 -0.043304812 0.16742809 0.013742063 0.020582417 0.3321697 -0.048812784 -0.13290524 0.024823947 0.10983413 -0.12805186 -0.41218233 -0.06999945 -0.034758557 -0.014493989 -0.23616435 -0.24121162 -0.19256856 -0.0724442 0.027223252 0.17231598 0.023417067 -0.06714346 -0.30331412
130 0.17997971 -0.11390257 -0.012288117 0.22488712 -0.22812952 -0.22496429 0.17579418 -0.20818718 0.08583366 -0.10684137 -0.0046964367 0.31918502 -0.20607387 0.14611015 0.15476194 -0.087653205 0.41777146 -0.2082783 0.18390967 -0.091538824 0.12671018 -0.11131176 -0.21545899 0.16661897 -0.11968957 -0.18580395 -0.052334845 -0.0484352 0.046305567 -0.027064977 0.24302477 -0.0236188 -0.0545106 0.13997452 0.21215841 -0.11714199 0.22466113 0.14596964 0.03093872 -0.10722702 -0.07289419 0.038693897 0.1605386 -0.21686517 -0.1401762 -0.055545457 -0.10136256 -0.017373865 0.031154333 0.025734005 -0.14825843 0.085052654 0.12600563 -0.07217333 0.11824448 -0.060176946 -0.16167882 0.08089073 0.14294589 -0.14208859 -0.21845432 -0.04294652 0.17387712 0.19117923 0.065129235 0.11636828 -0.22520319 0.18334474 -0.19354033 -0.062374655 -0.028450852 -0.0013044194 0.070706785 -0.0001089658 -0.13338657 -0.15895618 -0.06478097 -0.18004356 -0.08658968 0.175278 0.03946615 0.21930048 -0.16511272 -0.17607842 -0.08215181 0.09049373 0.12954217 -0.080162294 -0.076973945 -0.20986888 0.24188435 0.012866778 -0.17752378 -0.10180504 -0.26720077 0.1659896 -0.11850019 0.40951723 -0.13153383 -0.065444216 0.065760575 -0.11511792 0.07564043 0.41843122 0.018489692 0.12404406 -0.10370643 0.064337574 0.22526897 0.12902892 0.07206349 0.023956828 0.07984083 -0.14219755 -0.33563226 -0.43367743 0.057118785 0.06013269 0.19152984 -0.27423245 -0.1633855 0.4902924 -0.0939564 -0.37780437 0.4087414 -0.11305829 0.16985123 0.092161216
87 0.2091552 -0.34632915 -0.367571 0.13123016 -0.17597564 -0.47961628 0.2717193 0.1205783 -0.0056652785 -0.26475498 -0.1550618 0.016183887 -0.29065275 0.25400656 0.035051867 -0.09152747 0.44819772 -0.23819722 0.1642144 -0.08541337 -0.13930173 0.15825827 -0.01219532 0.14890447 0.07044211 0.06519188 0.08609143 -0.12625003 0.041726355 0.32937253 0.017699998 0.17576332 -0.066752374 0.19812092 0.0129512455 0.0036461882 0.26314226 -0.05408035 -0.065777734 -0.061127476 -0.17840344 0.084305376 0.100341365 0.088175304 -0.08842651 -0.06583445 -0.08217027 -0.22033046 -0.21397668 -0.031812325 0.32286823 -0.08163949 -0.29638222 -0.06326457 -0.21870711 -0.089170136 -0.064981796 -0.13973446 -0.2242505 -0.09306149 0.22318526 -0.18654132 0.02547687 -0.101830356 -0.041980922 0.15204358 0.057469793 -0.024310127 0.16173865 0.047109008 -0.0694528 0.36949247 -0.07121082 0.089232124 0.13745496 -0.30584413 0.29076728 0.20353885 -0.14342715 0.3844022 0.13735059 -0.020250998 -0.05553523 0.027445666 -0.16247638 0.1642386 -0.11383361 0.061536748 0.1845624 -0.036600154 0.16347957 -0.084118895 -0.1260093 -0.08425523 0.110094905 0.0836551 0.27653697 -0.0551069 -0.019634426 -0.23235644 -0.017356215 -0.22778045 -0.08514662 0.4333 -0.08441284 0.013337864 0.2593114 -0.0697824 0.37230268 0.6424086 -0.00023312654 -0.019547755 -0.06052039 0.1764419 -0.019531649 -0.12507468 0.37399325 0.063969195 0.14998983 0.08571577 -0.013213548 -0.11188631 0.2105339 -0.17783223 -0.06106224 -0.13567382 0.13716157 -0.22513227
406 0.2042236 -0.05818861 -0.022097347 -0.09753527 0.20868835 -0.01119413 -0.021963049 -0.044955157 0.12295514 0.18398914 0.25459915 -0.03175585 -0.10897656 0.25511464 0.02739379 0.0066978713 0.16516215 -0.20562792 0.038814068 0.37465298 0.00931717 -0.16724618 -0.27432483 0.064096205 0.085009575 0.10397143 -0.034977928 -0.05665191 0.08446484 -0.12565866 0.29648125 0.062591374 -0.17803574 0.0645602 -0.12890911 -0.26277187 -0.016307326 -0.08687917 0.16050018 0.09320841 -0.045895815 0.021502003 -0.080583446 -0.3383905 0.1653237 0.001753707 -0.10687218 0.1524919 -0.11468674 0.24609466 -0.11572117 -0.037346106 -0.3666251 0.0409923 0.16534303 -0.0460016 -0.38767898 0.09096749 0.022929609 -0.00708253 0.1805888 -0.08172987 0.08077315 -0.03221262 0.15074933 0.059753016 0.009081604 0.12413391 0.070943676 -0.12422751 0.043844774 0.0025947127 0.038497183 -0.05370042 0.1466764 -0.4110853 0.0496756 -0.15217404 -0.037912678 0.2628757 -0.116547234 0.022687953 0.17057553 -0.0172887 0.17163888 0.267598 -0.31891948 -0.107060924 -0.031307332 -0.061967038 0.027505614 -0.06572963 -0.27781272 -0.09475087 -0.15344724 0.17878415 -0.08366686 -0.025473932 0.15048046 -0.18784137 -0.034437753 -0.07753959 0.07141925 0.1433434 0.30948624 0.061239775 -0.17746016 -0.036199942 0.28803748 0.120428644 0.14972457 -0.057390474 0.06890084 0.0064021274 -0.2781887 -0.41254115 0.094951004 -0.017763387 0.08054343 0.26025945 0.11185776 0.30349422 0.09827809 -0.213104 0.08910052 -0.0094754975 0.32836577 0.1443141
59 -0.0107017215 -0.25931415 -0.097612575 0.20303404 -0.1277969 -0.06897469 0.13628773 -0.03217244 -0.11563222 0.2077939 -0.18794838 0.26382926 -0.21181467 0.039875094 -0.014781123 0.06796527 0.08749095 0.09739458 0.24704352 0.07289923 0.08674394 0.076798156 -0.3154844 0.1808186 -0.2575125 -0.14267506 0.13358134 0.21539982 -0.057674985 -0.08091812 -0.1305225 -0.008475071 -0.16567068 -0.16301093 0.116670035 -0.11899504 0.030498683 0.114259936 0.11457672 -0.20561713 0.09925743 -0.022526773 0.014567525 -0.18748742 0.086370274 0.06702975 -0.20027435 -0.10612544 -0.13009349 0.20517917 -0.33491302 0.059251342 -0.07139143 -0.35257825 0.17642765 0.0014423849 0.05661182 0.20923817 0.09333525 0.080573425 -0.020797385 -0.07931067 0.094996065 -0.2938216 -0.06609632 -0.015576756 -0.09752166 0.046906237 0.07960276 0.09163487 -0.1300188 0.12285353 -0.022148851 0.18095782 -0.029007355 -0.31942648 0.093477786 -0.34893182 -0.26000574 -0.057323705 0.08889796 0.12081404 -0.25950557 -0.18491319 0.10103165 -0.006482758 -0.06631511 -0.07362049 -0.030091118 -0.2824983 -0.05483385 -0.040269915 0.36673278 -0.11054472 0.0059209876 -0.07901776 0.16561067 -0.21718295 0.033177312 -0.008349411 0.061275914 -0.20050788 0.1438791 -0.0106670875 0.06271225 0.059668094 -0.03941529 0.044366967 0.46686512 0.33684143 0.110082865 0.01520715 0.017358791 0.18820769 -0.22783294 -0.30409467 0.22507064 0.057808317 0.27886984 0.12150219 0.09071435 0.13884713 0.31191465 0.22670233 0.07043996 -0.020720089 0.026927194 -0.14842942
249 0.04628107 -0.1844785 -0.21893333 0.036630735 -0.009809546 0.037932638 0.17268439 0.004542108 0.20439558 0.07417214 0.020167623 0.0072405194 -0.09478876 0.16329797 0.17808074 0.08441498 0.1999222 -0.1483717 0.30085704 0.04914341 -0.09211944 -0.01169742 -0.13967499 0.03362938 0.19886172 0.04300208 0.014969558 0.110706665 0.250974 0.21886075 0.024310589 0.0057032206 -0.25626823 0.06475343 -0.22090739 0.064406894 0.05551032 0.074428394 -0.09149593 -0.064629935 0.03961078 -0.040894493 -0.08711298 -0.045696363 0.2632558 0.100960225 -0.06219175 0.07449168 -0.18192697 0.060038052 -0.18954502 -0.20320228 -0.2532468 -0.20132558 0.16155411 0.12967332 -0.23559 0.10707946 -0.061608274 -0.02660735 -0.04132787 -0.12140684 -0.059628505 -0.15069851 0.102705054 0.06511179 -0.07931237 0.026131565 0.08836051 -0.2602486 -0.15518476 0.21592863 -0.113244385 0.037255853 0.24139671 -0.28333735 -0.01547063 -0.40387493 -0.24488465 0.23587021 -0.060291417 0.05885736 -0.020512387 0.0045525176 0.06552866 0.32065812 -0.08133362 0.043144025 0.014539349 0.002783938 0.21611416 -0.0497472 -0.18811646 -0.055068314 -0.0077113686 0.028858995 -0.05661455 0.10949431 0.17606908 0.0063106897 -0.028899638 0.11387117 -0.13699287 0.32710502 0.09267259 -0.048031647 -0.2816426 -0.16409378 0.44520238 -0.017767519 -0.10058451 -0.016861835 -0.09057551 0.06091024 -0.2895231 -0.45294064 0.121693894 -0.06274144 0.08125479 0.13355967 -0.04830832 0.23468114 0.1405009 -0.21109982 0.13347737 0.032002162 0.25878638 -0.004525028
433 0.013110888 0.09632649 -0.03328817 0.014315655 0.06972848 -0.104468234 0.139289 -0.1966028 0.0023863064 -0.036815636 0.021313718 0.36057323 -0.17687897 0.26696506 0.10218491 -0.08060034 0.28549805 -0.026466377 0.22697383 -0.0019955782 0.18148531 -0.05179165 -0.3070121 0.21594535 -0.10761141 -0.09228928 0.083382666 -0.020795003 -0.0544924 0.039685436 0.06013458 0.09063849 -0.36835197 0.24597391 -0.068866126 -0.0070023653 0.17251188 0.23651132 0.07581147 -0.1831627 0.0438432 -0.08923756 0.05492134 -0.07489308 -0.11041299 0.1415033 -0.028472101 -0.042662863 -0.06316806 -0.027970783 0.017928662 -0.037363674 0.023262048 -0.063790485 0.17972499 -0.16581582 -0.15987492 0.14580812 0.12848336 0.12903804 0.13200395 -0.0980742 -0.030157568 -0.15934317 0.079598084 -0.100107275 -0.083111286 -0.009025458 -0.04161272 -0.20548657 -0.14298135 0.12223088 -0.06937862 -0.098510765 0.011344448 -0.23005901 -0.021342646 -0.1810333 -0.24582021 0.17314847 -0.08911801 -0.03542171 -0.07420252 -0.13010769 0.026656805 0.10383359 -0.14166285 0.09859675 -0.13211818 -0.16520606 0.16749205 -0.05840164 -0.076422036 -0.22547615 -0.1648066 0.18472014 -0.07000535 0.023092587 0.055941712 -0.17716815 -0.15196206 -0.1627431 -0.22553675 0.18884991 0.047649525 0.0017180099 -0.23165557 0.0020063985 0.36817592 0.007709839 0.14128074 -0.059421632 0.10753724 -0.08056319 -0.12926066 -0.2841829 0.3506968 -0.04064539 0.19987847 0.036198396 0.11264891 0.10928657 0.13348286 -0.13115029 -0.015982373 0.20592241 0.24719389 0.020242026
167 0.17708728 -0.15642299 -0.25065437 -0.030706951 -0.1564435 0.05597659 0.3292702 -0.025121951 0.18584532 0.048588168 0.07814506 0.29852694 -0.19140133 0.3061312 0.010491791 -0.024325827 0.2555279 -0.273034 0.3429717 0.0126679065 -0.029735573 0.019274687 -0.4332578 0.072331265 -0.025771834 -0.166968 -0.08081868 0.16705361 0.11689012 0.15458319 0.06598975 0.26205084 -0.2924397 -0.08359214 -0.067026354 -0.14257875 0.10127428 -0.12386293 -0.07375398 0.14665104 0.16580889 -0.13461263 -0.089719236 -0.07716682 0.27532107 0.12304409 0.116125174 0.21491447 -0.21512638 0.10462434 0.014195232 0.015802443 -0.22956237 0.063954696 0.25618255 0.07119182 -0.0053137746 -0.080258384 0.16538045 -0.15582919 0.07757703 -0.16840608 0.083189026 -0.13486108 -0.27163494 -0.118311286 -0.12057062 0.070737965 -0.0425668 -0.18473983 -0.10689553 0.10790933 -0.048043963 -0.09705181 0.228277 -0.20149776 -0.16517164 -0.30297244 -0.16422743 0.23345359 0.21688297 -0.08973323 0.037690878 -0.030163862 0.04306141 0.13193116 -0.16433229 0.07919595 -0.2290503 -0.102409355 -0.009405835 0.03242191 0.08363651 -0.09985563 -0.0752064 0.035907894 0.004401385 -0.12053186 0.059965327 -0.0916836 0.07914934 -0.1143814 -0.03115659 0.2692163 0.074246384 -0.11980535 -0.092481785 -0.084280565 0.49512127 -0.21985659 0.19687288 -0.06152188 -0.03360422 0.080238566 -0.10523797 -0.19203264 0.24735732 -0.047568876 0.14672503 0.18116969 0.19703893 0.21147671 0.10790035 -0.06826419 0.18508156 0.011228947 0.23801702 0.006452632
184 0.21565454 -0.13465081 -0.037586097 0.038452633 0.005179737 -0.06463479 0.018378606 -0.3514673 -0.052200504 0.1631352 0.2623592 0.17026444 -0.2364728 0.14798705 0.059315026 -0.015413009 0.30133197 -0.09220654 0.20386828 0.1454019 0.27120155 -0.101309724 -0.19707337 0.1948179 -0.035812333 -0.22619857 -0.12641622 -0.088586174 0.026204253 -0.019153211 0.24812344 0.07134957 -0.019075595 0.08369865 0.0453087 -0.016431522 0.12874709 0.28667828 -0.027078038 -0.09745781 -0.01286194 0.0023301165 -0.18038729 -0.2746675 -0.14815547 -0.107322805 -0.18261705 0.068032056 -0.052729923 0.11621748 -0.23606694 0.025310604 0.1213306 -0.048532985 0.04491913 -0.02698893 -0.040022694 0.08038214 0.0118420515 -0.1690304 -0.049477875 -0.14894895 0.0657977 -0.100586094 -0.015320262 -0.13468434 -0.080463216 0.09075155 -0.084434964 0.03615212 -0.20925814 0.0657507 0.02526137 0.26607725 -0.110672966 -0.2328875 -0.08012348 -0.21818773 -0.25138098 0.42766944 -0.022341708 0.14029813 0.03303976 -0.1751229 -0.09122137 -0.07954053 -0.1494432 0.012308382 -0.12002422 -0.04188971 0.0857378 -0.045216743 -0.0969022 0.08438172 -0.20495608 -0.12996414 0.030847153 0.21586816 0.015116672 -0.0961464 -0.05296574 -0.0042015794 0.17063263 0.24581183 0.020199643 0.12395144 -0.30581737 0.076139495 0.40710223 0.28785124 0.10021612 0.13546693 0.24374549 0.09494469 -0.40246695 -0.44146448 0.042191062 0.28460574 0.23287323 -0.12090694 -0.015098637 0.24764016 -0.13525227 -0.11494051 0.35238218 0.1234177 0.16340765 0.04189406
84 0.14735699 -0.1508805 0.17197967 0.0033285324 0.044816878 -0.02059682 0.03570412 -0.07942253 0.094599806 0.024905987 -0.020822598 0.14617562 -0.1679457 0.13412823 0.027468305 -0.13385479 0.18040396 0.08929711 0.04120968 -0.030348867 -0.16312757 0.020851608 -0.22083306 0.058901276 -0.019330816 -0.20684627 -0.13375916 0.1972274 0.040874567 0.024211947 0.2287965 0.025914546 -0.14226583 0.15742938 -0.057127073 0.08048978 0.06183396 -0.11203688 -0.041695535 -0.17732619 -0.00844794 -0.28266874 -0.16018197 -0.09716174 0.20177089 -0.024704527 -0.052083183 0.088324435 0.012762547 0.17480256 -0.113365136 -0.20446871 -0.34748483 -0.0041099335 0.15923293 -0.037609763 -0.2079012 -0.04365547 -0.03581011 -0.31568095 0.039950628 -0.15755865 0.047565132 -0.32129133 -0.1129298 -0.0073744277 -0.22785904 -0.0765109 0.12847617 0.01924127 -0.13995945 -0.050016098 0.005332689 0.14220907 0.06554139 -0.41923144 0.12629393 -0.14642979 -0.3173027 0.29589742 0.11387766 0.031487472 -0.060037643 -0.06541966 0.016805097 0.2070226 -0.24256605 -0.08627104 0.08834733 -0.20038271 -0.06724331 -0.2323758 -0.058113165 0.16858695 -0.028345967 0.022756165 -0.077264555 0.17352249 -0.18593284 -0.04314834 -0.12256932 0.1266862 -0.16937017 0.21066494 0.11893851 -0.120893374 -0.06793294 -0.111890316 0.264166 0.06446065 0.08239703 -0.11728598 -0.03444436 0.05228728 -0.14064428 -0.5772405 0.12933649 -0.26679763 0.23325917 0.0915965 0.09082043 0.09681991 0.25818577 -0.15157424 -0.029386101 -0.014519152 0.1747647 -0.014588454
210 -0.2630383 0.09510523 0.18478529 0.04800086 -0.15152965 -0.16238183 0.047337003 0.13311534 -0.09741239 0.12787059 -0.18112707 0.13916036 -0.30719855 -0.067843825 -0.10857833 0.082885645 0.10336959 0.07569904 0.26139948 0.24067743 0.028595388 0.073812395 -0.33555225 0.16633087 -0.049528316 -0.025787966 0.08441442 -0.069006704 -0.10473067 0.10791031 0.22035721 -0.085341975 -0.19229448 0.17178509 0.16112146 -0.34839806 0.23571166 0.17157406 -0.063082464 -0.18243398 -0.07971277 -0.03731447 -0.18663245 -0.48207796 0.084264114 0.21884158 -0.32207817 -0.11351171 -0.07196393 0.3686918 -0.1587356 -0.1496242 -0.015718304 -0.2253193 0.19413891 0.19878902 0.06931485 0.2941997 0.022579804 0.0059544905 -0.11581414 -0.007558175 -0.18372856 -0.16362019 -0.057855934 0.14837162 -0.33793008 -0.17886783 0.07839844 0.016851012 -0.010959404 0.09697778 -0.1274836 0.1136074 -0.23958895 -0.21417633 0.09147778 -0.2337331 -0.30079722 0.13171718 -0.053100273 -0.017158316 -0.2453479 0.073337495 0.28626657 0.20136051 0.028972408 -0.2497965 0.2604005 -0.24447794 0.097765565 0.006123562 0.1641272 0.08689242 -0.11321332 -0.14012441 0.0520117 -0.035864457 0.30117065 -0.16103537 -0.15680045 -0.14278172 -0.012719163 0.30679333 -0.040040135 0.13235022 -0.094113074 -0.15935649 0.2987607 0.24201544 0.21403688 0.22455706 0.00036112947 0.09159533 -0.18511692 -0.2500375 0.12193652 0.09920643 0.26938063 0.053709105 0.17827709 0.13782756 0.22031756 -0.22162834 0.22056982 -0.13425148 -0.17882042 -0.023920396
64 0.03118925 -0.21994796 0.14166941 0.2123911 -0.17768927 -0.12974545 0.117170475 -0.13025378 -0.08494502 0.15235887 -0.064168766 0.27687016 -0.25879925 0.108977705 -0.026713874 -0.012646337 0.1409599 0.004112761 0.34998763 0.24128558 0.16220614 0.10361831 -0.15953845 8.0033366e-05 0.0034884056 -0.16601908 0.08048453 0.25884286 0.09128372 -0.15853448 0.010359889 -0.11141074 -0.24246106 -0.012011198 0.13522299 -0.2251239 -0.08041938 0.27681607 0.14203781 -0.042088702 0.09979555 -0.17898099 -0.278604 -0.19023605 0.017422242 -0.076279104 -0.34386277 0.034132544 -0.14113359 0.2994124 -0.3667903 0.011435723 -0.07706658 -0.26305577 0.12276829 -0.08891239 -0.070415094 0.25551978 0.31273594 0.0011963948 0.03420515 -0.050982602 0.0202984 -0.29558173 0.15054229 0.039462324 -0.23039226 0.099151514 -0.10162893 0.0884108 -0.06550228 -0.02116894 0.1266541 0.04975645 0.0066091735 -0.190514 -0.029841034 -0.22117688 -0.2558826 0.097679555 -0.2049273 -0.05040104 -0.14513753 -0.1813009 0.050917313 -0.062073614 -0.035409328 -0.18878677 -0.12711136 -0.32776016 -0.07884937 -0.11898094 0.26028752 0.06886641 -0.16692872 0.07358393 0.040780324 0.008404072 -0.0899022 -0.015799802 -0.0595906 -0.23019081 0.09930151 0.05821662 0.03048887 0.22459702 -0.03360791 0.043059688 0.48002318 0.061442092 0.06507015 0.13792074 0.019827731 0.08688154 -0.10600994 -0.3390628 0.24655433 1.3196986e-05 0.27700603 0.13399482 -0.0170429 0.065011375 0.11903606 0.058856085 0.10669353 0.052801557 -0.14262639 0.030345218
291 0.3967006 -0.23040596 -0.26166603 0.3626215 -0.44512153 -0.037384983 0.07813189 -0.04169511 0.13416985 -0.14639907 -0.11551869 0.3795825 0.071475774 0.39282605 0.011385573 0.0058141225 0.08141746 0.047703646 0.2894842 0.10404525 -0.14916466 -0.06912419 -0.33684027 0.43105954 0.1470034 0.07968368 0.09227952 -0.22898522 0.18706693 0.018691756 0.11182536 0.28997684 -0.24231464 0.26079217 -0.009575766 -0.18767484 0.056244694 0.16283694 0.39288655 -0.111862116 0.030246021 0.06735317 -0.32742846 -0.014988524 0.2022271 0.032874145 -0.29909316 -0.07054943 -0.15009166 -0.085566655 -0.40455207 -0.27288404 -0.1748174 -0.2257363 -0.36683965 -0.118665084 -0.13049206 -0.030205006 0.07886045 0.043541957 0.034981623 0.08314797 -0.07289663 -0.32573992 -0.0773227 -0.04681806 0.049282014 0.09782156 -0.12890457 0.07369852 0.081734106 0.018772349 0.08417601 -0.030286787 0.3452472 -0.35305217 -0.1804917 0.07762367 -0.043160718 0.19544195 0.0733439 -0.17996979 -0.25430453 0.053341266 0.0037631663 0.38026825 -0.33266538 -0.11617966 0.07320182 0.11473282 -0.18259144 -0.11082269 -0.14870937 -0.038591336 -0.003318859 -0.18955255 0.2257127 0.41973665 0.0011713724 0.0028327857 -0.016349846 -0.18771814 -0.17239045 0.31733888 0.11956767 0.029437207 -0.040141538 -0.42059547 0.1364169 -0.09500269 0.0125186825 -0.04424208 0.06324639 -0.12802953 -0.10619783 -0.2084408 -0.26640636 -0.09287772 0.07382243 0.16494186 -0.06693971 0.1117367 0.10692503 -0.06014929 0.29410246 0.080772154 -0.18921399 -0.20603359
115 0.2423927 -0.26189926 0.041323774 -0.0812117 -0.14202346 -0.015318442 0.31200665 0.058118 -0.19365637 0.28892428 -0.043045588 0.3700879 -0.26852888 -0.13269706 -0.048818108 -0.08113454 0.23435487 -0.064149864 0.07211893 0.2221933 0.14920364 -0.13135609 -0.22803237 -0.025426954 0.22639948 -0.03370257 0.16232195 0.019345796 -0.04810443 -0.28448632 0.13254434 0.06420808 -0.09617017 -0.023817584 -0.08002692 -0.32544303 -0.06339908 0.16065076 0.037926182 0.079355024 0.056196272 -0.07427112 -0.10273954 -0.2830097 0.0749534 0.10257028 -0.15275648 0.22221702 -0.23977835 0.058428932 -0.09949946 0.1309806 -0.16690937 0.08268025 0.1496031 -0.044096053 -0.05960318 0.2761621 0.045233052 0.044597026 -0.14326829 -0.14388964 -0.04227394 -0.36874488 0.1804917 0.15595385 0.14428379 -0.09831312 0.0036614372 -0.001725456 0.05018135 0.0012634636 -0.1422381 0.07104655 0.034764204 -0.17880607 -0.06555234 0.07636506 -0.01678099 0.3370689 -0.11546693 0.0006858059 0.012522123 -0.011667471 0.08289432 0.17532615 -0.12686355 -0.0021879754 0.049503986 -0.13357113 -0.03233542 0.2080911 -0.13473211 -0.17428225 -0.40597364 0.1875476 -0.43479726 0.10186297 -0.14960495 0.065901004 -0.34355158 -0.0864538 -0.16682586 0.34782103 0.10801172 0.028555358 0.002353782 -0.009787843 0.15289882 0.12574384 0.06617306 -0.17244695 -0.19794011 -0.107044324 -0.05318701 -0.37729448 0.3520031 0.1390928 0.104101546 0.08254084 -0.15563595 0.25354937 -0.037210193 -0.12248987 0.1983395 -0.09316433 -0.09032953 0.2546478
796 0.15719818 -0.29680794 0.0601843 0.07133322 -0.15737526 -0.11587962 0.1876161 0.20415048 0.0970147 0.13148688 0.07820771 0.12715742 0.108358644 0.23847693 0.08857556 -0.0879927 0.055427335 -0.15387513 0.121493176 -0.23686752 -0.04736501 0.14484267 -0.30852798 0.13812149 0.044355795 -0.20180555 0.18139333 -0.15362205 -0.060554028 0.19110024 -0.10566609 -0.026813788 -0.38817143 -0.110869765 0.07741512 -0.021872837 0.14077488 0.07147881 -0.07495604 -0.29855606 0.21812361 0.27713615 0.28493044 0.107686825 -0.13713348 0.012019649 -0.24204516 0.13001694 0.16559245 0.010084217 -0.15065263 0.033849396 -0.2603196 -0.1426688 0.035145354 -0.19364575 -0.33879042 0.017590215 0.28259674 -0.23211604 -0.07474127 -0.1470079 0.3483924 -0.39637974 -0.050305836 -0.055661075 0.019947486 0.0527397 -0.121118166 0.2097219 0.027459934 -0.08854248 0.05080246 0.045386307 0.14224096 -0.3416678 0.34310812 0.034745272 -0.13300535 0.43347764 -0.13873439 -0.17543615 -0.030600756 0.01868042 -0.30691585 0.00080515107 -0.067296304 -0.12303811 -0.12845424 0.050126787 0.1383402 -0.072619356 0.13160016 0.12894307 -0.048850335 0.041814484 -0.2700207 0.34640494 -0.20433967 -0.27576676 -0.08169828 -0.15293044 -0.29781327 0.12731294 0.24236517 -0.024543397 -0.11790463 0.13300976 0.25749916 0.047915425 -0.092870854 -0.05668315 0.14842623 0.030573312 -0.29536796 -0.2631502 0.14254569 0.028212562 0.17036495 0.0014793812 -0.0053778705 0.2318626 0.039590757 0.07448839 -0.08280885 0.027177779 0.16671334 0.14531106
378 0.059037086 -0.017524775 -0.15727235 0.19864418 -0.44715396 -0.106026195 0.08910821 -0.2294098 -0.123957604 -0.16680826 0.13626076 0.48282385 -0.084376656 0.052871156 -0.08854874 -0.10866215 -0.010206438 -0.012617886 -0.057630863 0.15183726 -0.03469336 0.052687332 -0.3392542 0.2694566 0.052581962 0.20114194 0.08244607 -0.16206132 0.20196187 0.3152138 -0.033381544 0.04168854 -0.17496304 0.104414105 -0.08040833 -0.32793385 0.41783622 -0.031537518 0.18949707 -0.20727819 0.1594879 0.2275169 -0.06101692 -0.13960807 -0.055059057 -0.19434662 -0.19499478 -0.0628294 0.018796865 -0.2198443 -0.19036947 -0.43440682 -0.46040902 -0.25635746 -0.128256 -0.10443273 -0.013552438 0.034220856 0.036347974 -0.26262107 0.012655042 0.03736277 -0.04283521 -0.18596415 -0.02742414 0.039268278 0.379454 0.15826382 -0.060400665 0.25472006 -0.11602133 0.064730436 0.16322698 -0.16018783 -0.021181589 -0.19191405 0.07211582 -0.0041496055 -0.023335751 0.2251292 0.25783747 -0.019908402 -0.056501962 0.007406461 -0.20030041 0.36988944 -0.33918628 -0.1184284 0.11703524 -0.32088405 0.038940817 -0.07699597 -0.32792154 -0.30816695 -0.20549382 -0.1317345 -0.23939627 0.34303135 0.0276485 0.20101734 -0.13602822 0.11435604 -0.20991649 0.43005234 0.21579371 0.049224466 -0.108102344 -0.07156867 0.32748994 -0.3493712 0.037428845 0.20232525 -0.042185046 -0.113943204 -0.077894844 -0.49744925 -0.24716707 0.14349732 -0.06975069 0.37029648 -0.0019912198 0.004786042 0.100752905 -0.20812172 0.28683576 0.020898763 0.14666426 -0.08587466
277 0.41028798 -0.2215783 -0.19457485 0.059479304 -0.21422267 -0.06284552 0.18226333 -0.113845736 -0.052984074 -0.15215392 0.05444225 0.2187281 -0.103568345 0.102394715 0.14846936 -0.12444003 0.08477798 -0.09131897 0.021631936 0.102145724 -0.17084871 0.115160294 -0.3735814 0.04196308 0.3023456 0.008105807 0.12509947 -0.13793425 -0.025252394 0.17202923 -0.052402437 -0.048434827 -0.23686506 -0.002462695 0.05740409 -0.106153056 0.3177547 -0.07422383 0.17166764 -0.10473498 0.18334551 0.24798894 -0.07327256 -0.091777794 -0.11849843 -0.14615425 -0.30788612 -0.030377902 -0.09541618 -0.21903881 -0.16225983 -0.15054478 -0.28526482 -0.114251316 -0.023773607 0.04752483 -0.043341566 -0.049050335 0.16002382 -0.05513997 -0.08305248 0.05036526 0.076295346 -0.2182417 0.23836987 0.034652043 0.199957 0.10198393 -0.055085998 0.23472776 -0.23235762 0.12002027 -0.049341295 -0.053867564 0.044139374 -0.16058527 0.11829451 0.19623448 -0.076733254 0.24279717 0.030688765 0.021073679 -0.15416732 -0.0019650832 -0.21389608 0.21308032 -0.014203148 -0.20344383 0.045831505 -0.12688155 -0.06836497 0.11664203 -0.09117278 -0.1530311 -0.21559656 0.19794014 -0.23670831 0.26434582 -0.18397738 0.15696932 -0.14325048 0.05162714 -0.10856541 0.34547585 0.2969791 0.07998038 -0.03142934 0.14042199 0.3313926 -0.13616127 -0.020175396 -0.06689822 -0.045076028 -0.12382527 -0.19904758 -0.55415034 -0.07110704 -0.12842011 0.11621335 0.03649469 -0.09858428 0.1973619 -0.032441434 -0.08740429 0.1458279 -0.1178237 0.052334458 0.36266515
129 0.05899837 -0.27505568 0.09258976 0.12229202 -0.12507914 -0.16714607 0.18344846 -0.0020643543 0.055130742 0.13651553 0.054251 0.028726501 0.0546268 0.10181576 0.033978604 0.15314934 0.30705762 -0.22251122 0.05943957 0.013738115 -0.20869438 0.19404764 -0.32055265 -0.08371141 0.24385239 -0.13670214 0.15912752 0.0045529376 0.03424922 0.12327119 0.08266416 -0.078314394 -0.48524022 -0.18434697 -0.10025537 -0.15032536 0.106660515 0.2250543 -0.042707443 -0.1326051 0.10962004 -0.05313276 -0.09434616 -0.02438596 0.0020654695 -0.050258934 -0.34065053 0.09477075 -0.031024141 0.13769525 -0.23553173 0.037961733 -0.2584674 0.052812327 0.1569541 -0.049284533 -0.17283888 0.05015237 0.11745627 -0.33794433 0.0640175 -0.048725814 0.26003724 -0.34477624 0.22032642 0.11781728 0.24942523 0.08739772 -0.069949225 0.1212746 -0.089609124 0.08868087 0.26740828 0.26036048 0.24397253 -0.15800475 0.015331806 0.06359434 -0.05710123 0.19300011 -0.20376408 -0.17972948 0.1484132 0.0132192625 -0.33941647 -0.025606843 -0.040817253 -0.03198945 -0.12000235 -0.0840095 0.043669686 -0.036561616 0.036217798 0.1326614 -0.038822815 0.03280555 -0.23767011 0.31246486 -0.0429292 -0.06515002 0.0014796453 -0.097497076 0.027340867 0.14632899 0.30209827 -0.020072086 -0.33017382 0.016657418 0.3686942 0.066708244 -0.09097953 0.0082863495 -0.14558254 -0.10074736 -0.27060014 -0.33472914 0.20265567 -0.11611327 0.35675403 0.026371386 0.08477834 0.29612863 0.11793291 0.0671632 -0.04785944 -0.074842975 0.2920425 0.21798445
63 0.06234115 -0.038906872 0.10800879 -0.12510824 -0.02179652 -0.14684469 -0.14564146 -0.061534956 0.0205857 -0.1356954 -0.1569366 0.06838763 -0.26944438 0.037749503 -0.040951107 -0.27528572 0.3272659 -0.08668834 0.23741667 0.08411485 0.069922134 0.042506285 -0.016852036 0.055141572 -0.040097184 0.20472248 -0.11282273 0.22369604 -0.03527954 0.24404751 0.2887437 0.06942288 -0.09602808 -0.008805663 0.030725226 -0.13268569 0.17334044 0.2374188 -0.008569668 -0.12290327 -0.16071534 -0.012278889 -0.17612739 -0.08751307 0.23286712 -0.16979933 -0.15853669 0.05763982 -0.14122689 0.10568586 -0.19582391 -0.087156445 -0.13878584 0.0047028284 -0.069359444 0.2882895 -0.059960347 0.03354701 -0.123943254 -0.10002246 -0.027134318 -0.28127006 0.1572018 -0.07930073 0.06712039 0.07726732 -0.19173987 -0.019950364 0.00035920288 0.17890848 0.09909693 0.13452896 -0.16239649 0.0407451 0.17287916 -0.18091463 0.09263432 0.013184498 -0.35835388 0.39096874 0.094619885 -0.2523904 -0.20398398 -0.08599276 -0.1847531 0.3164592 -0.18587475 -0.24639003 0.042467635 -0.14260963 0.07299053 -0.25581104 0.16183196 0.11517797 -0.20426263 0.15812874 -0.01238905 -0.021906896 0.087807335 -0.097856015 -0.04416317 -0.24577057 -0.20718278 0.43201333 0.06581072 -0.17458421 -0.06160117 -0.2859719 0.38482663 0.48145565 0.20377544 -0.19878556 -0.030044066 0.05624061 0.015314386 -0.36459336 0.277727 -0.08206478 -0.017330367 -0.020199202 0.1583916 0.00043432915 0.06686221 0.07901884 0.11659644 0.05980676 0.17096485 0.24401039
166 -0.06612209 -0.18274705 0.003759581 -0.0976389 0.036477573 0.00034408597 0.19052304 -0.04251587 -0.24949686 0.2493905 0.12585467 0.22700812 -0.008305345 0.008232929 -0.061505396 -0.009420477 0.2238734 0.005029586 0.09174659 0.14192021 0.07177236 -0.21637432 -0.36378384 -0.20561318 0.12626936 -0.006663008 0.07055526 0.094863854 -0.09468132 -0.024285618 0.20528074 -0.023653377 -0.110610835 0.11359165 -0.10434818 -0.35152617 0.26126564 0.17805944 -0.02194869 0.09526068 0.13010255 0.03541781 -0.008069116 -0.101200245 -0.15005405 0.12472851 -0.5230323 0.04204479 0.02233189 -0.0017052996 -0.20258503 0.21634422 -0.21114627 0.16221304 0.028708601 -0.14810151 -0.17114073 0.018206209 0.12057089 -0.11565844 -0.085170045 -0.27036935 0.34247044 -0.3939631 0.011174571 0.017290588 0.28985378 0.26623145 -0.16734502 -0.27417535 0.22518004 0.1943983 -0.025634069 0.10321447 0.12027684 -0.105018295 0.061653588 0.3215044 -0.15191147 0.40654394 -0.10541266 0.16300344 0.085329846 -0.007093328 0.13762845 0.15686327 -0.09841986 0.1230565 -0.0722789 -0.13852872 -0.008027095 0.051656693 0.0387013 -0.21323523 -0.23552008 0.004126634 -0.20554528 0.2079249 -0.31721187 -0.059216388 -0.117391676 -0.2152824 0.018680194 0.41741583 0.15223831 0.21781346 -0.03161514 -0.15261999 0.2464251 0.10763258 0.21537213 0.05970525 -0.14505278 -0.1226957 -0.28481707 -0.2614241 0.16611522 0.19581206 0.08767747 0.06655006 -0.040652517 0.18740045 0.019163681 -0.20471187 0.3537667 -0.1919398 0.06398428 0.025352068
88 -0.17810012 -0.18387754 -0.02831046 0.20771255 0.032015752 0.15861087 0.23208664 -0.0737907 0.0711468 -0.0246736 -0.1020549 0.3232827 -0.31219113 0.4672091 0.06790247 -0.0032304958 0.30233496 -0.11928554 0.2859363 0.011923278 -0.16162807 -0.014906728 -0.4435412 0.24891476 0.037172224 -0.056589715 0.10776642 0.07523848 0.03332689 0.14397776 0.12192005 0.080972776 -0.4282509 0.29773858 -0.009724855 -0.06743859 0.12562445 0.09129584 -0.073176935 -0.12718733 -0.037180264 -0.16291623 -0.008048866 -0.29578575 -0.005340804 0.16197902 -0.03834591 0.04832481 -0.15238838 0.059715785 0.06824335 -0.14169154 -0.094953224 -0.033180665 0.14178534 0.022832463 -0.4110792 0.13447449 0.069167085 0.04020573 0.035630107 -0.020236215 -0.13200341 -0.08527562 0.27991918 -0.20575543 -0.09113349 0.05533822 0.09949077 -0.22584696 -0.12666157 0.068204455 -0.065124705 -0.025695229 0.019173041 -0.37646806 -0.12318885 -0.37145284 -0.38189796 0.17467503 0.018868798 -0.0642639 -0.09238118 -0.16822195 -0.017587021 -0.0019289951 -0.02115028 0.25599876 0.07158741 -0.13410982 0.029955935 -0.075579666 0.09489126 -0.12723772 -0.015669072 0.012194976 -0.17053974 0.18015075 4.0134997e-05 -0.2365873 0.042671293 -0.100890845 -0.18336895 -0.02904609 0.2340177 -0.25559014 -0.27419207 0.072116815 0.20859948 -0.073828585 -0.0075454535 -0.045699388 0.08813705 -0.020771055 -0.21219684 -0.2181903 0.18298799 -0.16025001 0.19541597 0.18191642 -0.20319697 0.096893564 0.20169507 -0.18303758 -0.08149033 0.21940756 0.29772145 -0.13440971
279 0.219484 -0.3265089 -0.20826279 0.32569298 -0.021788562 -0.110575676 0.016786022 0.0218741 0.26050738 -0.04821681 -0.054217026 0.16204496 -0.09473806 0.07569951 -0.063949205 -0.034588855 0.3099092 -0.034620818 0.123587884 0.13784459 -0.18253674 0.1342036 -0.23600565 -0.09131277 0.12800215 -0.03209767 0.15998979 0.18299629 0.1869961 0.11281206 -0.031382844 0.22391346 -0.21252987 0.08486836 -0.16756983 -0.106302775 0.03971761 -0.0871938 0.17019473 -0.13640329 -0.030586911 0.053564947 -0.21419913 -0.13236967 0.34557942 0.0063933106 -0.06237578 0.12071376 -0.1439308 0.20830716 0.13821419 -0.17496729 -0.40545988 -0.13654561 -0.13571766 0.124708846 -0.017665206 -0.001482023 -0.058936425 -0.13910799 0.12415548 0.054439694 -0.059897203 -0.2411647 -0.109716155 0.048598193 0.026047654 0.12029363 0.12539726 0.10027921 -0.10851017 -0.03598407 0.06262964 0.24358581 0.384355 -0.16980629 0.02379478 -0.15299639 -0.18131335 0.22268212 0.24530457 -0.16601162 -0.3025593 0.04214469 0.12327487 0.24470328 -0.0933386 -0.13668656 -0.009217479 -0.019246548 0.0022966634 -0.079556316 -0.036030345 0.01574621 -0.085487865 -0.047941722 -0.009305529 0.4879968 0.04928394 -0.007591312 -0.16622762 0.17512833 -0.13864268 0.28970274 0.059019506 -0.045288447 -0.07375826 -0.24766557 0.51995486 0.16818841 0.14222945 -0.20447151 -0.01876284 0.014566345 -0.24869132 -0.6151234 0.108779944 -0.15915053 0.36450633 0.18351783 0.00011339838 0.018804349 -0.013043643 0.026953548 0.0024682032 0.10099079 -0.036739353 -0.13900776
170 0.21846041 -0.26267716 -0.01870893 0.17997585 0.021102073 -0.06468214 0.18101098 -0.21473683 -0.05025075 0.18584219 0.14603922 0.33124673 0.13915153 -0.06758429 -0.054378573 -0.12514664 0.2988615 -0.015086412 0.11763645 0.23460244 -0.06431445 -0.05108884 -0.2886601 -0.12862235 0.066899315 0.13270333 0.017457727 -0.0740178 -0.12683699 -0.02276076 0.118992046 0.024940781 -0.12041583 -0.11454049 -0.033250004 -0.25939253 0.06371889 0.072648875 0.015515763 0.014084425 0.14193092 0.14338452 0.025559098 -0.15218122 -0.035665065 0.085146055 -0.47062865 -0.029019015 -0.0990606 0.0569982 -0.19028041 0.13776489 -0.12583442 0.11072349 0.20159812 -0.15369737 -0.012735663 0.19467047 0.17302556 -0.02678848 0.05050017 -0.0135186985 0.14154457 -0.4818002 0.08727583 0.046288565 0.09496184 0.08988975 -0.024031341 -0.10850284 0.12858453 -0.023949211 -0.0053046583 0.06470412 0.21056643 -0.08015128 -0.23502454 0.18281196 -0.11479439 0.15313034 -0.020474842 0.028813355 0.06598912 -0.015712291 0.007905542 0.22389555 -0.050402384 0.09687098 -0.018617734 -0.21783857 0.05660656 -0.0059984624 -0.070624106 -0.27941614 -0.088846974 0.1471837 -0.10935811 0.12093298 -0.19235153 -0.14353986 0.013349214 -0.1013404 0.09667907 0.29320002 0.060432777 0.10000122 -0.0723691 -0.086465746 0.40255946 0.054310232 0.05729159 -0.010326822 -0.090828754 -0.15919767 -0.26226652 -0.2771099 0.2119993 0.25205824 0.15174377 0.16120104 0.18533513 0.18221729 -0.037039258 0.018992804 0.325154 -0.16291061 0.05661584 0.3358308
3 -0.2586504 -0.47775075 -0.009852374 0.20006461 -0.11160139 -0.21884178 0.2135232 0.08162815 -0.08723397 0.14775203 -0.15947528 0.37647986 -0.37834102 -0.035381693 -0.15350968 0.1391882 0.2594403 0.018491969 0.32836914 0.3979637 0.17755423 0.052409492 -0.14385657 0.11938424 -0.072062254 -0.011675266 0.01126084 0.3157173 -0.087784305 -0.13120502 -0.32646456 -0.16420457 -0.29865882 0.031845167 -0.021326795 -0.09742482 -0.009014306 0.11549909 0.14021717 -0.25313354 0.23892787 -0.030191021 -0.10005308 -0.34420422 0.0914395 0.18903685 -0.26357588 -0.2197332 -0.17811415 0.1853428 -0.41895017 -0.01747141 0.1443166 -0.28452843 0.14672546 -0.109119095 0.15599337 0.34020045 0.19489141 -0.03587057 -0.08607259 -2.0796107e-05 0.080029495 -0.31822756 0.026827846 0.105412506 -0.11069335 0.06883491 -0.015298404 0.24510214 0.016675632 0.05086276 0.17475896 0.16100667 0.029262112 0.010389131 0.014770326 -0.28918067 -0.25421417 -0.112529665 0.0043884995 0.017432507 -0.17525123 -0.10258156 0.13523084 0.044010084 -0.1403722 0.011101143 0.012937173 -0.38093507 -0.23972337 -0.10941721 0.21047793 -0.0858721 0.036849447 -0.05751328 0.16391703 -0.12515274 -0.097841725 0.0013083335 -0.21952808 -0.26741365 -0.049974956 0.0857025 0.14361912 0.29630417 -0.079764344 -0.068096854 0.5713647 0.20554508 0.2676799 -0.1737847 -0.22867559 0.21135111 -0.22052616 -0.3927957 0.16510974 0.09721176 0.29252493 0.19132823 0.11168473 0.049591176 0.062431786 0.20373155 0.10880295 0.1425295 -0.1487474 -0.153834
485 0.16219817 -0.069496915 -0.010697495 0.24574538 0.03923396 0.0550304 0.034575086 -0.1541551 0.04568235 0.08159797 -0.026227599 0.11964505 -0.20614225 0.21632 0.19836853 0.08781628 0.3993132 0.13959707 0.20063378 0.1797139 0.2123513 0.01201306 -0.11057725 0.009149562 0.21135318 -0.21322487 -0.054273937 -0.26316857 0.14511639 -0.033803437 0.32401773 -0.03802833 -0.26064315 -0.012290535 0.083659835 0.04134435 0.19034165 0.17534497 0.0039536455 0.15575232 0.006259945 -0.05342426 -0.21883203 -0.1894029 -0.03772128 -0.0143203195 -0.25651154 -0.00788609 0.043317664 -0.012487548 -0.1149068 0.2844324 -0.12071499 -0.19046834 -0.18566218 -0.021108814 -0.12282818 -0.07895356 0.08633299 -0.10026388 0.0008545548 0.0034296277 -0.085916005 -0.11304619 0.027083546 -0.003526151 -0.2064757 0.082257956 -0.27114797 -0.25071883 0.06295792 0.1080093 0.16376962 0.11392622 0.013638273 -0.22836453 0.0042281942 0.004519148 -0.18161538 0.550819 -0.19123048 0.15198457 0.0069103455 -0.11701033 -0.24422145 0.07821926 0.030482907 -0.021942522 -0.08474218 0.011719794 -0.017741537 -0.048241097 0.0715483 -0.019061998 -0.17915562 0.24428137 -0.05311666 0.2500996 0.14661567 -0.101026885 0.013759871 -0.12583289 0.007804663 0.35245678 0.03171823 0.15600087 -0.07040681 0.17138574 0.3514305 0.040113673 -0.12961106 0.007445433 0.3372635 -0.11377185 -0.40522218 -0.50552565 0.09391745 0.26961523 0.28950787 -0.22656648 0.01755904 0.1910787 -0.07519534 -0.118077345 0.48743367 0.043229125 0.013411321 0.21163428
116 -0.03686136 -0.18371053 0.12195216 0.063347176 -0.0025770606 0.034513887 0.17533317 -0.10265711 -0.07680546 0.26262948 0.1364474 0.36073306 0.021247998 -0.017362282 -0.15468875 -0.08980949 0.1129863 0.15529989 0.2519886 0.038293853 0.04860142 -0.05268165 -0.23639481 -0.22972572 0.050819688 0.064286225 0.202958 0.13013965 -0.15053882 0.0025669266 0.066344604 0.011501234 -0.21776968 0.10469171 -0.0956019 -0.1524396 0.14668946 0.038951404 -0.1507987 -0.09083275 0.03130085 0.037235 0.19720401 0.020572294 -0.014153477 0.18209212 -0.48627105 -0.042326022 -0.017834296 -0.12770838 -0.23072366 0.08078488 -0.1311125 0.081121564 0.22926627 -0.17025168 -0.2635574 0.02061242 0.23633553 0.109273575 0.0021996005 -0.28871903 0.2506981 -0.42653683 0.036694784 -0.091585115 0.05984351 0.0768842 -0.07072073 -0.2576623 0.15447648 0.08381605 -0.046459425 0.019253086 0.23109879 -0.22575755 -0.0378809 0.09843061 -0.11533454 0.10065601 0.00013143239 0.16856323 0.073985 0.005749184 0.07000583 0.3122457 -0.14398618 0.27874446 -0.11914721 -0.1571286 0.1785979 0.12687492 -0.12949134 -0.20323093 -0.13867594 -0.0076254853 -0.073611386 0.14848529 -0.3165571 -0.012742568 -0.07682136 -0.08851212 -0.054676764 0.38331065 0.011267283 0.09647747 0.023331271 -0.14382933 0.5050652 0.23360057 0.1504071 0.088678844 -0.094197124 -0.1693078 -0.34193677 -0.28078026 0.35458615 0.2623374 0.19513601 0.068095624 -0.046941094 0.2539597 -0.06517989 -0.1405551 0.28487325 -0.0076739257 -0.005963792 0.23655623
82 0.2768591 -0.07458591 0.084547706 0.2529079 -0.36187387 -0.044335056 0.13854429 -0.16285658 0.18580872 0.07462932 -0.065289035 0.092164725 0.027575035 -0.006657241 -0.030569967 -0.08917502 0.36783576 -0.11195626 0.20822363 0.25130832 -0.0225981 -0.25008532 0.017175293 -0.07733124 -0.07876911 -0.06646867 -0.061953615 -0.10721168 0.25711972 0.26225716 0.008646952 0.0059752287 0.0066414494 0.0021820122 -0.12852868 0.03352543 0.16960117 0.20647556 -0.3443074 -0.15341322 0.048561286 -0.23407163 -0.038575426 -0.3265263 0.15218177 0.04025696 -0.18662304 0.039835222 -0.15759355 0.33024067 -0.12744866 0.10843341 -0.075545944 0.006833919 0.114193715 -0.18203294 -0.17300595 0.23230432 -0.35519257 -0.21953459 0.21240634 -0.12635425 -0.08553664 -0.27092087 0.020193052 0.06816773 -0.09897493 0.05296325 0.13426805 -0.015321348 0.041596394 0.09927558 0.10445941 -0.07332157 0.07885116 -0.2861995 -0.10343321 -0.2560762 -0.18458827 0.24979222 -0.1320049 -0.13549557 0.12400853 -0.10225777 0.1253804 0.072365716 -0.0952768 0.0288715 0.041813586 -0.09911704 -0.02665161 -0.17685044 -0.3523282 -0.038469587 -0.13480489 0.06844004 -0.1615695 -0.00038660012 0.1638183 -0.05162144 0.010348594 0.06294789 0.01706265 0.17252806 0.007759654 0.05736882 -0.25352883 -0.0813699 0.31796995 0.16532981 -0.28877178 -0.19321305 0.124264486 0.07018357 -0.2516313 -0.468065 0.38715345 0.24405909 0.22080566 -0.06062912 0.30398357 0.21903843 -0.036160324 -0.14706886 -0.04815617 0.085372485 0.23963234 0.13983503
394 0.07281371 -0.24699858 -0.29906142 0.34721622 -0.43939108 0.10342043 0.2246988 0.15967026 0.0050358786 -0.16567056 -0.23897587 0.20193328 -0.21441625 0.26424396 -0.058400862 -0.12338592 0.058240455 0.06835029 0.35638776 -0.17090647 -0.08743078 -0.02842466 -0.4937185 0.40871522 0.06219033 -0.07901956 0.07576831 -0.32632497 0.2534493 0.33196455 -0.07339324 0.2411403 -0.18891644 0.29118666 0.031382874 -0.033541534 0.105739206 0.0796317 0.07866264 -0.1935462 0.11907114 0.01297692 -0.23048493 -0.079156056 0.13515146 0.035046156 -0.21425821 0.09192725 -0.20302983 -0.27872157 -0.23919746 -0.22285923 -0.31661895 -0.15989889 -0.1468881 -0.065734215 -0.096528634 0.12629846 0.13373119 -0.008270075 0.08365708 -0.23098609 -0.18541032 -0.4763126 -0.12042742 -0.17141707 0.09054074 0.08395647 0.0018113753 0.05348782 -0.13947323 -0.07964283 0.035584394 -0.0023065628 0.23266737 -0.30612928 -0.07754781 -0.0066838013 0.060297154 0.09609003 0.2656308 -0.061577693 -0.24630304 -0.11198893 -0.22309448 0.112746306 -0.5189721 -0.0627732 0.12651289 -0.030998137 -0.084272906 0.04240752 -0.17620708 -0.08880833 -0.11511439 -0.120217726 -0.20719258 0.14165653 0.065622784 0.14502259 0.021209108 -0.23486713 -0.24272163 0.23337327 0.1548777 -0.08446679 -0.035757016 -0.14233427 0.25873485 -0.3545131 -0.06459811 0.002727729 -0.028591264 0.115341075 -0.106694706 -0.38817865 -0.07398327 -0.14153375 0.14443274 0.12180814 0.050110478 -0.107732214 0.15559879 0.018546727 0.102154784 0.26789126 -0.1372283 -0.41194472
18 0.20318435 -0.09891273 -0.2962538 -0.013412296 -0.6115137 -0.015888143 0.28831917 -0.14440319 0.17281175 0.058497656 0.013105566 0.5476887 -0.16130549 0.15396531 -0.064685084 0.10010775 0.030701218 -0.064908944 -0.11559499 -0.0014668454 0.07434197 -0.26772 -0.3832609 0.27404866 0.029747898 0.037308574 0.1084467 0.09978463 0.20460981 0.30398366 0.10854336 0.2192314 -0.3410944 -0.041125618 0.16565758 -0.05030263 0.05295381 0.16051732 -0.061482318 -0.05578437 0.10797419 0.3398046 0.14786705 -0.18905859 0.05637879 -0.011225643 0.06377783 -0.022653416 -0.09762224 -0.056490928 -0.016868789 -0.45995829 -0.35328424 -0.29922575 0.10843396 0.16155481 -0.2865175 -0.16687518 -0.06678935 -0.08333008 0.08549952 -0.038906787 0.35480577 -0.09502134 0.09799283 -0.21046586 0.253012 -0.15623477 0.1323209 -0.14362854 0.03092203 0.016720409 -0.10268398 0.30705404 0.1133741 -0.4673817 -0.17635384 -0.18341489 -0.01587592 0.04339253 0.40030223 0.1965488 -0.126985 0.12556511 -0.17060204 0.3067157 -0.2506066 -0.04496676 -0.04866132 0.06664372 0.19670954 -0.01865872 0.09609785 -0.023600059 -0.086397715 0.121629596 -0.27540445 -0.25576058 0.35461554 -0.061918374 -0.10369408 -0.23826888 -0.10013913 -0.019784927 0.4065205 0.065853074 -0.0011172168 0.09828122 0.15523791 0.0099973725 -0.24085283 -0.18242797 -0.061301894 0.049931195 -0.22398247 -0.26258063 0.17116866 -0.057991248 0.0080724 0.1654693 -0.0740009 0.08033533 0.31537244 -0.015051371 0.07686717 0.056663748 0.323543 -0.22641335
410 -0.22695515 -0.098279916 -0.118208505 0.06811508 -0.09973092 -0.1265745 -0.015214351 -0.017925818 0.045264434 0.2574178 -0.19115521 -0.0049462994 -0.31771985 -0.028066516 -0.19687106 0.119275704 0.050977297 0.1055221 0.304851 0.6383614 0.13498703 -0.020184893 -0.2795393 0.3907359 -0.15406378 -0.11376159 -0.030472463 0.090669036 -0.08639828 -0.05537057 -0.04739686 -0.09135749 -0.17721848 0.041335776 0.20615613 -0.10312675 0.13106988 0.22313356 0.1275504 -0.20393883 0.14563501 0.10746284 0.030381767 -0.23001866 0.05307712 0.020430831 -0.24677108 -0.1559036 -0.058371346 0.26710922 -0.42061645 -0.070090756 -0.02751181 -0.29065397 0.028264416 0.077497475 0.12961067 0.17870636 0.16683604 -0.03714754 -0.14954601 -0.07035651 0.04111697 -0.16422637 -0.14013016 0.15049173 -0.21458386 0.09375898 0.07585701 0.11456905 -0.0018745583 0.09201213 0.27033895 0.40541223 -0.13268907 -0.21510011 0.20389071 -0.22193886 -0.15308794 0.038419873 0.03475541 0.24365063 -0.3256466 0.029403435 0.11849776 0.065014936 -0.03651513 -0.20163324 -0.018312894 -0.23331465 -0.06766771 -0.21622063 0.22151083 0.07281397 0.0020110449 -0.24396518 0.25309423 0.12998149 0.21645091 -0.060580432 -0.08638773 -0.100849636 0.068301775 0.001999686 -0.04520536 0.2668106 -0.22436434 0.034057565 0.5382872 0.44639 0.05176671 0.23039737 -0.14323393 0.3667538 -0.43472657 -0.37780276 0.112723954 0.15831728 0.24292459 0.1511606 0.061410904 0.16322812 0.16565585 0.07533656 0.17662051 -0.014279851 -0.017127696 -0.17739162
7 0.16864039 -0.23383264 0.16980839 0.00998244 -0.11685319 -0.042162646 -0.040021215 -0.20811324 0.06916723 0.04398149 -0.055271797 0.027345033 -0.32097107 0.21691513 -0.09852316 0.19686002 0.36930475 -0.09958378 0.55564183 0.2671958 -0.0008536982 0.045142073 0.0015047207 -0.24717171 -0.088496625 -0.29279083 0.08731442 -0.14356488 -0.0042282306 -0.20310917 -0.15643856 -0.15242189 -0.29481736 0.07146193 -0.15320936 0.0013448889 0.016498048 0.3230398 0.11142226 -0.00083714514 0.047448434 0.034109473 -0.08611287 0.09251127 0.027979484 0.032678995 -0.42009354 -0.06354756 -0.13579507 0.06271106 -0.3261945 0.14412622 0.1570513 -0.14830858 0.046787247 -0.24045016 0.07681528 0.047286063 0.090294905 0.0031189502 0.005280774 -0.03800137 -0.13507542 -0.41755483 -0.23179862 -0.044228822 -0.093582325 0.09266614 -0.1438965 0.16258931 -0.32824728 0.13089952 0.43071592 -0.20623513 0.18151078 -0.12112887 0.19303665 -0.085500896 -0.20122807 -0.07043348 -0.14402622 0.14624302 -0.13230088 -0.089630224 -0.060195647 0.18087932 -0.18547353 0.022393985 -0.1349485 -0.22550657 -0.1606277 0.10275214 -0.12956183 -0.21221793 0.0011148506 -0.1252328 0.023183137 -0.02915464 0.16381319 -0.015671698 0.027538754 -0.27938378 0.3647187 0.11286505 -0.14793727 -0.11503713 0.15140218 0.18358551 0.46293893 0.12725846 -0.12193187 -0.11375791 0.009717538 0.332773 -0.22832207 -0.5053512 0.26347727 0.21216561 0.48940292 -0.08581664 0.07026712 0.30093232 0.13484946 0.16001473 0.0935862 0.052214548 -0.1255755 -0.19728105
300 0.17833005 -0.2201988 0.0046529802 0.07063277 -0.21057306 -0.17186287 0.02565803 -0.16405116 -0.030843996 0.21166244 -0.030648861 0.28535718 -0.115316585 -0.018924264 0.07866022 -0.11438692 -0.13734262 0.11654217 0.20495287 0.36522642 0.108178906 -0.15417485 -0.17217599 0.12090653 -0.2081785 -0.17831287 -0.005643892 0.16837981 0.08110532 -0.17351772 0.12192121 -0.016927062 -0.14720526 -0.04906231 0.25678566 -0.23875254 0.0013024171 0.21500206 0.02763432 0.011604343 0.11820608 -0.11384719 -0.040900353 -0.42094162 0.093324035 -0.036503293 -0.24161014 0.07214142 -0.2586919 0.25194502 -0.3434653 0.09011135 -0.072266184 -0.13802627 0.2739794 0.03538202 -0.15827939 -0.028895134 0.14107527 0.07885732 -0.118426695 -0.12583224 0.11006947 -0.08531833 0.12019717 0.10898509 -0.33274043 0.11946573 0.023008687 -0.07553875 -0.053032067 0.10430076 -0.04906708 0.06288059 -0.015090459 -0.09957498 -0.04111741 -0.14231823 -0.16462676 0.09896434 -0.1686438 -0.11983342 -0.053807892 -0.19020523 0.044218715 0.05952694 0.011388602 -0.2336982 -0.0048375265 -0.15741414 -0.07635576 -0.20200615 0.09366085 -0.16153936 -0.28244323 0.15585673 -0.19980419 0.06784639 0.13019586 0.008471506 0.009616205 -0.2275041 -0.0046638087 -0.083564475 0.12744541 0.24791154 -0.13498054 0.04944723 0.38221034 0.05366631 0.05657066 0.13858947 0.09340274 -0.008952646 -0.05688312 -0.31474042 0.27373618 0.22468263 0.06705689 0.055852447 0.12836947 0.2822579 -0.00075120945 -0.061180692 0.13685974 0.12895386 0.105843745 0.12527974
29 -0.03859831 -0.13103725 0.069293454 0.09063407 -0.051033758 -0.09295056 0.24439311 -0.09757227 -0.03838823 0.16528662 0.20063992 0.1965011 -0.15875822 0.026046209 -0.19263044 -0.12287286 0.2722489 -0.12359902 0.025810212 0.2498 0.06251587 -0.25341964 -0.46851775 -0.2243708 0.30151907 -0.2451888 -0.014155223 -0.14383273 -0.07131281 0.079814784 0.35856864 0.110093154 -0.17295013 0.15130247 -0.0063733705 -0.34586498 0.31245866 0.21117885 -0.021785403 0.19204557 -0.08353545 0.09751911 -0.019592337 -0.25891083 -0.119832024 -0.02879138 -0.27458706 -0.14500232 -0.14519754 0.10608814 0.04838453 0.34612185 -0.17723216 0.15635605 -0.030840578 -0.1070094 -0.19483092 0.07214441 0.17971465 -0.09599479 0.155102 -0.22883987 -0.0856204 -0.10173812 -0.008199487 0.00024031781 0.008657913 0.08477658 -0.09091242 -0.20789304 0.08691656 0.14130652 -0.014194463 0.23873673 -0.028341595 -0.41837648 -0.09696751 0.29415607 -0.04604124 0.23081857 -0.15438868 0.0713945 0.16254298 -0.08734546 -0.14319505 0.102748506 -0.056715228 0.25290632 -0.241476 -0.019693037 -0.0014391512 -0.07676866 -0.032219995 -0.12060073 -0.12373808 0.13895516 -0.24753118 0.17224097 -0.18678518 -0.25547206 -0.19693546 -0.3271381 -0.029847378 0.18169029 0.29896528 0.16608168 -0.024989577 -0.06748425 0.44462815 0.18634899 0.061051305 0.0140892295 0.15276147 -0.2016753 -0.29225734 -0.2588615 0.28047916 0.09202844 0.19887711 0.10782372 0.022910208 0.21310677 -0.13900504 -0.2067262 0.07612264 0.010075293 0.19776516 0.14964864
22 0.057637956 -0.051014036 -0.044480775 -0.015660252 -0.13434191 -0.19551474 0.25020567 0.02872644 0.08411838 -0.017748598 0.009575354 0.17751499 0.11984088 0.33345655 0.14612776 0.09701171 0.22086103 -0.1515618 0.053046357 0.27142772 -0.1692527 -0.0054048295 -0.31231424 -0.06161367 -0.20787379 -0.19542782 0.22850361 -0.124597095 0.08457235 -0.11858602 -0.09390123 0.24243413 0.08924666 -0.33667788 -0.08662379 -0.25218692 0.1622669 0.30961943 -0.10262753 -0.13696402 -0.15151547 0.20263892 0.18360892 -0.12950599 -0.10560353 -0.07967812 -0.09344306 0.024388107 -0.190798 0.23805831 0.103616886 -0.0058794036 -0.30890912 0.07756076 -0.12318465 -0.18106125 -0.57166904 0.35475892 0.023051357 -0.06549322 0.18107177 0.23210022 0.07646037 -0.4895627 0.23356815 0.035919003 0.017210534 0.1792275 -0.09695084 0.015661301 -0.15352379 0.11578359 -0.03102394 -0.025884325 0.3078594 -0.41295603 -0.07583362 -0.28579387 -0.12683593 0.43095773 -0.1225341 0.020836158 0.044419758 -0.20980805 0.022121275 0.24300063 -0.24967228 0.039852764 0.12511092 0.0073549054 0.36113453 0.081678584 -0.15080892 -0.18562503 -0.09759803 0.017794494 0.07761124 -0.021995962 -0.087489225 -0.164727 0.030892944 -0.004091268 0.13563746 0.14572401 0.271368 0.073721044 -0.12841918 0.082175836 -0.030867362 0.14402165 0.11796512 -0.006296449 0.15207343 -0.061134826 -0.13195449 -0.114514135 0.16497362 0.11228068 0.12788402 -0.009457279 0.1374872 0.14954504 0.45181882 -0.18369381 0.15235142 0.13410792 0.16505925 -0.07596731
330 -0.002933923 -0.2773093 0.0012682469 -0.08498314 -0.0049685 0.13707563 0.33045918 0.048498612 -0.13608743 0.18132176 -0.007915198 0.38704503 -0.24349362 0.02483395 -0.06750188 0.0044810106 0.0633189 -0.016454 0.2603707 0.11631382 0.14792527 -0.04390158 -0.20998815 0.12132427 0.23008142 -0.3162213 0.18774818 -0.08425728 -0.19186196 -0.1875176 -0.15702686 0.23919232 -0.07123435 0.20684056 0.03886451 -0.1655067 -0.08291465 0.252255 -0.0014591612 -0.045852356 0.06505261 0.23693506 0.030446684 -0.14737554 0.12035292 0.049284082 -0.25392744 0.23759179 -0.18764625 0.21958959 -0.19238262 0.021001551 -0.18763381 -0.025364269 0.1410724 0.028607277 -0.19530173 0.36223423 0.20993763 0.23639862 -0.18087001 -0.25706497 0.049601723 -0.58901405 0.19859007 -0.05174179 -0.043152396 0.14309902 0.18788698 -0.14743751 0.2047773 0.06494539 -0.13877021 0.13593638 0.28427064 -0.08105737 -0.10062953 0.16479497 -0.24805236 0.307059 -0.071869865 -0.10464501 -0.12141975 0.104123466 0.15044218 0.31748646 0.015410129 0.08721587 -0.11955395 -0.08853345 0.029325355 0.16060495 -0.0786819 -0.12680796 -0.26770487 0.09867602 -0.35694623 0.2740116 -0.2429873 -0.08357898 -0.27939445 0.08440464 -0.31111372 0.27150005 0.048426107 -0.10075008 -0.12907699 -0.19381571 0.22576135 0.24180204 -0.008896445 -0.19076043 -0.043417588 -0.020706238 -0.18259394 -0.23316771 0.36359888 0.1583829 0.088650264 0.009978769 -0.17609969 0.19136968 -0.050736498 -0.09581142 0.2147293 -0.0065602027 -0.19936179 0.26066875
45 -0.17184643 -0.031030612 -0.017579783 0.1292345 -0.03083162 0.13082029 -0.042862967 0.10681982 0.099859536 0.19167165 -0.08240601 -0.22231564 -0.107374355 -0.10663115 0.10436154 0.06626531 0.2732794 -0.10173139 0.20437753 0.25212875 -0.0866705 -0.016986368 -0.1604377 0.04837906 0.20328094 0.0043677543 -0.016080491 0.045682177 -0.07217558 0.099602476 0.26164523 -0.029280605 -0.196519 -0.045698263 -0.025057869 0.0030222472 0.3884502 0.178528 -0.16803461 0.1639116 0.004226053 -0.057840515 0.009651158 -0.33476284 0.08415303 0.12887509 -0.22153649 -0.024753017 -0.14471221 0.291441 -0.016432451 0.05327972 -0.3738509 0.027923811 0.28900853 0.10559414 -0.19874404 0.20031348 -0.09029349 -0.08390033 0.04116834 0.0026414003 0.17311381 0.09636717 0.3276308 0.3541161 -0.20627913 0.05392674 -0.07242871 0.02427948 0.03104795 0.1354928 -0.0486955 0.012064593 0.16219334 -0.5125792 -0.046111323 -0.3750217 -0.22339787 0.11902242 -0.14315338 0.13274263 0.21361077 0.049626533 -0.026950654 0.45708153 -0.19250704 0.0063480115 0.0939678 -0.06644513 0.07284029 -0.1698683 -0.039134376 0.08695481 -0.15980347 0.11645939 -0.0030379822 0.048305094 0.19318311 -0.19413307 0.093717165 -0.01107205 -0.09402679 0.29545036 0.1446754 0.09886668 -0.1476122 -0.16259219 0.44876742 0.14790823 -0.057630636 0.143651 -0.28510386 -0.071590945 -0.19487868 -0.37368107 0.09493915 0.07599882 0.013893471 0.009114405 0.28358617 0.10687689 0.0653812 -0.22906098 0.10665016 -0.07371482 0.077115856 0.050326783
97 0.078413725 0.12271288 -0.21877581 -0.13053288 -0.018584276 0.045100108 0.13557199 -0.33126926 -0.21334401 0.24732503 0.10757824 0.4263054 -0.17121255 0.09025083 0.026767131 -0.011649367 0.04787436 0.25325522 0.3465122 0.27032456 0.023080006 -0.09023772 -0.25075847 0.18537642 -0.21787995 -0.026672373 0.13948044 -0.10190837 -0.33250594 -0.18494135 -0.068420224 0.02993219 -0.16206087 0.10450829 0.15060732 -0.33596644 -0.030617472 0.20482549 0.020349558 -0.03751981 0.07691889 0.033261556 0.05795542 -0.36791685 -0.065766506 -0.0058743563 -0.486108 0.0933723 -0.105529346 0.147772 -0.2436906 0.19430663 0.08547789 0.115077585 0.34754002 -0.025826214 0.114285514 -0.012189929 0.2656207 0.26301196 -0.17650585 -0.232088 0.22592968 -0.6054053 -0.059257388 -0.059873633 0.050348986 0.12506992 0.191273 -0.25342163 0.12510142 0.16509691 -0.0330101 0.12903981 -0.0074188095 -0.13750853 0.12854604 0.32879543 -0.26886126 0.25671375 -0.01950183 -0.11078981 -0.093783304 -0.13980205 0.22266574 0.22956765 -0.033244256 -0.08660277 -0.0908562 -0.12521426 -0.08058003 0.161903 0.055782467 -0.35171336 -0.16012785 0.030541878 -0.050951738 -0.008953706 0.053701494 -0.09508839 0.03965264 -0.04741553 0.09123037 0.07888735 0.031151934 0.055665527 -0.104139894 -0.09126779 0.43012834 0.44641516 0.1440086 0.08544137 0.14908406 0.09123321 -0.18878637 -0.039220218 0.44597492 0.4922845 0.15370059 0.060872912 0.24185713 0.20755915 0.21832812 0.06587049 0.18840663 -0.075629465 0.05091744 0.20315237
208 0.05735309 -0.20675798 0.22690138 -0.021156715 0.14121974 -0.19673508 -0.056136254 -0.04579373 -0.041471224 0.08313199 0.022828415 0.41872203 -2.9059418e-05 -0.04895793 0.18943422 -0.048654296 -0.16424122 0.15478112 0.0064790756 0.19659972 -0.14507917 -0.043111823 -0.21098593 0.15653025 -0.01367007 0.059969515 0.012729908 0.21096994 -0.1345501 -0.16494618 -0.034665197 -0.0686015 0.19883338 0.024046 0.03096777 -0.06850996 -0.06643425 -0.049878117 0.0840423 -0.17244798 -0.0017506932 -0.22403878 -0.21977271 -0.09267322 0.12528384 0.13845396 -0.2881548 -0.3018002 -0.16479862 0.19049045 -0.37365934 -0.245597 -0.03339778 -0.35957268 0.3141625 -0.17282909 -0.24389458 0.33655962 -0.1542959 0.0653341 -0.11093961 -0.23711266 0.26511428 -0.46588588 0.20837012 0.082506776 0.06619718 0.010854206 0.10466312 0.38735393 0.05699034 -0.16889066 0.09649313 0.106853835 0.27185604 -0.66159755 0.2126773 -0.276515 -0.3656553 0.0042104707 -0.123607725 -0.24221142 -0.28147727 -0.2525752 -0.08509874 0.075122066 -0.06577825 -0.39780593 0.1964251 -0.2066127 -0.1915999 -0.27299124 0.12918565 0.06557787 -0.13221525 -0.097986855 -0.25732422 0.09827472 0.09807476 -0.18720134 0.054943476 -0.18579854 -0.13280344 -0.102741264 0.068788804 0.23754449 -0.13960198 -0.06896279 0.26182333 0.24291492 0.1841906 0.01360539 0.16578823 -0.042059697 -0.121899664 -0.41064167 0.08883647 -0.017890172 0.24373882 0.14655146 -0.055261362 -0.017458446 0.31593555 0.10407938 -0.2154661 0.03941234 0.14294407 -0.36661097
173 0.23545013 -0.24392352 -0.27016488 0.016300082 -0.30934218 -0.16913007 0.34474236 0.04116928 -0.086805664 -0.013185258 0.031847745 0.3324458 -0.08853894 -0.04421138 -0.06789235 -0.09648382 0.26979125 -0.16281514 0.1826935 -0.16625087 0.16427484 0.045343477 -0.2400159 0.20359732 0.2552648 0.023675771 0.0020269402 -0.091269486 -0.018324193 -0.26316205 0.041995794 -0.015082036 -0.27059305 0.013402352 0.030957226 -0.33825406 0.38096902 0.29216653 0.25667858 -0.10260915 0.084556974 0.038433764 0.018148568 0.20501098 -0.07121342 -0.08205841 -0.071038604 -0.05766923 -0.12326224 -0.15419385 -0.25469446 0.1352064 -0.20020525 0.066976294 0.108109966 -0.13561453 0.058382332 -0.11986582 0.07291681 -0.07503023 -0.076675005 -0.058953747 0.053622507 -0.36091793 -0.008747319 0.120445326 0.279562 0.13883764 -0.20137589 -0.13160715 0.030003373 0.25843206 0.17242964 -0.10909938 0.18289088 0.14965326 0.18983364 0.16718839 -0.13358985 0.16646667 -0.05969059 -0.15581098 -0.11832367 0.01960313 -0.2920984 0.2939278 0.016711785 0.04120111 -0.18428342 -0.2006278 0.112183526 0.19053511 -0.07286271 -0.08736686 -0.321926 0.19927135 -0.31732118 0.26023698 0.07425576 -0.0942894 -0.08106579 -0.1700925 -0.052163664 0.3981684 -0.021548714 0.22776824 -0.22339804 -0.19493039 0.3064906 0.023984011 -0.008310082 0.04991218 -0.29233637 -0.20567094 -0.09501339 -0.30841845 0.22958563 0.047508713 0.12764493 0.03271038 -0.035239033 0.28802437 -0.031981904 0.16958752 0.072228946 -0.027694212 0.10240235 0.13417156
5 -0.17888607 -0.46698713 0.030395517 0.22397384 -0.1174672 -0.20787764 0.12940075 0.009677498 -0.04828535 0.24344428 -0.10896833 0.29948136 -0.32785574 -0.018246386 -0.06826874 0.05372541 0.48677462 0.029024785 0.30091223 0.28755113 0.06017752 -0.09394116 -0.14098932 0.026319776 -0.0766049 -0.06537129 0.019331453 0.23925388 -0.07271982 -0.13100113 -0.18190673 0.02029136 -0.08628339 -0.04770605 -0.058563784 -0.09017051 -0.019468214 0.18474242 0.054509506 -0.23088504 0.2348399 0.05612915 0.03619428 -0.2891415 0.21356516 0.22338913 -0.26287037 -0.31045252 -0.07658772 0.24108309 -0.30631208 0.17659068 0.13329926 -0.2154646 0.03439921 -0.035137396 0.1902259 0.2949113 0.2088621 0.007062763 -0.03753639 -0.101721846 0.041677315 -0.41141394 -0.19022648 -0.07169184 -0.09189296 0.0504223 -0.06092495 0.3072372 0.060009062 0.04007966 0.16274543 0.20404005 0.053258877 -0.22293712 0.019668542 -0.26938072 -0.354553 0.018391432 0.032642968 0.0085559385 -0.19450554 -0.117612734 0.09614721 -0.008307994 -0.09435326 -0.07876785 -0.07685018 -0.25735712 -0.15870836 -0.12552425 0.26276717 -0.1859286 0.11345787 -0.061313864 0.11080896 -0.06035474 -0.069091566 -0.0963514 -0.08767332 -0.37208918 0.05244549 0.066126116 0.0199526 0.16186625 -0.05396115 -0.039603364 0.5317187 0.28195894 0.11870125 -0.15100671 -0.115180284 0.21336244 -0.2708012 -0.34217995 0.27632213 0.18828975 0.27160075 0.036743023 0.16427079 0.0870424 0.036607914 0.21059681 0.13085294 0.07332061 -0.040114447 -0.06294415
14 0.3319998 -0.023444347 0.10570834 -0.13792214 -0.21157256 -0.17929874 0.14232951 -0.012867737 -0.29822272 -0.15386571 -0.08119549 0.3390947 -0.16847226 0.21954584 -0.06571121 0.011495747 0.04327292 0.2684737 0.094477646 0.035389308 -0.0373935 -0.13154328 -0.46185663 0.19893545 -0.0018841486 -0.32333 -0.14725499 0.10449476 -0.12284279 -0.1397727 -0.05325348 -0.017669452 -0.075814575 -0.1042918 0.2637868 -0.26139247 0.35860005 0.13006242 0.12360656 0.191359 0.097508624 -0.055259563 -0.08754227 0.107007235 0.044908803 -0.075900696 -0.13378008 -0.1458335 0.004080854 0.097423024 -0.23521623 0.043180186 -0.24390581 -0.062466096 0.24911927 -0.25670028 0.1867394 0.41599405 -0.05240664 -0.23899062 -0.011367639 0.13387361 -0.19594458 -0.41900304 -0.36046207 0.12980738 -0.22103484 -0.15033251 -0.27160946 -0.0998391 -0.0706246 0.22909945 0.14955276 -0.5574809 0.053565335 0.040528014 -0.06055537 0.040959533 -0.15121004 0.15145762 -0.124767326 0.07807466 -0.15812823 0.0062934947 0.036751658 0.18224432 -0.06913747 0.121764466 0.41032743 -0.3498806 -0.048057623 0.04322831 0.13770385 -0.19503352 0.1638081 0.097734205 -0.07907171 -0.22191449 0.081063256 -0.21506657 -0.04595286 -0.07173898 0.12518309 0.28281656 -0.064026386 0.22093047 -0.33771488 0.46799734 0.14214128 -0.16430478 -0.03987581 -0.28737873 0.21252021 0.15554193 0.017301582 -0.39738438 0.33829 -0.2390655 0.22117874 0.20440167 0.0703668 0.06887398 0.23153259 -0.17185372 0.2777965 -0.044809684 0.45157307 0.07958951
62 0.19250719 -0.12563653 -0.24037287 0.27640846 -0.46969825 0.07361702 0.28625926 0.12421092 0.0630457 -0.17202748 -0.16285256 0.23798764 0.020192284 0.24194004 -0.17616607 -0.0905819 -0.048598334 0.021960577 0.28358898 0.08959944 -0.25891182 0.14911209 -0.4058299 0.4353417 0.29146922 -0.09586205 0.1127498 -0.34345293 0.053308394 0.18258847 -0.05117841 0.20128484 -0.35754386 0.2864067 -0.026533863 -0.18959807 0.30311918 0.032776497 0.21063788 -0.09000429 0.24685371 0.07294919 -0.047567993 0.10378295 0.14525639 0.116587415 -0.3261437 0.095369495 -0.08971575 -0.20275551 -0.32377544 -0.0037221378 -0.41687444 -0.19883808 -0.2030165 -0.07605424 -0.14570817 -0.21032484 0.080842115 -0.17324443 0.09054175 -0.0076254867 -0.11827295 -0.258841 -0.096380316 0.110761195 -0.11702349 0.14445141 -0.20625123 0.1391559 0.045729663 0.23098373 0.024478735 -0.1687296 0.25808248 -0.25052056 -0.05012206 0.09075362 0.070362784 0.123422205 0.035469167 -0.07243581 -0.32232127 -0.027477775 -0.23832391 0.2570081 -0.4960403 -0.07165615 0.13237588 -0.17548768 -0.13542226 -0.03619547 -0.24890037 -0.23577026 -0.023982042 -0.18874744 0.09516105 0.36074725 0.1677806 0.065507464 0.024053678 -0.12358492 -0.34886646 0.30854943 -0.028379612 -0.088914864 0.09399959 -0.22842105 0.3717352 -0.13498296 0.0077568428 0.14643376 -0.06901834 -0.14182436 0.004404653 -0.20670426 -0.14738347 0.012499517 0.09246389 0.2407262 0.10118272 0.0838399 0.17990035 0.003383051 0.21314064 0.07040137 -0.23208994 -0.28539544
117 -0.028163003 0.04844183 0.14548878 -0.10542029 0.07524397 0.09692558 0.094749786 -0.15782309 -0.17645785 0.16695395 0.12437016 0.30594364 -0.06397347 -0.037208997 -0.029345227 0.06308118 0.10130963 -0.001606659 0.11827636 0.20245369 -0.028327761 -0.15290092 -0.41695976 -0.04898841 0.2898819 0.1255709 0.18208498 0.057538603 -0.29998523 0.0991841 0.14665285 -0.25310418 -0.32461002 0.29520535 -0.055165 -0.18161951 0.11385086 0.13395806 -0.15285736 0.078338824 0.19977793 -0.03763984 0.03160827 -0.08695807 -0.16752967 0.16556604 -0.5389309 0.12638518 -0.009926456 -0.08226625 -0.29539087 0.06105263 -0.14816393 0.06143491 0.1923592 -0.17637824 -0.18407795 0.22150934 0.15026052 0.1194225 -0.024397476 -0.3558607 0.21086349 -0.45185468 0.24104884 -0.034550026 0.34155828 -0.017571552 -0.023504259 -0.27715567 0.33288676 0.14419596 -0.03156693 0.054725893 0.23443997 -0.37226108 0.021472022 0.3692635 -0.031813696 0.20201182 -0.06732843 0.24347925 0.07217504 -0.12037485 0.040589094 0.17465171 -0.1319401 0.100430965 -0.15591428 -0.26515493 0.029582253 0.15003599 -0.113673836 -0.434497 -0.17454085 -0.030688222 -0.08873316 0.13812129 -0.3282426 0.033100028 -0.1957194 -0.09344916 -0.13840024 0.22148725 0.055182368 -0.08458929 -0.12546518 -0.07077418 0.37001494 0.10908321 0.07258928 -0.02405928 -0.001990734 -0.09745408 -0.34457514 -0.22621267 0.33169514 0.29236543 0.18084244 0.057080332 -0.15620777 0.37213382 -0.0034417934 -0.30738238 0.26095083 -0.06912266 0.15141341 0.11301167
181 0.062213384 -0.19439507 0.11343408 0.17891215 -0.26923633 -0.014881395 0.12112536 -0.18698154 0.047846537 -0.015702866 0.029147781 0.3621032 -0.20235717 0.41415104 -0.114690125 0.11601328 -0.13605793 -0.09536429 0.13792458 0.020839958 0.0011754585 -0.17493385 -0.35918635 0.23359467 -0.09530529 -0.39855942 -0.055113915 -0.08254928 -0.10383007 0.33644974 -0.16515821 -0.007488894 -0.006684281 -0.08152141 0.3934747 -0.010605682 0.24403864 0.012610437 0.12810867 -0.27217054 0.039128304 0.14113857 -0.002885573 0.05731663 -0.08987101 -0.39692622 -0.10169301 0.087127484 -0.2306489 -0.12493932 -0.39187518 -0.1220793 -0.26155108 -0.114995584 0.30532157 0.0027543795 -0.024519073 0.25656697 0.08598082 -0.18785757 -0.041724212 -0.13458356 -0.3257658 -0.07023733 0.03380207 -0.10511973 0.044378184 0.18695293 0.13280787 0.18408965 -0.4064159 0.20653751 -0.10976383 0.103740916 0.15772848 -0.5151536 0.014967823 0.0639456 -0.36991033 -0.018811708 0.21668859 0.07668883 0.055122014 -0.19966346 -0.4372291 0.41277376 -0.06761133 0.10157986 -0.074562445 -0.39837652 -0.27501932 0.16637082 -0.07926824 0.019740684 0.014664907 0.012732238 -0.21009806 -0.028846335 -0.27054584 -0.07314848 -0.0633636 0.1874617 -0.041231416 0.3792102 -0.04450078 -0.24422896 -0.007216887 -0.20140067 0.3255795 -0.27376032 -0.09263444 0.1566624 0.095877096 -0.08333837 -0.22536765 -0.5291722 -0.29972497 -0.19902821 -0.0114063965 -0.0069367993 -0.005440998 0.21926185 0.0075483453 -0.020318266 0.022983667 0.017429585 0.2469664 0.24514455
61 0.19063115 -0.11710876 -0.22224404 0.250482 -0.43192464 -0.09743595 0.11811305 -0.05738524 -0.033863373 -0.17573768 -0.020072589 0.32342288 -0.049886134 0.24732526 -0.021259418 0.047133006 0.05182587 -0.012873383 0.24831954 -0.028048296 -0.27154732 0.020346066 -0.48031193 0.33496076 0.25216275 -0.060180746 0.11394873 -0.37066904 0.038831342 0.31234667 0.0012982762 0.20105995 -0.30793387 0.29942268 -0.020910716 -0.18092565 0.32426926 0.07645444 0.21930265 -0.11761991 0.17798759 0.06725317 -0.31038436 0.04671527 0.14490989 -0.020091172 -0.16683777 0.064742215 -0.099132806 -0.111364566 -0.3789887 -0.20509736 -0.31776804 -0.29178333 -0.31194198 -0.09543999 0.017408984 0.068092294 0.1159078 -0.124212734 0.28538865 -0.1226163 -0.20313789 -0.2856208 -0.16968064 -0.09532961 0.29322076 0.04003692 -0.032820687 0.24268284 -0.06376199 0.10070993 0.13112819 -0.14580081 0.17140381 -0.31931654 -0.09573249 0.26622865 0.019616354 0.07940345 0.08300918 -0.076696984 -0.17045432 -0.02848145 -0.18820299 0.33411002 -0.5875151 -0.09816758 0.07473154 -0.19934689 -0.27573806 0.02181791 -0.2644425 -0.22308856 -0.08845513 -0.19638592 -0.153101 0.3676699 0.047559287 0.065282434 -0.15577112 -0.13705006 -0.21044527 0.43835968 0.09662265 -0.107081644 6.766715e-05 -0.27842847 0.40796152 -0.27464274 -0.0055776923 0.06287482 0.0023488672 -0.0336439 -0.12563075 -0.27681112 -0.18598779 0.047699977 0.10127008 0.21934034 0.059478782 0.082515426 0.1300344 -0.051973138 0.20905426 0.07735818 -0.11450597 -0.33889505
252 -0.107562006 -0.20265672 -0.008999484 0.0025889773 -0.15055418 0.05992998 0.13571319 -0.0868209 0.049885936 0.3208987 -0.1440736 0.37854245 -0.25484 0.04234321 -0.109274805 -0.017394785 0.051143177 0.07173298 0.40159038 0.12344217 0.21905893 -0.15277505 -0.17501846 0.11420183 -0.15006644 -0.16667783 0.12715165 0.27642465 -0.102773674 0.03388008 -0.18355882 -0.05025339 -0.06635671 0.03562561 0.18758531 -0.22005233 0.097047746 0.25613537 -0.13810694 -0.081722885 0.05376866 -0.034007855 0.076396644 -0.2707482 0.07410208 -0.11876641 -0.15827446 0.07727515 -0.14895004 0.26607823 -0.27530742 -0.025991892 -0.07696071 -0.23680681 0.26219213 0.08294851 -0.22851372 0.27470034 0.34936568 0.2884419 -0.14160015 -0.049297832 -0.031301703 -0.39952523 0.01683071 -0.14789037 0.022200521 0.13928206 -0.069157824 0.13770339 0.029605249 -0.008005037 0.020931548 0.15958795 0.14144047 -0.23554854 -0.040155217 -0.1577852 -0.30065948 0.16213958 -0.0906066 0.025359018 -0.057849772 -0.29054186 0.10085046 0.019401964 -0.066229075 -0.038137477 -0.05205461 -0.2515711 0.07119619 -0.14702135 0.18607956 -0.13657519 0.042820573 0.0019660424 -0.010715544 -0.23074365 -0.026552074 -0.18037432 0.083099455 -0.17057483 -0.09556813 0.037375305 -0.09071789 0.05259573 -0.16618527 0.06448262 0.3685494 0.13257247 0.034082048 0.26787356 -0.013095563 0.19460313 -0.27375358 -0.5052449 0.28711936 0.22650118 0.105632834 0.12551245 0.07457152 0.00829158 0.027272673 0.080132976 0.04427199 0.21646705 -0.13131887 -0.09632619
107 0.07915167 -0.22817078 -0.024425881 0.32314116 -0.0063930373 -0.13364103 0.123099774 -0.17072651 0.25434792 0.0436425 -0.054554477 0.30351523 0.06233865 0.2520129 -0.033814657 0.09655847 0.31862143 -0.2557874 0.0341812 0.26215956 0.05942251 -0.18226285 0.04415471 0.020180017 -0.0018608508 -0.087121636 0.007683503 -0.07456088 0.4614233 0.20580548 0.066330835 0.046086945 0.013728414 0.010420015 -0.2858387 0.031096948 0.069665395 0.104189314 0.0034930746 -0.24424711 -0.08215381 0.058988538 0.026174104 -0.16283841 -0.07252032 -0.038808793 -0.23846118 0.023158241 -0.03565685 0.16034567 0.12029012 -0.15478918 -0.35556147 -0.16098791 -0.057960153 -0.14203015 -0.52804154 0.16873191 -0.033705253 -0.11525469 0.023932114 0.09979669 -0.09886678 -0.28479543 0.17423253 0.047659416 0.033217467 0.12325794 0.071663156 -0.24002413 -0.12695049 0.32020363 0.123057276 0.34593624 0.2689618 -0.4250417 0.0083745895 -0.2218111 -0.19061494 0.27447468 0.20000082 -0.06315153 0.10857693 -0.03437969 0.08505503 0.35040653 0.07419997 0.020154966 0.010989629 -0.10500305 0.25019738 -0.056553006 -0.41039446 -0.18076484 -0.1765989 0.057769835 -0.06976343 -0.08214407 0.12310793 -0.088886924 -0.014721959 0.11608443 -0.2194276 0.2267869 0.15172479 -0.027581086 -0.0075117843 -0.24078576 0.21464944 0.12511715 -0.014701346 0.08692599 0.34308958 0.027292997 -0.21838857 -0.4454925 0.008393868 0.22527492 0.14148702 -0.0017437738 0.04662344 0.12993571 0.14957452 -0.39435434 -0.029791784 0.12690958 0.14207184 -0.0662658
65 0.28022626 -0.032860544 0.08810354 0.09503124 0.15164773 0.15343022 0.057976432 -0.063464954 0.036285028 0.16971114 -0.05957734 -0.1877998 -0.037671734 0.068739325 -0.0941715 0.21166137 0.20109761 -0.12339791 0.21730815 0.09535507 0.17075887 0.16309376 -0.2868102 -0.2535717 -0.33296198 -0.1369595 0.18760458 -0.15633577 0.04368445 -0.19203873 0.31413355 -0.024458047 -0.21049178 0.18514101 -0.18751472 -0.18126623 -0.108013004 0.14591661 0.046724066 0.3366915 -0.009403482 0.15233082 -0.004586252 -0.04805565 -0.1931026 0.061458066 -0.5900973 0.07246291 -0.12636481 0.08955627 -0.16021922 0.210648 -0.20058645 -0.0075187944 0.2025676 -0.020624518 -0.122874126 -0.35503536 0.12764122 -0.02513156 0.12914222 -0.42040303 0.03290807 -0.25280717 -0.13390078 -0.05490026 0.008944564 0.20508292 -0.16460766 -0.036027607 -0.2235353 0.21584317 0.15370946 0.03944526 0.30386487 -0.030364966 0.021066831 -0.1482897 -0.079880446 0.26473212 -0.2454899 0.21407275 -0.050383247 0.14717288 -0.12310181 0.33075374 -0.42682445 0.034392256 -0.23360963 -0.091972545 0.019908467 0.17585671 -0.031064237 -0.07603848 -0.2590627 -0.17158362 -0.056376107 0.03599114 0.0049403408 0.12651937 0.10815913 -0.28856227 0.3381753 0.13308972 -0.01113793 -0.011406048 0.0022217352 0.04351226 0.23599286 0.06370186 0.29172954 0.036027607 -0.081134 0.0035044705 -0.40923187 -0.55923283 0.14082888 -0.1557247 0.31895918 -0.022302756 0.17154065 0.20951308 0.32891786 0.21078064 0.3301353 -0.08698036 -0.16833767 -0.36214358
191 0.14019918 -0.094952606 0.05331207 0.07348574 -0.22123982 -0.027282527 0.14660934 -0.31062388 0.023988092 -0.2111175 0.19332723 0.21199062 -0.33000737 0.26238316 -0.20478705 0.17465688 -0.15966322 -0.08417168 0.1707723 0.13516939 -0.26856336 -0.016706882 -0.41937953 -0.010275269 0.13508639 -0.29591668 0.021387037 -0.073412776 0.07011376 0.31793082 -0.008415017 0.004903053 -0.14349757 -0.22473128 0.2862377 -0.104250684 0.32677567 -0.03974177 0.23706974 -0.1966568 0.10035667 0.034555677 -0.19713555 0.1964459 -0.0034653386 -0.37714708 -0.29547626 0.060366943 -0.20338902 -0.100059815 -0.43375963 -0.123146 -0.25511464 -0.15046404 0.15142761 -0.033333153 0.099263825 -0.005063958 -0.02702993 -0.3976727 -0.25166753 -0.14234224 -0.18332687 -0.12613678 -0.18248951 0.10211304 0.046292607 0.2622877 0.08886199 0.21540599 -0.4908021 0.10460152 0.09120673 0.09848462 0.033504322 -0.31307915 0.20653117 0.05590274 -0.30819708 0.024616674 0.24900165 0.17366508 -0.118054755 -0.058602154 -0.34266543 0.5454883 0.01718996 -0.012448107 -0.12770547 -0.48172626 -0.47816125 0.3073083 -0.037263393 0.09181761 0.0703392 -0.08227348 -0.24146254 0.10873451 -0.1193634 0.15085445 0.06874217 0.1845296 0.05036133 0.32206437 0.09696328 -0.078855924 0.18887703 -0.14095457 0.4850398 -0.21148598 -0.12607014 0.07841484 -0.04294809 0.035270277 -0.10540337 -0.47485638 -0.14803329 -0.1723337 0.22953598 0.10476217 0.06739771 0.25151455 0.20933597 0.20337835 -0.053309612 -0.13054618 0.23013715 0.14802049
298 0.5270762 -0.15424532 -0.2512346 -0.0186484 -0.18408354 0.039831527 0.30191174 0.20810395 -0.20499115 0.16633146 -0.10369509 0.4906273 -0.019929804 0.12991315 0.12808971 -0.124088615 -0.2070308 -0.022102255 0.25001794 0.28070047 -0.08916234 0.11157644 -0.30443287 0.200607 -0.0728144 -0.21168129 0.2587607 0.0786058 -0.027403869 0.009651831 0.002590268 -0.072004735 -0.20398685 -0.061378803 0.05529609 -0.35492194 0.13316298 0.35789958 0.030110277 0.23763299 0.28078747 -0.11964323 -0.15598728 0.12007692 -0.115273215 0.09741543 -0.024500756 0.30953035 0.07954308 0.0004392928 -0.469096 0.1995138 -0.22924522 0.048781507 0.28651607 0.09003267 -0.09225096 -0.14110883 -0.04760484 -0.036981247 -0.17180762 -0.018790204 -0.06082384 -0.45614794 -0.24712916 0.15799187 -0.28748623 0.04871993 -0.21256386 -0.31059107 -0.07937391 0.3237501 0.19483829 0.14554724 -0.14904514 0.060320225 -0.007366051 0.18968238 -0.11465632 0.5662542 -0.3789798 -0.06634023 0.14280814 0.042121056 0.24382462 -0.0065641254 -0.047293756 0.008862199 -0.028597236 -0.096919775 -0.11987552 -0.11325484 0.2815386 -0.031855136 -0.13108648 -0.045937378 0.07219027 0.372658 0.08702703 0.1391472 -0.28295082 -0.41676575 -0.4152389 0.1381209 0.27288064 0.14387345 -0.35464504 -0.10832486 0.07731098 -0.032210935 0.18579938 -0.19728239 0.12678257 0.124229655 0.007691449 0.035740834 0.12460907 -0.2571627 -0.055409253 -0.047080852 0.18644837 0.1781942 0.4476645 -0.445941 0.15290743 -0.07670175 0.263725 -0.1310494
278 0.41452453 -0.388462 -0.22499223 0.34321773 -0.12874433 0.06537429 0.04615799 -0.42224357 -0.27194494 -0.08235191 0.037223697 0.17960738 -0.42302316 0.065367214 0.016638963 -0.03507517 0.14222366 -0.03329415 0.12494428 0.111692555 0.04251207 -0.17150359 -0.19829705 -0.19334136 0.032425985 0.3520927 0.018104333 0.24705847 0.32778955 0.3003248 0.33227164 0.15939982 -0.011313786 -0.09139557 -0.015667034 0.026524216 0.08571519 -0.1512148 0.005611741 -0.104835674 0.12200441 -0.034074724 -0.2712794 -0.021821447 -0.10319347 -0.20267254 -0.04025381 0.061005767 -0.12259925 0.020936241 0.034444455 -0.214671 -0.23594287 -0.11158401 -0.0812133 0.08881575 -0.032765307 0.07284506 -0.25814977 -0.0078021786 -0.20369542 -0.2888233 0.1531109 -0.12761891 -0.06653628 0.05177908 -0.1863298 -0.033092752 0.07687469 -0.18035682 -0.28992844 0.27651802 -0.3029841 0.013039804 -0.061785873 -0.3893113 0.2854064 -0.36891192 -0.38819173 0.53640294 0.24680609 0.20737976 -0.17204814 0.16589308 0.27855715 0.32105812 0.01566668 -0.1478514 -0.031217223 0.19297266 -0.14016718 0.08190907 0.026933115 0.15384264 -0.05395517 0.05381194 0.048058834 -0.104499556 -0.053644795 0.18239161 -0.10045546 -0.12550393 -0.008142967 0.020778703 0.088414356 0.11308622 -0.0029697097 0.04439427 0.108678 0.21766442 -0.05853383 -0.12727022 0.15900616 0.397979 -0.21578047 -0.35039932 0.2344563 -0.035155196 0.22369547 0.28775164 0.029111082 0.08517291 0.0952074 -0.04127335 0.06955014 -0.25628203 0.2320184 0.03271663
405 0.04998771 -0.20014739 -0.10879589 0.21923876 -0.13375051 -0.0785024 0.2862508 0.21131447 -0.15839517 -0.1464904 -0.2508577 0.16407612 -0.40921053 0.14062114 0.33940244 -0.069684565 0.30605936 -0.13179258 0.058998786 0.15683512 0.113725 -0.046954285 -0.4334639 0.035659008 -0.28213385 0.042201072 0.36379993 0.030378371 0.25852928 0.3652625 0.2198506 0.25153986 0.13315888 -0.13825732 0.019745661 -0.020669905 0.131025 -0.025842603 0.0109486515 -0.22877473 0.075600185 0.23825216 0.1381448 -0.084362336 0.019153573 -0.13373138 -0.30794266 -0.022589656 -0.25316238 -0.10064107 -0.089783676 0.027928783 -0.16599022 0.058080383 0.1413076 -0.08782064 -0.072390005 0.15869778 -0.040871363 0.28696546 -0.09260111 -0.43823788 0.24614574 -0.102406815 0.07481821 0.027877113 -0.3277287 0.32564873 -0.026572747 -0.1393098 0.09126805 -0.08159155 -0.270632 -0.15032357 0.31150898 -0.3012674 0.12499788 -0.09730218 -0.3223309 0.10973288 0.1485506 0.06301565 -0.011891385 -0.20013675 -0.0071703135 0.06877554 -0.07490867 -0.25717142 -0.021774128 -0.0052874433 0.025705643 -0.039740734 0.15482396 -0.07538141 -0.16722776 0.32531345 -0.11035752 0.008687339 -0.16696338 0.21885793 0.24337642 -0.38991594 -0.0036044512 0.21606609 0.20129181 -0.019619288 0.130849 -0.25611216 0.32867926 -0.0493437 0.19238095 -0.19388734 0.052695956 0.19638585 -0.11504533 -0.2250258 0.13088833 -0.25368214 -0.04970801 -0.16861503 0.18060538 -0.10080262 0.010577189 0.20405823 -0.023179099 0.19608095 0.32561702 0.044358093
114 0.26350474 -0.21177828 -0.11893977 0.022933958 0.006335658 0.056461252 0.17824247 0.0017043842 -0.30289054 0.34065396 0.01964084 0.32941055 -0.23219499 0.042934295 -0.006695274 0.10112433 -0.038473565 -0.0061566085 0.051512275 0.1309227 0.032268055 -0.15911596 -0.252583 0.15349601 0.19902301 -0.25419492 0.28712595 -0.21897633 -0.2854513 -0.14873828 0.09055007 0.23039643 -0.121341 0.17611142 0.06436764 -0.23230813 -0.032334074 0.2564776 0.0103341555 -0.042899895 -0.12095164 0.25003794 -0.06808017 -0.123516925 -0.042791445 0.06560799 -0.14862998 0.11298743 -0.2949407 0.07400519 -0.049789455 0.055203564 -0.076622516 0.05716991 -0.08913096 -0.16895425 0.017983586 0.37051892 0.011901205 0.13515624 -0.043631222 -0.31204188 -0.15813385 -0.43464717 0.11092049 0.016126031 0.168098 -0.19401911 0.28129795 0.052531302 0.26401442 -0.01625399 0.037347827 0.10215903 -0.01303609 -0.2672112 -0.20838806 0.3290498 -0.21170557 0.44794002 -0.18501318 -0.10025427 0.07118233 0.019149387 -0.00037135143 0.2797913 -0.10837478 0.08502277 -0.08811575 -0.04300729 -0.21615794 0.17482923 -0.111493975 -0.09938045 -0.31843483 0.15646426 -0.32758626 0.35867184 -0.2000934 -0.16228677 -0.50860834 -4.1525785e-05 -0.12759782 0.32143468 -0.03147038 -0.1057356 0.09084322 -0.1844655 0.30515808 0.2566366 -0.13183038 -0.050239272 -0.028152782 -0.08100114 -0.19719143 -0.06211898 0.46175754 0.14822969 0.061915465 0.10106038 -0.09208185 0.27899274 0.019872185 -0.05110121 0.31415796 -0.09534226 -0.08354903 0.27985612
31 0.011440095 -0.2591639 0.06563481 0.11659797 -0.08168337 -0.085372604 0.23005372 0.017094234 -0.11577907 0.044775795 0.012671032 0.39138135 -0.18386808 0.058532465 -0.20505309 0.034115206 0.17271622 0.041327134 0.012819106 0.044166695 0.012953774 -0.26000813 -0.38347146 -0.28386468 0.32698414 -0.18552803 0.10736757 0.030714372 -0.22113922 0.087178454 0.24282129 -0.06318059 -0.2156035 0.2709818 -0.0025746273 -0.2282235 0.28403178 0.23770945 -0.02453078 0.054744206 -0.15100136 0.12073585 -0.023463523 -0.11682445 -0.2873027 0.09531356 -0.35217884 -0.25706095 0.08651157 0.06859416 0.137251 0.26645187 -0.2632139 0.052893486 -0.11733581 -0.14516947 -0.018005192 0.08576048 0.17817926 -0.10616915 0.15869506 -0.29956713 0.04228441 -0.40074977 0.016976317 -0.11358403 0.09729534 0.07055399 -0.108392216 -0.23994851 0.18185116 0.3040158 -0.096185476 0.2680093 0.080133185 -0.5545638 0.059790928 0.36325863 -0.14876753 0.28793812 -0.14507039 0.10256817 0.026126156 -0.07880007 0.003546981 -0.014058355 0.01631574 0.36903915 -0.12867834 0.05865455 -0.018106218 -0.14729774 0.28454602 0.010106404 -0.08588857 0.009330716 -0.124185905 0.25089264 -0.4441399 -0.31362924 -0.25300372 -0.21116401 -0.042308733 0.30987993 0.30429184 0.104790375 -0.041180126 -0.10638959 0.3237154 0.14750822 0.16895474 0.004017493 0.0039412333 -0.113314115 -0.33457878 -0.14466727 0.3957417 -0.058219787 0.3061214 0.030300098 -0.025080226 0.28040913 -0.045155756 -0.15196003 0.14979455 0.03919894 0.18288895 0.05313709
6 0.23261616 -0.076814696 -0.12543273 0.027703736 0.058699477 -0.09552289 0.12032417 -0.39200288 -0.020474372 0.14577456 -0.02777609 0.15614529 -0.26657066 0.12652442 0.050067153 0.33988556 0.13097474 0.056092933 0.22801909 0.30847326 0.045894418 0.20857273 0.026642632 0.0063958396 -0.28674892 -0.27894706 -0.10260708 0.22347334 0.13313136 -0.11164681 0.13370559 -0.14950944 -0.2385907 -0.13862161 0.058143873 -0.021534583 -0.22509272 0.17355159 0.2352058 -0.1205913 0.12371409 0.1820664 0.03261671 0.35369462 -0.25846693 -0.22641842 -0.35786933 0.111537136 -0.061619382 -0.020856716 -0.16377807 0.08766974 -0.07767918 0.072371416 0.14980213 -0.24185726 0.013902998 -0.08850411 0.122010775 -0.22803554 -0.25653377 -0.08550818 0.29218787 -0.2572994 -0.03696228 0.05225717 0.008367972 0.01672694 -0.039629 0.031808935 -0.09929488 0.1332519 0.23805568 0.23895402 0.32531542 -0.21696611 0.12108565 0.06473184 -0.18369803 0.19663675 0.16266167 0.18886417 -0.36586067 -0.0014558394 -0.084051974 0.24381138 -0.19717894 -0.23512536 -0.2267205 -0.12444872 0.078485146 0.23682669 0.057607748 0.020376986 -0.03258345 -0.004411163 -0.042746168 0.06362799 0.14599125 0.067097105 0.0045418604 0.1477642 0.28733853 0.026749477 -0.08772338 -0.06336305 0.013443745 0.13323933 0.40556908 0.44597757 -0.082085826 -0.014006071 0.164798 0.30278596 -0.39688668 -0.3875373 0.114891894 0.08713301 0.2353855 0.12543932 0.14162782 0.28704458 0.40474975 0.42829698 0.21552755 -0.03898126 0.36156225 0.0634795
281 -0.08888363 -0.26539585 -0.1662858 0.3269399 -0.14720142 0.01606669 0.25776142 -0.019826777 0.06270094 0.25727418 -0.13967218 0.32363504 -0.06802406 0.1190687 -0.05838063 -0.026246367 0.04978164 -0.045988098 0.32091007 0.17935483 0.27563548 0.07869364 -0.18995525 0.3054693 -0.2774303 -0.24752168 -0.017966885 0.18645659 -0.11674498 0.010644175 0.07264519 0.0031149113 -0.20274547 -0.14611252 0.17322148 -0.2373517 -0.059705667 0.27305862 0.10696408 -0.10998086 -0.02130693 -0.15310043 0.044326644 -0.31824386 -0.006102733 0.14856243 -0.26304927 0.028751263 -0.14768758 0.3313848 -0.31807104 0.18287149 -0.07578965 -0.2617778 0.2516811 0.08194183 -0.03644887 0.19972695 0.25437763 -0.16676289 -0.077734254 -0.26505598 -0.054336973 -0.084740266 -0.0012805699 0.26499847 -0.21841307 0.14133786 0.03231528 0.04364046 0.03232247 0.12278802 -0.037615433 0.3406857 -0.110648684 -0.24382171 -0.005109266 -0.13159263 -0.07889045 0.1890124 -0.07640769 0.019160565 -0.27835205 -0.18979713 0.16646187 -0.12371455 -0.03447497 -0.1395895 -0.044839323 -0.37254408 0.09596187 -0.0020686863 0.16528012 0.1381949 -0.09718898 -0.022788519 0.13998662 -0.14759396 0.16958424 -0.051291794 -0.046242602 -0.022029852 -0.06260836 0.1644694 -0.15237877 0.2921151 -0.17171116 -0.03823226 0.5803718 0.32946888 0.12260142 0.19501148 -0.025735637 -0.00086766505 -0.31080168 -0.23084809 0.13882302 0.17435497 0.095905095 0.20745486 0.16133709 0.17808607 0.118763015 0.011847136 0.11462916 -0.062388074 -0.161406 -0.04769241
15 0.1781598 -0.26990327 -0.5060391 0.19194241 -0.18122299 -0.29018825 0.2676185 0.074837975 0.12533794 -0.07319332 -0.0626896 0.056740116 -0.2537986 0.32211947 0.122530416 0.030443218 0.12713946 -0.06948697 0.22750902 -0.08925264 0.16456687 0.058987297 -0.16044585 0.5186376 0.21657161 -0.14362398 -0.19662373 -0.285295 0.08051063 0.13363001 -0.009515536 -0.030802667 -0.42292792 0.16884543 0.16164047 -0.009389689 0.32264116 0.11359976 -0.16322416 -0.087523565 0.2852661 0.13128701 -0.120394126 0.060990147 0.042708166 -0.043695897 0.111269675 0.010015623 -0.03443376 0.008903231 -0.28467777 -0.21882825 -0.48611343 -0.34742355 -0.1258925 -0.03146662 0.011217011 -0.026624601 0.1441167 -0.3015295 -0.011113944 -0.060762305 0.18407291 -0.007517358 0.015318536 0.2199314 0.07596772 -0.045536112 -0.011494615 -0.005079223 0.3946501 0.16146982 0.04422964 -0.14500539 -0.07813134 -0.28463477 0.14907117 0.27550587 0.1612542 0.18489476 0.14998117 -0.0005447378 -0.17123029 -0.10058489 -0.27615926 0.19979408 -0.39632952 -0.06127506 0.10325302 -0.24502541 0.055388268 -0.05329812 -0.294475 -0.1391426 -0.0062937564 0.30337518 -0.19113036 0.5603392 0.31731182 -0.2140063 -0.053182587 -0.017587887 -0.27102682 0.44892687 0.04683875 0.10236559 0.05209098 -0.024173593 0.27401257 -0.043740198 -0.25566027 0.10781342 -0.2019884 -0.113315344 -0.26327538 -0.15533604 -0.059773702 0.07554229 -0.0113933515 0.113739535 0.0638207 0.13477884 0.079180926 -0.08455791 0.22104955 -0.1728332 0.0034108248 -0.097729325
256 0.059337776 0.0026808453 -0.04833398 0.16741072 -0.27040985 -0.11249462 0.16832595 0.061949227 0.11026692 -0.1026629 -0.07966582 0.051103912 -0.17742349 0.09823492 -0.17579389 0.046436664 0.30324373 -0.08577874 0.05712277 0.26707107 0.03304743 -0.025775326 -0.22528133 0.040873807 -0.046971202 -0.07453781 -0.12161664 0.09071459 0.14844713 0.05120102 0.1091828 -0.044215087 -0.20704673 0.05985823 0.021230385 -0.22470054 -0.082626015 0.112977505 -0.17711093 -0.20476305 -0.09950394 -0.0060786437 -0.20250374 -0.24249764 0.06775849 -0.15782939 -0.19643177 0.1573735 -0.16003591 0.25362852 -0.20130017 -0.28154302 -0.268421 -0.19596574 0.16370611 0.13625604 -0.28900746 0.28770497 0.0227791 -0.22047062 -0.06972476 -0.28072095 -0.11309011 -0.22908951 0.17764363 0.22216366 -0.13204008 0.11481787 0.20521747 -0.060398713 0.003179198 0.032702684 0.04257232 0.22264111 0.15268731 -0.11969772 0.023713695 -0.2129286 -0.21942638 0.2891317 -0.109155215 -0.1057946 -0.22421533 0.003280437 0.24306996 0.10270674 0.070506044 -0.07479443 0.054333553 -0.19672652 0.34526628 -0.08425787 -0.24331984 -0.047432303 -0.08936363 0.16513559 -0.00014780245 0.2830346 0.08528001 0.034243748 -0.16630092 0.15737386 0.04156662 0.21621776 0.18443036 -0.056470834 -0.40516368 -0.1748539 0.05416379 0.19668604 -0.15586022 -0.11594144 0.07181883 0.03993687 -0.23317936 -0.43619534 0.35826337 -0.1456295 0.10854302 0.08342938 -0.06915789 0.2007774 0.17952974 -0.20332892 -0.09588958 -0.065027215 0.2859049 0.26488987
206 0.034207243 -0.3194293 0.007561064 0.041650515 -0.41384822 -0.46054032 0.18690757 0.052150484 0.023827836 -0.021975607 0.13390198 0.18758804 -0.06261193 0.15881944 -0.040223848 0.044358395 0.2146719 -0.31831494 0.054982677 -0.20362152 -0.083857805 0.08359573 -0.189786 0.12925087 0.2407149 -0.11455769 -0.027605306 -0.098536074 -0.12233425 0.33736104 -0.005418938 -0.032076456 -0.3739213 -0.05268266 0.09630895 -0.15523146 0.4679049 0.10630664 0.13466169 -0.4148665 0.2149066 0.24511394 0.20977911 0.058925405 -0.22286545 -0.110760234 -0.19469552 0.04809079 0.3224238 0.16303273 -0.05484033 0.06575882 -0.27638924 -0.08214221 -0.04884605 0.09224051 -0.13776785 0.015562661 0.29282776 -0.49769992 -0.17127612 -0.30262998 0.3840312 -0.128036 0.007373586 0.1130319 0.113143004 0.14772221 -0.22060126 0.29139435 -0.17383003 0.1954483 0.13547939 0.01869522 0.01896535 -0.24973516 0.46384674 0.17004661 -0.21734174 0.36678377 -0.088609435 -0.16784935 -0.084932484 0.06780022 -0.44505182 0.20086844 0.045613196 -0.033406086 -0.2918538 -0.118776925 0.1229722 0.027506217 0.04708314 0.17196111 -0.064960204 0.0479503 -0.59778154 0.3316165 -0.16974927 -0.30074108 -0.16214819 -0.09140237 -0.34252447 0.4481054 0.36746293 -0.09489019 -0.23281696 -0.07212131 0.59319824 -0.088341154 0.000420904 -0.024132222 0.18675233 -0.034014046 -0.2533203 -0.27918467 -0.050926186 -0.011991864 0.07125902 -0.033724662 0.035044573 0.42243734 -0.25153625 0.11152877 -0.12989087 -0.027497368 0.3036673 0.26438624
267 0.27347445 -0.22725347 -0.07991355 0.15002114 0.026746593 -0.083017394 0.26514643 0.1862936 -0.12676741 0.047320955 -0.0103126615 0.4324411 -0.30654928 0.06640741 -0.10329465 0.07168519 -0.1330553 0.008148487 0.2963138 0.35989258 0.22273776 -0.2554769 -0.265626 -0.033515383 -0.0047471575 0.005907208 0.12578876 -0.027613271 0.13745806 0.23169057 0.35976788 0.04566173 -0.23899986 -0.05389588 -0.112436086 -0.06251728 -0.11683454 0.1509326 0.08101718 -0.15239471 -0.07978441 -0.096525624 0.16362597 -0.057274356 -0.21556102 0.0428613 -0.20428382 -0.10326521 -0.17580597 0.09343817 -0.4526254 -0.08184667 -0.17392261 0.113791876 0.07003432 -0.096880704 -0.6648618 0.13405173 0.17054832 0.22469115 -0.1511837 -0.43046257 0.08268461 -0.056991424 0.25714603 0.10457019 -0.23292688 -0.0021608067 -0.14783092 -0.12669395 -0.19830544 0.047873016 -0.10030409 0.015960392 0.3752891 -0.45482492 -0.048431598 -0.32662526 -0.25343135 -0.11634182 -0.061680906 0.023292864 -0.09857485 -0.168917 0.06880169 0.01257017 -0.24307339 -0.30338904 0.11679766 0.04268869 -0.10732257 0.219641 -0.051338576 0.22200799 -0.36640152 0.12237646 0.07985469 -0.085585244 0.012173448 0.36166298 0.093960926 -0.15028836 -0.3175673 0.110588014 0.047336824 0.08996559 0.09257928 -0.15214339 0.06978573 -0.23541656 0.20321514 -0.17461306 -0.01313297 0.19242588 -0.25892106 -0.2988527 0.23067991 -0.3502071 0.18565066 0.26666635 0.24735062 0.09504197 0.106710516 0.30937213 0.04327804 0.22609837 0.088883445 -0.23701485
368 0.1726315 -0.31218982 0.005574396 0.029429987 0.07469926 -0.001973491 0.17188545 0.034745228 -0.11403996 0.13855217 0.094565466 0.030675048 0.02669243 -0.072294176 0.060339708 -0.07169948 0.14688423 -0.13564162 -0.102052785 0.1792378 -0.087561525 -0.14542258 -0.46627775 -0.05192003 0.28644943 -0.020555941 0.007788338 0.05887942 -0.30410048 -0.25042117 0.25861007 0.095902786 -0.21413499 0.20881428 -0.029917477 -0.20429133 0.24997899 -0.0354623 -0.070239685 0.2587592 0.014251945 0.08074048 -0.04049651 -0.36080563 0.107268386 -0.023254601 -0.24300165 -0.1664703 -0.2044853 0.02481737 -0.0014934158 0.29863384 -0.33891684 0.12382814 0.26691732 -0.05915203 -0.08688245 0.12057285 0.10599326 0.07424261 0.14082932 -0.4074887 0.044526406 -0.22554816 0.19297916 -0.03910163 0.032035124 -0.0055077407 -0.14987572 -0.07502409 0.019943535 0.28235158 -0.2163812 0.020299885 0.3647423 -0.49716854 0.042214602 0.05735292 0.032073233 0.14741659 -0.085548304 0.11891114 0.07982861 -0.09587218 -0.07559442 0.049287148 -0.08968388 -0.00112959 -0.19431376 -0.00085946836 -0.06175552 0.06298457 -0.08638066 -0.31048766 -0.20370571 0.0692952 0.010708098 0.04354919 -0.22673348 -0.029800547 -0.13258475 -0.2478897 -0.026689628 0.13950464 0.27582175 0.07817181 -0.10199785 0.07706626 0.42432103 0.19757278 0.2816925 -0.12823766 0.10116643 -0.19202724 -0.24389008 -0.37503284 0.193161 0.14062226 0.08356309 -0.050242633 0.011117985 0.40191054 0.1023867 -0.2824303 0.20661017 0.06200424 0.089049935 0.37562063
377 0.14109269 0.047121596 -0.20133547 0.2390871 -0.5220768 0.2514785 0.09653509 0.09519242 0.06904146 -0.12274082 -0.04509248 0.121435285 -0.13217783 0.23287052 -0.22155602 -0.049240336 -0.078980476 0.044428986 0.30084652 0.09584738 -0.16577393 0.0028916267 -0.5162691 0.28206542 0.2518557 -0.05911714 0.14495943 -0.3998613 0.09626398 0.27332807 0.07327582 0.22958912 -0.3233443 0.23415914 0.06337659 -0.23050989 0.19661838 0.22611956 0.24274144 -0.06516991 0.09347916 0.101294756 -0.23629186 -0.08742563 0.066141084 -0.019273521 -0.3439633 0.12442111 -0.12949982 -0.16309053 -0.47127578 -0.24522206 -0.18327297 -0.21652828 -0.28538573 -0.104578815 -0.119244464 0.014434756 0.12923416 -0.21259218 0.12304265 -0.14993565 -0.061426196 -0.26014975 -0.07641967 -0.019865744 0.1859121 0.029654097 -0.1217899 0.23699076 -0.047735363 -0.07731841 0.22498137 -0.09939926 0.15685093 -0.47527158 -0.027800182 0.08562525 0.11428764 0.10091954 0.087052576 -0.02831415 -0.066858664 0.0649335 -0.21248807 0.40710843 -0.61531645 -0.13529621 0.036970448 0.032013834 -0.14161098 0.025171716 -0.2278208 0.020698825 -0.081473716 -0.35754466 0.0060904264 0.24799609 0.04368735 0.07222128 -0.12892485 -0.13792706 -0.21435124 0.36616984 0.2782772 -0.053434156 -0.1323222 -0.31411967 0.43491933 -0.23841694 -0.108347304 0.042021707 0.003168882 0.028977264 -0.080585085 -0.2047354 -0.1934423 0.087684385 0.17902984 0.14949082 0.10387552 0.062140327 0.07915149 0.051017504 0.1324302 0.17488062 -0.1278535 -0.37402946
