965 128
1000 -0.16310114 0.030810773 -0.023740865 -0.0050893906 0.0013796955 -0.20351465 -0.15708044 -0.16428004 0.048656285 -0.06749338 0.2225507 0.08673768 -0.21305448 -0.17695145 -0.041444685 -0.15745243 0.39378396 -0.08959266 0.34116426 0.09475939 -0.26526552 0.2850088 -0.13465795 0.056570943 0.0372583 -0.0076780953 -0.015829675 -0.1176445 -0.030705431 0.14994863 -0.07362602 0.1827621 0.1773201 -0.07420804 -0.09118911 0.26313576 -0.075837575 -0.24198651 -0.0610988 0.06943606 -0.23016822 -0.29409617 -0.069496505 0.29370052 0.12585531 0.13452303 0.09294011 -0.092129394 -0.04242233 0.079626784 -0.09031439 -0.0013726387 -0.11240236 -0.027519356 -0.2584968 0.19300571 0.07235688 0.062109645 0.2139204 0.017194089 -0.2767913 -0.2441458 0.15998219 -0.16994071 -0.19726802 0.06450956 -0.0691725 0.19430059 0.23235552 0.12351971 -0.2652794 -0.20447016 0.38004884 0.25663862 0.111507796 -0.1795514 -0.16167136 0.35987163 -0.05119195 0.097789705 0.3653527 -0.419695 -0.22341046 -0.18135251 -0.16369799 0.032304 -0.004485634 0.002580641 -0.00041405394 0.06651905 -0.09130316 -0.2836928 0.08697712 0.023841226 0.3618529 0.09968231 0.0033157784 -0.28069955 0.3001654 0.113513194 -0.22906423 -0.22564402 -0.06435033 0.19553328 -0.10839994 -0.07617503 -0.03151117 0.06694853 -0.3072622 -0.33504388 -0.07747305 0.019997653 0.05145506 0.29837716 -0.3861038 0.04552564 0.0021368861 0.059444822 -0.058112983 -0.0542007 0.015854629 -0.3279361 0.038300607 0.08027116 0.0067877993 -0.06331329 0.0783783 0.1486044
999 -0.17229009 0.07959377 0.037096288 0.0035138668 0.097171694 -0.2341132 -0.11268946 -0.10896958 -0.047948293 -0.086394936 0.213434 0.22729902 -0.24328095 -0.035545792 0.020434428 -0.110434406 0.33699736 0.028087126 0.3044256 0.08571003 -0.29892904 0.24730936 -0.0932465 -0.09186917 0.043639023 -0.1236204 -0.007165719 -0.12222792 0.03471798 0.0713915 -0.05792578 0.051061835 0.10896566 -0.10204214 -0.16060992 0.2689043 -0.12015477 -0.39364755 -0.14052798 0.022260413 -0.25666478 -0.28137815 -0.0042968146 0.31884095 0.13654688 0.1076813 0.12222248 -0.05931648 -0.008836321 -0.107822776 -0.12368791 0.124249645 -0.05940744 -0.093586005 -0.18833695 0.14074972 0.047568135 0.12528548 0.19654459 0.16490291 -0.122321114 -0.22737841 0.122904785 -0.14277442 -0.25262073 0.03194323 0.015728876 0.17423189 0.17277507 0.12154356 -0.37780038 -0.20943542 0.2815598 0.17146915 0.12194737 -0.04237793 -0.1718201 0.41194585 -0.017581094 -0.061480217 0.40336242 -0.32148394 -0.18365441 -0.16350394 -0.088512845 0.10533886 0.027815718 -0.10858317 0.08229296 0.03196207 -0.11161479 -0.22650631 0.05593789 0.015118324 0.306524 -0.072891146 0.019810876 -0.22216296 0.19586408 0.113617234 -0.33402476 -0.30236977 -0.13476858 0.1796021 -0.21927883 -0.0655529 0.06407309 -0.04692085 -0.21047433 -0.250866 -0.065409094 0.0001806413 0.08407484 0.36142412 -0.4139918 0.01207853 0.05867913 0.08708129 0.005384524 -0.06822273 -0.060631063 -0.21570604 -0.010898741 0.14644247 0.036402926 -0.07904897 0.14760253 0.19583836
998 0.005304154 -0.00048827432 -0.1372593 -0.07470183 -0.019259602 0.117405854 -0.24569514 0.21657184 -0.13561316 0.02513816 0.009280877 0.24310626 -0.4326075 0.2483165 0.26243925 0.04038573 -0.2981589 -0.16689025 0.24624646 0.06437281 0.040625274 0.49566105 -0.11164264 -0.08413982 -0.033832297 -0.22910301 0.36840552 -0.22804533 0.36970475 0.24887301 0.044810575 -0.058559142 0.23606409 0.15992777 0.054465055 0.2059528 -0.07180168 -0.08444368 -0.33449158 0.0009488914 -0.15424871 -0.14004362 0.1763185 0.27981466 0.027117213 0.53985566 0.16406302 -0.16923384 -0.31554693 0.13326198 -0.11443953 0.030592052 -0.079146236 -0.05390573 0.013378579 0.12830809 0.039612062 -0.02630527 -0.02896928 0.1504908 -0.012900264 0.07861858 0.20021684 -0.2923702 -0.1576184 0.005453008 0.018173646 0.046691224 -0.05002602 0.10591457 -0.018199755 -0.055360623 0.008522091 -0.047879945 -0.32404336 -0.23159681 0.14418119 -0.02790045 0.01366293 -0.1860345 0.27821755 -0.060676806 0.23777682 -0.00068296544 0.01873732 0.06047473 -0.19471292 -0.071295224 0.17098509 0.19988985 -0.2636568 -0.014382722 -0.11378773 -0.0480205 0.21862389 -0.047169108 0.03463274 -0.10695446 0.08835949 0.017408842 -0.115910776 -0.18790506 0.086210415 0.09633189 -0.14643885 0.22079945 0.17043862 0.08970764 -0.029497301 -0.050811056 -0.023451425 -0.21094623 0.14740616 0.1294372 -0.18055452 -0.21235599 -0.014214828 -0.15757035 -0.14044878 0.039268617 0.12008808 0.2589737 0.02561211 0.14076471 0.098901436 -0.08593506 0.2919472 0.019085849
994 -0.10374906 0.05381015 0.072346084 -0.043192666 0.035343617 -0.28792515 -0.081083894 -0.05230908 0.10891236 -0.062275108 0.27491125 0.16651872 -0.22764641 -0.0068347426 0.042327955 -0.11696817 0.2636942 -0.06280884 0.29305187 0.20280375 -0.27966645 0.23821224 -0.06275143 -0.13081393 -0.014796368 -0.024822047 -0.060228914 -0.012917108 -0.085203275 0.118173085 -0.0836762 0.061093573 0.06884221 -0.060868736 -0.12555279 0.22008081 -0.14806648 -0.31188184 -0.11440885 0.049112245 -0.14096586 -0.2645472 -0.10371554 0.2736886 0.08789146 0.25484362 0.15142384 -0.051927913 -0.045754932 -0.07222682 -0.18122575 0.13825147 -0.08020452 -0.1150661 -0.16429566 0.2249526 0.06412371 0.07105308 0.14397599 0.012945238 -0.23549345 -0.26222664 0.15094177 -0.13118549 -0.21610916 0.0067302487 -0.006030202 0.16418515 0.1759418 0.1369332 -0.3284336 -0.2116339 0.28318986 0.07415401 0.055053215 -0.068091646 -0.24831688 0.33485737 -0.057387307 -0.044403262 0.2906033 -0.3636228 -0.18082167 -0.079257764 -0.20320664 0.08248765 -0.028666036 -0.019408602 0.05226771 0.08192882 -0.05827468 -0.27344424 0.032334413 0.036233414 0.27313724 0.034020722 0.028615357 -0.2750437 0.2665544 0.105693996 -0.18608353 -0.18984038 -0.17166375 0.15844585 -0.13704127 -0.047204096 -0.017824495 -0.036505297 -0.19208765 -0.2760301 -0.11578517 -0.05829055 0.13163522 0.29972625 -0.38617015 0.06891066 0.05513022 0.1277338 -0.026480597 -0.027091186 -0.049337454 -0.24923064 -0.05308599 0.07204547 0.037245784 -0.13295713 0.06555104 0.18556336
995 0.026853278 0.06414742 -0.19286461 -0.042808585 0.06554208 0.13195151 -0.14080915 0.3134395 -0.21082848 -0.001712385 0.060433734 0.1708967 -0.37251633 0.21263823 0.17160366 0.028268447 -0.38922277 -0.054856848 0.25465012 0.0101665 -0.017807188 0.39653608 -0.13336378 -0.061077174 -0.06769529 -0.1992949 0.25441173 -0.2542159 0.26839238 0.253156 -0.0061949436 0.017794931 0.18080474 0.09803666 0.13432416 0.10490155 -0.059164446 0.043066896 -0.28776458 -0.037588086 -0.20183973 -0.116435684 0.244228 0.26286757 -0.021489527 0.4305965 0.2391452 -0.19549234 -0.17432633 0.16438185 -0.1439769 0.051546354 -0.027474176 -0.05432902 0.0051516267 0.12005893 0.03795768 -0.07518021 -0.09374375 -0.045921475 0.07752922 -0.02746102 0.19155435 -0.25786188 -0.13513815 0.02923989 -0.0053527136 0.06993805 -0.071709044 0.07237719 0.07590689 -0.10125217 0.012337471 -0.16527766 -0.26495573 -0.29988274 0.13220447 -0.0101650115 0.09506612 -0.10743781 0.15154555 -0.15825032 0.30589148 -0.042623784 0.07908992 0.15094563 -0.31109792 -0.052998688 0.13490272 0.23855785 -0.27547923 -0.020971682 -0.002824801 -0.20238358 0.28649628 0.034017812 0.027433366 -0.1734937 0.21237339 0.012473622 -0.10536106 -0.12931883 0.043486323 0.061150603 -0.13387631 0.25160897 0.1812139 0.073012486 -0.039901886 0.03481379 -0.14494088 -0.23985642 0.14474802 0.1278079 -0.09514404 -0.24209665 0.03603465 -0.12467216 -0.13890724 0.056557436 0.11273165 0.15905575 0.09515787 0.15043102 0.15188444 -0.0566257 0.25311658 0.051966775
993 0.113518275 0.28059366 -0.29658136 0.19878997 -0.15028839 0.19515973 0.021814449 0.08123435 -0.04893107 -0.29276085 0.17796974 -0.0015275284 -0.2675687 0.16896115 0.16192603 -0.38216838 -0.0778942 0.38190275 0.0027927188 -0.12041577 -0.03493971 0.30388197 0.0326863 -0.06194664 0.020572057 -0.23811068 -0.0498745 -0.24769977 0.16465552 0.0717659 -0.089964196 0.16122842 0.11431894 -0.100486636 -0.043586504 -0.03369632 -0.09314599 0.27462047 -0.14863972 -0.16508478 0.14370935 -0.1565072 0.19100544 0.09445234 -0.029957827 0.036810156 0.059677903 -0.23746805 -0.027005715 0.0020664607 -0.059122447 -0.090620786 0.03233365 -0.07004589 -0.042108774 0.17454046 -0.1852853 -0.067122154 0.04086676 -0.367161 -0.21494822 -0.31453806 0.119331636 -0.29946348 0.087391265 -0.03844544 -0.11908946 0.05057755 0.090729274 -0.07909493 0.030398818 0.04135796 0.11679754 0.10800712 -0.008743826 0.03125632 0.088752285 0.031716052 0.13223037 -0.017215373 0.14235538 -0.2053117 0.011485561 -0.32963645 0.2602312 0.052865773 0.12342878 -0.067747094 0.0999875 0.24520503 0.06886131 0.021247618 0.21017176 -0.23224644 0.28803867 0.25852305 -0.19040464 -0.058094494 0.21256398 0.24761617 -0.14211628 -0.101140134 -0.1760609 0.017724702 -0.045879595 -0.21703897 0.022947405 -0.2873203 -0.050533496 0.09914207 -0.111144856 -0.012731611 0.19199507 0.35422394 -0.08260076 -0.20496492 0.07031177 -0.20664494 0.0044281357 -0.05443635 0.06591717 0.033317633 0.11932891 0.25536776 -0.12927987 0.11671802 0.25964075 0.06741203
988 0.06837747 -0.011769345 -0.19206622 0.008150414 0.041457765 0.18798122 -0.3011606 0.27514768 -0.10285403 0.032891653 -0.028528282 0.22427925 -0.41901436 0.16534773 0.20566055 0.08172588 -0.33803442 -0.12076535 0.2108488 -0.050078884 -0.0102073215 0.39751816 -0.12836975 -0.06508251 -0.031980757 -0.28685316 0.27146387 -0.22406794 0.31876954 0.30350533 -0.034831382 -0.0036070654 0.27779263 0.121799394 0.13135305 0.08694605 -0.09215815 0.05342923 -0.38130602 0.029309366 -0.20740846 -0.064179495 0.16538976 0.26946625 -0.033902314 0.4565447 0.17002736 -0.1566298 -0.20776078 0.114892915 -0.0792792 -0.017957315 -0.02671563 -0.04913149 0.08062401 0.0726731 0.061291832 -0.03540869 -0.014370108 0.108594105 0.063596435 0.09038323 0.15237069 -0.35802904 -0.18623286 0.013025649 0.114126205 -0.012587793 -0.08732139 0.16905633 0.09200172 -0.10771719 0.0001913991 -0.109543905 -0.29011795 -0.25213772 0.059207175 -0.051111523 0.105439775 -0.1675535 0.18031235 -0.09829736 0.23543477 0.00474408 0.037437186 0.092915006 -0.30882716 0.0007172381 0.1257219 0.12690628 -0.3453006 -0.044817094 -0.032095335 -0.10179333 0.2822182 0.043393776 0.010938167 -0.14864752 0.20201573 -0.033643648 0.02095244 -0.15359566 0.08466257 0.04850539 -0.08055588 0.2530352 0.15191689 0.062114876 -0.2067273 0.036917727 -0.09871129 -0.2854598 0.113146454 0.113628104 -0.18297246 -0.28206888 0.06432772 -0.12512913 -0.16146784 0.14751185 0.18746024 0.17292769 0.15891674 0.12355609 0.1364128 -0.17136101 0.353304 -0.0011300655
990 0.108281866 0.22049753 -0.33291203 0.22702412 -0.22928627 0.17104249 -0.025846371 0.053063177 -0.033402007 -0.27859622 0.10574578 -0.057790168 -0.26165006 0.10938834 0.07857225 -0.48404905 -0.09314495 0.33539355 0.037676204 -0.14860687 -0.026279306 0.3292268 0.0028453602 0.0031016332 -0.014314343 -0.3071678 -0.0057654683 -0.2522271 0.085030496 0.123655625 -0.12928998 0.17545256 0.14522322 -0.09030517 -0.08948103 0.050287817 -0.17103513 0.1900247 -0.15006185 -0.07610065 0.1383433 -0.12471605 0.15946203 0.12675108 -0.006111916 0.13756673 0.025950365 -0.22422917 -0.12160952 0.043208886 -0.1335421 -0.11143782 -0.015027237 -0.09518401 -0.06337576 0.19834337 -0.19329807 -0.052989267 0.058133215 -0.34503952 -0.30231762 -0.34869918 0.19224244 -0.3544361 0.14527403 -0.08573725 -0.15366524 0.027823985 0.13929838 -0.04247421 -0.02097087 0.039158877 0.1631464 0.19234699 0.00086916075 -0.04147502 0.13028605 0.062063824 0.112176314 0.036703937 0.23548977 -0.17428127 -0.032327507 -0.2981942 0.19517985 -0.00769865 0.14090149 -0.14813283 0.053837888 0.21112789 0.047640134 0.10067931 0.21216822 -0.12587516 0.41049922 0.29912212 -0.07260672 -0.11689012 0.16492447 0.20376666 -0.10496735 -0.17638195 -0.19650981 0.11396821 -0.032370172 -0.2077061 0.04029545 -0.28394383 -0.07455223 0.093879044 -0.059353024 0.00060102274 0.14807914 0.33151522 -0.10177187 -0.13583744 -0.017918484 -0.14958411 0.08126733 0.024210876 0.10908092 0.14906466 -0.031114502 0.3004997 -0.18816635 0.10759389 0.26095638 -0.07042585
981 0.13848484 0.0777346 -0.15041691 -0.025626754 0.09024009 0.2010433 -0.2950909 0.2862766 -0.18272416 0.06076919 0.019961007 0.2440018 -0.35566622 0.14596708 0.17827387 0.020943582 -0.3336642 -0.16928414 0.2011322 -0.031648733 0.06980257 0.3802908 -0.12325736 -0.072690085 -0.054001354 -0.22973232 0.3522802 -0.24383116 0.34986845 0.31166494 -0.059688155 -0.051990744 0.2889421 0.13475828 0.13242225 0.17396446 -0.0988449 -0.08973435 -0.29378092 -0.04569013 -0.10021333 -0.102830596 0.18589514 0.30715394 0.004539514 0.47646064 0.2042419 -0.1065052 -0.2864279 0.13427424 -0.093679845 -0.037607398 -0.14324147 -0.057502016 0.03078854 0.12738737 0.06618772 -0.0740613 -0.018430742 0.1469285 0.09111758 0.07014395 0.21016848 -0.20617327 -0.06625293 -0.027721124 0.09173983 0.066427976 -0.0128726335 0.113361925 0.034092132 -0.08103244 0.00811879 -0.058687985 -0.33066738 -0.23627065 0.14671028 -0.07719136 0.13680756 -0.089152314 0.20801848 -0.15867662 0.30648655 0.052607704 -0.0046284776 0.11119901 -0.20192629 -0.036237933 0.09209856 0.1924725 -0.35604593 -0.031803437 -0.025668278 -0.09646921 0.23334134 -0.03351704 0.04809007 -0.22438146 0.13126267 -0.011183906 -0.09599189 -0.2142684 0.058874536 0.13094702 -0.14391574 0.19635004 0.15344675 0.038047567 -0.13479814 -0.051503625 -0.09070534 -0.21343589 0.035849772 0.13769412 -0.19342831 -0.2704404 0.024463816 -0.051996138 -0.14330232 0.10816092 0.120223284 0.16937847 0.11126309 0.077597246 0.11416717 -0.13754937 0.33434957 0.044322357
985 0.021366555 0.026771905 -0.16026776 -0.009940643 0.11561885 0.08180484 -0.16578862 0.20462327 -0.17224014 0.037578132 -0.005999522 0.23550798 -0.45254642 0.17711392 0.2561974 -0.023192203 -0.37774488 -0.05344441 0.2868995 -0.004991262 -0.025315452 0.36126593 -0.14421318 0.013599402 -0.060787886 -0.24229611 0.22930324 -0.19871986 0.19942658 0.2611103 -0.049797993 -0.022722958 0.213681 0.06877879 0.15683284 0.12316145 -0.10711062 0.07562084 -0.36110428 0.033188667 -0.15575057 -0.20980272 0.17594488 0.23202865 0.007650464 0.44678316 0.17136316 -0.15626352 -0.31479445 0.124345414 -0.18339422 0.019137397 0.0013082607 -0.043857433 0.00348874 0.11301308 0.020719297 -0.06562918 0.0036346563 0.107427135 0.03720615 -4.9943046e-06 0.29781047 -0.29286814 -0.060902216 -0.0542659 -0.007122331 0.037639882 -0.044503476 0.07581547 0.1544658 -0.07286541 0.097668596 -0.035135455 -0.34624302 -0.2233282 0.08661242 0.034635242 0.07148811 -0.13654572 0.24992195 -0.100185156 0.28321078 0.011936169 0.0017571913 0.10274818 -0.34912542 -0.052263606 0.10491588 0.24745479 -0.34205008 -0.06727517 -0.08422361 -0.050716095 0.33483735 0.0031901046 0.018239902 -0.22060578 0.24540478 -0.02606385 -0.055701453 -0.21040404 0.017698519 0.10295883 -0.10911265 0.23993747 0.20218858 0.056671172 -0.14607528 -0.064134814 -0.114050165 -0.31348315 0.07289569 0.17391934 -0.23181655 -0.15883586 -0.02025286 -0.124486126 -0.20493734 0.13706227 0.13714261 0.1977183 -0.0019136124 0.11077437 0.052052423 -0.112932354 0.2539586 0.086260736
989 0.1008754 -0.21395417 -0.023649424 0.033886757 -0.05118022 0.1490863 -0.32979843 0.16307972 0.14886907 0.32297212 0.16626619 0.0010210521 -0.28414965 -0.11211536 -0.050037272 -0.12829587 -0.0352797 -0.17238243 0.23971093 0.06536428 0.3415971 0.25618246 -0.054608416 -0.18436788 0.21127847 0.01869621 0.35798487 0.18942758 0.06185049 0.09368087 0.12703416 0.06867304 0.3489066 0.2760005 -0.15742594 0.16728142 0.031880043 -0.2915779 -0.14019023 0.11834224 -0.029529396 0.08642905 0.06858062 0.19048196 -0.05686534 0.5590955 0.090345666 -0.15545826 -0.13184598 0.046654854 0.04439113 -0.13123117 -0.19227694 -0.18045436 0.07463617 0.08258748 -0.25237036 -0.19577101 -0.15639007 0.06320536 -0.25865406 -0.073648825 -0.09760227 -0.27804 0.16088694 -0.012936747 -0.07099385 0.063411474 -0.092250094 -0.012990432 -0.03773541 0.0032068132 0.091926485 0.26790556 0.17785476 -0.002736597 0.06294087 -0.030039689 0.5387814 -0.043431975 -0.05148379 -0.080990374 -0.15486296 0.0658725 -0.1339453 0.008386953 0.40167174 -0.08056275 0.28229725 0.13822801 0.083823055 0.005233493 -0.056892827 0.049097765 0.2684301 0.072343685 -0.19897617 -0.22336431 0.14226182 0.039455425 -0.23277394 -0.31159455 0.011495105 0.08199309 -0.08784888 -0.18080802 -0.13797437 -0.1925569 -0.053710178 -0.11657493 0.04765617 0.17916632 0.23934811 0.16488497 -0.21774817 0.0064113652 0.21236543 0.07951052 -0.17993136 0.08952764 0.1020117 0.15165192 -0.11615645 0.08893512 -0.2025734 0.050212048 0.23443604 -0.05955368
987 0.030811358 -0.31014058 -0.1512085 0.018614927 -0.18764141 0.18567257 -0.24718432 0.23881234 0.15221238 0.2932258 0.19527817 -0.099800356 -0.26553273 -0.1732211 -0.06767963 -0.029175885 -0.04518025 -0.13943356 0.19189385 0.056820486 0.33819672 0.27717298 0.031499013 -0.14280379 0.16210407 -0.056366947 0.27114138 0.1972363 -0.028709762 0.12746386 0.12736653 0.08471398 0.3716282 0.30661342 -0.16442166 0.1146804 0.00077070633 -0.29071563 -0.107783146 0.1186974 0.059729252 0.0041536693 0.011372601 0.21082869 -0.05193523 0.60189676 0.07687563 -0.18045223 -0.18880329 0.044479202 -0.04197298 -0.064829215 -0.12205852 -0.14461768 0.09007041 0.102922134 -0.27137208 -0.1759558 -0.09609357 0.11593745 -0.29684445 -0.104454465 -0.14167032 -0.28293917 0.19625495 -0.09571641 -0.044835992 0.015713377 -0.0066055 0.06350011 -0.020752843 0.030912828 0.09162054 0.1555625 0.17682642 0.031712215 0.0648671 -0.006461634 0.5580151 -0.11173905 0.04035594 -0.030996114 -0.15150093 0.043782823 -0.12271858 -0.049428936 0.31421146 -0.05173047 0.2828431 0.19466886 0.06418187 -0.008818406 -0.10463342 0.09226953 0.31299272 0.02011217 -0.115100056 -0.28512967 0.17408708 0.0148752965 -0.16758467 -0.28004113 -0.087187454 0.103422195 -0.03742143 -0.19953287 -0.0978905 -0.26426268 -0.1323978 -0.12360925 0.06065219 0.12627813 0.23700531 0.22253945 -0.2756043 0.051512122 0.23316222 0.09487518 -0.1456734 0.14042269 0.066399194 0.15531763 -0.1522057 0.04863783 -0.23494364 0.009335285 0.15809408 -0.10742316
986 0.13235845 0.23652142 -0.27417842 0.22346313 -0.16398546 0.08923581 0.021875354 0.06061112 -0.08188361 -0.1628993 0.2146985 -0.06333991 -0.21406338 0.068384394 0.0955227 -0.48791093 0.0048057945 0.32036 0.0997205 -0.08807252 -0.06728097 0.2668638 0.014582129 -0.013222633 0.06874774 -0.17089352 0.02691638 -0.16873963 0.09265945 0.058880962 -0.17268819 0.15841053 0.1223237 -0.1401841 -0.057451054 0.051664684 -0.1727805 0.16980533 -0.104443304 -0.0766552 0.046949003 -0.18319029 0.09691126 0.23945984 -0.033179514 0.055897005 -0.031163944 -0.2323659 -0.01831764 0.0063200276 -0.18186831 -0.1310947 -0.08491854 -0.1787435 -0.06153164 0.253093 -0.2038729 -0.13073795 0.04285573 -0.44921523 -0.22407942 -0.38854745 0.19187564 -0.26593757 0.12643045 -0.028391518 -0.24264434 -0.03218724 0.10491889 -0.06958932 0.013733706 -0.011309164 -0.0007676874 0.12860978 0.0012691843 0.006705444 0.086819515 0.053635795 0.11574473 0.07471705 0.22878005 -0.29594195 -0.048009954 -0.28559467 0.17745815 0.09014932 0.08794671 -0.08167551 -0.015495448 0.16021523 0.09835648 0.011998911 0.16414876 -0.2038901 0.40608364 0.23265676 -0.10093892 -0.08179046 0.26312998 0.21785031 -0.16348208 -0.085769124 -0.25557157 -0.0010794643 -0.11019283 -0.18731079 -0.07983596 -0.30322248 -0.009536312 0.046463557 -0.19460955 -0.07959669 0.19948135 0.24084309 -0.06238217 -0.14386654 0.00972697 -0.15620093 0.045513727 -0.028493768 0.09049046 0.023475127 -0.0074546468 0.2555465 -0.18188606 0.08618946 0.20313066 -0.029078726
983 0.014928766 0.16172095 -0.30715004 0.09285144 -0.17107727 0.1339603 -0.00046888005 0.018159892 0.04088022 -0.31478846 0.14736983 -0.045781706 -0.28440472 0.16787617 0.09048339 -0.4392119 -0.032745674 0.2853409 0.0214482 -0.13855603 0.013534225 0.2223847 -0.011924996 -0.03839607 0.038478456 -0.18801711 -0.099501885 -0.09144618 0.091481104 -0.0004528649 -0.11542029 0.25776088 0.05391747 -0.13092096 0.0052867997 0.038486857 -0.14875737 0.17855032 -0.03637974 0.008588474 0.097290345 -0.2025082 0.106026724 0.14836764 -0.028013691 0.11175786 -0.0037688334 -0.24727298 -0.043516845 0.029246384 0.021524942 -0.099282585 -0.045183737 -0.10118335 -0.17412162 0.14145997 -0.30771005 -0.0990518 0.08345506 -0.39408332 -0.22935294 -0.32798433 0.11781961 -0.3013676 0.13114437 -0.04874715 -0.1707669 0.04284634 0.08756201 -0.012460582 0.009692335 0.0011348978 0.063450016 0.2209198 0.06796614 -0.005371367 0.045661654 0.10784575 0.08827431 0.10815948 0.26900977 -0.17107615 0.064527236 -0.26180097 0.25135407 0.08885215 0.13643515 -0.04645429 0.053392388 0.155294 0.13138397 0.092851885 0.2018341 -0.19293067 0.4564181 0.33467072 -0.12779085 -0.06832443 0.24271517 0.20498754 -0.1559048 -0.0540471 -0.2406163 0.052376594 -0.021340981 -0.19476162 -0.004217252 -0.35968485 -0.08966614 0.062730044 -0.2176396 -0.026777871 0.2697382 0.3983957 -0.04526701 -0.19787087 0.05876984 -0.17425232 -0.019591438 -0.07943345 0.089350946 0.008180291 -0.029299969 0.25179353 -0.10379891 0.18279573 0.21344955 -0.015761325
978 -0.07427894 -0.08836083 -0.19123946 -0.009645723 -0.33237773 0.24243152 -0.06714067 -0.12582064 0.17141351 -0.09981356 0.0067327325 0.07700857 -0.24967587 0.45049685 0.2034299 0.2210526 0.11692588 -0.0028765737 -0.04734367 0.19101803 -0.19207458 0.31701714 0.115851626 -0.10837067 0.040180173 -0.330651 0.01789373 0.011628316 0.06646516 -0.28106856 0.24956976 -0.07966982 -0.033821672 0.17991613 0.06834877 0.36187896 -0.066077314 -0.3293898 -0.18013786 -0.028724518 -0.13308315 -0.12895688 0.17217682 0.07123984 -0.024212219 0.076289624 0.2151042 -0.026621267 -0.053810198 -0.12464133 -0.046681497 0.106718585 -0.0762718 0.082213424 -0.023804829 -0.013240118 0.073188394 -0.011220909 -0.14142616 0.22020276 -0.14887659 -0.02800524 -0.102325454 -0.17104277 -0.39337838 -0.027192853 -0.018146614 0.29344004 -0.024886167 -0.007375693 -0.15993376 -0.1487855 0.13089795 -0.17718056 -0.013472156 -0.034474272 -0.030903345 0.15923323 0.014742855 -0.17479055 0.26670575 -0.14852563 -0.0679064 -0.1465416 0.112034686 -0.02325036 0.13293359 0.007412515 0.6516343 0.058470022 -0.20222019 0.023084048 -0.044936225 -0.24582595 0.07502672 0.15343863 -0.025593223 -0.15948968 0.18704595 0.05390421 0.04171733 -0.21587841 -0.12767383 0.124698155 -0.23833199 0.14222081 -0.07906164 -0.31046546 -0.2620076 0.107542135 -0.15547526 0.1453371 0.43512005 0.30979687 -0.29928452 0.06658668 0.37134 -0.18603271 -0.105729714 0.08188084 -0.1124773 0.0020357994 0.06572996 0.15683101 0.09743801 -0.07854659 0.1749858 -0.028074544
980 0.06703386 -0.22073518 -0.13765532 0.10841461 -0.3065989 0.18326518 -0.25216344 0.066938914 0.3221322 0.24076174 0.15305229 -0.01368704 -0.24176319 -0.061903495 0.012066011 -0.02676186 -0.10733526 -0.2061593 0.28162095 0.16157019 0.33265525 0.33066052 0.07635577 -0.23756462 0.14302476 -0.03964606 0.2422124 0.23529726 -0.039491437 0.13557556 0.10966849 0.036916643 0.40070134 0.30757973 -0.18884511 0.2040116 0.02739846 -0.3909956 -0.095550135 0.20896792 -0.03436849 -0.04970923 0.014863194 0.17041345 -0.062094644 0.58189064 0.07147864 -0.21281141 -0.25815213 0.08231539 0.016225575 -0.12452453 -0.18211347 -0.10250288 0.14788611 0.11235864 -0.19518648 -0.1704049 -0.1682346 0.0448292 -0.32155383 -0.09274719 -0.17307636 -0.30766445 0.21319638 0.044980697 -0.06786072 -0.032753643 -0.06124842 0.039715085 -0.08904592 0.06217968 0.16026044 0.21289302 0.17353712 0.0013169886 0.026764339 -0.0363952 0.45532888 -0.06748594 -0.04329715 -0.02730978 -0.15416172 0.01748658 -0.25885558 -0.116652496 0.37516823 -0.008906811 0.2577446 0.16161181 0.091803476 -0.035004172 -0.081711516 0.05075361 0.22363111 0.041786883 -0.09589636 -0.2064969 0.15749517 0.011934647 -0.14601342 -0.22908096 0.0030062972 0.16137241 -0.062208798 -0.14508748 -0.10756887 -0.16483043 -0.06840351 -0.12391975 0.060936537 0.22123402 0.24207099 0.21682525 -0.17337264 0.039845284 0.17612274 0.115859516 -0.089563474 0.11158946 0.19432569 0.11532661 -0.15979011 0.0060855104 -0.16930933 0.06027259 0.094283305 -0.055861864
982 0.031128874 0.0025261187 -0.05424259 -0.08993853 0.11155192 0.11837857 -0.2772785 0.2692003 -0.043546606 0.06339658 0.0015639884 0.21069847 -0.45926034 0.20993708 0.18076229 -0.057449892 -0.33953902 -0.09754552 0.12765478 0.040324856 0.028989399 0.4316334 -0.04507068 0.022846913 -0.0635213 -0.2747294 0.24605246 -0.29517102 0.299966 0.27350348 0.044436667 -0.09624481 0.2553895 0.15221487 0.08957471 0.16536881 -0.062638186 -0.020121727 -0.3727164 0.026994757 -0.15991132 -0.040643204 0.18438475 0.3608906 0.010076771 0.47003633 0.19207753 -0.18005586 -0.29466048 0.14487974 -0.0523332 0.084763356 -0.11019871 -0.10553618 0.033369876 0.12712573 -0.085971706 -0.117720015 -0.054082345 0.08324097 0.08670135 0.0029682585 0.23728313 -0.27400485 -0.17006049 -0.054395366 0.11049005 0.043568548 -0.14993696 0.08152101 0.02709523 -0.084889285 -0.053352315 -0.08995625 -0.22702633 -0.1148079 0.05099137 0.0071489224 0.14082508 -0.11387979 0.20635594 -0.008070301 0.2621434 -0.017036645 0.09264697 0.13566808 -0.23774472 -0.08752816 0.13430357 0.2070785 -0.2685679 0.053174406 -0.0745978 -0.116767235 0.236466 0.005908096 -0.010492068 -0.14123583 0.16427097 0.1003749 -0.06472263 -0.24537316 0.026089588 0.03041163 -0.11717393 0.17040904 0.14804544 0.13753785 -0.039501343 -0.0071357717 -0.07905826 -0.21990497 0.105022214 0.11597072 -0.16502316 -0.21915111 -0.073313 -0.08941156 -0.16568565 0.044482514 0.10629517 0.19873385 -0.01636673 0.18622142 0.10209206 -0.19321115 0.29385105 0.013509084
979 -0.047628716 0.16051933 0.045138236 -0.02911594 0.030142898 -0.22905941 -0.17632398 -0.14107566 0.015056435 -0.10549446 0.22612838 0.10694855 -0.10612748 -0.12449074 0.012719056 -0.20460881 0.4256142 0.0030893513 0.28468648 0.007502649 -0.24576114 0.2556458 -0.06705816 0.01002243 0.031831283 -0.12973686 -0.15166707 -0.12319073 -0.014248734 0.049462534 -0.07632644 0.073664606 0.1636506 -0.10889371 -0.15698452 0.27342042 -0.10939594 -0.31212744 -0.11461231 0.069318704 -0.29630467 -0.33002123 0.032585636 0.33610538 0.081422664 0.21121688 -0.062091023 -0.09604867 -0.026493106 -0.07957841 -0.18965743 0.07043265 -0.12719543 -0.057342064 -0.23493342 0.15786435 0.03880565 0.085548244 0.23385976 0.051959213 -0.23382525 -0.25436157 0.13950384 -0.19203997 -0.21362916 0.023709655 0.013037907 0.23959531 0.13948625 0.11312938 -0.28029245 -0.120385535 0.2822256 0.22398186 0.07301294 -0.1144474 -0.2328521 0.3853845 -0.05637834 -0.054109823 0.29400325 -0.42240652 -0.13547146 -0.14236572 -0.082680516 0.14620012 0.021134507 -0.07886879 0.09840085 0.13532385 -0.12760326 -0.30257377 0.039125767 0.04205298 0.3056332 -0.02829665 -0.003674757 -0.34540266 0.25795692 0.18126091 -0.36692533 -0.19175036 -0.13846444 0.18396081 -0.15642023 -0.046568457 0.025728002 -0.013907994 -0.18848057 -0.22034715 -0.021766843 0.09506164 0.024683973 0.22928333 -0.3067239 0.10696639 0.05133373 0.023648484 0.0035851006 -0.08363483 -0.06302534 -0.15910143 -0.07493873 -0.0073291776 0.10474974 -0.12843315 0.023302333 0.21692863
977 0.12026407 0.21782298 -0.38709652 0.24179569 -0.24552493 0.16282955 0.08237323 0.054020442 -0.014255659 -0.21649426 0.0889604 -0.15805179 -0.17627041 0.117143795 0.15709136 -0.39963108 -0.066521116 0.36335418 0.09439879 -0.05521777 -0.0638962 0.33681905 0.04905924 0.012329867 0.0034993542 -0.28945133 0.031186756 -0.26206583 0.15424299 0.056083158 -0.04685674 0.15353727 0.22834526 -0.063031875 0.014593082 0.11006895 -0.1069902 0.19947895 -0.1654786 -0.042685047 0.14370067 -0.066404544 0.15545127 0.14792213 -0.033952963 0.011587654 0.016125618 -0.27027357 -0.048951197 0.13560721 -0.08308258 -0.12714945 -0.108883485 -0.03462292 -0.07588472 0.23606275 -0.24550252 -0.04974794 -0.022660764 -0.37867558 -0.1672251 -0.30419043 0.088814884 -0.34908697 0.10662986 0.04787807 -0.1804982 0.037490252 0.07950937 -0.067165405 0.061530095 0.039564107 0.11824952 0.19723158 0.066828534 -0.09324282 0.17828465 0.041770536 0.17919093 0.059500486 0.23625717 -0.23506853 -0.008999744 -0.21385375 0.2816745 0.073072396 0.11885693 -0.0659225 0.053483643 0.15871926 0.109317474 0.030991161 0.173911 -0.13893996 0.36392555 0.27656963 -0.1075889 -0.053833865 0.1994906 0.1977425 -0.15970744 -0.08991037 -0.1927927 0.011507495 0.0050425963 -0.21338247 -0.02537233 -0.29018536 -0.090265006 0.09602728 -0.03782071 0.00020419071 0.1513033 0.32061028 -0.071122944 -0.19064124 -0.028935801 -0.2232996 0.1028347 0.023821104 0.12731391 0.021233551 0.023913294 0.25438195 -0.19612758 0.067692384 0.17185408 -0.059157744
997 -0.012487263 0.057369925 -0.09579349 0.15081957 -0.23294708 0.26193762 0.048711542 -0.13526396 -0.20667501 -0.06940392 0.3532401 0.0048776045 -0.21724491 0.2638485 -0.1024605 -0.07194601 -0.07852235 -0.0371228 0.3893078 0.13751224 0.25531003 0.35076708 -0.15561277 -0.16819921 -0.04138103 0.059026975 0.29933536 -0.15064242 0.07552763 -0.026059825 -0.124227755 0.07120626 -0.222418 -0.14196208 -0.14461245 0.26368663 -0.18699786 -0.26196828 0.08542737 -0.09835368 -0.06558601 -0.043020494 0.031674553 -0.05112691 -0.28160155 0.2854084 0.29361582 0.05688089 -0.124884464 0.119461544 0.029707387 -0.09031302 -0.08082251 -0.08223325 -0.14094709 -0.088758 0.009983576 0.09472708 -0.1275354 -0.35800034 0.12202369 -0.17655243 0.054218322 -0.10891256 0.049700566 0.019990474 -0.033672027 0.106085554 -0.0083881775 0.20230144 0.25577432 -0.3423974 0.11278973 0.2801745 0.31700328 -0.1337035 0.12275921 0.14064696 -0.008975122 0.18951836 0.1231583 -0.28204107 0.005647044 -0.11052821 -0.18691579 0.07709473 0.047718197 0.23046227 0.12869185 -0.0022196653 -0.06328381 -0.14354827 0.08645934 -0.26339605 0.10794141 0.12761086 -0.21933459 0.022262491 0.5716771 0.050651375 -0.20202827 -0.12883934 -0.290036 0.06193765 -0.05372368 0.11095129 -0.07119702 -0.17182612 -0.28920692 0.10640504 -0.15449445 -0.027891697 0.20161106 0.18689936 0.01895156 -0.3258609 0.29526854 0.024489779 -0.17379032 -0.15883037 0.38761678 -0.16461389 -0.019166416 -0.008070245 -0.068862386 0.14174531 0.46234524 -0.032920886
976 -0.042360485 0.022681499 0.08922591 -0.060436703 0.020209499 -0.2126288 -0.091591194 7.671881e-05 0.04816121 0.0033018123 0.17785808 0.1897382 -0.15643026 -0.14627428 -0.0627857 -0.15180126 0.32911918 -0.0377067 0.21964566 0.12806939 -0.21778855 0.2193725 -0.07142159 -0.0004304276 0.038422383 -0.01144811 -0.05186067 -0.026280507 -0.17530714 0.071708426 -0.11336584 0.032279518 0.20054446 -0.07409278 -0.17079252 0.2041544 -0.1668808 -0.34000063 -0.13678797 0.04204136 -0.22832301 -0.30010203 -0.1082882 0.28009552 0.08921258 0.20402434 0.0862804 -0.0040827906 -0.0075330073 -0.1235448 -0.14014404 0.08774075 -0.037809297 -0.045332793 -0.17252338 0.16094804 0.012979407 0.03875512 0.17636587 0.027158301 -0.20761412 -0.28118622 0.12740283 -0.21500176 -0.17787245 -0.07583291 0.049377877 0.13758123 0.13737479 0.1671796 -0.2731772 -0.30600637 0.34483406 0.1493362 0.08953371 -0.10262514 -0.21324736 0.30481708 0.10408314 -0.037368454 0.40858778 -0.36896607 -0.24285848 -0.16022556 -0.2207745 0.089831464 -0.016067792 -0.025515242 0.019770175 0.07545589 -0.16825165 -0.30463004 0.06633718 0.004781934 0.43611467 -0.023352912 0.017017344 -0.31070492 0.3156964 0.08166092 -0.19264534 -0.24062958 -0.26172322 0.16816717 -0.12899645 -0.020620508 -0.0443318 -0.07104094 -0.2899739 -0.23450838 -0.08466146 -0.028177623 0.090050645 0.2872106 -0.3239203 0.020971473 0.043585785 0.1483155 -0.008570666 0.029717574 -0.011246255 -0.2759071 -0.031195568 0.103911646 0.01519471 -0.19078887 0.15802515 0.16049686
975 0.12121677 -0.2374222 -0.14091279 0.10555469 -0.15771566 0.14080895 -0.27945682 0.12250964 0.1833761 0.29313296 0.024022104 0.023712896 -0.21003807 -0.13882664 -0.017415157 -0.067577936 -0.04064723 -0.10765478 0.23150755 0.07143358 0.35987952 0.2925992 0.061610717 -0.15724094 0.17109609 -0.012477439 0.29788512 0.14991042 -0.0043990687 0.13924617 0.09084245 -0.025365204 0.47084653 0.2563555 -0.21022649 0.17647277 -0.0007803488 -0.31700084 -0.15816453 0.106610395 -0.0033409456 -0.02455197 0.03496444 0.17737502 -0.004753983 0.52489483 0.059026208 -0.17553319 -0.23632178 0.0903716 -0.03303287 -0.12486988 -0.17050895 -0.12587446 0.1188975 0.14945549 -0.24122165 -0.22947064 -0.13212268 0.019721908 -0.26471266 -0.10528844 -0.09406585 -0.26815256 0.20800033 -0.01930933 -0.008917792 -0.04636415 -0.035793558 0.0019249205 -0.0028990472 0.006386194 0.07007036 0.18878326 0.24375713 0.087708876 0.041109696 -0.023215448 0.5622223 -0.044446677 0.04736991 -0.107948475 -0.16375129 0.0024561412 -0.1816533 -0.030872514 0.3740724 -0.040798895 0.19372411 0.1880459 0.07163827 -0.034993876 -0.117907 0.042672206 0.26949978 -0.070482284 -0.13112356 -0.31637853 0.117212355 0.09790512 -0.17030767 -0.32531977 -0.05547932 0.07987437 -0.0722921 -0.14248164 -0.06457606 -0.12740488 -0.071545504 -0.16984925 0.07416262 0.17219868 0.16173278 0.2715273 -0.2205828 -0.0026770963 0.12373571 0.06626044 -0.16388063 0.1694187 0.14648896 0.09714945 -0.18046618 0.03802 -0.22692885 0.006398962 0.16302747 -0.096012734
974 0.066320285 -0.121434025 -0.11327247 -0.017446613 -0.37154907 0.28959507 -0.06733239 -0.04132396 0.27126345 -0.065382294 0.17556031 0.060202356 -0.22810449 0.36926034 0.15808 0.2269899 0.25323558 -0.037908956 -0.055564996 0.33415663 -0.077360384 0.34554863 0.2121214 -0.069114655 -0.0051670047 -0.25523344 0.084513 0.020842593 0.03303967 -0.30380177 0.24325456 -0.08362575 -0.07794096 0.14580089 0.057712175 0.354681 -0.058988266 -0.31371135 -0.10012602 0.009982406 -0.123559214 -0.04527738 0.06189568 0.12725535 -0.20949817 0.05050316 0.17947932 0.008024653 -0.033148196 -0.19502094 -0.13238497 0.15257329 -0.11781947 -0.020651491 0.07998483 0.103300735 0.002714419 -0.09700821 -0.22395395 0.20187378 -0.19783746 -0.12284824 -0.17199272 -0.1868201 -0.4012011 0.016497197 -0.025341742 0.3072631 -0.09375969 0.06759908 -0.21971484 -0.1618636 0.07461935 -0.1276657 0.09100617 0.12742037 -0.04434823 0.036383208 0.1371686 -0.13769224 0.19674315 -0.10321194 -0.1617416 -0.08131286 -0.0010847114 0.019531706 0.1669091 0.07955854 0.5997249 0.014061336 -0.12777472 -0.012956738 -0.07686021 -0.27457148 0.05549611 0.08594492 -0.043136057 -0.085912466 0.23990703 0.14392143 -0.11360745 -0.25854 -0.22868349 0.09574841 -0.17625126 0.02167992 -0.18647633 -0.25458106 -0.31877232 -0.005460026 -0.20182626 0.16751201 0.40297946 0.20163369 -0.217681 0.048955362 0.4293312 -0.103325985 -0.16165094 0.06383273 -0.20021613 -0.07942838 0.0058534453 0.1538463 0.14439172 -0.19143133 0.17006472 -0.05910235
969 -0.23320635 0.028238712 -0.036197077 -0.046406135 0.06528143 -0.15898721 -0.0953717 -0.03487212 -0.019856226 -0.1239727 0.23084454 -0.020488415 -0.2885232 -0.09777425 -0.03548794 -0.11014275 0.23323444 0.03191188 0.2391848 0.03830998 -0.18385796 0.2765451 -0.09540975 0.030764528 0.043575104 0.006662949 0.046186503 -0.16242637 -0.03460251 0.20910724 -0.0837322 0.0670015 0.09996932 -0.061527047 -0.01317214 0.2388631 -0.065227866 -0.26526624 -0.06158679 0.020252477 -0.15891264 -0.32965818 -0.13528945 0.25525776 0.08298527 0.271729 0.20727752 0.017053163 -0.07301227 0.012240268 -0.06871778 0.13743049 -0.11696173 0.06340594 -0.19396278 0.15435407 -0.0972363 0.10853132 0.16097358 -0.03366638 -0.09323707 -0.26072443 0.12654358 -0.19701359 -0.16808571 0.04203813 0.02376668 0.20519657 0.33541426 0.13142295 -0.31511375 -0.22507074 0.4583264 0.24075767 0.055136807 -0.16565062 -0.117127836 0.41375962 0.052425116 -0.009069459 0.41988963 -0.4248112 -0.1883239 -0.17169935 -0.13166597 0.09963435 -0.06050959 0.0059915604 -0.032130543 0.08574558 -0.116353214 -0.26240063 0.05973264 -0.0633026 0.27848426 0.014270323 0.013015545 -0.35167295 0.38209128 0.1310661 -0.22998457 -0.2647757 -0.12035737 0.111841306 -0.069386184 0.0501059 0.02617253 -0.016908664 -0.28067863 -0.19356811 -0.034133278 0.0034036278 0.034678977 0.2578393 -0.35089236 -0.0017143895 0.019293696 0.048742533 -0.062065437 -0.065689 -0.05958469 -0.20033352 -0.012895307 0.13259545 0.003802087 -0.026251981 0.03050186 0.087195225
973 0.098890744 0.20711379 -0.35667908 0.22832707 -0.19963826 0.17906956 0.009392905 0.09556224 0.031224852 -0.29294524 0.15235539 -0.09026541 -0.20532095 0.058515992 0.05899137 -0.41937312 -0.051570754 0.31153446 0.076634794 -0.1343008 0.014383476 0.33937317 0.028829446 -0.012531544 0.05960908 -0.21245058 0.053410176 -0.22633362 0.18590201 0.032693118 -0.05874918 0.1630443 0.15747651 -0.041023146 -0.03639151 0.0914962 -0.110091075 0.19234341 -0.07810257 -0.11377685 0.14807776 -0.04916341 0.14288008 -0.007891904 0.042040646 -0.02680764 0.050447255 -0.23635043 -0.023544172 0.020806482 -0.11222538 -0.1335198 -0.053595427 -0.01899904 -0.074880265 0.10677313 -0.21319948 0.0024187367 -0.0011872343 -0.3961779 -0.22270323 -0.2955031 0.10669738 -0.24938083 0.1122436 0.08246978 -0.20710096 0.023796577 0.10482422 -0.11015147 -0.023806501 0.05168031 0.12250627 0.21613833 0.10398162 -0.02347225 0.12246265 0.03102434 0.1657101 0.07159168 0.10888988 -0.1842381 -0.082555614 -0.31381863 0.19505437 0.026878396 0.21285509 -0.13676819 0.09772442 0.2730598 0.11729188 0.08896729 0.17755221 -0.20867191 0.4243938 0.33804074 -0.15603566 -0.18238477 0.20799305 0.16176423 -0.20187539 -0.16771775 -0.115024455 0.086444564 -0.035424408 -0.2644653 -0.031175075 -0.32286805 -0.121812634 0.04211784 -0.052302413 0.073936895 0.16427721 0.39484906 -0.09516789 -0.15281376 0.12133557 -0.21329044 0.059761435 0.016710002 0.13282788 0.06181544 0.021840112 0.27780506 -0.14365742 0.22685014 0.21528296 -0.07755878
971 0.036894444 0.060763333 -0.11552379 0.062320396 -0.043148883 0.20674498 -0.22961566 0.2876815 -0.05923192 0.033375755 0.041284386 0.16097817 -0.45932746 0.13284786 0.2966054 0.014171787 -0.4442657 -0.11134812 0.18121713 0.090137124 0.03165164 0.42513624 -0.10525703 -0.046062037 -0.06913778 -0.12333486 0.29710743 -0.3050388 0.22478811 0.39607257 -0.10583245 -0.03836587 0.29996192 0.04113468 0.047870036 0.100764416 -0.14939016 0.067428924 -0.327993 0.03688723 -0.064696 -0.19808435 0.19228035 0.289724 0.026273793 0.5863725 0.1894341 -0.18179291 -0.28969023 0.111424804 -0.19936162 0.07153765 -0.058795422 -0.14607948 0.080121584 0.2612917 0.039832417 -0.13236986 -0.006973457 0.013485125 0.028554264 0.01705962 0.21725346 -0.32628238 -0.015059705 0.008394419 -0.018638939 0.036593404 -0.079884835 0.12193077 0.017588207 -0.08066708 0.06751669 -0.04476316 -0.25080606 -0.16786201 0.10223269 -0.07216188 0.11924526 -0.09614418 0.1085022 -0.050405577 0.217269 -0.08997831 -0.24287829 -0.0170721 -0.26150015 -0.062381342 0.021626247 0.19830921 -0.36072716 -0.04638083 -0.012715458 -0.086890504 0.25032198 -0.00033566833 0.06071793 -0.12736471 0.16845553 0.027986087 -0.051397353 -0.18394373 0.06137681 0.10894515 -0.13508242 0.23041065 0.2538669 0.1431777 -0.09208177 -0.10808459 -0.12905058 -0.35240355 0.05443194 0.09501656 -0.13131079 -0.22095433 -0.03314759 -0.030287853 -0.166436 0.10547275 0.21927015 0.20399804 0.039632652 0.0313944 0.015309408 -0.15158229 0.29427993 0.021079639
970 -0.048381925 0.092979625 -0.06596386 0.076312594 -0.22929896 0.2896461 0.084107384 -0.22869842 -0.07400085 -0.14955312 0.21364102 -0.04149432 -0.3356567 0.32531694 -0.0692208 0.13770923 -0.055189688 -0.08091105 0.35017845 0.17226309 0.23827615 0.36477858 -0.006092365 -0.11983272 -0.15988357 0.034955095 0.22191715 -0.11947967 -0.025205951 0.017217658 -0.07303891 0.034396045 -0.16912986 -0.052903958 -0.13693304 0.20620875 -0.116889216 -0.35951743 0.080749415 -0.052530333 -0.10781723 -0.16812456 0.052057285 0.036405012 -0.38634562 0.2707364 0.39296812 0.07584373 -0.16910616 0.16646504 -0.024231615 -0.024402153 -0.11406811 -0.07631939 -0.044966325 -0.02512907 0.117901824 0.060941793 -0.18009971 -0.29002267 0.09153416 -0.11793539 0.024317661 -0.17987652 0.00050660386 0.08671213 -0.05701173 0.1815424 -0.032830007 0.25831237 0.25553632 -0.33461207 0.12300875 0.26425982 0.27280286 -0.13427892 0.08853976 0.12666127 0.074244164 0.14144608 0.12214425 -0.30723998 0.039469454 -0.14043519 -0.30004767 0.04719925 0.008579598 0.32516867 0.13745525 -0.01762839 -0.12932639 -0.10201725 0.052461572 -0.27043363 -0.04244037 0.06404393 -0.109890744 0.086657986 0.5394613 0.04271488 -0.18575054 -0.19237173 -0.31041047 0.06008292 -0.029136645 0.24760623 -0.09263489 -0.18982689 -0.3088738 0.14129831 -0.07893826 -0.003264521 0.22737594 0.14401478 0.02489055 -0.35092342 0.27599385 -0.011513151 -0.19017442 -0.07768808 0.3779825 -0.11528827 0.057690006 -0.07574135 -0.049674533 0.07931328 0.4463933 -0.0037684713
960 -0.22397032 0.043100834 -0.074295685 0.12789571 0.023618707 -0.114586405 -0.15090159 -0.13117519 0.040073052 -0.11177941 0.17232153 0.01883545 -0.20293538 -0.011671831 -0.020462224 -0.026982296 0.293428 -0.066404544 0.28702894 -0.020997582 -0.12009612 0.2718693 -0.08715833 -0.04127741 0.07466886 -0.118916154 -0.036915783 -0.058822583 -0.044897433 0.09184289 -0.056968853 0.1196723 0.03177733 -0.13963057 -0.030049268 0.28271344 -0.016850047 -0.41878802 -0.108030386 0.20384088 -0.2378102 -0.25425375 -0.08812282 0.22919276 0.085778624 0.1936741 0.11222886 -0.010340389 -0.034656413 0.005679191 0.026453119 0.021325497 -0.08911208 -0.042576183 -0.13107331 0.120328 0.088520646 0.086754836 0.27141446 0.10493744 -0.2496762 -0.11179792 0.063112594 -0.05510276 -0.2130323 0.03279159 -0.017320754 0.2312398 0.31989437 0.09985225 -0.3074501 -0.16032004 0.36359423 0.18147644 0.0036960682 -0.057545945 -0.10470559 0.45384073 -0.0016026722 -0.04926786 0.4828292 -0.3522954 -0.20779268 -0.18373106 -0.21037848 0.11090279 -0.06123157 -0.031047985 0.013926958 0.062662765 -0.09868005 -0.23533691 0.0713571 0.036603715 0.26725358 -0.040173694 0.081365116 -0.3031997 0.2915076 0.13664629 -0.21331745 -0.2794255 -0.13637564 0.13353074 -0.18299644 0.115577094 0.03358917 -0.07519978 -0.3565894 -0.29029876 -0.079063706 -0.07699741 -0.004856672 0.41736358 -0.39045495 0.050078034 0.060678206 0.042049155 -0.063900396 -0.049186308 0.05245398 -0.20109893 0.05811445 0.14586677 0.083083786 -0.064271815 0.078353666 0.13430224
959 -0.1665597 0.029844396 -0.034073476 -0.040492103 0.051813096 -0.14576977 -0.06123876 -0.050421104 0.03464204 -0.18520147 0.3397699 0.07452799 -0.25324336 -0.059006684 -0.11415207 -0.12536107 0.4159563 0.017988788 0.27673447 0.024084376 -0.0194111 0.26161343 -0.0900408 -0.121160105 0.04695866 0.04722086 -0.019478617 -0.03412111 -0.08249777 0.10730031 0.005327561 0.119325995 -0.026869334 -0.11631141 -0.16489342 0.22776788 -0.07725582 -0.39361787 0.082772724 0.0812513 -0.10099343 -0.22085233 -0.15392211 0.26247332 0.051167734 0.24002649 0.16376984 0.044569958 -0.06557096 0.018575318 -0.026847914 0.09280559 -0.1490642 -0.10782522 -0.28994653 0.1524775 -0.08065628 0.08818557 0.1872863 -0.069069326 -0.16287102 -0.24129932 0.047715895 -0.06735114 -0.121864006 0.03725723 0.007400841 0.27106223 0.2890015 0.066509515 -0.20173398 -0.2807847 0.20847853 0.20885608 0.2460233 -0.0953144 -0.14651446 0.44874352 0.100771844 -0.04927165 0.34769487 -0.4013625 -0.2275411 -0.081531525 -0.10762634 0.16504514 0.04925012 -0.011467238 -0.04195496 0.08254711 -0.0035881049 -0.23397185 0.04523941 -0.036776546 0.28915662 -0.058205977 -0.02758642 -0.33654782 0.26835656 0.14135207 -0.34511653 -0.25926262 -0.20339032 0.1397442 -0.07945379 -0.041057054 0.04460869 -0.044617966 -0.34321898 -0.28363642 0.06328112 0.018426241 0.06747258 0.42429224 -0.3199632 -0.043656386 0.09280427 0.06451246 -0.061189678 -0.04936964 0.034153394 -0.24757166 0.071254015 0.0992171 0.02518626 -0.048560835 0.09462317 0.03861351
954 -0.167234 0.03233929 -0.0038257756 0.0325116 0.06770534 -0.25190097 -0.10664719 -0.21280879 -0.115543954 0.01936471 0.18660942 0.1441949 -0.10445716 -0.102985784 0.034081742 -0.11630004 0.2881842 -0.04181671 0.41178098 0.050539132 -0.21475911 0.19374114 -0.16680905 -0.122693494 0.10717197 0.023517726 0.02663657 -0.0068441886 -0.026899276 0.07475837 -0.047660735 0.06717345 0.15347637 -0.09217888 -0.12980144 0.20984966 -0.11964272 -0.3841024 -0.12174064 -0.072451286 -0.25087526 -0.31801814 0.011844079 0.247796 0.006248381 0.19823605 0.07486295 -0.019536946 0.006131109 -0.016249854 -0.104816735 0.070674606 -0.08995913 0.0065591857 -0.20974234 0.04078364 0.05196166 -0.013501464 0.17334744 -0.04881698 -0.12598695 -0.24453308 0.06864153 -0.110725515 -0.12923828 0.00041328318 0.015726337 0.20370935 0.25605616 0.052166864 -0.23453575 -0.22972612 0.35916808 0.19972159 0.14280938 -0.12149698 -0.16090313 0.42452142 0.06038577 -0.01142532 0.37958103 -0.50723577 -0.19420306 -0.1287315 -0.15365255 0.043151513 0.058228016 -0.01115111 0.0129133575 0.099495605 -0.13631548 -0.33037755 0.03289998 0.013463512 0.3183804 -0.104466006 -0.03352561 -0.35985357 0.27096608 0.07517187 -0.26411206 -0.24998815 -0.15605018 0.11487384 -0.12718031 0.0056824954 0.030775497 -0.024609236 -0.23233685 -0.2483006 -0.09280074 0.049041618 0.07799631 0.3292138 -0.40289485 0.04208146 0.11435839 0.029515164 0.02073088 -0.03387944 -0.01061765 -0.27735126 0.054275535 0.08246509 -0.03662462 -0.049601 0.0005539822 0.14628823
964 0.0794209 -0.09335072 -0.19094926 0.005822656 -0.30638382 0.32816163 -0.03534223 -0.104858816 0.1437755 -0.08499057 0.098735094 0.029450493 -0.22118418 0.40166375 0.14993238 0.14819284 0.13462663 0.0073339953 -0.014811297 0.15615876 -0.12302121 0.3122656 0.16064598 -0.08204206 -0.041892514 -0.1936416 0.03441666 -0.0024004611 0.01892089 -0.32833827 0.20544432 -0.10618557 -0.10744935 0.08681597 0.0659511 0.28060576 -0.06998348 -0.16037185 -0.029294413 -0.01690991 -0.105869986 -0.021502959 0.09906403 0.011172698 -0.11204639 -0.1664314 0.1005622 0.023525046 -0.019128414 -0.1130844 -0.08095563 0.09646663 -0.082313105 -0.037038993 0.092372105 -0.047830068 0.018406052 -0.105897956 -0.2111397 0.1575171 -0.08737753 -0.09561882 -0.09914827 -0.17828909 -0.34306306 -0.06160921 -0.05245038 0.2474905 -0.11040766 0.018486282 -0.047624394 -0.12706329 0.080496624 -0.13625683 0.050844498 0.16938174 -0.05828109 0.113552175 0.033145204 -0.07482068 0.28577304 -0.22273459 -0.0038038362 -0.12423916 0.10069555 0.034780547 0.12767044 0.07935372 0.6371911 0.021972686 -0.19168995 0.017390048 -0.042915482 -0.33938807 0.13269123 0.15349734 0.027393442 -0.09122289 0.20314468 0.17557791 -0.007468724 -0.20213349 -0.22094679 0.12154144 -0.25031802 0.032601833 -0.11240047 -0.38832507 -0.32499123 0.11679168 -0.2520654 0.19031414 0.47247934 0.31025463 -0.20416981 -0.06754738 0.42479366 -0.20194049 -0.19069614 0.052911002 -0.1666973 -0.04734144 0.055910688 0.12413014 0.15130667 -0.088733055 0.28380206 -0.0026800276
966 -0.015883239 0.033154592 -0.206249 0.02155283 0.016280634 0.16270775 -0.23974347 0.10439196 -0.1547126 -0.026977776 -0.03109126 0.16556112 -0.49383026 0.3259657 0.21419486 0.018574568 -0.36767313 -0.09269708 0.27464515 -0.031885948 -0.01237702 0.41325802 -0.14712334 -0.09060093 -0.056663055 -0.20032035 0.35721287 -0.21056202 0.4044819 0.26188537 -0.030218942 -0.10668 0.13804509 0.054328497 0.14633788 0.17414492 -0.11316612 0.08687616 -0.39934427 -0.028999073 -0.0913499 -0.057321664 0.2246323 0.21234791 -0.0554301 0.39444724 0.121137604 -0.039486475 -0.20350857 0.10326829 -0.12405118 0.10218094 -0.0488397 0.06843651 -0.042342138 0.029210003 -0.007469966 -0.09661954 0.0035799593 0.055008102 0.08262926 -0.0011607374 0.1563072 -0.29815 -0.107690774 -0.079830095 0.07814417 0.118939385 -0.10647629 0.03759141 0.20055339 -0.1754831 0.100595854 -0.042142097 -0.2374519 -0.23450886 0.066508256 0.07915286 0.05860655 -0.043190088 0.17514126 -0.049808312 0.21050808 -0.017638596 0.06295672 0.025869707 -0.30441815 -0.07740411 0.17018797 0.18558335 -0.32788014 -0.005763427 -0.06936726 -0.08414077 0.28979412 -0.024223456 -0.10256529 -0.1894375 0.24224845 -0.01741512 -0.09878658 -0.14836854 0.0897266 0.03730214 -0.16168441 0.28952014 0.25466454 0.116168626 -0.19954497 -0.02427768 -0.17099093 -0.2595715 0.16811256 0.09063372 -0.13464154 -0.26681697 -0.009979488 -0.11287132 -0.21412678 0.032553278 0.09827631 0.21542382 0.177986 0.11716809 0.11551101 -0.023857806 0.28352764 -0.009265568
955 -0.093512855 -0.00419705 -0.07550269 -0.024038624 0.13543093 -0.2729023 -0.09412029 0.027824877 -0.10140532 -0.13319248 0.3313049 0.10229864 -0.22206517 -0.13851056 -0.13799985 -0.13257407 0.34114352 -0.09605612 0.32761338 0.027984178 -0.24773014 0.23877198 -0.14649135 -0.06603763 0.016854739 -0.0060041305 -0.08939451 -0.081602156 -0.13032734 0.050930567 -0.13278742 0.24338475 0.024976501 -0.053107858 -0.13759908 0.15817988 -0.038771562 -0.12756617 0.043378785 0.056560747 -0.074767396 -0.27167988 -0.18858832 0.21746573 0.07224513 0.14581668 0.057709992 -0.017202161 0.06388971 -0.11886084 -0.26354852 0.09937111 -0.09173703 0.020455318 -0.251202 0.23696007 0.0058289543 0.037000243 0.26555836 0.030096628 -0.16561882 -0.26010504 0.24750172 -0.14771363 -0.11466243 0.0796579 0.026966007 0.32675317 0.28033343 0.2089784 -0.28472406 -0.22953221 0.26460594 0.15407382 0.050816163 -0.106935464 -0.19981864 0.3765285 0.14820652 0.007817463 0.32759988 -0.35808966 -0.32416975 -0.15453626 -0.088247724 0.1303561 0.07333257 0.00041117388 0.1103461 0.1267338 -0.13785152 -0.31192875 0.084962614 0.073473684 0.48857325 0.052035797 -0.03162412 -0.48768774 0.28312132 0.04049341 -0.2960417 -0.1570447 -0.124289915 0.15631571 -0.13447699 -0.03187908 -0.0038016543 -0.13062009 -0.24971811 -0.20118077 0.006984591 0.007886779 0.08624735 0.23373014 -0.3540797 0.12454517 0.04394823 0.10497395 0.017178895 0.008353011 0.008638073 -0.18176506 -0.007553827 0.053050812 -0.04228129 -0.054569796 0.16379632 0.19906637
953 -0.16556013 -0.041083544 0.18514074 -0.017755132 0.07371586 -0.27353418 -0.060030963 -0.04214193 -0.058664914 0.04096931 0.26931944 0.12532023 -0.29653946 -0.063317284 -0.07110829 -0.2150322 0.31287226 -0.12437074 0.41948357 0.20151725 -0.13065585 0.3069109 -0.06710777 -0.048617315 0.01374565 0.024161994 0.073648684 -0.09377209 -0.077924766 0.11587793 -0.13263044 0.09151683 0.099539645 -0.022700869 -0.23444244 0.26092237 -0.19064353 -0.36619937 -0.16114712 -0.06819721 -0.20667824 -0.27252853 -0.07845314 0.25404054 0.05162742 0.26745847 0.18794578 0.023872571 -0.0020642933 -0.07272936 -0.16150379 0.12178556 -0.05678321 -0.030156938 -0.13975787 0.09104896 0.014997851 -0.0022211494 0.04796558 0.0718248 -0.14141183 -0.34010193 0.21314953 -0.16840617 -0.22589424 0.0013803196 -0.03714326 0.20670179 0.15621014 0.09255752 -0.32477844 -0.38907024 0.31405503 0.2644412 0.1572978 -0.19602098 -0.19266613 0.4275007 0.07446055 0.020670073 0.29549873 -0.2965219 -0.26406136 -0.10082111 -0.25271785 0.05569633 0.113458246 -0.02478612 -0.017315986 0.0731449 -0.048126757 -0.27959222 0.037674315 -0.013151668 0.285218 -0.048459746 -0.062554955 -0.32776886 0.32281372 0.10078514 -0.29238904 -0.23680028 -0.11005299 0.16859007 -0.06994407 3.4112938e-05 0.025548372 -0.053321052 -0.15819953 -0.14005198 -0.018265128 0.03698765 0.05089163 0.27682465 -0.30312192 0.0074562784 0.106080286 0.112078704 0.0073166643 -0.12896362 -0.029477345 -0.2897353 -0.06829468 0.099291965 -0.07129187 0.05786366 0.12413932 0.2135837
957 0.037329067 0.057927854 -0.07441339 0.08968483 -0.25576642 0.27126047 0.02972999 -0.1566907 -0.16692959 -0.028342536 0.3376731 0.04942101 -0.19251022 0.2985925 -0.05730287 0.16807565 -0.08560113 -0.1466347 0.38089338 0.22541875 0.20728728 0.37214985 -0.14194961 -0.20043032 -0.08536927 0.027320834 0.24567577 -0.07664442 0.04250204 -0.038282752 -0.050550774 0.070341244 -0.24642769 -0.074236386 -0.1088349 0.25665966 -0.10690047 -0.2878248 0.1546282 -0.04987879 -0.16669437 0.0069144405 -0.012652118 -0.07836115 -0.33212584 0.30391926 0.27180982 -0.018028053 -0.07819212 0.10670631 0.017340876 -0.08023773 -0.10248326 -0.07972788 -0.055164404 -0.1549416 0.10280948 0.10883007 -0.18840533 -0.24948983 0.15339038 -0.1143693 -0.020049868 -0.09651857 -0.08030453 0.042465817 0.00539877 0.22292052 -0.027067602 0.2535119 0.23363186 -0.35820535 0.07909131 0.23650973 0.31523407 -0.11096194 0.0813242 0.098027565 0.06790254 0.11879516 0.047916614 -0.3554284 -0.006185328 -0.06172504 -0.14692764 0.09093832 0.089430474 0.28309768 0.26763248 -0.064339735 -0.14357735 -0.20695284 -0.02849488 -0.30074942 0.020393014 0.17333078 -0.18886308 0.033608876 0.5140453 0.027073927 -0.10267064 -0.10692755 -0.28367582 0.021600801 -0.02828832 0.11107582 -0.17606913 -0.1782999 -0.292707 0.16625246 -0.10507902 0.036603015 0.24412252 0.14528018 0.054557975 -0.27178344 0.4012001 -0.030253649 -0.22605851 -0.14229795 0.3586076 -0.19582693 -0.015040154 -0.11067553 0.02938101 0.06047404 0.46417603 -0.001027094
958 0.06970512 -0.06829244 -0.095609896 -0.13282092 0.071635656 0.06865071 -0.1255284 0.3751502 -0.1865102 0.009163554 0.015763536 0.30019283 -0.28576764 0.17669845 0.18912996 0.059356242 -0.36245143 -0.16536301 0.1631216 0.062182836 0.04130222 0.38372022 -0.055820215 0.021916455 -0.06920875 -0.21909268 0.25570032 -0.3358243 0.2701171 0.33597776 -0.0045028133 -0.043707877 0.21965379 0.13645901 0.06115926 0.16509868 -0.03195755 0.042449582 -0.32285404 0.043263547 -0.19920753 -0.13184766 0.16742371 0.29651427 -0.05431138 0.5649962 0.1742184 -0.2138366 -0.27971286 0.24908064 -0.14630833 0.0340046 -0.07065956 -0.06714895 0.07686406 0.080182396 0.01004658 -0.07539216 -0.12531604 0.11589061 0.0002404388 0.060259208 0.18749188 -0.2508061 -0.16714121 -0.018805983 -0.030017288 0.07661472 -0.09442326 0.1257711 -0.021864131 -0.09868553 -0.011625308 -0.077212505 -0.19794695 -0.30102417 0.12313668 -0.032789323 -0.045982137 -0.23107824 0.18670142 -0.14998902 0.2413806 -0.054148097 -0.04823056 0.08864097 -0.30267924 0.0028944777 0.18883094 0.17665009 -0.28549045 -0.0059934356 -0.12217423 -0.21855842 0.30380294 0.020151414 0.06350628 -0.17288907 0.18590893 0.09072392 -0.10345433 -0.1329713 0.053590823 0.08407251 -0.084034115 0.24651244 0.17837662 0.147625 -0.113970555 0.019023644 0.011359696 -0.18653977 0.17813897 0.13710609 -0.09724927 -0.21112908 0.04088015 -0.17758211 -0.17307232 0.06934727 0.19237345 0.17871374 0.08641454 0.150149 0.21124215 -0.22003303 0.31610784 0.019872153
991 0.24667561 0.2896651 -0.26315323 0.39700544 0.042642355 0.07151132 -0.120838694 -0.16159339 -0.014420752 0.033762075 0.02235273 -0.08441022 -0.07500008 0.27256638 0.1979378 0.12566167 -0.31408274 0.00822729 0.3831299 0.012329668 -0.06419524 0.27780166 0.12757461 -0.22287327 0.2831729 -0.07588387 -0.071482316 -0.01822801 0.26538226 0.025436705 -0.018989746 -0.2085674 0.51294047 -0.18204477 -0.02581903 0.04151484 0.1688249 -0.12935966 -0.04574486 -0.03205555 -0.19531648 -0.09109064 0.23426889 0.04478372 0.06935941 -0.019267866 -0.029456267 -0.17348866 0.1293617 0.2939102 0.09622253 -0.23067097 -0.2610086 0.11807155 0.15408906 -0.0156165445 0.26694193 -0.195406 -0.025314083 -0.31918633 -0.07667021 -0.08129587 -0.1756105 -0.24715897 -0.03074343 0.11540916 0.12922864 0.10689482 -0.051572055 -0.27726942 0.18884368 -0.08048783 0.13335213 0.14793822 0.06264861 -0.13460952 -0.19780482 0.18157639 0.27805778 -0.10429577 0.18307552 -0.5796774 -0.06940869 -0.2637566 0.023565792 -0.090731524 0.25537494 0.093734205 0.10454024 0.073155254 -0.1960411 -0.18037619 -0.15210329 -0.021779167 0.24246022 -0.084257595 -0.020018045 -0.25081992 0.0014427112 0.07525043 0.06911745 -0.18515171 -0.04183388 -0.07871064 -0.13698047 0.087669194 0.11865095 -0.09758338 -0.051518504 0.06984629 0.018903827 0.057221718 0.07753523 0.44223052 -0.099988334 -0.044019453 0.12922771 0.00523818 -0.061717775 0.14253339 0.20622107 -0.17936663 0.24450116 -0.117020674 -0.010749058 0.07494434 0.11839552 0.07001922
984 0.21748026 0.113714635 -0.16134474 0.008782092 0.22283873 0.071287885 -0.22322747 0.2431029 0.13029851 0.089166574 0.21802315 -0.0695705 -0.33553043 0.17209163 0.18769641 -0.08879509 -0.000692663 0.016482892 0.2796764 0.21092585 0.0028654896 0.32867113 -0.11022831 -0.041978158 0.0014175272 -0.011473049 0.077808216 -0.20387317 0.2777011 0.0065245037 0.1822844 -0.042880103 -0.18521939 0.036392953 0.14177021 0.07812772 0.14391738 0.16927941 0.05803688 -0.01776497 -0.34725443 0.11857717 0.1358702 0.27638718 -0.025756087 0.19637112 -0.1742807 -0.13302635 0.061361477 0.13693483 0.06309518 0.37276107 -0.2598277 -0.059767354 -0.054617893 0.13317163 -0.18452972 -0.3424959 -0.10382068 -0.1213464 0.31208378 -0.34415957 -0.059407108 -0.039649494 -0.16870704 0.043728027 -0.011613309 0.23973814 -0.0717011 -0.29012874 0.1156347 0.054287735 -0.11168278 0.2536417 0.18053338 -0.12944359 -0.25271302 0.16686703 0.28034937 -0.032310624 -0.14258564 -0.26281226 0.0689488 0.14764333 0.2481689 0.24833669 0.075208254 -0.048560195 0.34460327 0.16731428 -0.12669277 -0.008075893 -0.12543453 -0.27203158 0.049445495 -0.058242556 -0.33633712 -0.32184842 0.18417273 0.18531722 -0.248976 -0.11121683 0.06443046 -0.23017378 0.042988844 -0.16763967 0.031412277 0.04518034 -0.24723816 -0.13979986 0.11254506 0.1875182 0.2478317 0.25648814 -0.2481697 -0.07441322 0.26625207 0.007870506 -0.20358843 -0.033531517 -0.10085487 -0.22942162 0.14668234 0.14053333 0.21004115 0.15573606 -0.02300242 0.38842958
956 0.058213253 -0.22574131 -0.12004399 0.07377846 -0.24229312 0.12111161 -0.20854187 0.048882265 0.17740941 0.22174306 0.045700077 0.08545621 -0.19355848 -0.07699553 -0.009140167 -0.13037069 -0.02747818 -0.14403698 0.18007413 0.02367901 0.38775513 0.28756016 0.059825424 -0.17518595 0.18057784 0.010482293 0.21279573 0.15209636 0.00802697 0.070232175 0.11764078 0.013744803 0.3814311 0.20339109 -0.23090112 0.22160979 -0.0010026809 -0.41314095 -0.16370808 0.11823665 0.06007516 0.029194985 0.010804085 0.17160164 -0.011394391 0.4919436 0.07687026 -0.10295984 -0.28472477 0.16264242 0.04714287 -0.10253638 -0.15646435 -0.04509852 0.044806235 0.00739087 -0.26472497 -0.20302825 -0.12823094 0.030330759 -0.3193116 -0.101832926 -0.093947835 -0.24009769 0.1819425 -0.079104625 -0.08359678 -0.04214066 0.009494764 -0.02154634 -0.016837835 -0.09672446 0.103008 0.32486668 0.21985534 0.10845237 0.024684202 0.045687344 0.43482617 -0.059288155 0.19234562 -0.091465965 -0.15622114 -0.05328402 -0.1846547 -0.05632082 0.36822537 -0.029426597 0.17681943 0.13320886 0.11317192 0.037209634 -0.1246087 0.024553437 0.29404023 0.010316257 -0.068867356 -0.27333465 0.118643664 0.13406505 -0.14472093 -0.32402903 -0.12885173 0.20837684 -0.05500543 -0.1304792 -0.07191067 -0.18256728 -0.02785762 -0.11466151 0.058925524 0.15729997 0.19990888 0.33507624 -0.18979666 -0.072724506 0.14317572 0.119289465 -0.10061026 0.070145786 0.16017558 0.08265338 -0.18812396 0.056749906 -0.18960506 -0.020992428 0.23357037 -0.11262829
950 -0.20880872 0.07821461 -0.00989799 -0.00646699 -0.16998011 -0.16892669 -0.08642649 -0.13045041 0.1263911 -0.059206013 0.16217831 0.056858234 -0.23234499 -0.13225842 -0.013525387 -0.2313098 0.28274596 -0.02886216 0.3598988 0.028148517 -0.22919331 0.28878286 -0.066817306 0.02534927 0.037418842 -0.06671308 -0.044785116 -0.11622185 -0.05936907 0.119465806 -0.07555967 0.14337096 0.27398723 -0.032940198 -0.11502121 0.28610072 -0.10971016 -0.24856761 -0.061101206 0.021800987 -0.17996894 -0.26219755 -0.12304701 0.2907163 0.07677762 0.17315173 0.08182092 -0.12404464 -0.12884726 0.09296006 -0.10404727 -0.038178813 -0.1914455 0.094556 -0.24351518 0.17149274 0.03612875 -0.03649572 0.1104544 -0.03674843 -0.21732487 -0.22156684 0.12476507 -0.2070853 -0.06035731 0.051682975 0.0019455027 0.13844432 0.28305256 0.06539709 -0.22570589 -0.23287243 0.322884 0.2399242 0.09425931 -0.10748792 -0.115050465 0.25612313 0.042663287 0.09913604 0.3238512 -0.38205624 -0.27264506 -0.19183186 -0.101401046 -0.07630354 0.053093277 0.01589132 -0.098936506 0.05771269 -0.13480772 -0.23996608 0.034007 0.008785309 0.3242519 -0.018524835 0.08679636 -0.3065575 0.23638275 0.17480677 -0.13653663 -0.12031875 -0.06717033 0.1512452 -0.05363203 -0.041159116 -0.072368756 -0.034902163 -0.18270846 -0.2837263 -0.019337276 0.039290104 0.027012745 0.37008506 -0.3380521 0.036675733 -0.011387408 0.10067715 0.05737133 -0.03080293 0.08732754 -0.3567404 0.10399954 0.054976698 -0.08881426 -0.029208124 -0.062116496 0.15705015
967 0.23804188 0.1279055 -0.068598874 -0.020787356 0.22563145 0.105634384 -0.16549674 0.29193377 0.13652603 -0.060196184 0.3525372 -0.036682747 -0.39251995 0.16279374 0.09138347 -0.256007 0.034733247 0.071624644 0.2255306 0.21103007 0.029267041 0.36844814 -0.16081077 0.019609516 0.039169714 -0.031934403 0.10439265 -0.2370262 0.29138327 0.009824422 0.075762816 -0.054336164 -0.17354326 0.019918835 0.12968089 0.059460584 0.13862953 0.2148774 0.0833642 0.009122641 -0.40121338 0.13675155 0.11084173 0.25568107 0.074187785 0.25187522 -0.2594076 -0.14545129 0.0524559 0.11922361 0.062311452 0.3799045 -0.33217618 -0.13756259 0.020264326 0.099957824 -0.12476071 -0.29760408 -0.12123978 -0.18117145 0.19690217 -0.46814397 0.0640116 -0.011533309 -0.18293804 -0.043097142 -0.037250765 0.25211135 -0.0828291 -0.25726968 0.06401456 -0.023063049 -0.07669895 0.14956228 0.16664943 -0.021991625 -0.25062686 0.14073743 0.1468589 -0.02377714 -0.113290325 -0.2759951 -0.07301772 0.022703426 0.29047194 0.20316592 0.030763859 -0.10503708 0.2660114 0.16258088 -0.036611702 -0.01952435 -0.096692994 -0.26130474 0.058128558 -0.05564196 -0.28055495 -0.2633463 0.23770514 0.22172956 -0.27742305 -0.13412352 -0.023725187 -0.1703306 0.0016514575 -0.18198396 0.018399185 0.022134569 -0.3090198 -0.15068658 0.07585722 0.19958143 0.2582004 0.25524238 -0.20553958 -0.075383894 0.24306014 -0.03925409 -0.13452043 0.019255804 -0.26350957 -0.1856065 0.12675239 0.2181462 0.27379665 0.15434198 0.08190478 0.31430545
992 0.22067681 -0.08179176 -0.15459967 0.16081959 -0.20164375 0.23935732 -0.3298889 -0.25047162 0.2657777 -0.1492563 -0.08436587 0.15103742 0.008381258 0.23470983 0.41246238 -0.18918593 -0.07581221 -0.2168266 0.18808557 -0.118202314 0.25697002 0.25630236 -0.11433843 -0.45330766 -0.21916966 -0.21433014 -0.10290436 0.14192961 0.066740304 -0.05864807 0.16543306 0.16121191 -0.024717439 0.0047861678 0.23337328 0.3168827 -0.11968383 -0.109223776 0.1352746 0.33963096 -0.22568485 -0.053066038 0.2646842 0.018116035 -0.18760316 0.28533894 -0.21019697 -0.006410549 -0.15977845 -0.028931547 0.27140963 -0.13994502 -0.16622214 -0.07945757 -0.035206463 -0.14183033 -0.11598806 -0.070230946 0.17458084 0.27815613 -0.20723101 -0.11393305 0.15104859 -0.20670132 -0.22043473 -0.067667134 0.065305695 0.16265142 0.18277365 -0.07573763 -0.001297665 -0.19319594 0.1374461 0.28627288 0.043295242 0.14250429 -0.20534882 0.15474817 -0.11020932 0.16312143 0.305493 -0.29554692 0.1996527 0.19380678 -0.006724436 0.18738632 0.12667002 0.24136333 0.10268432 -0.0018117814 -0.22991797 -0.07181614 -0.020976134 0.1186693 0.35339582 0.40075684 0.09465428 -0.4339978 0.047044385 0.16496757 0.25824934 -0.0056693754 -0.17307258 0.11803914 0.07864093 -0.13110054 -0.04884594 -0.21005367 -0.16559392 0.18466306 -0.028977737 0.26661807 -0.017893272 0.46688598 -0.03467612 0.024337918 0.25253257 0.062102634 -0.013603935 -0.045625404 0.17880821 -0.07657984 -0.27575544 0.0581649 0.241066 -0.10012651 0.08462746 0.010812145
972 0.124057405 0.0018176837 -0.061367523 0.100967884 -0.13406606 0.14446221 -0.319959 -0.22066148 0.19857323 -0.23496504 -0.05757735 0.1828157 -0.028831314 0.40734258 0.38382468 -0.19991636 -0.07093651 -0.14307064 0.26904565 -0.12710346 0.28319597 0.19099718 -0.18867263 -0.48573634 -0.29321623 -0.17741826 -0.09609211 0.1886783 0.14717233 0.009502537 0.1416332 0.14353146 -0.08079972 -0.037512165 0.23647724 0.21860038 -0.16251312 -0.17977567 0.09824008 0.30702662 -0.28721535 -0.18369655 0.2928108 0.13816002 -0.21794817 0.34828898 -0.1885074 -0.10577665 -0.14272971 0.02331342 0.32139465 -0.1406041 -0.18888518 -0.19169106 -0.013747092 -0.069205366 -0.167422 -0.15369187 0.22452658 0.23711717 -0.19191204 -0.19299416 0.16799346 -0.19163255 -0.17634787 -0.15827069 -0.016186425 0.124662 0.11714057 -0.16189824 -0.009295968 -0.15430455 0.17005253 0.3254444 0.002020467 0.091726236 -0.1981168 0.264359 -0.07765214 0.18737097 0.30967534 -0.35972798 0.24869189 0.14041772 -0.00087810284 0.26837888 0.043760102 0.21938713 -0.040864293 -0.013440276 -0.2546198 -0.0063535203 -0.037746776 0.1220386 0.30055726 0.30789188 0.04383567 -0.35409766 0.063040935 0.13642934 0.1319339 -0.012763022 -0.15912777 0.07509584 0.07833377 -0.036483984 0.066776164 -0.14193405 -0.03170612 0.14645949 -0.035341334 0.2115031 0.002164613 0.45920357 0.029834779 -0.06983961 0.21602409 0.09938347 -0.05642353 -0.14981553 0.12005459 -0.083211035 -0.15625893 0.0938691 0.29571825 -0.046022788 0.018433241 0.09598949
996 0.19245285 -0.054809384 -0.14078887 0.24665803 -0.1740598 0.19485843 -0.31098944 -0.15282114 0.28328088 -0.14413744 -0.11374656 0.01915421 -0.058106583 0.31801257 0.38621473 -0.21315709 -0.13945353 -0.09633396 0.26331118 -0.16533929 0.21866837 0.25219965 -0.05528871 -0.4600815 -0.23930484 -0.27213 -0.09016156 0.18476963 0.16579159 0.020290032 0.20524243 0.07388686 0.066382624 -0.016175328 0.23046726 0.3018817 -0.10717217 -0.074954085 0.108382516 0.36155015 -0.2843118 -0.13344058 0.29674518 0.13917485 -0.15546308 0.23125838 -0.19893844 -0.13533442 -0.17709811 0.060795628 0.3073531 -0.12704888 -0.19275391 -0.09616757 0.062964745 -0.052357353 -0.07490791 -0.065251425 0.1538138 0.2589417 -0.22946943 -0.123440936 0.1664115 -0.1820791 -0.21583548 -0.009083956 -0.014081895 0.08372236 0.13725972 -0.18424578 -0.14610995 -0.07924285 0.175366 0.2388319 0.032933045 0.13789317 -0.22783954 0.20689507 -0.07480774 0.19929267 0.28168708 -0.23442532 0.2172355 0.014549102 -0.029923905 0.21729389 0.13256137 0.17740096 0.064591534 -0.0027535104 -0.27334696 0.04145975 -0.059809927 0.06878176 0.31999302 0.34367195 0.13326941 -0.40805665 -0.11433284 0.16124678 0.09181825 -0.03911832 0.03615166 0.13481882 0.048575487 -0.08036659 0.058355153 -0.19181098 -0.009450975 0.1142646 -0.024911303 0.3082372 -0.023065982 0.5137653 -0.0070295157 0.05684839 0.2258078 -0.010220808 -0.046656635 -0.040759455 0.08892316 0.009213657 -0.13127083 0.06299203 0.29866192 0.03936822 -0.104279265 0.13134411
946 0.18947205 0.059947047 -0.2399297 0.020569397 -0.22155423 0.2867915 -0.12733753 -0.013299773 0.20160824 -0.15414603 0.083142705 0.11761817 -0.23907855 0.43660188 0.22944073 0.20630963 0.072554365 0.082120165 -0.16038314 0.27601922 -0.15977298 0.38978153 0.19745615 0.015538976 -0.05278695 -0.31834975 -0.0032046104 -0.03767434 0.09568059 -0.29113293 0.24162516 -0.10972236 0.08428412 0.15993927 0.07625978 0.1487278 -0.06336244 -0.10874281 -0.11415656 -0.0014816673 -0.05610932 -0.09190685 0.13966121 0.0011402365 -0.061791006 -0.0820394 0.19525585 -0.09585953 -0.068921395 -0.040606022 -0.14110242 0.084056474 -0.1220632 -0.036707636 0.13053939 0.12691283 0.072965905 -0.0994519 -0.17210191 0.12068758 -0.1936579 -0.13918807 -0.061777357 -0.13047136 -0.338775 0.014550636 -0.06714793 0.27866727 -0.16975524 -0.020436177 -0.14883381 -0.061542932 0.085131444 -0.16917782 0.07204403 0.1370564 -0.049216274 -0.01334322 0.04934524 -0.11315677 0.17163791 -0.22908838 -0.07038888 -0.17990069 0.042360865 -0.022960316 0.16308665 0.05902328 0.57081956 0.09903564 -0.10516092 0.14651679 -0.008386022 -0.338288 0.062383097 0.2117536 -0.04462878 -0.0155163985 0.109077476 0.20927125 0.0017699182 -0.14696734 -0.24502307 0.11953763 -0.24196066 -0.057082556 -0.07583032 -0.30769512 -0.2531723 0.029724006 -0.17459053 0.19826943 0.42719468 0.2463863 -0.26228565 0.07218436 0.34224615 -0.2459887 -0.12327136 0.17429768 -0.18181863 0.035807647 0.02299046 0.17460705 0.0603132 -0.0640004 0.26201734 -0.034911122
949 0.1906819 0.1997107 -0.30410552 0.19776405 -0.2990765 0.14512418 -0.060295463 0.023630569 0.054386325 -0.21260099 0.16389266 0.010937391 -0.18822354 0.10828336 0.10615041 -0.40225887 -0.0796775 0.3790854 0.0018025738 -0.10425529 -0.17695364 0.20319234 0.065766856 -0.06799041 -0.026619863 -0.27899888 -0.09262963 -0.14607199 0.043048043 0.039739914 -0.15923765 0.21192381 0.14837807 -0.069549404 0.02592856 0.027826566 -0.2194717 0.1967051 -0.16569956 -0.09335872 0.10328553 -0.20721966 0.1523107 0.15458956 -0.13298054 0.079825416 0.02427319 -0.29851598 -0.035707112 -0.11375305 -0.09226756 -0.0686976 0.06105915 -0.1457662 -0.038987476 0.21559125 -0.18761766 -0.035931244 0.13523106 -0.36992067 -0.35314324 -0.39849538 0.1433868 -0.34776288 0.054324634 -0.076793164 -0.13615629 -0.018432654 0.1168387 -0.06430454 0.020215737 0.031604912 0.10233241 0.092784666 0.039371744 0.029643482 0.025430068 -0.022245975 0.12448651 0.048715483 0.16288888 -0.2463841 0.0737147 -0.2800471 0.19760875 0.044869944 0.09262047 -0.06642876 -0.005582764 0.23035721 0.063939795 0.05120824 0.29531324 -0.087198496 0.47564384 0.39810485 -0.037284296 -0.06697784 0.32844958 0.15917996 -0.09826245 -0.075254835 -0.28122297 0.13791311 -0.04847453 -0.26896125 -0.0016977383 -0.3466559 -0.09190254 0.050125692 -0.26040155 -0.07150845 0.21077807 0.29604146 -0.11428536 -0.14898556 0.08129808 -0.11590138 0.07538563 0.011842053 0.116394304 0.038640525 0.022076197 0.3155958 -0.22444393 0.05856298 0.15970208 -0.023792746
963 0.21579704 0.14122427 0.031256523 0.03532153 0.27252603 0.06627644 -0.13258731 0.3044341 0.0836347 -0.034049887 0.3395089 -0.036585983 -0.38218784 0.18035471 0.17582335 -0.1746379 0.009752509 0.085438065 0.25211912 0.22273679 0.033348914 0.3329276 -0.16214843 -0.010098343 0.052598268 -0.019862117 0.071139336 -0.22528093 0.2950473 0.030562976 0.15857674 -0.0023235322 -0.17432322 -0.00732589 0.109238595 0.07903371 0.17233635 0.1726502 0.018477038 -0.03663167 -0.35233858 0.16885069 0.22040302 0.2233361 -0.006735564 0.20930588 -0.15551896 -0.16105293 0.09327524 0.11336465 0.08684292 0.31527683 -0.24261399 -0.15138137 -0.016697982 0.15164055 -0.07418745 -0.31558236 -0.12843263 -0.1700748 0.21364607 -0.42059487 -0.012250236 -0.035411492 -0.19574368 0.019176709 -0.075913556 0.31279966 -0.10473461 -0.32932726 0.07013374 -0.031015301 -0.11264926 0.1595365 0.16640043 -0.11691207 -0.25090992 0.2096254 0.15730672 -0.07580646 -0.18911321 -0.36734208 -0.023525778 0.048314776 0.24638724 0.21094333 0.12548256 -0.06889085 0.2976924 0.21006478 -0.047349114 -0.090431064 -0.04431439 -0.31114024 0.03645686 -0.083712496 -0.3082292 -0.28800932 0.18192731 0.24681333 -0.2954111 -0.12936081 -0.014619619 -0.22707103 0.06789976 -0.1733426 0.02452697 0.03090578 -0.27069137 -0.14600138 0.09051922 0.24190246 0.22938764 0.26156917 -0.1290165 -0.13272911 0.33786213 -0.021842916 -0.14055797 -0.028166763 -0.1321772 -0.24888451 0.18673292 0.15719861 0.26717347 0.1491196 0.026973588 0.36213273
951 0.16161323 -0.011951631 -0.14667033 -0.035635278 -0.37776515 0.2869882 -0.024463896 -0.08664796 0.17296563 -0.10921142 0.11700578 0.071243905 -0.17419381 0.43736047 0.2104807 0.25254026 0.08641825 -0.027597316 -0.18554525 0.30877325 -0.16222899 0.27195418 0.18740632 -0.032801677 0.024955137 -0.18666542 0.0019606375 0.01314321 0.05603128 -0.27767113 0.19775818 -0.11728145 -0.062115192 0.15593943 0.010656233 0.30911848 -0.12639794 -0.20879458 -0.14498559 -0.057977747 -0.09422041 -0.093951404 0.13396586 0.00021014397 0.012791813 0.019833937 0.07301182 -0.077452034 -0.07926305 -0.02183503 -0.16577488 0.01256703 -0.07728126 -0.051342618 0.08970246 0.011844825 0.12041061 -0.06207 -0.1975365 0.10891735 -0.2259349 -0.050847422 -0.10432147 -0.1969338 -0.2948687 -0.012858884 -0.08229731 0.1681152 -0.16513345 0.0019589548 -0.11450659 -0.15555242 0.11319757 -0.11510305 0.079785444 0.09908248 -0.055793375 0.07544766 -0.091678664 -0.11780024 0.18681282 -0.2582239 -0.08676279 -0.2102533 -0.0032583706 -0.09417756 0.2047424 0.019561706 0.6382384 0.08442692 -0.12342693 0.01711343 -0.03004015 -0.33102456 0.097003765 0.1595998 -0.11928691 -0.05995605 0.18875048 0.16327037 -0.0038245756 -0.17139898 -0.23802917 0.18435377 -0.23223689 0.0078583015 -0.10027695 -0.23413461 -0.29594183 0.06361686 -0.15824646 0.16152528 0.37465447 0.38497108 -0.23023109 0.029904213 0.4534663 -0.1688682 -0.11992975 0.11892584 -0.10269933 -0.08319762 0.009849636 0.080645695 0.17403226 -0.040391155 0.2443456 -0.043406777
942 0.0832185 0.071150176 -0.08173122 0.15285207 -0.08116532 0.15341738 -0.29217806 -0.26371348 0.13515729 -0.23902369 -0.045892563 0.16210052 -0.08323343 0.43201244 0.3719744 -0.16347067 -0.1264086 -0.12537311 0.2918819 -0.14783517 0.29944885 0.26117304 -0.22594139 -0.44196478 -0.26478195 -0.230222 -0.06710709 0.0755605 0.19353285 0.021322008 0.1471836 0.12645319 -0.04022573 -0.089297436 0.2778792 0.269677 -0.12710477 -0.15737568 0.074265614 0.3281762 -0.30583566 -0.16973788 0.17744704 0.10135602 -0.18943854 0.39759132 -0.1415865 -0.13517298 -0.1830569 0.026842862 0.32789966 -0.19462796 -0.19941546 -0.087356776 -0.06087875 -0.06426983 -0.10151886 -0.03199101 0.32240394 0.22312221 -0.13848767 -0.13795094 0.16379184 -0.22729228 -0.18723129 -0.047166124 -0.008294559 0.11004933 0.17004523 -0.066154815 -0.0076099886 -0.12815443 0.21892805 0.35536462 -0.01993635 0.07187787 -0.18334553 0.315634 -0.18134764 0.19073753 0.33277568 -0.34767124 0.1787433 0.07313604 0.01238438 0.22908606 0.066184916 0.26681188 -0.016962143 -0.06809689 -0.27159238 -0.017905386 0.009269664 0.14514707 0.30157322 0.3430138 0.07822247 -0.30960658 0.048247382 0.12861283 0.19909874 0.034165636 -0.1334997 0.064444676 0.04762033 0.036974434 0.06620105 -0.16863883 -0.05522629 0.17550617 -9.650992e-05 0.21474229 -0.10449362 0.443685 -0.013452041 -0.05054665 0.22932991 -0.037128486 -0.08468626 -0.115996405 0.20986786 -0.01661345 -0.14626187 0.028759485 0.23828158 0.022658054 0.07867596 0.065049805
965 0.3164814 -0.030790463 0.07111826 0.12823871 -0.27566573 -0.01639422 -0.22160316 0.1580626 0.28430524 0.15354283 0.1895644 0.07676577 -0.15334369 0.117394194 0.4330583 0.052268706 -0.20435946 0.05565636 0.23701313 0.17600884 -0.11844225 0.1498032 0.13617839 -0.4063135 -0.18275338 0.13460284 -0.1303198 0.19716834 -0.16285785 0.27236518 0.023725972 0.14671704 0.2642862 0.12558195 0.07267958 0.044094406 -0.068807855 0.04802062 -0.07524285 0.16439067 0.092336066 -0.30469325 0.050616845 0.2994058 -0.21509337 0.20832847 -0.0019119912 -0.40685338 0.036945112 -0.19994286 -0.12896326 -0.04384365 0.06454677 -0.34961015 0.3915406 0.33294973 0.09808389 -0.08752234 0.09555633 0.08464263 -0.36941138 -0.18469328 -0.038028475 -0.14143398 0.020131322 0.060030553 -0.2893564 -0.19579701 0.09833687 0.037209306 -0.19169453 0.035894215 0.09860175 0.077646606 -0.193402 0.023548897 -0.25387818 -0.078704 0.22376966 0.11270295 -0.23424202 -0.33625537 0.2843054 -0.09939194 -0.5551173 0.055592164 0.082683355 0.11326432 0.22279483 0.25192732 -0.11766367 -0.16070002 0.097275406 -0.27932045 0.25890726 0.15076368 -0.14736986 -0.19413519 0.2924625 0.04672727 -0.21385746 0.10608981 -0.113561615 0.15619618 -0.0706375 -0.14059927 -0.09248284 -0.07517459 -0.07163355 -0.16553354 -0.2460241 0.06887981 0.24185096 0.36794397 -0.16308379 -0.061552063 0.42543337 0.14584187 -0.027178122 0.033931304 0.1383426 -0.12786439 0.015803464 -0.0764044 -0.041975237 -0.05098967 -0.086417735 0.26677236
948 0.08364636 0.23107673 -0.39501572 0.21960555 -0.26443458 0.25000578 -0.04011696 0.045611914 -0.12450466 -0.16257262 0.15298432 0.011397008 -0.122414485 0.09589129 0.1537241 -0.43035161 -0.07407461 0.2402686 0.04819779 -0.2061133 0.060931753 0.3295184 0.046320073 -0.08844238 0.052118734 -0.32044157 0.053425014 -0.1833291 0.15915604 0.12066824 -0.18131386 0.22957382 0.28296462 -0.07279886 -0.06578457 0.022317829 -0.13167667 0.20381218 -0.15619422 0.02293472 0.18465368 -0.25255546 0.16086963 0.10317699 -0.03274335 0.1634674 -0.0052104304 -0.2708739 -0.081239484 0.008931813 -0.13443373 -0.20776358 -0.06736307 -0.03529588 -0.029644702 0.21217334 -0.2391725 -0.12815674 0.11202825 -0.2454481 -0.21539505 -0.27005857 0.21864508 -0.23613998 0.1768172 -0.058464143 -0.19189821 0.006543402 0.06116789 -0.045456413 0.019586843 0.119399376 0.1418915 0.15294962 -0.03773302 0.04011959 0.17941473 0.042347714 0.27084693 0.007153997 0.32717332 -0.14373213 -0.033624083 -0.3609679 0.37182304 0.11673423 0.1236833 -0.039234202 0.014799608 0.13428599 0.012948776 0.027439998 0.20244399 -0.06857122 0.43667617 0.24027534 -0.12606925 -0.15069775 0.18186322 0.19894479 -0.13199101 -0.10355339 -0.21584453 -0.028754361 -0.17931025 -0.19645624 -0.035458356 -0.3993791 0.010610613 0.17225938 -0.13742782 -0.11102446 0.13100252 0.25614452 -0.08120024 -0.07565487 -0.08978853 -0.15818016 0.10419302 0.012613294 0.17771114 0.08331153 -0.07478344 0.25994983 -0.14112203 0.07562902 0.36525324 -0.08819308
961 0.3438413 0.20239145 -0.14985125 0.37628466 -0.0061189034 -0.032744266 -0.10081139 -0.23379849 -0.027039496 0.13730921 0.011639804 -0.13755949 0.03338519 0.22310099 0.1542853 0.14501786 -0.29085687 0.014408826 0.26229185 0.08019013 -0.16233455 0.17942269 0.113805056 -0.21511276 0.29210582 -0.041706864 -0.08952226 0.057098478 0.203011 0.07604474 -0.009893701 -0.18393828 0.50528413 -0.16440883 0.044700414 0.07373794 0.15299559 -0.1791379 -0.09073944 -0.019809725 -0.21558444 -0.18336475 0.2616208 0.11581727 0.113533325 -0.020121079 -0.023401983 -0.21142453 0.21642813 0.27325717 0.19586973 -0.3202876 -0.289251 0.038219012 0.21874659 0.01422057 0.33917698 -0.19361934 0.010337239 -0.3742059 -0.09178648 -0.124252185 -0.24440308 -0.30002955 -0.109778464 0.09345272 0.12472068 0.10944795 -0.07980719 -0.28746897 0.1806953 -0.17071202 0.09652373 0.048281126 0.056781154 -0.11645767 -0.25545532 0.1645207 0.23591052 -0.095123485 0.14003766 -0.69096273 0.026850397 -0.19224186 -0.090877205 -0.037709363 0.27940908 0.064681835 0.13216777 0.070123404 -0.21558534 -0.17377092 -0.16913144 -0.10993188 0.2993032 -0.041724503 -0.09243416 -0.20335864 0.058619034 0.025988372 0.073577724 -0.15161681 -0.027308071 -0.11270228 -0.10237717 0.1032843 0.007983384 -0.13504261 -0.13075301 0.022530755 -0.064047486 0.112985946 0.14887589 0.43496576 -0.10692731 -0.07658335 0.22035728 0.0002757618 -0.05364823 0.15568653 0.19559328 -0.18188074 0.28497642 -0.16176414 -0.0049385787 0.009131306 0.18265231 0.032307744
947 0.13055761 0.29444742 -0.27789074 0.2010809 -0.18754557 0.20676348 -0.042479996 0.078981906 -0.045608517 -0.25984532 0.2403818 -0.0076566855 -0.18971205 0.11773765 0.14606294 -0.41339305 -0.059973445 0.3461419 0.08640215 -0.15413566 -0.10097816 0.3043269 0.041730575 -0.092302404 0.040863167 -0.3215869 -0.06656471 -0.13639568 0.1973185 -0.02492002 -0.08305428 0.22293094 0.15741141 -0.18319325 -0.05042409 0.018763462 -0.090384185 0.17598927 -0.11213651 -0.102063894 0.1004721 -0.11034042 0.22609691 0.06616324 -0.08092044 0.09975412 -0.037812646 -0.2632657 -0.09862299 -0.069311336 -0.114528865 -0.11571278 0.06283331 -0.10214915 -0.103428915 0.15403324 -0.2558586 -0.09630861 0.08207342 -0.37128437 -0.2767125 -0.35523462 0.08101092 -0.2979612 0.088456005 -0.06729921 -0.14363432 0.09554439 0.02246181 -0.12540294 0.06556885 0.051542927 0.14014591 0.18696606 -0.032372568 0.045268387 0.06523028 0.033721793 0.25919738 -0.031070383 0.16227628 -0.13313638 -0.014690042 -0.2755905 0.35759667 0.04943987 0.2015314 -0.14942954 0.0921383 0.31429335 0.08865857 0.0348965 0.26004162 -0.1338716 0.36296666 0.229479 -0.1904594 -0.058884993 0.20281035 0.16491301 -0.29003695 -0.2107962 -0.23011121 0.055730484 -0.055448137 -0.26006138 -0.02950343 -0.31623983 -0.042065673 0.0072803698 -0.091224335 -0.108480014 0.12036423 0.27888665 -0.0061717634 -0.11489765 0.019513832 -0.056633934 0.07306849 -0.027843827 0.09357091 0.02180501 -0.039534222 0.2381692 -0.0757399 0.09361719 0.22052802 -0.07489236
952 0.10168376 0.24395016 -0.38772258 0.23216128 -0.17379172 0.1592063 -0.041565537 -0.008631679 -0.10950438 -0.30186898 0.10113644 -0.030677015 -0.17769782 0.1445274 0.19608828 -0.41705933 -0.07761939 0.28337744 0.08141816 -0.14922994 -0.07817206 0.23488335 -0.056723118 -0.12815371 -0.00425438 -0.25108996 -0.07444978 -0.16060059 0.15279295 0.10493282 -0.12657742 0.12395873 0.13698389 -0.13285887 -0.033091076 0.013165666 -0.22247939 0.253989 -0.11041391 -0.11915539 0.1223557 -0.19985496 0.11771392 0.16369714 -0.015984287 0.05070487 -0.027587337 -0.23053817 -0.050699156 -0.016387084 -0.18983506 -0.17087719 -0.03330736 -0.12088637 -0.023060286 0.18245216 -0.11343321 -0.06074628 0.16771048 -0.34942573 -0.21285921 -0.39633638 0.251826 -0.3589371 0.107368596 -0.05829582 -0.14525706 0.04974643 0.09695839 -0.03274302 -0.00922641 -0.019338155 0.05395934 0.11862171 0.04517329 0.13834101 0.036900558 0.07006652 0.08267532 0.09811765 0.27225205 -0.31221148 -0.027199963 -0.33593935 0.29386404 0.06276221 0.061592612 -0.040116835 0.03046746 0.1255124 -0.0013685016 0.048176806 0.21533068 -0.04736714 0.4162367 0.3400426 -0.019842349 -0.14391877 0.12809779 0.22896196 -0.041814692 -0.050538726 -0.2392386 0.06583244 -0.13171278 -0.19127041 0.0363897 -0.3669163 -0.060416754 0.1400048 -0.11287915 -6.498155e-05 0.15231167 0.24841624 -0.13445738 -0.14411342 -0.00039703678 -0.1950698 0.08745142 0.003713032 0.10392482 0.07365384 0.04694867 0.22342084 -0.15533763 0.15715717 0.2770733 -0.07463204
962 0.24153902 0.16568176 -0.25203946 0.3277327 0.06581186 0.004828707 -0.08449337 -0.17119342 0.018233024 0.067189254 -0.052551243 -0.015714653 0.006629264 0.21969396 0.20503876 0.13298228 -0.2899308 0.026880918 0.286955 0.049400244 -0.17848201 0.2262501 0.07562991 -0.19912584 0.2972669 -0.1539916 -0.11344293 -0.012638268 0.2659284 0.088288724 -0.04147438 -0.1855942 0.63987267 -0.119449005 0.031335637 0.06530351 0.21299483 -0.24173933 -0.14099199 -0.011439371 -0.22463943 -0.15568213 0.3077829 0.093040034 0.19544491 0.058809385 -0.03648433 -0.2521957 0.15352963 0.3271887 0.14096305 -0.2748929 -0.30305186 0.08251707 0.07814729 0.01605188 0.2995948 -0.23696679 0.014491191 -0.34559372 -0.15078112 -0.11036028 -0.16669755 -0.2535649 -0.0868699 0.13227941 0.16728792 0.05388947 -0.063988596 -0.26319084 0.13369389 -0.1605415 0.126142 0.09378821 0.03242455 -0.13245723 -0.16661446 0.19754004 0.28499693 -0.11766236 0.22459659 -0.5779218 0.0006869482 -0.28921136 0.098923616 -0.082802095 0.27065164 -0.025588948 0.13048902 0.10788239 -0.19786084 -0.15792908 -0.10625415 -0.01956594 0.3204926 -0.07652806 -0.03946216 -0.28964344 0.01801325 0.024607716 0.068951055 -0.17263821 -0.027548762 -0.09995074 -0.14269945 0.11634812 0.07669619 -0.066485666 -0.07707655 0.02253582 0.03272816 0.024702884 0.09736132 0.51829475 -0.1336461 0.019561736 0.115439355 0.0875247 0.0073553547 0.17128511 0.1697318 -0.21686311 0.2700865 -0.10018748 -0.008205979 -0.02229548 0.18860793 0.033122826
945 0.33693236 0.27783772 -0.21957076 0.33372054 0.15619498 -0.03349566 -0.13582723 -0.1558685 -0.110403165 0.15691885 0.021291053 -0.016597003 -0.019901676 0.25480857 0.22508083 0.11045729 -0.34230584 0.03692092 0.39796582 0.05009742 -0.18696667 0.1992468 0.07326487 -0.20798193 0.33427522 -0.1348732 -0.012912809 -0.0057163094 0.3414046 0.077381395 -0.002674496 -0.22624029 0.575951 -0.19187564 0.069887675 0.039906695 0.21297139 -0.09014789 -0.17305268 -0.058616117 -0.25025696 -0.06675628 0.25324386 0.09182336 0.09667866 -0.02516677 -0.104592845 -0.23370944 0.18476586 0.24176127 0.07745656 -0.17055222 -0.26591828 0.058329415 0.12997165 -0.015905663 0.21171285 -0.26494184 -0.0011732676 -0.33355236 -0.016322821 -0.13415557 -0.21700765 -0.27939877 -0.10150298 0.08553432 0.13578092 0.10087079 -0.10876506 -0.33870623 0.20955308 -0.12940396 0.10176647 0.13369697 0.026293121 -0.123352855 -0.23384833 0.22403675 0.33692408 -0.15860605 0.15561764 -0.5893329 -0.038622215 -0.19141772 0.10513352 -0.07431613 0.21802717 -0.032201644 0.16455233 0.055498764 -0.22899671 -0.19113275 -0.18256147 -0.024473784 0.3406006 -0.08964385 -0.101531476 -0.26563168 0.027400304 0.032029238 -0.015616155 -0.18687372 -0.048735414 -0.13527969 -0.105327055 0.05428587 0.095304735 -0.032750536 -0.09974917 -0.03475571 -0.0017896808 -0.034457896 0.11349594 0.40172696 -0.13264996 -0.013212075 0.14160492 0.0071279844 -0.05243347 0.17986389 0.15627916 -0.17492864 0.23872086 -0.065517835 -0.017095601 -0.047267612 0.16978465 0.042551484
940 -0.049164597 0.09211629 -0.09994586 0.252984 -0.19388573 0.30981535 -0.024250617 -0.13996208 -0.1983483 -0.08476986 0.31541282 -0.022386262 -0.2058752 0.23895133 -0.039669078 0.027461106 -0.047876704 -0.045958057 0.35570508 -0.05716927 0.31157377 0.38664463 -0.16541475 -0.1508675 -0.035949413 -0.004120671 0.17032564 -0.13350207 0.06431527 0.007519186 -0.12502554 0.1161417 -0.17781061 -0.15679254 -0.083974 0.23542719 -0.16217959 -0.24861076 0.16203067 0.0342134 -0.14480779 -0.012168083 -0.037021693 -0.037227813 -0.29634997 0.31685737 0.21112084 0.016586727 -0.09804853 0.16076663 0.1743564 -0.09498648 -0.13001326 -0.084045805 -0.13488021 -0.15582016 0.07344289 0.17917055 -0.06386052 -0.2145942 0.15626441 -0.12153978 -0.011368635 -0.14440665 -0.07768229 0.064936966 0.04495633 0.15468825 0.07943513 0.26773632 0.13981503 -0.23918086 0.0610529 0.34441102 0.27930748 -0.033316784 -0.001567892 0.1391492 -0.07680301 0.12100296 0.20514576 -0.41000232 -0.0053651882 -0.036778674 -0.18945622 0.14443827 0.046025563 0.31162634 0.09726063 -0.096408956 -0.09228675 -0.24368843 0.025354572 -0.26098922 0.026467301 0.16198643 -0.11512787 -0.048717838 0.44213617 0.095081694 -0.08652631 -0.2361268 -0.22642101 0.018726775 -0.01531702 0.12382421 -0.099945255 -0.2946886 -0.32454216 0.18392059 -0.0384075 0.14077622 0.1804007 0.22584325 0.037916664 -0.32607493 0.4124789 -0.09155595 -0.29610962 -0.121705614 0.42599875 -0.16243866 -0.03937064 -0.066695444 0.046031017 0.12475492 0.53504205 -0.035073828
936 0.06412313 -0.01711672 -0.20972595 0.0018791894 -0.22955707 0.28046972 -0.07695749 -0.009559664 0.21940717 -0.1376402 -4.923794e-05 0.0057965987 -0.22620672 0.31503525 0.19662793 0.3258804 0.075820714 0.040786482 -0.19763789 0.29050732 -0.25582653 0.28073385 0.19805023 -0.023875864 -0.045317933 -0.3123353 0.040416125 -0.1145148 0.09439256 -0.23091155 0.15995707 -0.12815589 0.016773345 0.16884586 0.035415445 0.22177495 -0.024016954 -0.05638125 -0.08631101 -0.03969297 0.003070224 -0.1323853 0.124769196 0.04381314 -0.10166701 -0.07724035 0.18096186 -0.04578414 -0.11267169 -0.06672701 -0.18021727 0.14505494 -0.08838248 -0.015490496 0.09030438 0.12731315 -0.0090071 -0.14053483 -0.20695098 0.21751805 -0.16618289 -0.07392525 -0.097970076 -0.3165917 -0.24971057 0.04635474 -0.059962973 0.26754317 -0.076532505 0.07129917 -0.16566318 -0.037128534 0.13534632 -0.11034936 0.051398214 0.1375082 -0.0065012695 -0.027771253 0.022187022 -0.16585208 0.23430057 -0.18617873 -0.036754027 -0.18534814 0.0112302415 -0.06786833 0.13902424 0.03758958 0.67623156 0.1646626 -0.08529254 0.11536213 -0.057159916 -0.39911386 0.092324875 0.16090287 -0.039603014 -0.061822135 0.24127944 0.18124242 -0.051604196 -0.20308694 -0.20685749 0.17201947 -0.18172505 -0.02540669 -0.07372206 -0.2912079 -0.43426743 -0.044142954 -0.16926518 0.13454887 0.43548682 0.33604258 -0.27640218 -0.06695993 0.32872725 -0.19285427 -0.13052385 0.13205068 -0.14810207 -0.031142596 0.10925583 0.13536537 0.14274849 -0.04393111 0.24837556 0.051156674
941 0.1413651 -0.0018713027 -0.13299827 0.21585801 -0.122528546 0.17542315 -0.33146435 -0.17169312 0.22440134 -0.22579455 -0.081767485 0.12908003 -0.065944865 0.3666313 0.42624176 -0.25976026 -0.13764694 -0.07732349 0.23530817 -0.19878429 0.32695606 0.1684523 -0.16485383 -0.4770707 -0.24233279 -0.15487668 -0.11156384 0.19801104 0.16452746 0.031147592 0.20382863 0.070959605 0.031240508 0.013470705 0.24006303 0.26105222 -0.079942636 -0.10607045 0.06647663 0.30634567 -0.21300256 -0.15028712 0.23514369 0.14408459 -0.14887989 0.34640682 -0.23244172 -0.08750115 -0.14635167 0.05128062 0.28391358 -0.13685174 -0.1966634 -0.08985518 -0.018039256 -0.108596414 -0.16305238 -0.096803054 0.22028546 0.2772698 -0.24214171 -0.19476087 0.17888437 -0.20405081 -0.15069102 -0.08001118 -0.049654894 0.051991995 0.14036767 -0.20364468 -0.07218707 -0.12572883 0.20145297 0.35052443 0.022022065 0.15334104 -0.27776432 0.27690795 -0.020952046 0.15425651 0.27509272 -0.31914794 0.14977849 0.06185995 0.010204826 0.23192878 0.13021442 0.20763522 0.06265795 0.06400254 -0.16390067 -0.013318768 0.013226186 0.11598894 0.2658861 0.3050197 0.0049500633 -0.4770374 -0.04028117 0.14756109 0.06715835 -0.018390648 -0.05378817 0.09510577 0.0783918 -0.080396876 0.11759281 -0.14769801 -0.038709894 0.11995096 0.068556115 0.31561628 -0.10759489 0.5175883 -0.035246234 0.015628232 0.21072792 0.041999258 -0.05271522 -0.009554762 0.106465384 -0.0377254 -0.14510064 0.075358786 0.29740182 0.021458501 -0.037138097 0.1298718
937 0.3985753 0.13370813 -0.06503538 0.024698941 -0.26867777 0.0924919 -0.058483526 0.2869408 -0.07735453 0.12025342 0.2251726 0.098044716 -0.064721845 0.13331452 0.13929261 -0.09421493 0.016246792 0.015115465 0.4739191 0.12271852 -0.036792338 0.41602027 -0.07653582 -0.23228358 -0.17215371 -0.042958464 0.15665661 0.058876287 -0.19517194 -0.002849316 0.008077698 0.20330274 -0.1047692 0.0018246481 0.030891703 0.015217847 -0.096811816 0.20235187 0.007602458 -0.028376417 -0.0068314928 -0.008167769 0.091969356 0.048157185 -0.27488267 0.23300728 -0.106577985 -0.17969705 0.07152225 -0.21666688 -0.38028896 -0.10581594 0.037600506 -0.28517824 0.12714975 0.16982944 -0.14334413 -0.12933084 -0.057035357 -0.09536596 -0.08359573 -0.0747942 0.20455864 -0.24026175 -0.19333582 -0.042046323 0.062551685 0.29674318 -0.00911522 0.024735002 0.26638973 -0.18354729 0.023787161 -0.2286447 -0.06793095 -0.06836608 -0.022302693 0.021318216 0.4335746 -0.06987222 0.053243674 -0.24069738 -0.031688057 0.038100492 0.18489118 0.18166387 0.044200037 0.121359386 0.24277438 0.05154454 -0.4003079 -0.17331958 -0.105714016 0.09122849 0.2801153 0.06839596 -0.17997548 -0.20507333 0.16700739 -0.14646442 0.08214877 0.08504284 -0.3241523 -0.22593424 0.16626449 -0.20305158 -0.25059006 -0.32730198 -0.062302995 0.040928118 -0.066679955 -0.13264568 0.13289502 0.07344831 -0.055220537 0.036610585 0.337763 -0.038642295 -0.13322374 0.12895317 -0.03367862 -0.19253585 -0.15481614 -0.05336891 -0.03969486 -0.4369849 0.14234662 -0.011030928
944 -0.15285996 0.047308423 0.10823763 -0.033262223 -0.019096745 -0.1750388 -0.11646797 -0.031230692 0.121940754 -0.033112895 0.21173728 0.06309645 -0.19998214 -0.051555365 0.0034872035 -0.14082235 0.32435864 -0.00499557 0.27577373 0.124219954 -0.15883274 0.20851977 -0.02132852 -0.015251667 -0.11776908 0.007996343 -0.046494387 -0.057068102 -0.14774385 0.16166262 0.01809159 0.019360868 0.19722393 -0.027032921 -0.11493643 0.16985786 -0.027459642 -0.2727755 0.024564104 0.04390451 -0.20777223 -0.3507564 -0.11471789 0.36072877 0.01910288 0.23674315 0.1708758 -0.07090006 -0.06509669 0.031855073 -0.1450636 0.04659138 -0.10935307 -0.115829565 -0.18580323 0.2612419 -0.06667109 -0.015430972 0.0778498 0.0055366755 -0.303612 -0.28736854 0.07122556 -0.12875317 -0.16604206 -0.02122336 -0.03218487 0.24693304 0.21740037 0.16630204 -0.2956921 -0.28925532 0.26635805 0.14035396 0.13174066 -0.14098087 -0.13121 0.3829439 0.06244573 0.011063421 0.36929405 -0.3497671 -0.16619381 -0.14933862 -0.15304956 -0.018511202 -0.07735219 -0.00092405255 -0.05297177 0.07511296 -0.11483797 -0.2377341 -0.0076574483 -0.050724823 0.27427658 -0.04825476 0.056364436 -0.27869788 0.26381564 0.12933835 -0.24955525 -0.20759271 -0.22113393 0.098659486 -0.08269936 -0.040452734 -0.07746561 0.070235945 -0.2739757 -0.27197713 -0.005739457 -0.043982938 -0.03417545 0.3298801 -0.34370914 0.051590916 0.050502617 0.08489523 -0.017447066 0.011516506 -0.08412566 -0.32482234 0.07427156 0.12438848 -0.024493625 -0.10143987 -0.002153225 0.09823161
932 0.13385981 -0.26193404 -0.13275093 0.0077025676 -0.27428362 0.22243641 -0.2984375 0.06633926 0.20909809 0.17969455 0.1474202 0.04670286 -0.14090912 -0.06720373 -0.054474182 -0.01796697 -0.014248255 -0.2733566 0.21605606 0.07938593 0.44970378 0.38941315 0.12489853 -0.22885376 0.075513825 -0.048388332 0.3422343 0.13583247 0.045377687 0.10345501 0.09239675 0.04264448 0.39060718 0.21973678 -0.23389749 0.082041554 -0.09402852 -0.31073478 -0.105513915 0.14375083 0.068293 0.0028296828 0.026125612 0.10074386 -0.10202862 0.55525243 0.11241257 -0.10278146 -0.28506485 0.018583154 -0.06608526 -0.24398746 -0.16992627 -0.15701607 0.113342084 0.16484787 -0.1726756 -0.17096466 -0.10709538 0.075965606 -0.26245418 0.0034065272 -0.0612114 -0.16772361 0.19559585 -0.027496113 -0.034100957 0.036321316 -0.1063307 0.08859937 -0.04186071 0.058028284 0.080164805 0.20536436 0.19538699 0.07864698 0.07619621 -0.01928484 0.52276176 -0.09211053 0.05668162 -0.026189608 -0.21179652 0.043975092 -0.15274952 0.012695243 0.4022769 0.079855785 0.2753337 0.16034415 -0.016011933 0.0060615717 -0.004022239 0.06692483 0.32413635 0.0887867 -0.12123283 -0.25852147 0.07802732 0.068648495 -0.18219137 -0.27623633 -0.059269812 0.11489157 -0.12844436 -0.18824244 -0.08957643 -0.22918142 -0.0816048 -0.06946051 0.08076359 0.13611725 0.23355651 0.16485283 -0.18696196 0.02912092 0.09504877 0.025255015 -0.21626808 0.10870073 0.1734772 0.16895093 -0.23105417 0.02316431 -0.1852532 0.037677333 0.31025764 -0.15688394
934 0.2468013 0.049561102 0.119578846 0.15810925 -0.20350352 0.005363979 -0.14691752 0.107825525 0.20776679 0.11967376 0.30071422 0.060490098 -0.24279167 0.25733855 0.30925724 -0.093380354 -0.2579219 0.031550895 0.20177184 0.19909506 -0.1153988 0.17018911 0.054188702 -0.391726 -0.20234059 0.2275277 -0.039851073 0.17265813 -0.14318553 0.22392099 -0.04415489 0.15108415 0.06900086 0.10744177 0.0531458 0.05754238 -0.09318124 -0.13362539 -0.045619704 0.09274718 0.024194479 -0.37208268 0.05714856 0.23726657 -0.18758498 0.20882824 0.06398259 -0.3116776 0.11600246 -0.2531565 -0.026574329 0.05405219 0.12287431 -0.3129169 0.23727651 0.29212442 0.12147467 0.014652905 0.12221987 -0.13076317 -0.28532085 -0.3289935 0.020430163 -0.10657844 -0.019579243 0.08263657 -0.31391865 -0.16322382 0.10066512 0.025972495 -0.20763813 -0.07031296 0.09250199 0.06298644 -0.13749015 -0.08798974 -0.25606212 -0.011826892 0.13801792 0.21233553 -0.26504412 -0.30702078 0.28508538 -0.08688845 -0.5644683 0.14743656 0.04509791 0.14585267 0.1429723 0.24697417 -0.06560451 -0.19987905 0.2230376 -0.37654972 0.25029662 0.2592134 -0.14218743 -0.17800817 0.39467984 -0.03448634 -0.2699988 0.1409278 -0.13861959 0.1758294 -0.1460551 0.042644024 -0.060821146 -0.059309583 -0.09998733 -0.09974527 -0.32078463 0.019501006 0.19445188 0.3138876 -0.09502791 -0.15956526 0.45069957 0.16431242 -0.056514475 -0.06648696 0.092414275 -0.1531843 0.022383539 -0.01412837 0.0226813 0.043886796 -0.030505927 0.26744786
939 0.38378853 0.17542061 0.026261305 -0.03881173 -0.2829113 0.018848388 -0.0553659 0.22644472 -0.10186772 0.06933136 0.15357667 0.11101251 -0.044862222 0.083703496 -0.01346956 -0.18399066 0.1763133 0.0221707 0.41314083 0.10670065 -0.13696328 0.33420104 0.024191456 -0.0671827 -0.22019081 -0.114856966 0.16769278 0.010103265 -0.14051826 -0.043120757 -0.055064876 0.14667082 -0.08335029 -0.013642269 0.05846596 0.10202018 -0.15316652 0.12763086 -0.06527089 -0.02114383 -0.17514458 -0.08862982 0.06851761 0.1673458 -0.25889358 0.20268613 -0.11229371 -0.078786485 0.02481631 -0.22813264 -0.35131213 -0.026625806 -0.090340726 -0.268447 0.017874371 0.20065223 -0.08337845 -0.15883921 -0.06678247 -0.20450212 -0.11753928 -0.14765799 0.19229451 -0.20912568 -0.24630353 -0.08807012 0.19542632 0.35897443 -0.09335712 0.0692102 0.3041534 -0.32474577 -0.030465031 -0.33131185 0.0060810363 -0.044821046 -0.052383363 0.006204138 0.43196848 0.05076328 0.15449141 -0.102504246 -0.03635173 0.019454738 0.2359494 0.18522336 -0.034757644 0.08364497 0.19643068 -0.016990436 -0.43650782 -0.1273875 -0.11695369 0.07507501 0.34839535 0.030208258 -0.11868573 -0.19462517 0.303649 -0.0980794 -0.009674442 0.04788603 -0.5264505 -0.23920445 0.16984254 -0.20165028 -0.3621194 -0.2998033 -0.19327378 -0.03965425 -0.20157044 -0.18394451 0.11264247 0.23031838 -0.14989637 0.089236744 0.30633894 -0.07010734 -0.10293719 0.06229007 -0.09054418 -0.37519184 -0.10185733 0.0120167555 -0.0062970533 -0.48167902 0.14838734 0.066814765
931 0.0545613 0.075448796 -0.015233707 -0.021853656 0.0017459892 0.20691693 -0.2933617 0.3144673 -0.107946366 0.19257177 0.023287049 0.16611384 -0.32371196 0.2102177 0.2020237 -0.021998784 -0.33860868 -0.14847413 0.29426965 -0.041098807 0.08234256 0.32879895 0.026287777 -0.017552087 -0.01669241 -0.1858082 0.2791159 -0.24690124 0.23652743 0.13802026 -0.03094454 -0.15465346 0.34506643 0.023252955 0.09635392 0.16734943 -0.053671744 -0.053236295 -0.34561062 0.052237343 -0.19007331 -0.1775846 0.21216889 0.24955107 0.03190634 0.35357815 0.19698839 -0.011655667 -0.22544686 0.13562717 -0.053834204 0.04641112 -0.044634856 -0.0047324775 -0.017533075 0.139698 -0.042598307 -0.07619659 -0.0015720534 -0.0036716117 0.036440194 0.019399278 0.19049156 -0.27371016 -0.17467648 -0.10143473 0.10409057 0.20419571 -0.054962285 0.04587173 0.16364904 -0.07546407 0.11063616 -0.08003297 -0.3537503 -0.23693848 0.035715777 0.02160312 0.14080027 -0.18932988 0.30411917 -0.1431256 0.24923415 0.025967035 -0.074172765 0.18406478 -0.19928674 -0.062052496 0.032528378 0.1872163 -0.3726347 -0.050342217 -0.081673935 -0.08175924 0.27620584 -0.1704522 0.123281054 -0.24529055 0.09095957 0.118708745 -0.060773965 -0.24290453 -0.053111665 0.023248976 -0.14545548 0.28075847 0.24359255 0.028730717 -0.01881899 -0.03696188 -0.16777092 -0.27010676 0.11178324 0.1269401 -0.033263035 -0.29271454 -0.04015096 -0.1628086 -0.25790584 0.056568194 0.11022467 0.1263394 -0.04987918 0.07273155 0.15691757 -0.16453235 0.32941332 0.03486906
935 0.15992117 -0.25601652 -0.03668438 0.13713847 -0.1844107 0.12263296 -0.34641904 0.02906805 0.20962244 0.25329813 0.11632001 0.05825626 -0.1981302 -0.04717428 0.05888605 -0.13812715 -0.04966327 -0.1267443 0.24474877 0.04363986 0.3833414 0.27428666 0.08471367 -0.27041587 0.1757446 -0.03601425 0.25195497 0.118901975 0.011559208 0.1201788 0.031023148 0.050892234 0.3775626 0.24023788 -0.200817 0.18240876 -0.0017514757 -0.38831452 -0.1380202 0.190241 0.010765858 -0.018397987 0.1018992 0.17049944 -0.055646513 0.52503407 -0.025097119 -0.1879311 -0.20896423 -0.0067797224 0.07963246 -0.17680241 -0.13634036 -0.18938196 0.2511592 0.057247326 -0.2939111 -0.2597985 -0.08182548 0.10373598 -0.2765871 -0.11652731 -0.09270243 -0.28920433 0.16163722 -0.08933718 -0.0692169 -0.007490246 -0.012182829 -0.050232742 -0.086603805 -0.007924122 0.12013204 0.35268217 0.1292776 0.16541545 -0.025228616 0.086602196 0.48954448 -0.06361436 0.07320922 -0.06789837 -0.13725191 0.024760822 -0.24883026 -0.027681844 0.38883394 -0.0021724983 0.13289373 0.11739708 0.06151065 0.009742438 -0.06285191 0.061390277 0.26551232 0.031842425 -0.109884255 -0.24028397 0.081851535 0.1292449 -0.14593004 -0.3436834 -0.047866475 0.066873305 -0.11270279 -0.1339854 -0.041718543 -0.20534603 -0.011036958 0.0040711085 0.118112 0.21562693 0.11657428 0.24792579 -0.09121308 0.0029699733 0.19692072 0.10321981 -0.10130604 0.053681675 0.16029344 0.13466321 -0.23560892 0.11133103 -0.19943656 -0.045624748 0.18250299 -0.120120235
