1000 128
1000 0.032403577 0.09622532 0.046703793 0.27844664 0.12909569 -0.182004 -0.31520456 -0.11624266 0.12134731 0.07072137 0.0922802 0.20258497 -0.08258781 0.06868678 0.0895476 -0.09480893 -0.25240317 0.16871676 -0.1751862 0.038656306 0.0018192818 -0.16441344 0.4037779 -0.1783433 -0.38031724 -0.21023732 -0.009340531 -0.06722849 0.034640297 -0.1524953 -0.30692407 -0.26402757 0.15990612 0.0003843888 0.12696044 0.4192656 0.1519437 0.09564411 0.15106657 0.10749654 0.03712815 0.2207111 -0.27635622 0.06278845 -0.025265975 0.20979002 -0.23565896 0.24550942 0.14422393 -0.23577671 0.013737704 -0.35314432 0.20004691 -0.19632584 0.116653286 -0.13267185 -0.30215934 -0.084509 -0.13565329 -0.02981154 0.1120473 -0.006726379 -0.15175787 -0.06824774 0.5163586 -0.12074118 -0.120137274 0.24997689 0.08389465 -0.032550674 0.38463685 -0.16743998 -0.2537627 0.09315957 -0.06035533 0.06393753 0.12370737 -0.11102399 -0.012029072 -0.10702789 0.16768104 0.122052476 0.09544951 0.16721511 -0.251412 0.33891594 0.20137139 0.12534183 -0.064238034 -0.112981 0.113243304 0.14171588 0.029605199 -0.057896595 0.13898958 0.06899807 -0.22446752 -0.05157567 0.17434691 -0.3346969 -0.3377938 -0.15613098 0.1694265 -0.13595413 -0.06261308 0.00017713037 0.112177916 0.12037682 0.25559658 0.15979996 -0.08166866 -0.13058618 0.15099056 0.09269976 -0.14216542 0.015611992 0.30312094 0.044289988 -0.29429546 -0.15278801 0.03635348 -0.058363177 0.007101479 -0.2542567 0.002334584 -0.018301388 -0.1751381 -0.09227643
999 0.06700197 0.18965088 0.06270156 0.36754158 0.082267635 -0.23590754 -0.22100165 -0.10987343 0.049263086 0.05345626 0.120405875 0.05581313 -0.13706675 0.017763762 0.031635888 -0.06854118 -0.17311348 0.03583933 -0.119841374 -0.0018997611 -0.006759087 -0.12802534 0.27065265 -0.1281451 -0.32985058 -0.20059967 0.05038128 -0.051352672 0.046416815 -0.20311758 -0.24397178 -0.11325114 0.14192384 -0.01614246 0.06877407 0.3580349 0.13634971 0.057720043 0.15148461 0.054959983 0.060832173 0.06847789 -0.17448898 0.11302845 -0.025351709 0.1376468 -0.28306693 0.24450156 0.216284 -0.13933451 0.022563374 -0.3970548 0.19752854 -0.08272622 0.099759325 -0.11206541 -0.31287137 -0.17980164 -0.04390039 -0.13552454 0.20203601 -0.04228842 -0.11994649 -0.04843379 0.48135516 -0.11750694 -0.16777386 0.20349129 0.076088555 -0.04090922 0.41883582 -0.17756313 -0.22878903 0.21626455 -0.031063069 0.0364869 0.09637575 -0.15196358 -0.0010293965 -0.11120614 0.24335895 0.19178207 0.05784213 0.1327444 -0.2076543 0.2379369 0.24926522 0.039820403 -0.06522023 0.03340356 0.037363768 0.06171829 -0.0462205 -0.028975375 0.084837675 0.03416706 -0.22237949 0.0006756882 0.08824716 -0.17069186 -0.34631854 -0.16349064 0.20835668 -0.113226615 -0.08558877 0.0318773 0.05643442 0.09356337 0.20038506 0.07213291 -0.089056335 -0.110841386 0.12192689 0.06778891 -0.26273826 0.011381878 0.37913787 -0.010202161 -0.31510243 -0.08357104 0.03576161 0.07777202 0.09230619 -0.20669886 0.038024798 0.07354637 -0.24346073 -0.0014420053
997 -0.14399494 0.30660978 -0.3050628 0.029272677 0.28255883 -0.17880581 -0.0388198 0.07104754 0.00777506 0.06925181 0.2904902 0.16317362 -0.08055525 0.12291328 -0.22413538 -0.08894453 -0.33258238 0.26384154 -0.11491337 0.011957339 0.05135479 0.076557286 0.055441987 0.094687186 0.08872214 -0.17773314 0.064773686 -0.0033051197 -0.015996568 -0.26645347 -0.28131187 0.26408893 0.0103792 0.11364561 -0.13232276 0.19719976 0.23482919 -0.3559364 0.0716319 0.12790786 0.08599112 0.2865265 -0.05860221 0.13239102 0.014747647 -0.053427026 0.19815987 0.05425558 0.15913875 -0.082766145 0.28370047 -0.16515708 0.015489972 0.012752729 -0.269829 -0.11132648 -0.23039788 -0.13687873 -0.02645777 -0.17382076 0.022366852 -0.023297654 -0.1073353 -0.28378654 -0.13380004 -0.011499394 0.1030101 0.1117162 -0.2438048 -0.24939872 0.016794078 -0.14181434 -0.09091459 0.2861001 0.1196988 0.4187631 -0.13041437 -0.13824734 -0.10159319 -0.2016762 0.3445891 0.13788445 -0.008329303 0.07019752 -0.059586473 -0.05935174 0.2392908 -0.17166121 0.06195904 0.10989731 -0.20184205 -0.0974831 -0.18556865 -0.19362864 0.0028822876 -0.13252199 0.2003608 0.059255634 -0.17161918 0.0020200266 -0.11897234 0.043205548 0.029604442 -0.16627695 -0.060830623 0.3468681 0.06037265 0.19240794 -0.14659406 -0.15188928 -0.3215774 -0.13231523 -0.047754813 0.1344078 -0.38148782 -0.11164088 0.22918913 0.07299488 -0.03384666 -0.1487819 -0.12612137 -0.040986773 0.0704737 -0.058543514 -0.11364767 -0.116208665 -0.09856038 0.22642875
996 -0.01939192 0.1631408 0.061777987 -0.046311364 0.05020492 -0.18590249 -0.20222774 -0.34238338 -0.06154251 -0.1357151 0.30067405 0.1388429 0.16532974 0.1746889 -0.36638957 0.09574573 -0.27452713 0.12228633 -0.38778275 -0.014641997 -0.06055552 -0.052465383 0.10866219 0.022945946 -0.09324473 -0.103275314 0.13767667 -0.0032809228 -0.25694203 -0.17578037 -0.32648867 0.13330556 -0.1435193 -0.45816925 -0.11714354 -0.1267001 0.40637717 -0.20864171 -0.04502844 0.08714141 -0.073113 -0.1010061 -0.34988078 0.18565182 0.20222825 0.13263467 0.06751116 -0.1506441 0.39285538 0.114789635 0.38305798 -0.024678964 0.013319943 0.30763197 0.13505273 -0.15220079 -0.085285805 -0.19438699 0.31598175 -0.3182968 0.1807772 -0.22879839 0.20632665 0.13660076 0.2577485 -0.18587537 -0.14210604 0.22893016 -0.14499404 0.07144085 -0.059262484 -0.2912469 -0.15161815 0.15403585 -0.11817637 0.24010359 0.140371 -0.08131363 0.049901046 -0.3041876 0.15333124 -0.274409 -0.078283295 0.043291196 0.05592481 -0.21522672 -0.2159988 0.12659585 0.04330579 -0.092078306 -0.06104161 0.12362208 0.06184193 0.20538116 -0.026600353 -0.14482449 -0.070552394 0.019345658 0.20400536 0.18631157 -0.11145623 -0.09589845 -0.18297946 0.02421197 0.23538658 0.09468837 0.046582576 0.048152216 0.30297676 0.033999685 -0.047248635 -0.26435718 0.122901335 0.18079035 -0.3456821 -0.004450607 -0.0038031135 -0.21389256 0.0034136293 0.01005273 -0.21373202 0.23271912 -0.02747198 0.040363368 -0.058418307 -0.056585714 -0.27997115 0.24291638
995 -0.018010808 0.13890094 -0.109312445 -0.32402477 0.05090924 -0.12992524 0.14270842 -0.12827224 0.084051445 0.31117925 0.14420694 0.1418784 -0.12324285 0.053131532 0.21844876 -0.16440986 -0.14201549 0.18418281 -0.047396224 0.048016943 0.10635426 -0.046870064 0.081178285 -0.05226227 0.0069403984 0.09886914 0.08421186 0.011616384 0.015082917 -0.07938583 -0.10096086 -0.0144069875 -0.14438514 0.04030903 0.06748098 0.10049323 0.015583616 -0.2207842 0.072572984 0.011941067 0.17304167 -0.19625098 -0.047540724 -0.10504621 0.039856486 0.024211582 0.15669635 -0.041754246 -0.040245913 -0.07492951 0.24256748 -0.25383928 0.059926234 -0.38104856 -0.07305358 -0.26641726 -0.3681071 -0.21622354 0.1999541 -0.061268106 0.269648 -0.05035255 -0.4351827 0.20330529 -0.008646077 -0.25648165 -0.09114875 0.20467496 -0.2305504 0.17040685 0.17612956 -0.3418397 -0.30013287 0.53697497 0.08838346 0.22805426 -0.20188633 -0.31574637 -0.43385294 0.044577543 0.053432915 0.1345171 0.1969439 0.013226396 -0.38859504 -0.20131485 0.045794033 0.2486059 -0.0931829 0.019810356 -0.23207773 0.04676883 -0.102939606 -0.19689119 0.08567676 0.03231051 -0.07487811 -0.14169417 0.26212567 -0.020228196 -0.123975545 -0.022132717 -0.12364206 -0.051818278 0.08277073 -0.07245059 0.14170428 0.20516683 -0.037463825 0.018380098 0.15945914 -0.19490202 -0.026014185 0.09656668 -0.35437083 -0.20404038 0.07175683 0.057500895 -0.02061939 0.047796 -0.036841314 -0.23988353 0.08840811 -0.06210107 -0.14517479 -0.15367591 -0.09135095 -0.21087049
989 -0.044627573 0.13915409 -0.12637243 -0.2891861 0.04410828 -0.15767156 0.19066694 -0.16845359 0.11083356 0.3971564 0.19657172 0.103221476 -0.06684434 0.15219967 0.13296731 -0.12201093 -0.11394653 0.16103722 -0.048692152 0.07149995 0.12391245 -0.07167216 0.05841963 0.018436402 -0.10433813 0.12511316 0.03698272 -0.03309786 -0.068824425 -0.055140395 -0.061842073 0.14321823 -0.17719996 -0.038478523 0.054564256 0.055982776 0.064074285 -0.23659788 0.034554474 -0.06247667 0.13569607 -0.25035712 -0.1763635 -0.06679028 0.048671536 0.100928515 0.2703401 -0.072625495 -0.052384723 0.0072281896 0.24344733 -0.081242315 -0.03825312 -0.30667904 0.0023214591 -0.2827269 -0.3038649 -0.18173148 0.17939551 -0.030838301 0.22330569 -0.061920833 -0.25420645 0.24952279 -0.0232426 -0.22034343 -0.1158387 0.33055001 -0.21893454 0.27832612 -0.031243846 -0.37103462 -0.22084418 0.48180956 0.113831595 0.216874 -0.1877231 -0.36497885 -0.3725497 0.030804634 -0.06699191 0.17027944 0.22946264 -0.010195593 -0.3160089 -0.21435872 -0.056780796 0.20759419 -0.12099405 -0.05204174 -0.14884444 0.12011289 0.023916464 -0.14161961 0.09662697 0.008557916 0.004376057 -0.11921953 0.28557947 0.019189762 -0.22892413 -0.019279037 -0.21004431 0.00091285555 0.16380975 0.022225 0.104999155 0.1986454 -0.07357972 -0.040112123 0.1842266 -0.19456327 0.121846765 0.21701011 -0.44402236 -0.08641868 0.091789626 0.037300568 -0.010147351 -0.003858086 -0.18015915 -0.27496186 0.069687486 -0.0028372128 -0.16009307 -0.11399548 -0.14590731 -0.21062134
998 0.08019072 0.20441455 0.06539971 0.3073648 0.09661932 -0.20238514 -0.19983126 -0.11563809 0.027490847 0.05013394 0.14775409 0.14624557 -0.051603902 0.051176794 -0.08979051 -0.13547537 -0.16881195 0.04598744 -0.0780004 0.03697481 -0.036323827 -0.13868944 0.27540198 -0.10401237 -0.2972885 -0.21258873 -0.020640614 -0.028582118 0.010891483 -0.17695281 -0.19663669 -0.21011324 0.14184983 -0.08651005 0.08130558 0.35609365 0.18748084 -0.031386744 0.07306899 0.123174176 0.049227215 0.13824467 -0.23202793 0.13437735 -0.06595077 0.12783103 -0.29736382 0.23379101 0.045455817 -0.088019274 0.0025122552 -0.39161524 0.16794036 -0.09928529 0.07217653 -0.11897928 -0.28338096 -0.14664516 -0.03552793 -0.05163285 0.21058601 -0.07605237 -0.10731222 -0.006447637 0.4633472 -0.0004275323 -0.104847394 0.23616476 0.0732856 -0.034783863 0.31116048 -0.18306263 -0.32188573 0.17140931 -0.031337332 0.10763163 0.09954279 -0.067598455 -0.008687823 -0.08969336 0.15601397 0.13399 -0.018396761 0.20439988 -0.1555165 0.2504995 0.31978032 0.0982196 -0.04856289 -0.05329206 0.10035025 0.09710654 0.005129917 -0.086672865 0.109896965 0.039344806 -0.26498693 -0.01014706 0.1503549 -0.22870849 -0.41496012 -0.11893687 0.25961757 -0.1709777 -0.09871041 0.06154855 0.108111136 0.05463456 0.19510464 0.13697469 -0.100708395 -0.10080513 0.10810646 0.09684701 -0.297585 0.07176141 0.34019133 -0.010401065 -0.33945465 -0.08168967 0.05752427 -0.020435069 0.020309756 -0.23436593 -0.029907297 0.09478104 -0.32902652 -0.093021825
991 0.017174872 0.18310875 -0.003140459 -0.048328403 0.11279263 -0.19370529 -0.11780509 -0.3661846 -0.114785284 -0.0732009 0.32673115 0.20230821 0.13668038 0.19155201 -0.26380774 0.06646994 -0.3302077 0.118206024 -0.26301464 -0.07500122 -0.023147663 -0.08760993 0.13987643 -0.033815593 -0.0834865 -0.056801736 0.033065457 -0.0062497444 -0.1868821 -0.2498196 -0.2533801 0.049035564 -0.059099466 -0.42654514 -0.24173056 -0.05135729 0.41584715 -0.26838186 -0.07159904 0.11232326 -0.09651404 -0.04463198 -0.38140473 0.21809825 0.20895495 0.15839952 0.02748203 -0.14027813 0.31340966 0.1234562 0.3540748 -0.040706094 0.0018804877 0.21615776 0.11756265 -0.09529513 -0.051037017 -0.19820467 0.21178767 -0.3382772 0.14569008 -0.1498734 0.13975461 0.10563308 0.29868633 -0.21264048 -0.10235944 0.23275292 -0.12621596 0.043271378 -0.10693776 -0.2049537 -0.22281049 0.22798862 -0.035073407 0.24993886 0.111473635 -0.09522941 0.017726952 -0.22292955 0.2263535 -0.23479652 -0.0087310085 -0.05187852 0.080503725 -0.25707936 -0.17276388 0.15438902 0.0948265 -0.107531436 -0.06415323 0.07809795 0.030705212 0.21116963 -0.01935577 -0.069092944 -0.23333664 0.06250368 0.17467815 0.1218792 -0.21821423 -0.07956584 -0.10286503 -0.052767422 0.13620551 -0.012901942 0.040718544 0.065379195 0.25886303 0.1074214 -0.019481815 -0.28817928 0.06755177 0.059807733 -0.32915717 0.123376206 -0.08245767 -0.21964599 -0.053976998 0.10421859 -0.11411813 0.08922543 0.059688166 -0.0038402108 -0.13444966 -0.07106419 -0.30355918 0.28941804
992 -0.001662087 0.14408001 0.025851551 0.018292993 0.12989311 -0.09724211 -0.15075065 -0.31243247 -0.03650763 -0.0595003 0.2254347 0.25169826 0.14550029 0.27818245 -0.19586055 0.11178835 -0.3320744 0.14514112 -0.32212338 -0.03398592 -0.09047903 -0.07126035 0.14887714 -0.12019491 0.005427785 -0.05630197 0.18888317 0.032413803 -0.19209048 -0.17043373 -0.2542181 0.020243932 -0.1020949 -0.34811693 -0.08151401 -0.04385926 0.41218013 -0.15146689 -0.02715581 0.067951925 -0.13735485 -0.07435051 -0.33483365 0.0022556838 0.20015585 0.21893896 0.15280697 -0.15387258 0.3228217 -0.019265508 0.31783202 0.009434807 0.044249676 0.30147687 0.04701338 -0.09973683 -0.011685851 -0.20787887 0.26904324 -0.3836873 0.035465755 -0.22387472 0.18640745 0.11032944 0.2021283 -0.27950856 -0.095657036 0.17059574 -0.19259973 0.08367231 -0.08156039 -0.22265963 -0.07766476 0.15003633 -0.06437906 0.22214222 0.02149208 -0.18578395 -0.0102132335 -0.22624062 0.12680973 -0.24630953 -0.023028653 -0.05107785 0.111485995 -0.12587969 -0.20100576 0.18472013 0.04931466 -0.115466684 -0.12452687 0.0770561 0.034968145 0.17586465 0.007891355 -0.09848126 -0.18025166 0.0074213482 0.24734285 0.15349916 -0.17906682 -0.12550668 -0.21127525 -0.04930714 0.29763138 0.010923526 0.073419824 0.066626504 0.2274868 0.115669906 -0.09633203 -0.25749594 -0.04891073 0.12274053 -0.39619598 0.04892432 -0.044722583 -0.25512028 0.006180275 0.018979182 -0.058369406 0.19171427 0.020345286 -0.081384316 -0.22244616 -0.15956998 -0.3025981 0.25495607
994 0.06226693 0.19999157 0.03601787 0.28117934 -0.036077652 -0.24043424 -0.33971483 -0.12812495 0.031390786 0.0010448272 0.07569874 0.080193184 -0.10740674 0.0827867 -0.02127991 -0.07767271 -0.20246954 0.059616473 -0.13218927 0.021385435 0.0068380106 -0.14702311 0.23467267 -0.031019056 -0.3389508 -0.1870921 0.03507424 -0.07942259 -0.07024347 -0.22198215 -0.2872589 -0.19593975 0.19904448 -0.020613102 0.09322267 0.36067864 0.16087025 0.0750449 0.039175365 0.17143431 -0.014010107 0.18152472 -0.24635078 0.25513884 0.006607044 0.1414694 -0.2593272 0.2548853 0.11958263 -0.19549933 0.06414747 -0.3163362 0.1361562 -0.16446298 0.20741762 -0.15652601 -0.31150228 -0.18602125 -0.07080119 -0.026903745 0.2034004 -0.03179496 -0.14489807 -0.040162496 0.40966323 -0.024769573 -0.12353998 0.28695643 0.05430644 -0.14251913 0.41857916 -0.18867394 -0.27506864 0.12528004 -0.04891354 0.11367205 0.026265873 -0.1695503 -0.035536684 -0.10824812 0.19981396 0.16030616 -0.01769075 0.16083272 -0.13419078 0.1785529 0.31364933 0.11504599 -0.041509937 0.023488712 0.12996967 0.109946266 -0.019084422 -0.017173853 0.07222741 -0.04274725 -0.23094909 0.03291754 0.14962201 -0.13659476 -0.45648733 -0.13712452 0.18037154 -0.13852187 -0.12882014 0.10733221 0.023189185 0.11099329 0.17378256 -0.011501973 -0.080110095 -0.114336185 0.19300964 0.15348212 -0.3379351 -0.025103448 0.44736806 0.08298723 -0.2535655 -0.08722427 -0.0902542 -0.029668024 0.0055055227 -0.2153848 -0.08994947 0.068495184 -0.32380491 -0.026289618
993 0.009831961 -0.06650516 0.069220595 -0.015159852 0.3174393 -0.07816491 0.013185497 -0.035941083 0.29484367 0.14294986 0.14133324 0.2157745 -0.030604165 0.08788637 0.005171988 -0.043505978 0.15133384 0.31645802 -0.0038145 -0.1093929 0.23503445 -0.17732756 0.10367505 -0.353706 -0.43496552 -0.1821733 0.18556044 -0.17192692 0.08683568 -0.029160134 0.008393014 0.25661084 0.017455574 0.1240288 -0.04629173 0.31550166 0.35129768 -0.24736655 0.32120466 -0.17089567 0.11894397 0.30176884 -0.39813954 0.23173748 0.061122157 0.19224733 0.10037408 -0.14816007 0.43157667 -0.06339207 0.1835137 0.075911306 0.15446886 -0.043764606 0.004863972 -0.13987562 0.038515504 0.11351667 -0.2104127 -0.13235784 -0.25789517 -0.062497936 0.09029687 0.027198493 0.109794945 -0.12290213 0.061685417 0.50084764 0.1563843 0.2198692 0.011713639 0.16038248 0.10119915 0.21994013 0.09844676 0.026647478 0.031407062 -0.18660486 -0.17287484 -0.023310121 0.062258165 0.005035961 0.016661748 0.3483564 -0.09736399 -0.13523234 0.09903986 -0.09487412 -0.028608298 0.0615211 -0.04560602 0.031268425 0.05297705 -0.25292385 -0.061204404 0.15932949 -0.0069933026 -0.062290113 0.15465613 0.11434436 -0.30186337 0.008622147 -0.14754213 0.042746 0.056973077 0.0017572856 -0.11083489 0.12684454 0.21460113 -0.041104924 0.049035754 -0.23658256 0.24127197 0.2549097 -0.41904193 -0.100595094 0.28468046 -0.17102668 -0.07073154 -0.033667564 0.05508077 -0.134855 -0.03156166 -0.168916 0.048201352 0.09559585 -0.26718187 0.0879337
987 0.11196653 0.16313231 0.09468389 0.27796036 -0.018193284 -0.19360483 -0.35842913 -0.07056584 0.072846755 -0.037727613 0.107213266 0.07813806 0.02943375 0.04284906 0.028379353 -0.13350967 -0.21348664 0.0643092 -0.07552015 -0.08728174 -0.105289996 -0.09713781 0.14905281 -0.14984202 -0.26056722 -0.23714702 -0.018590631 -0.047788277 0.10618118 -0.21549945 -0.15326516 -0.18942621 0.13467519 -0.06722759 0.00984857 0.33194226 0.18324234 0.0072516687 0.06745627 0.14894053 -0.0074785044 0.16028006 -0.14232044 0.11835846 -0.043827042 0.11444935 -0.25993973 0.21576276 0.015300289 -0.14556734 -0.01822652 -0.25068137 0.13087969 -0.16980548 0.12400236 -0.11923951 -0.25686246 -0.20151798 -6.231795e-05 -0.09241757 0.19610144 -0.07242561 -0.16136226 -0.10679233 0.49881178 -0.084265664 -0.056221 0.25801572 0.065400556 0.084789395 0.16924982 -0.120548196 -0.32100385 0.1532361 0.0057360865 0.06966779 0.07598929 -0.093208455 0.009695848 -0.14077109 0.2180763 0.12539446 0.001793067 0.18937373 -0.35066387 0.11062517 0.3557779 0.13966314 -0.113207504 -0.060180537 0.11411808 0.15142651 -0.06654913 -0.016117323 0.15762283 -0.018620048 -0.16882245 -0.014844085 0.2109528 -0.1922036 -0.4061881 -0.21397863 0.19050339 -0.15392451 -0.14043199 0.026098717 0.058854494 -0.033403873 0.26670006 0.10340317 0.0034743377 -0.15242153 0.23892012 0.11856571 -0.16183758 0.023410272 0.30862308 -0.010176577 -0.3167544 -0.1478972 0.15895751 0.036741626 0.024456337 -0.29492578 0.08336887 0.059289973 -0.27648973 -0.04806709
985 -0.079456344 0.37385216 -0.23587032 0.04549652 0.22709352 -0.23937732 -0.1287478 0.11411417 0.123567976 0.024347335 0.17458983 0.21156554 -0.020904433 0.08018422 -0.18259197 -0.1234317 -0.43482018 0.16721453 -0.09003025 -0.031314638 -0.029762669 0.10921074 0.08661053 0.09853649 0.03282091 -0.25497064 0.08681089 -0.113493435 -0.030076783 -0.21839423 -0.4483696 0.3084303 0.0539278 -0.08419575 -0.14082311 0.1772658 0.19543147 -0.42196953 -0.006735078 0.18802236 -0.014255674 0.34931502 -0.043607526 0.19084005 0.015694702 -0.08726533 0.13103174 -0.016366849 0.0038784093 -0.11871884 0.24836199 -0.14982706 0.12933815 0.09123901 -0.18994842 -0.08937029 -0.22900033 -0.114081204 0.059079267 -0.15598704 0.21258095 -0.039181475 -0.10221107 -0.16551305 -0.12898512 0.06742606 0.14694661 0.061264962 -0.18501696 -0.28187516 -0.119097665 -0.15540206 -0.2670404 0.30200368 0.12691091 0.46356058 -0.18933259 -0.073386736 -0.044319674 -0.22652486 0.28669956 0.13102226 -0.04002006 0.07578802 -0.11225422 -0.07524248 0.27237898 -0.1802833 0.03788517 0.035303164 -0.1357485 -0.001624135 -0.1994868 -0.15503165 0.056096885 -0.21552914 0.1931165 0.099356525 -0.2334493 -0.026230553 -0.10494257 0.009893488 -0.007115113 -0.13175222 -0.12122009 0.41701636 0.038464032 0.19191645 -0.14414844 -0.18539992 -0.18959312 -0.09309351 0.011360561 0.15816581 -0.38649902 -0.10056781 0.2763393 0.12802404 -0.04056645 -0.19193703 -0.16841969 -0.019050717 -0.096437305 -0.007163259 0.008108977 -0.14118925 -0.013492296 0.21951735
990 -0.14667146 0.23944479 -0.16366379 0.0019272696 0.23330386 -0.19063884 -0.08500955 0.06831454 0.10044417 0.054825537 0.12365152 0.18098229 -0.0068276455 0.07834143 -0.39132127 -0.0942321 -0.38779688 0.2370253 -0.15863423 0.08435344 -0.060624167 0.12937978 0.06083944 0.14013581 0.13617775 -0.19171792 0.20575228 -0.010132613 0.007818694 -0.18168047 -0.26876435 0.29614425 0.0130268205 0.0060656527 -0.059892636 0.07686993 0.1842105 -0.24430034 0.027853517 0.129528 -0.03687272 0.2768488 0.030767495 0.14487343 0.023813048 -0.1449987 0.19074576 0.020960473 0.041539818 -0.066241615 0.25858003 -0.14108513 0.05508457 0.0725493 -0.29548118 0.0040714997 -0.31619665 -0.19962102 -0.0065986803 -0.22806042 0.16166542 -0.110551655 -0.07020425 -0.2603683 -0.18371369 0.100512505 0.12050744 0.051003553 -0.28004768 -0.2284596 0.05243577 -0.22758302 -0.13737899 0.23818757 0.040812716 0.48683274 -0.21788482 -0.09363252 -0.06398915 -0.331541 0.25038806 0.12593786 -0.1543742 0.13165514 -0.05241633 -0.05520711 0.29580054 -0.1401806 -0.012856279 0.07183357 -0.1421383 -0.0068295505 -0.11048285 -0.18643157 -0.016446142 -0.22042619 0.16444401 -0.043353833 -0.12339352 0.09065677 -0.22182128 0.06918135 0.0037288032 -0.12326363 0.089025125 0.4476479 0.0720883 0.18086368 -0.14781493 -0.14816995 -0.31353962 -0.10659815 -0.0306385 0.30194426 -0.479943 -0.1312475 0.33998445 0.1287171 0.08768753 -0.19123968 -0.10601279 0.06713474 -0.004194414 0.014948161 -0.038760815 -0.18830097 -0.13310842 0.18099472
984 -0.19437921 0.330462 -0.18983012 -0.09873081 0.18761015 -0.24119508 -0.13135949 -0.016062288 0.00089272665 0.034501135 0.19199117 0.2313166 0.09176165 0.08338486 -0.27539733 -0.087654196 -0.35470262 0.15653814 -0.069795385 -0.04730273 -0.0038015533 0.09025381 0.120711274 0.10071618 0.074678056 -0.15031213 0.12485811 -0.016166553 -0.03342655 -0.21928076 -0.24547732 0.38913795 -0.010177436 -0.11660912 -0.17124997 0.15704542 0.21993099 -0.32715043 -0.093250245 0.25195095 -0.044536095 0.29990864 -0.048059426 0.15865834 0.0060756058 -0.0015021232 0.20079565 0.035641823 0.03862907 -0.10760253 0.28013787 -0.15415946 0.06100337 0.01582419 -0.21747348 0.011991367 -0.2685034 -0.19595522 -0.037334297 -0.19016962 0.18429926 -0.11457854 -0.12624761 -0.1974144 -0.07859293 0.040016595 0.08771387 0.1490457 -0.16215126 -0.20480673 -0.028157245 -0.24269606 -0.13671829 0.2658249 0.116298065 0.4443263 -0.18212469 -0.045913097 -0.06350167 -0.2294077 0.28665006 0.20070891 -0.11332338 0.024501681 -0.064012714 -0.03704586 0.3185718 -0.10210251 -0.05881724 0.062562466 -0.05327262 0.0082712155 -0.1412074 -0.062032446 0.063730694 -0.23385665 0.12120228 0.034014553 -0.07128127 -0.041358072 -0.12949282 0.002566882 -0.05988321 -0.09675212 0.053671557 0.44169685 0.065804325 0.21272244 -0.13871062 -0.1640991 -0.28975585 -0.11289433 -0.0376444 0.16161449 -0.40931424 -0.052943014 0.1691834 0.09599084 -0.03495713 -0.16329159 -0.22774081 -0.05879269 0.14026803 -0.06705506 -0.08819904 -0.121874616 -0.16260484 0.17917012
986 -0.020663682 -0.03947827 -0.004221979 -0.075400405 0.27832988 -0.126404 -0.07194504 0.016382694 0.29893398 0.1734094 0.21503752 0.20770973 -0.09487226 0.10195317 0.0776049 -0.0048916903 0.07861565 0.2933564 -0.061883256 -0.090211175 0.1825528 -0.12777628 0.12115021 -0.2649144 -0.37100103 -0.16157372 0.16439612 -0.21433638 0.06645599 -0.009031859 -0.04961629 0.36450082 0.06821732 0.10135696 -0.15303317 0.28407753 0.3085372 -0.32638294 0.3102446 -0.13531256 0.12897386 0.29579863 -0.365172 0.2625058 0.07001403 0.2035716 0.18368544 -0.13793834 0.3775348 -0.0853095 0.18476492 0.0755908 0.1686061 -0.107879706 0.050852276 -0.16390347 0.09780886 0.046798844 -0.16705433 -0.16198868 -0.24544923 -0.049873706 0.047996182 0.010898002 0.07195849 -0.13195945 0.08535541 0.5096076 0.0834799 0.1474598 -0.014817911 0.1573106 0.058511194 0.26615062 0.089608945 0.053072352 -0.061200757 -0.07253935 -0.12182384 -0.049009774 0.073515095 0.06018969 0.029265864 0.22739512 -0.11929704 -0.10073805 0.04311154 -0.12974277 -0.11492557 0.13720915 -0.05062081 0.039926123 -0.06557932 -0.16694714 -0.0010838396 0.10212303 0.0684892 -0.012482229 0.13750193 0.14674567 -0.20069279 0.0148005085 -0.26982558 0.115322255 -0.020837888 0.027592815 -0.11236603 0.12300376 0.18664128 -0.12691964 -0.018437592 -0.23578712 0.21530996 0.21171705 -0.37471706 -0.11655036 0.22786313 -0.14813225 -0.07543434 -0.062351882 0.03221061 -0.08538688 0.084890105 -0.15553685 0.047801893 0.10438827 -0.13314773 0.08795945
988 0.11658731 -0.040063657 -0.25802672 0.3425411 0.073934756 -0.1860178 0.14798349 -0.07498942 -0.13231896 -0.017466512 0.2648002 0.17914818 0.22108082 -0.1709535 -0.10000967 0.033930995 0.107844435 0.036722377 -0.10948365 0.5497919 0.0404353 -0.11765067 0.16941911 -0.088928014 0.13651644 -0.14997862 -0.046393096 0.20531198 0.019629449 0.08100065 -0.24203789 0.2761518 -0.1394869 0.0711942 0.10998725 0.14359392 0.107090786 -0.4225923 0.0060613146 -0.37482324 0.2601041 0.047229305 -0.14690058 0.1396307 0.25018057 0.03554119 -0.098601334 -0.11374335 0.09072693 -0.10324886 0.13233365 -0.1824796 0.21854483 0.07428998 0.023228567 -0.06846988 0.04732758 -0.21297775 0.045425918 -0.116218776 -0.07368465 -0.19831342 -0.021275263 -0.117249124 0.40168762 -0.32749927 -0.24119867 0.005856044 -0.078731805 0.020238152 0.23721941 -0.14467147 -0.39546657 0.12928388 -0.0046197493 0.31511983 0.10515963 -0.15064423 -0.17112751 -0.26908433 0.06333114 0.15844533 0.32207966 0.08640242 -0.19490212 0.33336845 -0.15560085 -0.12659727 0.0452764 -0.13348088 -0.22481318 -0.18491247 0.0014512625 -0.32520264 -0.053476024 0.10999884 0.20287031 -0.12034889 0.0819464 -0.029742882 -0.0065549603 -0.11447139 0.016640648 -0.08847805 0.15733425 0.083104916 0.06666905 0.1092347 -0.07304696 0.11294567 0.011961735 0.17036602 -0.10280429 0.19805092 -0.1473196 -0.054034296 0.36240697 -0.21875532 -0.31430656 -0.14072493 -0.26227546 0.23363759 -0.13430786 -0.11363451 0.15478514 0.026155569 -0.036594354 0.18611643
981 -0.04646029 0.058594376 0.055413432 0.04250414 0.1521837 -0.21413699 -0.25411054 -0.33899677 -0.055992518 -0.06343575 0.2501511 0.21697508 0.1798488 0.20598231 -0.25931436 0.09769786 -0.29142338 0.19196558 -0.24693015 0.0047768387 0.0045601926 -0.11019178 0.11201209 -0.17508444 -0.08343008 -0.13880405 0.120771036 -0.013131168 -0.22363925 -0.13874449 -0.33086666 -0.0015532492 -0.11191382 -0.38458484 -0.08684607 -0.06406317 0.40451303 -0.17202358 0.017626785 0.10056395 -0.07713408 -0.013966083 -0.37017012 0.0046900855 0.17072481 0.16412164 0.06591785 -0.13781193 0.36177975 0.090861134 0.28449568 0.020254087 0.02743046 0.24039933 0.036495306 -0.18387204 -0.13694279 -0.27231652 0.32155555 -0.39592227 0.05732012 -0.22716755 0.25196472 0.11406276 0.23174442 -0.22767359 -0.18591769 0.17871712 -0.14880218 0.21261044 -0.12766084 -0.1862324 -0.041894715 0.13622594 -0.088526025 0.1545749 0.11538953 -0.080394946 0.036037646 -0.21064128 0.10459105 -0.27461532 -0.059806395 0.0049949344 0.15383007 -0.17016561 -0.26865548 0.10125526 0.12744209 -0.12997423 -0.0901779 0.088904686 0.16992012 0.09317095 0.02382478 -0.07124205 -0.11711673 -0.0063424483 0.22500841 0.13960186 -0.1023339 -0.13550878 -0.17286023 0.033977516 0.33688122 0.04757726 0.05916679 0.021700397 0.32355064 0.12075304 -0.0076960884 -0.18573062 0.040847987 0.108080015 -0.3318399 0.11459361 -0.060880017 -0.32576343 0.0033155947 0.013781772 -0.074542224 0.18566346 -0.023870623 -0.090437 -0.13369066 -0.15577978 -0.2617379 0.24280514
980 0.07604413 -0.40350798 0.09264726 0.15183647 -0.19807565 -0.33450237 -0.11369019 0.2019028 0.037468992 -0.13183996 0.0016223781 0.14704777 -0.020864485 -0.12247499 -0.08911869 -0.050602097 0.03605519 0.1165997 -0.076056555 0.36600828 0.016236631 -0.3201714 -0.025698628 0.02189492 -0.020382237 -0.1885451 0.09214771 0.059883736 -0.084266596 0.26170373 -0.31007576 0.038755074 -0.07999327 -0.08862183 -0.08710883 0.064335264 0.1946889 -0.17466249 0.16324589 0.06261239 0.095313355 0.24482282 -0.12145202 0.12500668 0.1613153 -0.25937057 -0.12993425 -0.12321051 0.06114316 -0.04798237 0.31524292 0.04676568 0.2780131 -0.018201804 -0.037430555 -0.26334733 -0.23857802 -0.3166147 0.13500428 -0.07097167 -0.0015575925 -0.037786994 0.08566523 0.23383583 -0.12834756 -0.04445469 0.08557337 0.40455016 -0.2924285 -0.013952005 -0.14710161 -0.18311757 -0.24716336 0.18059687 0.052515477 0.1271689 0.23648828 -0.31092957 -0.13432439 -0.3984307 -0.07736661 0.063806 0.11779938 0.23060408 -0.31722096 0.036197413 0.15980037 -0.15146603 -0.021888051 -0.010612677 -0.018705035 0.07334424 -0.054682497 -0.21699746 0.16628017 0.057022393 0.14590657 -0.13910079 0.31169572 0.266177 -0.11904808 -0.12778474 0.05156866 -0.13492082 0.016141491 0.10064139 -0.09345218 -0.07981769 0.28770655 -0.009137628 0.13209015 -0.13216941 0.24980204 0.48718575 -0.07159104 -0.2025305 0.43195626 0.3038149 0.37424028 -0.13995859 0.12797 0.07582401 -0.4541676 -0.16936061 -0.012734894 0.1306965 -0.16597614 0.07695855
982 0.1539683 -0.014292413 -0.33845708 0.33608767 0.023400813 -0.18258537 0.20364381 -0.065297484 -0.07216854 0.08061168 0.2845986 0.17402145 -0.00068421 -0.1409874 -0.030005183 -0.0013726905 0.14261895 0.173932 -0.079244986 0.54421014 0.0901144 -0.015052851 0.13216947 -0.055356164 0.21119128 -0.087876216 -0.08160756 0.22717577 -0.045457665 0.04846247 -0.11936038 0.20375192 -0.16922393 0.13468812 0.0718385 0.09969417 0.1486478 -0.3903861 -0.04187778 -0.33522052 0.23698764 0.07910072 -0.12963918 0.11127931 0.36204073 0.027024532 -0.08074492 -0.046853743 0.09160594 -0.008978839 0.14969118 -0.21818687 0.13335624 0.053350527 -0.02916419 -0.1263132 -0.01900024 -0.2052889 0.0011268083 -0.045704823 -0.13353173 -0.19364332 -0.033669643 -0.20902151 0.49809352 -0.4274379 -0.23189004 0.053833093 -0.13655362 -0.002689824 0.16683526 -0.12189073 -0.40863147 0.22284779 0.04299776 0.33939236 -0.016031876 -0.17655021 -0.3672178 -0.15534721 0.12100446 0.049754582 0.32740507 0.06403252 -0.13565724 0.22170897 -0.21223876 -0.08241527 0.11357047 -0.120852195 -0.2846529 -0.21207231 0.06547677 -0.40238205 -0.07591906 0.08790395 0.21740232 -0.01826174 -0.028917225 0.03813953 -0.19314066 -0.1460202 0.035507683 -0.07298416 0.10825774 0.04922599 0.05768915 0.089659795 -0.041250277 0.093665384 -0.001742695 0.17868084 -0.035058726 0.20362605 -0.1951184 -0.025344307 0.36987576 -0.19259669 -0.34119853 -0.13249072 -0.24677864 0.1885532 -0.16272667 -0.072179064 0.06635176 -0.10012141 -0.10212916 0.23417616
983 -0.030252876 0.018673249 0.03304058 -0.06436108 0.037412215 -0.098853655 -0.10210084 -0.15316135 0.118165076 0.10708022 0.17368047 0.026255557 -0.04100549 0.1432139 0.0919298 -0.110889815 0.067732334 0.30962262 -0.053596716 -0.11784478 0.2281427 -0.1361041 0.08320559 -0.32143015 -0.4077843 -0.2070863 0.16354689 -0.23398629 0.091867015 -0.059284966 -0.11825892 0.35504135 0.042122558 0.095551305 -0.06466653 0.3650639 0.39993387 -0.3275241 0.25319102 -0.2227158 0.15780155 0.35090292 -0.33431724 0.19175856 0.039839044 0.23893714 0.16398056 -0.10495493 0.4499766 -0.019085651 0.17622507 0.11040638 0.14809677 -0.07828742 0.046699863 -0.18881088 -0.006690893 0.043109093 -0.17978363 -0.20205858 -0.26672244 -0.014845322 0.043695595 0.02438521 -0.0036856702 -0.12321599 0.078206226 0.5156559 0.1348619 0.20929702 -0.059548534 0.16536807 0.08829037 0.18961383 0.14419423 0.032245386 0.014561985 -0.21712379 -0.20874727 -0.055731125 0.11524362 0.11944584 0.03760125 0.2147643 -0.20510657 -0.05592018 0.1282387 -0.20951395 -0.07912792 0.17864624 -0.17760982 -0.013165342 -0.08360413 -0.21526237 -0.03491833 0.20121673 0.15656956 -0.03790594 0.09678044 0.15332593 -0.20814162 -1.7030252e-05 -0.20528027 0.16595729 -0.0062816157 -0.0107600875 -0.035179988 0.19642352 0.12987967 -0.1486042 0.029733399 -0.20557632 0.1620148 0.18421134 -0.45303285 -0.1399997 0.27095956 -0.16265433 -0.04067266 -0.019853933 0.043831408 -0.12912507 0.0800973 -0.12929414 0.0623268 0.142554 -0.16497256 0.17172462
978 -0.09351227 0.31712756 -0.25676998 0.0053938245 0.18032642 -0.17532766 -0.14018796 0.039031554 0.048785254 0.13094574 0.15829541 0.03309849 0.08793969 0.100207016 -0.2838942 -0.08602166 -0.3768443 0.10747223 -0.028738795 -0.012738549 0.028588489 0.14696816 0.020111201 0.111853525 0.019294482 -0.25796038 0.07490151 -0.04214536 -0.090341955 -0.22598945 -0.3649825 0.2601583 0.0029750196 -0.046790082 -0.15760109 0.1454192 0.15081483 -0.3073838 0.028138595 0.23085895 0.03910272 0.30770013 0.057781488 0.18569976 -0.0527037 -0.06496287 0.12973808 0.024945276 0.09227657 -0.09530621 0.38474792 -0.13646623 0.11584535 0.03865512 -0.28275907 -0.105283946 -0.22897422 -0.21521993 0.061156455 -0.2169373 0.09885936 -0.10288958 -0.008357589 -0.17955294 -0.11614442 0.074294865 0.046930756 0.097802505 -0.18530555 -0.23304929 -0.041660164 -0.10542851 -0.15818322 0.2529665 0.12805246 0.4190781 -0.19360374 -0.07424409 -0.07970924 -0.1982179 0.34100607 0.1443678 -0.11687941 0.1168564 -0.0659776 -0.11090994 0.34232622 -0.110305205 0.085145995 0.078283794 -0.05508186 -0.045936137 -0.2190073 -0.22262625 0.0378898 -0.17730592 0.15957296 0.031101607 -0.20866817 -0.0070073577 -0.10561811 0.032723535 0.010757495 -0.11498537 -0.04042002 0.44414967 -0.025687331 0.16736467 -0.15286796 -0.15319009 -0.29603758 -0.12160556 -0.009317814 0.15538555 -0.486755 -0.09034178 0.2578096 0.09822821 -0.07026871 -0.2720309 -0.21649344 -0.117559984 0.039509 -0.09755774 -0.0025526409 -0.104782805 -0.10580946 0.13796227
977 -0.025331398 0.116216704 0.077052586 0.065074526 0.08411699 -0.18971933 -0.11789054 -0.37575847 0.03244149 -0.09537947 0.28242466 0.18978256 0.13653801 0.20723335 -0.2625356 0.19955559 -0.2308335 0.16915774 -0.26353556 -0.06365094 0.066181265 -0.07460875 0.0788365 -0.06331809 -0.036694337 -0.046282694 0.10396615 0.03935559 -0.23242936 -0.17686369 -0.37483063 0.005907411 -0.08436817 -0.4191519 -0.19356515 -0.06739231 0.38095576 -0.23207822 -0.0077377083 0.16330302 -0.079474874 0.07922456 -0.29837734 0.11757605 0.25904927 0.19136506 0.11716269 -0.12901668 0.4626374 -0.0044838013 0.37513012 0.0025650193 -0.05978398 0.256016 0.019106625 -0.12517916 -0.08206706 -0.185795 0.23188025 -0.4064459 0.046793412 -0.20063278 0.25868547 0.08713099 0.26601225 -0.2503066 -0.15837866 0.15101507 -0.109997295 0.008921091 -0.12099259 -0.09899242 -0.12863298 0.13394827 0.010727971 0.19803174 0.18164949 -0.15554866 0.04929851 -0.18391326 0.28592527 -0.35884902 -0.023252683 0.08655109 0.096827246 -0.2646895 -0.22079265 0.07063378 0.10672516 -0.09018663 -0.005651145 0.005801625 0.039999083 0.13426487 -0.00860531 -0.108539686 -0.22843614 0.109788254 0.15730405 0.119396284 -0.088089034 -0.10027811 -0.1233721 -0.006978773 0.21636374 -0.0071190833 0.003060657 0.13243791 0.26253757 0.05366491 -0.0554333 -0.24392384 0.06537197 0.15235204 -0.37290218 0.08884163 -0.016670754 -0.1786292 -0.03133691 -0.004413468 -0.13433573 0.23798364 -0.015374052 -0.08832598 -0.10562249 -0.071957335 -0.27898622 0.41379756
976 0.113344066 0.03152089 0.08778994 0.34922346 -0.041275688 -0.15034707 -0.2998144 -0.14760399 -0.023049412 -0.03786941 0.071868114 0.014124955 -0.16658457 0.03710414 0.042490747 -0.098493434 -0.17248695 0.14504376 -0.123759225 0.037411727 0.023792524 -0.06728794 0.14710034 -0.05410626 -0.25056896 -0.15571398 0.035595626 -0.104964346 0.0013611115 -0.1054965 -0.27438378 -0.24970786 0.13710438 -0.08920987 0.11493647 0.394024 0.2819433 0.014771466 0.06581586 0.13341184 -0.012245178 0.169222 -0.10165944 0.1535706 0.08354276 0.10351166 -0.31718552 0.18067038 0.17749959 -0.0910092 -0.0057480177 -0.29125288 0.24844995 -0.09197863 0.094027266 -0.107582256 -0.30118722 -0.23978773 0.0010454098 -0.11227315 0.13807552 -0.0713501 -0.1338541 -0.036558565 0.4707263 -0.13379091 -0.112996906 0.2504073 0.0021839177 0.007311087 0.3270417 -0.14525205 -0.34374216 0.21353225 -0.08869833 0.011584826 0.12343238 -0.20440494 -0.032566555 -0.17990857 0.24683745 0.03230738 0.024821252 0.17394608 -0.28650817 0.12929489 0.26130742 0.11125612 0.023242887 0.032315698 0.07259986 0.04691448 -0.11499024 0.041406713 0.115772076 0.038701456 -0.22530445 -0.11034986 0.18649521 -0.07975908 -0.28991425 -0.20530415 0.2823532 -0.19106987 -0.096911274 0.0059401738 0.043076396 0.038474794 0.2140398 0.114182785 -0.095268644 -0.091682285 0.16075636 -0.050533246 -0.14563927 0.043490946 0.3710496 0.10380473 -0.29315007 -0.069219925 0.1340295 0.042561624 0.015983652 -0.28883785 -0.024458542 0.06364432 -0.28960788 0.012270785
975 0.03028148 0.20656781 0.006778336 0.07971668 -0.0041223904 -0.19250697 -0.084076285 -0.37626165 -0.06737575 -0.08338675 0.34266305 0.24921161 0.10789879 0.17738734 -0.2433638 0.15899487 -0.28280813 0.1154803 -0.2913351 -0.0047942977 -0.025154525 -0.044372454 0.09341374 -0.009378387 0.006631168 -0.051413253 0.05338611 -0.02365168 -0.15660585 -0.1466263 -0.27226138 0.08833308 -0.090231694 -0.34644902 -0.16216917 -0.07086678 0.3875007 -0.15362948 -0.13326149 0.04664024 -0.06582925 0.028849326 -0.36116582 0.104895726 0.27377182 0.16323854 0.07041649 -0.16357976 0.41069773 0.073416665 0.25425878 0.01592372 -0.08266051 0.26822782 0.106006 -0.15047301 -0.06782045 -0.18679295 0.24534304 -0.29483992 0.13029659 -0.1511684 0.14522204 0.14488454 0.27102736 -0.24374923 -0.1750102 0.24963923 -0.14518075 0.023935799 -0.040419955 -0.28396237 -0.14115363 0.09555745 -0.022689424 0.22008961 0.1890554 -0.14683023 0.0018208531 -0.25160545 0.20560026 -0.250021 -0.02324214 -0.058495704 0.029821778 -0.13099705 -0.20581838 0.14542384 0.08149104 -0.12000494 -0.061091095 0.07493347 0.067709304 0.14501928 0.031009413 -0.08070453 -0.13570444 0.07253458 0.27803257 0.14966115 -0.20316094 -0.11088687 -0.17107508 0.024502592 0.30179596 0.0055582495 0.023653423 0.10855004 0.2708939 0.13886772 0.00490901 -0.21308385 0.12699091 0.19933799 -0.35185033 0.061156683 0.0038582326 -0.21875286 0.00070693344 -0.012434981 -0.15442103 0.20926236 0.012211969 -0.023598766 -0.17757486 -0.08804665 -0.2782703 0.23066181
979 0.10492587 0.1718419 0.01776914 0.42620984 0.07231234 -0.14673027 -0.29003367 -0.1955817 0.079295 -0.055130508 0.15004444 0.06516619 -0.06645381 0.04317874 -0.0098678265 -0.06832476 -0.23229124 0.05563473 -0.21264258 -0.01791189 -0.044578813 -0.10636844 0.24092865 -0.16639243 -0.29512653 -0.1809198 0.069667146 -0.050322462 0.03660364 -0.1931286 -0.2810943 -0.17290272 0.087987624 -0.12907448 0.07424628 0.36129478 0.22724691 -0.008345089 0.064240426 0.12345251 0.009228757 0.17380212 -0.25981888 0.23749845 -0.028845603 0.18998514 -0.2637711 0.246946 0.16126625 -0.20951156 0.02067211 -0.29878098 0.17240067 -0.073950216 0.13450514 -0.10815729 -0.218227 -0.13116765 -0.05640999 -0.17843454 0.20071107 -0.02591765 -0.0972226 -0.06744618 0.43079448 -0.10136878 -0.11895434 0.3295063 0.05521205 -0.10334664 0.39287147 -0.17807579 -0.24751545 0.14574282 -0.07901898 0.117011316 0.1400814 -0.14663431 0.0025128666 -0.12858577 0.27406693 0.055468112 -0.050379828 0.12769234 -0.14823519 0.19189551 0.2977748 0.09680947 -0.13175984 0.010895067 0.12859394 0.08997889 -0.08912397 0.049584173 0.05537313 -0.07380543 -0.2837634 0.02650283 0.14996631 -0.124520876 -0.33054227 -0.0900756 0.17640088 -0.15458147 -0.105418906 0.019142462 0.032462623 0.034973744 0.2625181 0.056240406 -0.17754562 -0.19327086 0.1590843 0.04752693 -0.3015425 0.021670675 0.3677399 -0.029403618 -0.22349201 -0.13379999 0.0411814 0.09572459 0.111730985 -0.2042292 -0.018535124 0.13296509 -0.28214985 0.0629286
974 0.037314214 0.17985095 0.0014108919 0.06862884 0.1428827 -0.20978133 -0.10345863 -0.37301493 0.009015495 -0.1226031 0.34322128 0.04216328 0.16281007 0.22038397 -0.34482896 0.10111644 -0.23679438 0.14359601 -0.28571898 -0.039666846 -0.0053252517 -0.021371955 0.079881124 -0.13095756 0.044274304 -0.08868111 0.15838547 0.0010353663 -0.2367426 -0.21011916 -0.28889593 0.03330725 -0.18675715 -0.3806313 -0.10417055 -0.08831212 0.39021328 -0.22923975 -0.13972288 0.12891729 -0.09348632 0.011979554 -0.2829891 0.097898245 0.19639015 0.12749758 0.14560221 -0.20488386 0.35785082 0.049958907 0.3270292 0.03658819 0.024723934 0.24775948 0.0069593918 -0.16758479 -0.024279274 -0.20705181 0.3390379 -0.36966065 0.031217892 -0.19314693 0.23309416 0.06743411 0.2014669 -0.22365116 -0.13952258 0.23192944 -0.1268738 0.111128695 -0.087349646 -0.16281132 -0.17888516 0.16043645 -0.051785257 0.2230424 0.12318265 -0.10922262 0.0022620398 -0.17150745 0.1922637 -0.2755633 -0.07170642 0.044678375 0.1397903 -0.20731512 -0.20017433 0.08424719 0.08931665 -0.09833498 -0.0571736 0.047134124 0.021759322 0.03779501 -0.05383179 -0.18429859 -0.1736664 0.071448304 0.13786475 0.1627975 -0.09928651 -0.031137584 -0.16725764 -0.04194995 0.24832468 0.07340219 -0.0002442405 0.035411067 0.22980715 0.037852015 -0.035049174 -0.21362737 0.004660445 0.15552357 -0.4248512 0.033313878 -0.01312586 -0.19976905 -0.0034605283 -0.031858142 -0.10442162 0.21848948 0.007754725 -0.095313266 -0.1750849 -0.01925529 -0.32554236 0.25474966
970 -0.09225435 -0.15030985 0.37297735 -0.2503402 0.34596562 -0.12784684 -0.24295081 -0.012815634 0.0017377242 -0.06878326 0.055689175 0.35614017 0.39074725 0.10257274 -0.15709668 0.006432194 0.02764393 -0.024572685 -0.21147883 -0.029732008 0.046361137 0.02418588 0.12819631 -0.30238357 -0.20141049 -0.12215425 0.19436766 0.025884494 0.17311804 0.22421579 0.03457796 0.12823026 0.019898193 -0.13352488 -0.05638137 0.05960564 0.15729901 -0.08006969 0.2788701 0.08846942 -0.03606731 0.0830309 -0.030389164 -0.11173723 -0.07111545 0.0970738 0.04263844 -0.05270529 0.22959214 -0.28293416 0.03200873 -0.036107924 0.35678348 -0.06401482 -0.37366873 -0.10108356 -0.19142058 -0.1645414 -0.011129799 -0.27256307 0.05036728 -0.2352405 0.102638334 -0.013458349 -0.04697215 -0.17222312 0.03266638 -0.13651697 -0.019745035 0.23419704 0.15939148 -0.32400903 0.09951333 0.44304472 -0.04953465 0.173193 -0.1936844 -0.2522342 0.2407045 -0.14892422 -0.019116133 -0.13438158 -0.15188159 0.48835164 -0.14956099 -0.10660066 0.24599317 0.17334749 -0.19219781 -0.12259977 0.14297311 0.1493764 0.19286305 -0.35002282 0.0396552 -0.008022536 -0.06843303 -0.33954707 0.34906805 -0.040632125 -0.14207949 -0.044818893 0.022775546 0.055869527 0.5465045 0.1186888 0.11212849 0.018357936 0.028550332 0.27392745 -0.04830278 -0.033123694 0.0023152733 0.37876704 -0.32489297 -0.114191405 0.24639839 -0.10405591 -0.11867763 -0.0018026212 -0.054984033 0.17276506 -0.09049447 -0.38854796 0.07562577 -0.01974087 -0.32529542 -0.06473737
972 0.07791061 0.02039799 0.146376 0.2926562 0.034907386 -0.06770363 -0.3541422 -0.08849769 0.18393226 0.06774638 0.07135005 0.043794256 -0.11981943 0.053963248 0.11195867 -0.058073465 -0.18553299 0.092461154 -0.13825987 -0.03862057 0.058218006 -0.062414005 0.28277907 -0.14796296 -0.39676532 -0.21092428 -0.016704667 -0.12877752 0.006802339 -0.18913123 -0.28528085 -0.19659187 0.14919545 -0.07310515 0.032706432 0.40902263 0.2494255 -0.0011762663 0.16650751 -0.025742278 0.037223484 0.16951717 -0.19005413 0.21863905 0.020880038 0.22704072 -0.2631085 0.2531547 0.13540936 -0.18312556 0.05683452 -0.27625915 0.1666759 -0.13387662 0.20167695 -0.16979218 -0.21351464 -0.0958091 -0.08132206 -0.10819651 0.11033001 -0.04384151 -0.044464085 -0.0890412 0.5543676 -0.11256612 -0.11702531 0.3201048 0.037616033 -0.04986552 0.31268087 -0.077620864 -0.29461342 0.13888007 -0.07120583 0.09552697 0.06847949 -0.12347746 0.01181851 -0.15735526 0.2407342 0.049822684 0.10190573 0.21718118 -0.23052555 0.17771894 0.27765003 0.08495204 -0.09563065 -0.02755818 0.085697696 0.08559201 -0.044648796 0.052025907 0.097547814 0.011227145 -0.17896278 0.013025227 0.13753147 -0.16537374 -0.37490427 -0.23652095 0.21606863 -0.14141575 -0.13553388 -0.08594216 0.08767053 0.06717082 0.21136263 0.05477159 -0.11878963 -0.19676337 0.21642178 0.048931893 -0.2755159 0.0016420138 0.31049213 -0.039056614 -0.2998528 -0.13035962 0.07157854 0.012698863 0.04604141 -0.20780237 0.05330749 0.033610377 -0.21224408 0.026281212
973 -0.056720395 0.12151064 -0.09939998 -0.19937375 0.038384568 -0.08446873 0.12062578 -0.17211851 0.14307228 0.3430965 0.19442612 0.1177194 -0.15897064 0.10212956 0.16055788 -0.19186 -0.123270586 0.31468317 -0.0064650555 0.04376114 0.12091887 -0.047129884 0.03711538 -0.021249406 -0.037136223 0.12572166 0.036638565 -0.06499288 -0.0638716 -0.054456245 -0.05664708 -0.06701337 -0.14933872 0.039962154 0.07328042 0.09433466 0.10890853 -0.18453836 -0.007861061 0.01032943 0.14965557 -0.20188299 -0.07304797 -0.14817712 0.045138095 0.08143562 0.20236644 -0.035950344 -0.04717637 0.036803517 0.15440087 -0.13756578 0.0009356363 -0.3338962 -0.044840075 -0.29971072 -0.4176923 -0.21444474 0.2091527 -0.087447315 0.22480197 -0.06608272 -0.24705797 0.17604266 -0.0625227 -0.21972924 -0.0532239 0.20083357 -0.3604941 0.29097193 0.01301424 -0.31421313 -0.21625182 0.50471985 0.10367355 0.117258966 -0.22892267 -0.28871876 -0.3313049 -0.038448527 -0.017120125 0.09153902 0.18423325 0.0366488 -0.28476533 -0.2901603 -0.019273734 0.2120609 -0.17443837 -0.021686748 -0.22127646 0.12740907 -0.02661692 -0.08797749 0.11421892 -0.0038561937 -0.035816688 -0.07781208 0.24499236 0.11414227 -0.1708162 -0.0407328 -0.18302524 -0.08575501 0.16947743 -0.04559805 0.115338 0.18738773 -0.02551372 -0.027727896 0.14401877 -0.1545988 0.08091643 0.12564272 -0.44656175 -0.06541024 0.14726609 0.07299393 -0.0018502221 0.01049912 -0.069963805 -0.18266875 0.11029446 -0.077952325 -0.15244587 -0.15432106 -0.24045509 -0.18896586
969 0.099080026 0.04129394 -0.013714253 0.37393972 0.18039055 -0.2868564 -0.301775 -0.107839555 0.0061792876 0.11655891 0.15654002 -0.06095358 0.055904202 -0.03468776 -0.009611332 -0.11236062 -0.2055663 -0.0054359324 -0.020098096 0.04366411 -0.012216386 -0.14040431 0.1496297 -0.21255003 -0.34926313 -0.15640542 -0.01988257 -0.012405963 -0.030556994 -0.22077544 -0.24910186 -0.22774814 0.084792174 -0.15520194 0.12295656 0.3405221 0.18998384 -0.06989701 0.14102681 0.03613106 0.078336924 -0.043229476 -0.2534374 0.12552917 -0.023665842 0.1090941 -0.292653 0.1783522 0.06115921 -0.07878429 0.07140915 -0.32231334 0.14854728 -0.08874805 0.1171669 -0.15441427 -0.23511279 -0.2453114 0.0052066217 -0.058256194 0.20467904 -0.07577983 -0.043388307 0.03253107 0.5292904 -0.09590213 -0.21133013 0.35168 0.03290721 0.118584484 0.30828717 -0.13415986 -0.3187212 0.27036163 0.031053059 0.04661153 0.078427404 -0.113844834 -0.042143192 -0.0005656451 0.21436584 0.20881537 0.04192451 0.07713037 -0.14036223 0.09131161 0.26623976 0.14642051 0.024317851 -0.041483834 0.10050469 0.054620355 -0.08975427 -0.0675829 0.059747618 0.002383667 -0.3052463 0.03793722 0.07498116 -0.21048445 -0.33905843 -0.1568841 0.2919654 -0.21839201 -0.17281261 0.09187505 -0.024321677 0.016700348 0.118587285 0.043288484 -0.05252919 -0.045058586 0.22584037 -0.040971894 -0.27463192 0.05957533 0.3525131 -0.024545033 -0.31641355 -0.037401818 0.047077242 -0.045025695 0.10763665 -0.26970428 0.057038266 0.10258802 -0.27919957 -0.16728948
966 0.00607451 0.18163493 0.0026943854 -0.086322464 0.01677599 -0.23245233 -0.13537328 -0.34641406 -0.07989694 -0.000106989566 0.2554802 0.2476492 0.18388286 0.20055874 -0.18694656 0.1233721 -0.26925814 0.14923958 -0.21019466 -0.11737223 0.031587485 -0.06782074 0.032755464 -0.050563704 -0.072605126 -0.0070351143 -0.007927161 -0.09915764 -0.24940197 -0.21968655 -0.32157904 0.029122202 -0.13696274 -0.41421825 -0.14792763 -0.06748998 0.42013586 -0.23664272 -0.042565573 0.06927868 -0.035802767 -0.07336982 -0.32774234 0.023923224 0.30802986 0.17225038 0.19131014 -0.15880172 0.36715287 0.12060062 0.2611799 0.042074706 3.693218e-05 0.16440436 0.14446326 -0.1771535 -0.042064484 -0.14398064 0.2455158 -0.28967944 -0.018356431 -0.17177399 0.17436416 0.16525282 0.28368738 -0.22517765 -0.17029743 0.19531007 -0.13086216 0.16719127 -0.18297681 -0.26490957 -0.17560852 0.17157064 -0.062244702 0.19817668 0.12015804 -0.09102107 -0.017327562 -0.10915435 0.16205376 -0.20080502 -0.069196284 0.017105665 0.014856994 -0.18636782 -0.22111802 0.13520782 0.040948637 -0.11432601 -0.020389313 0.07796853 0.09505899 0.12645446 0.008955101 -0.07634349 -0.014332161 0.08945123 0.33407107 0.08135692 -0.09060756 -0.17992537 -0.23929968 0.049554236 0.2756123 0.037024204 0.09180229 0.052341282 0.263054 0.08879421 -0.061471242 -0.160023 0.098062746 0.06823847 -0.39542535 0.09390432 -0.10089543 -0.30531865 -0.057218723 -0.044370074 -0.17526446 0.1271529 0.03958816 -0.08645739 -0.1729663 -0.08935537 -0.27338648 0.18587789
962 -0.08396281 -0.18702428 0.32777995 -0.23659134 0.3959266 -0.11723089 -0.23351663 0.04417894 -0.020853182 -0.10392132 0.10919182 0.38358107 0.41071323 0.05886983 -0.14850175 -0.015655428 -0.017789379 -0.02666469 -0.16520262 0.031807136 0.055256877 0.116569944 0.08980479 -0.36202127 -0.066067524 -0.037363455 0.21398854 0.038766224 0.26536164 0.14188185 0.04336799 0.08253299 -0.032803718 -0.12767872 -0.098957874 0.023002978 0.11884248 -0.16590029 0.19451392 0.06604956 -0.042311925 0.009308681 0.114864156 -0.17514925 -0.059322085 0.054115012 0.08045009 -0.03671742 0.15863124 -0.24296184 0.06171214 -0.0030936126 0.24394579 -0.14307092 -0.4163933 -0.016487205 -0.10961637 -0.17201513 0.006991143 -0.25165328 0.0705718 -0.22696266 -0.016486108 -0.017328966 0.005873482 -0.15483499 -0.01502148 -0.18651995 -0.07221335 0.23161897 0.17198661 -0.3354627 0.0027196703 0.5036894 -0.015491472 0.2525312 -0.19405918 -0.20139135 0.18989712 -0.16166294 0.07000939 -0.23244537 -0.10726345 0.37819907 -0.1414018 -0.15703915 0.25951687 0.19698356 -0.14914249 -0.14548312 0.11325464 0.089490876 0.0727387 -0.31138015 0.047835823 0.010993667 -0.104537256 -0.39223257 0.32059437 -0.018348575 -0.05534786 -0.08767293 0.08747158 0.014036521 0.557406 0.07506899 0.08171541 -0.005504836 0.014141798 0.28958812 -0.12086763 -0.08119095 -0.0974615 0.36174297 -0.37794998 -0.1888007 0.09373713 -0.11150574 -0.067342244 0.015264041 -0.031754013 0.21043582 0.003021364 -0.41791275 0.15836406 -0.12334925 -0.34523392 0.019078972
968 0.17873038 -0.024391877 -0.2794698 0.44148424 0.07740219 -0.25125703 0.25316948 -0.17205527 -0.022851069 0.027144358 0.30155608 -0.0062113605 0.119626835 -0.11459775 -0.08103168 0.022773702 0.22223562 0.081957735 -0.002696808 0.4356699 0.09678764 -0.13555513 0.057824433 -0.05223264 0.11267764 -0.14277607 -0.032221705 0.14000504 -0.030095976 0.010244337 -0.14862378 0.25792453 -0.19965616 0.024720933 0.08410976 0.11244823 0.20985462 -0.38514343 0.02440666 -0.3769263 0.18503633 -0.029849067 -0.11454678 0.089596026 0.29876786 -0.021178938 -0.049699377 -0.15776765 0.21278009 0.10750118 0.16470152 -0.12475458 0.20419183 0.1960904 0.024430921 -0.15417983 0.017388057 -0.25920358 0.075875096 -0.1362075 -0.18338542 -0.26574174 0.11213968 -0.023081452 0.3981911 -0.35343945 -0.29093418 0.060817458 -0.08159185 0.05647771 0.13620748 -0.049969617 -0.24499612 0.21673842 -0.034729354 0.27317297 0.08951286 -0.2222553 -0.25885838 -0.11658096 0.16009183 0.13582148 0.26254535 0.24965765 -0.11713394 0.2031449 -0.16364834 -0.16964908 0.075669326 -0.041360058 -0.22758415 -0.2843621 0.010033118 -0.4058523 -0.11334151 0.18536024 0.19093388 -0.05871271 0.026087863 0.027681306 -0.111064166 -0.15857854 0.054647986 -0.10920863 0.16581613 0.07794332 0.010316279 0.076680645 -0.018472036 0.04702919 -0.03260493 0.20522134 0.028959597 0.2048937 -0.22612277 -0.04429384 0.3786113 -0.24101815 -0.33452946 -0.13068756 -0.26291713 0.24076194 -0.1726769 -0.15027122 0.060851797 0.1132106 -0.10796403 0.09802904
965 0.07268044 -0.3749046 0.096377745 0.15530413 -0.13100259 -0.31070313 -0.14414051 0.238436 -0.0014151834 -0.04333343 -0.01886389 0.16978231 -0.003296923 -0.07661938 -0.0501765 -0.06142802 -0.0029132436 -0.0027209288 -0.16274534 0.3087582 0.032787327 -0.36955294 0.027490858 0.08410016 -0.15698896 -0.22800314 0.12747212 0.08708366 -0.11181768 0.31724706 -0.4023653 0.058527272 0.0076522096 -0.14722311 -0.020008208 0.10473789 0.20132394 -0.21590534 0.16913816 0.108795576 0.14866209 0.3025418 -0.123507224 0.12941131 0.08793315 -0.20954984 -0.09331587 -0.13157097 0.019282889 -0.1446561 0.29596004 0.055931143 0.25154477 -0.09503495 -0.014420125 -0.283906 -0.20842496 -0.38043815 0.14406343 -0.027833944 0.030813824 -0.0183051 0.053428385 0.26741633 -0.09967752 -0.034791186 0.042638443 0.34841684 -0.36454463 -0.05733507 -0.0108794775 -0.2390983 -0.12574323 0.19193031 0.054147314 0.13110285 0.14228418 -0.28959596 -0.16511773 -0.2679693 -0.1294855 0.04019709 0.09224473 0.13261491 -0.3299915 0.06540794 0.16874312 -0.006521344 -0.053373065 -0.0032663553 0.017650466 0.1287255 -0.063922964 -0.21663955 0.16751379 0.044911113 0.15464956 -0.14470766 0.24159129 0.21002245 -0.059147205 -0.06933581 0.04910216 -0.0639987 0.029709894 0.02864216 -0.14491336 -0.076556735 0.2480642 -0.098751396 0.14110516 -0.13229913 0.19791584 0.49963444 -0.09322537 -0.28426966 0.391874 0.29367694 0.37067154 -0.25603524 0.021860125 0.045967635 -0.4615672 -0.15989159 -0.0505255 0.11960946 0.025369355 0.008211311
964 -0.074155346 0.27019972 -0.24374236 0.0018777294 0.16927516 -0.20123276 -0.10073744 -0.012311018 0.12065062 0.028533692 0.14970943 0.0938694 0.011968774 0.057865154 -0.26945153 -0.13325119 -0.3671036 0.19920774 -0.028531043 -0.0009553036 0.031264305 0.08035724 0.023849225 0.026723336 0.19070785 -0.11782043 0.11003392 -0.043025218 -0.03951669 -0.2089484 -0.22751136 0.12519234 -0.010318877 -0.080925256 -0.10582085 0.0868714 0.06157587 -0.21241385 -0.11097481 0.30396822 -0.08157235 0.31033108 0.07490167 0.06470855 -0.013133096 -0.10171606 0.10837494 0.06677757 0.058283985 -0.11045922 0.25973305 -0.08911547 0.24554074 0.08401495 -0.29266176 -0.10551857 -0.24013577 -0.18974882 -0.084665835 -0.16489974 0.11480643 -0.04006191 -0.016809586 -0.243908 -0.16000582 0.06457611 0.12331832 0.14623852 -0.2148234 -0.17366026 -0.027358254 -0.14841348 -0.18924822 0.28546622 0.19377841 0.42972893 -0.16790411 -0.13761298 -0.09337766 -0.20431693 0.31045002 0.083658904 -0.141984 0.14659725 0.042772856 -0.07173588 0.40915054 -0.09355209 -0.04754085 0.0047448473 -0.05390007 -0.05031033 -0.044596065 -0.23395841 -0.06363364 -0.20273517 0.07118162 0.0659807 -0.08122764 0.04258778 -0.23595904 0.034364305 0.010841109 -0.10571765 0.014777412 0.47361928 -0.02180585 0.08743236 -0.11472042 -0.09909029 -0.29333553 -0.067247905 0.11639978 0.26850516 -0.5218992 -0.10203593 0.34269267 0.1888923 -0.024807319 -0.23049778 -0.23732775 -0.032002598 -0.059232052 -0.09454924 -0.036190026 -0.08423677 -0.19599067 0.2195171
967 0.103941925 0.08275717 0.044770762 0.27107903 0.122788504 -0.1548482 -0.2914829 -0.1497126 0.035029445 -0.03039543 0.18641807 0.15065405 -0.08966824 0.12746537 0.093652904 -0.12301321 -0.19391197 0.1286808 -0.04756044 -0.020947859 0.10041163 -0.14621556 0.2499887 -0.24374667 -0.37234554 -0.10800644 -0.0017224512 -0.11118639 0.055293087 -0.22241235 -0.16924271 -0.20940095 0.11901516 -0.08437864 0.041338824 0.35613725 0.25537023 -0.07199962 0.059552796 0.16770859 -0.059298243 0.14890967 -0.2150687 0.1310474 0.018663146 0.13737455 -0.23044753 0.22168553 0.1250381 -0.18006364 -0.056165073 -0.26372898 0.19540314 -0.12229204 -0.06259034 -0.11239772 -0.2447924 -0.12788796 -0.12657908 -0.06380724 0.10404029 -0.06447938 -0.1285174 0.015815534 0.49353376 -0.1516035 -0.08583511 0.24958111 0.10512963 0.025789445 0.29261222 -0.10138171 -0.24109691 0.24804194 0.017550945 0.0022725612 0.029363703 -0.16786444 0.010970814 -0.03997623 0.24564373 0.00490264 0.028291997 0.22834896 -0.26189366 0.13481396 0.25007245 0.13577229 0.051853284 -0.027883472 0.17810157 0.113858245 -0.03112951 -0.0016657325 0.07219389 0.056888595 -0.37816072 -0.053437445 0.09018172 -0.21558045 -0.34895864 -0.1710874 0.25296682 -0.1641918 -0.119931966 -0.03219576 0.1074547 0.07915705 0.16291915 0.16657917 -0.023834022 -0.14996105 0.2253554 0.015325085 -0.16464911 0.063240364 0.33030102 0.029784227 -0.419278 -0.06469583 0.0029818988 -0.0879838 0.06822411 -0.29376265 0.058805708 0.06700654 -0.23251821 -0.06376289
971 0.109207794 0.03519752 -0.33403087 0.27362674 0.03678653 -0.15793815 0.17593604 -0.17290086 -0.020224437 0.007171615 0.35325092 0.14324255 0.1741033 -0.06869464 -0.109952845 0.14270765 0.085389145 0.08801359 -0.084061064 0.49038675 0.12079503 -0.085275754 0.17445481 -0.0043996344 0.1663709 -0.121728264 -0.11868857 0.25827026 -0.060318675 0.055855248 -0.27922887 0.25563893 -0.20304504 0.040869728 0.02889685 0.025320193 0.10745378 -0.39175287 0.034647107 -0.37418362 0.27774265 0.04536133 -0.15088822 0.10803921 0.33928633 0.01692727 -0.016277509 -0.075769536 0.14938839 -0.04740427 0.117795065 -0.16022775 0.07020884 0.05421287 -0.01680789 -0.15278435 0.11299289 -0.18313958 0.10381401 -0.09287922 -0.1649785 -0.18515873 -0.0165406 -0.09968941 0.43499085 -0.40789953 -0.2641133 -0.027322343 -0.109994985 -0.09061706 0.24752428 -0.095236994 -0.34986696 0.14675559 0.022290751 0.3156808 0.05324725 -0.088716574 -0.20792197 -0.17785463 0.13910942 0.022507768 0.27469486 0.13056305 -0.18777041 0.19052847 -0.1935283 -0.024528736 0.11690406 -0.15755259 -0.17880365 -0.23931296 0.039229155 -0.4234057 -0.060177803 0.16420667 0.17348696 -0.024731217 0.09252872 -0.07907253 -0.057719875 -0.15671173 -0.07599176 -0.09469082 0.22071968 0.051063698 0.07577515 0.16305149 -0.07668948 0.0844785 0.030529188 0.12274383 -0.038791116 0.24559501 -0.16668984 -0.024953246 0.36543345 -0.21903192 -0.34051177 -0.25508606 -0.36880726 0.2366994 -0.16249384 -0.21259555 0.102242574 0.022728343 0.006826224 0.1476751
961 0.03033319 0.0059840316 -0.28774628 0.4304379 0.01929105 -0.16984624 0.23517962 -0.07197907 -0.099236794 -0.05524638 0.3363054 -0.04259375 0.13293281 -0.12787895 -0.07505214 0.13629794 0.122036114 0.03222081 0.049702886 0.58215576 0.08058474 -0.056353748 0.07734869 -0.016158782 0.26859617 -0.15646364 -0.11597208 0.2875753 -0.07500425 0.019125078 -0.2814116 0.18893832 -0.23461173 0.084868975 0.050767764 0.107489765 0.035704292 -0.39131394 -0.050192453 -0.29684693 0.18912524 -0.022305148 -0.09395451 0.051647417 0.30194616 -0.029538045 0.040151868 -0.046081744 0.06322548 0.020451767 0.31894433 -0.16650073 0.13522926 0.06902332 0.023730038 -0.14803196 -0.0003195767 -0.17150219 0.1708394 -0.16466656 -0.15022825 -0.25307605 -0.019815303 -0.10711306 0.45084965 -0.3801631 -0.30600896 -0.0047735265 -0.14444573 0.039190486 0.09465616 -0.09022403 -0.440459 0.13373876 0.026929343 0.43630654 0.09860114 -0.14715204 -0.3078138 -0.25654402 0.15680234 0.09878632 0.29368365 0.22150408 -0.24591176 0.2304837 -0.19076802 -0.15401752 0.09563843 -0.07562964 -0.21218374 -0.23505753 -0.0009925115 -0.4949618 -0.025883708 0.10487493 0.19958602 -0.06020304 0.03223856 -0.0013013539 -0.07044261 -0.16587201 0.06561979 -0.15948357 0.10711488 0.13477997 -0.016988834 0.1052766 -0.13002805 0.11342587 0.0366677 0.1279394 -0.06669942 0.2296582 -0.17798865 -0.10472994 0.3575165 -0.14884141 -0.22767827 -0.30101162 -0.30496597 0.2394847 -0.14284451 -0.17832777 0.10519559 -0.05476568 -0.08258231 0.23741442
957 -0.12148298 -0.089313224 0.3116759 -0.14663024 0.29728106 -0.12394758 -0.28146797 0.0162165 -0.032111555 -0.14021927 0.08925379 0.36711296 0.3179563 0.025660546 -0.22129703 -0.09060857 -0.03504288 0.02395182 -0.22201228 0.0816533 0.046255898 0.014936803 0.16063699 -0.24443954 -0.089710526 -0.1022654 0.25862163 0.0732149 0.20421706 0.19744238 0.0111029735 0.031210186 0.041194536 -0.06902673 0.039930426 0.0908665 0.16141556 -0.09392332 0.19301283 0.06180404 -0.059540242 0.07723075 0.053564534 -0.1163473 -0.056597564 0.0311413 -0.082924515 0.055248417 0.1766558 -0.32330182 0.028738324 -0.12379826 0.32377902 -0.10068476 -0.36115018 -0.061628036 -0.15357904 -0.258223 -0.010666695 -0.22262625 0.07874 -0.20867692 0.06846791 -0.10789001 -0.055987783 -0.10841153 -0.0022749782 -0.22598842 -0.10753632 0.090595104 0.29797655 -0.36593527 0.025146399 0.40077394 -0.10261174 0.21582101 -0.18313298 -0.2712014 0.1831653 -0.20058851 0.029371537 -0.15392894 -0.19140188 0.38725764 -0.1526154 0.011039137 0.31262788 0.13098486 -0.17880563 -0.10944394 0.16138211 0.08003295 0.08152971 -0.32613164 0.006471047 0.013637002 -0.06995924 -0.3785667 0.2801963 0.02446427 -0.12144005 0.0026438376 0.097986445 -0.0010393162 0.5033749 0.13765484 0.11567596 0.00029610354 0.020405537 0.268934 -0.15105261 -0.014945953 -0.08733816 0.3694806 -0.36046228 -0.102741145 0.2701355 -0.019385038 -0.12795816 -0.048284948 -0.03721222 0.26390818 -0.07330975 -0.38341376 0.111972354 -0.06958214 -0.37334758 -0.053320173
954 0.13470846 -0.3053963 0.082878515 0.12222699 -0.18827589 -0.33132234 -0.112771146 0.12350307 -0.0036798138 0.021804422 -0.017598467 0.22233014 0.013738447 -0.062247187 0.029398544 -0.11106359 -0.023755219 -0.08435213 -0.097927995 0.29689282 -0.03315842 -0.32386795 0.017437974 0.0068578124 -0.14777897 -0.12952513 0.020975059 -0.056356683 -0.04222337 0.29515672 -0.31862295 0.13518052 0.031561665 -0.14943007 -0.13213716 0.073845975 0.19634739 -0.27997464 0.11362663 0.10438332 0.20789209 0.23403239 -0.25509223 0.23143211 0.062433563 -0.23246515 -0.044773605 -0.1682542 0.07779341 -0.08737912 0.36187553 0.10202902 0.27077276 -0.015223685 0.056492113 -0.2801326 -0.18404283 -0.29662603 0.11326543 -0.07941118 0.06083484 -0.019760966 0.023506023 0.25808483 -0.13297635 -0.018410712 0.0709433 0.50799614 -0.3254532 0.025666477 -0.17172222 -0.20960176 -0.15740173 0.20267642 0.09192475 0.13435718 0.1313688 -0.31474838 -0.18829371 -0.24874678 -0.11585388 0.19204764 0.04932452 0.13271213 -0.3011802 0.02142113 0.17483051 -0.12516914 -0.116584286 0.114890374 -0.061662085 0.10308346 -0.1293016 -0.1407891 0.19480672 0.12207152 0.18430407 -0.08137795 0.2946224 0.1881941 -0.14805922 -0.114694834 -0.08264277 -0.060380366 -0.035618845 0.0063390774 -0.103163354 -0.028681472 0.25825992 -0.05216741 0.17560233 -0.1531124 0.22483015 0.50219804 -0.08770291 -0.19774358 0.36524138 0.2994227 0.3818291 -0.1640751 0.09318327 -0.05088778 -0.3791862 -0.0983713 -0.048331045 0.1288656 0.0075020483 0.0792802
963 -0.012831019 0.15326248 -0.100805365 -0.26889795 0.108265616 -0.052890606 0.116318576 -0.09287501 0.06139323 0.32560223 0.19819021 0.10147205 -0.14221892 0.048999563 0.14008789 -0.15996721 -0.15763031 0.19353302 -0.10003318 0.04636757 0.04112562 0.054263804 0.03320634 -0.0008382025 0.06370435 0.13459109 0.024089796 -0.030264378 0.023043502 -0.09752703 -0.034589916 -0.029277015 -0.1626403 0.07549555 0.08714534 0.024895862 0.050397802 -0.21928683 0.05988184 -0.0039911577 0.15181124 -0.306197 -0.054570094 -0.13286278 0.072552994 0.099294856 0.30300066 -0.012944245 0.032054655 -0.08576737 0.25340113 -0.18349533 -0.020906808 -0.31925434 -0.12878993 -0.21530329 -0.370671 -0.10793456 0.15429015 -0.07972 0.1915927 -0.087288365 -0.40357432 0.14406413 0.044374384 -0.24599086 -0.11525657 0.1773701 -0.29137364 0.17936102 0.19140613 -0.3518528 -0.23902063 0.5238185 0.09267149 0.23724496 -0.26540706 -0.30860496 -0.4475672 0.008571144 0.022059526 0.064203516 0.15872955 0.050278123 -0.3046066 -0.2001511 0.01947787 0.2852923 -0.1812607 -0.0031871377 -0.16099241 0.071953654 -0.076499164 -0.17485395 0.050241098 0.044582423 -0.0153780375 -0.1411351 0.24861117 0.022357555 -0.23887232 -0.03762906 -0.09349468 -0.051753607 0.15806694 -0.008652675 0.1163976 0.13925676 -0.035511542 -0.10287562 0.12773538 -0.21566617 0.029707965 0.21630192 -0.51849335 -0.18754193 0.15246448 0.023230607 0.015285827 -0.014370061 -0.05549208 -0.16335256 0.07534623 -0.03663273 -0.17106424 -0.2103661 -0.15397172 -0.13986968
959 0.11815976 0.05865273 0.12421923 0.2756137 0.1137495 -0.2508882 -0.2794476 0.013021919 0.032133255 -0.23453467 0.09078261 0.12707925 -0.013508295 -0.011516198 -0.110255346 -0.054778226 -0.08030219 0.07844588 -0.2694358 0.07555348 -0.02625482 -0.23451576 0.23143406 -0.11077354 -0.31025842 -0.20532858 0.10745435 0.105937704 -0.002157326 -0.09145238 -0.1988718 -0.22042765 0.00083153823 -0.108362444 0.16157457 0.27490824 0.26019025 0.03305338 0.18085179 0.1635086 0.053203102 0.14033207 -0.20004003 0.19419336 0.015682915 0.12173408 -0.31956998 0.17349239 0.14962576 -0.13824594 0.050402522 -0.37659252 0.2980257 -0.08984561 0.05509855 -0.11265344 -0.22200249 -0.20393685 -0.03738003 -0.14548814 0.16149998 -0.07114048 -0.10695387 -0.11011591 0.39169055 -0.13740484 -0.109989166 0.25461578 0.06407214 -0.00016220559 0.39482188 -0.23586564 -0.2427668 0.2261596 -0.020415502 0.06757601 0.11735419 -0.13979255 -0.025340762 -0.15652388 0.130868 0.0121890055 0.0009671609 0.22629035 -0.15564397 0.20618005 0.34522054 0.21319057 -0.012035406 -0.09272228 0.1325075 0.06753176 0.06200056 -0.15385734 -0.015587268 -0.036309566 -0.3492846 -0.06197954 0.1389059 -0.08809655 -0.33978552 -0.057774153 0.2776021 -0.20197035 -0.103780665 -0.07154482 0.05358532 -0.065760225 0.3122921 0.0817003 -0.09591254 -0.12411213 0.13074763 0.03278284 -0.1817079 0.0030247844 0.3797744 0.00041517164 -0.2800833 -0.045996927 0.06233174 0.21762772 -0.031768605 -0.20656583 -0.035188787 0.12927926 -0.30322954 -0.12191754
960 0.0890617 0.14750715 0.007245789 0.26514673 0.1102717 -0.23901224 -0.33852157 -0.18205269 0.108489655 0.087143056 0.24093969 0.091940604 -0.097956404 0.10730779 0.04583544 -0.046482354 -0.21956737 0.09685893 -0.12398798 0.07905124 0.07871438 -0.056681495 0.24352655 -0.118298545 -0.36525387 -0.119782865 -0.08011562 -0.10799357 -0.075668536 -0.22631733 -0.36446786 -0.17297475 0.08947309 -0.13733293 0.11742672 0.39554337 0.2314754 0.03394935 0.075652674 0.1302964 -0.004852458 0.09346502 -0.18025097 0.09556629 0.04490165 0.15669957 -0.24458623 0.21043073 0.09994776 -0.16442128 -0.08322228 -0.35504356 0.21379584 -0.09092431 0.10141818 -0.16180971 -0.27205756 -0.18383595 0.0025962328 -0.0845759 0.21443956 -0.10709501 -0.18529223 0.015036878 0.40519184 -0.08067597 -0.16748025 0.24906796 -0.024890644 -0.024809768 0.36697963 -0.26746815 -0.3276851 0.21819445 -0.08928052 0.08664347 -0.024159364 -0.13572514 0.049018394 -0.128701 0.20717618 0.07774097 0.09319902 0.12573656 -0.19550887 0.20597632 0.14812697 0.15185086 -0.0028383506 -0.03951902 0.035793796 0.10386532 -0.06547544 0.16460249 0.10815806 -0.13856523 -0.20963602 -0.036069885 0.18197241 -0.24930318 -0.22585176 -0.25295237 0.19436136 -0.17588821 -0.091243014 0.025341164 0.09577488 0.119446635 0.1354807 0.05338827 -0.13308999 -0.08140277 0.10866508 -0.043725166 -0.24293555 0.03256533 0.21110894 0.037732743 -0.27664715 -0.08325306 -0.044694565 0.011018043 0.08950659 -0.14833538 -0.096579015 -0.048418596 -0.19042012 -0.07599478
958 0.040605776 0.15742885 0.02228868 -0.009325552 0.085756354 -0.15817542 -0.07012742 -0.34671646 0.06095185 0.01706043 0.36907518 0.2459469 0.15995117 0.2317728 -0.19857092 0.110120684 -0.22845154 0.19641773 -0.30462813 -0.08701538 0.010578361 0.0037414194 0.058446877 -0.14295939 -0.01100789 -0.02835088 0.11157471 -0.016475737 -0.16434783 -0.18330906 -0.1817376 0.072994284 -0.1655432 -0.386966 -0.17291193 -0.12356479 0.37773547 -0.1652835 -0.06126471 0.015931448 -0.094834074 -0.020088091 -0.3549716 -0.013617729 0.25579536 0.19342244 0.16685316 -0.15869027 0.4533701 0.009920264 0.2902797 0.031963907 -0.0524371 0.26820004 0.03511086 -0.24386033 -0.08552995 -0.15847419 0.2184084 -0.28337494 0.09936311 -0.15494837 0.15906036 0.114761084 0.24428235 -0.30451098 -0.1265378 0.21015379 -0.1549902 0.104540825 -0.15976298 -0.2275147 -0.13583747 0.22012648 0.016786458 0.24412954 0.06137171 -0.24546054 -0.016735163 -0.13747978 0.21681106 -0.23959142 0.021768995 0.014830481 0.09410875 -0.23788346 -0.2960759 0.08159574 0.07454958 -0.16339336 -0.12183822 0.042756595 0.10178838 0.15545027 -0.017063498 -0.09860671 -0.19756141 0.061077826 0.18772227 0.15915896 -0.14194502 -0.079652905 -0.18317455 -0.01794387 0.30547038 0.0440873 0.16745722 0.06859265 0.20191495 0.059555165 -0.065132745 -0.19711325 0.120755844 0.1838647 -0.41763553 -0.002231435 0.013658671 -0.22352882 -0.030511703 0.048813395 -0.16625108 0.22820787 0.04671343 -0.008884584 -0.08477763 -0.10716015 -0.24995738 0.29147074
955 0.119299695 0.13405012 0.14506029 0.29947805 0.0391019 -0.20656131 -0.2813693 -0.055336665 -0.032565765 -0.07586823 0.15220933 0.046961367 -0.08612004 0.12415022 0.017812893 -0.16969526 -0.20462687 0.1470547 -0.14889966 0.026405856 0.025434611 -0.12743464 0.17971292 -0.13211156 -0.31057 -0.2732312 0.01182069 -0.022125889 -0.009865942 -0.12078056 -0.2584209 -0.27412456 0.12856816 -0.0001582096 0.1382363 0.23624694 0.09979586 0.025485434 0.095408015 0.16426843 -0.030077232 0.14501463 -0.19194667 0.10693637 -0.10650467 0.09740711 -0.28368205 0.300778 0.11257949 -0.13169375 -0.044121068 -0.3289446 0.18682098 -0.15535499 0.025926605 -0.18085018 -0.3574126 -0.34569728 -0.027619978 -0.07170072 0.20459172 -0.094232485 -0.16359165 -0.09785801 0.37411314 -0.120944485 -0.11338169 0.15114072 0.0003691007 -0.04074435 0.38576606 -0.15499918 -0.18516938 0.20047429 -0.010427297 0.06444742 0.0079909805 -0.2166119 -0.027224306 -0.11812824 0.24205379 0.050127465 0.020554695 0.080562025 -0.31307447 0.12564522 0.32754433 0.1388318 0.037894588 -0.011828881 0.03794757 0.09806016 0.045157 -0.1507465 0.17677203 0.14324301 -0.16290195 -0.08174052 0.100871496 -0.11820668 -0.40496752 -0.17330506 0.24475285 -0.24701765 -0.0974258 -0.0596181 0.1275671 0.023167342 0.17808051 0.1229923 0.022804478 -0.03026729 0.2075132 0.044296134 -0.11482935 0.056949027 0.43952265 -0.029248834 -0.3602651 -0.1319619 0.049984127 0.02882281 0.010383837 -0.27133933 0.049586672 0.046591323 -0.19375284 -0.036088478
949 -0.08215225 -0.0077734026 -0.019450169 -0.076012954 0.40164948 -0.101841286 0.13461421 -0.15304315 0.23142134 0.07206774 0.17788604 0.13869771 0.017508527 0.12733874 -0.05854435 -0.07476097 0.111499056 0.26431474 0.032699637 -0.0654688 0.2930645 -0.18782777 0.04319809 -0.24421522 -0.40157938 -0.140208 0.15785253 -0.13016236 -0.0047432976 0.014977159 -0.05973138 0.35347763 -0.0886983 0.1798538 -0.01972468 0.31406087 0.31578338 -0.3280824 0.31748113 -0.15580061 0.20514995 0.22223268 -0.34255013 0.24867775 0.007765169 0.13658346 0.17213939 -0.18910165 0.42612085 0.012799533 0.27899474 0.106654935 0.12055644 -0.08051383 -0.010852707 -0.16376041 0.092669465 -0.002319698 -0.09336086 -0.17478062 -0.29784092 -0.09770817 0.05408745 0.008248476 0.0017033694 -0.16808885 -0.01886619 0.48373395 0.072756864 0.20630734 0.015184542 0.1785628 0.14291179 0.12966795 0.16861254 0.13634677 0.05371754 -0.23898414 -0.25710884 -0.05229869 0.074521974 -0.033029202 0.10904068 0.21816812 0.0018933505 -0.17139566 0.06978222 -0.1660916 0.015603074 0.06417025 -0.11802094 0.040589295 0.07453802 -0.36852023 -0.13651079 0.19870019 0.059885252 -0.0023488174 0.117195435 0.18856269 -0.27864426 0.07321109 -0.2182587 0.09841212 0.026124647 -0.05382975 -0.15100318 0.087861165 0.20611468 -0.00651128 0.059950817 -0.16889656 0.11822659 0.26995814 -0.487264 -0.08738003 0.19216445 -0.18370807 -0.06340667 -0.049365476 -0.013128853 -0.19051807 -0.05493315 -0.11471668 -0.017326435 0.03019466 -0.21095681 0.11194798
953 0.06884644 0.14203583 0.0931003 -0.040379338 0.09702503 -0.18897703 -0.1441388 -0.2895758 -0.056651182 -0.1960185 0.27469474 0.14202282 0.1402639 0.2194035 -0.42035106 0.08165887 -0.2047234 0.12597656 -0.23885088 -0.05883447 -0.034033388 -0.046824314 0.034407943 -0.016251545 -0.035841834 -0.12314112 0.11119183 0.006442728 -0.21881728 -0.2145972 -0.28081656 0.09843584 -0.103387676 -0.3892807 -0.26181757 -0.16549124 0.4266225 -0.23710203 -0.016654452 0.12007157 -0.14681949 0.022769205 -0.35468766 0.22485642 0.17116658 0.089560606 0.043224066 -0.14130257 0.3066205 0.13646252 0.36456585 0.003722661 -0.04272729 0.21570016 0.025816532 -0.1239907 -0.062042408 -0.24175951 0.30009288 -0.28291133 0.14250056 -0.18242827 0.15787268 0.048616868 0.2685293 -0.14242634 -0.12251293 0.20841469 -0.15327923 -0.004879688 -0.060466956 -0.24204862 -0.16450143 0.10987057 0.0034790486 0.29223436 0.14093027 -0.084296755 -0.0050654393 -0.26085928 0.19045784 -0.2849581 -0.108918555 0.10205386 0.15778258 -0.20380624 -0.18521358 0.071625315 0.10498381 -0.062359106 -0.06662156 0.08868188 0.035708122 0.13998069 -0.021372132 -0.11609016 -0.0611947 0.037127495 0.17874506 0.19074233 -0.25600755 -0.11950063 -0.056094673 -0.039396323 0.13476779 0.13995598 0.058418587 0.047059752 0.29245228 0.026261797 -0.12600401 -0.2119589 0.13003102 0.24386178 -0.42982975 0.11612906 0.039406512 -0.27335763 0.021013144 0.0061912886 -0.061280504 0.21074942 -0.06505548 -0.008358812 -0.084907904 -0.047598064 -0.27687803 0.27451825
952 -0.068321176 0.019893983 -0.007240712 -0.13275431 0.20694922 -0.15468287 -0.06586464 -0.05781592 0.13343449 0.15961885 0.19622271 0.26781675 -0.061036758 0.106969655 0.14283651 -0.0067163687 0.08585274 0.2922322 0.023986228 -0.14790303 0.2304822 -0.21073744 0.08216258 -0.2502569 -0.36032468 -0.07476524 0.030310987 -0.21286945 0.0069461213 -0.08008729 -0.015203329 0.35146078 -0.0043953187 0.06185614 -0.12013484 0.28597623 0.3192505 -0.28137428 0.29205015 -0.13631286 0.1464027 0.2780355 -0.38565987 0.17483126 -0.008410774 0.1783334 0.084505714 -0.045520913 0.4202095 0.011294166 0.14837745 -0.019746196 0.24920627 -0.069746725 0.1353321 -0.15216288 0.028968 0.053488508 -0.2157595 -0.20981345 -0.26387557 -0.09772316 0.069189094 0.011519614 0.051290274 -0.11753783 0.004815543 0.5202452 0.09698366 0.27202883 -0.08273281 0.17084979 0.024710914 0.22561732 0.082585126 0.010094088 0.049060702 -0.123304404 -0.15087579 -0.05304396 0.11088855 0.13477364 0.03671206 0.2437124 -0.15547425 -0.022867715 0.11903402 -0.15416858 -0.16413172 0.15250051 -0.05263159 -0.031849194 -0.014801169 -0.22042412 0.050103273 0.15659009 0.1519837 0.034725215 0.09921542 0.10298201 -0.103509456 -0.04728923 -0.24400936 0.14444572 0.0059948815 0.012216184 -0.0369726 0.10796564 0.18100868 -0.13132058 -0.022114249 -0.26436624 0.21540533 0.14545998 -0.40785646 -0.079028286 0.2319985 -0.2632687 -0.14686368 -0.011425584 0.031090159 -0.122731954 0.14211796 -0.18849507 0.06888044 0.15198514 -0.14050566 0.11923031
956 0.013451558 0.109672725 -0.06815258 -0.19706655 0.008315431 -0.12351392 0.16614969 -0.2639761 0.1500646 0.36884996 0.15767357 0.107988365 -0.19161697 0.07550152 0.26140523 -0.1444949 -0.09778169 0.26016802 -0.014119249 -0.007660652 0.065942004 0.001914011 0.048760246 -0.11248869 -0.027659375 0.09431829 0.14767854 -0.07682151 0.11100305 -0.13670984 -0.02313012 0.044060178 -0.14389348 0.039486554 0.0069631077 0.098838404 0.18531284 -0.22438532 0.054946873 -0.10048502 0.18573657 -0.23387966 -0.10269445 -0.10145456 0.116141565 0.13165343 0.2416546 -0.07080399 0.13008857 -0.07005807 0.18174413 -0.14778562 -0.046636175 -0.31773183 -0.10519438 -0.22816402 -0.38615808 -0.16297162 0.14554311 -0.17052624 0.20975807 -0.0874656 -0.39318454 0.19534582 0.00031968518 -0.32232496 -0.09957991 0.2627274 -0.20094079 0.2937255 0.09965968 -0.30825225 -0.14889659 0.56549424 0.10738923 0.17638826 -0.16267917 -0.38829473 -0.39817348 0.017377587 0.057033177 0.14144205 0.20883909 0.049523104 -0.38544658 -0.26362345 -0.086729646 0.20360893 -0.07244681 -0.0045775287 -0.33995047 0.094542384 -0.05674903 -0.038381018 0.017718732 0.0032047336 -0.045061134 -0.14130454 0.23604043 0.110344626 -0.19944048 -0.020044489 -0.16327527 -0.020084009 0.27835333 -0.118150264 0.115041174 0.24809407 -0.029435363 -0.07253047 0.22168662 -0.22926371 0.05779135 0.18800299 -0.41709617 -0.16692534 0.05129252 0.014069735 0.05538038 0.1103397 -0.01464346 -0.108622916 0.11559829 0.02164693 -0.15666342 -0.20451388 -0.13591737 -0.08628128
951 0.048583712 0.121126175 0.0025137328 0.22488768 0.10375891 -0.20582752 -0.34222698 -0.088560045 -0.030946784 -0.05570774 0.076679945 0.07130284 -0.070995465 -0.0010845193 0.07531248 -0.053137947 -0.1909888 0.03929449 -0.034594845 -0.061649453 0.05456398 -0.108531274 0.26246232 -0.07437775 -0.35390648 -0.14994663 -0.12701075 -0.08071579 0.04578973 -0.17733495 -0.15928765 -0.22309622 0.109664895 -0.093415804 0.1253373 0.373394 0.1563097 0.0012481151 0.08323555 0.14116012 0.012151614 0.15324147 -0.11155389 0.06921191 0.019062936 0.15629682 -0.27708986 0.23793559 0.042122163 -0.12276462 -0.06728028 -0.36756155 0.19065604 -0.081146784 0.10553115 -0.057070162 -0.35576135 -0.17739388 -0.047387667 -0.12922974 0.21936667 -0.05139648 -0.19543736 -0.009173085 0.4857208 -0.07808394 -0.17317735 0.24710897 -0.005645845 0.0043966365 0.31947646 -0.19850086 -0.28996167 0.32024777 -0.017383711 0.12787591 0.11036461 -0.12784387 -0.012985353 -0.19079727 0.26403773 0.16859685 0.09021871 0.097458065 -0.24174649 0.23434195 0.29628983 0.1467266 -0.07856943 -0.046047613 -1.5225036e-05 0.07338094 0.075474784 -0.039579432 0.12864837 -0.009722071 -0.22751445 0.028430806 0.16634187 -0.20725027 -0.34225133 -0.2609541 0.2654361 -0.12960513 -0.10441682 0.032373812 0.11794764 0.09090864 0.1765011 0.07859266 -0.13089322 -0.06706174 0.09869272 -0.03520221 -0.242121 0.023049768 0.306125 -0.024324179 -0.26491338 0.037154827 -0.06066111 -0.030450203 0.07046372 -0.23470442 -0.01521278 0.039914474 -0.21379325 0.02891682
948 -0.05455559 -0.023919374 0.0735705 -0.027967649 0.2208318 -0.05045708 0.07098474 -0.09816331 0.119053714 0.118069455 0.18787777 0.20369536 0.05039928 0.022365345 -0.009495112 -0.08837227 0.21460386 0.2329402 -0.023943705 -0.052286636 0.30806845 -0.2195457 0.07365153 -0.22396308 -0.41654631 -0.12437607 0.063912705 -0.14213037 0.013598887 -0.022855207 -0.060104135 0.43624827 -0.01613401 0.08050251 -0.08015741 0.2965247 0.3047215 -0.36165324 0.31307113 -0.1518689 0.14006054 0.34326148 -0.33876893 0.23825593 0.043528378 0.103263356 0.08391391 -0.18780299 0.43757066 0.03560836 0.19827017 0.04242207 0.25895646 0.05501006 0.09718197 -0.09118747 0.06704514 -0.04963506 -0.21261926 -0.25564367 -0.31458658 -0.1148156 0.19851615 0.034020655 0.00022985811 -0.13256942 0.052812137 0.41334143 0.091791116 0.2191995 -0.12535816 0.13365117 0.110626034 0.17536864 0.018451344 0.056715913 0.115552805 -0.27211714 -0.11200491 -0.14500964 0.13838036 0.10796534 0.12779443 0.27638796 -0.13511068 -0.010173686 0.13667314 -0.27877885 -0.020656124 0.107690714 -0.06517752 -0.078108914 -0.056389548 -0.23792678 -0.05779611 0.1494589 0.07094156 -0.03274342 0.09864754 0.157967 -0.15751605 -0.0016349388 -0.20572619 0.09842104 0.07904072 0.082507215 -0.088746354 0.10189529 0.19430232 -0.10203782 -0.062637806 -0.14085819 0.1262971 0.14845312 -0.37592173 -0.041727953 0.23826803 -0.19161244 -0.17330176 -0.07440855 0.037499204 -0.033483613 0.028879166 -0.17593725 0.04969478 0.121038586 -0.24016668 0.14927547
938 0.0012119777 0.06657329 -0.11086935 0.06744728 0.2244664 -0.26882252 -0.15938167 -0.121500745 -0.086128525 -0.12679182 -0.013004613 0.13002728 -0.0024134682 0.08961619 0.26635396 -0.16366193 -0.11252152 0.37913725 0.25679117 0.0024403667 0.25531507 -0.16761763 0.013610835 -0.32643527 0.19057204 0.083124235 -0.033102393 0.07519133 -0.016357996 -0.06855976 -0.0039465767 -0.25299776 -0.1584286 -0.13693376 -0.2570574 0.15426202 0.15559633 -0.34669942 -0.3328376 0.3663697 -0.19516505 0.17943339 0.1112104 0.020454304 0.079274654 0.0138175525 -0.13565046 0.04441908 -0.101493545 0.0590444 0.29774794 -0.013575485 0.5428995 -0.074791655 -0.13565809 -0.030431513 -0.10561345 -0.3101688 -0.015972055 -0.24802235 -0.07339682 -0.041002948 0.039373267 -0.32462654 0.2255731 -0.14187819 -0.014327237 0.088616535 -0.2264124 0.3686266 -0.17183094 0.11283307 -0.26041657 0.29276234 0.17077704 0.1453173 -0.032975353 -0.14265296 -0.3617021 0.029989872 0.310143 -0.2107051 0.04036284 -0.04739108 -0.14547491 -0.23475151 0.48305398 0.21410854 -0.0039992374 -0.08413971 -0.02625424 -0.14075822 0.0096104 -0.51122427 -0.050297905 0.10187768 -0.18222396 -0.08698194 0.12591206 0.29417226 -0.31550714 -0.29382923 0.12555656 -0.038088866 0.14326046 0.022157807 -0.15973538 -0.14042152 0.09860967 0.1965458 -0.06596306 0.026891898 0.20480473 0.0032944256 -0.2586921 -0.04974857 0.019724524 -0.028032752 -0.005564188 -0.015385965 -0.09177833 -0.12369535 -0.13430254 -0.40920442 0.09684826 -0.05690847 -0.45318905 0.23931074
947 -0.029130755 -0.11683593 0.008367272 -0.026705708 0.29003367 -0.11749619 -0.020169517 -0.018624093 0.1990897 0.09075853 0.2196683 0.31162098 -0.01299114 0.05180163 0.07404311 -0.074319966 0.112128004 0.17729218 -0.039906416 -0.095901355 0.23012105 -0.11664212 0.055985134 -0.25760263 -0.28996947 -0.12792605 0.17483698 -0.1242786 0.0892631 -0.00030560608 0.030785142 0.31417018 0.020485533 0.011590484 -0.19386505 0.26334566 0.33683264 -0.2985319 0.28029463 -0.09494097 0.14415663 0.367198 -0.31013718 0.20223223 0.029543048 0.09139177 0.23448658 -0.17535216 0.4556834 -0.07426761 0.250047 0.08672728 0.19873923 -0.034282517 -0.0507654 -0.18086898 0.09696121 0.054540947 -0.2389323 -0.2670347 -0.30397138 -0.034907542 0.058784656 0.053924773 -0.04202706 -0.1800756 0.15776561 0.41834894 0.010911158 0.17704697 -0.114156775 0.21509139 0.2221475 0.26513085 0.076168 -0.0034845816 0.011552578 -0.27562246 -0.1877332 -0.04234757 0.08515935 -0.012569985 0.13419478 0.23207039 -0.07860179 -0.09834953 0.13243583 -0.14969528 -0.09204237 0.10397997 -0.12289594 -0.052164987 -0.030522885 -0.2354756 -0.10568215 0.12685382 0.05425276 -0.015248193 0.12461182 0.18617603 -0.16316253 0.01847879 -0.26092717 0.094024114 0.15916029 0.011214023 -0.14011836 0.08828627 0.20208699 -0.10155763 0.028158348 -0.2799303 0.14626232 0.3084639 -0.4413143 -0.16452625 0.24506244 -0.11642567 0.057333097 -0.027975205 0.026049815 -0.15449269 0.019177442 -0.15697153 -0.14245409 -0.022603203 -0.22587246 0.13346183
945 -0.020095596 -0.14981917 0.32375783 -0.06852223 0.36997035 -0.09686035 -0.23695375 0.06086032 0.050194312 -0.020259354 0.16526853 0.46835646 0.2782842 0.013770757 -0.19385095 -0.11140376 -0.057372358 -0.012250513 -0.26856855 0.076282375 -0.073492184 0.1877864 0.16105099 -0.301816 -0.021171983 -0.116657935 0.2554956 -0.021996204 0.22450557 0.15112014 0.030988483 0.09040729 -0.005062892 -0.024936965 0.029549975 0.05342584 0.18737863 -0.10193247 0.14866138 0.031884067 -0.035378736 0.010432137 0.067704074 -0.113290876 -0.08027405 0.13293292 0.004316975 0.005157712 0.15378784 -0.35478804 0.021765912 -0.08224736 0.23357056 -0.033980392 -0.40389302 0.019535773 -0.16430466 -0.13281624 -0.01236334 -0.2605843 0.101807766 -0.19131349 -0.0019408752 -0.13645077 0.050150022 -0.103208534 0.015319197 -0.16581045 -0.06534318 0.04220154 0.2818741 -0.3196134 -0.04864167 0.3789954 -0.028665524 0.25529417 -0.21033031 -0.22246902 0.20269391 -0.13963188 0.01890411 -0.18211232 -0.14549428 0.4270512 -0.17352113 -0.014277902 0.2563997 0.086495996 -0.20095813 -0.14343661 0.14987794 0.110652246 0.026437044 -0.22936921 -0.016692804 0.008323409 -0.05139861 -0.38913873 0.22464067 -0.06666652 -0.17889482 -0.059863582 0.12147866 -0.08577712 0.44536984 0.14907867 0.21137333 0.027559573 0.03439136 0.2545473 -0.14880018 -0.025148135 -0.07172203 0.4148761 -0.37290198 -0.19925791 0.29695153 -0.05994288 -0.17417006 -0.08179527 0.031199751 0.26389956 -0.052221403 -0.3376797 0.17879039 -0.089026004 -0.37238845 0.001174113
950 0.08592101 0.084695235 0.12550953 0.285236 0.09133075 -0.15663715 -0.27389503 -0.1920396 -0.056580868 -0.12430493 0.12237877 0.0073913406 -0.054947168 0.08531864 0.005559756 -0.04056882 -0.16780552 0.14907923 -0.12654634 -0.02190424 0.027598822 -0.1423039 0.22031114 -0.17794812 -0.34222355 -0.20489877 -0.018606775 -0.1110097 -0.017185196 -0.137075 -0.31235924 -0.22490977 0.122662395 -0.026609318 0.03880554 0.29351714 0.19100064 -0.0075658252 0.09139926 0.19564247 -0.06786865 0.15887281 -0.20834139 0.1468613 0.00902458 0.15231597 -0.31781578 0.1558954 0.22435698 -0.19583419 -0.04761671 -0.31510493 0.25779063 -0.116967164 0.08829647 -0.12126608 -0.3505228 -0.22605899 -0.005339591 -0.10499814 0.11705372 -0.09927234 -0.07033593 -0.039524347 0.40390828 -0.15282623 -0.10688893 0.07266634 0.023620985 -0.020128949 0.43567687 -0.16015227 -0.21364757 0.25339505 -0.097100034 0.07928145 -0.0033565806 -0.092754945 0.06825493 -0.16918111 0.25572738 -0.0023397512 0.09122726 0.22477752 -0.25835562 0.08829542 0.29644814 0.19335979 0.08731257 -0.015110609 0.057346508 0.025895122 0.02807612 -0.10362971 0.072527505 -0.0066694333 -0.24727206 -0.060523897 0.116553485 -0.12807728 -0.29654455 -0.26443452 0.27205813 -0.16410905 -0.07123118 -0.06652062 0.09480728 0.016778184 0.16765039 0.10371668 -0.08464106 -0.05298866 0.2285359 -0.102185555 -0.15515561 0.09770998 0.37281385 -0.06516243 -0.3402242 -0.05011997 -0.0070386636 0.13103838 0.07437206 -0.32281727 -0.04690002 0.057051744 -0.19058727 -0.019105803
944 0.06382672 0.077763006 -0.24610767 0.3438283 0.10456712 -0.14742072 0.13807712 -0.06825535 0.033414103 -0.03290612 0.24941657 0.17517781 0.10044498 -0.1054158 -0.0075953924 0.049126215 0.00034464622 0.15296012 -0.16204536 0.51477146 -0.049649023 -0.02813885 0.08641375 -0.03153179 0.35653496 -0.17736405 -0.025934845 0.26386145 0.056436457 0.053355012 -0.26501158 0.10486312 -0.16496703 0.017765755 0.1028068 0.069352336 0.06420525 -0.24709117 0.067428686 -0.35326916 0.15265891 -0.03137174 -0.026500408 1.8069972e-05 0.30126888 0.010027035 0.03965868 -0.012718377 0.16784228 -0.019482309 0.16152802 -0.15690698 0.12779589 0.1821134 0.0025550073 -0.088703744 0.071572095 -0.19344977 0.0078112422 -0.14386825 -0.2219898 -0.2331894 -0.062192824 -0.11461054 0.411614 -0.34924752 -0.2943086 -0.029389283 -0.11999311 0.0359798 0.15641633 -0.03747967 -0.2519796 0.15033898 -0.049050014 0.30991158 0.05721295 -0.15829182 -0.20740026 -0.20067568 0.14542295 -0.020651614 0.3070193 0.14617701 -0.17271478 0.19860211 -0.106389716 -0.07031858 0.026436053 -0.08560742 -0.27658468 -0.33143237 0.0116365235 -0.36456951 -0.024649348 0.1982092 0.18702596 -0.0633222 0.13249497 -0.048215475 -0.109784015 -0.18423122 0.05214127 -0.1936679 0.21232183 0.0034687112 0.040310808 0.007064565 -0.005788016 0.14965464 -0.053830016 0.056212172 -0.10012307 0.23372725 -0.14348723 -0.08992324 0.39168286 -0.26378727 -0.33488646 -0.21330625 -0.15822056 0.36622173 -0.18993069 -0.2788417 0.09334429 -0.09420472 -0.16050266 0.18416247
943 0.11689196 -0.1309098 -0.22458106 0.3218697 0.018728917 -0.115639925 0.21640868 -0.040123083 -0.040986054 -0.04609335 0.20409696 0.06408949 0.07288384 -0.19249725 -0.15092075 0.08727486 0.15003726 0.079228275 -0.12243062 0.45809138 -0.035869416 -0.035024963 0.10634975 -0.08239432 0.22317532 -0.10832902 -0.06644969 0.24912775 0.01962717 0.11102328 -0.13872707 0.10981355 -0.14427367 0.111878924 0.12378265 0.07523437 0.10720045 -0.28385472 0.10766761 -0.2992379 0.20553498 0.03016798 -0.12211812 0.022686893 0.21157949 0.023206256 0.030208694 -0.041736707 0.13349067 -0.11318461 0.15852752 -0.21424975 0.15305606 0.113569655 -0.10462958 -0.095365144 -0.039044835 -0.17576933 0.081009604 -0.15235648 -0.19507742 -0.22336796 0.008815638 -0.18508904 0.40945786 -0.39631748 -0.23856385 -0.06071482 -0.16027316 -0.05756273 0.25530058 -0.17120706 -0.29885945 0.14746924 -0.008407527 0.34168303 0.04552511 -0.12726639 -0.25054857 -0.25545678 0.08640955 0.015334364 0.20393951 0.2086629 -0.21151063 0.3195692 -0.08570182 -0.12809823 -0.060075883 -0.0910322 -0.20002364 -0.18650739 0.054391213 -0.4474365 -0.058796033 0.11178709 0.25361413 -0.14278746 0.09298065 -0.06364115 -0.109033935 -0.17693837 0.121958576 -0.121151276 0.22986756 0.21305604 0.13638948 0.049142607 -0.01949168 0.0888701 -0.07839677 0.079260685 -0.10555207 0.30980518 -0.294417 -0.112025425 0.49503645 -0.20790245 -0.21409708 -0.24513239 -0.1924061 0.4419512 -0.16342874 -0.22923596 0.16089103 0.00030222884 -0.08804669 0.18326285
940 0.11673875 -0.3795547 0.08379119 0.16310483 -0.2666941 -0.34950334 -0.3044405 0.16811927 0.0002485359 -0.09504737 0.062768385 0.15836509 0.085906394 -0.09677691 -0.08962143 -0.010691691 -0.117983855 0.06435692 -0.16108207 0.3469299 -0.052950807 -0.2844023 0.07317503 0.10428896 -0.0014036347 -0.25298497 0.01370014 0.055949964 -0.079792015 0.22089763 -0.35967126 -0.038473915 -0.054784045 -0.24546109 -0.11056131 0.013871815 0.22779495 -0.1783131 0.18518302 0.082430124 0.066073045 0.2946791 -0.12146827 0.12273583 0.19116603 -0.20721455 -0.09957959 -0.09442455 -0.012564121 -0.057628002 0.2753241 0.012538251 0.23340835 -0.016799852 0.036403142 -0.33868098 -0.19429806 -0.40009558 0.23553374 -0.10858606 -0.03995575 -0.029039616 0.07459129 0.18826352 -0.009068198 -0.09351882 0.040149 0.33844122 -0.334653 -0.06295243 -0.06716398 -0.1288207 -0.23706746 0.08759237 0.03727366 0.19056506 0.26745194 -0.15601195 -0.08831514 -0.4108481 -0.048168685 0.0056231325 0.10944132 0.12533446 -0.36280295 0.08117556 0.07306895 -0.024571652 -0.0011874037 -0.09563098 0.028060019 0.09251803 -0.060267102 -0.084449194 0.12734458 0.05336909 0.08820435 -0.16429876 0.4028886 0.20959607 -0.0749868 -0.1415691 0.018999342 -0.13194191 -0.0373062 0.012949591 -0.054108568 -0.0029854092 0.37722176 -0.02430095 0.12651217 -0.18441245 0.20303169 0.44019786 0.0073839687 -0.1598992 0.39028034 0.19418997 0.31793016 -0.2178484 0.057625927 0.059009075 -0.47238356 -0.126796 0.0039054474 0.089618534 0.033207696 0.059776295
946 -0.09187604 0.24505527 -0.16019107 0.09258566 0.11901478 -0.2198462 -0.115384124 0.004089545 -0.025396304 -0.022669904 0.17691772 0.067912765 0.05079955 0.031910118 -0.27263018 -0.15023406 -0.24100204 0.16178016 -0.07695601 0.057432685 0.017216563 0.15512735 0.07175009 0.16756848 0.07628831 -0.22438462 0.1139988 0.0319754 -0.054363575 -0.13927923 -0.3860719 0.24164866 0.012721174 -0.05580784 -0.1279331 0.15507576 0.20733228 -0.35009256 -0.01604036 0.23486362 0.0063662874 0.36584014 0.056708977 0.18199344 0.0046670586 -0.107800126 0.07292966 0.041735515 0.05489202 -0.16203672 0.31700787 -0.15119964 0.08028685 -0.015490119 -0.31452978 -0.07760977 -0.20749843 -0.2205989 0.016569454 -0.1871183 0.1607833 -0.109936476 -0.02740686 -0.16478917 -0.018484425 0.022460727 0.09755343 0.06584785 -0.25785437 -0.32098418 0.081452444 -0.11441236 -0.1813097 0.2841367 0.047102463 0.38600308 -0.08771232 -0.12722458 -0.096045576 -0.2783502 0.3688141 0.09796437 -0.11430205 0.14326161 -0.1327656 -0.13915972 0.39956677 -0.07916717 0.016668394 0.12910448 -0.04464041 -0.080915555 -0.17044754 -0.17389545 0.07874796 -0.16939159 0.10416821 0.011538336 -0.18695372 0.0027187127 -0.064096786 0.099966355 0.10276279 -0.16628799 -0.028747786 0.3482952 -0.01586697 0.14328973 -0.2028146 -0.23845793 -0.27086493 -0.17425856 -0.028735084 0.22656573 -0.3875901 -0.09457873 0.3196081 0.17313851 -0.058699667 -0.27829474 -0.18253103 0.01242621 0.004480271 -0.080688626 -0.034798004 -0.024762163 -0.098994136 0.19322233
937 -0.17017165 0.25590816 -0.15118147 0.0018065955 0.19712001 -0.17829435 -0.17093119 0.02609139 0.022765275 -0.038953032 0.13698313 0.2061013 0.030812265 0.07687832 -0.275695 -0.11931173 -0.37748188 0.18838005 -0.12117275 -0.007471031 -0.07172371 0.12368191 0.12993512 0.14486794 0.052463435 -0.21064878 0.10349307 -0.031686306 0.07123751 -0.08785082 -0.35731655 0.30035335 0.08931331 -0.05629276 -0.14913338 0.16806944 0.16447714 -0.32141474 0.08480476 0.18387301 -0.021233581 0.40389103 0.059280235 0.046798438 0.014471234 -0.03555917 0.14285195 0.05848513 0.12372616 -0.17072357 0.23257735 -0.18841681 0.20844284 0.041391082 -0.3915226 0.013169031 -0.31596363 -0.15986548 -0.09008202 -0.26401517 0.19929177 -0.15339957 -0.035711978 -0.27102047 -0.13987207 0.13513783 0.09399544 -0.014026918 -0.2760848 -0.30664614 0.052532844 -0.22973056 -0.1169202 0.27708945 0.07122605 0.38378847 -0.16666411 -0.06197436 0.0021764704 -0.3153071 0.34621847 0.024176784 -0.076763205 0.12673569 -0.09102935 -0.028909447 0.36879086 -0.104115434 -0.009476381 0.08412559 -0.05556871 -0.05609135 -0.078058995 -0.14234494 0.080431856 -0.13721773 0.17191769 -0.06408446 -0.09950446 0.03869739 -0.14721674 -0.0026706874 0.2085514 -0.081810705 0.05242501 0.3937551 0.05150247 0.0977035 -0.17400283 -0.1382274 -0.3055325 -0.15101252 -0.04006487 0.1575927 -0.4201134 -0.07740717 0.23603024 0.10780931 -0.037987195 -0.16099723 -0.13791366 0.040456627 -0.062117543 -0.06403333 -0.11993333 -0.14479116 -0.14252092 0.26507482
941 -0.119770944 -0.25335002 0.33599907 -0.09051424 0.25655454 -0.19808222 -0.35975546 0.09944549 -0.060076047 -0.087854564 0.07650324 0.32248425 0.39358166 0.04182849 -0.11365894 -0.03647148 0.034464475 -0.063010074 -0.071758494 0.077696666 0.037341822 0.095244676 0.079806566 -0.35893166 -0.10732446 -0.13202892 0.10064303 0.027342085 0.17981641 0.17271093 0.015906537 0.03250235 -0.046496138 -0.19893156 -0.11556799 0.10617895 0.13443221 -0.12625314 0.15722114 0.13881463 -0.10791643 0.09067889 0.13172756 -0.12841043 -0.07849067 0.048961226 -0.0096342815 0.0596443 0.1637787 -0.27818367 0.08430752 -0.035997964 0.37052968 -0.047486957 -0.43517283 -0.043905027 -0.1896117 -0.22902137 -0.007895781 -0.27738756 0.06778555 -0.2326296 0.16507927 -0.0973048 0.059405286 -0.13858755 -0.042204548 -0.20179111 -0.056852814 0.26598203 0.06291895 -0.27210963 0.04245682 0.50381976 -0.08003307 0.12934157 -0.23054655 -0.29696247 0.2565287 -0.13733082 0.111252494 -0.1262847 -0.103351526 0.55616945 -0.20618853 -0.10321316 0.3626598 0.110635236 -0.12862714 -0.11109977 0.24296178 0.073646285 0.02586067 -0.34089515 0.027666084 -0.010481628 -0.11707518 -0.4173673 0.22269803 -0.09765588 0.0025522858 -0.20207605 0.18680598 -0.0006394244 0.46873096 0.11497872 0.10350491 -0.088459715 -0.03872123 0.31422207 -0.13965458 -0.047617555 0.022044864 0.31096116 -0.26523933 -0.14614885 0.27414837 -0.0799769 -0.27932635 -0.11246034 -0.040118117 0.21540342 -0.020623174 -0.58358157 0.25264636 -0.08304076 -0.36298624 -0.023246901
942 0.07727156 -0.12512128 -0.15032104 0.3984629 -0.036399014 -0.08868879 0.1649741 -0.05105917 0.03303057 0.024122324 0.3043969 -0.01740723 0.048387945 -0.12316385 -0.06301385 0.11042597 0.18687119 0.12897839 -0.022790726 0.5127053 0.06632353 -0.07896683 0.08219243 -0.05117733 0.21145299 -0.14906704 -0.04595046 0.27992645 -0.04030053 0.025411027 -0.21989843 0.02566855 -0.20065601 0.12665756 0.12851469 0.150957 0.09791108 -0.18120158 0.007895605 -0.24741049 0.14407155 0.10516049 -0.08497608 0.04225335 0.3119274 0.007806745 -0.00086452794 -0.020026417 0.20943932 -0.03143351 0.20059292 -0.18098976 0.0659221 0.09017367 -0.01109962 -0.049831435 -0.12170999 -0.17396224 0.026739182 -0.12390833 -0.16883688 -0.24923536 -0.045744408 -0.06266108 0.4618076 -0.40217713 -0.2674016 0.08417596 -0.0027965354 0.0032486443 0.22489645 -0.09992039 -0.37969568 0.14960128 -0.05705326 0.30010447 0.13371186 -0.1662401 -0.23070778 -0.2856874 0.09127608 0.04798955 0.32434642 0.38445 -0.28806898 0.20085257 -0.19355561 -0.10251804 0.05252577 -0.09368046 -0.15268035 -0.21678828 0.002001008 -0.3688081 -0.015738763 0.035274133 0.08325484 -0.10284392 0.0955197 -0.03960125 -0.048589803 -0.19459347 0.1319877 -0.14652875 0.14380029 0.045853604 0.07138998 0.07915867 0.030568678 0.09775969 0.019220345 0.06988902 -0.033680066 0.31314492 -0.0960003 -0.12576929 0.43526828 -0.11137078 -0.2860529 -0.21932009 -0.19206533 0.34854004 -0.12676579 -0.29070914 0.09758564 0.026478592 -0.15320195 0.14635849
936 -0.0067850146 0.010944357 -0.12004159 -0.29848513 -0.006326601 -0.15516524 0.147649 -0.13684377 0.115381755 0.35743 0.16832128 0.09561141 -0.17868999 0.026664408 0.14021769 -0.21196471 -0.07021864 0.2819859 -0.070394464 0.049870744 0.04650762 0.044345275 0.07101776 -0.03631286 -0.058790974 0.116206236 0.0664678 -0.101487465 -0.0021894765 -0.070123054 0.08757342 0.041894488 -0.17685786 0.08392588 0.01197677 0.11046467 0.14307274 -0.2076122 0.07290544 -0.04396944 0.15401958 -0.234652 -0.13663638 -0.004126315 0.03206559 0.06287032 0.15611437 -0.059105325 0.044010706 -0.038326155 0.1869618 -0.18832883 0.033947106 -0.3318957 -0.042902205 -0.2448535 -0.37083906 -0.17783006 0.1980557 -0.08602186 0.25648895 -0.093405925 -0.35696387 0.19491214 0.12538083 -0.2723637 -0.122575544 0.29982615 -0.1685016 0.32806623 0.23271537 -0.3520577 -0.23289579 0.5999125 0.11707003 0.20765656 -0.15665086 -0.34580025 -0.41963622 0.10727253 0.008998778 0.14511788 0.16458793 -0.012167493 -0.27797225 -0.21644771 -0.009683563 0.2836311 -0.1139143 0.014226408 -0.24733399 0.0886691 0.005194254 -0.10168959 0.022523528 -0.025562868 -0.054944914 -0.1035682 0.19832425 0.02897272 -0.19783379 0.011180859 -0.026734626 -0.09040837 0.056343522 -0.012976629 0.1589216 0.09791475 0.065590456 -0.1017039 0.12764828 -0.1440407 0.08572009 0.25664973 -0.4475899 -0.19272937 0.008539426 -0.019806748 -0.029699704 0.10438851 -0.0059216674 -0.14510079 0.061363425 -0.06398983 -0.1496439 -0.12925987 -0.1519069 -0.18659024
939 0.11429953 -0.14504668 0.034011025 0.20419747 0.14533189 -0.034312215 -0.36600894 -0.02815988 0.22858837 -0.042346757 0.17878747 0.27651417 0.01926395 0.029933052 0.409606 0.040359784 -0.24882878 0.37467888 -0.026515847 0.09611953 -0.12674457 0.082145736 -0.018969195 -0.23369993 0.22442624 -0.21324825 -0.02772216 -0.07520591 0.3491151 -0.10922072 -0.37305993 -0.086511634 -0.022222022 -0.015872516 -0.13032855 0.16207102 0.20150691 -0.10575028 0.10531801 -0.006035306 0.0070667756 0.33397436 0.044564743 -0.3373451 0.11044177 0.11735247 0.08822931 0.17126349 0.15725997 -0.05172545 0.017033864 0.015155523 0.062067084 -0.078368366 -0.18053886 -0.21305975 -0.20550102 -0.13735995 0.13850053 -0.25681707 -0.15752916 -0.038367666 -0.19222783 -0.06604795 0.24305755 -0.25751343 -0.044149023 0.05104364 -0.23612955 0.25282866 -0.1429442 0.04044735 -0.028949436 0.24857585 -0.16768923 0.06312967 0.0137371225 -0.042374633 -0.123261265 -0.28587347 0.36746782 -0.18782163 0.23430544 0.18521199 -0.56911474 0.007142366 0.040852945 -0.06651892 -0.18625018 0.0047323774 -0.10447834 -0.18215209 -0.23214728 -0.15335473 0.24487126 0.19818982 0.17644113 -0.12955086 0.20474756 -0.0996478 0.08542039 -0.506331 -0.01582268 0.029252283 0.18388742 -0.18696669 0.11773201 0.0029268945 0.20029016 0.21749079 0.03100179 -0.2656724 0.0048185005 -0.04728073 0.02465057 -0.16634993 0.26888257 -0.23246379 -0.124822594 -0.13002764 0.28207228 0.30801845 -0.04999691 -0.53610367 0.08480902 -0.17726415 0.009411719 0.28312778
933 -0.040527362 0.03750084 0.06761307 0.03968395 0.037672956 -0.23373048 -0.14515643 -0.2870693 0.03807574 -0.15076962 0.21592195 0.1588128 0.21863589 0.17650571 -0.30006263 0.08220555 -0.17471969 0.1544232 -0.25923103 0.14774044 0.0556714 -0.18134518 0.035289112 -0.050990816 -0.0055394787 -0.046088487 0.116611004 0.07298398 -0.3135853 -0.15320843 -0.2743475 0.014373549 -0.21422021 -0.36481315 -0.078304335 -0.15807177 0.3715309 -0.22254032 -0.05560678 0.21265422 -0.084086 -0.007821973 -0.33622664 0.15753928 0.23966104 0.114759654 0.13745965 -0.17565176 0.25857183 0.120047905 0.45112893 0.07543914 -0.04472778 0.21749711 0.11023725 -0.18447256 -0.076328196 -0.25963825 0.33096734 -0.31839415 0.03983708 -0.21418898 0.21254519 0.043171547 0.28603896 -0.17704035 -0.1493806 0.27368462 -0.21404913 0.13891245 -0.17250657 -0.2213418 -0.14913726 0.047501635 -0.026601395 0.22041295 0.22220676 -0.093986444 -0.11906054 -0.16615571 0.03650004 -0.24028863 -0.02357802 0.08708551 0.14826074 -0.14467454 -0.26473242 0.14639194 0.03440871 -0.16467358 -0.03869082 0.0714923 0.13530274 0.07725095 0.009471062 -0.1617344 -0.15575522 0.067134984 0.2813453 0.1600826 -0.10808128 -0.09895751 -0.15830564 0.03996618 0.23652624 0.046416055 0.061452683 0.023537062 0.38961312 -0.010159191 0.009793851 -0.12369383 0.06842237 0.24009657 -0.3742418 0.14424643 -0.050157283 -0.14059806 0.060238298 -0.06778136 -0.13173667 0.2715747 -0.056690425 -0.009805109 -0.17775111 -0.10786982 -0.34299254 0.19776094
