128 32
50 -0.26702732 0.101510964 -0.44560468 -0.32650143 0.023928117 0.06881819 -0.08088509 -0.0023971314 -0.11586615 -0.015745347 -0.16406712 -0.026643751 0.10372958 0.109499104 0.33112442 -0.27081773 -0.4140584 0.0305775 -0.12041345 0.36973405 0.036221545 0.12614484 0.34899396 -0.21607703 0.10113644 0.019537646 0.23775426 0.32286546 -0.033788506 -0.0783711 -0.08888686 0.015517739
76 -0.092195086 0.36961907 -0.45589074 -0.079154514 -0.2764472 -0.0492814 -0.11048892 -0.018963633 -0.5150967 -0.0460831 0.09099266 -0.099095166 0.06919973 0.26104704 0.38459975 -0.12548114 -0.32719487 -0.05517243 -0.18325803 0.26158202 -0.19157676 0.28818536 0.2856347 -0.14131145 0.2520771 -0.06857358 0.08109919 0.1516293 -0.45675987 -0.22465342 0.22755302 0.025590109
88 -0.18173301 0.40630308 -0.49627185 -0.2011019 -0.25696436 -0.046812683 -0.101471975 -0.052321654 -0.47705886 -0.12676303 0.07319254 -0.10857092 0.1090888 0.22462173 0.35606515 -0.19262034 -0.2890374 -0.09063063 -0.1869507 0.2575211 -0.18578516 0.1962276 0.3097433 -0.15454665 0.2811226 -0.014247336 0.12182624 0.10509236 -0.43086824 -0.18082592 0.19513008 0.09019157
36 -0.22752726 0.13327606 -0.4206532 -0.22326685 -0.07737714 0.015416855 -0.06829627 0.028994875 -0.1871824 -0.04355339 -0.13362345 -0.048042253 0.069757015 0.17614105 0.3829059 -0.20142384 -0.36746982 0.0555498 -0.17026511 0.3978627 -0.0140000945 0.16657059 0.37131885 -0.20151164 0.14810838 0.010965359 0.17674719 0.26982126 -0.14078495 -0.12332229 -0.016956104 0.013584237
51 -0.28548008 0.07694963 -0.4170628 -0.3159946 0.015871715 0.09434794 -0.10278942 -0.0032541275 -0.059228998 -0.0065380395 -0.19123974 -0.031195901 0.0764497 0.10838685 0.34832555 -0.27774978 -0.46722755 0.06084468 -0.13134934 0.38442 0.0608537 0.15211424 0.33143675 -0.21063653 0.09665671 0.024568804 0.25477132 0.3061128 -0.016132524 -0.041735034 -0.12546551 -0.0028607994
127 0.07997158 0.119929746 -0.35047933 0.21909049 -0.17550744 -0.0036891783 -0.109178394 0.06251162 -0.42127624 0.17095871 0.0026073982 -0.034348227 -0.043199632 0.27843672 0.3730035 0.092033096 -0.5136166 -0.009902274 -0.0038025281 0.47315374 -0.00908987 0.31414458 0.38707086 -0.16166264 0.107379965 -0.122190975 0.09767276 0.3096177 -0.2571941 -0.22291625 0.1482835 -0.00957932
20 -0.122259006 0.06777694 -0.35856354 -0.10983204 -0.0029372429 0.08293185 -0.073341444 -0.032804754 -0.22427271 0.17321806 -0.09939759 0.0009838009 0.056348328 0.1961185 0.3133933 -0.116029754 -0.5804284 0.01083501 -0.052421115 0.39030746 0.03515782 0.26847348 0.2754943 -0.22815949 0.046093486 -0.10916004 0.21590385 0.39298147 -0.04402412 -0.045512006 -0.040941313 -0.008547822
87 -0.19029821 0.2221691 -0.4513082 -0.22904657 -0.112097874 0.046917275 -0.077157125 -0.044828292 -0.32819763 -0.00024912832 0.002523338 -0.05387451 0.065582484 0.20248057 0.3517515 -0.16326205 -0.39158797 -0.052812193 -0.13092081 0.30929402 -0.09409919 0.19911747 0.26393598 -0.19378135 0.18214089 -0.029693872 0.19128907 0.23767288 -0.19451307 -0.10565618 0.074237935 0.0558607
121 -0.05839006 0.09151631 -0.35957706 0.038198076 -0.110880576 0.018506434 -0.092512645 0.028571138 -0.28185916 0.12025304 -0.08427839 -0.026750633 -0.012385941 0.21935505 0.36877957 -0.05215107 -0.50036395 0.027640624 -0.052185312 0.4589241 -0.0028328218 0.25056028 0.37528062 -0.21251412 0.124238215 -0.071146436 0.12906364 0.32371962 -0.16999008 -0.16104585 0.048335508 -0.007148686
89 -0.17732602 0.103311226 -0.36874065 -0.23306234 0.014804847 0.11473091 -0.080893986 -0.057746306 -0.17783129 0.05101159 -0.108759634 -0.037869483 0.107121214 0.14258632 0.3191539 -0.19700396 -0.5391431 -0.01637545 -0.098081656 0.37278822 0.020476285 0.20118472 0.25776786 -0.2517885 0.05972362 -0.065233506 0.27884066 0.34154147 -0.07922378 -0.011006512 -0.043158036 -0.009556326
18 -0.16531256 0.060353845 -0.3796602 -0.14966865 -0.027699377 0.041680146 -0.11574104 0.046032734 -0.1013522 0.040291715 -0.1694243 -0.029888274 0.029797336 0.13845015 0.36723095 -0.16989432 -0.45584834 0.062065072 -0.10856597 0.42430285 0.077399306 0.16061349 0.40172967 -0.22941907 0.089734666 0.027183574 0.20927124 0.32271072 -0.07207592 -0.13221836 -0.072585225 -0.029991755
70 -0.22303171 -0.044030666 -0.3584416 -0.2952379 0.116269745 0.14963242 -0.08382313 -0.020086423 -0.06419999 0.11953637 -0.18802692 0.0027259558 0.112561464 0.15680578 0.3085139 -0.23662905 -0.57989866 0.05570674 -0.027701467 0.3954039 0.119049415 0.22123456 0.26073143 -0.26911864 0.026173832 -0.07210308 0.33111092 0.4328023 0.100671664 0.05517699 -0.16339833 -0.011157777
49 -0.2597981 0.10226013 -0.41304794 -0.24385536 -0.031282004 0.02369781 -0.08079229 0.043496814 -0.12856565 -0.050202336 -0.1751919 -0.059679266 0.07027302 0.13174996 0.374289 -0.26037955 -0.36882547 0.046190247 -0.14716993 0.4164993 0.014002286 0.113018684 0.4324709 -0.20084956 0.120268114 0.053992014 0.21938029 0.28544536 -0.091363475 -0.12090943 -0.07081004 0.033513304
48 -0.25121978 0.07759101 -0.38421467 -0.29890972 -0.059975326 0.054811873 -0.083482586 0.049807478 -0.13369514 -0.0329427 -0.14545277 -0.04739617 0.07557171 0.13710032 0.35973254 -0.24630138 -0.4247105 0.015934857 -0.14991252 0.38376856 0.018699067 0.12642486 0.3721068 -0.20885478 0.14468844 0.035205543 0.26885596 0.28692004 -0.046204355 -0.09157887 -0.081019156 0.01681521
100 -0.20521589 -0.032962617 -0.34444612 -0.27770832 0.11295418 0.13548279 -0.06216579 -0.002507615 -0.052677426 0.118002206 -0.18492363 0.010387981 0.11839609 0.14116345 0.29837894 -0.21993382 -0.6145753 0.055821672 -0.05912866 0.3858859 0.12173196 0.21604872 0.2734169 -0.293702 0.010052808 -0.08207245 0.31555793 0.45062348 0.081796974 0.032170966 -0.14676556 -0.0034609302
41 -0.17795475 0.059939474 -0.3614245 -0.20627905 0.064548664 0.11448188 -0.050536223 -0.027342388 -0.14366272 0.14992785 -0.13617894 -0.022265116 0.116523236 0.1687637 0.30533472 -0.16166525 -0.5870288 0.008131479 -0.041659076 0.40698636 0.068651326 0.22466691 0.27881584 -0.2513151 0.04418056 -0.098574474 0.30055162 0.39985043 0.019156707 0.03148362 -0.093979366 0.015652722
22 -0.16407135 -0.022923365 -0.31915033 -0.20648406 0.061998043 0.12296782 -0.0804868 0.034589402 -0.09288663 0.15613484 -0.19483306 0.0007593388 0.080493025 0.17395331 0.29948863 -0.1681672 -0.5743915 0.021851687 -0.030552039 0.42608392 0.118542284 0.20410971 0.31966993 -0.24780594 0.046383508 -0.08545555 0.29500836 0.42232692 0.0724734 0.004489488 -0.14022623 -0.0014249668
114 0.036247462 0.09677114 -0.3556017 0.17173015 -0.109710954 0.026856035 -0.09595864 0.082509264 -0.36319223 0.14530395 -0.045484785 -0.017740434 -0.053796586 0.21865776 0.37207696 0.056595657 -0.52172476 0.011583679 0.030083116 0.48300165 0.03409637 0.23816058 0.38559112 -0.17608581 0.09125583 -0.12561947 0.11418994 0.32922226 -0.18422227 -0.22990884 0.07968985 0.015797703
75 -0.1771632 0.32776517 -0.48121908 -0.2284725 -0.21200313 -0.016325075 -0.09911995 -0.072964154 -0.4133772 -0.09158811 0.033406757 -0.08249223 0.10420787 0.20289361 0.34408242 -0.20586935 -0.34731814 -0.08392112 -0.17246924 0.28765813 -0.171589 0.21776822 0.26585773 -0.17756261 0.23367 -0.026783854 0.1486308 0.14181364 -0.33459216 -0.16011658 0.12591515 0.07215169
23 0.031745803 0.12489318 -0.3650258 0.16659492 -0.13219205 0.037978746 -0.13664371 0.054415327 -0.38804525 0.1548238 -0.033739228 -0.03321554 -0.028022274 0.2633064 0.3532868 0.014598512 -0.5123775 -0.010174033 0.01042892 0.47349578 0.013781327 0.2601735 0.406822 -0.14247222 0.12656242 -0.099230796 0.13539214 0.30005625 -0.22890532 -0.22054122 0.08652371 0.01968051
105 0.015974673 0.118882425 -0.32760602 0.17620464 -0.1594279 -0.0008471064 -0.13237323 0.0541515 -0.36021742 0.13778743 -0.041045897 -0.044543803 -0.046664663 0.27155933 0.34979826 0.020218657 -0.5163281 0.027511513 -0.024824275 0.48340306 -0.0035951384 0.2615478 0.4268342 -0.16159536 0.11080511 -0.07767401 0.10683251 0.2680339 -0.26532495 -0.2407578 0.12798938 -0.0040500653
103 -0.014405963 0.15118176 -0.35985515 0.11090867 -0.15690163 -0.021128379 -0.09598134 0.026034975 -0.3620597 0.082518235 0.0025203463 -0.04085636 -0.019760437 0.25390694 0.36635947 -0.016477045 -0.46049294 0.013822593 -0.06524992 0.4324062 -0.019900706 0.27060875 0.40538368 -0.16168338 0.14297728 -0.099578194 0.10403188 0.288876 -0.2534986 -0.20925204 0.11080497 0.033444222
81 -0.24974063 0.15298255 -0.42567828 -0.33828503 -0.01625014 0.038506515 -0.07927702 -0.020648208 -0.171562 -0.044594347 -0.12860811 -0.06845147 0.10595506 0.12401141 0.3391766 -0.30880165 -0.41927686 0.023850149 -0.15157016 0.3264694 0.003706357 0.16664666 0.30033556 -0.24623428 0.15298025 0.030445753 0.22145234 0.26766658 -0.0753215 -0.05672291 -0.05270925 0.015464365
109 -0.03808224 0.1142145 -0.37152058 0.10311626 -0.12729506 0.015151496 -0.1210985 0.053644698 -0.329467 0.104731746 -0.04464751 -0.0480758 -0.062754974 0.20966442 0.3738396 -0.02709164 -0.49020818 0.028789775 -0.054144938 0.48920676 0.038598735 0.22082639 0.3931302 -0.1547435 0.10788839 -0.07797599 0.1400036 0.28765112 -0.21780658 -0.23942465 0.06335586 0.02227111
42 -0.2552155 0.14855321 -0.4179153 -0.26071084 -0.078879654 0.009601827 -0.11062329 0.0361311 -0.15400067 -0.06442074 -0.14128384 -0.0710508 0.08817839 0.1589207 0.37552273 -0.22756569 -0.38037643 0.03194113 -0.18123703 0.38929778 -0.019230537 0.11850224 0.37214124 -0.18450628 0.17976913 0.046662852 0.18663363 0.23094282 -0.119214475 -0.1469067 -0.031710748 0.005236082
104 -0.03442419 0.10820829 -0.37321308 0.015203792 -0.08695128 -0.00013259274 -0.09800344 0.018132914 -0.30916137 0.087947175 -0.029457076 -0.04730483 -0.002596727 0.228517 0.36305612 -0.0566965 -0.45620626 0.012965645 -0.057793796 0.4428893 0.02406558 0.25543103 0.35797253 -0.21724916 0.12240257 -0.075827256 0.15451685 0.29205137 -0.16717812 -0.18043219 0.05578869 0.022789026
91 0.06629411 0.19465749 -0.36609897 0.2155735 -0.20501408 -0.0016437118 -0.12729326 0.084074445 -0.44870242 0.12952358 0.027016902 -0.034997243 -0.044338197 0.26191503 0.3824031 0.08254624 -0.48989964 -0.019058999 -0.013022112 0.47001183 -0.005199271 0.25897464 0.40342346 -0.14743903 0.15262039 -0.089507334 0.08066709 0.28661132 -0.31768864 -0.2724137 0.15015505 0.028886471
117 -0.19781382 -0.023346981 -0.32932153 -0.24979816 0.13389859 0.13982688 -0.06188568 -0.058339927 -0.070140816 0.17647758 -0.1879979 0.009168738 0.11567821 0.16845955 0.28271613 -0.18238764 -0.6221004 0.031552527 -0.026574625 0.36113343 0.062109772 0.23453553 0.2689862 -0.30370438 0.0062822467 -0.09182942 0.3471666 0.4695874 0.099227145 0.0797322 -0.14470226 -0.0066780117
78 -0.21378042 0.3059797 -0.41880807 -0.27053055 -0.16604392 0.024089467 -0.06866894 -0.06512152 -0.35012454 -0.12169853 -0.013202525 -0.058555502 0.11619812 0.19362782 0.35509342 -0.27010572 -0.36751464 -0.033637397 -0.21950287 0.27818447 -0.13522436 0.22631924 0.25444028 -0.16582653 0.21261449 -0.019416597 0.1634243 0.18977727 -0.27743652 -0.11263537 0.094017565 0.054705605
113 -0.30851516 0.11635715 -0.439894 -0.3392361 -0.012019856 0.042981766 -0.0891847 0.032508038 -0.08201799 -0.0744613 -0.1873678 -0.086397655 0.091986425 0.09657443 0.3760363 -0.32454434 -0.39401054 0.037251227 -0.19997849 0.3760822 0.030671118 0.116836995 0.33185026 -0.21189581 0.14245524 0.047511235 0.2304644 0.26120496 -0.07347477 -0.09837825 -0.07505176 -0.0040791593
116 -0.041212976 0.1063549 -0.34237754 0.049185183 -0.10915373 -0.001153979 -0.10173288 0.047826298 -0.31119865 0.07956706 -0.014788065 -0.06700633 -0.024670016 0.20756489 0.3581014 -0.057427697 -0.4787152 0.0015704026 -0.05126815 0.4312993 -0.023786765 0.24823882 0.38533315 -0.18069683 0.13521409 -0.060424015 0.1690813 0.27813926 -0.20951383 -0.18856941 0.075527504 0.02963335
72 -0.16684668 0.28545588 -0.45109698 -0.16115148 -0.16155428 -0.0042755 -0.059146628 -0.020005308 -0.3676052 -0.08059644 0.02071425 -0.09705491 0.053008944 0.19505188 0.35480797 -0.19522636 -0.3749638 -0.019902784 -0.18420914 0.30399102 -0.08061868 0.20250608 0.30871978 -0.17358658 0.20988023 -0.040640604 0.1365392 0.16386594 -0.3094636 -0.16110563 0.12575485 0.04607394
17 -0.24447682 0.022066755 -0.36703134 -0.29329708 0.08604294 0.092738725 -0.048191868 -0.06122699 -0.100909926 0.09294677 -0.13633727 -0.010472456 0.112308875 0.16973285 0.32875076 -0.22332829 -0.5650042 0.023244757 -0.05676984 0.37024632 0.070704915 0.22813608 0.28034297 -0.29043698 0.0492955 -0.048638903 0.32245559 0.3909832 0.03410259 0.031397823 -0.11453215 0.02791781
112 -0.01590388 0.12249806 -0.3475533 0.11894922 -0.11068209 0.043293275 -0.0941836 0.0211001 -0.35054505 0.10742647 -0.016087258 -0.054969653 -0.033289734 0.24609289 0.36853346 -0.019055484 -0.51913905 -0.013343413 -0.017080713 0.44326687 -0.008750248 0.27135485 0.38744465 -0.19197397 0.09199414 -0.082591504 0.1251505 0.3400331 -0.22851393 -0.16407883 0.07887016 0.022898747
27 -0.16093296 0.019415041 -0.33551285 -0.20429827 0.087302014 0.13897431 -0.047619276 0.00082699145 -0.14444639 0.14185795 -0.15960339 -0.010676229 0.090672344 0.14805831 0.291264 -0.16581568 -0.6203061 0.0059172204 -0.016744317 0.36737868 0.0794087 0.23524578 0.25789812 -0.25490144 0.036628444 -0.09015586 0.28818575 0.45283976 0.025099844 0.06850906 -0.11120965 -0.01571671
2 -0.15598653 0.043693155 -0.34992963 -0.1822089 0.075972185 0.12977257 -0.061941292 -0.04504572 -0.12887801 0.13060766 -0.13496485 -0.0066651166 0.08309825 0.16310571 0.3175992 -0.15389162 -0.5903498 0.008925207 -0.028967544 0.3600456 0.07900638 0.24460317 0.27817145 -0.2866065 0.017344642 -0.10218559 0.28579476 0.41996107 0.008082691 0.024847858 -0.088361874 0.011444649
52 0.045215108 0.10733252 -0.31909627 0.19141929 -0.10259181 0.043035902 -0.108936 0.07368634 -0.31164372 0.17263062 -0.008350605 -0.044470288 -0.04678735 0.2523967 0.36064756 0.07784408 -0.57286954 0.020182485 0.03016994 0.50582385 0.022754204 0.28092468 0.40265942 -0.18513833 0.09730155 -0.13325885 0.1301208 0.35793048 -0.18492346 -0.1976438 0.079120226 0.0035299915
110 0.04287651 0.14399384 -0.3852885 0.19623151 -0.17709634 0.005034678 -0.10685439 0.079885624 -0.40811673 0.120489866 0.036744755 -0.049644817 -0.05799926 0.25469717 0.39865896 0.083717294 -0.4874904 0.005692903 -0.0403212 0.4812467 -0.016120957 0.2554636 0.39529243 -0.14516343 0.14925271 -0.09444472 0.10944943 0.26990342 -0.2522303 -0.27928293 0.13988553 0.0076776417
83 -0.18075326 0.32741225 -0.476879 -0.23256542 -0.21877412 -0.0004512753 -0.09376603 -0.049013793 -0.40934262 -0.08119364 0.039195675 -0.05565668 0.10748132 0.19361913 0.35143378 -0.1718716 -0.35114595 -0.07454393 -0.19163908 0.28269038 -0.11652969 0.22700135 0.2871903 -0.16826229 0.21522936 -0.030364083 0.15254317 0.17655097 -0.32741073 -0.13068609 0.112764165 0.059292458
31 -0.20227902 -0.027589291 -0.34814572 -0.3011325 0.09464981 0.1304048 -0.08110777 -0.0077233687 -0.07476278 0.10362238 -0.1626984 -0.0005073189 0.104072005 0.14925012 0.3177534 -0.22701499 -0.57530403 0.025897477 -0.07454018 0.39690757 0.07013062 0.2024569 0.27515718 -0.2594935 0.030419528 -0.056664407 0.3142707 0.4271378 0.06273926 0.010076587 -0.13136241 -0.03791342
6 -0.17999296 -0.06431214 -0.31543314 -0.30112574 0.13797535 0.17711568 -0.100047715 -0.053666927 -0.06827049 0.18650351 -0.19833 0.025065357 0.12430164 0.15812023 0.2879658 -0.20296197 -0.644391 0.029985463 -0.0069866255 0.40114078 0.09006215 0.22989763 0.2474494 -0.29231903 0.0071968446 -0.10040583 0.34413686 0.49549308 0.114764206 0.09832185 -0.19328658 -0.05544749
55 -0.29890397 0.02931212 -0.42306253 -0.3867133 0.057656575 0.08653536 -0.10097269 0.04207341 0.03209493 -0.017815853 -0.22049269 -0.026003696 0.10756408 0.06464721 0.36464983 -0.30320007 -0.44255033 0.04794842 -0.115802854 0.43215778 0.11370407 0.067697756 0.38381758 -0.23627353 0.09699718 0.057270143 0.3062474 0.35709423 0.10989231 -0.05490402 -0.19478157 0.009886157
82 -0.045954015 0.27916533 -0.47099084 0.032196805 -0.25426564 -0.0187664 -0.09754815 0.042937603 -0.4727876 -0.020876262 0.07341217 -0.09010156 0.0076192915 0.22799116 0.40012774 -0.044133224 -0.38691404 -0.041253604 -0.14223062 0.37423337 -0.117680945 0.24835818 0.35140252 -0.16023348 0.21250871 -0.04652032 0.089232475 0.1678947 -0.39682776 -0.25753933 0.20564109 0.06026208
21 -0.2317861 -0.06696644 -0.3423933 -0.3233511 0.113717526 0.17140436 -0.083732 -0.015466342 -0.04172048 0.17637654 -0.22901501 -0.006872321 0.11018185 0.13085182 0.31180766 -0.21778426 -0.6336342 0.04124627 -0.047424406 0.39432395 0.1139204 0.1871748 0.2697705 -0.27454188 -0.009389535 -0.07315918 0.3313786 0.48189676 0.119952805 0.09654895 -0.20665734 -0.0405284
84 -0.26397085 0.15231311 -0.40247187 -0.2785927 -0.01782114 0.03482734 -0.09300511 -0.019598188 -0.115685426 -0.04853298 -0.1429014 -0.061390523 0.07379565 0.11966693 0.352815 -0.2616519 -0.40389806 -0.007986482 -0.16071564 0.37688848 0.008627054 0.13652812 0.3451265 -0.19573905 0.13416484 0.023513671 0.21029961 0.28550354 -0.09604727 -0.09158792 -0.033167616 0.031022176
119 0.017855518 0.10882571 -0.36167178 0.17138365 -0.16370064 -0.0086560445 -0.13640149 0.08016494 -0.34339097 0.11227804 -0.045201734 -0.034446973 -0.061463054 0.23790088 0.40561733 0.022505647 -0.4744498 0.016515963 -0.020749819 0.5365207 0.006930991 0.23917122 0.45025277 -0.1520897 0.12733485 -0.08668111 0.08425354 0.2897751 -0.20941634 -0.26476893 0.10866943 0.009239618
24 -0.19411881 0.011771204 -0.38296938 -0.2830738 0.08493409 0.13431296 -0.07004179 -0.06351935 -0.13327572 0.1489532 -0.16071373 0.005302556 0.11099662 0.1819515 0.29544908 -0.20440862 -0.5920274 0.008882815 -0.034776248 0.31934625 0.060336184 0.25826338 0.26509142 -0.28911692 0.02806927 -0.08926669 0.28177464 0.42683697 0.020399911 0.06294973 -0.13047267 -0.034265835
40 -0.21524984 0.058286335 -0.36541727 -0.3165087 0.058215305 0.14246175 -0.067780636 -0.055595163 -0.14172916 0.1333345 -0.17470694 -0.0050413804 0.15301232 0.14266533 0.27573964 -0.23461546 -0.58306205 0.0004952001 -0.06754616 0.3416915 0.054888383 0.22204486 0.23683695 -0.25656042 0.065726236 -0.09266144 0.29569355 0.39069676 0.012018686 0.074363284 -0.11675085 -0.01719464
26 -0.21263105 -0.0037618545 -0.30562627 -0.20855269 0.11195057 0.15798284 -0.07787628 -0.023331523 -0.08809098 0.1658456 -0.18445292 -0.015388122 0.08694726 0.15342116 0.30292547 -0.20087479 -0.6222361 0.017177304 -0.027838906 0.4324491 0.08483918 0.1821679 0.29234087 -0.259667 0.021136606 -0.08123318 0.29614964 0.46149144 0.075266846 0.027433347 -0.15879369 0.0038799464
32 -0.18247974 0.022130975 -0.3400442 -0.20604102 0.045690153 0.10074616 -0.094530754 -0.017600361 -0.11724901 0.12129468 -0.1794503 0.00023079167 0.072271205 0.16916817 0.29316097 -0.1991362 -0.5560434 0.023314668 -0.06562099 0.38399053 0.06417774 0.2293503 0.3114553 -0.25219822 0.04072878 -0.07241725 0.25470763 0.4237586 -0.00039651073 -0.013260467 -0.10450641 -0.015311982
122 -0.23643112 -0.019335896 -0.36882865 -0.30583823 0.1071382 0.16275877 -0.07447177 -0.03637938 -0.04831995 0.15599385 -0.21525869 -0.018351823 0.12312856 0.12730543 0.3014135 -0.24186486 -0.5964587 0.010168889 -0.02745077 0.3820872 0.096216574 0.19084728 0.28908956 -0.2829047 0.021206865 -0.07878931 0.32176936 0.4508055 0.12420079 0.03413228 -0.14666244 -0.018736478
54 -0.26298478 0.15857668 -0.39685345 -0.30511844 -0.06268857 0.02795585 -0.096461 0.026217302 -0.15333967 -0.066863514 -0.14657117 -0.08053749 0.09948001 0.13091868 0.3543991 -0.27687666 -0.38339135 -0.0057488238 -0.1725808 0.3760919 -0.022561502 0.12479486 0.33821595 -0.18049493 0.1590893 0.016171658 0.20929667 0.25295204 -0.15460743 -0.09205511 -0.057583306 0.0006229135
30 -0.043236673 0.12718536 -0.38582096 0.04482404 -0.12428039 0.008165002 -0.10658624 0.05685977 -0.33616114 0.067532085 -0.056980178 -0.050283298 -0.03646462 0.21709943 0.37932295 -0.044348605 -0.47954175 0.02627319 -0.05717314 0.44415972 0.009881004 0.19958104 0.39804274 -0.17335661 0.14189093 -0.05792582 0.109996095 0.25692776 -0.20213951 -0.21885368 0.075234994 -0.00026455795
46 -0.24097939 0.13218422 -0.41760197 -0.310333 -0.024843184 0.07931902 -0.083035015 0.002376744 -0.11876416 -0.049648304 -0.16925111 -0.05679328 0.10891636 0.14085741 0.3230338 -0.26827872 -0.43541482 0.041142285 -0.17540975 0.39782682 0.002332352 0.15699162 0.32201257 -0.23641795 0.11929016 0.036651094 0.25103408 0.26441765 -0.07721168 -0.062895924 -0.06643933 0.016101923
126 -0.013499326 0.14310329 -0.36578858 0.14197461 -0.17298685 -0.014571418 -0.105622664 0.08240094 -0.34834328 0.111924514 -0.03599454 -0.07241761 -0.014652443 0.22464065 0.39019716 0.029033845 -0.46526352 0.006812948 -0.04652366 0.4814394 -0.0011110642 0.2323582 0.38002217 -0.16876023 0.121547006 -0.072298184 0.10262641 0.27723408 -0.25588724 -0.2245239 0.11818771 0.013918459
97 -0.21155964 0.32952312 -0.49276996 -0.21456684 -0.1721567 -0.008133893 -0.07993797 -0.07646774 -0.38111842 -0.07285577 0.028959058 -0.09146653 0.08647925 0.18890186 0.35164413 -0.20575744 -0.34410018 -0.069162734 -0.167394 0.2625981 -0.13761733 0.20528668 0.2891441 -0.18150248 0.22532104 -0.03945 0.1618733 0.17360672 -0.3134888 -0.13430719 0.12191113 0.07401374
29 -0.23826468 0.07326229 -0.37153503 -0.3026803 0.03815667 0.088272125 -0.06480319 -0.06481369 -0.14458975 0.057395156 -0.14315018 -0.027708272 0.10959782 0.15084502 0.31763193 -0.22303075 -0.5377059 0.008676619 -0.08694905 0.34738365 0.018858228 0.22073485 0.24460042 -0.2588753 0.09123652 -0.053967703 0.28437883 0.34966037 -0.04252311 0.017846432 -0.08781101 0.01571606
45 -0.2803602 0.21066692 -0.4369775 -0.31391236 -0.105230674 -0.00066375197 -0.09376818 -0.034583084 -0.18987077 -0.11057054 -0.13634077 -0.0764905 0.106935486 0.13509202 0.35332122 -0.28767255 -0.33529103 0.009816908 -0.20391586 0.35616443 -0.028268037 0.14561893 0.3462484 -0.21244627 0.16149884 0.03266905 0.18956693 0.17931929 -0.19645993 -0.13410276 -0.00013291859 0.014358446
77 -0.23835324 -0.01978825 -0.332554 -0.3602758 0.12434906 0.13583252 -0.07601706 -0.021573192 -0.079441346 0.110323936 -0.2181264 0.0016525855 0.15199834 0.13023713 0.28981188 -0.27034155 -0.57882005 0.0006621054 -0.07308753 0.3602145 0.063566074 0.21499683 0.2618629 -0.2886335 0.0571039 -0.08147177 0.34609824 0.44757122 0.06776544 0.08092591 -0.16658206 -0.029301602
8 -0.20781505 0.06447019 -0.34338966 -0.25166568 -0.003143837 0.07857985 -0.06984629 -0.047797065 -0.17469369 0.07639462 -0.1509139 -0.0022283483 0.10617725 0.14637692 0.3019518 -0.19940226 -0.49005586 0.005458234 -0.07870414 0.38905728 0.035848618 0.23772153 0.2916099 -0.25147915 0.09256039 -0.059245735 0.24479505 0.34830174 -0.048133723 -0.035466842 -0.051828377 0.022471529
124 -0.05893842 0.22153585 -0.36965927 0.07329052 -0.19195615 -0.017448228 -0.11105272 0.012674569 -0.40600145 -0.002925826 -0.016904898 -0.05820948 -0.018948877 0.25206092 0.37291348 -0.07465198 -0.42311105 -0.00028385353 -0.087862164 0.4173016 -0.06081806 0.22968887 0.3886525 -0.14398825 0.16439177 -0.06755947 0.1012251 0.21055236 -0.3043583 -0.24778883 0.14716928 0.05201265
5 -0.20689838 0.046230208 -0.35123312 -0.23316623 0.052101087 0.084809616 -0.06774898 -0.026958963 -0.12331576 0.104498975 -0.13668108 -0.006403355 0.09387291 0.16368197 0.31220284 -0.2147282 -0.54287004 0.033747822 -0.062439673 0.3721965 0.04923344 0.20387775 0.301657 -0.2630486 0.0417124 -0.06687153 0.28052777 0.41083226 0.0040741954 0.010260702 -0.09958008 0.012901991
59 -0.26031902 0.0776284 -0.40450448 -0.27926636 -0.050966464 0.036219895 -0.087647736 0.051591642 -0.07509325 -0.07245877 -0.20572512 -0.057025943 0.07808795 0.12702768 0.3564707 -0.2728508 -0.3802341 0.04541724 -0.18575764 0.4377735 0.048110917 0.13657369 0.38400987 -0.19026569 0.12287912 0.05410806 0.22501577 0.27473354 -0.042479545 -0.10117342 -0.09524052 0.010276069
15 -0.15656239 0.05026062 -0.35389945 -0.16639508 0.044528726 0.1291019 -0.08113 -0.051603526 -0.19047627 0.15122505 -0.12226671 0.0049373866 0.06277673 0.18335724 0.3035547 -0.14850606 -0.5805239 -0.011541392 -0.015231116 0.33396155 0.03858784 0.24560179 0.28045323 -0.26681748 0.040948793 -0.087790176 0.24204597 0.40247408 -0.03642526 -0.0072856084 -0.08340136 -0.0139948595
79 0.036488507 0.11284993 -0.33496448 0.22902961 -0.1477436 0.037372194 -0.12869807 0.09462198 -0.36277375 0.15006761 -0.02512779 -0.03567151 -0.07085993 0.26772878 0.3892056 0.051852062 -0.5158542 0.0014581108 -0.024546733 0.49548092 -0.0006615359 0.26913095 0.40225244 -0.16163689 0.10697182 -0.12386105 0.08628298 0.30258095 -0.2585216 -0.25416088 0.14097206 -0.011396995
53 -0.25029275 0.15651311 -0.42238694 -0.27960834 -0.045859493 0.046306998 -0.08673542 -0.008580674 -0.14632024 -0.044944666 -0.11167493 -0.06120459 0.09087669 0.13280326 0.3440865 -0.2636816 -0.40634567 -0.0032436803 -0.14878151 0.37312907 0.015451837 0.13358188 0.32299712 -0.22738236 0.11748626 0.027334113 0.2318636 0.25453812 -0.12354581 -0.104554206 -0.035916813 0.019833336
39 -0.252368 0.1910995 -0.45778224 -0.2738613 -0.10500545 0.01289772 -0.08698837 0.013265561 -0.17935742 -0.104148366 -0.10486982 -0.06694659 0.08127399 0.13156983 0.3930284 -0.25852382 -0.332992 0.002998981 -0.1731894 0.4024564 -0.050000638 0.09575736 0.3520835 -0.17833199 0.18979517 0.065250665 0.19295 0.2097155 -0.15769444 -0.1431363 0.013811701 0.023192456
16 -0.17780708 -0.01693534 -0.34233364 -0.20295765 0.087479815 0.15660395 -0.075234056 -0.016327957 -0.09985224 0.1536481 -0.1725792 0.022565879 0.09593293 0.14728189 0.32366037 -0.15264188 -0.6026495 0.03432492 -0.0045057335 0.39563444 0.10552148 0.2049233 0.30335104 -0.25951624 0.020771611 -0.06196784 0.28017974 0.43099505 0.053320684 0.0068258923 -0.15786357 -0.019008191
43 -0.2660257 0.073446214 -0.41920483 -0.33132988 -0.04179151 0.048798602 -0.09235715 0.049609967 -0.06767543 -0.059530042 -0.19058642 -0.04412229 0.07847283 0.1074417 0.3499975 -0.2886525 -0.39639816 0.0736036 -0.1911793 0.41245854 0.06559104 0.10618034 0.36508173 -0.22141276 0.14279783 0.06909795 0.26122752 0.29438066 -0.015592278 -0.062081102 -0.12690009 0.0029094457
37 -0.183919 -0.03813098 -0.34297895 -0.32214507 0.12908055 0.1575174 -0.077629775 -0.03353037 -0.08197882 0.15699767 -0.18916515 0.03144375 0.1483571 0.16625772 0.27152434 -0.21120091 -0.6127819 0.030882368 -0.03810622 0.35617277 0.11199025 0.26326653 0.2778202 -0.31899062 0.011262262 -0.073210075 0.36126068 0.48935628 0.13087264 0.101269335 -0.1738371 -0.010267637
80 -0.19969925 0.24688278 -0.46053123 -0.23243937 -0.115271814 0.027939659 -0.074044704 -0.0461606 -0.3238438 -0.07199381 -0.0038054674 -0.06081444 0.08611179 0.18047291 0.36155197 -0.20161161 -0.36365077 -0.04198144 -0.1580099 0.30895704 -0.09479122 0.18703102 0.28834754 -0.17847367 0.18356416 -0.013151916 0.1754635 0.20788024 -0.22655797 -0.12371269 0.07280629 0.04306068
66 -0.07308788 0.2850036 -0.43354705 -0.010503858 -0.18302399 -0.022359509 -0.079800814 -0.027323566 -0.45642945 0.01503868 0.04624634 -0.053138394 0.028561013 0.23635314 0.3684561 -0.07537005 -0.4025014 -0.0389474 -0.13497758 0.37511674 -0.091149144 0.24686778 0.3034717 -0.16392894 0.18259528 -0.08401919 0.1028326 0.21554019 -0.3755613 -0.21054955 0.14775969 0.026343383
34 -0.2955998 -0.021072937 -0.36551425 -0.34466428 0.031141004 0.07976955 -0.11877738 0.065186255 0.0030278938 -0.0071603563 -0.26150203 -0.059303977 0.06511802 0.11794203 0.3601755 -0.30128065 -0.46743459 0.068739034 -0.1729886 0.452217 0.060146797 0.08308103 0.39163435 -0.21371701 0.07637232 0.047869243 0.27503505 0.3131186 0.059531998 -0.07953347 -0.15644017 -0.030639289
107 0.04255525 0.14662854 -0.40225405 0.16049121 -0.1559818 0.006525931 -0.104681544 0.06514349 -0.41007325 0.12326672 -0.014163884 -0.054653347 -0.060873657 0.23475412 0.36478978 0.055857513 -0.47250646 0.0042972444 -0.0023985512 0.48614216 0.013652135 0.2766643 0.4055301 -0.17379981 0.1277136 -0.08202292 0.05782505 0.26828778 -0.28518784 -0.25198042 0.12329258 -0.0105334
92 0.008994408 0.0924145 -0.36593664 0.13291869 -0.10904085 0.03948554 -0.13779707 0.06094706 -0.3265687 0.17133242 -0.076145716 -0.03367847 -0.045529127 0.24241464 0.3542505 -0.0020739203 -0.51675856 0.0036566432 -0.019056866 0.47717544 0.03078755 0.2628502 0.40449333 -0.16405866 0.08105 -0.10456217 0.09428345 0.32846683 -0.20418444 -0.2104236 0.07852099 -0.026351033
94 -0.25233227 0.12274838 -0.40010962 -0.28134716 -0.0082301395 0.07617498 -0.07339597 0.027385797 -0.10751457 -0.033390615 -0.16504517 -0.039119065 0.09607502 0.15024753 0.36317223 -0.25389096 -0.43685177 0.021427546 -0.15775758 0.3987829 0.017691936 0.13084364 0.34023568 -0.1894856 0.114454694 0.0021886441 0.24093156 0.26737148 -0.05486523 -0.0925363 -0.077872686 0.010933473
118 -0.17996384 0.02817684 -0.39665875 -0.23014347 -0.01606937 0.062901616 -0.10550772 0.06161744 -0.080184214 0.023132537 -0.19524904 -0.036354937 0.08945249 0.13661045 0.33799803 -0.20960571 -0.4711585 0.046521842 -0.114402324 0.45280978 0.09214037 0.14330691 0.37603983 -0.2004006 0.09921559 0.014939921 0.23822185 0.31975457 -0.023226457 -0.08238275 -0.09074989 0.0013675361
85 -0.122480385 0.35690412 -0.49238756 -0.17600593 -0.22770566 -0.0071350248 -0.08695886 -0.033656932 -0.4771816 -0.048072632 0.05105693 -0.070550375 0.08855194 0.22583216 0.3542621 -0.16835062 -0.36421975 -0.08540328 -0.18982676 0.26150647 -0.1679226 0.23765081 0.25645256 -0.17516096 0.23807588 -0.040070396 0.13268812 0.13464911 -0.38250762 -0.16490327 0.18449682 0.047675647
35 -0.18519484 0.08013806 -0.38169453 -0.17359203 -0.072072856 0.032073002 -0.11513373 0.043487173 -0.17520085 0.032769285 -0.14717096 -0.02973536 0.02991516 0.14199145 0.37055102 -0.16250348 -0.42369622 0.04805683 -0.11036803 0.43593392 0.02114345 0.13731268 0.37910092 -0.20293804 0.12755097 -0.0010433921 0.20940755 0.28266874 -0.08403711 -0.14976186 -0.031201348 -0.0044325846
99 -0.04547586 0.14039235 -0.36234587 0.054218087 -0.15413433 -0.0006120691 -0.08274625 0.09273318 -0.33105776 0.049276885 -0.052580073 -0.03929948 -0.008308603 0.20654675 0.37962818 -0.05617959 -0.45365214 0.023897938 -0.038325034 0.4705424 0.008110973 0.17401806 0.4072231 -0.16309446 0.15333629 -0.04192848 0.1271117 0.29442433 -0.18660532 -0.22879013 0.087722406 0.029607618
86 -0.15761133 0.33193246 -0.5089473 -0.21742943 -0.22082484 -0.018444434 -0.07573293 -0.04682154 -0.47834992 -0.0984072 0.04254785 -0.07670023 0.10757006 0.21233895 0.32365954 -0.2250561 -0.33491772 -0.03612716 -0.24078822 0.24592544 -0.14802523 0.22661443 0.2798407 -0.16876766 0.23190846 -0.021214142 0.15807532 0.12004741 -0.3776332 -0.17171016 0.16226363 0.036242526
111 -0.22637996 0.30700585 -0.45724645 -0.34589356 -0.17102906 0.030295547 -0.08946002 -0.0700042 -0.37829155 -0.10956144 -0.012768027 -0.067233935 0.12285775 0.18430285 0.3214071 -0.2957802 -0.36054662 -0.04132768 -0.22686255 0.2136441 -0.14991716 0.22263221 0.23114848 -0.2031957 0.20829183 -0.0279856 0.19299564 0.17407289 -0.32049713 -0.09541976 0.092132054 0.051478844
101 -0.018510718 0.07198315 -0.3465734 0.102788985 -0.09954924 0.032334287 -0.12037865 0.07182276 -0.29029408 0.13896921 -0.05589841 -0.077218525 -0.03775424 0.21015029 0.36095688 -0.036610663 -0.5159975 -0.0061254036 -0.06701616 0.47855353 -0.0068282 0.22604962 0.35975167 -0.17173357 0.10445934 -0.06896668 0.15277335 0.31571895 -0.18170817 -0.20245041 0.07350248 -0.023256011
62 -0.00031038554 0.17545241 -0.39311457 0.10958421 -0.18456 -0.0071940967 -0.10817525 0.0734739 -0.35652936 0.0853607 0.0025608493 -0.04885223 -0.029595543 0.2439014 0.39480546 0.0038458977 -0.44515064 0.01192664 -0.061227955 0.4278005 -0.01611106 0.23181455 0.39859107 -0.16486564 0.15806814 -0.07887948 0.11286721 0.27029413 -0.2669642 -0.2140773 0.12563424 0.008246676
102 0.025209766 0.09895415 -0.34253612 0.17711869 -0.14376375 -0.0133159105 -0.10959653 0.07159085 -0.34050637 0.11954636 -0.031445604 -0.07311718 -0.0599886 0.22758844 0.3752448 0.021347549 -0.48759636 0.025557822 -0.03186789 0.50219464 0.0132710505 0.24435136 0.44779474 -0.18966866 0.12502585 -0.06765804 0.06873979 0.28517908 -0.21871829 -0.25819528 0.11351639 -0.021508126
115 0.024233423 0.15123701 -0.37682268 0.13538797 -0.16876388 0.007913932 -0.11452941 0.046811055 -0.41215995 0.1202708 -0.0088541545 -0.040074844 -0.03496588 0.2582576 0.36095175 0.025682492 -0.47239503 0.009544218 -0.008599344 0.44692802 -0.00044583136 0.27589062 0.4014594 -0.17675062 0.1412702 -0.07541824 0.092151 0.25745842 -0.25581682 -0.23469727 0.11794914 0.028101547
90 -0.15905362 0.2807833 -0.49027312 -0.24359147 -0.18438728 0.0046302006 -0.064443015 -0.07037922 -0.43182802 -0.05232972 0.021283576 -0.06598858 0.108591914 0.20273016 0.31813386 -0.1980141 -0.39135098 -0.06417657 -0.17734973 0.21893162 -0.14669257 0.23854281 0.24553932 -0.20574729 0.2062542 -0.05419944 0.15711376 0.18578157 -0.31467488 -0.12952405 0.1356876 0.035211783
57 -0.26718402 0.080023535 -0.39069694 -0.31104147 0.009348024 0.0554095 -0.075618945 0.013124364 -0.091753565 -0.010597296 -0.15670681 -0.045461167 0.07316108 0.12286658 0.37152067 -0.27907735 -0.44661963 0.026876122 -0.18834776 0.37569922 0.011831091 0.12614894 0.33881584 -0.22205864 0.119384445 0.018796913 0.2512364 0.2727932 -0.04237514 -0.07790642 -0.08634029 -0.027737837
67 -0.18960668 0.3760317 -0.5122106 -0.22241715 -0.23465154 0.02564545 -0.09162403 -0.03298855 -0.44820094 -0.096061684 0.036130596 -0.075345725 0.11766253 0.20925774 0.3353458 -0.20418379 -0.32868516 -0.08444068 -0.21057631 0.22594751 -0.15903312 0.21065608 0.27710906 -0.14152361 0.21878034 -0.034887347 0.17197692 0.17963232 -0.39777267 -0.13642296 0.14898175 0.060969654
71 -0.21061762 0.37842384 -0.4804708 -0.25174755 -0.23269472 -0.050989453 -0.066331595 -0.07636553 -0.4346487 -0.11673359 0.052463375 -0.09306993 0.08134808 0.20758864 0.35373396 -0.22683106 -0.32254875 -0.062176455 -0.22151114 0.26059064 -0.18657808 0.21039864 0.25516787 -0.16922745 0.2663569 -0.032639775 0.12188614 0.13292663 -0.39597544 -0.16352788 0.16624701 0.058873314
25 -0.0021572583 0.18363312 -0.4039918 0.1360875 -0.1738877 -0.00180266 -0.116738595 0.03829414 -0.40740654 0.13145642 0.009193778 -0.06267759 -0.038824987 0.23034947 0.35277894 0.01786378 -0.48219696 -0.0136443265 -0.021996684 0.42080677 -0.04491796 0.27785373 0.3729779 -0.1657735 0.13763915 -0.07762678 0.0741587 0.25422877 -0.29025194 -0.23113808 0.1494905 0.005397439
1 -0.13180721 0.045086075 -0.38155603 -0.18216121 0.028377917 0.1240719 -0.07789574 0.008229747 -0.17213476 0.13546391 -0.13832489 -0.018581571 0.09380675 0.18397789 0.31926313 -0.17094125 -0.5785475 0.03961658 -0.06574417 0.37006953 0.06546127 0.2419452 0.28831252 -0.2289887 0.03461819 -0.081794746 0.2644443 0.3776766 -0.001989598 -0.019474268 -0.061797217 0.0070909546
33 -0.3189437 0.009212889 -0.37704495 -0.37870032 0.03235616 0.06851604 -0.09130153 0.026715651 -0.015848339 -0.038765036 -0.24215683 -0.05064978 0.090948544 0.095510736 0.3395232 -0.3269587 -0.42117143 0.07834111 -0.1438242 0.4038787 0.089874305 0.10769062 0.38593692 -0.24331754 0.108526126 0.042485107 0.26008353 0.3268227 0.042108767 -0.05065936 -0.13771819 0.006652344
11 -0.19501534 0.13638459 -0.44733658 -0.1560867 -0.060907032 -0.01988188 -0.06807036 0.03121222 -0.22133198 -0.03934128 -0.112227894 -0.05702599 0.026459962 0.15349509 0.36081862 -0.20312913 -0.39623594 0.039233472 -0.121962294 0.3880704 0.035775233 0.12544994 0.38756955 -0.21842185 0.13106672 0.011740333 0.17775068 0.22303434 -0.14619693 -0.18726864 0.025547309 0.018015342
125 -0.18819065 0.3444481 -0.4538151 -0.22606075 -0.19271238 0.0011980365 -0.049259897 -0.08107254 -0.40173686 -0.0683588 0.02474085 -0.054442067 0.13362105 0.1957456 0.3317109 -0.19648363 -0.34268028 -0.08451265 -0.17026871 0.24938123 -0.13461275 0.22094792 0.27235332 -0.18030064 0.23555315 -0.035066053 0.15884505 0.1700712 -0.3543301 -0.14186712 0.123006634 0.09913783
19 -0.20331214 0.057085674 -0.3808361 -0.25224838 0.023783753 0.09739497 -0.04807324 -0.031232959 -0.16207495 0.097600184 -0.1321318 -0.0065970225 0.08527913 0.15139936 0.30198324 -0.18410806 -0.5439295 0.031271864 -0.061980665 0.35829827 0.035671163 0.21776988 0.29004425 -0.25276604 0.05445236 -0.080416426 0.2821065 0.39642978 0.007969609 -0.00019476935 -0.10358854 0.0073899315
65 -0.097911 0.33484572 -0.46879742 -0.09042746 -0.2365805 -0.023558745 -0.08234646 -0.014875966 -0.47048965 -0.025064979 0.085998766 -0.08339362 0.06054002 0.23011006 0.3700387 -0.1277629 -0.35737076 -0.08521723 -0.14733176 0.29255262 -0.1512365 0.2547792 0.30703536 -0.1604938 0.219871 -0.0693394 0.08379379 0.19575395 -0.41113988 -0.16575389 0.19263165 0.05314627
95 -0.20878282 0.2500461 -0.43852752 -0.24308383 -0.10549644 0.061298944 -0.03304518 -0.058692224 -0.31377953 -0.05561598 -0.02336881 -0.035762478 0.11940614 0.17094934 0.34222394 -0.19454814 -0.40268928 -0.07131904 -0.15043692 0.2928375 -0.08506548 0.18672624 0.2620465 -0.20891511 0.17474625 -0.068693966 0.21434158 0.21262264 -0.25173455 -0.08950871 0.051956285 0.06341251
3 -0.24330151 0.054805204 -0.36466333 -0.31411675 0.09084241 0.113382295 -0.06148222 -0.05718144 -0.09632261 0.10470543 -0.16520695 -0.014003914 0.13034846 0.13941513 0.30560392 -0.24179438 -0.56082594 -0.017216625 -0.09002975 0.34001997 0.06101465 0.22355731 0.25240472 -0.2612827 0.06460548 -0.08919457 0.32456493 0.41008133 0.038952995 0.07250511 -0.12984301 -0.0031414349
28 -0.17249398 0.31564856 -0.44890437 -0.17283018 -0.22055206 -0.030088479 -0.07550315 -0.026532788 -0.39939052 -0.10659209 0.024444522 -0.07541684 0.055374168 0.20768452 0.37689602 -0.17160983 -0.32094023 -0.05665893 -0.18854465 0.31799918 -0.12738664 0.18816625 0.3254336 -0.16611207 0.25273433 -0.03124664 0.11345073 0.15530844 -0.3456066 -0.19356902 0.15911525 0.055443354
10 -0.19307631 0.22080757 -0.42835933 -0.23150764 -0.10699027 -0.0053049303 -0.1116498 -0.015330904 -0.26329327 -0.0816024 -0.06960958 -0.06333869 0.0828101 0.1628898 0.34794617 -0.21808869 -0.3859377 0.0043955045 -0.16484393 0.34465685 -0.025843468 0.20772819 0.31068134 -0.20245866 0.17078035 0.012381194 0.14858988 0.1855046 -0.23103891 -0.14573497 0.015698394 -0.0050873165
98 -0.05245128 0.09084495 -0.38544333 -0.009492151 -0.09307816 0.048041955 -0.09782269 0.051153652 -0.26170656 0.09708204 -0.09323305 -0.051586423 0.018439393 0.21793377 0.3512828 -0.042650323 -0.4847833 0.020214297 -0.051079337 0.43931165 0.015265936 0.2285252 0.3758345 -0.19336955 0.09062835 -0.07899486 0.15238081 0.31281546 -0.13202791 -0.16663978 0.0094350865 -0.022437042
38 -0.35726014 0.014562245 -0.3635063 -0.41793385 0.09446393 0.08160542 -0.08010819 -0.017583087 -0.01479303 0.0053590992 -0.23878427 -0.02994614 0.109486654 0.11379925 0.36093238 -0.37737608 -0.46638116 0.029391566 -0.15533352 0.3539522 0.04353257 0.13833053 0.35131958 -0.2707989 0.08299837 0.0370981 0.2880629 0.3824048 0.02210471 0.031385873 -0.18688515 -0.021908928
64 -0.15942073 0.29017922 -0.4867339 -0.15869242 -0.15220375 0.019919228 -0.061595608 -0.045239825 -0.36575305 -0.040679965 0.005664369 -0.062602304 0.077407256 0.20257734 0.34896454 -0.13636956 -0.3905484 -0.05686607 -0.13076997 0.3060622 -0.10219617 0.1956835 0.31411767 -0.17439964 0.1886372 -0.031396147 0.14886737 0.21384874 -0.27761886 -0.14748941 0.11517131 0.07403733
47 -0.32285842 0.061197832 -0.4130344 -0.3695266 0.034146555 0.07161985 -0.075007305 0.027012981 -0.031408135 -0.041892666 -0.21495664 -0.019785572 0.107227705 0.12203962 0.36881042 -0.2841398 -0.40328705 0.08400175 -0.12423303 0.39193845 0.07931004 0.13757263 0.37172318 -0.2556123 0.108983494 0.05328951 0.25337237 0.33996546 0.044303015 -0.044152796 -0.1447963 0.012266211
128 -0.04075025 0.093621664 -0.35588267 0.056758996 -0.062652245 0.049951006 -0.107953615 0.04383776 -0.29250294 0.13314979 -0.07586241 -0.03231452 -0.02189368 0.20342506 0.34336868 -0.024805563 -0.5139451 0.0028133364 -0.02909485 0.46877062 0.017430117 0.22312604 0.3533895 -0.17397803 0.08048877 -0.06861603 0.15035707 0.32758352 -0.16727754 -0.16501051 0.018932471 -0.016802672
123 -0.05327136 0.1427265 -0.3796071 0.07677209 -0.13311821 0.026644178 -0.09845067 0.06363057 -0.29496098 0.106605254 -0.051910255 -0.061479103 -0.019668814 0.21696192 0.37986648 -0.01937571 -0.4816011 0.009307663 -0.054890208 0.45194408 0.0026549117 0.2108174 0.3866685 -0.1686896 0.13220926 -0.069262505 0.1353604 0.268062 -0.21396047 -0.18897204 0.06473333 -0.0021003915
60 -0.22037481 0.104679465 -0.4059987 -0.25051108 -0.059938174 0.038040895 -0.1151234 0.06643698 -0.11700367 -0.058136363 -0.1495872 -0.054487202 0.06481148 0.14294404 0.37424716 -0.23614436 -0.41191337 0.017275868 -0.18450819 0.4365327 -0.008632035 0.11334267 0.3592805 -0.17727776 0.12645435 0.0262814 0.24175309 0.24799336 -0.077244595 -0.13197698 -0.05351947 -0.0034574864
12 -0.17510076 0.023092711 -0.35211772 -0.25402832 0.11008106 0.15201816 -0.06166921 -0.037001215 -0.09534604 0.16107856 -0.15514512 0.0031303398 0.11949928 0.16799471 0.28607187 -0.17536384 -0.613057 0.001050665 -0.03607721 0.37647235 0.059000734 0.25842327 0.2522535 -0.25033492 0.0037014193 -0.09304039 0.32038903 0.4566353 0.048364516 0.06585585 -0.14218178 -0.026084676
44 -0.026556231 0.13332918 -0.37745 0.044870377 -0.15172157 0.016018854 -0.12593038 0.021473592 -0.33037013 0.07226292 -0.020874975 -0.0709913 -0.0013022694 0.23165499 0.3690555 -0.03578984 -0.46383658 0.004236155 -0.09058486 0.41282475 -0.013319985 0.26889023 0.36301982 -0.1881478 0.12923048 -0.05966616 0.11353208 0.26281345 -0.21675034 -0.19738886 0.07143491 0.00648324
74 -0.19081497 0.23267834 -0.4561687 -0.23515385 -0.121563114 0.052775025 -0.08970036 -0.054831043 -0.34936917 -0.027562806 -0.008744471 -0.06503632 0.082356036 0.19450091 0.31415176 -0.18026188 -0.43139368 -0.04570445 -0.15450825 0.28131044 -0.07408792 0.21515736 0.27252996 -0.18496013 0.17258565 -0.021142215 0.1943741 0.22603522 -0.24662012 -0.09695113 0.0822299 0.042154986
96 -0.11297185 0.32463562 -0.4298225 -0.07134715 -0.24159499 -0.012820411 -0.080857225 -0.018055331 -0.4268584 -0.047836043 0.045520473 -0.0859258 0.051618684 0.22021936 0.35937077 -0.10788761 -0.36998028 -0.06824964 -0.13652089 0.3313408 -0.15593836 0.25268784 0.3336255 -0.14082305 0.20458975 -0.05202155 0.09800103 0.17575799 -0.38551614 -0.20801589 0.18348096 0.06284945
14 -0.24115077 0.13107021 -0.41813004 -0.29873344 -0.031607684 0.07689007 -0.086151496 0.026161052 -0.12614582 -0.046138126 -0.14014785 -0.03885074 0.11462276 0.14542598 0.35948074 -0.27492905 -0.39332333 0.040151916 -0.14711711 0.39522552 0.016975146 0.15682837 0.32946283 -0.20836776 0.13632289 0.03276419 0.23566607 0.2906376 -0.079258464 -0.08690497 -0.065093294 0.018562686
13 -0.14084305 0.085642636 -0.4116447 -0.08819381 -0.036670413 0.048065573 -0.078184836 0.0130829895 -0.24330069 0.0993087 -0.08124839 -0.051654417 0.022173597 0.16005504 0.35097682 -0.09682938 -0.52418554 0.005010276 -0.0404569 0.39279637 0.046129417 0.20092493 0.30611807 -0.23570922 0.0893956 -0.058791243 0.22875987 0.3526761 -0.09634239 -0.10017329 -0.021063792 0.021667903
120 0.023873845 0.117889084 -0.36372724 0.1580881 -0.13541126 -0.02071858 -0.11263325 0.0901669 -0.34086952 0.104092665 -0.039861716 -0.070630305 -0.04434807 0.22131212 0.37003142 0.006683599 -0.5058878 0.022590375 -0.040505596 0.47386906 0.0091630565 0.24999791 0.40204132 -0.18088341 0.13511518 -0.07742471 0.12977481 0.28739828 -0.25093818 -0.2401941 0.09909933 -0.010102219
61 -0.19768783 0.43306246 -0.5239332 -0.28607938 -0.28849006 -0.035548687 -0.06830559 -0.06751665 -0.49143684 -0.16602753 0.07843189 -0.084375024 0.13869005 0.18695506 0.3409171 -0.25070256 -0.29488194 -0.076757446 -0.23738952 0.2255837 -0.19669664 0.18081132 0.23619974 -0.167567 0.28666756 -0.0435527 0.1206242 0.07546343 -0.462214 -0.17250364 0.21601705 0.09013654
7 -0.2469254 -0.073113814 -0.33219907 -0.39939877 0.20739685 0.20480949 -0.07601811 -0.055834297 -0.017917179 0.15530494 -0.23794964 0.041477695 0.15312348 0.1352006 0.28713349 -0.24895574 -0.63467616 0.017933201 -0.049520593 0.38699165 0.099642046 0.25006318 0.24307415 -0.3316832 -0.011523433 -0.07189749 0.3880637 0.5231056 0.15113403 0.12976824 -0.23075049 -0.03246347
9 -0.18314652 0.3116037 -0.47953156 -0.24594605 -0.16381204 0.046543904 -0.07373963 -0.016393842 -0.37229854 -0.048377194 0.019877093 -0.048441872 0.12009431 0.17438972 0.3553166 -0.19775642 -0.34535044 -0.054313246 -0.12335504 0.309205 -0.10785262 0.16520764 0.2616481 -0.17515285 0.21953873 -0.019574549 0.17057693 0.23533966 -0.29258248 -0.1418181 0.0812297 0.04768295
68 -0.058568027 0.36178783 -0.5047928 -0.05063722 -0.30726007 -0.049840853 -0.09752226 -0.010468859 -0.53673923 -0.07273247 0.120620675 -0.07478743 0.027704583 0.2386181 0.3910287 -0.067772366 -0.35450792 -0.08439723 -0.15121336 0.31085008 -0.13974005 0.24669218 0.31549695 -0.1580006 0.2518765 -0.05067085 0.10318395 0.13556544 -0.45193234 -0.26820704 0.22928907 0.06973575
56 -0.22795963 0.17488335 -0.44503647 -0.23978887 -0.08080011 -0.0014986056 -0.09591965 0.009707736 -0.23843378 -0.04769447 -0.07298797 -0.046850193 0.08673731 0.14804886 0.37739646 -0.24472621 -0.34880066 0.029844353 -0.16869251 0.35064954 -0.029465092 0.16294645 0.33715823 -0.19410346 0.14271902 0.017531624 0.18064111 0.22897162 -0.18344286 -0.14524665 -0.0057046977 0.03035146
4 -0.2807469 -0.05014165 -0.33303383 -0.35606503 0.15465848 0.15282208 -0.07155643 -0.03713881 -0.030117238 0.13425314 -0.22151461 0.02322947 0.13887224 0.118930146 0.30782917 -0.24290802 -0.60652655 0.018442836 -0.03339322 0.38967666 0.09759416 0.1807782 0.26630965 -0.31089357 0.009208621 -0.043252766 0.33467466 0.46231404 0.12856832 0.096262746 -0.19597179 -0.04400786
108 -0.012988944 0.08843594 -0.3548721 0.08905444 -0.07465063 0.0523235 -0.12131529 0.036939282 -0.32434726 0.1740407 -0.04310273 -0.035636473 -0.019421589 0.23065802 0.34764683 0.0013360898 -0.5280908 0.01807507 0.0128883645 0.4542592 0.055925425 0.24515194 0.37402597 -0.1869401 0.06343767 -0.0935263 0.15131529 0.33315668 -0.15712254 -0.17113481 0.042297374 0.0013079268
106 -0.21604581 0.08987028 -0.4173021 -0.27627605 -0.05176381 0.068993635 -0.08762695 0.020021478 -0.15120065 -0.04957987 -0.1655516 -0.04635588 0.081536755 0.14727075 0.36155105 -0.28199995 -0.39743224 0.040861752 -0.18078804 0.37928024 -0.005213276 0.14856151 0.35161722 -0.22152431 0.1232895 0.028261568 0.23326659 0.26744947 -0.086459145 -0.08396489 -0.048335563 0.011319753
69 -0.19726774 0.32035074 -0.4500803 -0.2091642 -0.17361422 -0.0052058143 -0.099418685 -0.043374766 -0.35049257 -0.09368532 0.012484456 -0.07469826 0.07915788 0.21338138 0.36515477 -0.1993264 -0.32240847 -0.048359178 -0.18850978 0.30818763 -0.13700898 0.21548544 0.2909457 -0.17818618 0.22661015 -0.02308659 0.119590536 0.1458123 -0.32590774 -0.16076413 0.10098231 0.050980065
63 -0.19461776 0.0828167 -0.38598228 -0.19759943 -0.0377795 0.05528691 -0.101137176 0.03309311 -0.13338889 0.01463211 -0.107512966 -0.024531588 0.05501362 0.16515984 0.34784135 -0.18126146 -0.42659226 0.04233598 -0.1241646 0.43824422 0.020963212 0.16171151 0.33340135 -0.21025877 0.1372757 0.0012639891 0.22721004 0.30166253 -0.06477255 -0.11555045 -0.043129694 0.014777641
93 -0.16477236 0.24497823 -0.45562503 -0.14390218 -0.17015097 -0.00017388594 -0.10189589 -0.01909984 -0.35564965 -0.0054335915 -0.015954642 -0.064585045 0.07238831 0.21064395 0.36179128 -0.16972354 -0.41767332 -0.07151892 -0.10654208 0.30933106 -0.10733584 0.22989357 0.25770062 -0.19667703 0.18878408 -0.07469079 0.12752177 0.19494335 -0.29566526 -0.12445414 0.081062 0.019393636
73 -0.25382146 0.29434696 -0.45684773 -0.3774579 -0.14536312 0.005799508 -0.06321768 -0.070083536 -0.32067657 -0.14437433 -0.041662693 -0.07570879 0.13654727 0.17220831 0.32264897 -0.32484612 -0.3401813 -0.027832083 -0.27392548 0.24903023 -0.12339417 0.20269558 0.2576792 -0.20284578 0.21244866 0.0076658237 0.21639945 0.16680604 -0.29143026 -0.0951928 0.055130333 0.050655942
58 -0.09048194 0.22752684 -0.39191562 -0.045872584 -0.12238299 0.028698552 -0.10919287 -0.02840711 -0.34677935 0.034385454 0.016582932 -0.089641094 0.05504256 0.2119906 0.34951845 -0.09577663 -0.46199462 -0.06463739 -0.06456804 0.3768675 -0.08611752 0.21507582 0.33162695 -0.19398119 0.15671282 -0.046569586 0.16022958 0.24636503 -0.28785074 -0.17254764 0.11060706 0.024582844
