128 32
2 0.14814906 0.24012037 -0.01457653 -0.20287886 0.35249823 0.33163646 -0.00026385422 0.3777933 -0.07063591 0.059067655 0.088754505 -0.10727655 0.14690082 -0.12223856 0.052590482 -0.0056778924 -0.21682657 -0.22779939 0.32970273 0.04228263 0.015259706 -0.14482124 -0.20706019 0.41997513 -0.31277284 0.11109697 -0.06220686 0.19825846 0.3566997 0.00033745432 -0.16624999 0.015069958
126 0.119292915 0.22776257 -0.057686932 -0.19341725 0.29187337 0.38727278 -0.006521771 0.37963855 -0.008891593 0.1105117 0.092902325 -0.063749574 0.14221855 -0.11514151 0.09025444 -0.017438814 -0.19600089 -0.15406802 0.40476695 0.086450435 0.032459773 -0.13149051 -0.18148844 0.48898157 -0.26383403 0.18297952 -0.02211969 0.30251268 0.1737903 0.07116925 -0.13746244 0.03006182
57 0.10947887 0.22180435 -0.032418292 -0.1907163 0.316552 0.3580009 0.009309912 0.39185643 -0.0057502477 0.06101222 0.046523202 -0.08257681 0.17383263 -0.106727 0.08709297 0.04252781 -0.21418537 -0.19607419 0.40842605 0.08110983 0.04353356 -0.13614683 -0.19927225 0.4805021 -0.28974497 0.17365038 -0.046439134 0.2816917 0.21685475 0.024223479 -0.17698932 0.02411273
3 -0.017240075 0.06104809 -0.08660262 -0.22185247 0.2668302 0.43447655 -0.011930547 0.3569405 -0.01563265 0.162924 0.1942169 -0.06942904 0.14560777 -0.07379657 0.045771558 -0.11798096 -0.2266633 -0.13254753 0.48943076 0.064455085 0.16800892 -0.028395338 -0.21388777 0.42567274 -0.2054594 0.2627248 0.08402872 0.2925676 -0.018337123 0.06445162 0.084965974 0.13944912
28 -0.03980422 0.07248531 -0.17737526 -0.23458497 0.25401124 0.46445498 0.018152628 0.41458952 -0.018917104 0.14331624 0.1316114 -0.014947274 0.1447975 -0.11460735 0.052312735 -0.065534174 -0.17864162 -0.099564694 0.54110634 0.11051224 0.1780079 -0.011813163 -0.21064748 0.433558 -0.10891236 0.28610605 0.09620661 0.3606702 -0.08452928 0.08899699 0.06648054 0.15333201
12 -0.034376234 0.044047557 -0.10624293 -0.24749362 0.2916212 0.4667309 -0.024009561 0.3623629 -0.022954786 0.18350887 0.15946427 -0.049853545 0.15006205 -0.072137 0.02179599 -0.124103636 -0.21709916 -0.11736802 0.5085122 0.07855008 0.16038811 -0.014285838 -0.22606814 0.41784877 -0.1651368 0.26128775 0.09420476 0.2847783 -0.059552945 0.071758874 0.100906916 0.14555329
9 0.10577941 0.22593288 -0.00997234 -0.19507787 0.25430998 0.39298898 -0.015368609 0.3337392 0.02452633 0.15370168 0.08658289 -0.078964606 0.18344538 -0.112658694 0.13497913 -0.018143306 -0.2460827 -0.10978215 0.43018448 0.11893664 0.06407023 -0.17240193 -0.17182508 0.42827946 -0.30206412 0.19394822 -0.020809378 0.39705133 0.11718901 0.049544193 -0.077913575 0.037452724
112 0.13599163 0.15477379 0.15822682 -0.22662753 0.299184 0.34241015 -0.13629422 0.23754668 -0.09384116 0.24202335 0.27923578 -0.20487976 0.09987386 -0.022179106 -0.007862594 -0.2004816 -0.34992772 -0.24298534 0.37617442 0.0042848927 0.067899205 -0.23136196 -0.22143978 0.33735508 -0.39886668 0.051388834 0.07633728 0.13847992 0.36540624 -0.051828086 0.020399624 0.035747953
108 0.1593277 0.25107607 -0.034164764 -0.19430992 0.29875246 0.35856542 0.007630349 0.38989276 -0.030108184 0.067206755 0.029191013 -0.06031653 0.15918411 -0.09293744 0.116081774 0.05446958 -0.14812392 -0.20095901 0.34100974 0.034267195 -0.015775455 -0.13935825 -0.20938297 0.49417308 -0.3282266 0.15250435 -0.107157275 0.2361764 0.26620016 0.033488475 -0.20866396 0.033820253
74 0.09626082 0.101219006 0.019157507 -0.22301656 0.38360927 0.29910576 -0.08824326 0.32608306 -0.1567016 0.16419943 0.2824911 -0.21259536 0.08988839 -0.047680847 -0.026254829 -0.17079133 -0.27192464 -0.31283572 0.38064468 -0.08347533 0.08987322 -0.088334374 -0.26777977 0.40801916 -0.29329863 0.0721362 0.07495399 0.0143719055 0.41450247 -0.027055778 -0.025567045 0.081125796
33 0.05742495 0.154894 -0.1628251 -0.19430366 0.41073743 0.34386683 0.018385012 0.48827514 -0.14482771 -0.02073749 0.049302403 -0.04672471 0.098946914 -0.12261518 0.017409159 -0.008632349 -0.044906285 -0.2713881 0.37197435 -0.045644477 0.07780152 0.05005788 -0.27435645 0.48528588 -0.14289084 0.1735674 -0.03208299 0.12075173 0.284986 0.04908958 -0.1722631 0.10388929
58 0.109204255 0.108578786 0.07023709 -0.2513012 0.35704002 0.34601834 -0.13832805 0.29636493 -0.14325958 0.22412904 0.34170702 -0.13691089 0.073136255 0.009422202 -0.06916489 -0.21633932 -0.2926895 -0.28997004 0.38615 -0.051541302 0.08753296 -0.15059568 -0.2705683 0.35382596 -0.31463978 0.03826934 0.1027522 0.066456035 0.39799199 -0.024863034 0.07688597 0.09263925
55 -0.056132633 0.03133785 -0.15769638 -0.23114863 0.23855326 0.45837617 -0.015546781 0.3936756 0.0056534032 0.18039961 0.20581435 -0.039587643 0.17382164 -0.07562876 0.06856071 -0.09995867 -0.2360966 -0.09141731 0.5280339 0.08332859 0.17399201 -0.018088374 -0.20962717 0.4218789 -0.16967027 0.25075325 0.106252044 0.31230897 -0.07465886 0.07731368 0.084512256 0.14062789
18 0.05470664 0.14459616 0.0048285364 -0.24828732 0.3232931 0.38245603 -0.054702345 0.30000952 -0.0947517 0.19593753 0.26197407 -0.13132225 0.1137645 -0.024478996 0.016111283 -0.13665727 -0.22707713 -0.20000194 0.42714396 0.007681275 0.08934123 -0.096568264 -0.2604859 0.3826393 -0.25672582 0.12193667 0.09158243 0.14413121 0.2247446 -0.013556911 0.013276653 0.06934178
14 -0.04728736 0.07453869 -0.18166459 -0.21401158 0.24559939 0.47311762 0.0016273631 0.4220861 0.0071559884 0.14497833 0.14347017 -0.034342937 0.18019898 -0.10905399 0.07129393 -0.07141241 -0.21655348 -0.074141204 0.531407 0.10430224 0.1993531 -0.018440086 -0.18836969 0.4547696 -0.117075175 0.29345787 0.08886535 0.34393367 -0.13351187 0.08884732 0.10105625 0.12206579
23 0.11325231 0.21743686 -0.014723507 -0.2097017 0.32449773 0.37874937 -0.017878434 0.39455596 -0.003645348 0.077173404 0.08626076 -0.08776602 0.16539335 -0.09852135 0.08289381 -0.016330192 -0.20877287 -0.19696757 0.36522967 0.047662396 0.04793682 -0.17185384 -0.18308625 0.45279533 -0.30886063 0.13113137 -0.039919637 0.26593572 0.26545894 0.008686722 -0.14280091 0.04044171
87 0.123215 0.14449142 0.08622837 -0.26117295 0.29699415 0.3912646 -0.09989286 0.30982322 -0.08059371 0.23587987 0.2766784 -0.12733473 0.09723124 -0.014412432 -0.010653771 -0.15630879 -0.31005567 -0.22120492 0.41153428 0.036026206 0.04183472 -0.17528188 -0.2433786 0.37505496 -0.33527148 0.0859992 0.1082624 0.1668335 0.32921496 -0.055419512 0.058013204 0.06625233
54 0.14312547 0.14647432 0.14031053 -0.26808634 0.32819304 0.34650424 -0.14893377 0.27165896 -0.104940586 0.2609837 0.36021745 -0.21228622 0.089919604 -0.022276044 -0.027018286 -0.21997498 -0.36480197 -0.2687678 0.3924926 -0.028014395 0.055308502 -0.2088086 -0.24211025 0.33313155 -0.386593 0.03304367 0.11183984 0.08940614 0.40846974 -0.061701536 0.042089455 0.05561301
59 0.011687232 0.13136068 -0.17132834 -0.19579588 0.36600786 0.39492664 -0.018021714 0.44961905 -0.11364428 0.041206278 0.15614639 -0.05369212 0.10448858 -0.08096576 0.020331785 -0.06624144 -0.122342914 -0.19742057 0.41747692 -0.012944301 0.10279793 0.032714494 -0.28226474 0.42008412 -0.14550914 0.18356183 0.041816 0.13335653 0.17980927 0.035822943 -0.046861928 0.13124341
37 0.10610102 0.10419443 0.045463946 -0.23268339 0.3672073 0.3597044 -0.11565354 0.28296107 -0.12247296 0.21823469 0.30115294 -0.18312506 0.0844886 -0.006353579 -0.055539984 -0.21384627 -0.2887045 -0.30223456 0.3804176 -0.058177054 0.07552168 -0.12762544 -0.26972845 0.35043395 -0.3362811 0.072940506 0.08681306 0.026212247 0.3953751 -0.0187217 0.053145677 0.07496578
47 0.08725437 0.22490552 -0.10045908 -0.15458211 0.3939338 0.36373073 0.009390485 0.44045293 -0.07422509 0.02704809 0.036694285 -0.08667913 0.121819735 -0.11838647 0.060122665 0.00488487 -0.110295966 -0.21576414 0.35165802 0.020297758 0.053915385 -0.01953258 -0.2408322 0.49047762 -0.22857262 0.16186632 -0.05215004 0.16079186 0.26270574 0.07980375 -0.20917009 0.061979868
4 0.13303821 0.23168555 -0.032539908 -0.19422142 0.32114208 0.34779596 -0.028199045 0.39413753 -0.040743686 0.092650674 0.08173311 -0.1033779 0.14204788 -0.08069076 0.081259385 0.0018633443 -0.20552203 -0.21507561 0.35069922 0.052346095 0.01842681 -0.1458606 -0.20156504 0.4600986 -0.3031201 0.111580536 -0.043773074 0.217551 0.30550006 0.02086425 -0.17906347 0.029881662
120 0.17912531 0.29934546 0.04199884 -0.2104965 0.29549998 0.32970527 -0.019482821 0.3854264 -0.030171972 0.0905703 0.092079386 -0.08253065 0.16281274 -0.088551715 0.10965955 0.04622041 -0.21460404 -0.2023265 0.36043808 0.07897467 -0.0174394 -0.22200957 -0.20489044 0.43770254 -0.36171278 0.08899069 -0.07122056 0.2781102 0.365544 -0.02640753 -0.19551976 -0.0040074848
106 0.0764566 0.18669705 -0.1413747 -0.20012513 0.30767885 0.38163435 0.0054699522 0.42841935 -0.07625225 0.094021946 0.078070104 -0.025108404 0.11683937 -0.09234305 0.06007003 -0.0043620947 -0.12617958 -0.21402138 0.41210264 0.022499444 0.0665618 -0.038802054 -0.23889323 0.47978702 -0.21566932 0.15317026 -0.0075135534 0.21921553 0.1863559 0.057031117 -0.1326288 0.07295934
52 0.03000464 0.07160875 -0.033774663 -0.24399677 0.27667743 0.398618 -0.051172066 0.3266966 -0.054968007 0.22344156 0.25932032 -0.09689944 0.13146432 -0.036361862 -0.0037116557 -0.16377015 -0.28676113 -0.18647915 0.454849 0.035119724 0.09666184 -0.094450384 -0.22041838 0.37510434 -0.25581127 0.16076887 0.12055938 0.24090953 0.1522406 0.019855052 0.07339241 0.123187385
10 0.069774374 0.14057596 -0.068632185 -0.20225193 0.34947145 0.4021413 -0.042437676 0.37511572 -0.10579332 0.12079798 0.13914722 -0.077164695 0.11634734 -0.08871596 -0.02472803 -0.073872365 -0.14359838 -0.22025006 0.4266921 -0.014224476 0.09032332 -0.012660133 -0.26396924 0.43505526 -0.21322243 0.16348143 0.04086446 0.12936646 0.23012725 0.04801231 -0.059906434 0.06784157
119 0.051139377 0.14758697 -0.14178126 -0.20792428 0.39621875 0.38859478 -0.03953156 0.44462153 -0.12507501 0.0774606 0.12991622 -0.0917669 0.06648616 -0.090799704 -0.015755584 -0.057361275 -0.11612087 -0.24921994 0.36961094 -0.037945934 0.07857517 0.0019130333 -0.25717503 0.46500546 -0.17528121 0.1687302 -0.005167005 0.0764159 0.26427194 0.07575057 -0.127105 0.0955045
104 0.101383835 0.1292726 0.012202752 -0.23337762 0.35914716 0.3512431 -0.10758501 0.31323746 -0.114617094 0.20625563 0.2646242 -0.15649165 0.119986326 -0.036724932 -0.028905489 -0.1625963 -0.23310815 -0.2595089 0.38518846 -0.034895103 0.09075314 -0.10054426 -0.25473168 0.39696828 -0.29180077 0.060526285 0.060704995 0.09329804 0.33279565 -0.008739901 -0.0107968375 0.07687989
92 -0.08356999 0.064129926 -0.19713941 -0.2126318 0.2799126 0.44652256 0.030937592 0.38149998 -0.0026588812 0.16588657 0.1778111 -0.014197884 0.17801893 -0.086552836 0.07824835 -0.094685875 -0.17917566 -0.14583881 0.5611886 0.08210394 0.21187702 0.06554276 -0.2082527 0.45378533 -0.13340402 0.29627517 0.11088836 0.30328897 -0.11273941 0.098286025 0.04623413 0.16376743
98 0.078294165 0.22122172 -0.11670129 -0.19367641 0.3148232 0.4073317 0.05321307 0.45177826 -0.020124573 0.03417931 0.0012698477 -0.037760496 0.17171873 -0.13822268 0.090680756 0.023492996 -0.14695944 -0.14774215 0.40083143 0.110293165 0.042714693 -0.072350204 -0.18278298 0.4953137 -0.22868894 0.20569506 -0.048761144 0.35043097 0.1396696 0.070072874 -0.15853861 0.05694576
121 -0.0897044 0.04462813 -0.22923969 -0.201793 0.2895142 0.4955102 0.0362782 0.43217766 -0.030370781 0.14509049 0.15285595 0.015209114 0.18440917 -0.08538048 0.052920073 -0.07614923 -0.16050942 -0.14079887 0.5396897 0.06620981 0.19367936 0.05679664 -0.23010099 0.43547112 -0.08423011 0.2856726 0.11812765 0.32513976 -0.11132171 0.06708503 0.106930465 0.1752798
123 -0.047871836 0.045615785 -0.104430385 -0.2307299 0.24067873 0.44937003 0.00025200157 0.35600346 0.017543359 0.16127527 0.18110745 -0.06691819 0.15673485 -0.06896108 0.067824066 -0.12572835 -0.26043457 -0.1093503 0.52626735 0.0779539 0.2043889 -0.050739624 -0.21039909 0.42107916 -0.16708943 0.27034947 0.07868611 0.3268735 -0.07892745 0.07659543 0.10451406 0.16066946
24 0.17087394 0.17151263 0.06943531 -0.22922209 0.3495418 0.3130822 -0.12672198 0.30173752 -0.13607524 0.17030582 0.25867656 -0.18587366 0.07442582 -0.045148797 -0.020756848 -0.16468193 -0.28376496 -0.29170647 0.34895012 -0.06876618 0.019967688 -0.18294477 -0.2687073 0.4086258 -0.3726833 0.039784152 0.027094882 0.08038579 0.43626106 -0.031179376 -0.094574146 0.03833278
66 0.12716718 0.21249415 -0.11650048 -0.2050953 0.40947545 0.3226223 -0.015944863 0.45252785 -0.1244556 0.0122923795 0.05180908 -0.055102836 0.10694712 -0.117466845 0.010150704 0.024045322 -0.10046748 -0.26038143 0.3522486 -0.039518267 0.02284003 -0.0352271 -0.25324845 0.4740186 -0.21591459 0.1314657 -0.04381732 0.11366812 0.3475152 0.0330589 -0.24335963 0.06623341
81 -0.011942118 0.049048815 -0.10470844 -0.21403329 0.30011624 0.44144857 -0.03374292 0.33225167 -0.016108066 0.1821139 0.18734957 -0.11890174 0.15075763 -0.060897257 0.016679317 -0.13034025 -0.2602161 -0.14604706 0.4839167 0.06599257 0.13290417 -0.054631352 -0.20712489 0.43340307 -0.19367622 0.21759808 0.06692358 0.25481355 0.036905967 0.070032805 0.06344029 0.120419286
42 0.031661905 0.16993925 -0.21515997 -0.19582103 0.4007587 0.41500106 0.015347415 0.44933864 -0.13901082 0.00586655 0.07846366 -0.07899446 0.109295204 -0.13216583 0.022808006 -0.034013756 -0.055398796 -0.20063312 0.41460976 -0.05302985 0.07955722 0.057445068 -0.23559126 0.46445912 -0.14369357 0.21518494 -0.013944455 0.14692767 0.1830512 0.09274292 -0.13553832 0.10447978
21 -0.036753774 0.06889456 -0.12070797 -0.23203051 0.22841752 0.45187724 -0.0032368444 0.37275162 0.0095949145 0.17679124 0.15172398 -0.04223193 0.18382432 -0.09969827 0.082592845 -0.10862123 -0.22623843 -0.105681576 0.53100747 0.10854938 0.20278017 -0.0605123 -0.19902089 0.43986323 -0.18565026 0.26338178 0.08291305 0.3368293 -0.071331464 0.034423105 0.05948909 0.13750839
116 -0.077119775 0.030029831 -0.21551865 -0.24295731 0.2880658 0.45008263 -0.029840216 0.3942378 -0.03913668 0.14973374 0.1769882 -0.010092833 0.13863595 -0.07541741 0.012860207 -0.110573165 -0.15565097 -0.13335934 0.52916396 0.03620287 0.18985255 0.025177468 -0.26171845 0.4458511 -0.123359144 0.2725551 0.084796175 0.23885442 -0.06946143 0.08557157 0.08003293 0.19692232
31 -0.0025502585 0.116847485 -0.25143662 -0.18620189 0.39650765 0.41040754 -2.3819232e-05 0.48766702 -0.09974922 0.009466674 0.08099831 -0.021728532 0.111324005 -0.123273335 0.0072843744 -0.008380667 -0.008554904 -0.19728515 0.42762446 -0.052166734 0.14667189 0.076451614 -0.30449644 0.5272081 -0.0804311 0.20768474 -0.0046478207 0.13903704 0.12458322 0.122485235 -0.12030568 0.124072194
125 0.16445936 0.2644806 0.033537515 -0.20660506 0.3186627 0.36405903 -0.022284655 0.34274358 -0.03227103 0.11998042 0.116680376 -0.08110594 0.17486005 -0.08198699 0.08885194 -0.013316573 -0.25525472 -0.21429129 0.340877 0.090464 -0.0051365406 -0.19714174 -0.1561304 0.41877884 -0.34817418 0.09524384 -0.021623392 0.28788388 0.3453189 -0.01360064 -0.16966341 0.025506306
89 0.048309617 0.18837284 -0.17893824 -0.15956753 0.42100763 0.34768796 0.020333229 0.4761267 -0.13547638 -0.011456854 0.06297405 -0.057000674 0.08679059 -0.12677836 0.023484796 -0.012590039 -0.06364209 -0.26473257 0.35048875 -0.029476358 0.08227238 0.048038643 -0.27832842 0.47914773 -0.16416374 0.16516237 -0.04210053 0.11265498 0.2581898 0.07220895 -0.16404073 0.074565254
15 0.12955022 0.14985706 0.047886092 -0.24226664 0.36689782 0.3471648 -0.094287135 0.30484438 -0.13919182 0.18663566 0.27321625 -0.16871642 0.09474185 -0.040338073 -0.022916133 -0.16624579 -0.2651917 -0.26262417 0.3723201 -0.033536516 0.059769556 -0.13983187 -0.24541564 0.4033937 -0.32359603 0.039378062 0.0664514 0.0870989 0.39743084 -0.03382726 -0.009272274 0.052611604
27 0.15801275 0.28975818 -0.027810756 -0.17142986 0.29982287 0.37489036 0.044478774 0.38974112 0.011027607 0.040534876 -0.0010274262 -0.034007043 0.16827378 -0.13057733 0.13755299 0.06961097 -0.15710269 -0.20579517 0.34740362 0.10764004 -0.010175136 -0.17085549 -0.16822971 0.48366833 -0.3193579 0.14846908 -0.08712793 0.34063864 0.26411822 0.070297025 -0.24685386 0.022357978
51 0.030895514 0.0878046 -0.07479503 -0.26253697 0.31154662 0.4241632 -0.045664344 0.35640052 -0.05482188 0.19443473 0.22937022 -0.085604474 0.1635672 -0.05965227 0.004124767 -0.1319891 -0.2357007 -0.16818444 0.46916398 0.051704247 0.12330021 -0.062139004 -0.22877543 0.39338642 -0.21299216 0.17806782 0.10639959 0.24864718 0.07733647 0.026287952 0.084477864 0.13844602
13 0.11686949 0.11672167 0.023190603 -0.24121301 0.3573606 0.35279712 -0.09367666 0.29688978 -0.08798906 0.20556885 0.24676052 -0.17351149 0.12369048 -0.049611762 -0.0162648 -0.17609994 -0.27356574 -0.25505996 0.3816729 -0.038275044 0.074063204 -0.15344581 -0.24705696 0.40149888 -0.33957785 0.06100478 0.06936262 0.10752679 0.3493172 -0.027125841 -0.011454214 0.08999694
6 0.15464394 0.12566629 0.15023535 -0.27028984 0.30946705 0.3243738 -0.11152493 0.23745094 -0.110071376 0.24910922 0.357136 -0.23059928 0.098419465 -0.011753893 -0.042915355 -0.23916945 -0.347395 -0.2685055 0.39388496 5.9126833e-05 0.044250436 -0.22858582 -0.2704825 0.3518933 -0.36692873 0.043218456 0.09485517 0.09253933 0.41476837 -0.06064154 0.06414706 0.07065689
5 0.053946905 0.0928253 -0.04749504 -0.20372652 0.24334244 0.43167537 -0.056438565 0.3389685 0.03200531 0.1978024 0.15275554 -0.09885072 0.1698717 -0.076061115 0.05961054 -0.09819198 -0.26033422 -0.09481399 0.4576629 0.07533764 0.14811268 -0.12901792 -0.17486268 0.44036853 -0.25766724 0.21249014 0.05954138 0.34930974 0.063465096 0.05974606 0.05031777 0.067243576
70 -0.03563577 0.0772082 -0.15965602 -0.24194221 0.31374598 0.44166958 0.013635642 0.42179623 -0.055841655 0.15470041 0.1827095 -0.012598008 0.15759465 -0.08551172 0.025339685 -0.09980475 -0.1735682 -0.16558923 0.49918145 0.050243564 0.14224538 0.057325687 -0.23054573 0.44405487 -0.1301441 0.24699707 0.08907431 0.229918 -0.023351315 0.05775967 0.04858714 0.1565228
111 0.12402759 0.23916574 -0.047365993 -0.19618335 0.2437825 0.39232844 0.0073356335 0.3592517 -0.032855194 0.12951952 0.09341392 -0.041014027 0.18355735 -0.08419977 0.099192835 0.023845077 -0.20721406 -0.16370769 0.43992713 0.10579771 0.04214697 -0.16987573 -0.1792781 0.43185925 -0.3067542 0.14477086 -0.035664476 0.33920115 0.19912955 0.014731202 -0.11503277 0.05125604
69 0.14047126 0.13670881 0.06889544 -0.26301137 0.33580837 0.36188135 -0.125709 0.2847061 -0.12711155 0.22488745 0.29037386 -0.16216469 0.10249601 -0.00852404 -0.024616214 -0.17459264 -0.27046672 -0.24574023 0.39974332 -0.043206166 0.05283834 -0.1621036 -0.26331583 0.39959615 -0.32399222 0.04525848 0.06951448 0.08753686 0.34981465 -0.028734442 0.03394517 0.0794959
93 0.007264818 0.14478514 -0.19444968 -0.20231672 0.34235242 0.39957955 0.024748793 0.45390764 -0.081708334 0.031100512 0.048235383 -0.00596369 0.1366337 -0.09975071 0.054185465 0.007372084 -0.09189706 -0.15758446 0.41666874 0.031000791 0.11329644 0.048824523 -0.2462363 0.4819512 -0.13874978 0.23487152 0.014722674 0.21756904 0.09325586 0.089747846 -0.07734913 0.12326224
71 0.005939766 0.12791687 -0.113452554 -0.2115936 0.29581282 0.43114948 -0.043875303 0.37488577 -0.039996088 0.15892155 0.16923471 -0.06942084 0.13648058 -0.08189154 0.05638777 -0.08672611 -0.1995246 -0.1454397 0.47778213 0.047518227 0.117955305 -0.06834837 -0.21180207 0.4061293 -0.17933273 0.2028958 0.0418176 0.24267131 0.056725726 0.023338186 0.013607368 0.087063916
122 0.082338765 0.08136572 0.054807067 -0.259374 0.3292286 0.38058487 -0.07560556 0.29739362 -0.10868539 0.23871829 0.29706174 -0.16403352 0.123661466 -0.050180178 -0.04417869 -0.21734641 -0.2824042 -0.22664757 0.41774228 -0.010077535 0.1038167 -0.12164046 -0.24734297 0.37479815 -0.27476966 0.1150083 0.10011733 0.10050266 0.26143885 -0.055590928 0.099727206 0.11215231
7 0.1326908 0.15990244 0.064653225 -0.21994354 0.36932036 0.31584325 -0.09074603 0.32410613 -0.1114986 0.1672906 0.26246724 -0.16127692 0.098535076 -0.024958378 -0.026033679 -0.12786967 -0.24214105 -0.26659393 0.3292932 -0.010241227 0.026966762 -0.1577675 -0.2688464 0.38121906 -0.34674 0.06277374 0.04814684 0.08100947 0.42313066 -0.04470285 -0.023336345 0.047217946
88 0.024858642 0.19970754 -0.13576423 -0.16845831 0.3577527 0.40843102 -0.00556999 0.42637876 -0.058565617 0.028318016 0.042841256 -0.056651622 0.118666425 -0.13244134 0.056244798 0.0013591296 -0.10379748 -0.19460595 0.42005223 0.014369495 0.07908805 0.012323467 -0.24423175 0.48097813 -0.16909888 0.20942838 -0.034472264 0.19868723 0.18721122 0.05329725 -0.12986329 0.04901641
62 0.042453274 0.15613449 -0.19697967 -0.20411734 0.38470864 0.38043436 0.052793972 0.47734904 -0.095517345 0.00080432976 0.02880305 -0.031318143 0.13591175 -0.14548141 0.061755892 0.035996106 -0.029269937 -0.22097604 0.36836582 -0.0014469324 0.07515843 0.021396348 -0.23327939 0.5002332 -0.12813732 0.18731612 -0.037646636 0.1564548 0.1979653 0.045965724 -0.19781822 0.1096147
77 0.14662959 0.2374271 -0.0007787332 -0.20185862 0.27777183 0.3805367 -0.021923982 0.37374893 0.016345732 0.106719255 0.053758726 -0.09668262 0.1717656 -0.12636589 0.11767684 0.055901833 -0.25563484 -0.16532084 0.3909988 0.12754565 0.042350974 -0.19118397 -0.13898765 0.44275546 -0.29135412 0.16957545 -0.04892581 0.3581069 0.20120068 0.036489647 -0.18004967 0.008354519
107 -0.075626105 0.04301655 -0.19693357 -0.24014588 0.22042732 0.5136216 0.05251193 0.4236177 0.018010857 0.17375521 0.1499125 0.024031376 0.20087917 -0.079295464 0.0773734 -0.067309044 -0.19456716 -0.08976961 0.5554423 0.10544405 0.16110453 0.02487249 -0.20249414 0.44639406 -0.11837102 0.303931 0.09009407 0.34345055 -0.15887746 0.09060145 0.06653385 0.15497018
64 -0.00288607 0.08407138 -0.060173217 -0.24540298 0.3203545 0.40345505 -0.043718655 0.34344757 -0.07614683 0.17678063 0.24514827 -0.085696526 0.13259113 -0.04744035 -0.0054634283 -0.1509302 -0.22981523 -0.19822928 0.47432542 0.015600117 0.1549375 -0.040843282 -0.2583541 0.4172166 -0.20480923 0.15779895 0.11253349 0.1705204 0.1166832 0.034317866 0.08450859 0.1154015
48 0.117515236 0.2314854 -0.09580745 -0.15588957 0.3062909 0.40046784 0.0040701525 0.43284512 0.00025819012 0.04507764 0.024265097 -0.06984346 0.16197763 -0.15014462 0.113506146 0.058320552 -0.16157949 -0.17209649 0.36285633 0.058449507 0.021492722 -0.11131796 -0.19841982 0.48511723 -0.273514 0.17440258 -0.06669911 0.29307425 0.19487885 0.07340813 -0.18208654 0.05902945
113 -0.009371137 0.082712695 -0.14270988 -0.21929598 0.31127277 0.44574246 -0.037327737 0.40922287 -0.025377702 0.13333324 0.1590689 -0.04603282 0.16001229 -0.06817377 0.05069563 -0.08747369 -0.21593213 -0.14149901 0.49254432 0.06016813 0.14893132 -0.027184144 -0.23319963 0.44695273 -0.17619023 0.23178387 0.052895166 0.27367115 0.010673368 0.050807644 0.04117945 0.107883364
36 0.08413039 0.18699142 -0.0687482 -0.19343306 0.3011158 0.3680423 -0.031107474 0.37696418 -0.024986127 0.096530534 0.10563706 -0.083609745 0.17291461 -0.06651408 0.07193373 0.00052008865 -0.16197966 -0.18624246 0.4081982 0.047741883 0.055646796 -0.1272359 -0.22525838 0.4509687 -0.2708756 0.1360613 -0.019377133 0.25330684 0.2292222 0.0034886498 -0.10002451 0.05438867
22 0.0019562624 0.10242982 -0.10564428 -0.2128037 0.2998483 0.46460634 0.0053186426 0.4006882 -0.025777534 0.16122139 0.17980903 -0.0048479405 0.15456262 -0.072010875 0.039422844 -0.09015452 -0.19257642 -0.15329137 0.46923634 0.063625954 0.11404808 -0.008931342 -0.25642622 0.41816458 -0.1679962 0.20466132 0.082876354 0.27865237 0.03942548 0.044700854 0.07226215 0.14043619
49 0.014328431 0.13387758 -0.18809044 -0.20663977 0.3662779 0.44871426 0.0019207451 0.4671615 -0.078646265 0.02347303 0.070736475 -0.017404474 0.12031602 -0.1113505 0.0011340939 -0.038976997 -0.07645764 -0.19922468 0.41839343 -0.0076220953 0.10111463 0.024728347 -0.26560414 0.450088 -0.1331016 0.20666759 0.005644065 0.18025221 0.14167081 0.040414356 -0.0752206 0.11758631
80 0.062217996 0.1525569 -0.10978358 -0.22668926 0.35647017 0.37114698 -0.033567514 0.3788172 -0.13887912 0.11759795 0.17612737 -0.07556633 0.10123824 -0.067016155 -0.027455255 -0.075011656 -0.14136964 -0.24896035 0.40892962 -0.040525284 0.09660443 -0.012186636 -0.26342288 0.44282195 -0.20868632 0.15630658 0.033130635 0.09499971 0.22863023 0.050645433 -0.050586212 0.08328142
100 0.16108575 0.14686057 0.112517715 -0.21799804 0.33543208 0.33477005 -0.10306823 0.26863408 -0.093177296 0.24086556 0.29013935 -0.19850239 0.09162695 -0.031883724 0.0098373825 -0.18665348 -0.32763726 -0.24823838 0.3506834 -0.017272392 0.061843205 -0.23865859 -0.24340679 0.37971744 -0.4115619 0.03033852 0.04768202 0.1342533 0.39281353 -0.020387232 -0.001931648 0.061619204
99 -0.07762709 0.07062966 -0.17469916 -0.25180128 0.31839067 0.46657708 -0.002963803 0.42292562 -0.025008354 0.15791354 0.17977917 0.016004808 0.17151733 -0.07483437 0.066218205 -0.10803263 -0.19093801 -0.09826783 0.50122464 0.10891727 0.21061437 0.005495446 -0.21098015 0.40001488 -0.08917219 0.27114856 0.12283163 0.32115123 -0.08534519 0.07646267 0.0992849 0.16480884
30 0.022171035 0.18325418 -0.17604902 -0.16336448 0.3871663 0.38802665 0.027418453 0.46315104 -0.08529757 0.03144291 0.08992978 -0.03111969 0.1246381 -0.11876168 0.037169203 0.0060201082 -0.061838053 -0.2219164 0.3648888 0.0044484995 0.10345083 0.036771335 -0.25565186 0.47627577 -0.15187372 0.2014798 -0.012011825 0.17072229 0.1614898 0.07689168 -0.124840036 0.110257834
34 0.07433041 0.060838733 0.051586013 -0.24170111 0.35816577 0.32421324 -0.09566042 0.2878413 -0.13733831 0.2138562 0.34440368 -0.18546347 0.06108868 -0.018584482 -0.06056897 -0.25282753 -0.2907677 -0.27079806 0.3815968 -0.06982014 0.08191482 -0.09821768 -0.29926062 0.36328316 -0.2931997 0.057577427 0.1280477 0.039258268 0.37775576 -0.028598493 0.06695218 0.1103113
68 0.11287417 0.24446176 -0.06155321 -0.20166318 0.28427586 0.40954202 0.047115803 0.40146154 0.0055504795 0.07122508 0.051526673 -0.06432307 0.16838554 -0.13285312 0.12574968 0.05363983 -0.15289219 -0.14463103 0.38809615 0.09160432 0.027094172 -0.13652596 -0.19441178 0.46367943 -0.26853013 0.17901662 -0.051565185 0.31744596 0.18785712 0.03558759 -0.19901028 0.026316388
94 -0.036051337 0.057376668 -0.1040129 -0.2553179 0.30663607 0.46188945 -0.038170576 0.35030156 -0.07057955 0.1899044 0.26686314 -0.056935616 0.1256451 -0.058757327 0.002637275 -0.15818594 -0.2207991 -0.1430831 0.5198546 0.05943963 0.16930273 -0.042521294 -0.25789022 0.38997912 -0.16607659 0.21486856 0.13167019 0.2350248 0.010953221 0.031188173 0.16432941 0.14229263
105 0.14775366 0.27939224 -0.05449606 -0.17229648 0.332425 0.33178377 0.013838371 0.40599114 -0.07489603 0.048233896 0.06640457 -0.10606173 0.13257027 -0.0990574 0.10644838 0.04398653 -0.13194709 -0.25847214 0.3339971 0.011920097 -0.016280096 -0.12487514 -0.20250034 0.48331663 -0.31793442 0.08734992 -0.089410454 0.20532663 0.34931964 0.039852098 -0.2397577 -0.012554077
86 0.019839996 0.18503992 -0.16557133 -0.17247435 0.3678843 0.42515096 0.0026493482 0.44196713 -0.06676331 0.038627647 0.057444867 -0.016770886 0.14499825 -0.124661095 0.04697246 -0.008858112 -0.082940586 -0.17664519 0.43652806 0.00821876 0.11615893 0.023338132 -0.26807043 0.4517969 -0.1614276 0.21537764 -0.038117234 0.21986918 0.08390743 0.08761467 -0.08800389 0.11581575
17 0.005274421 0.09200354 -0.07360811 -0.23278375 0.27408484 0.445558 -0.016570335 0.3667003 0.0127443075 0.18826514 0.18527699 -0.06788414 0.17551582 -0.05432003 0.056490697 -0.09623768 -0.24778539 -0.13769618 0.4872463 0.062286057 0.1113997 -0.080637865 -0.21050434 0.42339465 -0.23806426 0.19605121 0.062989965 0.30498594 0.0233867 0.033679407 0.022388712 0.13040985
20 0.13013078 0.26094782 -0.03956755 -0.1963857 0.28309304 0.35032955 -0.01815092 0.39259124 -0.049971923 0.086142875 0.04992684 -0.05999604 0.17864025 -0.085634954 0.106494375 0.023553358 -0.17272714 -0.18328555 0.3604809 0.06304493 0.025943872 -0.12391824 -0.22978196 0.5027332 -0.28741 0.1314194 -0.030631388 0.2682624 0.24335323 0.049026415 -0.15660551 -0.0044091796
90 0.033457868 0.087216854 -0.090041235 -0.19820033 0.40700045 0.37282303 -0.040655304 0.4071046 -0.12598044 0.08174816 0.16898762 -0.15224499 0.06337354 -0.099607706 -0.037247814 -0.09898028 -0.17003006 -0.28225744 0.396274 -0.07240527 0.11830668 -0.010843719 -0.28318882 0.43100742 -0.20572396 0.14589724 0.016174976 0.058406193 0.28287455 0.062730975 -0.08118057 0.094824895
117 0.07263246 0.05660363 0.0464482 -0.29360887 0.3418544 0.36380988 -0.096211694 0.30086365 -0.09647015 0.25809652 0.37068713 -0.16929463 0.101327725 -0.030796204 -0.058998726 -0.21803994 -0.31330404 -0.25238076 0.43912694 -0.00611168 0.072942086 -0.13771842 -0.27217364 0.34752095 -0.30937308 0.079825096 0.14677763 0.08337684 0.32359922 -0.072721384 0.07900163 0.101159826
35 0.17304225 0.2928179 0.03211942 -0.19045712 0.26969638 0.3624246 0.005778833 0.34293905 0.010114418 0.116103806 0.07604788 -0.11218832 0.19500174 -0.09035273 0.107991695 0.006130479 -0.22977109 -0.21216397 0.38482067 0.09287411 0.0021115658 -0.22400084 -0.16371842 0.43795246 -0.3578308 0.10725659 -0.06985244 0.32694334 0.273003 0.012042349 -0.16673872 -0.0029436836
91 0.018088598 0.16874045 -0.2300092 -0.20440404 0.4098365 0.39565074 0.045593526 0.51660484 -0.149163 -0.0074865962 0.05853448 0.0004282505 0.09132462 -0.13977984 0.0022766422 0.008015516 -0.022686904 -0.24616332 0.3923234 -0.049772467 0.05377312 0.112984724 -0.293739 0.50809675 -0.09498902 0.1900216 0.0040965825 0.09311701 0.20857768 0.07439124 -0.1503377 0.11324141
72 0.021194594 0.13632008 -0.13429251 -0.16785568 0.3557379 0.40282056 -0.0042031924 0.4217691 -0.055280797 0.03495227 0.09296009 -0.070890464 0.14582533 -0.09659942 0.010824751 -0.010661316 -0.12617925 -0.22250162 0.42346248 -0.012017122 0.11463571 0.041074563 -0.27217436 0.45364472 -0.19553506 0.19837771 0.019892426 0.15083818 0.17533472 0.054478787 -0.10968653 0.104470246
83 0.17612532 0.28939617 0.031913493 -0.21701247 0.2676333 0.34869644 0.001182729 0.3640468 0.0022170788 0.13181032 0.08327688 -0.08958195 0.18952893 -0.083295934 0.120156996 0.008994905 -0.23205444 -0.18135595 0.3578508 0.10833579 -0.021665195 -0.20461468 -0.17846279 0.43616882 -0.34954062 0.12303606 -0.050649285 0.34317157 0.28780523 -0.007273855 -0.16298263 -0.004735808
39 0.07051071 0.15648022 -0.04234618 -0.21575442 0.34882864 0.36927053 -0.06111467 0.37999284 -0.09460171 0.11144562 0.17528185 -0.0946281 0.10841742 -0.06639493 0.00017677566 -0.08707206 -0.16586468 -0.22245747 0.40177634 -0.007498334 0.084630005 -0.06661453 -0.23795792 0.41083798 -0.23598039 0.14887555 0.020920983 0.17304319 0.26032194 0.035826445 -0.07399782 0.06797675
102 0.17150229 0.17532323 0.11081867 -0.25779206 0.34478882 0.34020612 -0.13663134 0.29053134 -0.11762623 0.24701872 0.32837176 -0.17192593 0.08325567 -0.0055913255 -0.018450825 -0.16355115 -0.3284475 -0.2751125 0.33540446 -0.029123386 0.024649931 -0.19392167 -0.23405325 0.33644646 -0.394204 0.008266411 0.088370204 0.098507226 0.43469512 -0.062465098 0.0030113033 0.031571086
79 -0.0654011 0.07340845 -0.19816706 -0.20553395 0.2902366 0.47707438 0.03963187 0.448019 -0.040578723 0.11698655 0.117998034 -0.01929282 0.15863831 -0.10705082 0.047454465 -0.05005767 -0.16453281 -0.15089613 0.5093497 0.05451282 0.19286084 0.06202926 -0.2300495 0.4416734 -0.10776396 0.2518469 0.07021938 0.31412163 -0.09123834 0.08830735 0.06810814 0.13857849
67 -0.035965163 0.05783277 -0.15763469 -0.25641105 0.2801078 0.4585195 0.026656982 0.39902368 -0.015902571 0.17143153 0.18458647 -0.022077877 0.18665549 -0.10066156 0.073691934 -0.09708282 -0.22957155 -0.14558418 0.52235997 0.109255955 0.17039317 0.0051438515 -0.21774079 0.40897498 -0.1620043 0.25484028 0.08182595 0.31188884 -0.041881893 0.037917897 0.07209753 0.16983683
41 0.11035923 0.23627828 -0.05620025 -0.16232638 0.2673745 0.3976963 0.0243366 0.37880746 0.03221723 0.08461816 0.0067416863 -0.031981546 0.18526854 -0.10229819 0.1394187 0.08332754 -0.19217914 -0.17123578 0.3956823 0.104360886 0.020374086 -0.11351169 -0.1443973 0.48325497 -0.30071157 0.2142744 -0.05436916 0.39014527 0.13320298 0.09339691 -0.18319196 0.03566004
61 0.12622221 0.27736413 -0.014617441 -0.17411228 0.2915463 0.3567661 0.015250568 0.38523427 -0.031667694 0.068806335 0.04219296 -0.06610518 0.14340459 -0.09653602 0.11028946 0.037811503 -0.14501402 -0.21213111 0.3787124 0.075618155 0.0034998292 -0.15544774 -0.20027523 0.45656294 -0.30982828 0.11848131 -0.047364593 0.24582438 0.31281477 0.004040845 -0.21946475 0.020898283
60 0.12002075 0.15301284 0.06413036 -0.23470034 0.35155103 0.3432159 -0.13819912 0.32578912 -0.100846805 0.1734924 0.24626274 -0.18226543 0.07758662 -0.05456343 -0.026102463 -0.16458456 -0.29165033 -0.2513271 0.364337 -0.027838139 0.094467536 -0.16988897 -0.24264938 0.3629233 -0.325297 0.06467022 0.053442862 0.08055289 0.36460832 -0.022343814 0.014343021 0.039152022
82 0.11851602 0.22409567 0.0037823291 -0.20189705 0.28602803 0.37543768 -0.0597037 0.34871563 -0.03744652 0.1306953 0.16325408 -0.13786244 0.15470973 -0.07083722 0.057485178 -0.052891593 -0.24617758 -0.18648882 0.4155539 0.051054884 0.050709676 -0.19054273 -0.20569894 0.41051024 -0.3313481 0.13040087 0.00157801 0.2520472 0.24625167 -0.00818011 -0.095311396 0.03543066
44 0.07085583 0.0781408 0.036302056 -0.28344664 0.357372 0.3465476 -0.09626792 0.29465154 -0.10822744 0.22467995 0.34395543 -0.18128663 0.10362787 -0.023835635 -0.03674323 -0.20636176 -0.27720425 -0.2734157 0.4126215 -0.040898934 0.10080044 -0.14228868 -0.25969642 0.37622997 -0.2786294 0.06958924 0.113337815 0.06408178 0.34042075 -0.048727475 0.066967905 0.10907378
38 0.01795548 0.090099916 -0.1899086 -0.18744081 0.3590897 0.36858037 -0.0021155016 0.40804735 -0.10980938 0.07729105 0.12041191 -0.046314873 0.13645822 -0.09111795 0.030330725 -0.043406546 -0.122487664 -0.23718618 0.4277412 -0.018588575 0.12501463 0.07553512 -0.2449998 0.45778617 -0.1785526 0.20771748 0.044206128 0.16361971 0.14024955 0.07188326 -0.09850907 0.13625519
110 0.11938478 0.28293028 -0.039539244 -0.16122594 0.27236414 0.38676164 0.037400883 0.4035914 0.021514518 0.10448153 0.058030557 -0.03929336 0.17997092 -0.12432076 0.14432356 0.061733074 -0.21902417 -0.16706151 0.40235984 0.12948172 0.018396271 -0.16776426 -0.1529837 0.44073957 -0.31336635 0.17455885 -0.06172887 0.3718715 0.18271698 0.05852866 -0.15487319 0.0038523588
50 -0.041032106 0.11675703 -0.24649861 -0.19219127 0.38559058 0.39601 0.047966253 0.49458838 -0.11044123 0.00085889315 0.07950569 -0.0022108236 0.12432681 -0.13392785 0.035436213 -0.033320323 -0.014839898 -0.23605716 0.40835148 -0.0401476 0.13523607 0.11775334 -0.28783652 0.48221985 -0.10258124 0.23621666 0.004683716 0.1252412 0.14979883 0.0745047 -0.08191087 0.1241399
101 0.0634053 0.04791876 0.0360076 -0.25164238 0.36128873 0.33473018 -0.14360748 0.25921094 -0.12547694 0.23699231 0.3316854 -0.19794162 0.07399937 -0.019986644 -0.054695137 -0.26541102 -0.29101354 -0.281028 0.39451894 -0.058889754 0.119243555 -0.12691827 -0.27702138 0.36509016 -0.29893392 0.08585114 0.1013377 0.0350931 0.32932818 -0.04294362 0.06833919 0.10984691
118 0.15080221 0.07708809 0.17492633 -0.27495828 0.38155013 0.3301144 -0.19105303 0.22741544 -0.14896314 0.31651327 0.40022445 -0.26187465 0.050724596 0.00963213 -0.095097795 -0.30292085 -0.37686095 -0.27389377 0.34790516 -0.061827935 0.07982068 -0.2268385 -0.28757182 0.31205046 -0.38976246 -0.0067982324 0.15555204 -0.0035808138 0.49239963 -0.07760469 0.10095496 0.07968741
16 0.058979914 0.18095323 -0.1381059 -0.19065838 0.38127056 0.3716567 -0.019546615 0.43331578 -0.117290154 0.01885766 0.07695005 -0.04880272 0.10486668 -0.107383505 0.036822066 0.0023587304 -0.10213615 -0.23233509 0.38642156 -0.00655786 0.046350732 -0.0057147066 -0.25535786 0.47273037 -0.1939196 0.12916768 -0.001931224 0.1292743 0.28332946 0.0573326 -0.16890968 0.06369797
46 0.07065235 0.15074739 -0.082110904 -0.19890301 0.37008563 0.3606008 -0.058552243 0.40355417 -0.08337092 0.058971327 0.1102988 -0.12144238 0.12700346 -0.11110296 0.05371995 -0.041584823 -0.19337021 -0.24500759 0.34964147 -0.034272555 0.08015535 -0.06730909 -0.23493512 0.4568272 -0.24613394 0.14320214 -0.015802052 0.13930124 0.2465972 0.051380027 -0.11944087 0.09234538
40 -0.058493067 0.023909805 -0.13835688 -0.24021891 0.2919272 0.47573924 0.013491091 0.3668425 -0.03579165 0.20333655 0.18303764 -0.015280978 0.16680548 -0.066429205 0.013873223 -0.122804396 -0.226156 -0.13944058 0.5140859 0.05283538 0.17765683 0.039883718 -0.2025421 0.40709677 -0.15480827 0.24296477 0.12104234 0.280213 -0.06369608 0.06816308 0.10915326 0.1614437
43 0.119987205 0.09975737 0.13767584 -0.24991855 0.3505644 0.32442397 -0.15254603 0.22889164 -0.10963051 0.2856742 0.33817276 -0.21975248 0.10666802 -0.008932302 -0.045957595 -0.24166414 -0.3578177 -0.27503932 0.3773112 -0.022589874 0.0652982 -0.19163369 -0.24457206 0.33751518 -0.38040093 0.059833765 0.114034966 0.0992359 0.39220542 -0.039192855 0.06868443 0.066265784
114 0.14089769 0.0952101 0.16380855 -0.26525337 0.33889544 0.32414562 -0.15093659 0.22563404 -0.12667522 0.27766988 0.35947487 -0.25327176 0.10221777 -0.011449167 -0.06786237 -0.23192261 -0.36014727 -0.3092089 0.3732683 -0.037002046 0.04046771 -0.20933491 -0.25862536 0.36877146 -0.4026762 0.005837072 0.106071874 0.04096471 0.46236908 -0.074923165 0.050431468 0.05081326
109 0.16277616 0.2790053 -0.0005646845 -0.18905565 0.28035715 0.34785736 0.013165161 0.38714957 -0.014810545 0.08879562 0.05830314 -0.089305885 0.16553605 -0.12672429 0.13684997 0.04291063 -0.19499908 -0.19072232 0.32799393 0.077557504 0.0008044592 -0.1869146 -0.18000071 0.48832655 -0.32699466 0.106026754 -0.0836756 0.291513 0.30313122 0.03452973 -0.23366162 -0.014860581
96 -0.049364243 0.07959248 -0.18796301 -0.22211868 0.2798422 0.46512082 0.038313493 0.45985115 -0.008597434 0.12572418 0.10785494 -0.05102915 0.16003226 -0.112180136 0.073137686 -0.06829935 -0.14900927 -0.12988372 0.52232504 0.074901186 0.18464479 0.009001916 -0.23780628 0.45451924 -0.13908198 0.24854188 0.027094198 0.2853422 -0.073118955 0.059684064 0.022803525 0.1337179
32 0.17784098 0.15487452 0.066759184 -0.22422358 0.3677378 0.33454746 -0.11845483 0.31980133 -0.11453193 0.18701233 0.252242 -0.16580668 0.09714743 -0.054946277 -0.034490097 -0.1522399 -0.26655775 -0.25159636 0.31971595 -0.0376068 -0.0037605576 -0.18214981 -0.24864526 0.40558073 -0.35696423 0.01338039 0.03668361 0.09153375 0.4525397 -0.009936364 -0.052690204 0.039817363
29 0.15017566 0.28246635 -0.022607934 -0.1810318 0.26997048 0.3819757 0.009169246 0.37445173 -0.014081096 0.11151371 0.08662223 -0.07478919 0.19449121 -0.089773804 0.10614074 0.03704799 -0.21988153 -0.19138822 0.38904577 0.091472 0.019903077 -0.19673142 -0.18137236 0.4539845 -0.3274916 0.13752744 -0.048337277 0.32803476 0.24336523 0.031928763 -0.15526739 0.008101251
127 -0.051748164 0.05230223 -0.1743115 -0.22596149 0.27122974 0.45451447 0.023353223 0.3772478 -0.005191084 0.1827598 0.15412267 -0.014478442 0.18492576 -0.067071006 0.049198046 -0.068136625 -0.2192497 -0.15277383 0.54731727 0.09743256 0.15615968 0.035092693 -0.203578 0.43496916 -0.16673452 0.2764103 0.100872904 0.33134228 -0.09455799 0.077362895 0.086053 0.17817976
63 0.10136317 0.18274608 -0.012802431 -0.20684946 0.31310582 0.3722656 -0.009331105 0.3801846 -0.05423131 0.096367486 0.13375576 -0.14041957 0.14080325 -0.09445527 0.0490783 -0.057014603 -0.20840053 -0.21620217 0.33812273 0.008731415 0.074995905 -0.15108241 -0.20105791 0.4370087 -0.27863806 0.09596852 -0.008462198 0.17872742 0.29201108 0.007519185 -0.1205116 0.035962578
115 0.1294895 0.29057547 -0.085936844 -0.16703953 0.31248814 0.36576724 0.054092184 0.41907373 -0.003859351 0.05661452 0.0070074387 -0.05524227 0.1675902 -0.13185161 0.1060436 0.052247774 -0.1657429 -0.1833617 0.37409455 0.118227676 0.018726097 -0.12207507 -0.17666575 0.48869067 -0.2790571 0.16187182 -0.0702845 0.32445 0.21517341 0.07899414 -0.22517575 0.0023140581
75 0.18693945 0.31420547 -0.011984476 -0.17195627 0.27136895 0.37666425 0.016596105 0.39692765 0.026212092 0.06100298 0.00894089 -0.104518354 0.16963555 -0.11222929 0.16339807 0.097757526 -0.21261281 -0.19089736 0.35461947 0.09993891 -0.05255698 -0.23199615 -0.16001421 0.48870248 -0.34769058 0.10871995 -0.09992851 0.34736985 0.2954654 0.022892889 -0.25320518 -0.0102551645
85 0.12761895 0.2550483 -0.07486948 -0.1933568 0.37879935 0.38144344 0.015078589 0.438846 -0.05480202 0.019454665 0.02126621 -0.0697157 0.1444182 -0.11211428 0.038037077 0.02343673 -0.13461049 -0.23826827 0.33936042 0.03681723 -0.0066126394 -0.094627336 -0.22535062 0.47570434 -0.25872427 0.14001466 -0.08281651 0.21792234 0.3133229 0.032016553 -0.20469391 0.021602107
103 -0.026964083 0.12454137 -0.20163178 -0.20538244 0.2821974 0.48041725 0.048052806 0.45467123 0.026414916 0.12313285 0.09856736 0.036040884 0.20864719 -0.0885002 0.09088279 -0.017504618 -0.16336504 -0.07450876 0.50586766 0.11035683 0.15386574 0.019002903 -0.17090927 0.45709217 -0.12217098 0.2913137 0.051354013 0.3656518 -0.08579754 0.104445636 0.02596791 0.1463567
124 0.09903183 0.21385369 -0.06286328 -0.18871532 0.29796737 0.38015747 -0.0041325567 0.39840433 -0.013170013 0.06974713 0.07346828 -0.09138279 0.16998321 -0.09565794 0.08943521 0.012386575 -0.16054466 -0.16070947 0.36911556 0.042848926 0.023424488 -0.16194381 -0.18469101 0.48437542 -0.31301114 0.17561619 -0.048113123 0.2869273 0.21534863 0.043236855 -0.18848403 0.022659065
73 -0.078817606 0.077467665 -0.18675788 -0.23631819 0.27604213 0.4708825 0.03100024 0.38511378 -0.025593784 0.120636515 0.17134756 -0.026817441 0.16965505 -0.10316945 0.050698664 -0.10237032 -0.17052554 -0.11886024 0.53052634 0.060416676 0.18129334 -0.0032992293 -0.19370793 0.42602348 -0.15174411 0.27212378 0.07679021 0.29316702 -0.03317551 0.04958206 0.0621073 0.12791538
11 -0.03183037 0.06363679 -0.18956363 -0.19780064 0.28620946 0.45275483 0.013670557 0.3875822 -0.029672334 0.10838394 0.10933119 -0.044991978 0.15604892 -0.122918524 0.06244422 -0.07711084 -0.17282185 -0.09949006 0.51429236 0.048085615 0.18214303 0.0104527725 -0.20375791 0.45199248 -0.12617205 0.2883752 0.04984003 0.30715436 -0.063670956 0.09719546 0.027731195 0.16409491
97 0.16053058 0.13284968 0.13939534 -0.25689527 0.40226233 0.2942204 -0.17491275 0.23905408 -0.15851133 0.26739654 0.3960667 -0.26829323 0.05548017 0.0004867136 -0.056785703 -0.2609455 -0.31328568 -0.34264353 0.33642086 -0.100591764 0.031642593 -0.2287813 -0.27352107 0.38053417 -0.4050286 -0.011023317 0.097141914 -0.018323973 0.56295455 -0.04529067 -0.01825551 0.04553795
56 0.024517942 0.16051571 -0.1635665 -0.19252266 0.36465055 0.38155383 0.026078636 0.4536255 -0.10436865 0.001659133 0.06596496 -0.04072661 0.123306826 -0.11419517 -0.021355318 -0.00934754 -0.041259695 -0.24744381 0.40774545 -0.016186843 0.06256655 0.06515378 -0.30135077 0.48721197 -0.18356082 0.18034054 -0.009089808 0.11447156 0.21046838 0.06014729 -0.13833752 0.11510087
53 -0.013199752 0.13241468 -0.24376433 -0.22479016 0.38977692 0.44140655 0.057538837 0.5014318 -0.097873636 0.013558519 0.05558391 0.032147095 0.13795504 -0.1348219 0.0023012557 -0.028130554 -0.037696432 -0.1885921 0.40012333 -0.0113154445 0.13098729 0.10123417 -0.2827879 0.45431674 -0.09244983 0.2174082 0.019345084 0.1993049 0.08608252 0.07414166 -0.037558272 0.15112342
84 0.029922048 0.15300392 -0.19255196 -0.20020366 0.38860378 0.42436615 0.007905725 0.46791926 -0.10471831 0.0037322287 0.04161512 -0.043687087 0.1145737 -0.11367072 0.013979917 0.0015172177 -0.039694156 -0.21734162 0.4136277 -0.018747965 0.1076913 0.04040108 -0.26082596 0.51150256 -0.15655144 0.21594985 -0.017186023 0.17495552 0.14398848 0.08958208 -0.15864757 0.10706307
128 0.029828625 0.17390971 -0.19140027 -0.16205595 0.41007075 0.4184779 0.034171708 0.46184045 -0.12648574 -0.004723566 0.0894606 -0.059355576 0.0998711 -0.13437873 0.009451104 -0.0054612113 -0.054641385 -0.2324554 0.37234902 -0.048961714 0.10251222 0.032150764 -0.2883711 0.4894775 -0.14887197 0.18234417 -0.010727788 0.1155071 0.21112356 0.06709977 -0.15385805 0.07141726
95 0.030590206 0.13783646 -0.09611778 -0.20884117 0.27306753 0.43257955 -0.036849987 0.38595825 -0.02708088 0.15965271 0.16621414 -0.057645123 0.14904842 -0.08510697 0.034832478 -0.07421083 -0.18871602 -0.16649292 0.47339612 0.04501389 0.103501365 -0.10111204 -0.23486012 0.42303926 -0.23165426 0.20113194 0.01933991 0.28105673 0.08933466 0.057534248 0.00038218216 0.086133964
78 -0.033743624 0.03330703 -0.10889077 -0.25052866 0.25618538 0.46336648 -0.028175065 0.34240955 0.013996007 0.19478016 0.21456334 -0.054131866 0.1735082 -0.09648492 0.03639671 -0.14805421 -0.23079388 -0.09031634 0.52977496 0.07583158 0.18422553 -0.05846922 -0.2095189 0.41256306 -0.1768183 0.21990944 0.08100287 0.30176377 -0.04723597 0.02939178 0.10168646 0.15997009
8 0.11555842 0.1285695 0.007551471 -0.23872589 0.35599014 0.3527279 -0.07778575 0.34542054 -0.123113334 0.15419894 0.24144131 -0.12771943 0.09413939 -0.032054685 -0.016148983 -0.143983 -0.25454044 -0.24398658 0.38466507 -0.012282169 0.07798392 -0.12210084 -0.2513345 0.3893857 -0.2886034 0.09809466 0.08430801 0.10927735 0.35536858 -0.020459836 -0.010919249 0.07265447
1 0.055469215 0.19094576 -0.06409827 -0.19503766 0.33303154 0.3682158 -0.0044763912 0.38304475 -0.031499606 0.09406406 0.0670937 -0.06878636 0.15632738 -0.08506668 0.08470443 -0.022918837 -0.19815543 -0.18140423 0.39953703 0.056565635 0.073924646 -0.07578088 -0.20891331 0.46682793 -0.23777096 0.19189718 -0.009138766 0.2901898 0.17661673 0.076721 -0.10900764 0.043143217
26 -0.008887802 0.13179159 -0.17216393 -0.19144928 0.36164993 0.40436608 0.03433942 0.45414412 -0.10813378 0.03292028 0.09282551 -0.051683437 0.13113528 -0.102520086 0.039651874 -0.018118106 -0.109256886 -0.22519335 0.39801633 -0.01949856 0.11679968 0.053172812 -0.2511542 0.44589505 -0.16050163 0.23133029 0.04292723 0.18549635 0.14187178 0.06053063 -0.086556226 0.11933445
19 0.15044735 0.14097103 0.08464003 -0.23134883 0.35856003 0.33984357 -0.11101076 0.29181343 -0.1137322 0.1942554 0.28766775 -0.20981929 0.10711426 -0.0424503 -0.006082898 -0.18114123 -0.29883847 -0.24753267 0.36177963 -0.03786797 0.07643606 -0.19366309 -0.25321153 0.39028648 -0.3651025 0.069685586 0.03340786 0.08793228 0.38437894 -0.050826766 -0.011776628 0.046668075
45 0.06533214 0.19659752 -0.102119416 -0.20715435 0.33154312 0.39634082 -0.025729371 0.41081655 -0.056813706 0.07124653 0.08227572 -0.07077107 0.13376041 -0.09365748 0.066472314 -0.04800159 -0.14636384 -0.16608545 0.4118187 0.0063704345 0.056811206 -0.10383957 -0.22359952 0.44880307 -0.23765077 0.20191173 -0.019472675 0.25856838 0.20580637 0.059410896 -0.14470348 0.08744232
65 0.052323822 0.1910283 -0.18464223 -0.19070652 0.34745678 0.3987826 0.030405067 0.47317308 -0.07457201 0.020834627 0.038604755 -0.0032897736 0.12906559 -0.10806925 0.021575503 0.0152893085 -0.07292317 -0.20345531 0.41031662 -0.01489625 0.045581497 0.0004444649 -0.2233249 0.5074304 -0.17545208 0.16773324 -0.047200136 0.17654368 0.21192296 0.07979756 -0.2012597 0.10945867
25 0.09126713 0.06061383 0.056730647 -0.26133388 0.38687354 0.31009302 -0.17311215 0.27650887 -0.18868582 0.26867154 0.4257018 -0.21921153 0.04103801 -0.0075474423 -0.10743173 -0.27714327 -0.29464117 -0.30301288 0.40945277 -0.099222414 0.12638819 -0.14153218 -0.27605206 0.34715277 -0.32919273 0.042511918 0.1469123 -0.016579183 0.41058728 -0.060845204 0.101881236 0.09872291
76 -0.038717903 0.08662537 -0.20375626 -0.2035405 0.35605055 0.4322404 0.020488463 0.42757052 -0.13617681 0.11331179 0.17502324 -0.025376184 0.116684556 -0.07492998 -0.01611974 -0.1086682 -0.09380569 -0.18455285 0.47219566 -0.026605714 0.10584164 0.09200807 -0.27355644 0.42130026 -0.11765744 0.21354301 0.08005415 0.143456 0.084616624 0.061829377 0.019843433 0.1552602
