128 32
4 0.18667644 -0.0039972137 -0.037326876 0.19053604 -0.087093234 0.04130008 0.21859823 -0.53240764 0.21395136 -0.16385731 -0.7092607 -0.0961561 0.15518314 0.38370234 -0.030597053 -0.15269545 0.20564629 -0.09315506 -0.0071788714 0.26069465 0.018110937 0.18496066 -0.16056612 -0.050499212 -0.06580466 -0.05881995 -0.16864787 -0.012266699 0.17199442 0.20867084 -0.104062185 -0.12713693
28 0.24827784 -0.041124176 0.17280748 0.13673303 -0.16944912 -0.22663179 0.5668667 -0.48460364 0.42833504 -0.21219376 -0.13929644 -0.13302962 -0.009928946 0.1985304 0.124351576 -0.43678656 0.42475426 -0.05737948 -0.098768905 0.17847814 -0.009384393 0.15660058 -0.050592113 0.13180828 0.168069 0.005473801 -0.0053501585 0.21697003 -0.049432665 -0.03138962 0.005992558 -0.09162251
68 0.23268422 -0.033315197 0.13406529 0.16712305 -0.15811351 -0.171378 0.5271719 -0.48149455 0.38689083 -0.19127615 -0.2061685 -0.12125103 0.023513816 0.2410366 0.11139967 -0.39102292 0.3865133 -0.08983807 -0.07771118 0.18747343 0.020592539 0.13414939 -0.045015126 0.09938479 0.18113448 0.014147124 -0.059309874 0.20755807 -0.03520069 0.008259433 0.0045459718 -0.09571446
53 0.13424766 -0.041247267 0.095131256 0.13869366 -0.28964898 -0.19454694 0.34149244 -0.62988746 0.29280922 -0.23273647 -0.3063645 -0.11474891 -0.035088405 0.19198483 0.17405267 -0.30655366 0.34255955 -0.04719528 0.052787974 0.11135505 0.059760973 0.3377509 -0.095177054 0.038944125 -0.10425299 -0.09376042 -0.061307322 0.14083184 0.027118627 0.08115478 0.051062226 -0.23632774
92 0.13938221 -0.016757442 -0.0006810621 0.14415024 -0.25139552 -0.17266425 0.2696617 -0.6030591 0.21515818 -0.24428126 -0.4095143 -0.05681494 -0.060249943 0.2397018 0.1374461 -0.24493702 0.28520253 -0.11915474 0.08604564 0.12836123 0.08047023 0.26486713 -0.11709958 0.09021685 -0.03164413 -0.07239859 -0.15681541 0.13260113 -0.020134522 0.15943463 0.05477568 -0.20198688
29 0.17749786 -0.025811652 -0.05760956 0.1413425 -0.17488249 -0.012462254 0.29122797 -0.5401223 0.2310216 -0.19215299 -0.5760561 -0.06741504 0.10923365 0.34307715 0.04156559 -0.19045669 0.2470875 -0.087399125 0.019772055 0.19907995 0.02762349 0.19785295 -0.13009638 0.009503073 -0.0052942447 -0.0313293 -0.1327729 0.038186673 0.10170752 0.18896912 -0.038598783 -0.13865961
37 0.25199717 -0.0039021138 -0.12810175 0.1185869 -0.11551574 -0.016231993 0.23383754 -0.4752638 0.20153773 -0.15754555 -0.6183917 -0.057849634 0.08426316 0.4434462 -0.023668827 -0.12849966 0.200412 -0.30733266 0.018655453 0.1998281 0.06909857 0.09644754 -0.15000887 0.082263365 0.12779807 0.025502296 -0.2666517 0.10821296 0.06698407 0.32559088 -0.0068449085 -0.0054365858
7 0.24186067 -0.020426383 0.21369256 0.16608818 -0.11421271 -0.07431513 0.55575633 -0.44520384 0.45406774 -0.17359738 -0.29354557 -0.19525662 0.16412535 0.24899279 0.07334938 -0.4506109 0.35421807 -0.018970964 -0.16829629 0.2160839 -0.057350375 0.15781458 -0.03405622 0.02176152 0.16327953 -0.030184178 0.02922186 0.16033594 0.06563908 -0.07946719 -0.07790858 -0.040361248
36 0.23019218 -0.052724235 0.17522801 0.14235076 -0.18045473 -0.22900112 0.5252825 -0.46709973 0.41154563 -0.2112326 -0.17896183 -0.15480305 0.009233016 0.21061142 0.11487449 -0.46567163 0.40798256 -0.10176597 -0.063921414 0.14864393 -0.0069431663 0.205945 -0.048321377 0.09769305 0.15267885 -0.022540208 -0.018927988 0.2435597 -0.03655949 -0.016246885 0.013279761 -0.059006482
39 0.14105713 -0.052673228 0.06363039 0.13693388 -0.2925906 -0.28811994 0.29981893 -0.6517756 0.23435202 -0.22605932 -0.22792342 -0.054592676 -0.16469583 0.20313078 0.19316368 -0.3166035 0.3267714 -0.14325379 0.10311652 0.08727354 0.09811597 0.3218225 -0.08452324 0.12731326 -0.02907509 -0.07758828 -0.13880548 0.19493894 -0.089032166 0.12306994 0.116460666 -0.21336812
122 0.19293135 -0.032317016 0.14217524 0.15641192 -0.17642695 -0.17891379 0.47742838 -0.46650955 0.40555683 -0.2188303 -0.23506823 -0.10143876 0.0300743 0.2567126 0.07755215 -0.41518575 0.3722901 -0.0701293 -0.09947849 0.16683425 -0.0013046019 0.15233654 -0.08041511 0.10697771 0.15492758 -0.0037132169 -0.043287978 0.1977261 0.011874017 0.011693371 -0.005754297 -0.120471
118 0.25935578 -0.035389427 -0.060796816 0.11232401 -0.1670596 -0.1200622 0.28113165 -0.48299426 0.22666498 -0.20489901 -0.47482136 -0.043219153 -0.007861552 0.37406933 0.03051027 -0.18843406 0.25613683 -0.3105087 0.006536552 0.16805983 0.08119704 0.11974924 -0.12591484 0.14507198 0.1424279 0.015433049 -0.23970836 0.14972445 -0.014766043 0.23880848 0.025717776 -0.03498384
81 0.28148296 -0.024544809 0.118455745 0.13701056 -0.1582444 -0.19442979 0.5496289 -0.42431766 0.41270196 -0.2029564 -0.20744026 -0.16121386 0.041489765 0.24191669 0.08368457 -0.39522874 0.40216315 -0.13407937 -0.083775155 0.18912758 -0.015849734 0.12269477 -0.057742514 0.13383648 0.19250138 0.030580081 -0.045762956 0.25978747 -0.07182967 -0.008140814 -0.006394251 -0.057047486
24 0.23585293 0.01509836 -0.04007625 0.12029168 -0.15341279 -0.087713 0.33421636 -0.44819966 0.25842667 -0.2084177 -0.44012594 -0.08077358 0.024486652 0.38129124 0.0396119 -0.20830089 0.26856458 -0.28242153 0.005579436 0.14884908 0.07211585 0.115468346 -0.08635096 0.13330166 0.15750663 0.04066959 -0.2316645 0.17647883 -0.030932957 0.19760628 0.003925597 -0.024700245
60 0.25545266 -0.008957222 -0.104314156 0.10382773 -0.16133267 -0.078031 0.33054295 -0.4796628 0.24773063 -0.20209996 -0.44984213 -0.06381801 0.04911822 0.3709806 0.04854343 -0.20333572 0.22174072 -0.2801029 -0.0042883833 0.15731657 0.087484084 0.1211562 -0.114890866 0.14197178 0.16719462 0.037897315 -0.24939726 0.17296113 0.018140454 0.21636054 0.032024805 -0.028660782
74 0.30216023 -0.0027659582 -0.1605452 0.13192908 -0.11041494 -0.10860976 0.32105303 -0.45529476 0.2349034 -0.19854005 -0.47238407 -0.08137382 0.03165941 0.3997954 0.027938224 -0.1357304 0.21403788 -0.36272115 0.01606098 0.15247236 0.08555769 0.10572621 -0.15483212 0.13757631 0.21109176 0.037392925 -0.25459683 0.147733 -0.033131894 0.2764577 0.03850465 0.026606604
91 0.23884293 -0.040686313 0.027495429 0.11001005 -0.16512145 -0.13377057 0.3957448 -0.47247583 0.33644444 -0.20749138 -0.33143762 -0.09577279 -0.008957932 0.33091414 0.087962754 -0.30705103 0.31058642 -0.23551433 -0.045728263 0.14376271 0.049007084 0.13288414 -0.093193986 0.13821453 0.1762981 0.045775313 -0.15472694 0.16026846 -0.03910286 0.12404808 0.018030617 -0.042676955
47 0.25602525 0.014290184 -0.0834644 0.14861284 -0.07839125 -0.07939132 0.31619236 -0.48068565 0.22976772 -0.14092533 -0.5559668 -0.1065541 0.10430138 0.38157767 -0.0020611046 -0.19394283 0.23172729 -0.29160082 -0.037024416 0.20346263 0.020909827 0.10019149 -0.14297552 0.08357746 0.10832832 -0.00668608 -0.2067446 0.09966122 0.019136071 0.22212295 -0.045399554 -0.015208313
56 0.24869868 -0.03538978 0.11594948 0.15432924 -0.11205181 -0.104973994 0.54230785 -0.44788322 0.37622857 -0.15720078 -0.26771563 -0.10785516 0.07483568 0.27307636 0.05926529 -0.3724022 0.3867986 -0.112341695 -0.07239871 0.21539375 -0.025476264 0.09983025 -0.045723177 0.089001976 0.2000161 0.043378737 -0.09742776 0.19503891 0.009405958 0.035602834 -0.049496092 -0.06576856
38 0.28931865 -0.050438058 0.15784906 0.17171174 -0.12309504 -0.13357285 0.568668 -0.4345137 0.4259804 -0.1773069 -0.22033854 -0.14976254 0.09088679 0.26270968 0.07591278 -0.44199154 0.37893692 -0.1354702 -0.14168265 0.22988896 -0.0138053205 0.076610394 -0.044250507 0.13422096 0.22917104 0.037330586 -0.06521907 0.19323869 -0.02378496 -0.0022573026 -0.082577124 -0.027698956
35 0.20780326 -0.014833008 0.0123087475 0.16976349 -0.1395033 -0.0056172535 0.2934774 -0.5074026 0.23086922 -0.14426528 -0.57176477 -0.065296054 0.12506755 0.35617962 0.012314804 -0.23374282 0.289322 -0.117912166 -0.0022054769 0.25531393 0.01571836 0.15281916 -0.10947209 -0.030402077 0.032801136 -0.021544246 -0.1864352 0.035930626 0.12888648 0.16562073 -0.08188397 -0.10907268
44 0.23231794 -0.034866903 -0.14044407 0.1357905 -0.18147372 -0.13701996 0.2474819 -0.5693635 0.1532338 -0.18352044 -0.48326227 -0.022282818 -0.011959614 0.36453962 0.05934752 -0.1461272 0.21364553 -0.30489773 0.08350329 0.10949107 0.10648264 0.16938412 -0.16637485 0.13908769 0.09809015 0.010308839 -0.29735672 0.14836125 -0.0466713 0.30589867 0.0613931 -0.050504457
45 0.20669107 -0.014933972 -0.04466644 0.097252674 -0.19733083 -0.18401814 0.31316733 -0.52214473 0.2371452 -0.22977895 -0.3825315 -0.017237736 -0.05264231 0.28521365 0.09277562 -0.2534032 0.30627483 -0.22915338 0.069623426 0.13199152 0.062933214 0.1907305 -0.14677304 0.10568098 0.06188673 -0.021265376 -0.1953982 0.15472211 -0.019733457 0.21036915 0.06239427 -0.08997134
85 0.21885464 0.013736094 -0.027889008 0.19205348 -0.10504529 0.010780674 0.29418463 -0.48535377 0.25853837 -0.17069943 -0.6188798 -0.06031639 0.14534387 0.36939102 -0.043696918 -0.18565811 0.2273834 -0.1297573 -0.06430743 0.27538484 -0.0030242682 0.13509764 -0.11820046 -0.027679097 0.04941731 -0.03703442 -0.15671627 -0.0012072676 0.1402978 0.20061763 -0.05369875 -0.035540313
2 0.20739646 -0.02282941 0.15829238 0.15326127 -0.22432588 -0.22156087 0.52421325 -0.49958113 0.41512188 -0.21363868 -0.16438058 -0.17955917 -0.0059652445 0.21597514 0.13111554 -0.4125927 0.36086524 -0.109526135 -0.08777257 0.1372761 0.033970702 0.20695427 -0.042017803 0.13936023 0.10927097 -0.022240488 -0.037131183 0.2215159 -0.041110143 -0.011532094 0.02509193 -0.1296608
69 0.24336122 -0.015090281 -0.116990104 0.13189906 -0.16868117 -0.16760984 0.34187484 -0.4827057 0.2238855 -0.21030453 -0.43459567 -0.025798641 -0.029377393 0.35440925 0.03335926 -0.17897403 0.2831781 -0.29129428 0.0622092 0.122828946 0.060525596 0.13528694 -0.10306116 0.17839271 0.17067663 0.025123015 -0.2686432 0.18587247 -0.065067776 0.22869664 0.06309687 -0.036754794
104 0.14878173 -0.013347642 0.019408677 0.16348277 -0.15616922 -0.030430201 0.27446595 -0.5491654 0.22354952 -0.19469099 -0.59458333 -0.062944904 0.08785469 0.32759637 -0.029490191 -0.18434079 0.25189367 -0.10052676 -0.036080867 0.21207042 0.022184826 0.19615568 -0.1798653 -0.0105890855 -0.071702346 -0.07783133 -0.1513383 0.026755901 0.13571669 0.18484029 -0.073137015 -0.14523107
75 0.10741621 -0.05437436 0.060318332 0.11236844 -0.3270159 -0.26210475 0.2360492 -0.7030515 0.23510098 -0.23430121 -0.3253069 -0.04801846 -0.15653 0.20647547 0.19818738 -0.28979552 0.2815717 -0.08082108 0.13179243 0.08849367 0.12116862 0.37088758 -0.121302985 0.08288181 -0.1470996 -0.12249231 -0.13101381 0.1558844 -0.042862404 0.11410038 0.11838549 -0.27132043
3 0.24698816 -0.003718309 -0.14330524 0.1261517 -0.15187584 -0.098823756 0.25435472 -0.5335989 0.1892653 -0.18078429 -0.53677547 -0.024326865 -0.010002943 0.40392604 0.031777956 -0.14306067 0.20164798 -0.31372324 0.092696704 0.13775426 0.07605586 0.12873216 -0.1362166 0.1142201 0.12514892 0.024217978 -0.29083198 0.14310154 -0.033625204 0.28602242 0.04334107 -0.04303193
126 0.1934925 -0.044548914 0.17860082 0.13986245 -0.24415666 -0.25735602 0.49168816 -0.5282915 0.4137128 -0.2488507 -0.15607055 -0.1472736 -0.053077094 0.17612916 0.15072647 -0.4222084 0.40973055 -0.06066523 -0.055399727 0.13704595 -0.008857235 0.24218482 -0.06717937 0.11599069 0.061605096 -0.030827148 -0.016435 0.22731991 -0.041647784 -0.043246817 0.035439286 -0.15304627
120 0.22238876 0.021955764 -0.068223506 0.19050255 -0.056177046 0.087303266 0.29258215 -0.45445323 0.24145006 -0.18243173 -0.70512265 -0.095355086 0.22914188 0.40919816 -0.055743616 -0.16910103 0.22687964 -0.12204811 -0.07537995 0.31980506 -0.0077285 0.119203456 -0.11895285 -0.009544984 0.05156355 -0.0061545316 -0.16205935 0.023041055 0.19572748 0.19842064 -0.13461617 -0.037989333
108 0.18539192 -0.0560063 0.040909328 0.13268685 -0.24869606 -0.2645649 0.31253782 -0.59173554 0.23351017 -0.22881928 -0.28694755 -0.04619471 -0.12347843 0.23680314 0.13142474 -0.27205455 0.3099335 -0.1590936 0.08768994 0.09231424 0.1286961 0.2727319 -0.07135954 0.14228529 -0.0044543045 -0.028034074 -0.18585838 0.18846843 -0.07310062 0.13005944 0.12599887 -0.20226745
58 0.14635457 -0.07942645 0.028911125 0.14005381 -0.27126807 -0.21940169 0.31950834 -0.5872462 0.24823582 -0.25209516 -0.30522338 -0.024982432 -0.10837976 0.21472529 0.13967788 -0.2918175 0.33065936 -0.10730376 0.05927742 0.13644005 0.09935716 0.29998726 -0.1046216 0.09956667 -0.039900802 -0.07215177 -0.12183354 0.154172 -0.040394023 0.1267735 0.081047304 -0.22573945
10 0.117989235 -0.07857482 0.042923808 0.16129982 -0.27430287 -0.25581193 0.28490806 -0.6517428 0.24622802 -0.23358165 -0.31356925 -0.025875166 -0.116069436 0.21314014 0.16059779 -0.28192726 0.29596296 -0.10680861 0.09159571 0.13630435 0.09177377 0.32358313 -0.13577934 0.09057704 -0.12743667 -0.123336315 -0.12809117 0.12944481 -0.024520293 0.11567697 0.054032784 -0.2701531
110 0.16759564 -0.014563435 -0.003257726 0.19753793 -0.10670847 0.07906298 0.24035707 -0.49986783 0.2563763 -0.17362593 -0.7190446 -0.10073534 0.20264529 0.4291423 -0.039226968 -0.179686 0.18532327 -0.102092326 -0.06687346 0.2753939 -0.025531976 0.17001039 -0.15134236 -0.059418555 -0.046615455 -0.049290597 -0.13565011 0.003870671 0.22814755 0.2020669 -0.09783347 -0.06401643
115 0.16102579 -0.062282268 -0.042987365 0.13234064 -0.213906 -0.21155871 0.28275096 -0.5975088 0.19717018 -0.2081703 -0.38031644 -0.017797614 -0.09617622 0.2575046 0.122856304 -0.22502849 0.30805185 -0.1920568 0.095221855 0.11657583 0.09389272 0.24591383 -0.14467308 0.094758816 -0.020062828 -0.053852543 -0.20981184 0.14475217 -0.061698128 0.1832858 0.085365124 -0.16770501
111 0.17624162 -0.030532673 0.022101577 0.16709071 -0.112851 0.024619177 0.30125245 -0.5435457 0.24670452 -0.18419072 -0.60734206 -0.1159728 0.13166985 0.34184694 -0.015083388 -0.20570768 0.2410456 -0.073481746 -0.031693123 0.25644827 0.016971825 0.16565144 -0.16539145 -0.043182556 -0.04720644 -0.05124131 -0.11704746 0.013882119 0.14626051 0.16054977 -0.0548056 -0.12466569
31 0.1837327 -0.022884117 -0.026382621 0.19921674 -0.10702234 0.0154619 0.29035532 -0.5076376 0.2548492 -0.16288404 -0.62002534 -0.100529514 0.1520947 0.38888285 0.0070758173 -0.18185471 0.21320051 -0.12044121 -0.0021860304 0.24679787 0.017894337 0.1631675 -0.14228393 -0.017552322 0.033559404 -0.016823184 -0.15200706 0.064388655 0.14632127 0.21601297 -0.07484576 -0.07036243
78 0.2558558 -0.002551318 0.10655205 0.13627005 -0.14901279 -0.13733779 0.5249469 -0.4483732 0.3983004 -0.18630667 -0.26598644 -0.16064532 0.073852204 0.25599134 0.09647014 -0.4064108 0.3635983 -0.089012414 -0.10284422 0.1743297 0.011367236 0.12886156 -0.04072706 0.08917146 0.19838722 0.03283027 -0.040473383 0.1865713 0.0006078521 -0.020415243 -0.015903482 -0.08169941
61 0.19258882 -0.0051499535 -0.006594662 0.16719383 -0.10972351 -0.0029651043 0.2831342 -0.508137 0.26352665 -0.16701691 -0.5926453 -0.105986856 0.11634612 0.39694333 -0.0058932076 -0.20742549 0.24678662 -0.14045417 -0.020392595 0.23049368 0.04236285 0.14452206 -0.1512182 -0.0064053647 0.021127513 0.007977044 -0.16818249 0.059218213 0.14299719 0.1996749 -0.0718489 -0.09529177
27 0.20285057 -0.02248906 0.008768573 0.19280018 -0.06376062 0.026224732 0.32325113 -0.4702494 0.27961197 -0.16969056 -0.65037626 -0.13450879 0.21370031 0.3929699 -0.047162764 -0.21462804 0.25504723 -0.10036555 -0.06962219 0.27329543 -0.048646152 0.14753161 -0.14929175 -0.039495047 0.022823105 -0.031019285 -0.11871307 -0.004868235 0.20449279 0.16353382 -0.13286605 -0.044601038
64 0.29492113 0.0050495886 -0.111533426 0.112079024 -0.09332558 -0.021652214 0.322993 -0.45180616 0.25197116 -0.18080539 -0.5359287 -0.09102591 0.10721093 0.40180388 -0.010021061 -0.14996026 0.21453379 -0.29212996 -0.010788484 0.1926528 0.024493128 0.07018811 -0.13771477 0.09826616 0.20573288 0.030692233 -0.20767418 0.1314356 0.027383026 0.24192557 -0.011277887 -0.006223405
48 0.106529504 -0.056678742 0.10517734 0.13003047 -0.3238091 -0.3003752 0.33569947 -0.6575598 0.2812105 -0.2241328 -0.22487846 -0.067085534 -0.11217438 0.16694005 0.19921869 -0.35609362 0.35955125 -0.027772298 0.071277626 0.08844085 0.0943947 0.3506861 -0.08667869 0.090479456 -0.10305909 -0.10894329 -0.09618823 0.17471433 -0.053013094 0.023550795 0.119163856 -0.29722464
23 0.15635934 -0.052526563 0.038683694 0.1242414 -0.30842328 -0.26634485 0.28872448 -0.6238188 0.2527953 -0.23864263 -0.28360927 -0.031415436 -0.13077286 0.20939082 0.1857622 -0.29191065 0.32741356 -0.17122085 0.122840665 0.103513494 0.10786005 0.29218405 -0.11092532 0.109238155 -0.037579335 -0.068167984 -0.14199764 0.16046068 -0.07975716 0.13795324 0.12399341 -0.20653155
30 0.25685075 -0.050559804 -0.038516317 0.1330872 -0.15481186 -0.14829123 0.3702804 -0.5062401 0.2686416 -0.19226173 -0.38324526 -0.07338339 -0.002613342 0.3206761 0.0702247 -0.2266481 0.28150818 -0.26306018 0.014878784 0.15533783 0.03870219 0.13489151 -0.12631482 0.151817 0.15463729 -0.004858757 -0.19839615 0.15719628 -0.03230249 0.19070119 0.016277933 -0.049154036
18 0.26735538 0.009076088 -0.16968155 0.11725891 -0.15705281 -0.101476446 0.26058438 -0.47902405 0.1706336 -0.20499323 -0.5295528 -0.05758135 -0.0038119636 0.41000968 -0.0022427572 -0.13114725 0.20123906 -0.34016308 0.04654206 0.14095221 0.08895512 0.099363655 -0.15695116 0.15647966 0.12690765 0.04777915 -0.31590214 0.15136383 -0.03301172 0.30996117 0.05610423 -0.012442921
19 0.1752158 -0.011378045 0.015485947 0.20864044 -0.12905435 0.02102182 0.24840112 -0.5274323 0.23520845 -0.17188478 -0.6377169 -0.09096063 0.14254516 0.38422352 0.00076883734 -0.21734858 0.22384855 -0.11165813 -0.03907733 0.28235757 0.02352198 0.16887608 -0.11096622 -0.015009356 -0.018928934 -0.038851783 -0.16142353 0.044614803 0.17189194 0.20392922 -0.09228482 -0.12552623
62 0.19430201 -0.0049587376 0.008535024 0.19105 -0.08277978 0.05658553 0.30667508 -0.49702635 0.28293258 -0.16333705 -0.6699322 -0.10711648 0.21634455 0.39257 -0.055872805 -0.2334102 0.23723494 -0.09496131 -0.09480005 0.31133828 -0.01684009 0.12924412 -0.14292532 -0.07214161 0.022340989 -0.025159258 -0.07498237 0.014380045 0.22449039 0.16403553 -0.14094163 -0.06566613
113 0.13023451 -0.055562165 0.055068545 0.096057996 -0.34068355 -0.29173204 0.29115072 -0.6594767 0.22260606 -0.26064405 -0.2497324 -0.033989474 -0.20195325 0.1911 0.2019145 -0.28110147 0.3431829 -0.19455051 0.11695622 0.045416977 0.09889639 0.31621692 -0.09431704 0.10979039 -0.053941987 -0.10703433 -0.1197127 0.20341615 -0.10091903 0.14943506 0.1634523 -0.20309976
100 0.26610222 -0.037978824 0.13512026 0.14717908 -0.15581179 -0.18389931 0.5921694 -0.44066548 0.44142976 -0.21440108 -0.2018764 -0.1482363 0.045684744 0.20906942 0.07942001 -0.41155037 0.41864854 -0.04158532 -0.114333466 0.18308315 -0.010898374 0.13304467 -0.051867336 0.11868468 0.21409704 0.0026081458 -0.016750218 0.2130583 -0.0121537475 -0.04871105 0.012577177 -0.05926681
63 0.2559084 -0.04388114 -0.13099645 0.10929676 -0.17702864 -0.15409073 0.2352579 -0.5345998 0.22034383 -0.21064165 -0.4608693 -0.08133097 0.00042580604 0.39205438 0.08412704 -0.17592593 0.20820428 -0.3774743 0.03459185 0.108258866 0.08909396 0.13490742 -0.13779642 0.13381809 0.14648847 0.010626319 -0.22859794 0.115005136 -0.027532823 0.2879834 0.04631478 -0.053507958
97 0.24613976 -0.01973523 -0.11964807 0.13647725 -0.14458102 0.007602638 0.22625747 -0.500712 0.1792295 -0.18454209 -0.61890316 -0.06115963 0.10271732 0.41641736 0.00075646245 -0.1100421 0.17822151 -0.25846535 0.039892595 0.20455831 0.08267777 0.14123957 -0.138232 0.05995472 0.090902045 0.021337945 -0.27118504 0.053434085 0.058650743 0.2761466 -0.03279777 -0.062149018
32 0.25233564 -0.028798169 0.15314731 0.13551956 -0.15255943 -0.19780861 0.5768722 -0.44255036 0.43682784 -0.21620457 -0.18832907 -0.1715706 0.023226231 0.2066551 0.08027159 -0.44391528 0.41017962 -0.09981742 -0.10999621 0.16426948 -0.0013271455 0.15308699 -0.05871539 0.105781905 0.14536113 -0.008859736 -0.00580333 0.19721714 -0.014038188 -0.044899717 0.00030618772 -0.07047138
13 0.28021714 -0.04230481 -0.048495516 0.10058614 -0.14987801 -0.046647582 0.33815473 -0.46707675 0.2757059 -0.19816752 -0.46510574 -0.06964585 0.053993665 0.38442215 0.031709798 -0.23166518 0.25442484 -0.25827274 -0.031148663 0.1926599 0.024340276 0.10172047 -0.1395562 0.08900312 0.16823602 0.026426846 -0.19783057 0.13483027 0.033879828 0.22082822 0.0002357089 0.0018533806
59 0.14884368 -0.054755323 -0.049304076 0.12925866 -0.30845588 -0.22721803 0.22163188 -0.6579303 0.16564845 -0.22480518 -0.37084398 -0.0140145905 -0.15158355 0.25836784 0.15107588 -0.18207999 0.26135835 -0.15619193 0.17545746 0.11748868 0.13661492 0.3407176 -0.14936565 0.0726559 -0.12350578 -0.084385246 -0.21805301 0.12968968 -0.041594546 0.20821755 0.12087434 -0.22449444
49 0.12838067 -0.04146574 0.012668972 0.1503361 -0.27036974 -0.16629262 0.21313633 -0.6299918 0.19789357 -0.2247199 -0.41722414 -0.058733013 -0.06849788 0.25734422 0.12606151 -0.23410311 0.2570292 -0.13546221 0.0838715 0.12858951 0.11185395 0.30120102 -0.13544287 0.04611992 -0.10878244 -0.092244655 -0.16481039 0.105714545 0.022737293 0.18139419 0.100380234 -0.2317111
34 0.22010484 -0.03487055 0.15100424 0.14868806 -0.17326346 -0.14603734 0.5250282 -0.4669961 0.4040573 -0.20859714 -0.23432423 -0.12733051 0.045232493 0.23775466 0.118461125 -0.41545573 0.38447478 -0.055735335 -0.09712641 0.17725913 0.011843879 0.16186531 -0.0335114 0.09232226 0.13454978 0.0068049543 -0.034113508 0.18271081 0.011851126 0.0014829556 -0.019808456 -0.079843886
88 0.11804659 -0.03530813 0.04630344 0.1065553 -0.36699393 -0.37700674 0.32283115 -0.6924367 0.25015914 -0.2856487 -0.15529844 -0.032307215 -0.26346245 0.16615082 0.23737855 -0.3272858 0.38373432 -0.17551501 0.1447379 -0.002041337 0.13808164 0.36427256 -0.10675068 0.15835492 -0.06867511 -0.08484832 -0.16055545 0.23312326 -0.15717381 0.1342869 0.21901594 -0.26840112
94 0.26940805 -0.0077524586 -0.09928029 0.13419946 -0.17032519 -0.13043205 0.2720646 -0.51553506 0.20556706 -0.20706439 -0.47890183 -0.04032063 0.0007090659 0.36890092 0.0322355 -0.17752552 0.23743598 -0.31580862 0.03651228 0.14434354 0.06114591 0.13289694 -0.1375577 0.13394986 0.1329019 0.014340458 -0.25452146 0.13777842 -0.010554309 0.27660728 0.009602526 -0.02003219
43 0.2659517 0.004223856 -0.1441013 0.15038577 -0.0994208 -0.023972658 0.26168907 -0.49575377 0.2143115 -0.16564862 -0.58669794 -0.06254546 0.06794127 0.41674978 -0.022472247 -0.10742132 0.21738155 -0.30207753 0.010661002 0.20412293 0.04636983 0.1016769 -0.12810747 0.06589676 0.08630711 0.02095703 -0.2773158 0.087563574 0.04564747 0.30773577 -0.025791632 0.002292153
128 0.14291719 -0.023499738 0.018034158 0.20029034 -0.13393973 -0.033949964 0.2396955 -0.5543301 0.20643215 -0.1673389 -0.63908035 -0.08252726 0.11188439 0.35276964 -0.027140152 -0.1888683 0.2395484 -0.10060377 -0.040130228 0.2780196 0.023599427 0.20936914 -0.142509 -0.012196786 -0.089442216 -0.05708061 -0.16409008 -0.007466632 0.1706972 0.21287541 -0.08172868 -0.14050643
70 0.16683191 -0.08680301 0.043469742 0.14439037 -0.27513042 -0.27862766 0.31670198 -0.6308273 0.22624977 -0.22566526 -0.27728754 -0.042124595 -0.15162586 0.22570188 0.15120992 -0.28046775 0.3248137 -0.16077787 0.09976331 0.07497675 0.09870481 0.32678053 -0.119898364 0.090648 -0.059480973 -0.08143348 -0.11025391 0.16488978 -0.06331931 0.10517098 0.095182255 -0.20329213
42 0.14274152 -0.039055075 0.11397842 0.15453476 -0.24922207 -0.27272308 0.39382005 -0.6104796 0.3113027 -0.21419159 -0.25799027 -0.086016074 -0.09430529 0.18753001 0.1597116 -0.3641801 0.36697525 -0.0648924 0.05342014 0.118388474 0.025524719 0.29972693 -0.08104958 0.06688922 -0.05559773 -0.10907107 -0.103157505 0.17327654 -0.05036671 0.05226076 0.094464414 -0.19072516
72 0.17891078 -0.03694234 0.017178861 0.12995 -0.2516069 -0.22189805 0.3074275 -0.6107607 0.21744196 -0.2390349 -0.36744395 -0.021729263 -0.067621455 0.25616604 0.08495881 -0.2519536 0.2865375 -0.17460464 0.091780566 0.11180372 0.077122696 0.24301796 -0.1326829 0.10726754 -0.005412481 -0.08055584 -0.17594558 0.17449912 -0.031320196 0.15427352 0.10363048 -0.17325224
103 0.1564143 -0.026749203 -0.010364323 0.18569583 -0.08650684 0.019872608 0.23455021 -0.55208313 0.24072987 -0.17855665 -0.6852314 -0.0992719 0.1436845 0.37027207 -0.052223116 -0.18311378 0.21785356 -0.08594293 -0.056845136 0.30864865 0.007582329 0.15726516 -0.1409201 -0.044142503 -0.06801867 -0.04514648 -0.13921618 -0.038776826 0.18666135 0.19334862 -0.12037914 -0.120592326
125 0.27107123 -0.043814212 0.12992916 0.12040063 -0.15136082 -0.1436098 0.52591354 -0.42355266 0.41289243 -0.22694482 -0.23663838 -0.15325996 0.060280252 0.23804176 0.061702345 -0.4086573 0.37699518 -0.09487316 -0.10403696 0.18457241 0.009779904 0.15036477 -0.08803836 0.099785514 0.19923805 0.013860453 -0.0706029 0.19751032 -0.010857191 0.0045609465 -0.007442374 -0.07221098
9 0.20658256 -0.012871061 0.049122963 0.15896703 -0.112378486 -0.022892063 0.36566898 -0.48652473 0.2965236 -0.16786662 -0.51858956 -0.0989841 0.16439824 0.36225778 -0.0076616467 -0.2788316 0.27352014 -0.11395645 -0.097243406 0.26266322 0.0040325015 0.10466254 -0.122754805 0.009901238 0.10377679 0.018360123 -0.14067209 0.08245382 0.116567 0.1454109 -0.057464957 -0.055450123
84 0.25793993 -0.015459643 -0.13244371 0.11849142 -0.08842238 -0.017713979 0.27897772 -0.44845924 0.26320755 -0.17284878 -0.61261636 -0.08864198 0.12290325 0.44490215 -0.0068512396 -0.1485903 0.209855 -0.28413573 -0.016094415 0.1931349 0.06014281 0.09695723 -0.15533552 0.10621555 0.18450128 0.03422261 -0.2378162 0.10172353 0.06579088 0.27912685 -0.020992959 0.008348112
11 0.23051313 -0.02898664 -0.12924674 0.12933356 -0.1650209 -0.07254321 0.2674951 -0.5192349 0.19995433 -0.18618184 -0.5037441 -0.025316011 0.012738298 0.39555353 0.0648851 -0.14193864 0.19700961 -0.29394233 0.06145383 0.15936637 0.09328726 0.13467391 -0.16223422 0.0879458 0.12933925 0.009968963 -0.2529593 0.1349198 0.020320324 0.2748965 0.027395505 -0.07161782
14 0.19242589 -0.032491922 -0.039556816 0.2191042 -0.084718294 0.034891985 0.23605342 -0.54393464 0.20818216 -0.13834444 -0.70355403 -0.10326508 0.185831 0.36359414 0.0037438432 -0.18986441 0.19729489 -0.10578534 -0.047903534 0.3023925 0.019365842 0.15016428 -0.14887129 -0.058794864 -0.032511696 -0.05235836 -0.12192814 -0.018155824 0.20903546 0.20784664 -0.12785783 -0.07553418
87 0.25736487 -0.011919486 -0.1246823 0.114365704 -0.14683688 -0.058671467 0.2665728 -0.48590845 0.2110519 -0.19350787 -0.5670083 -0.08350448 0.06995661 0.4030464 0.03132417 -0.14025982 0.22731432 -0.30112636 0.016888594 0.16290368 0.064761005 0.11181731 -0.121982545 0.09952898 0.14564979 0.013293633 -0.21270469 0.10492983 0.018501958 0.2736967 -0.004092405 -0.015837276
15 0.15747616 -0.036832433 -0.0091549065 0.14680308 -0.25644764 -0.24163504 0.25606093 -0.6680177 0.17763096 -0.19584763 -0.36665484 -0.048427243 -0.107032456 0.23973738 0.15829523 -0.19935633 0.25905985 -0.14045048 0.12988484 0.11368761 0.08416433 0.30390766 -0.106528774 0.05683897 -0.07713238 -0.09603974 -0.2019915 0.14039627 -0.03507609 0.1698881 0.093802966 -0.20893356
12 0.22015786 -0.018720558 0.08429048 0.13177575 -0.1597519 -0.12799385 0.42756268 -0.4830319 0.34270045 -0.22346543 -0.3344434 -0.119861305 0.046459097 0.25962347 0.05918416 -0.3179156 0.34532848 -0.104465015 -0.06370959 0.14727698 -0.0182238 0.1725429 -0.08778499 0.091396764 0.11946877 0.012590978 -0.11348235 0.16882558 0.00026820853 0.056250572 -0.0014898736 -0.0976491
8 0.21998137 -0.01625396 -0.05404162 0.18456732 -0.10544019 0.013571705 0.2966293 -0.5154537 0.2242913 -0.14325833 -0.6328935 -0.049566407 0.12715071 0.39762884 -0.038584396 -0.16867174 0.21520948 -0.21120371 -0.029733526 0.23688103 0.009857403 0.123979054 -0.16116554 -0.005288952 0.04202684 -0.03511795 -0.18789886 0.008349467 0.12132233 0.24656804 -0.067837805 -0.07543014
89 0.26941678 -0.044942833 -0.15833725 0.098750986 -0.12508753 -0.11245948 0.26097706 -0.52216315 0.18446626 -0.18144493 -0.51990837 -0.03457367 0.016384648 0.3814371 0.019561158 -0.14515716 0.21889044 -0.3479659 0.061235778 0.13032909 0.09392408 0.116336845 -0.1292963 0.15614092 0.1573905 0.033829745 -0.30332413 0.12985194 -0.028944017 0.29519057 0.05769938 -0.02978906
98 0.24714455 -0.015289043 -0.03536637 0.15569766 -0.13271236 -0.085148595 0.33452982 -0.47717613 0.21991895 -0.16622289 -0.48156565 -0.048242725 0.023912601 0.34823963 0.023435432 -0.20120676 0.2619859 -0.24602501 0.017038146 0.18506739 0.06383841 0.090065934 -0.10227125 0.09154639 0.11284415 0.020471321 -0.2256859 0.15672559 0.03138193 0.20644493 0.011897165 -0.053429134
117 0.22314113 -0.03797148 0.10649439 0.14913833 -0.19038238 -0.24359478 0.46695855 -0.4832558 0.37595427 -0.21325584 -0.21162677 -0.110678636 -0.010158415 0.2383272 0.11750862 -0.39418447 0.36736912 -0.14617032 -0.066626705 0.13555112 0.0033553753 0.18591465 -0.06370187 0.14867812 0.15170139 -0.030228823 -0.051217206 0.1935467 -0.046399545 0.028682826 0.026541963 -0.09078082
114 0.30088013 0.003681999 -0.20215018 0.13778459 -0.10052344 -0.047549482 0.23663893 -0.47245643 0.15294804 -0.17524296 -0.6215996 -0.06308667 0.081530385 0.4247978 -0.004748721 -0.08869898 0.18186882 -0.39297202 0.017693644 0.17031054 0.085888185 0.07046502 -0.16492519 0.123743355 0.1653529 0.03172392 -0.30111533 0.11741216 0.013180945 0.32277498 -0.0031087343 0.017485583
71 0.20190321 -0.04065466 0.06710359 0.16154242 -0.1909955 -0.15238734 0.39426753 -0.5181879 0.32565644 -0.1941466 -0.32948336 -0.1067565 0.041960552 0.24211852 0.09943568 -0.31648812 0.3246875 -0.04624107 -0.02121537 0.18838009 0.02765171 0.21425383 -0.10137568 0.02947968 0.03664657 -0.049521834 -0.0813252 0.14706615 0.055483952 0.044942364 -0.013735117 -0.15538546
96 0.24971797 -0.03437301 -0.07461932 0.14899789 -0.11305741 -0.06873021 0.3095045 -0.47761482 0.25263324 -0.16328962 -0.47470996 -0.08087087 0.043177243 0.38088375 0.044363372 -0.2011403 0.2547713 -0.2559574 -0.000650528 0.19524881 0.07234071 0.12956187 -0.14780778 0.105121195 0.13919523 0.008069324 -0.2354344 0.13358407 0.009256493 0.22651769 -0.0022818104 -0.02987769
90 0.1912636 -0.0026497499 -0.10919448 0.19729082 -0.10026505 0.048394397 0.22063243 -0.5192393 0.17981757 -0.16774456 -0.7479094 -0.07882489 0.18561839 0.43007722 -0.05516107 -0.08876763 0.16491614 -0.18782698 -0.017555168 0.29228383 0.02725536 0.11242617 -0.17408524 -0.024928419 -0.027146438 -0.03358125 -0.182129 -0.027317187 0.18595828 0.28391892 -0.1072347 -0.051498875
52 0.2469604 -0.03734624 0.18474089 0.16770823 -0.149084 -0.1744191 0.51081127 -0.49494535 0.42420074 -0.19951063 -0.21475035 -0.1568772 0.06665456 0.22756687 0.11922948 -0.43773183 0.36327973 -0.07439505 -0.12324545 0.20663704 -0.036485802 0.16326809 -0.061247934 0.08811071 0.16141573 -0.025918309 -0.011215907 0.16059306 -0.016303927 -0.037912853 -0.039984822 -0.051080335
80 0.14059202 -0.0748672 -0.034328513 0.12318534 -0.31464237 -0.28839764 0.24625719 -0.67710763 0.17785679 -0.24706185 -0.33343303 0.00078257435 -0.19329259 0.23498943 0.16042253 -0.19788474 0.2811613 -0.17572257 0.14224245 0.06798353 0.1265526 0.33565548 -0.11524825 0.12838086 -0.09268531 -0.10435897 -0.18537228 0.13830805 -0.093915574 0.17962618 0.1471519 -0.23634575
95 0.10948749 -0.044684727 0.000988283 0.12270871 -0.3614113 -0.31829932 0.2000946 -0.7086987 0.1928562 -0.25074545 -0.29045683 -0.020615086 -0.20980546 0.21065743 0.20479803 -0.24594288 0.2762468 -0.17563196 0.17276636 0.037839238 0.14213146 0.37435123 -0.11926117 0.10990404 -0.12110611 -0.1038403 -0.19036244 0.16881934 -0.09589166 0.15000196 0.16344231 -0.29592505
67 0.14008515 -0.0713207 0.030069362 0.12338956 -0.2968515 -0.2846177 0.27883312 -0.66023666 0.21754889 -0.22915146 -0.25518554 -0.01966008 -0.15865575 0.20575008 0.20546728 -0.29219076 0.3252462 -0.1691182 0.13783985 0.057909798 0.10846929 0.31354648 -0.122272916 0.11966393 -0.04481556 -0.088582784 -0.15164928 0.19121855 -0.077992514 0.1290064 0.1423541 -0.20105389
57 0.20045316 -0.024293771 -0.066085495 0.13645883 -0.14377423 -0.07317087 0.21669643 -0.5517105 0.19521083 -0.16755329 -0.56855965 -0.039578393 0.03459837 0.37354976 0.03236623 -0.1911405 0.2422616 -0.21246974 0.06395015 0.16626053 0.05507511 0.18875268 -0.13351512 0.050580155 0.047748554 -0.029502822 -0.24828678 0.09315532 0.047675483 0.2207013 0.031759232 -0.07510416
66 0.28426403 -0.028343985 -0.1731887 0.14729504 -0.10819232 -0.06417605 0.2510566 -0.4625622 0.16621514 -0.14309749 -0.60587835 -0.0648093 0.038281485 0.4158079 0.014129326 -0.10517125 0.20128547 -0.35831863 0.041280292 0.19814661 0.06591094 0.0848141 -0.128373 0.10681644 0.16842501 0.02563817 -0.29235256 0.118458174 0.011221261 0.3327178 0.012949481 0.032535717
41 0.2123667 0.014583772 -0.051403407 0.19543566 -0.0526531 0.09142892 0.2730677 -0.47248673 0.24217215 -0.16616262 -0.7530714 -0.117763214 0.22412091 0.4264477 -0.042547785 -0.14106393 0.18596955 -0.10953873 -0.059837762 0.32948706 0.0038428502 0.10517952 -0.12703237 -0.043237016 0.021936659 -0.017953496 -0.16236275 0.0013776048 0.18216886 0.21338885 -0.12628253 -0.067760274
21 0.14854962 -0.045244943 0.042546883 0.14645256 -0.28626952 -0.2801332 0.3285739 -0.6395618 0.24881725 -0.23618208 -0.2669923 -0.06385505 -0.1291278 0.20440069 0.15811148 -0.28152817 0.3300567 -0.12529182 0.10171518 0.092687204 0.09106031 0.29013136 -0.11347539 0.11069377 -0.059952974 -0.07930253 -0.1629539 0.16825609 -0.072963096 0.118724026 0.13242383 -0.24882714
93 0.2427612 -0.024996225 0.164823 0.15538414 -0.14598073 -0.1996435 0.5954392 -0.42517805 0.45968997 -0.23082232 -0.16186462 -0.15865041 0.020890454 0.21273623 0.08251042 -0.4405045 0.4511193 -0.06667072 -0.108732395 0.16502906 -0.030961223 0.16747688 -0.05031909 0.12651962 0.1513711 0.006020673 -0.0033063432 0.23648128 -0.04333378 -0.042259045 -0.008193403 -0.05713327
26 0.20627338 0.0060136924 0.01571319 0.18641259 -0.10359404 -0.042024843 0.3440783 -0.49649125 0.25860357 -0.16570345 -0.5461695 -0.09164563 0.13854444 0.33893287 -0.019771827 -0.24981937 0.27661404 -0.13037372 -0.0851983 0.2769059 0.02048684 0.12421335 -0.106348574 0.014053302 0.06006132 -0.0057379184 -0.13421111 0.0754457 0.11118346 0.13188066 -0.06689628 -0.046999358
112 0.23315755 -0.035095066 -0.015838904 0.08720432 -0.19025934 -0.1411254 0.3793403 -0.49432603 0.30462924 -0.23639098 -0.37463307 -0.07357891 -0.015776698 0.2950913 0.08948542 -0.2738132 0.27958313 -0.20537022 -0.00075986725 0.12660702 0.024623329 0.17856978 -0.12270335 0.14445071 0.14160573 -0.013934702 -0.14680602 0.1728001 -0.055295378 0.14395577 0.05291962 -0.066263884
86 0.14894524 -0.044618487 -0.037535444 0.13067475 -0.2885646 -0.21590403 0.205998 -0.6770835 0.16504477 -0.19212322 -0.42648393 -0.03691805 -0.10444303 0.21826988 0.13132122 -0.18828748 0.25777853 -0.13876492 0.11457213 0.119896285 0.08703585 0.31296667 -0.15044387 0.06420679 -0.12509358 -0.1344837 -0.1757892 0.101620376 -0.035251293 0.18816334 0.12259625 -0.24569482
65 0.13658318 -0.074941315 0.08187518 0.11897932 -0.34539178 -0.31622696 0.25255802 -0.6887528 0.23650295 -0.22348563 -0.23083004 -0.018211907 -0.19761728 0.19065669 0.23256604 -0.32316035 0.3340152 -0.15072687 0.13738286 0.047705468 0.12021599 0.37443614 -0.105697095 0.10619398 -0.09046629 -0.1269406 -0.13787712 0.18993089 -0.10252046 0.1156956 0.15589619 -0.26123536
107 0.18352988 -0.050563548 -0.011968811 0.12944743 -0.26314592 -0.26289836 0.33383456 -0.5740236 0.23147947 -0.23431279 -0.28239074 -0.06671486 -0.11761918 0.21456999 0.14127618 -0.27591717 0.3274328 -0.18351582 0.084010094 0.083183706 0.102312826 0.24653488 -0.10375931 0.16556844 0.052677397 -0.03618452 -0.17258963 0.19946285 -0.07352898 0.13664897 0.12843443 -0.19927001
99 0.23038624 -0.03448754 0.1442275 0.1450629 -0.13927016 -0.10353472 0.52685237 -0.43084425 0.39874852 -0.2184013 -0.30083266 -0.12462757 0.050786387 0.29157522 0.054379396 -0.36273256 0.3684263 -0.06775647 -0.12290804 0.2228646 -0.041969564 0.08757136 -0.07763124 0.09898908 0.16855204 0.036281705 -0.051996857 0.18094549 0.024873286 0.026506474 -0.080809675 -0.052250855
55 0.24511518 -0.03663771 0.14692083 0.15101896 -0.15713471 -0.13790959 0.53653157 -0.4373345 0.45259604 -0.19885856 -0.2533162 -0.14455606 0.04161217 0.22892551 0.083437964 -0.41875732 0.3873457 -0.06589727 -0.098501995 0.21099307 -0.051081713 0.15040751 -0.056701027 0.111498415 0.12687089 0.010828055 -0.007578115 0.19146939 -0.00016266969 -0.009967279 -0.048966054 -0.08558699
22 0.21229206 -0.048747264 -0.038646985 0.17315516 -0.081599966 -0.0007275235 0.28618962 -0.49765822 0.27119133 -0.16266343 -0.6283096 -0.09815075 0.14579488 0.37655637 -0.007347548 -0.17337924 0.23993699 -0.16463405 -0.060214587 0.29521886 -0.006502064 0.1383388 -0.16749236 0.004596408 -0.003066485 -0.047446527 -0.14967124 0.008700208 0.13755986 0.21670097 -0.06826082 -0.092660196
33 0.244615 -0.03888994 0.12761253 0.12262003 -0.20661272 -0.23479296 0.56680226 -0.48896927 0.4125628 -0.2199227 -0.13769841 -0.14419222 -0.010874731 0.16983911 0.13441706 -0.43956533 0.43212345 -0.074850075 -0.034010388 0.14432316 0.005744516 0.18350028 -0.04635039 0.127766 0.15049079 0.011948578 -0.050547864 0.22808702 -0.04542975 -0.020854091 0.031199379 -0.13279882
77 0.17078273 -0.0032202655 -0.04686739 0.18964112 -0.1141422 0.059889525 0.20678352 -0.5309204 0.23288968 -0.16045664 -0.7147634 -0.098609954 0.17166908 0.40483746 -0.008569605 -0.16623825 0.2152476 -0.13264483 -0.027168173 0.27828804 0.0013219739 0.18715689 -0.15200497 -0.05206588 -0.065207645 -0.037871532 -0.13165244 -0.024352936 0.19490346 0.2182733 -0.1034398 -0.0919983
116 0.21472201 -0.015144973 -0.048837774 0.15635116 -0.10148331 0.044269472 0.2683647 -0.4915062 0.2293249 -0.15623797 -0.6577173 -0.07598152 0.13938695 0.37724504 -0.041282464 -0.16799565 0.19936833 -0.13323237 -0.03726326 0.25614902 -0.00582701 0.1201953 -0.15397716 -0.00020233665 0.0488541 -0.017463688 -0.16440937 0.041361503 0.15360615 0.21294622 -0.09577878 -0.076882295
105 0.16777356 0.001992767 0.00058256194 0.21378985 -0.044449467 0.09653251 0.25574464 -0.5070419 0.26124525 -0.118810326 -0.7839763 -0.113467716 0.2618596 0.42126364 -0.045645546 -0.17628297 0.1971748 -0.07030676 -0.09609063 0.31094754 -0.059679344 0.15558393 -0.15040576 -0.08198186 -0.026200742 -0.070896186 -0.09994944 -0.038831044 0.24932536 0.21752243 -0.12741241 -0.03483984
79 0.1836969 -0.0040175715 -0.040725943 0.19859739 -0.065205224 0.07019471 0.21123503 -0.5101315 0.2285991 -0.15563096 -0.7562342 -0.08412757 0.20556195 0.4207373 -0.03157286 -0.16142482 0.19465978 -0.13750784 -0.049137313 0.2971872 -0.0019334648 0.13272026 -0.15325134 -0.079669505 -0.025299624 -0.0489407 -0.17093012 -0.013287693 0.22231829 0.25404876 -0.13109453 -0.08134344
121 0.22268148 -0.010481498 -0.02484462 0.16433072 -0.1394958 -0.05265274 0.32535487 -0.50345075 0.26964453 -0.20111097 -0.5003079 -0.066732906 0.090060696 0.36169127 -0.006259112 -0.2307685 0.2839477 -0.15915689 -0.041778352 0.2358938 0.03679885 0.1296282 -0.124479204 0.025603037 0.072461545 -0.018563038 -0.166532 0.103787504 0.071103424 0.15860784 -0.04082264 -0.0633661
25 0.22027038 -0.04719827 0.016255438 0.15252987 -0.11349829 -0.08654081 0.38514617 -0.46474797 0.2929677 -0.18788618 -0.40187725 -0.08721354 0.027793266 0.32446206 0.01876172 -0.25933713 0.31560043 -0.20550008 -0.05945433 0.16578275 0.03073375 0.1536167 -0.09910218 0.11357899 0.13353315 0.017954642 -0.15474333 0.13071194 0.012399887 0.13635425 -0.030848147 -0.04690209
123 0.24972863 -0.032089937 0.121651866 0.14212076 -0.17346688 -0.14406918 0.4959851 -0.43955418 0.3972566 -0.20259486 -0.23363076 -0.10872544 0.05741649 0.26533374 0.07793207 -0.36465243 0.36927903 -0.1481548 -0.09313961 0.19944806 -0.0021609068 0.08186742 -0.060505293 0.12873548 0.21151017 0.03534068 -0.0772205 0.18504022 -0.032931253 0.04969895 -0.06758912 -0.026574034
5 0.2570289 -0.025053287 0.08162159 0.104009785 -0.16667713 -0.20520149 0.57473814 -0.4028248 0.41455898 -0.2321637 -0.17363779 -0.15932788 0.028835721 0.21539003 0.09033624 -0.4294183 0.41472962 -0.09891719 -0.0789969 0.16660681 0.010014372 0.14173514 -0.06678191 0.15647247 0.24787031 0.05540501 -0.03781251 0.24424337 -0.05299818 -0.0065683452 0.020415718 -0.058044314
106 0.16505699 -0.05535047 0.082501955 0.13117102 -0.25057644 -0.22581057 0.35661232 -0.57827115 0.28238186 -0.24428108 -0.25960827 -0.05168788 -0.09062574 0.23354791 0.10748244 -0.35065746 0.33511424 -0.14322393 0.04229114 0.12116156 0.057625704 0.23117174 -0.08440657 0.14708282 0.018646358 -0.041125465 -0.14363557 0.17456944 -0.050475378 0.0811557 0.06125793 -0.15892166
127 0.17398062 -0.053818658 0.015234022 0.1340158 -0.23312667 -0.098809436 0.28611025 -0.5743123 0.26292354 -0.19731723 -0.44756737 -0.0780728 0.012399464 0.2740423 0.10751503 -0.23152262 0.27984628 -0.09643773 0.066131674 0.17508583 0.04388668 0.23840882 -0.1409483 0.028625812 -0.040846862 -0.06758627 -0.11794708 0.11793071 0.040844426 0.1808447 0.033062637 -0.19216955
6 0.20296665 -0.02726506 -0.09258257 0.112966746 -0.15454371 -0.097720295 0.25926897 -0.51344675 0.19534773 -0.19629247 -0.51136404 -0.037754614 -0.024001537 0.3559711 0.049115878 -0.17164521 0.24007934 -0.28643715 0.03588837 0.1307544 0.07811256 0.16042562 -0.13966927 0.12525576 0.08312635 -0.03255483 -0.22584487 0.11940251 -0.0032643897 0.2683921 0.036189716 -0.052330527
76 0.14394464 -0.024882328 -0.05795116 0.14875662 -0.2825384 -0.18060859 0.21268214 -0.62043756 0.19693324 -0.23875535 -0.4207256 -0.05835056 -0.06368397 0.31953835 0.13389938 -0.18989563 0.23200026 -0.17312987 0.12230385 0.13108997 0.10848747 0.25993887 -0.11120338 0.091701224 -0.07024731 -0.033505447 -0.22926255 0.11287592 5.5015975e-05 0.22366403 0.07933398 -0.2189755
124 0.18832915 -0.033136353 0.03369527 0.19006869 -0.108760074 0.012514827 0.3235918 -0.47802317 0.29281148 -0.18948236 -0.60870916 -0.12202208 0.14746341 0.36692452 -0.019498033 -0.23293532 0.23894303 -0.075321004 -0.08057418 0.25527254 -0.03483559 0.1394691 -0.1362091 -0.0023757769 0.022002308 -0.036685184 -0.090028346 0.013844602 0.15251352 0.1574267 -0.11731152 -0.09766891
54 0.2450678 -0.009777572 0.11295672 0.11186807 -0.20350593 -0.17144534 0.5373679 -0.43341693 0.39545417 -0.25457177 -0.21196148 -0.12201503 -0.013053051 0.23046595 0.07073541 -0.39273003 0.35995334 -0.12385156 -0.04506422 0.18390518 -0.025292393 0.10764752 -0.08548844 0.15705483 0.2281626 0.023622941 -0.061259978 0.24087286 -0.040176068 0.040971946 -0.019215021 -0.0446066
1 0.22959717 0.000847096 -0.049469095 0.14971946 -0.12439582 -0.01769261 0.30502167 -0.502028 0.21829043 -0.19525456 -0.59054446 -0.06341665 0.09916132 0.3984253 -0.032850746 -0.19909091 0.25073057 -0.2123155 -0.047887433 0.21056487 0.05334002 0.13882336 -0.171193 0.016303925 0.06708648 -0.031524748 -0.17340155 0.02968404 0.107163 0.24592641 -0.040202763 -0.049326543
73 0.25897536 0.0009997366 0.18843222 0.17355277 -0.112668484 -0.12045178 0.5726531 -0.41588062 0.45323026 -0.17077997 -0.25117797 -0.19387761 0.11648705 0.24727635 0.07101277 -0.45645848 0.39185685 -0.0653246 -0.13721475 0.2097766 -0.050502487 0.15233833 -0.03753099 0.049982738 0.18091808 -0.0008545953 -0.02395434 0.17973211 0.031192133 -0.045715347 -0.06270117 -0.032596245
119 0.17365658 -0.026058579 0.0144344 0.23371215 -0.07742733 0.071610495 0.28058863 -0.5128424 0.2756458 -0.16199386 -0.715588 -0.1317157 0.25013623 0.41098845 -0.005170535 -0.20221733 0.20314641 -0.07996907 -0.10260291 0.32866988 -0.025579074 0.1518255 -0.12614565 -0.099558294 -0.029902363 -0.069230884 -0.100353256 -0.03288644 0.24258865 0.2021887 -0.1247911 -0.053122718
83 0.16101824 -0.03766886 0.014217935 0.101860955 -0.29004726 -0.21923277 0.28211296 -0.6089981 0.22292712 -0.25044805 -0.33396125 -0.012752338 -0.12219361 0.23577546 0.110008925 -0.27004936 0.32018533 -0.18489261 0.107808314 0.09763393 0.06468989 0.25231418 -0.1463063 0.10118543 -0.03185711 -0.081229165 -0.15603416 0.15864174 -0.06483016 0.16870321 0.081779696 -0.1842688
17 0.26153004 -0.05480771 0.17997809 0.15859208 -0.16749942 -0.21147923 0.60365653 -0.46097207 0.44488448 -0.19315046 -0.13207476 -0.13370697 0.021329703 0.23220575 0.14003359 -0.46487966 0.40040192 -0.05895045 -0.099946864 0.1902749 -0.01810295 0.13178988 -0.039651196 0.1145194 0.20971853 0.025260178 -0.03191827 0.2162579 -0.05815521 -0.0430631 -0.036083907 -0.05952316
20 0.2712361 -0.02410331 -0.13599281 0.14644292 -0.14934853 -0.099168755 0.2833844 -0.49061835 0.19441922 -0.1822276 -0.50781196 -0.07590201 0.0151931625 0.41253573 0.01531665 -0.12667683 0.21209635 -0.38134488 0.027833195 0.1560581 0.0977674 0.110189304 -0.168607 0.1012713 0.134254 0.036329307 -0.27457792 0.13015822 -0.007953908 0.31385648 0.03709887 -0.0098497905
50 0.1913735 -0.0072141285 -0.005282535 0.18119125 -0.08773271 0.08112271 0.2617651 -0.4763245 0.26646748 -0.19689356 -0.66640466 -0.10838003 0.20377173 0.39579886 -0.025880475 -0.2236193 0.21914679 -0.09173048 -0.079238445 0.2945016 0.0029380557 0.14064196 -0.13333714 -0.036770612 0.038586915 -0.0061323727 -0.122048244 0.049037915 0.19159234 0.15957977 -0.122821555 -0.077007405
46 0.19959761 -0.02507056 0.0622989 0.11465178 -0.1674403 -0.09186387 0.43748844 -0.45152718 0.37505388 -0.22660373 -0.3586714 -0.10708689 0.0908329 0.2723381 0.05493531 -0.34545654 0.35549614 -0.08818268 -0.085861936 0.16437939 -0.020957736 0.14310342 -0.069692135 0.10992868 0.12317303 -0.0017086088 -0.040971264 0.16499914 0.050914083 0.026804559 -0.001149147 -0.10657733
109 0.24286175 -0.028474987 0.116316244 0.14374211 -0.16327229 -0.17881508 0.5082705 -0.46811417 0.3855502 -0.21870176 -0.22122511 -0.13730867 0.0658429 0.27068973 0.06455016 -0.38317263 0.36729926 -0.109431975 -0.102350816 0.16235325 -0.016493162 0.14622046 -0.06403119 0.13066638 0.2081949 0.019980205 -0.06335561 0.19248274 -0.0046449294 -0.00031932007 0.013849832 -0.06616383
16 0.22401471 -0.01109759 -0.017550988 0.15469058 -0.122606106 -0.09412494 0.31079072 -0.46580434 0.25052997 -0.18882784 -0.4829989 -0.10494059 0.076593116 0.35559195 0.06611957 -0.22522521 0.23978029 -0.21173438 -0.02352777 0.18422544 0.065841176 0.1685214 -0.120591 0.08216077 0.091305435 -0.019941239 -0.17089725 0.13569067 0.040891014 0.19536556 0.009613617 -0.056746367
40 0.24621667 0.00326134 -0.10380325 0.12341183 -0.14247482 -0.053420782 0.2997681 -0.43550783 0.24846055 -0.20994885 -0.52709764 -0.06529798 0.052631278 0.3808377 0.04019601 -0.13267125 0.22587702 -0.28179997 0.029605871 0.18483092 0.062146705 0.12483583 -0.110364884 0.09820551 0.1633324 0.036706075 -0.21354847 0.14364164 0.03294915 0.2654664 -0.0031287582 -0.013994139
51 0.2472078 -0.031186963 0.05806501 0.1542571 -0.15442732 -0.19601905 0.4700499 -0.47496426 0.32421377 -0.18893814 -0.30243385 -0.1232594 0.017091736 0.24282546 0.089466415 -0.3244755 0.35051864 -0.158765 -0.03938647 0.15040764 0.00036881573 0.15572818 -0.057613987 0.14630349 0.12000693 -0.008297204 -0.075244196 0.18640351 -0.041835014 0.072607756 0.035773523 -0.058342878
82 0.1352172 -0.04843332 0.07112318 0.1664533 -0.2161621 -0.19753183 0.35667527 -0.58708507 0.2879892 -0.20623012 -0.34518573 -0.082377836 -0.041999836 0.20667407 0.11969023 -0.31179953 0.34708947 -0.08983889 0.029624434 0.15391906 0.03667078 0.2629606 -0.10368416 0.038592212 -0.056145266 -0.07881666 -0.07612882 0.12025207 0.021615125 0.08746138 0.009058623 -0.21162835
101 0.19476463 -0.052782755 0.02773923 0.105659 -0.26496696 -0.22555803 0.321907 -0.58454573 0.2541684 -0.2324362 -0.28239855 -0.039908465 -0.104747646 0.266799 0.12585957 -0.24774113 0.2915276 -0.19975989 0.071647674 0.10253044 0.09589182 0.24706298 -0.11543547 0.12911442 0.047767807 -0.04473834 -0.16524121 0.18762529 -0.08502649 0.13294087 0.09806424 -0.17657982
102 0.22130696 0.0001528781 0.040104453 0.18980698 -0.070489995 0.07958262 0.33560836 -0.47147208 0.35017282 -0.15644555 -0.6495117 -0.16857962 0.2363111 0.37016115 -0.030196704 -0.25229168 0.24483685 -0.044314377 -0.10487783 0.28001675 -0.06321776 0.13919234 -0.110648066 -0.05147435 0.023396872 -0.028854458 -0.07979147 -0.005738983 0.2283777 0.11734294 -0.13253969 -0.06981992
