157 128
11 -0.019037822 0.05138972 -0.06894748 0.03165647 -0.24704638 0.0024461758 -0.071042135 0.11502405 -0.0030443273 0.13013504 0.12776302 0.100976504 -0.02894622 0.035170253 0.012990655 -0.018272929 -0.13291337 0.12260623 0.029530922 0.14754178 -0.115701385 -0.020677786 -0.040487878 -0.07892373 -0.038653437 0.16120145 0.09682849 0.11250861 -0.13677976 0.073071375 0.067457125 0.13072647 0.17170657 0.1312431 -0.083971485 -0.03508765 0.08859283 0.01592693 0.0020098651 -0.12843812 -0.13547367 0.054345015 -0.065823734 0.07417323 0.0118717775 -0.16912499 -0.02691145 -0.070925 -0.05084669 -0.13191397 0.06777258 -0.13280043 -0.09281344 0.057613548 -0.12653908 -0.042950947 -0.0028945985 0.078171894 -0.09979262 -0.023032429 0.008055619 -0.01866009 -0.019328535 0.10605323 0.18594591 0.07413659 -0.08126695 -0.053027827 -0.10887179 0.056707494 -0.07054693 -0.01333065 -0.035214994 0.107694745 0.12979887 -0.015856726 0.012731918 -0.003290548 0.0915998 -0.09170907 -0.1639154 -0.0040456094 0.1644819 -0.08686 -0.18830414 -0.09699381 -0.04745773 0.10520545 -0.007014323 -0.085031 0.099060215 0.04082135 -0.117136255 -0.027109507 0.26062125 0.15135105 0.104855366 0.105616674 -0.08184507 -0.027424026 0.0041524293 -0.111824594 -0.003987371 0.03918954 0.043696996 -0.012166317 -0.010257194 0.051297724 -0.061986804 -0.21575649 0.14446083 0.010250618 -0.051025968 0.018442443 -0.009723082 -0.1296555 -0.034956545 -0.04973394 0.06243946 -0.05258986 -0.15619682 -0.008746866 0.04797642 -0.08778594 -0.2780282 0.129914 0.090818085 0.19413415
123 -0.046755146 0.06405628 -0.12118706 0.048327696 -0.2747542 -0.028856095 -0.102417514 0.120045364 -0.01817709 0.14749107 0.107490435 0.09972558 -0.05968323 0.02773869 0.014301426 -0.028400369 -0.16134179 0.1409505 0.044993587 0.1632745 -0.12619217 -0.00812831 -0.05084212 -0.09632006 -0.03524571 0.2011765 0.09666536 0.1302827 -0.16180979 0.09582235 0.11111556 0.123861074 0.15676185 0.12259285 -0.10433799 -0.019451736 0.1357347 0.05009667 0.012643775 -0.10818226 -0.14021933 0.046762295 -0.03998808 0.06243182 0.015312001 -0.16242823 -0.009087963 -0.07933847 0.007849681 -0.12719698 0.09495749 -0.13640879 -0.08342091 0.08082252 -0.08298433 -0.057477776 -0.010278813 0.064375855 -0.072929166 0.010565704 -0.0043639834 0.007814221 -0.05920208 0.11226615 0.19865522 0.100873284 -0.075395934 -0.049185626 -0.13120784 0.05668614 -0.05746975 -0.02006165 -0.079688676 0.09797847 0.1221695 -0.01889361 -0.017679162 -0.012852512 0.11369602 -0.100002185 -0.15766114 -0.053115167 0.1795314 -0.058293823 -0.12747876 -0.113016866 -0.07311496 0.12777363 0.0019378754 -0.073585406 0.13188814 0.0706307 -0.119503565 -0.04409339 0.2521193 0.18087478 0.12708098 0.14718881 -0.07879812 -0.039221924 -0.009809386 -0.117145926 0.031962186 0.04018367 0.07039388 0.005048983 0.012060018 0.056124758 -0.10760328 -0.19166103 0.10738788 0.02778182 -0.031111827 0.026681691 0.006650856 -0.122101285 -0.04582109 -0.025767036 0.04722177 -0.034006774 -0.17443562 0.016420962 0.0125922365 -0.078211635 -0.3024429 0.12538242 0.07341427 0.19101666
84 -0.008582369 0.03887597 -0.04213867 0.029984653 -0.210948 0.014781044 -0.058435842 0.12159939 0.015276587 0.10554887 0.13497531 0.09375366 0.015546988 0.058881365 -0.020714192 -0.007860037 -0.13785335 0.12657818 0.032908898 0.15066002 -0.13133356 -0.018837687 -0.047731563 -0.060652327 -0.025805432 0.15443036 0.10166013 0.09300411 -0.1370506 0.056724675 0.07175184 0.14463452 0.17336623 0.15979312 -0.10305538 -0.032030076 0.076422766 0.025138212 -0.015608122 -0.13633075 -0.14164497 0.064989656 -0.081608504 0.09451965 0.032352928 -0.15055099 -0.021346122 -0.07733893 -0.060818303 -0.14176103 0.058831867 -0.12171094 -0.09465528 0.025706343 -0.13827701 -0.028017215 0.0004919723 0.08355592 -0.108045675 -0.031842772 0.02910578 -0.023647452 -0.01335526 0.09728748 0.1657973 0.049499735 -0.061907444 -0.033900596 -0.09280076 0.062819615 -0.084109165 -0.008093038 -0.011828054 0.12681063 0.13887292 -0.02541971 0.014764079 0.004521526 0.09363296 -0.092316985 -0.1870813 0.0038175664 0.15415047 -0.109464586 -0.22754502 -0.062938824 -0.04009026 0.08968771 -0.009208631 -0.08682787 0.09499977 0.04844135 -0.12476333 -0.028215025 0.27791008 0.13636465 0.11053395 0.110168755 -0.082178205 -0.034876317 -0.00735312 -0.10764834 -0.00858 0.04638725 0.041737344 -0.016009541 -0.017249474 0.050602376 -0.047562648 -0.23316966 0.14946751 0.009257434 -0.049494524 0.023795353 -0.017992867 -0.13926785 -0.022513017 -0.06358422 0.057604935 -0.063519984 -0.15914382 -0.009473087 0.05965431 -0.09010776 -0.27140346 0.12953532 0.09525235 0.20505266
199 -0.037666447 0.058099985 -0.06899394 0.019939065 -0.20711024 0.031445306 -0.030832533 0.09510892 -0.0075010443 0.10772682 0.11059944 0.08536567 -0.04687684 0.017792802 0.019598443 -0.049320478 -0.13196458 0.0823787 0.018072167 0.14577325 -0.10999496 -0.026555758 -0.017940633 -0.051895913 -0.039412063 0.1515132 0.104004376 0.10232876 -0.106860474 0.0771722 0.06535393 0.14405352 0.17578186 0.12072708 -0.08776591 -0.05393837 0.087310374 -0.007244805 0.0058103255 -0.14029776 -0.13541502 0.058024537 -0.097282566 0.07807647 0.006387654 -0.16512513 -0.06275224 -0.06923284 -0.07605551 -0.12278879 0.045924067 -0.14802262 -0.109918505 0.06092853 -0.1392891 -0.041780327 0.002094848 0.07172073 -0.11633789 -0.039126772 0.021965284 -0.020709107 0.02015781 0.10938586 0.1873098 0.07640877 -0.07792546 -0.06379048 -0.107522406 0.054516405 -0.06795584 -0.012213594 -0.025297469 0.09605283 0.13783127 0.012984095 0.027940035 -0.013034979 0.046691097 -0.07227639 -0.1703412 0.018786618 0.14632268 -0.08427339 -0.22372852 -0.10414727 -0.012663712 0.0931684 -0.021195112 -0.08954221 0.09960121 -0.0021789612 -0.11426028 -0.0047946665 0.25888592 0.114867754 0.08939383 0.09490236 -0.069870934 -0.027680205 0.025264531 -0.10816668 0.0054250276 0.023521245 0.027377207 -0.019225387 -0.0028125804 0.044796158 -0.020729285 -0.23503965 0.17495862 0.011322539 -0.07561653 0.014856139 -0.0026529857 -0.13206461 -0.032249358 -0.054874413 0.06773942 -0.05542421 -0.16935414 -0.021569101 0.072556145 -0.07092968 -0.25607267 0.10881667 0.08802206 0.19030775
45 -0.012163451 0.017732108 -0.08755747 0.03126799 -0.31104955 -0.026278896 -0.07044838 0.13867025 -0.009125968 0.23054071 0.18599537 0.081618175 -0.001817591 0.05383821 0.0761241 -0.0389691 -0.08396336 0.1862445 0.072701514 0.12837116 -0.15168177 0.04080263 -0.085926235 -0.100707375 -0.02602173 0.20772912 0.07823136 0.1488205 -0.14353059 0.089553416 0.08304739 0.1319146 0.15100023 0.049831953 -0.113124914 -0.002139731 0.1596228 0.07539456 0.07542355 -0.11833277 -0.16273934 0.013762359 -0.06562665 0.099922605 0.004271595 -0.21804032 -0.0064852084 -0.09483345 0.010453741 -0.17342004 0.14505506 -0.18326776 -0.06380452 0.06758966 -0.09575793 -0.07511614 0.0023189196 0.043000523 -0.08964731 0.042361517 -0.022174397 -0.054593097 -0.082723945 0.15494436 0.20318821 0.10475626 -0.06169402 -0.049583536 -0.118118435 0.07878453 -0.047114443 0.009286056 -0.10968688 0.07597054 0.09859754 0.037804917 -0.0269343 -0.044661123 0.18935959 -0.117407925 -0.1215928 -0.047699694 0.14499363 -0.038814317 -0.048947304 -0.16156179 -0.087442175 0.1628448 0.038462184 -0.06400872 0.13166738 0.04170373 -0.12123407 -0.03140285 0.24552092 0.18752009 0.16434555 0.13846613 -0.085883886 -0.01758168 -0.03385329 -0.037100393 0.0303122 0.05487643 0.102578886 0.003013387 -0.0033707535 0.075630635 -0.13557264 -0.12221858 0.064893514 -0.011639162 -0.06548002 0.033554345 -0.07033722 -0.12208411 -0.031468622 -0.020810671 0.08328099 -0.070939444 -0.1948683 0.027966414 -0.012847714 -0.17801705 -0.26772204 0.16121772 0.07189616 0.1769288
212 0.013184901 -0.009567591 -0.062440276 0.015731763 -0.31695685 0.018236548 0.03854812 0.07965142 -0.0049019526 0.24905947 0.25828975 0.081698164 0.056678917 0.052341916 0.12958933 -0.050938487 -0.027406 0.18338111 0.084012724 0.07581239 -0.14325975 0.05714173 -0.0844739 -0.108780734 -0.019332591 0.18101178 0.08423945 0.12834476 -0.11547678 0.10892655 0.040889632 0.17293817 0.1320814 -0.013860489 -0.07878055 -0.02863681 0.14186653 0.041838877 0.11468718 -0.16603819 -0.20475614 0.016618969 -0.12833282 0.118784055 0.013133888 -0.30068037 -0.01932989 -0.09561219 -0.060784522 -0.22177815 0.11229669 -0.19678313 -0.10086943 0.056791715 -0.13813195 -0.07535055 0.006244602 0.022319157 -0.14705406 0.027457716 -0.015631016 -0.117400214 -0.024701625 0.18224528 0.19614027 0.07660282 -0.05513318 -0.06815116 -0.091957934 0.07431787 -0.049338557 0.03964889 -0.070570506 0.04619224 0.08476552 0.10758755 -0.023683676 -0.06210889 0.19385856 -0.10230763 -0.08147176 0.022386106 0.0805214 -0.07808465 -0.057887133 -0.22230057 -0.06822589 0.18630663 0.05650879 -0.08840732 0.107724346 -0.049130335 -0.0857736 -0.0011702529 0.22165827 0.12872277 0.130137 0.06846443 -0.06962109 0.015436306 -0.0057907808 0.020781437 -0.005316288 0.02766143 0.09210017 -0.032898597 -0.0511497 0.05903268 -0.09582932 -0.09269248 0.08162136 -0.0584162 -0.133609 0.023829965 -0.1003137 -0.098467715 0.008763579 -0.007437071 0.113819495 -0.12459734 -0.18423754 -0.01939596 0.028438991 -0.23071717 -0.20631914 0.181339 0.098398186 0.13646695
134 -0.02285178 0.07087101 -0.06357663 0.0022141375 -0.20757897 0.034059107 -0.018840374 0.03356867 -0.04906126 0.047369197 0.11087929 0.09335861 -0.09186441 -0.039746538 0.026355997 -0.06993766 -0.15249148 0.014715692 0.014050429 0.13282253 -0.05313252 -0.0659202 0.040806256 -0.07399336 -0.064060934 0.11277375 0.10896835 0.0938741 -0.10515228 0.117347345 0.045405883 0.15453187 0.15576972 0.09176238 -0.04504171 -0.09257109 0.05302936 -0.09383252 -0.016247949 -0.18332918 -0.15724814 0.0747632 -0.12298335 0.03222571 -0.0014648935 -0.18651472 -0.053011682 -0.04440059 -0.15475681 -0.13265182 -0.017340232 -0.102192305 -0.16227342 0.085255265 -0.1513388 -0.024377804 -0.0024667557 0.079391785 -0.14319244 -0.055062428 -0.031200707 -0.004368985 0.057396937 0.08889563 0.18720311 0.07463582 -0.07480023 -0.08266561 -0.09664966 0.034358256 -0.076110005 -0.036927126 0.03187974 0.10851213 0.12687002 0.0063431687 0.047701743 0.0070987795 0.0059191207 -0.042230405 -0.1148627 0.09073947 0.12474977 -0.12033414 -0.2715093 -0.1157066 0.0017571077 0.06262406 -0.042821664 -0.12320956 0.09611364 -0.044499706 -0.05758398 0.03101857 0.24080558 0.105144896 0.026632108 0.020946508 -0.023916923 -0.020890322 0.060128685 -0.10461132 -0.003652356 -0.0014808095 0.0032549852 -0.049935494 -0.0017119962 0.05390077 0.015107348 -0.2561843 0.23668778 0.026590597 -0.086641684 0.0050250525 0.051958986 -0.09600121 -0.053136595 -0.060815193 0.05172732 -0.11729207 -0.123244286 -0.042133205 0.1278446 -0.02646974 -0.26231262 0.12732606 0.09283029 0.14675242
43 0.0025542157 0.0023074877 -0.05245692 0.024259813 -0.27198422 0.0048187044 -0.0160353 0.120746545 0.008213272 0.22169413 0.20564418 0.071215324 0.050859373 0.076924816 0.08182965 -0.030046524 -0.057605844 0.18071501 0.062173326 0.11390871 -0.16311096 0.04738528 -0.093033485 -0.08621747 -0.021344947 0.18696162 0.094987385 0.1308641 -0.12927215 0.07209346 0.054969992 0.15491343 0.15181892 0.05319594 -0.10714485 -0.014422228 0.13555914 0.06631784 0.08013755 -0.13151194 -0.17295738 0.02447992 -0.097023316 0.12234327 0.017803924 -0.22962753 -0.016341696 -0.09972044 -0.02534325 -0.18581457 0.12768914 -0.18719386 -0.070335254 0.038614243 -0.12694357 -0.072810166 0.005831819 0.040454358 -0.12230077 0.026732199 0.009754487 -0.08583613 -0.039921414 0.15542085 0.19937156 0.075111344 -0.05609323 -0.04422988 -0.09649294 0.07417976 -0.057490796 0.025800519 -0.088305384 0.07237543 0.10845402 0.064211465 -0.017482145 -0.039824735 0.17865592 -0.1126675 -0.12931596 -0.021612225 0.11601985 -0.069640614 -0.08797683 -0.16533157 -0.0650896 0.16386865 0.040601477 -0.07411653 0.112211734 0.012212759 -0.115012705 -0.024863785 0.25170147 0.15142412 0.15370047 0.11709779 -0.08441619 -0.003652943 -0.019320728 -0.027415847 0.0015830081 0.045007166 0.08740943 -0.017948028 -0.030303154 0.059081398 -0.10832302 -0.12972721 0.07664775 -0.035195597 -0.10119157 0.038078584 -0.09134481 -0.12897146 -0.004483139 -0.019404141 0.09736494 -0.09012248 -0.19949608 -0.0049184565 0.017558286 -0.20094804 -0.23992552 0.16716392 0.0952922 0.17758614
119 -0.025221527 0.08617799 -0.058846217 -0.0033007176 -0.18221945 0.059733998 -0.0015119072 0.015941579 -0.042343132 -0.0010957695 0.071787186 0.10657816 -0.11946329 -0.07174503 0.0004028314 -0.067194454 -0.18149127 -0.024046272 -0.023284307 0.14192927 -0.03136902 -0.106235266 0.0604889 -0.060711373 -0.07672256 0.100244164 0.123901226 0.07364539 -0.09621185 0.1291248 0.040412992 0.16111463 0.17656705 0.13020356 -0.025555212 -0.12133113 0.034289893 -0.12249813 -0.056847293 -0.19487162 -0.14333169 0.10422427 -0.12196355 0.031081866 -0.007100001 -0.17817837 -0.07715696 -0.030337522 -0.184657 -0.09285534 -0.05539487 -0.08471051 -0.18696816 0.09448185 -0.17258078 -0.002528212 -0.0038696092 0.077892594 -0.15579753 -0.084957406 0.0055310675 0.0123449415 0.0945924 0.066797994 0.2070281 0.07405106 -0.09906748 -0.10301886 -0.10351206 0.028807133 -0.07989638 -0.051400367 0.06482399 0.11566396 0.14805895 0.008641375 0.07301141 0.013590262 -0.06563945 -0.023595328 -0.14905426 0.10628458 0.13123749 -0.14281702 -0.3284448 -0.11501797 0.023637334 0.028234677 -0.070330165 -0.11957784 0.08415557 -0.07185358 -0.04738711 0.034317285 0.24997199 0.073860966 -0.012707181 0.0066072904 -0.02502096 -0.030510414 0.09426674 -0.16587478 -0.021157412 -0.017658323 -0.029514438 -0.050324127 -0.022960715 0.038310867 0.052183326 -0.3117581 0.2898163 0.029021977 -0.094637565 -0.02324258 0.06644243 -0.102532126 -0.047267288 -0.06406747 0.05891439 -0.08885897 -0.114598155 -0.063180074 0.16508108 0.019282764 -0.25105253 0.10987379 0.115212254 0.16781741
156 -0.039425645 0.06521809 -0.108448796 0.03057523 -0.2919253 -0.027418153 -0.11307126 0.11123439 -0.044986747 0.1352988 0.12345997 0.08956531 -0.092547715 0.0018316592 0.023223367 -0.05954404 -0.15938218 0.106638044 0.05902745 0.1603253 -0.086330414 -0.007231205 -0.011531274 -0.11452899 -0.03520896 0.17655975 0.088121355 0.1271381 -0.15341452 0.11847069 0.098749414 0.12492422 0.15817565 0.09830066 -0.070834376 -0.042399283 0.11116935 0.007767883 0.011593877 -0.12898211 -0.14924681 0.043573033 -0.049745947 0.040423073 -0.003731648 -0.1719676 0.007925681 -0.062318094 -0.023562957 -0.1432757 0.058571428 -0.12765795 -0.10701003 0.10878267 -0.0837043 -0.053446244 -0.010594603 0.07270384 -0.06532229 0.004540524 -0.05507629 0.003486972 -0.052572723 0.113235965 0.19515267 0.098501444 -0.08066442 -0.059579134 -0.12704529 0.05115893 -0.06117906 -0.039520074 -0.049516834 0.1039806 0.10309 -0.029570224 -0.00090221793 -0.003306525 0.08895657 -0.075509325 -0.11781689 -0.008529141 0.16266666 -0.065506585 -0.14576848 -0.10573484 -0.053649914 0.10166756 -0.008173462 -0.097031936 0.11902104 0.05192304 -0.10309726 -0.02198518 0.23725908 0.1770751 0.09937298 0.10332689 -0.049810767 -0.035480194 -0.01693925 -0.09174216 0.037003364 0.033404082 0.061790336 -0.009271308 0.033297233 0.07642228 -0.07768067 -0.18018824 0.14345008 0.030047776 -0.033752255 0.018460073 0.032545406 -0.11799594 -0.08139195 -0.046204224 0.039178807 -0.08518388 -0.14223953 0.011852272 0.03433993 -0.064623035 -0.3164575 0.12928975 0.05830631 0.16068664
108 -0.036224246 0.05508632 -0.09880659 0.04121283 -0.29495046 -0.009023648 -0.07158553 0.106963925 -0.028472235 0.15190756 0.14789732 0.10538606 -0.04988764 0.018234344 0.032860838 -0.0445329 -0.1421785 0.12832838 0.050150704 0.14257707 -0.10578529 -0.0032064759 -0.032187976 -0.0984404 -0.03346498 0.17947605 0.089737125 0.12047357 -0.14488664 0.10056288 0.08451568 0.13346618 0.14602906 0.08493514 -0.08192058 -0.038012937 0.1163619 0.01919325 0.02104969 -0.12828189 -0.15640062 0.04463364 -0.06878066 0.060288202 0.0050257295 -0.18469225 -0.013542505 -0.06796807 -0.031788204 -0.14753734 0.07352094 -0.14083534 -0.10128964 0.082168534 -0.09536436 -0.064935595 -0.01552817 0.059060708 -0.088683374 -0.0011745577 -0.02284544 -0.015785173 -0.043424774 0.120288886 0.19348055 0.08971748 -0.072767735 -0.05707265 -0.12342214 0.058790572 -0.06331806 -0.015910383 -0.053833853 0.099033244 0.11510776 -0.0015875354 -0.0031308366 -0.008994291 0.10675761 -0.08398286 -0.13122018 -0.011280936 0.1508399 -0.07130164 -0.14452331 -0.12550043 -0.059976574 0.12607133 0.0075941845 -0.08967903 0.11754365 0.039118737 -0.10827452 -0.016229633 0.24400873 0.157659 0.11893159 0.1035884 -0.066260725 -0.025574159 -0.0060053268 -0.08699487 0.018675916 0.039605465 0.060823735 -0.013318649 0.009180161 0.06084255 -0.07887955 -0.18010004 0.12991259 0.00811967 -0.043292336 0.023978436 0.012590247 -0.109475635 -0.04210328 -0.03657663 0.05112814 -0.07062201 -0.15671495 0.003926494 0.033797953 -0.09345501 -0.2868371 0.12687299 0.072920546 0.16704048
2 -0.03904758 0.05333672 -0.075890094 0.029719222 -0.23309569 -0.0006693699 -0.085376844 0.114215374 -0.0155243585 0.10868392 0.08630373 0.09443363 -0.059845213 0.016830552 0.0022689316 -0.038952585 -0.15559901 0.1053941 0.025466785 0.16921593 -0.11733047 -0.038289614 -0.030343313 -0.07061231 -0.03982751 0.16735634 0.105685465 0.1224606 -0.13819468 0.074052006 0.08783887 0.12509738 0.17789163 0.14839284 -0.09933294 -0.030185325 0.1011247 0.019041374 -0.0010418324 -0.11085269 -0.119708605 0.05472219 -0.059756573 0.07030285 0.008814056 -0.14057772 -0.038646728 -0.067316264 -0.030474866 -0.11248246 0.06555763 -0.13581407 -0.0900471 0.05868123 -0.11411639 -0.040092167 -0.005439418 0.08234192 -0.08826612 -0.014952878 0.013060255 0.0025821887 -0.021848064 0.09427973 0.18823223 0.08454818 -0.07960554 -0.047512963 -0.11576052 0.05559353 -0.0658935 -0.031197637 -0.047166903 0.10717867 0.13135242 -0.026492486 0.016356625 0.0028080358 0.0766773 -0.087176174 -0.17448121 -0.01524408 0.17680097 -0.06762325 -0.19148761 -0.08970265 -0.03608959 0.09375526 -0.021825962 -0.07709048 0.10743858 0.050376978 -0.11268545 -0.027305512 0.25836903 0.1514907 0.108228095 0.11893685 -0.07825702 -0.034867942 0.003600769 -0.12585744 0.018201841 0.027281482 0.04446985 0.00078108645 0.015480188 0.05902259 -0.054321192 -0.23450927 0.14918366 0.027968897 -0.04065447 0.024605317 0.0068135457 -0.12952869 -0.04196195 -0.063697115 0.058501508 -0.031242186 -0.17005606 0.005366544 0.050706286 -0.06470683 -0.28801903 0.110400185 0.071237765 0.2060139
130 -0.011581987 0.044473454 -0.032144096 0.011480787 -0.18646957 0.061863683 0.014020169 0.06347 -0.00546759 0.07260489 0.12361771 0.10502472 -0.023843251 -0.00041638833 0.019570008 -0.035745606 -0.12500356 0.052950416 -0.007930583 0.13685857 -0.09337383 -0.066763826 -0.0016862564 -0.047841664 -0.051416025 0.121534295 0.116798535 0.080212764 -0.093647555 0.07794868 0.040322352 0.1641425 0.17663018 0.12824425 -0.06335596 -0.07825483 0.054788493 -0.04285545 -0.020351762 -0.16541487 -0.14238909 0.08229866 -0.112964734 0.07419084 0.016282098 -0.19138227 -0.074157454 -0.057692528 -0.13983837 -0.12403459 0.015696632 -0.114112385 -0.13726237 0.042453215 -0.17959888 -0.020491133 0.0056422935 0.068951875 -0.15559769 -0.05925931 0.048754856 -0.026591862 0.05787994 0.09455803 0.19008148 0.048992682 -0.079494976 -0.074814916 -0.077673264 0.048321933 -0.068165995 -0.01615934 0.021714367 0.10464183 0.13963743 0.02542224 0.04605745 0.00015139251 0.018254247 -0.06742939 -0.17378478 0.05856849 0.13115449 -0.12283737 -0.27534372 -0.11215742 -0.00010046135 0.072129145 -0.03279621 -0.09253141 0.08035499 -0.04268912 -0.084025465 0.0061967378 0.26063725 0.083866104 0.054185167 0.05025978 -0.062295463 -0.021018041 0.061375573 -0.12133725 -0.028600486 0.009583628 0.007070304 -0.034854583 -0.04430927 0.034845106 0.016762458 -0.26217654 0.21553953 0.00028319983 -0.09881361 0.005166735 -0.013451973 -0.1172189 -0.0073176944 -0.062388763 0.086048275 -0.059189446 -0.15428397 -0.04367296 0.11826819 -0.062300295 -0.22415471 0.11917193 0.11051329 0.19805989
188 -0.009711905 0.062138125 -0.056385662 0.016066447 -0.19812694 0.040251616 -0.022793787 0.048328564 -0.026168412 0.049342655 0.12448455 0.10928266 -0.04112011 -0.013141562 -0.0062480504 -0.041746557 -0.14526944 0.04099899 0.011888367 0.14738755 -0.07211078 -0.07217025 0.010686953 -0.067118086 -0.056199435 0.10873523 0.11241238 0.086835966 -0.11631119 0.10933768 0.04307175 0.16126974 0.16499962 0.13508347 -0.047839906 -0.087913886 0.055367723 -0.06528802 -0.017002406 -0.18679918 -0.15762037 0.08276771 -0.11526588 0.055731606 0.024258886 -0.16757222 -0.03822722 -0.045310266 -0.13514063 -0.12897377 -0.021921583 -0.09508938 -0.15260191 0.06211254 -0.14878528 -0.021041878 -0.011202294 0.084726274 -0.14342889 -0.062924184 -0.0013367665 -0.012727685 0.06258223 0.080614634 0.18219024 0.052473467 -0.08460946 -0.06980621 -0.08546242 0.030183353 -0.10096015 -0.033927348 0.04610345 0.118125714 0.13998576 -0.008381521 0.04688283 0.011945526 0.018202627 -0.056038532 -0.16177855 0.08526373 0.12822042 -0.13586043 -0.28164196 -0.09283654 -0.011476292 0.05573088 -0.045032937 -0.11410092 0.0775682 -0.013920013 -0.08199315 0.012923386 0.25866756 0.1000213 0.042184852 0.030483045 -0.033726215 -0.03142736 0.04755332 -0.1163381 -0.023866141 0.011111155 0.0035933924 -0.048350446 -0.014814202 0.056402754 0.012677075 -0.2747116 0.23215821 0.018187566 -0.09113706 -0.009563726 0.030211844 -0.1105699 -0.047486562 -0.0682701 0.056349058 -0.10735736 -0.11645224 -0.05594947 0.11982802 -0.041484356 -0.2655715 0.1315692 0.114620976 0.1538687
168 -0.048177976 0.081696615 -0.09349499 0.040893573 -0.22098848 -0.0043872586 -0.11890073 0.123342976 -0.012525864 0.064820945 0.062195968 0.109111674 -0.08932242 0.009625803 -0.036600027 -0.026416732 -0.18992509 0.08736772 0.012251388 0.17687273 -0.09888684 -0.04624292 -0.0130741075 -0.06929968 -0.047194246 0.16235217 0.09627272 0.111528054 -0.14076167 0.06557944 0.10112252 0.1181747 0.17589106 0.17743945 -0.09198406 -0.03667453 0.08844973 0.0060285483 -0.036960807 -0.10833129 -0.11299206 0.061285827 -0.040116224 0.044953685 0.007492546 -0.10158366 -0.026623257 -0.056838002 -0.029440438 -0.08916467 0.041619547 -0.10480799 -0.09532521 0.07140678 -0.10108364 -0.031923894 -0.007712728 0.09033102 -0.07007433 -0.03048839 0.007279319 0.03224951 -0.027403958 0.071643494 0.18880866 0.08367438 -0.080652796 -0.04247904 -0.12013961 0.047660455 -0.0748928 -0.04913206 -0.03303949 0.12903042 0.13625722 -0.06493281 0.022101626 0.022540195 0.043603256 -0.0784484 -0.18060873 -0.016430143 0.19691643 -0.07623153 -0.22245812 -0.05909793 -0.034748126 0.0754239 -0.036882844 -0.082524456 0.11037483 0.07363462 -0.117742784 -0.030167429 0.26685166 0.15444683 0.09439385 0.12430032 -0.07412144 -0.05497681 0.006791361 -0.16091307 0.014357998 0.031742223 0.031646244 -0.0008699713 0.03131084 0.05015117 -0.0558813 -0.25826967 0.17409459 0.0421791 -0.014536712 0.023852436 0.04560119 -0.13997512 -0.054139584 -0.07045959 0.035682373 -0.033882193 -0.15167472 -0.003169376 0.054465994 -0.018249668 -0.31235528 0.10391821 0.07202806 0.20757875
104 -0.051877398 0.08282908 -0.12621419 0.024891451 -0.2788791 -0.03860081 -0.14896487 0.113074645 -0.048311733 0.10948147 0.07519538 0.09060091 -0.1395997 -0.018403316 -0.0038164589 -0.06257577 -0.19108365 0.08589269 0.04272098 0.1767187 -0.08416569 -0.027482921 0.0038299505 -0.09994268 -0.049976744 0.18004613 0.08334815 0.12681714 -0.16264781 0.113364406 0.115990184 0.10833153 0.16990016 0.12331681 -0.077840164 -0.044091363 0.10076877 -0.006181129 -0.0014857241 -0.12572913 -0.12829043 0.049917355 -0.035137665 0.03263629 -0.011245985 -0.12959391 -0.008297724 -0.051685873 -0.024395885 -0.11539564 0.044327524 -0.117803186 -0.10497656 0.11182641 -0.07454934 -0.060330745 -0.017258704 0.08603924 -0.047883466 -0.005014788 -0.06026882 0.03865558 -0.044691857 0.0911179 0.19488345 0.11062588 -0.0882034 -0.06265713 -0.13997489 0.040995594 -0.06114643 -0.06253097 -0.058027234 0.1112826 0.113661714 -0.06341325 0.0044230106 0.013757402 0.05375207 -0.066541426 -0.13228008 -0.0113461595 0.1895721 -0.05854212 -0.16408378 -0.083591074 -0.04019303 0.084792614 -0.03473016 -0.10388755 0.115376204 0.06250246 -0.11339718 -0.022047276 0.24240932 0.1815161 0.08443624 0.11309982 -0.041265324 -0.05188138 -0.0010196958 -0.13021249 0.039535385 0.029682761 0.057883076 0.0007225919 0.05331087 0.075075425 -0.068605006 -0.21001762 0.16129895 0.051153563 -0.006210938 0.019668732 0.07701079 -0.114652865 -0.10423905 -0.050875083 0.019200068 -0.06669342 -0.13075127 0.009740899 0.032557834 -0.012774889 -0.33378515 0.11896731 0.043100204 0.16243012
110 -0.032459646 0.04714343 -0.06917073 0.04212509 -0.23538698 -0.012608187 -0.10649469 0.13388592 0.0040777293 0.12850808 0.09986413 0.08766105 -0.029296335 0.04585393 -0.019041268 -0.011579444 -0.14522141 0.14529517 0.037350204 0.16742496 -0.13125291 -0.016112762 -0.046024192 -0.07855128 -0.028489407 0.17294505 0.09859206 0.1085224 -0.15960273 0.05747699 0.09153718 0.12492555 0.1881142 0.16556412 -0.11505891 -0.01967822 0.09560818 0.042446576 -0.0085931085 -0.11757293 -0.13629685 0.045061752 -0.04163283 0.07754747 0.018234419 -0.1250691 -0.005418643 -0.07160679 -0.014514395 -0.12808114 0.084658585 -0.123423286 -0.07022842 0.04324109 -0.10410979 -0.038659856 -0.0077752084 0.090920046 -0.068955675 -0.0061927806 0.016083315 -0.0019102396 -0.041963194 0.09504773 0.17008734 0.07063295 -0.0682377 -0.03799013 -0.10498707 0.06285417 -0.059996724 -0.013592832 -0.061533555 0.11801056 0.13149573 -0.05523762 0.0019727289 0.0063947006 0.112367086 -0.095105454 -0.17741543 -0.036725383 0.18192731 -0.07941418 -0.17683621 -0.061557967 -0.044338748 0.10316894 -0.009423489 -0.07392237 0.10846638 0.08168877 -0.13731527 -0.042420983 0.27286604 0.17120512 0.12376702 0.14454311 -0.08511756 -0.039763175 -0.011569285 -0.11828843 0.01800017 0.051244583 0.06118097 -0.0035420975 0.010826612 0.06296209 -0.08150814 -0.21371561 0.12697835 0.017068332 -0.022723665 0.033785794 0.0028239046 -0.13886483 -0.044972353 -0.059367314 0.04130228 -0.04318232 -0.16675268 0.0035052362 0.023379548 -0.080465004 -0.30669987 0.12942593 0.073591 0.21142735
167 -0.023943668 0.06319985 -0.04389083 0.014308197 -0.15903658 0.056707893 -0.035729934 0.072141856 -0.0010475765 0.023247872 0.06943679 0.11827066 -0.03482491 -0.0005737958 -0.038155783 -0.025789069 -0.17097235 0.040441446 -0.022066232 0.17594814 -0.09982493 -0.102443255 -0.005746729 -0.027915014 -0.049279705 0.10606505 0.12846921 0.083840236 -0.11611229 0.07918631 0.062123504 0.14892912 0.19314069 0.19988443 -0.07374885 -0.07195478 0.053100787 -0.03726197 -0.057381667 -0.15051576 -0.117211245 0.09449259 -0.08405854 0.059185702 0.03209576 -0.1284767 -0.06880091 -0.04845816 -0.12262793 -0.0880573 0.0007747998 -0.08971144 -0.12693828 0.034408383 -0.16037768 -0.0052235243 -0.0011225404 0.08933256 -0.14652273 -0.08116374 0.049583588 0.011991939 0.061316404 0.05395428 0.17959696 0.05242456 -0.09581719 -0.05980913 -0.08937034 0.0382772 -0.102810636 -0.030027634 0.04734849 0.13829 0.15512195 -0.03638599 0.051638734 0.02399971 -0.0123138 -0.06650053 -0.21468002 0.0529871 0.15648341 -0.12670551 -0.31293917 -0.050626535 0.0013414704 0.032121673 -0.065143175 -0.08791369 0.07681627 0.01108811 -0.09580816 -0.010479547 0.27686855 0.09742355 0.044892147 0.06691437 -0.061592925 -0.04362264 0.050006397 -0.16153029 -0.030474883 0.0145873735 -0.011806446 -0.019597901 -0.018279754 0.04665669 0.03329994 -0.31481385 0.22827798 0.040849175 -0.053636834 -0.0048975497 0.021442287 -0.12981674 -0.023544123 -0.08047286 0.04707533 -0.04119298 -0.13060491 -0.045560513 0.11117981 -0.014491422 -0.25161228 0.10063257 0.1217208 0.1978103
187 -0.002458096 0.029684905 -0.013031097 0.024479542 -0.15152298 0.051150404 -0.009219097 0.0955686 0.034401905 0.0667181 0.1129758 0.102260165 0.056324743 0.052194852 -0.031561326 0.009382294 -0.1269029 0.10500128 -0.000364889 0.15284182 -0.13976482 -0.060160674 -0.0520996 -0.024872025 -0.033298906 0.11572444 0.121234775 0.06931623 -0.11683747 0.049673572 0.057055328 0.14469363 0.18620102 0.19849835 -0.093777336 -0.043967634 0.066461295 0.014927369 -0.030855807 -0.14301015 -0.13911381 0.0821044 -0.09456622 0.08930691 0.045220267 -0.14181846 -0.054779585 -0.07407272 -0.09436185 -0.10951475 0.04005479 -0.10882569 -0.095298015 -0.0009081812 -0.16256492 -0.014782108 0.00716638 0.08970884 -0.1439943 -0.070070975 0.084917195 -0.02846025 0.04113082 0.06966439 0.16768385 0.023414444 -0.07530604 -0.04320078 -0.07469732 0.05429608 -0.094726495 0.0020899272 0.026915813 0.13205469 0.14913173 -0.02010635 0.037857275 0.009978326 0.053517554 -0.09879325 -0.22962902 0.026122084 0.14735833 -0.13043277 -0.28611827 -0.04477051 -0.021249322 0.07036646 -0.030756775 -0.07746706 0.072224185 0.026286812 -0.12968463 -0.023517588 0.2899112 0.106191605 0.10202942 0.0983457 -0.08862161 -0.034302086 0.029126393 -0.12294314 -0.036332093 0.044951048 0.012310958 -0.030847358 -0.04021922 0.054666393 -0.0061276797 -0.28474733 0.18251438 0.010766408 -0.0750807 -0.00013289401 -0.030486342 -0.14696947 0.0036542402 -0.06992417 0.06802842 -0.041635476 -0.15979278 -0.041571416 0.08217122 -0.08013878 -0.25765082 0.12954514 0.13562776 0.22078273
107 -0.03951014 0.063895755 -0.073015295 0.03571448 -0.23424678 -0.0061616963 -0.088304885 0.12903695 -0.0053230436 0.10883212 0.08991336 0.10200842 -0.044586893 0.02628113 -0.0074532656 -0.022072984 -0.15876053 0.110503316 0.02882918 0.16328815 -0.10994423 -0.02782116 -0.028541239 -0.07112541 -0.036011163 0.17181148 0.10527816 0.10458574 -0.13953431 0.062227678 0.08413652 0.12688349 0.16313934 0.14664923 -0.096105 -0.040971443 0.08626383 0.025138156 -0.014600581 -0.1102257 -0.12484301 0.063815065 -0.04906124 0.06399148 0.011859179 -0.13532618 -0.032173187 -0.061401624 -0.0322112 -0.111166954 0.059174117 -0.11571078 -0.09171705 0.057983767 -0.110190935 -0.040367756 -0.011715676 0.07004972 -0.07647194 -0.020576453 0.012323662 0.007736394 -0.027585885 0.09428817 0.18802717 0.071364395 -0.07964172 -0.04448531 -0.11495952 0.052982923 -0.063967586 -0.019573746 -0.038802974 0.119164504 0.13753907 -0.03386489 0.012874227 0.0059448713 0.07365192 -0.08712932 -0.17779379 -0.021301486 0.17035416 -0.08689785 -0.19584975 -0.07666342 -0.043792736 0.093910545 -0.015046417 -0.081494845 0.108835675 0.056988515 -0.11786878 -0.026662689 0.26313326 0.14680721 0.111966096 0.12157953 -0.07030663 -0.038543623 -0.0072667548 -0.124717884 0.010214846 0.043732613 0.037057273 -0.0113229565 0.009836492 0.05165233 -0.061403614 -0.23596416 0.15698078 0.018928729 -0.033755843 0.021994075 0.013006692 -0.13606587 -0.04584487 -0.04740976 0.047207765 -0.04178072 -0.1634406 -0.0067869425 0.051872525 -0.062438644 -0.29707867 0.11480776 0.08434677 0.2039426
176 0.0024882136 0.032087926 -0.07048107 0.018685052 -0.2848567 0.044623304 0.06264756 0.029067969 -0.048558433 0.15092964 0.23391712 0.102659315 -0.009016091 -0.005869542 0.09642052 -0.06609027 -0.08116652 0.08651281 0.053218376 0.0679255 -0.08148568 0.005502927 -0.024490707 -0.09915025 -0.04127188 0.14102624 0.09224148 0.09642928 -0.08856325 0.14328648 0.027884433 0.17680468 0.11463232 -0.009879462 -0.03780527 -0.07856568 0.09585042 -0.04441575 0.053194873 -0.19794384 -0.20115158 0.051368486 -0.15556124 0.06887181 0.0037163 -0.28899926 -0.03315208 -0.074621715 -0.13602039 -0.19063973 0.023933165 -0.15131807 -0.15643571 0.08553236 -0.14723657 -0.058725763 -0.013600326 0.04010904 -0.17181027 -0.024209956 -0.025913203 -0.083776586 0.03661291 0.15907897 0.20168549 0.07432524 -0.064311616 -0.09858617 -0.09432545 0.051820114 -0.057172265 0.013047545 -0.005081173 0.06779001 0.11284741 0.10076098 0.01610389 -0.04471608 0.08637561 -0.061177876 -0.07218403 0.08203999 0.07253895 -0.11393268 -0.16348624 -0.20200707 -0.0346418 0.13625227 0.024412422 -0.11199047 0.09718414 -0.08941864 -0.051626626 0.03185563 0.22181691 0.089229845 0.06790139 0.0116452295 -0.039511934 0.0092767645 0.043704808 -0.027828103 -0.01204563 0.017051812 0.04347562 -0.055906612 -0.042819507 0.047426697 -0.03411577 -0.1668917 0.17565268 -0.025714608 -0.13985944 -0.0074248738 -0.025336819 -0.07855474 -0.014772012 -0.010037309 0.082233496 -0.14396098 -0.15224753 -0.048230924 0.09704767 -0.13936816 -0.21067777 0.16655871 0.117903925 0.13278769
148 -0.04092023 0.07471699 -0.08695751 0.036823366 -0.20989013 -0.0017601635 -0.08949832 0.11617399 -0.0151668275 0.06721481 0.0800321 0.10941943 -0.07078494 0.012800049 -0.026481008 -0.031353 -0.19414109 0.09556562 0.016523406 0.17555866 -0.10260074 -0.04926259 -0.017286476 -0.07509058 -0.040797714 0.16103117 0.104683734 0.11184509 -0.14775145 0.09026007 0.094940834 0.12710309 0.17995913 0.17958303 -0.08554632 -0.04702918 0.09189421 0.008879443 -0.039569855 -0.12967806 -0.12813105 0.0687551 -0.053983677 0.046026465 0.019372173 -0.12749779 -0.026055368 -0.06375913 -0.04594868 -0.09558112 0.031115375 -0.10500544 -0.10498649 0.06800938 -0.119311854 -0.03223803 -0.019117935 0.094248615 -0.08758291 -0.05182324 0.017691169 0.01727238 -0.011302794 0.07986222 0.19617507 0.07907347 -0.09102959 -0.050628312 -0.12092916 0.046878282 -0.08223374 -0.039472718 -0.01271791 0.13248435 0.14501008 -0.05227136 0.020418242 0.019065084 0.035976585 -0.08161751 -0.18975961 0.0019638939 0.18505852 -0.09448474 -0.2370488 -0.059189077 -0.038504735 0.07268044 -0.03312943 -0.08550237 0.11272553 0.059245143 -0.11057171 -0.031309385 0.2748124 0.14263725 0.0916823 0.10490676 -0.075882904 -0.047276046 0.01511184 -0.15342708 0.009620351 0.03375536 0.026510078 -0.012384223 0.013452001 0.051040873 -0.04345991 -0.26675478 0.18526846 0.043578524 -0.032078546 0.014128897 0.04218654 -0.13602293 -0.054083727 -0.053712957 0.03552709 -0.046673317 -0.14765206 -0.010089756 0.06214909 -0.02684799 -0.30798575 0.11301118 0.09249682 0.20334725
10 -0.043728 0.066342965 -0.089774266 0.046838254 -0.24762988 -0.034485366 -0.12774217 0.15028179 -0.01312947 0.12788735 0.07719713 0.09544389 -0.06953321 0.028634004 -0.0131222885 -0.023914382 -0.17653993 0.12643197 0.0254465 0.17989069 -0.121808894 -0.02042835 -0.031076178 -0.07465412 -0.026952617 0.1813619 0.09337388 0.119565375 -0.15372725 0.06804274 0.108371824 0.106246695 0.17855638 0.1559048 -0.11155808 -0.020223489 0.11383794 0.04848988 -0.018013425 -0.09538031 -0.11286816 0.044644028 -0.02667583 0.058825552 0.009058427 -0.12674543 -0.032424442 -0.07368943 0.0034576082 -0.10153914 0.08576543 -0.13002951 -0.07623961 0.065158285 -0.09582565 -0.04456056 -0.0036811794 0.08323533 -0.06732223 -0.011154585 0.017012877 0.016350733 -0.059221745 0.09671016 0.19067842 0.08795792 -0.072736174 -0.039332286 -0.13012548 0.06070244 -0.053802516 -0.038028806 -0.07032956 0.11515528 0.12619938 -0.05255559 -0.002533564 0.0073738797 0.086489 -0.10279043 -0.18448253 -0.048283376 0.19431734 -0.056878936 -0.17502435 -0.07658738 -0.05883931 0.09781698 -0.02085727 -0.06771053 0.13054064 0.08466209 -0.13013496 -0.041387163 0.25784424 0.17868294 0.12679861 0.15382828 -0.08991704 -0.048041843 -0.018081045 -0.13912545 0.02944052 0.04748145 0.057422232 0.010533444 0.026263693 0.056941032 -0.08839905 -0.21659818 0.1228717 0.03894362 -0.012012588 0.034584217 0.0052590985 -0.1438051 -0.052836962 -0.047338877 0.038652994 -0.0107706105 -0.17332031 0.023559032 0.019183936 -0.05312537 -0.30637422 0.112844095 0.062112767 0.20905244
21 -0.027684698 0.04972933 -0.060584493 0.03981965 -0.20408677 -0.0038935908 -0.07679918 0.14253838 0.020345598 0.12303243 0.10095776 0.09561493 -0.0020755543 0.053464264 -0.01630576 -0.01236744 -0.14195572 0.13481587 0.025785562 0.16635433 -0.13698308 -0.021613153 -0.049709022 -0.0538495 -0.025670292 0.16832311 0.10093469 0.10474819 -0.14940032 0.05239296 0.08328661 0.12636249 0.18529066 0.17439815 -0.11430375 -0.026908414 0.08618343 0.048220817 -0.016067646 -0.1166436 -0.13340831 0.053091858 -0.05553627 0.08579353 0.02891723 -0.12820388 -0.03704311 -0.07983052 -0.028107982 -0.12789358 0.07787913 -0.13878576 -0.080795586 0.027500305 -0.118284 -0.037171666 0.0035839858 0.08555008 -0.08649707 -0.03118651 0.038261123 -0.016715603 -0.028617084 0.095154345 0.17614089 0.056764998 -0.07375402 -0.03672165 -0.10342979 0.061946403 -0.077124216 -0.020344287 -0.03771593 0.12528713 0.13565244 -0.042999215 0.00769365 0.004841414 0.088423066 -0.10483329 -0.20383999 -0.02368468 0.17005147 -0.08755624 -0.20856257 -0.062020324 -0.04430565 0.094404705 -0.01982912 -0.06873905 0.106161475 0.07416166 -0.14217488 -0.033779413 0.27430493 0.14889841 0.1288912 0.13612804 -0.08992383 -0.046610646 -0.018547392 -0.11196375 0.005459362 0.053092964 0.035213966 -0.01062217 -0.0025923948 0.06358314 -0.057483576 -0.23109709 0.139705 0.020046813 -0.032895263 0.027062181 -0.020647066 -0.14768027 -0.027677419 -0.061711468 0.049863223 -0.031837292 -0.16377763 0.0021892174 0.03763534 -0.08340361 -0.2858858 0.12356452 0.087853186 0.20610125
139 -0.027979437 0.07473856 -0.0766106 -0.015900204 -0.22992603 0.063161835 0.02957114 -0.0031406875 -0.06440143 0.041448146 0.10990538 0.105569094 -0.13253066 -0.08402757 0.06281002 -0.10017549 -0.15647116 -0.0233751 -0.0092673255 0.120830834 -0.030597955 -0.08426278 0.056173407 -0.06671817 -0.0749829 0.10959205 0.11794103 0.0896628 -0.08172748 0.1484141 0.036698844 0.16297314 0.14477949 0.059905495 -0.010707627 -0.1199268 0.048804414 -0.13639887 -0.017914927 -0.19318496 -0.14198862 0.08304755 -0.14635186 0.022124855 -0.023597905 -0.21166098 -0.095731705 -0.024429414 -0.18767896 -0.11866202 -0.052993946 -0.118333 -0.18348853 0.10759015 -0.17183173 -0.036847904 -0.008466002 0.051643554 -0.17431353 -0.07942934 -0.026927453 -0.0021607082 0.09904847 0.09545293 0.2054699 0.08067684 -0.10263716 -0.12249488 -0.10465753 0.025518509 -0.0705584 -0.035237238 0.045538377 0.08449264 0.13715601 0.048561394 0.068571225 -0.007152553 -0.059143286 -0.019467138 -0.110241115 0.12996061 0.1013533 -0.12506275 -0.29371148 -0.16965076 0.029583631 0.06309268 -0.054362226 -0.1409892 0.08407107 -0.10707221 -0.04237652 0.048615113 0.23927367 0.059707142 -0.016727231 -0.009764736 -0.006112431 -0.016213102 0.100476936 -0.12106074 -0.016292559 -0.029763147 -0.0158618 -0.051817413 -0.006713781 0.043356072 0.055156354 -0.28096512 0.27535647 0.022209015 -0.117211275 -0.019749036 0.06713107 -0.07951343 -0.05245155 -0.059800934 0.06464606 -0.11236382 -0.118226945 -0.06807253 0.16614108 -0.017112514 -0.23315382 0.10347913 0.10464471 0.14080043
121 -0.039230395 0.07001875 -0.074865825 0.03701737 -0.20906806 0.017998448 -0.058868 0.09877674 -0.014691961 0.08044921 0.08934133 0.108975396 -0.059235808 0.007573266 -0.0050298814 -0.029613202 -0.16361782 0.08840795 0.018768212 0.16305827 -0.10367218 -0.048943695 -0.010385634 -0.06658398 -0.047807768 0.15849891 0.11771371 0.10131514 -0.13747364 0.069529206 0.0780327 0.14094919 0.18366107 0.16100886 -0.087258056 -0.05546168 0.07929702 -0.009708418 -0.0228801 -0.1401391 -0.14121147 0.0727433 -0.073998384 0.058750734 0.019748254 -0.14590868 -0.04417773 -0.06438519 -0.068784334 -0.11282394 0.04363254 -0.111136995 -0.111650474 0.055887688 -0.12864166 -0.026035627 -0.0038183904 0.08384103 -0.09891434 -0.039864104 0.018678287 0.0008169835 -0.0007689774 0.083147876 0.18929206 0.06470608 -0.08114595 -0.061194506 -0.101289734 0.050182585 -0.072302386 -0.031495377 -0.016388167 0.11501664 0.14105149 -0.025198018 0.02989667 0.006592131 0.045781326 -0.07571285 -0.17831554 0.005045841 0.16986603 -0.09549963 -0.22630627 -0.07324406 -0.025996221 0.0767018 -0.033346158 -0.08301075 0.1017835 0.030620629 -0.10373471 -0.023263268 0.26247942 0.12335726 0.087072976 0.10003426 -0.07146369 -0.03379172 0.018499611 -0.13498579 0.0079188505 0.023954695 0.026226016 -0.018857343 0.000366289 0.04659963 -0.027921062 -0.25072068 0.17568842 0.022164708 -0.045664296 0.010384375 0.01214724 -0.12959458 -0.03864663 -0.056741897 0.049566578 -0.04698929 -0.15088081 -0.02044075 0.0692882 -0.047302425 -0.27810997 0.11409345 0.09220127 0.19442952
111 -0.016922848 0.0695665 -0.07121788 -0.014276874 -0.20182846 0.09498342 0.078313604 -0.03477282 -0.059739552 0.01815467 0.12968795 0.110482715 -0.096212804 -0.08487135 0.07177669 -0.09894762 -0.12992388 -0.03540333 -0.016085539 0.10383625 -0.03246117 -0.090303674 0.04802883 -0.061404448 -0.07546145 0.092791 0.1251015 0.07905091 -0.07601046 0.1587146 0.014728483 0.18511419 0.14497808 0.055329595 -0.0076291645 -0.12698005 0.04668626 -0.14760579 -0.009722933 -0.22255716 -0.16759166 0.09785168 -0.17644918 0.031734552 -0.008140471 -0.24594493 -0.08950944 -0.0333073 -0.22556084 -0.13108858 -0.06608942 -0.10323177 -0.19712704 0.09834921 -0.17904522 -0.025814198 -0.0076210806 0.052628193 -0.20228697 -0.07946435 -0.018509505 -0.02021598 0.13050762 0.09352726 0.21411204 0.07519524 -0.09273809 -0.12782924 -0.08261476 0.012579016 -0.07939508 -0.025866888 0.077963136 0.0831179 0.14046553 0.06814962 0.07521942 -0.020786112 -0.06104391 -0.018615436 -0.10677437 0.14939938 0.07526249 -0.14510673 -0.2975469 -0.17644559 0.028237948 0.054535624 -0.048966605 -0.13892819 0.08084429 -0.13928148 -0.020729143 0.0556817 0.2246924 0.0354918 -0.022453763 -0.03247567 0.00019459761 -0.009707934 0.11279902 -0.10050436 -0.029878857 -0.04068051 -0.01918423 -0.06019603 -0.03242997 0.031010276 0.06965559 -0.27966908 0.29003918 0.010997916 -0.14107879 -0.027799765 0.04886421 -0.07365205 -0.036153045 -0.048703574 0.07921826 -0.13271204 -0.11701175 -0.08574754 0.18599162 -0.032312788 -0.20338692 0.11921749 0.13007651 0.12734026
201 -0.0103671 0.026072504 -0.03997597 0.027092703 -0.23176025 0.020536996 -0.024040453 0.10877629 0.0064991363 0.14859061 0.16235538 0.084462814 0.0077363085 0.045001123 0.038562246 -0.037257046 -0.096102744 0.12601863 0.039565142 0.12951148 -0.13668582 0.0063599194 -0.042480193 -0.07621713 -0.022359768 0.15453872 0.099601425 0.108511694 -0.11860104 0.067003496 0.055926014 0.15212448 0.17634334 0.092940286 -0.092246816 -0.041379843 0.094823755 0.02384176 0.037371855 -0.14541271 -0.15988573 0.04703153 -0.10196808 0.09997615 0.0113940425 -0.20078203 -0.044025216 -0.07673165 -0.0663313 -0.16034979 0.079063125 -0.15843786 -0.105374135 0.03898429 -0.13514803 -0.040952872 0.015277203 0.065383084 -0.1166703 -0.0053478247 0.02179545 -0.05368795 -0.010226591 0.12308949 0.18705402 0.061130952 -0.062044375 -0.057527415 -0.08617298 0.06853547 -0.06425485 -2.0241605e-05 -0.039513014 0.09056406 0.1251425 0.030565042 0.0052453005 -0.023076981 0.117625 -0.091023095 -0.14170143 0.012813023 0.13670838 -0.086606786 -0.1708962 -0.12589084 -0.03297323 0.11951272 -0.00029127867 -0.07826356 0.09962438 -0.002249889 -0.10472776 -0.008668356 0.2521852 0.13093564 0.1078599 0.0880389 -0.076844655 -0.014189594 -0.0005274036 -0.069355205 -0.0046425527 0.031928796 0.052733064 -0.02853293 -0.019298993 0.05038749 -0.059905875 -0.1828924 0.1289145 -0.017542647 -0.07525587 0.031142557 -0.062186167 -0.1246781 -0.008825407 -0.043461435 0.08151568 -0.065662466 -0.17658505 -0.011979031 0.05161016 -0.13321236 -0.23848908 0.14204949 0.09241282 0.18210803
24 -0.041189417 0.07935447 -0.12069132 0.043601904 -0.27750307 -0.052477892 -0.14598942 0.12871918 -0.040615864 0.1334559 0.09155986 0.09100125 -0.09940118 0.013291682 -0.009651179 -0.049827784 -0.19049032 0.1315497 0.061581306 0.17904386 -0.11241788 -0.010609021 -0.021163035 -0.107827395 -0.03629665 0.19247487 0.079145305 0.13424712 -0.17848444 0.098841056 0.117116116 0.10394748 0.1561059 0.12885524 -0.090622365 -0.03086111 0.119577274 0.028799657 0.010108177 -0.12240239 -0.14185654 0.03548947 -0.027761605 0.036835145 0.0089912545 -0.12685597 0.019998735 -0.06283601 0.009284513 -0.13148518 0.070526555 -0.1253167 -0.09176686 0.097145975 -0.062801816 -0.05912845 -0.0144136045 0.0871702 -0.0462849 -0.0041737203 -0.061628107 0.018242043 -0.07599824 0.09886246 0.19077125 0.09963759 -0.076725215 -0.044407338 -0.1429462 0.055094596 -0.06865394 -0.048489377 -0.07239588 0.1252596 0.10302309 -0.07016214 -0.008364358 0.0058714543 0.10091957 -0.0885785 -0.12832561 -0.035635203 0.18485224 -0.060426828 -0.13383259 -0.074892916 -0.07412137 0.10652005 -0.020122722 -0.08766008 0.13286224 0.087802455 -0.12013918 -0.02686504 0.25182682 0.20199473 0.12600173 0.13259311 -0.05196309 -0.056525476 -0.03370584 -0.10913 0.050272085 0.05628069 0.071422115 -0.0063878675 0.055619936 0.093647294 -0.09981872 -0.19183417 0.12891276 0.047995403 0.0015453695 0.021893634 0.039998192 -0.12923776 -0.10210689 -0.04855634 0.013222121 -0.07424493 -0.14330696 0.022267884 -0.0025241189 -0.049112886 -0.34783727 0.13891318 0.047460403 0.15918188
106 -0.022066802 0.035636354 -0.05146055 0.03860885 -0.22453429 0.0060784244 -0.07203163 0.13753243 0.01592133 0.122499175 0.12522997 0.09672435 0.01175838 0.053901006 -0.015876409 -0.003745323 -0.13192913 0.1370392 0.028819589 0.15899262 -0.1369461 -0.017960908 -0.043730006 -0.06669528 -0.030748943 0.15934604 0.10033773 0.102204956 -0.14342207 0.04263978 0.07642048 0.1447013 0.18169251 0.15928116 -0.119024746 -0.028008217 0.08347346 0.043131206 -0.0061608003 -0.11750044 -0.14649709 0.05406117 -0.07266487 0.091081336 0.023541706 -0.13467118 -0.02477289 -0.08399663 -0.03809286 -0.12998797 0.07972456 -0.13432638 -0.07828601 0.024845257 -0.12260968 -0.031796046 0.0013894538 0.08421938 -0.08312464 -0.014773909 0.041355602 -0.02345554 -0.016033309 0.102211155 0.17050771 0.052649785 -0.06349791 -0.033911895 -0.095730014 0.065137535 -0.06867054 -0.005115488 -0.040156253 0.1151582 0.1385502 -0.029444633 0.0039908756 0.0036503419 0.11065439 -0.09439992 -0.19022214 -0.020792948 0.16965665 -0.087285876 -0.20287675 -0.059348315 -0.043036748 0.09865355 -0.007549151 -0.066960715 0.09126458 0.06400408 -0.1389763 -0.030868182 0.27197123 0.14930399 0.12590605 0.12585174 -0.09090479 -0.03278513 -0.0059458693 -0.10662888 0.007077835 0.051426142 0.051544324 -0.015987813 -0.011260288 0.052974787 -0.06584569 -0.22046363 0.12777652 0.0020669734 -0.045967102 0.037444413 -0.020859063 -0.1398422 -0.020334512 -0.055076104 0.055296082 -0.0429123 -0.17139299 -0.008192162 0.036238536 -0.093756534 -0.28166142 0.12686813 0.088794574 0.21440612
19 0.00587397 -0.010324042 -0.053480573 0.034688905 -0.3395849 -0.018427324 -0.032270826 0.13797083 -0.00013306462 0.28181782 0.26540795 0.07355474 0.05483045 0.081808954 0.10167359 -0.033810344 -0.042248294 0.21807341 0.10026733 0.09859113 -0.1684259 0.0799274 -0.096897416 -0.12621354 -0.0062514124 0.20115964 0.076711364 0.14226851 -0.13357659 0.089640066 0.060757075 0.16549917 0.14698385 0.0049849274 -0.107548594 -0.012492806 0.15368995 0.08607521 0.10855199 -0.147528 -0.20693524 -0.004617907 -0.09679601 0.12991688 0.0073215137 -0.27475682 0.009289698 -0.10454628 -0.0019359197 -0.22714825 0.15241745 -0.20491016 -0.07596667 0.063142866 -0.11565006 -0.08252268 0.0026923984 0.036411732 -0.11081151 0.06457283 -0.021573937 -0.10811472 -0.08017424 0.19022301 0.19778359 0.08521622 -0.046892375 -0.04177178 -0.09714505 0.07898269 -0.042047728 0.03704681 -0.10702467 0.0708897 0.09322002 0.08200437 -0.041195575 -0.06262778 0.2420692 -0.11948008 -0.08579246 -0.03789482 0.112274155 -0.051604852 -0.022077078 -0.18544562 -0.09539004 0.1878842 0.06557236 -0.069980785 0.12296781 0.01843689 -0.11983186 -0.023107665 0.24587642 0.17955136 0.17871831 0.11224302 -0.08240173 0.004588846 -0.055283245 0.019183598 0.014663922 0.07124617 0.11576998 -0.02786395 -0.019720858 0.08082468 -0.14086212 -0.06811072 0.04663629 -0.047406055 -0.09435296 0.0429495 -0.114321016 -0.11915252 -0.011769882 -0.011990983 0.09564764 -0.119814135 -0.19738516 0.016076738 -0.016590113 -0.24235138 -0.24227543 0.18819003 0.07611785 0.15630817
177 -0.055396907 0.09634528 -0.109494 0.010263709 -0.23762864 0.002111752 -0.08982532 0.063475795 -0.06328658 0.060858913 0.049532026 0.095661804 -0.16906878 -0.05788978 0.0122196125 -0.08726224 -0.20551851 0.021751137 0.010300217 0.16971536 -0.05580351 -0.06454877 0.040758748 -0.077707596 -0.059712186 0.15793559 0.09715551 0.11069158 -0.13133408 0.13445856 0.09157139 0.117106855 0.16313621 0.1139403 -0.058401965 -0.08470847 0.07294457 -0.06805113 -0.024136964 -0.14960495 -0.11893657 0.06924564 -0.06641167 0.015024196 -0.016367286 -0.1440823 -0.05605438 -0.03276605 -0.08032565 -0.096221514 -0.0020877921 -0.1188108 -0.13510284 0.11369359 -0.10321529 -0.050555564 -0.016050646 0.07413768 -0.091963656 -0.045306712 -0.049243845 0.041817047 0.013204279 0.08726306 0.19862315 0.10569139 -0.09915334 -0.08625518 -0.13281122 0.03470578 -0.066243015 -0.07836136 -0.0132867005 0.10283017 0.1257311 -0.038970053 0.036340438 0.013790671 -0.022435589 -0.04427483 -0.13151751 0.043734964 0.16441417 -0.0819457 -0.22835262 -0.107508495 -0.0064136377 0.06107175 -0.066774234 -0.11955278 0.11496254 0.0028151742 -0.08095247 0.010493522 0.24269137 0.13861015 0.038700465 0.06613933 -0.018457139 -0.048468206 0.04020501 -0.1480336 0.023577394 0.0028454342 0.01644421 -0.020853287 0.052930962 0.074281044 -0.00398357 -0.25532597 0.22394527 0.055925142 -0.03435181 0.006415043 0.08531334 -0.10532866 -0.09850059 -0.06217353 0.025454503 -0.07706902 -0.1188351 -0.013297422 0.08367374 0.014952494 -0.3074515 0.10512805 0.06586388 0.15201153
137 -0.011077936 0.029804949 -0.05496059 0.05016104 -0.2522068 0.0011145235 -0.03630377 0.13538158 0.01151358 0.16533183 0.17083634 0.104387976 0.040410228 0.06522187 0.017475188 -0.0014643944 -0.103358634 0.15932131 0.045044426 0.12438135 -0.13853423 0.012445951 -0.07060813 -0.07218783 -0.01663745 0.16443513 0.093730435 0.1066081 -0.13004307 0.0630222 0.060267676 0.14806014 0.15809423 0.11055653 -0.10235568 -0.026799725 0.11136507 0.0590012 0.025057577 -0.12768213 -0.16220102 0.055122856 -0.08108938 0.099396475 0.03205774 -0.18947674 -0.025023824 -0.090779305 -0.027901154 -0.14981547 0.09543879 -0.14426477 -0.08991722 0.032627948 -0.123246215 -0.042811852 0.00025772725 0.0622138 -0.110847786 -0.010066731 0.040459096 -0.050605576 -0.034849927 0.12316301 0.18218026 0.05755151 -0.06555642 -0.046370305 -0.097108886 0.067440905 -0.06590761 0.008484844 -0.048960626 0.10688202 0.13302848 0.015933206 -0.0047721122 -0.020547435 0.13174348 -0.10546753 -0.16505992 -0.021397308 0.14129993 -0.09163833 -0.15158418 -0.110028915 -0.07065763 0.13316277 0.022392595 -0.06477287 0.10158813 0.034034036 -0.11955652 -0.03142067 0.26087457 0.14390792 0.14464808 0.11811444 -0.0972273 -0.017072158 -0.009210647 -0.082226016 -0.0015602467 0.059866358 0.06093329 -0.02492444 -0.030601846 0.047389835 -0.08394007 -0.18847626 0.10668824 -0.017183227 -0.07182368 0.023595655 -0.057182398 -0.13027696 -0.0019822351 -0.029807616 0.07130057 -0.059690077 -0.17869124 -0.009870491 0.028551172 -0.1390561 -0.254612 0.14869082 0.10429668 0.19894624
49 -0.03810804 0.06309996 -0.11410876 0.044311196 -0.28069478 -0.056568854 -0.13400798 0.12383175 -0.04528008 0.13755502 0.116436824 0.08462836 -0.07551109 0.022449536 0.010360311 -0.040939495 -0.1573934 0.13485925 0.068509035 0.15253483 -0.10808877 0.0150998775 -0.03234043 -0.112092435 -0.04083186 0.18787523 0.075233884 0.12550202 -0.16962728 0.10005207 0.10410897 0.1045059 0.14322737 0.09789841 -0.09403603 -0.020648092 0.12172338 0.03145593 0.02225305 -0.114717916 -0.14766756 0.03363874 -0.03734541 0.0415867 -0.00034645695 -0.1515727 0.025569348 -0.075295985 0.0021433574 -0.15140808 0.07806807 -0.12692605 -0.08500941 0.101341404 -0.06552789 -0.06479863 -0.017719818 0.08263778 -0.057145856 0.016116329 -0.06745627 0.004573699 -0.0781745 0.11385995 0.18905456 0.1074591 -0.071264595 -0.044527642 -0.14113122 0.058837637 -0.058899608 -0.03819598 -0.08190395 0.11276642 0.10081932 -0.050034083 -0.016034108 0.00042752354 0.1278514 -0.09510373 -0.119951665 -0.040558044 0.17906466 -0.061899588 -0.11375539 -0.09785799 -0.080494106 0.1225197 -0.0004474498 -0.0961777 0.12973976 0.07740732 -0.11685265 -0.03343465 0.2528463 0.21083121 0.12916973 0.13458502 -0.0655511 -0.044294942 -0.036043514 -0.094696656 0.039196827 0.06137428 0.08748277 -0.0020260252 0.04053302 0.08107239 -0.11536367 -0.17240833 0.11737035 0.026357349 -0.017351236 0.029677378 0.036385186 -0.12944156 -0.091911376 -0.038141858 0.03415126 -0.08948784 -0.15414044 0.026891736 0.0055931117 -0.074698076 -0.3361039 0.14914899 0.052907977 0.16892524
158 -0.019042477 0.05782576 -0.05490719 0.015617264 -0.19056877 0.042952117 -0.00941951 0.077678174 -0.010334881 0.067095235 0.10933677 0.0991755 -0.04197922 0.001809982 0.01026702 -0.03481637 -0.14202438 0.0544641 0.006668333 0.13615464 -0.08764263 -0.05035765 -0.0012052115 -0.052191358 -0.048561163 0.13163872 0.11131204 0.09189151 -0.10650217 0.0841242 0.045395825 0.14632608 0.16936082 0.12626457 -0.064327724 -0.068498746 0.05416532 -0.035399746 -0.017333863 -0.15751235 -0.13978776 0.08433937 -0.105210654 0.05603234 0.016849333 -0.17121963 -0.055413034 -0.06133743 -0.11996221 -0.12372551 0.012853235 -0.11889367 -0.13161117 0.055599615 -0.15335065 -0.0322156 0.0049485858 0.07028184 -0.1420873 -0.065319866 0.01847986 -0.017581802 0.04231843 0.09123165 0.19013736 0.058997296 -0.08261084 -0.07115724 -0.09352614 0.04956335 -0.082406856 -0.020443767 0.016399847 0.110819906 0.13942921 0.011111432 0.047488056 0.009526333 0.023037469 -0.06773812 -0.16971296 0.05169912 0.13532937 -0.12487639 -0.27257705 -0.1031763 -0.011945333 0.073847935 -0.024102611 -0.10551334 0.085186675 -0.017518269 -0.08979772 1.1168082e-05 0.25915444 0.096083485 0.06850763 0.062901005 -0.06578194 -0.02863741 0.049680162 -0.12006043 -0.018618112 0.018359082 0.008843695 -0.040884636 -0.03136247 0.039454553 0.0014934432 -0.26191232 0.20672745 0.015316089 -0.08708495 0.0023616643 0.013407277 -0.1291089 -0.029340468 -0.05697688 0.072619304 -0.07787171 -0.14670993 -0.041545875 0.10694658 -0.053572077 -0.26015508 0.12525411 0.10617752 0.19078858
128 -0.035934515 0.06920255 -0.0534144 0.006947734 -0.1725591 0.050142776 -0.031945515 0.07270706 -0.004629961 0.026096528 0.058397844 0.106699936 -0.08028878 -0.02507915 -0.020393554 -0.038689323 -0.17616011 0.036123473 -0.017518776 0.17320085 -0.073135026 -0.09045262 0.017376367 -0.052343205 -0.06272642 0.12679504 0.123495474 0.08907592 -0.11629719 0.07742948 0.062176157 0.15558255 0.1944536 0.16327797 -0.06728545 -0.078975804 0.044596832 -0.05105795 -0.055162188 -0.1544495 -0.12922569 0.10176818 -0.09549712 0.058547087 0.005272967 -0.13928065 -0.06770822 -0.052632097 -0.12566344 -0.09376392 -0.0012024533 -0.10525585 -0.1451001 0.058708493 -0.15626314 -0.01238501 -0.0006334655 0.080857985 -0.123409525 -0.074383594 0.036593508 0.01129581 0.054520912 0.07037614 0.20082653 0.071560316 -0.099570855 -0.07440362 -0.09840378 0.035545424 -0.07567931 -0.040293213 0.020662008 0.13003166 0.15939406 -0.02013962 0.05725668 0.02432323 -0.019212235 -0.052060727 -0.19304188 0.0502955 0.1621755 -0.11959817 -0.30763337 -0.07329293 0.01277095 0.051198293 -0.05358471 -0.10609972 0.086831555 -0.008004187 -0.09694891 -0.0044984487 0.2646183 0.09961098 0.041569244 0.06606159 -0.0614103 -0.03823511 0.062923186 -0.17234838 -0.016230982 0.005421155 -0.008709393 -0.028433932 -0.020590775 0.032587126 0.01760472 -0.29476908 0.24311008 0.026956802 -0.06747438 -0.0005878766 0.04072489 -0.12885392 -0.034656312 -0.07207907 0.06538929 -0.047151566 -0.13758028 -0.044735614 0.117718056 -0.0042837453 -0.27478582 0.10609855 0.099923365 0.20054051
1 -0.03502322 0.062106926 -0.058310427 0.027582742 -0.18762861 0.024829194 -0.07265741 0.11103717 -0.0052817543 0.04906426 0.06921814 0.111334555 -0.061167117 0.01233035 -0.036886547 -0.018270755 -0.18341039 0.07293751 -0.0004251273 0.17328154 -0.10212005 -0.06497722 -0.0008942578 -0.05152115 -0.050895765 0.14498095 0.11274222 0.08993446 -0.13398784 0.059541438 0.076049216 0.13750827 0.1847686 0.1838777 -0.09832109 -0.05579816 0.048292674 -0.014974911 -0.045130044 -0.12655796 -0.118247665 0.089664996 -0.07436614 0.05754767 0.018483674 -0.11139 -0.04951622 -0.057145204 -0.07857705 -0.09923139 0.02004185 -0.10835043 -0.11535478 0.0484752 -0.13515902 -0.025769284 -0.003664779 0.09427654 -0.09534297 -0.06279767 0.033811685 0.01705636 0.019906012 0.067060165 0.18368374 0.062469587 -0.079625726 -0.058430053 -0.103260085 0.044057693 -0.07582483 -0.03630214 0.00017064736 0.1350297 0.15871288 -0.051014274 0.036219455 0.019644475 0.017657628 -0.07196136 -0.19987202 0.008440565 0.18101166 -0.10538806 -0.27619484 -0.0381728 -0.011305411 0.063331276 -0.03651158 -0.09012369 0.08835007 0.03924411 -0.12070914 -0.023632593 0.26905918 0.11413415 0.079991825 0.10234745 -0.07574682 -0.045928203 0.02311238 -0.16534956 0.00022509167 0.02716682 0.0041968613 -0.01812818 -0.00068605476 0.03574085 -0.013496735 -0.2799914 0.20130572 0.032031137 -0.03488122 0.01277535 0.041038442 -0.13494405 -0.04075039 -0.07001355 0.044371642 -0.033588015 -0.15353885 -0.022896072 0.08769521 -0.010343992 -0.28629327 0.103485 0.094274394 0.2145177
113 -0.03504953 0.088319734 -0.08754743 -0.01918631 -0.19795978 0.0955327 0.047656767 -0.03089849 -0.07275876 0.0013079667 0.079253994 0.10285525 -0.15798731 -0.109901346 0.055074185 -0.11391196 -0.16613257 -0.06162071 -0.024295151 0.13273133 -0.013715671 -0.107130095 0.06768065 -0.049667552 -0.08666066 0.10389256 0.1182814 0.09477405 -0.06918081 0.16649368 0.028388413 0.16425334 0.1458834 0.0626999 -0.01023153 -0.12822232 0.035648096 -0.1657071 -0.022642875 -0.21017896 -0.13537253 0.098735705 -0.16514738 0.015177166 -0.029111741 -0.20956317 -0.118056126 -0.014193345 -0.21394852 -0.096331544 -0.071409695 -0.10696887 -0.19722544 0.10826824 -0.16884081 -0.033547316 -0.0112475995 0.058388487 -0.18797977 -0.09239736 -0.026587967 0.011548986 0.13376088 0.08910501 0.21103661 0.090437464 -0.10396176 -0.1370327 -0.10022077 0.017230563 -0.08289311 -0.050302766 0.061378267 0.07679047 0.13735822 0.04859267 0.08832072 -0.008257375 -0.09134201 -0.0038598694 -0.117437385 0.14556792 0.096611276 -0.13606477 -0.3269064 -0.1733021 0.043945566 0.04450863 -0.06587037 -0.14753957 0.076163314 -0.12637022 -0.0359083 0.06386093 0.23409328 0.050419904 -0.04004504 -0.01949107 0.0057639666 -0.028233971 0.12075222 -0.12911445 -0.021451926 -0.04194571 -0.036367446 -0.059440922 -0.009965331 0.042291924 0.082382925 -0.3131138 0.30673116 0.03502243 -0.12521507 -0.02900967 0.092891894 -0.07876987 -0.06404623 -0.06850481 0.072590105 -0.118509725 -0.10930955 -0.07509819 0.19420964 0.013553245 -0.2411066 0.091651924 0.10979722 0.13329694
203 -0.012075065 0.021270601 -0.05109141 0.032790802 -0.26879415 0.0001393492 -0.05773985 0.14557748 0.012905194 0.19942954 0.15689157 0.08805487 0.020549783 0.06367716 0.04320735 -0.026134353 -0.10371373 0.17207639 0.049275097 0.14492454 -0.16039166 0.017448068 -0.0719457 -0.08347256 -0.021604115 0.19053762 0.10332776 0.12266006 -0.13926041 0.05619544 0.07530554 0.1503689 0.1839247 0.10632002 -0.1197529 -0.017344993 0.12299513 0.070855044 0.038931277 -0.11582518 -0.15541512 0.03480627 -0.07159076 0.10915745 0.013577489 -0.19563961 -0.033050254 -0.08897391 -0.011048519 -0.15598355 0.12372255 -0.17502226 -0.07627979 0.03821098 -0.12832873 -0.058061 0.007694568 0.05587525 -0.09933417 0.013915481 0.028267505 -0.04489731 -0.048663396 0.13664481 0.18999724 0.07919148 -0.06577829 -0.040122215 -0.09848465 0.07661868 -0.04485869 0.0089652045 -0.07807163 0.09098051 0.118424945 0.019611988 -0.012050462 -0.021933125 0.1548525 -0.10831163 -0.15176141 -0.0358356 0.15191758 -0.06128026 -0.12503386 -0.118325345 -0.058098193 0.13794324 0.017558424 -0.060111012 0.10963506 0.04235018 -0.13133283 -0.036517866 0.25487077 0.15678044 0.14616083 0.13834396 -0.08660411 -0.016988585 -0.022051493 -0.066188574 0.014611813 0.045989793 0.07354405 -0.011820817 -0.020828826 0.0540857 -0.08563879 -0.1631232 0.08970101 -0.008230266 -0.05398884 0.041155536 -0.07083047 -0.14085098 -0.011620925 -0.041249555 0.08111262 -0.044290084 -0.18899867 0.01025582 0.01181698 -0.14733627 -0.2555188 0.14500292 0.07911977 0.19848289
105 0.002698277 -0.005642191 -0.07079127 0.011980739 -0.35949633 -0.005641165 -0.010635653 0.107760414 -0.012093466 0.2875109 0.25327593 0.066327445 0.039346624 0.06714685 0.13784455 -0.059681326 -0.026961086 0.2054342 0.106915005 0.10008318 -0.15903479 0.08353669 -0.09832288 -0.12574682 -0.016761454 0.20011923 0.082311355 0.14630523 -0.13347645 0.10600972 0.053322118 0.17287663 0.13618636 -0.011104802 -0.09797426 -0.016108098 0.1653244 0.05815429 0.1334299 -0.15481964 -0.20589237 -0.0017807389 -0.11508636 0.12441085 0.0052175713 -0.29665816 -0.0008302491 -0.09558239 -0.0076827724 -0.23196085 0.15087914 -0.21654001 -0.07872994 0.06916481 -0.11575183 -0.08875593 0.0070817955 0.020957358 -0.124226816 0.068013296 -0.03847021 -0.10127298 -0.066253155 0.19878301 0.20436133 0.09865682 -0.052907374 -0.063422814 -0.09925323 0.07378375 -0.0391106 0.035387967 -0.111362286 0.042746425 0.0772301 0.09831539 -0.035747483 -0.071239896 0.23213385 -0.10918806 -0.069304146 -0.017827012 0.09060515 -0.043036357 -0.0046040863 -0.22251546 -0.080842115 0.19805108 0.06243182 -0.08185788 0.11970282 -0.015571668 -0.101284795 -0.014304024 0.22913662 0.1749776 0.15847778 0.10327422 -0.06396155 0.012200431 -0.041160688 0.040274236 0.019858249 0.04215266 0.119897686 -0.02548796 -0.016537208 0.08554178 -0.12290052 -0.057030838 0.048747346 -0.050826117 -0.113926314 0.0348989 -0.10985968 -0.10399613 -0.026052326 -0.006287684 0.11073468 -0.12862189 -0.1962792 0.00674513 -0.008896072 -0.24792458 -0.24077424 0.18783721 0.08049444 0.13227361
200 0.005157395 0.05286596 -0.03824047 0.00084335916 -0.18425153 0.09832777 0.12806815 -0.024181718 -0.043171458 0.030659493 0.18237953 0.123366825 -0.022378575 -0.050105017 0.05673582 -0.06237171 -0.10813552 -0.015680747 -0.011164127 0.084865205 -0.030911446 -0.08825989 0.024291985 -0.0584398 -0.06504058 0.08168054 0.11781084 0.056917552 -0.06210855 0.14904289 0.0059634047 0.20291582 0.13385357 0.06321143 -0.008042246 -0.12744047 0.033514764 -0.12506261 -0.01497017 -0.23602968 -0.18921815 0.1054007 -0.19532458 0.04957579 0.02266874 -0.2722527 -0.08711665 -0.04625263 -0.24716863 -0.15606229 -0.06912983 -0.099600226 -0.20909606 0.071533635 -0.1970112 -0.015467588 -0.007798842 0.05645209 -0.23639634 -0.106775604 0.02437278 -0.053800113 0.1436007 0.10063722 0.20524666 0.04101938 -0.08672119 -0.1240122 -0.06662964 0.023046091 -0.0953913 -0.0036387404 0.097498074 0.08688165 0.14943217 0.08565241 0.077580854 -0.021035735 -0.027632609 -0.03711417 -0.13565065 0.16353412 0.06571592 -0.17916206 -0.32866415 -0.17840157 0.013914364 0.072647035 -0.033427514 -0.13025452 0.0732833 -0.138767 -0.029188596 0.05273601 0.2565703 0.023828462 -0.0044664945 -0.037766334 -0.03195994 -0.0023337402 0.11063071 -0.095861346 -0.056442752 -0.012509691 -0.029802328 -0.07655464 -0.07508962 0.022704117 0.06671329 -0.29585543 0.2905632 -0.012554113 -0.17606725 -0.033491842 0.015430384 -0.08039611 0.00078367937 -0.04321016 0.09370735 -0.14899684 -0.12729333 -0.10154645 0.1956611 -0.06333122 -0.1977019 0.1492366 0.16958325 0.15400793
173 -0.03728488 0.060773864 -0.11742818 0.033218812 -0.3215289 -0.05383386 -0.1178371 0.12689005 -0.039724633 0.18071689 0.14458878 0.083578296 -0.07265194 0.023650138 0.05044453 -0.06336297 -0.1352305 0.15149976 0.07571363 0.1474986 -0.11566218 0.029490242 -0.052417245 -0.12762657 -0.03091483 0.19708137 0.07529334 0.14041902 -0.16433506 0.11221096 0.10673092 0.12042438 0.14880268 0.070752114 -0.088884905 -0.010601306 0.15388918 0.046240725 0.035156474 -0.11510762 -0.1564157 0.011951484 -0.046752166 0.053755883 -0.0053706802 -0.1892013 0.019875148 -0.090992026 0.013604031 -0.15315345 0.103750475 -0.15844688 -0.072890155 0.10836762 -0.07229603 -0.06760359 -0.014325461 0.06397596 -0.07027119 0.040057782 -0.06241559 -0.0038255595 -0.08335559 0.1343474 0.20087615 0.11607594 -0.06642561 -0.046698194 -0.14020742 0.06302775 -0.04370511 -0.014055238 -0.1106756 0.091195896 0.0938996 -0.0110771805 -0.028071094 -0.02572208 0.14833675 -0.09002376 -0.100651994 -0.044034176 0.16123213 -0.036269538 -0.0703287 -0.14206775 -0.08303175 0.13669917 0.011347696 -0.08002211 0.14320718 0.055172496 -0.104568355 -0.029335022 0.2334237 0.20399095 0.13095191 0.14014348 -0.06906737 -0.03023295 -0.03071536 -0.06367925 0.042704873 0.0471879 0.103043444 0.0061519505 0.036544163 0.08158867 -0.13595596 -0.13933468 0.08535428 0.025864178 -0.03443067 0.036672585 -0.0005745056 -0.12290354 -0.07482882 -0.02831098 0.042313427 -0.077735 -0.17453219 0.036972307 -0.009574009 -0.10917943 -0.31305546 0.14305507 0.053613026 0.16185291
58 0.01071195 0.06094824 -0.039628536 -0.008481405 -0.16546728 0.12151959 0.1443115 -0.052834243 -0.048583437 -0.0057398356 0.1734235 0.12834854 -0.02807792 -0.06476168 0.051551323 -0.0711373 -0.119609825 -0.040753618 -0.015435731 0.08741334 -0.026527913 -0.105095305 0.03323602 -0.049189255 -0.07613375 0.066498235 0.12640138 0.06451973 -0.050549366 0.15566932 -0.01281281 0.2059151 0.14135839 0.06059887 0.007140613 -0.14373676 0.026055198 -0.1589979 -0.028544312 -0.25620523 -0.18786724 0.10517696 -0.20631747 0.041283846 0.020704936 -0.2649004 -0.09073295 -0.040051464 -0.2802995 -0.1345578 -0.093739636 -0.08578546 -0.22487643 0.07371271 -0.21410097 -0.00014985708 -0.008892941 0.05960424 -0.25350854 -0.11938585 0.01830175 -0.056371983 0.16886629 0.09228326 0.20884357 0.039465804 -0.087445505 -0.12598571 -0.05885549 0.018865721 -0.10357615 -0.00796764 0.1289973 0.09132855 0.14943999 0.09277214 0.08758162 -0.014180196 -0.049791295 -0.020393109 -0.13485011 0.19177757 0.05827173 -0.19267023 -0.35985404 -0.18237601 0.023627069 0.04774359 -0.051272046 -0.13127246 0.06671029 -0.16482215 -0.00051396334 0.06518261 0.2531009 0.012605235 -0.02883254 -0.0673932 -0.01612049 -0.009692606 0.1322505 -0.09445331 -0.056137346 -0.027867459 -0.044966567 -0.08274074 -0.0864266 0.024762364 0.08788098 -0.31679523 0.32103416 -0.003419345 -0.18387088 -0.04694154 0.026123801 -0.08208569 -0.0044780145 -0.043895826 0.09043731 -0.15829936 -0.11292897 -0.11022455 0.21981679 -0.050892573 -0.18767293 0.14485055 0.17678046 0.14260621
115 -2.2355576e-05 0.030519828 -0.017394833 0.025236009 -0.16258778 0.05635 0.018688481 0.09524716 0.021686947 0.08380274 0.1404039 0.10225271 0.053250816 0.053643007 -0.009589757 -0.00066169334 -0.11468637 0.09564581 0.009762222 0.12773745 -0.12616394 -0.04029311 -0.047342 -0.03193468 -0.024558742 0.11894004 0.11421015 0.07213168 -0.10546093 0.04882049 0.041195735 0.15269677 0.17934914 0.16174714 -0.08748723 -0.04797714 0.05899579 0.010751907 -0.018659297 -0.15337092 -0.14764367 0.08370818 -0.114072606 0.09237382 0.044812642 -0.16888869 -0.06409607 -0.07840154 -0.11127372 -0.13255925 0.04387626 -0.12452345 -0.11434313 0.0036564136 -0.16819769 -0.016535927 0.009903562 0.0855543 -0.14899155 -0.067061864 0.07826943 -0.04380994 0.0451535 0.08524364 0.17601229 0.025825042 -0.07174365 -0.053619206 -0.06950904 0.05591111 -0.0877878 0.006961298 0.026074812 0.122412324 0.15534104 0.0075743967 0.03252 0.0020833926 0.06443076 -0.08958306 -0.2054745 0.037642416 0.1309708 -0.12954679 -0.27613056 -0.07441763 -0.017086644 0.07776914 -0.021545732 -0.081294164 0.07347836 0.0054677897 -0.1148874 -0.013506607 0.27553898 0.09457222 0.094639786 0.08417502 -0.08505969 -0.029629562 0.027978007 -0.09586096 -0.027029535 0.03157217 0.0067735035 -0.038539276 -0.057547797 0.035837296 -0.00423773 -0.26428708 0.17276494 -0.0026613537 -0.08673666 0.010182752 -0.0423463 -0.14129211 0.009027267 -0.0538112 0.0763437 -0.05373013 -0.16077828 -0.044263143 0.092136 -0.098807305 -0.23165265 0.13134462 0.12780732 0.21310055
72 -0.016181022 0.034647733 -0.081620865 0.014175285 -0.30603456 -0.013131 -0.05586434 0.10939556 -0.029254533 0.2061333 0.18955691 0.064716235 -0.021656256 0.03246804 0.07300659 -0.064422674 -0.087635875 0.14105485 0.07422351 0.12387355 -0.12164585 0.038672645 -0.0543881 -0.109912716 -0.020549076 0.17364787 0.085264005 0.13299415 -0.14194572 0.10416754 0.07180742 0.14288251 0.1484525 0.04295356 -0.07941336 -0.036259882 0.1286477 0.023661908 0.07550138 -0.1502964 -0.18045706 0.016475026 -0.09174896 0.08512805 -0.0041969926 -0.22563113 0.0009054458 -0.07867974 -0.035910554 -0.18545228 0.08703244 -0.17148559 -0.09645409 0.07909422 -0.106390074 -0.074385 0.0011539949 0.046515897 -0.09695192 0.027933331 -0.05364267 -0.054422393 -0.03781741 0.15154769 0.19371006 0.08297273 -0.06773457 -0.062172253 -0.105103895 0.061405797 -0.055877842 -0.003217303 -0.06990512 0.07361197 0.09426028 0.029067978 -0.008665046 -0.032044154 0.14495495 -0.090474986 -0.088735685 0.0057025235 0.122834496 -0.06657757 -0.09547383 -0.15660526 -0.060817607 0.14374536 0.022148289 -0.09665412 0.11621989 0.008181143 -0.09042868 -0.009586698 0.2342421 0.16822039 0.12501553 0.08778835 -0.04649392 -0.008576964 -0.029054264 -0.021670355 0.025399985 0.029183768 0.08424548 -0.030614847 0.008882211 0.08182717 -0.0914554 -0.12756807 0.108425796 -0.016123526 -0.075108655 0.025840424 -0.039656788 -0.1120376 -0.052219786 -0.029097505 0.077193365 -0.12012939 -0.16869856 -0.001060336 0.017082991 -0.15782931 -0.270467 0.1687479 0.0664906 0.14245124
4 -0.0015795188 0.0075301183 -0.05521715 0.03476477 -0.2610183 0.021363687 0.006277865 0.116568975 0.00938968 0.18946657 0.20848757 0.091382116 0.04947447 0.06567751 0.06530374 -0.025541022 -0.078850955 0.15889819 0.05051855 0.11836371 -0.16074613 0.024210094 -0.07749471 -0.08425141 -0.023592008 0.17075506 0.104354225 0.115900815 -0.11676542 0.075257525 0.05528182 0.16399457 0.16037838 0.07484004 -0.09680795 -0.029091662 0.12742943 0.048751906 0.05504041 -0.14608103 -0.18151438 0.04211047 -0.10804033 0.11164381 0.026424574 -0.22729464 -0.028648924 -0.09186207 -0.051127426 -0.17379999 0.104918495 -0.17417638 -0.09225758 0.036768075 -0.13547286 -0.05663957 0.01282617 0.050405804 -0.13616581 0.00026268966 0.030048681 -0.07501254 -0.020877237 0.14402808 0.19087145 0.059632763 -0.053777784 -0.055952802 -0.09062963 0.06770303 -0.057691272 0.024176966 -0.05564756 0.07963625 0.11568296 0.06250047 -0.0045826775 -0.04004843 0.15131025 -0.10992524 -0.14076246 -0.004543412 0.116501085 -0.082082696 -0.12794577 -0.153354 -0.056718566 0.14754097 0.031331882 -0.05929337 0.101794 -0.0059463484 -0.10417065 -0.018582342 0.24230519 0.12769601 0.1328335 0.10037112 -0.08582653 -0.004345153 -0.0061785146 -0.044666808 -0.004446897 0.046824258 0.07432761 -0.019967133 -0.039775636 0.052360762 -0.08192162 -0.14906254 0.09385727 -0.030422086 -0.09628284 0.021435458 -0.09508452 -0.12544325 0.008192515 -0.02116972 0.09474259 -0.07462483 -0.18975975 -0.012041527 0.030265711 -0.17564169 -0.21649608 0.15451694 0.10385038 0.18318431
157 -0.026579345 0.06511779 -0.08104318 0.024590395 -0.20543262 0.0052887048 -0.06482712 0.07013167 -0.033471767 0.056353927 0.10103373 0.10025 -0.06607112 -0.004402796 -0.006945874 -0.042943105 -0.17565072 0.069129884 0.021660442 0.16104947 -0.08773711 -0.055233173 0.0005298228 -0.08401646 -0.04856347 0.13564597 0.10078993 0.108562715 -0.14550196 0.1105766 0.076083384 0.14389443 0.17109925 0.14276344 -0.06721584 -0.062067393 0.07767167 -0.03354823 -0.028715247 -0.160726 -0.14718145 0.07658039 -0.07735577 0.03810041 0.016476188 -0.15852928 -0.025775509 -0.055998 -0.096985795 -0.12951292 0.015088927 -0.105128884 -0.13653407 0.07955055 -0.12454707 -0.026598146 -0.009751031 0.08348856 -0.11251717 -0.045236796 -0.0168283 0.005809404 0.015242181 0.07967961 0.19165428 0.072436504 -0.08658313 -0.06433876 -0.10900063 0.04396086 -0.08622858 -0.043873888 0.0057445434 0.12738882 0.1275869 -0.03576667 0.029835327 0.016227897 0.037825808 -0.070372604 -0.15371111 0.04595769 0.15614372 -0.11308415 -0.23465206 -0.08561191 -0.036150903 0.06976624 -0.04004173 -0.099568196 0.10453162 0.01870471 -0.07917064 -0.0106531195 0.26338917 0.14017357 0.06543038 0.072474875 -0.055144493 -0.03838117 0.026528193 -0.12843384 -0.0017369903 0.020331645 0.026394624 -0.022577956 0.006045388 0.06245717 -0.0246159 -0.25227743 0.20274062 0.04009915 -0.05263597 0.0010925656 0.031064177 -0.1158122 -0.05284612 -0.06183708 0.038996555 -0.08888498 -0.12647057 -0.02312712 0.082351364 -0.034089345 -0.29597148 0.13235609 0.09168055 0.1713623
81 -0.040431947 0.08874355 -0.103282936 0.03756721 -0.25940803 -0.02944103 -0.1422138 0.10425664 -0.046166133 0.075758696 0.07725076 0.10179236 -0.12409492 -0.017945735 -0.020589268 -0.057274573 -0.20045617 0.076977834 0.034886573 0.17825602 -0.07036078 -0.04684966 0.014760009 -0.10073382 -0.052008376 0.17532255 0.08936226 0.12518084 -0.15920761 0.10709419 0.10593048 0.1051443 0.15780054 0.13565795 -0.06655101 -0.055655286 0.08422924 -0.016542116 -0.030303098 -0.1295603 -0.13383152 0.05389369 -0.03852524 0.022705989 -0.00044455304 -0.1250571 -0.011116896 -0.042239815 -0.050699413 -0.109077394 0.028542057 -0.10097348 -0.123971015 0.106008545 -0.0883445 -0.04498447 -0.026690308 0.0885335 -0.06860212 -0.028645648 -0.048151076 0.035804067 -0.03340206 0.08548487 0.19404076 0.09910324 -0.091856875 -0.05767925 -0.1411059 0.04611173 -0.07872302 -0.066488914 -0.028131504 0.12645708 0.122642994 -0.06579632 0.014180923 0.019765766 0.04200727 -0.06617592 -0.14233734 0.00962747 0.19125257 -0.08916098 -0.21266855 -0.079350494 -0.044389993 0.07451177 -0.043937974 -0.109103784 0.12531535 0.06379816 -0.09923115 -0.012357141 0.265303 0.18049659 0.08192162 0.094071455 -0.048617434 -0.057650093 0.0057604043 -0.15100199 0.021194002 0.03375953 0.04167088 -0.0118329 0.045777794 0.077361695 -0.05934641 -0.24349323 0.18479335 0.05033196 -0.010204071 0.014966921 0.07804446 -0.11294238 -0.09301784 -0.061229877 0.02295011 -0.08298407 -0.11990783 0.0059447573 0.057319127 -0.002990777 -0.33471975 0.11686552 0.06913473 0.16288795
197 0.0019060767 -0.012163975 -0.09442966 0.024108123 -0.38530985 -0.022233631 -0.016479835 0.118599124 -0.0111707905 0.3234154 0.2828344 0.05588597 0.061513253 0.08141988 0.16093837 -0.059912197 -0.009761967 0.23452584 0.12216391 0.084511705 -0.16203286 0.10613403 -0.11473222 -0.1429617 -0.0064297332 0.2193922 0.07673365 0.16179775 -0.1425452 0.11447337 0.058166243 0.17130269 0.12940843 -0.05041248 -0.10258496 -0.0017207736 0.18210855 0.08856736 0.15574652 -0.1460723 -0.22104044 -0.011077723 -0.10519321 0.13083006 0.00047845877 -0.32686758 0.019996874 -0.11330676 0.007710427 -0.25577772 0.17706981 -0.2281606 -0.07679633 0.074870855 -0.103649974 -0.10584793 0.0056497096 0.006715673 -0.119797096 0.097873606 -0.054517556 -0.12510033 -0.09153809 0.22522292 0.21555772 0.10942391 -0.0492724 -0.059021484 -0.104042165 0.08643551 -0.029135313 0.04522479 -0.14367086 0.03104837 0.074512504 0.1210471 -0.05623587 -0.0833801 0.2749801 -0.11839421 -0.043851346 -0.037901774 0.08650578 -0.034557965 0.048138667 -0.24848567 -0.10332099 0.22896251 0.08320702 -0.07494821 0.12648636 -0.009381712 -0.102583274 -0.016419247 0.22539644 0.19377644 0.18279588 0.105074756 -0.0613066 0.018299663 -0.058610205 0.065844946 0.026959416 0.048046052 0.13846478 -0.02259244 -0.019239083 0.08723595 -0.16559665 -0.024974715 0.01850682 -0.06756313 -0.11404869 0.04898802 -0.13158464 -0.101490684 -0.019807572 0.013137375 0.11074439 -0.14542778 -0.20574534 0.018792633 -0.033943642 -0.28529924 -0.23914889 0.20376931 0.07150965 0.12482072
193 -0.025860937 0.07758643 -0.121377386 0.03637769 -0.2926609 -0.012392624 -0.030571658 0.041894805 -0.06935638 0.10834473 0.16161063 0.10720415 -0.09536142 -0.036245972 0.06628317 -0.07192991 -0.14733651 0.07731534 0.04649298 0.10051252 -0.06330244 -0.010192769 0.0010897897 -0.11354338 -0.047875185 0.15390201 0.07065068 0.11532402 -0.11741139 0.16079706 0.076497585 0.1348218 0.10832339 0.026271546 -0.037398107 -0.07194851 0.124192715 -0.03955897 0.029422667 -0.16834867 -0.16780233 0.045617778 -0.094260424 0.022389142 -0.0016362591 -0.21967787 -0.015470376 -0.051905558 -0.082462914 -0.14133646 0.014968509 -0.11625354 -0.1415896 0.116934285 -0.09151506 -0.06605954 -0.030486232 0.04317153 -0.12431726 -0.021542914 -0.0650651 -0.015002482 -0.0034855437 0.11936603 0.20605297 0.102469504 -0.074895985 -0.091089785 -0.1319522 0.03543287 -0.061053403 -0.024559656 -0.021090088 0.076630086 0.10610992 0.033451006 0.00065655715 -0.034687273 0.054050628 -0.060734753 -0.08150721 0.044618286 0.124394916 -0.09466532 -0.14010732 -0.17637633 -0.06389712 0.121398 -0.0074808383 -0.1056742 0.12278861 -0.03429098 -0.058242045 0.005402533 0.22662199 0.13302557 0.07159916 0.049724825 -0.03207144 -0.018228758 0.02932111 -0.089230016 0.022307664 0.024015458 0.053588107 -0.030466199 0.011384712 0.05743125 -0.06813113 -0.18608041 0.171298 0.012879507 -0.07871082 -0.007428989 0.052501976 -0.0751512 -0.064629875 -0.013447923 0.03327886 -0.11909022 -0.12743911 -0.020778073 0.07298541 -0.06864684 -0.2666082 0.13754739 0.09081593 0.124379516
67 -0.00832277 0.009700391 -0.059584327 0.022920677 -0.28990915 0.00965584 -0.011694805 0.11561673 0.00033577782 0.23132075 0.2131457 0.073478594 0.04579474 0.061510455 0.08656256 -0.039381012 -0.05371977 0.16975228 0.06164385 0.10912846 -0.15118712 0.045866076 -0.08270064 -0.092853054 -0.019128729 0.18091698 0.09077398 0.12341993 -0.12057909 0.07886989 0.050104327 0.15573962 0.14841424 0.042313118 -0.09785634 -0.020837775 0.12851758 0.05551558 0.08220011 -0.1403107 -0.17657883 0.021611683 -0.10022977 0.116352655 0.016478471 -0.24139576 -0.019330362 -0.093702674 -0.035686113 -0.19041765 0.1185339 -0.18315756 -0.081528455 0.04358942 -0.11867025 -0.06683873 0.0062592016 0.040055353 -0.12399249 0.026968522 -0.00019799058 -0.0862216 -0.03471376 0.16413878 0.19493337 0.0781246 -0.061360803 -0.057832845 -0.09427471 0.07190601 -0.050902847 0.028822025 -0.080461234 0.067798704 0.10213471 0.065676056 -0.013695568 -0.04642164 0.17698355 -0.11366527 -0.120582744 -0.009382447 0.111548916 -0.06517885 -0.08876971 -0.1734646 -0.06351447 0.15995075 0.036408763 -0.073446006 0.105385266 -0.003750299 -0.10446898 -0.015364497 0.2467038 0.14725584 0.14205721 0.10174444 -0.07414159 -0.0058929333 -0.022037469 -0.0085641295 0.010750758 0.041736122 0.08678179 -0.021864157 -0.025239443 0.065636426 -0.09333712 -0.12976994 0.0931833 -0.0377035 -0.10211788 0.035462886 -0.09149366 -0.12193522 -0.011398766 -0.018269245 0.09756265 -0.09612354 -0.19008562 -0.007726603 0.018867379 -0.20067857 -0.23656727 0.1700049 0.093318574 0.16662776
126 -0.015329192 0.070012584 -0.042584226 0.0032047553 -0.1750941 0.07053559 -0.009859943 0.0506766 -0.014657171 0.019585744 0.09353023 0.10767135 -0.06447301 -0.022091148 -0.019284014 -0.035684563 -0.15901725 0.019697601 -0.011863397 0.152072 -0.060291987 -0.08916308 0.023197161 -0.0449261 -0.057538822 0.10352104 0.1236324 0.081693806 -0.09870268 0.09077561 0.034484707 0.16017276 0.1719735 0.14675488 -0.050591532 -0.093368694 0.021438966 -0.07985562 -0.04760065 -0.17960964 -0.13267042 0.09753632 -0.12043578 0.049760524 0.009265059 -0.15418915 -0.060946092 -0.04962924 -0.1621228 -0.10614866 -0.033014875 -0.09794357 -0.15958746 0.052355904 -0.17198367 -0.0013061217 -0.0027086684 0.08372519 -0.14395945 -0.08642609 0.027135715 -0.00793127 0.084434465 0.075900584 0.1861587 0.04968869 -0.090203576 -0.08170352 -0.08426783 0.032350674 -0.08914753 -0.036950715 0.053549077 0.1194388 0.157957 -0.010652633 0.06512621 0.023482362 -0.025609104 -0.05250679 -0.18522145 0.08757199 0.14413112 -0.143971 -0.33368695 -0.084087834 0.019979518 0.03934522 -0.05075231 -0.11958581 0.07303734 -0.029670883 -0.07907209 0.011245139 0.26591185 0.08602933 0.021232385 0.029576886 -0.046248943 -0.035698093 0.071237504 -0.146775 -0.02816959 -0.0011387513 -0.021405777 -0.051152837 -0.031837452 0.038379423 0.03335258 -0.30927464 0.26568738 0.02391735 -0.09929718 -0.0032848264 0.041947655 -0.116496 -0.026753323 -0.07857573 0.063757546 -0.08902131 -0.12432265 -0.061924253 0.1485116 -0.015290521 -0.2664964 0.12019678 0.12094979 0.19343038
91 0.0028293212 0.039890718 -0.03191882 0.013048115 -0.16079429 0.07699485 0.076663546 0.030103466 0.00055366213 0.054604992 0.16033268 0.11616659 0.025174579 0.0078472635 0.027903194 -0.031141937 -0.10934357 0.053344242 0.001222197 0.11187194 -0.09669963 -0.06589486 -0.020144718 -0.036358155 -0.046435937 0.09676544 0.11033909 0.07248871 -0.08413495 0.09531582 0.024126282 0.17388651 0.15519245 0.11547405 -0.05137417 -0.07805109 0.061498214 -0.05196007 -0.01602552 -0.19306912 -0.16454731 0.08721035 -0.14920403 0.07671133 0.03895963 -0.20447107 -0.07801178 -0.05894034 -0.17532752 -0.12866893 -0.011559921 -0.11301872 -0.14858267 0.020767746 -0.18300387 -0.009965508 0.0024611908 0.063977495 -0.19743289 -0.089952424 0.05105718 -0.051229537 0.091315456 0.0905113 0.18094383 0.031353544 -0.07827138 -0.08240759 -0.067900084 0.03932804 -0.10354318 0.0059334934 0.06688753 0.10176655 0.14075573 0.04905127 0.054429125 -0.013288972 0.013090746 -0.07358354 -0.18411654 0.09655402 0.09508458 -0.15488458 -0.29814172 -0.1257129 -0.0019719333 0.08066736 -0.027428465 -0.09326629 0.07484354 -0.06608726 -0.067949 0.012025059 0.26240784 0.05642742 0.04929597 0.022869105 -0.06082538 -0.015369722 0.07245591 -0.09749178 -0.05008686 0.009772767 -0.007329 -0.047579754 -0.069262065 0.03324455 0.028753899 -0.28837577 0.232414 -0.0016728891 -0.12690221 -0.017716393 -0.027624443 -0.11460029 0.0063578645 -0.052051783 0.085591204 -0.09483737 -0.1494279 -0.076161444 0.14463317 -0.09046225 -0.21469715 0.13211328 0.15298362 0.17289281
186 0.0030768034 0.0008619834 -0.04428666 0.04380145 -0.29059836 -0.0101485625 -0.043637164 0.1643279 0.02439049 0.24175818 0.21502025 0.08156172 0.0786125 0.10580779 0.057575926 -0.0055191065 -0.066098936 0.2293169 0.07375767 0.1227903 -0.18990482 0.0597129 -0.10677876 -0.09200781 -0.008412837 0.19906631 0.09196662 0.13685074 -0.14457975 0.047642305 0.07192907 0.14971176 0.17509805 0.086172335 -0.13280983 -0.0020933265 0.14949839 0.10925943 0.06898253 -0.12418197 -0.18566431 0.018053478 -0.07689573 0.13418134 0.029170612 -0.21699414 0.00054302893 -0.107094124 0.0073337476 -0.18980947 0.15904884 -0.19763035 -0.06321666 0.027448451 -0.119758256 -0.06577757 0.007843281 0.056484647 -0.10307438 0.029171435 0.029868525 -0.08023503 -0.07516096 0.15553205 0.19378483 0.07098006 -0.052189022 -0.034115583 -0.10094038 0.08127969 -0.054045375 0.025456993 -0.09800356 0.095389664 0.110016026 0.036837086 -0.03135973 -0.040339872 0.21777794 -0.13493295 -0.14668617 -0.054370597 0.13485771 -0.0627896 -0.07240742 -0.13221958 -0.087951995 0.16877042 0.04637147 -0.055468127 0.111753985 0.049653362 -0.14239378 -0.047018636 0.25776199 0.17633002 0.18601021 0.14978881 -0.108713746 -0.011532182 -0.05029064 -0.02873721 0.012076851 0.070164256 0.099324 -0.012045482 -0.030230602 0.06617171 -0.12983964 -0.119163126 0.04674155 -0.031136746 -0.07229226 0.03783448 -0.116809286 -0.14073052 -0.0007133256 -0.025747038 0.08748195 -0.06639462 -0.2003722 0.015453687 -0.022828532 -0.21300882 -0.25407684 0.17589156 0.0853296 0.19494985
198 -0.040722944 0.09014247 -0.11805047 0.022045253 -0.24420856 0.016058492 -0.044952333 0.036189847 -0.06560997 0.04309689 0.09162219 0.10774149 -0.114259794 -0.05061345 0.014388956 -0.07039601 -0.17709531 0.027028492 0.022442697 0.13718773 -0.041079603 -0.07145643 0.023699196 -0.080331676 -0.056596942 0.13480668 0.08833551 0.09611073 -0.1214299 0.14875929 0.07853852 0.13016072 0.12975663 0.100187704 -0.039334666 -0.08189976 0.0727075 -0.0740163 -0.025032952 -0.15845752 -0.13523701 0.072386175 -0.09646301 0.006847765 -0.001420742 -0.168097 -0.04047316 -0.034269795 -0.106344976 -0.10449084 -0.02042261 -0.091768116 -0.14517339 0.10149182 -0.109222844 -0.046519075 -0.02188793 0.073116034 -0.120558016 -0.06471108 -0.036750652 0.021775387 0.041895457 0.08480856 0.1944625 0.09218936 -0.08880755 -0.08706024 -0.13145064 0.035067946 -0.08253901 -0.04668684 0.01850541 0.09775465 0.1276795 -0.017950427 0.036132403 0.009981983 -0.0027010117 -0.04851317 -0.13406746 0.068479925 0.1480291 -0.11730514 -0.24819377 -0.12811813 -0.021379313 0.08263621 -0.04182999 -0.11822972 0.10743211 -0.021207223 -0.057797544 0.010289926 0.24214399 0.12414112 0.036494013 0.0434876 -0.032879513 -0.040810913 0.04817196 -0.12301608 0.010140218 0.005475149 0.0040712478 -0.025372721 0.016870687 0.056129154 -0.005678661 -0.27163208 0.22649425 0.04246865 -0.06949939 -0.005951441 0.08857841 -0.089041084 -0.0736996 -0.047402713 0.029688688 -0.096491486 -0.12336342 -0.029528273 0.11779296 -0.009241923 -0.29902786 0.11229834 0.096531704 0.15500084
214 -0.087705605 0.13321105 -0.17150363 0.053668816 -0.2684903 -0.086704135 -0.2262218 0.12998216 -0.07335678 0.054918543 -0.0074073803 0.10982725 -0.21708421 -0.046699964 -0.045873966 -0.07423761 -0.27450508 0.07713411 0.026252825 0.2103078 -0.073883295 -0.054218758 0.027088085 -0.10333242 -0.056754343 0.19899467 0.0777394 0.14534198 -0.19021483 0.12606657 0.16015834 0.06767299 0.16607648 0.17830683 -0.089338705 -0.03707949 0.13736328 0.006477075 -0.04963814 -0.08483939 -0.09059787 0.05308223 0.027596124 -0.012146252 -0.014366171 -0.07530877 -0.0057641347 -0.04936368 0.031595323 -0.059255473 0.050715536 -0.09575705 -0.09698971 0.13688208 -0.044550445 -0.045274258 -0.04071018 0.097816445 -0.024174767 -0.012151128 -0.066886306 0.111200176 -0.085410535 0.058218192 0.20632903 0.13717817 -0.10695461 -0.056323707 -0.19323917 0.052910972 -0.06365904 -0.09899231 -0.07925306 0.13778627 0.117642425 -0.12392093 -3.0759376e-05 0.03366605 0.018619433 -0.07802336 -0.1611276 -0.050287314 0.24491759 -0.043711144 -0.17798351 -0.05739814 -0.076273516 0.070429765 -0.066760175 -0.08864077 0.16455948 0.11770261 -0.106911026 -0.037059013 0.25376725 0.22069742 0.09371539 0.15089096 -0.053502776 -0.07154512 -0.004149706 -0.20089246 0.071802445 0.03423783 0.058422603 0.038997915 0.09678562 0.08401125 -0.09913035 -0.2581879 0.16060975 0.10605628 0.04323838 0.023289183 0.12794466 -0.12784937 -0.12982728 -0.05935153 -0.021867946 -0.013196139 -0.13363488 0.053755693 0.00925289 0.058987163 -0.3895317 0.08730636 0.03534116 0.18411472
147 -0.01746903 0.05526926 -0.086510174 0.04513557 -0.28145587 -0.022252332 -0.08866102 0.116271034 -0.03319221 0.1401821 0.15744016 0.09567876 -0.041423522 0.027828509 0.013111564 -0.030047314 -0.13287325 0.1328992 0.06775228 0.13426998 -0.09967614 -0.004002854 -0.028336428 -0.104090296 -0.031754993 0.16428344 0.07802239 0.115582556 -0.15167297 0.100027524 0.078742936 0.12307824 0.14959773 0.097137146 -0.075223334 -0.032219145 0.10255637 0.017485676 0.009682505 -0.14001186 -0.16165353 0.038368184 -0.06637687 0.051446456 0.013930943 -0.17459393 0.018393723 -0.07152135 -0.040959977 -0.15929884 0.0638755 -0.12079767 -0.10110978 0.08221951 -0.09145781 -0.04810664 -0.011499556 0.08107806 -0.07985049 -0.0039024788 -0.038129315 -0.019805355 -0.04037743 0.109381944 0.17983153 0.07753534 -0.0662754 -0.0522093 -0.11072201 0.058789305 -0.06959453 -0.016391173 -0.04447832 0.116459236 0.106571384 -0.027170679 -0.0014066952 -0.0028576474 0.12070609 -0.08661841 -0.12407991 -0.003284876 0.1482747 -0.08702319 -0.15052806 -0.09528141 -0.06659741 0.10856611 0.002166388 -0.08853623 0.11158777 0.050875586 -0.10546294 -0.02255811 0.24326257 0.16814175 0.11436769 0.101830445 -0.064131014 -0.026360648 -0.018339746 -0.0748789 0.01842798 0.054062396 0.060737204 -0.019288985 0.012148241 0.07380579 -0.08316908 -0.17876473 0.13108142 0.019006468 -0.047752894 0.024880707 0.015631983 -0.11891025 -0.06307852 -0.03896306 0.037385285 -0.09883013 -0.1442004 -0.0020792037 0.033694148 -0.08663318 -0.3012471 0.14933561 0.07469645 0.16571693
89 -0.0050869994 0.067898996 -0.054188702 0.0042276033 -0.17898493 0.097212665 0.10916418 -0.042251427 -0.05477974 -0.012926142 0.15651397 0.1244138 -0.0539553 -0.073122576 0.04456213 -0.074562296 -0.13378362 -0.047006577 -0.009071477 0.08329336 -0.019135514 -0.10346317 0.05284577 -0.062012676 -0.0698965 0.06547078 0.119805485 0.052483134 -0.06571542 0.16309708 0.00514107 0.19159026 0.13456737 0.06828493 0.012413913 -0.13711244 0.026883896 -0.15587656 -0.030540517 -0.24445651 -0.18079256 0.114917055 -0.18302354 0.019660594 0.021084117 -0.25765222 -0.08750708 -0.03042227 -0.25768542 -0.13536444 -0.092930816 -0.07973056 -0.22272421 0.08489141 -0.19708492 -0.003984025 -0.008478847 0.0643544 -0.22860733 -0.108706795 0.0047865002 -0.03311607 0.15552858 0.081308946 0.20553845 0.04131492 -0.09098331 -0.121944636 -0.07072239 0.017034369 -0.09497648 -0.0142891165 0.12012236 0.09406793 0.14681816 0.07417189 0.07847831 -0.00459264 -0.06286924 -0.020411674 -0.12099873 0.17487283 0.06904674 -0.18075189 -0.34911257 -0.1682114 0.020598067 0.050370187 -0.05399681 -0.13440035 0.06645637 -0.14908126 -0.0048557133 0.056939688 0.23860553 0.016835986 -0.03367859 -0.060334224 -0.0145365605 -0.009477788 0.120761156 -0.10547745 -0.046934653 -0.029563084 -0.037217908 -0.078008346 -0.063195474 0.024659606 0.08741873 -0.30426952 0.310058 0.005291417 -0.16251425 -0.042446423 0.051726773 -0.07723843 -0.016275367 -0.038720492 0.07306883 -0.14688784 -0.10833278 -0.101290666 0.21319667 -0.02268194 -0.19768754 0.13201809 0.15622354 0.13445228
170 0.021235052 -0.0141918715 -0.035868715 0.025644772 -0.30198258 0.03771159 0.05074698 0.09605219 0.006798398 0.24520457 0.28180447 0.08685502 0.09348001 0.07158976 0.11598917 -0.0346186 -0.017891448 0.1829119 0.065864444 0.07818068 -0.15362573 0.047696285 -0.097427435 -0.096937194 -0.017884795 0.17109358 0.093934394 0.121045895 -0.095220834 0.086230926 0.022702703 0.18159996 0.14607988 0.0048871757 -0.08888505 -0.033573553 0.12647331 0.044184666 0.09800348 -0.16013813 -0.20683323 0.021738622 -0.1370804 0.13692053 0.015668316 -0.29582325 -0.029815154 -0.107586116 -0.07038989 -0.22204329 0.11982167 -0.19874209 -0.09926053 0.036669675 -0.15010019 -0.06829852 0.012822427 0.02229948 -0.15989926 0.026045002 0.017306335 -0.12642553 -0.012882442 0.18099798 0.19342914 0.062244892 -0.04404614 -0.066386655 -0.07055326 0.07186479 -0.051378552 0.05053666 -0.061289955 0.047555484 0.10346711 0.12283157 -0.013233183 -0.061342217 0.20082535 -0.11205015 -0.09715545 0.015277578 0.073503904 -0.08378198 -0.079993665 -0.20379755 -0.064620756 0.16963232 0.064604245 -0.07103541 0.09382019 -0.047321253 -0.09424613 -0.0013321716 0.23488104 0.121055886 0.14120899 0.06663883 -0.075534984 0.01950067 -0.0030667759 0.01421456 -0.012602802 0.038891222 0.08372765 -0.040475115 -0.06908568 0.05321824 -0.08551703 -0.1085841 0.07865128 -0.06105099 -0.14004454 0.029413044 -0.13350642 -0.10800052 0.026152156 -0.0063170213 0.1244707 -0.12020913 -0.19777378 -0.029805738 0.034220397 -0.23974909 -0.18910247 0.18806818 0.10673577 0.15709822
122 -0.023180518 0.04140862 -0.03267651 0.031776495 -0.17085458 0.01887203 -0.061143905 0.13900657 0.027840983 0.0977912 0.08358272 0.09894053 -0.0012138372 0.04811434 -0.028372608 0.0040312028 -0.14509128 0.11714397 0.007014463 0.1719373 -0.13757788 -0.040090878 -0.043641344 -0.048692174 -0.029587338 0.15647647 0.12136082 0.10010892 -0.13500997 0.03159347 0.07222027 0.13761264 0.20814599 0.19129151 -0.11909606 -0.036898904 0.07029684 0.036474 -0.021535445 -0.11325457 -0.12602326 0.078402594 -0.06395085 0.095874965 0.025952537 -0.1328055 -0.056677192 -0.07440882 -0.052092038 -0.1109682 0.07440511 -0.1310292 -0.085673526 0.021238007 -0.14590459 -0.02404767 0.004394142 0.090958215 -0.09557899 -0.03569569 0.06973746 -0.017144967 -0.00019834649 0.08792062 0.1861426 0.054463483 -0.0824533 -0.03869505 -0.09754187 0.064590104 -0.07058461 -0.011685348 -0.026960505 0.12929454 0.15907966 -0.030375341 0.023236077 0.015433826 0.07750189 -0.10165584 -0.22401284 -0.018435948 0.18354861 -0.09058451 -0.24130179 -0.053518765 -0.03148053 0.08645993 -0.023383727 -0.06696478 0.090342835 0.059290677 -0.13898136 -0.035263013 0.2816188 0.13041477 0.11548188 0.12715915 -0.09712912 -0.037332684 0.008752936 -0.14133073 -0.004358486 0.042832278 0.02527439 -0.014710633 -0.022428118 0.043109197 -0.039643005 -0.25793186 0.15430702 0.011663247 -0.045702975 0.021522926 -0.024978878 -0.15362567 -0.008196716 -0.061257757 0.067215465 -0.016345892 -0.17154333 -0.009683719 0.053481907 -0.06848364 -0.26752415 0.11972577 0.09710866 0.23378499
64 0.014455453 -0.016175594 -0.06021724 0.0063072317 -0.34658456 -0.006993597 -0.012501907 0.10910232 -0.011378155 0.28109875 0.27437305 0.064734876 0.06714514 0.07427397 0.12493445 -0.04221357 -0.017199785 0.21179764 0.103237145 0.09277316 -0.15416548 0.079977624 -0.106157094 -0.13411789 -0.013529504 0.19339024 0.07614023 0.14641857 -0.13527335 0.100736 0.048439942 0.17597695 0.13827793 -0.012986473 -0.09470823 -0.013825752 0.15152062 0.059684034 0.12478233 -0.1514165 -0.20979041 -0.005917625 -0.11462099 0.12687343 0.0098904325 -0.29477602 0.023544334 -0.09609913 -0.02863547 -0.24003011 0.14257209 -0.20937599 -0.07864945 0.06826656 -0.11059232 -0.08606259 -0.000319937 0.02701613 -0.120174654 0.068557136 -0.04914974 -0.11154708 -0.058457214 0.1962564 0.19822977 0.08387587 -0.050668404 -0.056938253 -0.08930364 0.070955224 -0.04791317 0.04115822 -0.10354318 0.04824731 0.07972861 0.08843083 -0.03499702 -0.05897699 0.24430485 -0.117911376 -0.05972492 -0.0032485547 0.08912293 -0.051396813 -0.009855768 -0.21696995 -0.07838326 0.19115911 0.069662824 -0.08494912 0.11234421 -0.0054391697 -0.09256594 -0.0081343595 0.22402085 0.17120568 0.15070629 0.08643695 -0.057546508 0.008052457 -0.03974347 0.051970817 0.01993143 0.044839337 0.11802937 -0.030752186 -0.025793336 0.08644649 -0.12850213 -0.05981432 0.051237363 -0.05507148 -0.11574874 0.034120336 -0.113217525 -0.10145465 -0.013608984 -0.008993279 0.10891661 -0.1495532 -0.1926756 0.0025805668 -0.0046238583 -0.2564 -0.23484206 0.19997549 0.08428615 0.124370895
131 0.0022667218 0.06603789 -0.03760927 -0.0144637 -0.15045144 0.11742943 0.14180155 -0.048526194 -0.037341498 -0.009457676 0.1652443 0.106981546 -0.03349901 -0.056471873 0.048105396 -0.07472295 -0.115521364 -0.04977482 -0.01273513 0.085063875 -0.021604676 -0.09136347 0.033804923 -0.0468714 -0.07432985 0.058383998 0.13059962 0.05539768 -0.053231206 0.15586953 -0.01369747 0.19754224 0.13582999 0.069090314 0.010790345 -0.14175849 0.020492539 -0.15690276 -0.033990137 -0.25541356 -0.1895593 0.11290754 -0.21222638 0.044452116 0.025256133 -0.25592956 -0.09474869 -0.038531467 -0.28331548 -0.14020339 -0.098992795 -0.09343508 -0.22090796 0.06907371 -0.21810032 -0.005480019 -0.007825194 0.06311426 -0.25186366 -0.12304102 0.024405379 -0.05196991 0.17365633 0.09518131 0.20910244 0.032424368 -0.09222949 -0.12847501 -0.062249105 0.014991635 -0.10698192 -0.0024028525 0.12525037 0.09146216 0.15498613 0.08417017 0.09693948 -0.009648553 -0.06368398 -0.020380108 -0.13681516 0.18640026 0.0616641 -0.19358747 -0.3784812 -0.17050457 0.03519244 0.048278365 -0.04989581 -0.14679495 0.06250082 -0.15467003 -0.013266137 0.06273786 0.26066843 0.012771677 -0.02771057 -0.056175303 -0.02304305 -0.010251164 0.13101722 -0.09872835 -0.056798954 -0.022380343 -0.04767928 -0.08755675 -0.07931916 0.022181006 0.09348105 -0.3259466 0.33041406 -0.0031343065 -0.18227872 -0.046491995 0.040416066 -0.08866889 -0.009238231 -0.04614547 0.09106802 -0.16514666 -0.11563839 -0.11927249 0.22360125 -0.044102196 -0.20228307 0.13919652 0.17221771 0.14392874
149 0.00025774853 -0.011490498 -0.07687923 0.016896859 -0.34217542 -0.0021349797 -0.024238082 0.11165276 -0.0064527146 0.2655631 0.24384144 0.07148999 0.04993394 0.065778725 0.11984064 -0.046565536 -0.03208137 0.2031855 0.08541087 0.106783696 -0.15301318 0.06872212 -0.09832211 -0.122708134 -0.011265464 0.20251793 0.085288465 0.1474634 -0.13394585 0.09735894 0.056216516 0.16413942 0.14373001 -0.0011043944 -0.09138853 -0.008690791 0.15035936 0.06421631 0.11241013 -0.13780047 -0.19674475 0.009288439 -0.09484487 0.120281994 0.012179617 -0.2843492 -0.002300927 -0.094817914 -0.016527003 -0.22469956 0.14574476 -0.20107938 -0.07744833 0.06738359 -0.11448671 -0.078563966 0.0059889616 0.02644411 -0.12111302 0.05921183 -0.027668325 -0.09853324 -0.06284831 0.18731532 0.20718297 0.09396491 -0.057309516 -0.052036624 -0.09904594 0.070725955 -0.048580162 0.023358881 -0.10860524 0.056448936 0.08126437 0.08816957 -0.03140384 -0.056906294 0.21554598 -0.1178254 -0.074171275 -0.014858633 0.095930725 -0.053997412 -0.027373007 -0.21673186 -0.074548535 0.18806149 0.06419237 -0.07600809 0.1171511 0.0012765045 -0.0977666 -0.020583937 0.23288941 0.17493908 0.15204044 0.09978003 -0.060062036 0.0052662604 -0.040591724 0.023771556 0.010849507 0.035415985 0.114846386 -0.02197455 -0.026835948 0.082320146 -0.12676859 -0.077040285 0.062477175 -0.049741846 -0.11036132 0.044561937 -0.10393214 -0.106276125 -0.009562748 -0.008865983 0.10902934 -0.12148762 -0.19293194 0.003096577 0.0053264988 -0.23264442 -0.23932855 0.18737377 0.08348652 0.14360112
85 -0.017295057 0.037472904 -0.050316144 0.03893743 -0.20497876 0.0105048865 -0.04827989 0.13261075 0.01267475 0.11602325 0.12440672 0.10450916 0.008966201 0.04876368 -0.010386896 -0.016389225 -0.13526092 0.1315584 0.019928439 0.15680726 -0.14756615 -0.025355225 -0.05633795 -0.055521946 -0.029498268 0.15270604 0.105852276 0.103202954 -0.12685682 0.055204242 0.072283514 0.13428402 0.18320811 0.15790755 -0.10693656 -0.0321356 0.096913405 0.04300556 -0.009235754 -0.123004645 -0.13504499 0.055613264 -0.07017368 0.087978 0.026343586 -0.15309621 -0.045981366 -0.07660925 -0.04360523 -0.12356133 0.07264099 -0.1377745 -0.086278744 0.027745392 -0.1269506 -0.033720694 0.007487719 0.08146469 -0.10867795 -0.034078483 0.04739624 -0.024565773 -0.012851709 0.09333786 0.17887935 0.056640655 -0.07095059 -0.042219114 -0.094267786 0.060011547 -0.07343554 -0.012620261 -0.031661298 0.1189793 0.13343652 -0.015502155 0.0116174845 -0.0011817144 0.09103613 -0.10422692 -0.1951336 -0.013074558 0.1571103 -0.08913885 -0.20685618 -0.07692176 -0.040089324 0.10183527 -0.013963298 -0.06885574 0.09677488 0.050314758 -0.12857066 -0.029648248 0.27374303 0.13274047 0.12546052 0.11948164 -0.089295715 -0.0362702 2.886371e-05 -0.11154053 -0.0022282784 0.044716842 0.04269702 -0.009131674 -0.015143463 0.05184749 -0.053014055 -0.23019049 0.13419501 0.0076537332 -0.048094634 0.019078441 -0.03749769 -0.14558288 -0.014525434 -0.054794062 0.05890982 -0.033022977 -0.1658166 -0.0059157233 0.045682408 -0.094714336 -0.25752312 0.124860644 0.09707956 0.20435107
202 -0.037218235 0.06308003 -0.06050988 0.03955646 -0.20220761 -0.0020427937 -0.09613421 0.112456895 -0.010677417 0.063655384 0.06324722 0.10293509 -0.0592874 0.0117056165 -0.035839245 -0.013182748 -0.18079813 0.08061935 0.013204053 0.1724386 -0.09579791 -0.058194473 -0.004650899 -0.058892846 -0.04382707 0.15158859 0.11065787 0.090776384 -0.14381218 0.06636416 0.08921777 0.13055924 0.17258261 0.1783151 -0.08670756 -0.04629568 0.063846536 -0.002395769 -0.038676362 -0.11705305 -0.12583482 0.08093768 -0.051492754 0.049024336 0.025548711 -0.10806248 -0.035840105 -0.05608819 -0.05388526 -0.102821596 0.033482954 -0.091371655 -0.09961333 0.053861402 -0.115144886 -0.02488064 -0.0038137892 0.091402166 -0.07966502 -0.045796957 0.023334373 0.021552518 -0.011120614 0.068507396 0.17081363 0.06605385 -0.075591 -0.038572703 -0.103002004 0.044260938 -0.07231903 -0.03690519 -0.00852364 0.13781658 0.14250548 -0.061023276 0.029942703 0.025943104 0.03967644 -0.07464231 -0.19054663 -0.0041622985 0.18569222 -0.0915846 -0.2505389 -0.038889393 -0.027765729 0.06384352 -0.03768205 -0.086314656 0.09536457 0.06507805 -0.11828849 -0.024931487 0.26619893 0.13839127 0.09018792 0.11545238 -0.074261025 -0.045135856 0.0152321365 -0.15594146 0.0011632473 0.03820002 0.01777936 -0.011068278 0.012269458 0.046447594 -0.031035993 -0.26087052 0.18281949 0.031916 -0.019616237 0.01690853 0.037817962 -0.13218725 -0.045358375 -0.069856435 0.034474812 -0.03867714 -0.14502275 -0.010155151 0.07046975 -0.015858866 -0.30163896 0.105062105 0.07787375 0.20761354
