918 128
1000 0.04988956 -0.06938373 0.05190045 0.23746204 0.2008641 -0.04235559 0.013848579 0.035722796 -0.012019514 -0.1481709 0.06275054 -0.23476852 0.014942731 0.20355506 0.052939277 -0.064366266 -0.07395927 -0.007378432 0.13407937 0.019643622 -0.23856305 0.0768621 -0.08812605 -0.17490739 0.05146142 0.1627399 -0.15960264 -0.025239011 0.04814118 -0.0410995 -0.22829708 -0.07459715 0.13687944 0.109975964 -0.027332753 -0.13730372 0.06419805 0.08544714 0.2449559 0.1626328 0.12733735 -0.1821711 -0.23892324 -0.05170186 -0.13971542 0.11763449 -0.19575047 -0.0076529505 -0.200183 0.010871656 0.04377095 -0.020629352 0.12156754 0.018011866 0.055073887 -0.30393103 0.33871824 -0.05594292 0.52875906 0.24813616 -0.41029778 0.06861796 0.08968957 -0.053204075 -0.14111823 -0.21962495 0.026081571 0.03605753 0.35756025 -0.08074364 -0.09585389 -0.015470806 -0.024489997 0.01761802 0.027387246 -0.18735577 0.1155555 0.013631529 0.09728693 -0.4416108 -0.112393744 0.27060756 0.07958499 -0.24271338 0.08425886 -0.043375246 0.0630284 -0.16602704 -0.028135233 0.11960666 -0.26485154 -0.045429386 0.19108531 0.04507388 0.06134364 -0.17648478 -0.12075018 0.052705582 -0.17881268 0.07889252 -0.12104233 -0.09959137 0.30152205 0.1362472 0.015003989 -0.33048323 -0.10399672 -0.07394402 0.18188952 -0.08369343 0.033818953 0.14019886 0.00041002056 0.07755015 -0.024034863 -0.23322272 -0.13536786 -0.08111366 -0.21509068 -0.062563725 0.04470974 -0.011127782 -0.3600107 -0.16809858 -0.12658118 -0.1034631 0.07658185 -0.09240068
999 0.15614402 -0.02370027 -0.009592949 0.12139182 0.15315267 0.028872196 0.07443002 0.03368181 0.0040377984 -0.12032472 -0.014696276 -0.19143812 -0.05185705 0.26246822 -0.017996676 -0.011634029 -0.10158966 0.01289461 0.17715573 0.01822161 -0.22921394 0.06969259 -0.016085865 -0.15648748 0.016264329 0.15083729 -0.10238078 0.048538044 0.06860087 -0.10036625 -0.21931922 0.056064684 0.19316141 0.031031013 -0.03766226 -0.11391119 0.066786855 0.08298539 0.20331821 0.21999781 0.23586679 -0.2022976 -0.31180152 -0.09003907 -0.09791814 0.10170447 -0.22624882 -0.09087504 -0.21091713 -0.020481834 0.09551284 -0.04579106 0.096739404 -0.011492097 0.06840256 -0.23443758 0.28738207 -0.011548176 0.6011151 0.27884677 -0.5126767 0.0435098 0.11949027 0.14061612 -0.13824867 -0.08853206 0.04804774 0.15772274 0.37095279 -0.10390865 -0.15825473 -0.055066843 0.072886854 0.04482861 0.01830077 -0.19410838 0.0008746542 -0.012310296 0.023542844 -0.47261736 -0.110314175 0.31652194 0.16407262 -0.1924659 0.08053935 -0.023963323 0.008234827 -0.080060594 -0.10223344 0.17594135 -0.28788483 0.014773564 0.19375283 0.105040185 0.068264514 -0.11339277 -0.017917998 -0.030039119 -0.17639716 0.10192917 -0.10314648 -0.052116636 0.18830776 0.089255415 0.1830208 -0.32102978 -0.0895677 -0.10582401 0.17783011 0.049454313 0.11245321 0.10044095 -0.056690086 0.101249345 -0.006035493 -0.22887519 -0.13462295 -0.23950359 -0.16592146 -0.035359498 0.097105704 -0.07204397 -0.382255 -0.15665492 -0.12338486 -0.05020706 0.095576525 -0.14906812
997 0.06802171 -0.018078323 0.0569643 0.2064584 0.24265653 -0.0945952 0.08403118 0.016316187 -0.014598039 -0.1331041 -0.0104992 -0.20104612 -0.0012596558 0.21812563 0.02309755 0.016409418 -0.11637776 -0.007831546 0.17378652 -0.01008231 -0.22771762 0.08696618 -0.060468487 -0.15509278 0.034897957 0.17098281 -0.1456172 0.011563825 0.09406439 -0.09411675 -0.21078546 0.020951211 0.19337457 0.038496424 -0.037367582 -0.086981036 0.06841379 0.10909341 0.23504096 0.14056876 0.12584916 -0.19327658 -0.2507927 -0.061375972 -0.12456584 0.049648896 -0.2164789 -0.07725358 -0.17305209 -0.043870013 0.017043572 -0.029264316 0.12586987 0.013942963 0.09300948 -0.23620997 0.2902728 -0.08169368 0.55769765 0.25612277 -0.4669416 0.016834784 0.12564015 0.0795126 -0.14258412 -0.1718002 0.016926086 0.12362867 0.4154982 -0.13389176 -0.14783894 -0.029357396 -0.009060764 0.020036565 0.027199732 -0.16160657 0.055269703 -0.01821015 0.020179776 -0.43990895 -0.14875303 0.32762155 0.15671945 -0.20959756 0.048947778 -0.03989913 0.08986477 -0.111613564 -0.042006336 0.10797643 -0.2698083 -0.03292592 0.16588835 0.046460163 0.09181905 -0.08320073 -0.049649518 -0.008205889 -0.20278268 0.09454705 -0.12890847 -0.03589642 0.18436514 0.13832615 0.101878084 -0.26057065 -0.09790154 -0.09251256 0.17607763 -0.009938336 0.088501476 0.15292561 0.013925172 0.05701541 -0.0026265883 -0.21006973 -0.1423327 -0.12366002 -0.1256069 -0.06937653 0.07705229 -0.06503836 -0.3926696 -0.16543753 -0.109034546 -0.059136733 0.0661054 -0.12985256
998 0.050757464 0.0111171305 -0.017026782 0.13103414 0.13595098 -0.017705845 0.047469847 0.038800616 -0.008937768 -0.109354965 -0.071649455 -0.2171056 -0.0037079293 0.23006672 0.03067666 0.023928756 -0.13687664 0.0067206244 0.19549608 0.009078622 -0.21532427 0.10221317 -0.047528103 -0.13440701 0.02724428 0.16758658 -0.11126938 -0.010832651 0.049842834 -0.09622555 -0.2502332 0.06622785 0.1810672 0.11114645 0.0019043962 -0.096068345 0.0817767 0.11359966 0.19679497 0.23368901 0.18110067 -0.1856487 -0.28992346 -0.13603628 -0.14377728 0.069123685 -0.23609444 -0.06908362 -0.22064725 -0.04603287 -0.0047369134 -0.03332182 0.08156008 -0.0009571209 0.07770619 -0.2332792 0.2259138 -0.05236197 0.55631965 0.24116246 -0.4772209 0.061653964 0.10956219 0.07257956 -0.14349574 -0.14571139 0.061689608 0.18633002 0.43935284 -0.1045328 -0.14936168 -0.024140181 0.04613857 0.09162846 -0.023436395 -0.17232741 0.06006506 0.046184547 0.013841415 -0.43495625 -0.11079077 0.29847178 0.14521705 -0.203028 0.055630945 -0.046698578 0.07876989 -0.10500949 -0.06098735 0.14969431 -0.26841462 -0.062465277 0.14031318 0.06259548 0.057149306 -0.11633125 -0.010186824 -0.045638077 -0.17474823 0.10828799 -0.11137929 -0.054434966 0.19599546 0.10558666 0.14185275 -0.2515563 -0.066558935 -0.071766175 0.2042557 0.058733363 0.0915458 0.15211268 0.025460683 0.043344073 -0.02570601 -0.20796756 -0.12394181 -0.17648724 -0.12450013 -0.035372145 0.058373116 -0.092618294 -0.36340585 -0.18229769 -0.11941506 -0.031622227 0.051606484 -0.107697606
995 0.11130732 -0.014577635 0.059906486 0.22030403 0.15485394 -0.0035654365 0.056594152 -0.023229463 -0.036551706 -0.16478601 0.020326862 -0.18843357 0.018357737 0.20936963 0.060283985 0.033503976 -0.11174515 0.0818849 0.19072516 0.00039076398 -0.23607562 0.15013778 -0.050106794 -0.10565837 0.05339974 0.105184026 -0.05630224 -0.00989004 0.08048381 -0.046198852 -0.2826763 0.025719332 0.15820147 0.009152748 0.0097576715 -0.11062511 0.085999325 0.12340898 0.22331099 0.26022238 0.24998406 -0.19529158 -0.2970485 -0.106975675 -0.1080271 0.12501203 -0.21010087 -0.074633874 -0.20879449 0.0037190658 0.07480335 -0.09747153 0.07240214 0.019982494 0.012265501 -0.24987285 0.24717768 -0.018304879 0.5538169 0.25888193 -0.43140033 0.015262712 0.13976169 0.06965344 -0.12887102 -0.11284092 0.040920723 0.16756403 0.39773825 -0.08589964 -0.13497573 -0.04499747 -0.010498441 0.13908379 0.009647232 -0.17847234 0.06437501 0.063624315 0.02198821 -0.46976873 -0.069951825 0.24223451 0.10849212 -0.23962507 0.0066800104 -0.06592255 0.046929315 -0.064075045 -0.017225794 0.16412926 -0.2584238 -0.032504763 0.21961357 0.050418697 0.0765556 -0.1291059 -0.035088103 -0.02394488 -0.2179951 0.10833135 -0.13104461 -0.09007936 0.19641753 0.08083632 0.07510462 -0.3596049 -0.119451575 -0.08437165 0.16504341 0.0031267784 0.11416788 0.14824545 0.0011300741 0.084001265 0.0050415318 -0.19459477 -0.14696203 -0.15419483 -0.17336072 -0.012530888 0.040716343 -0.059835143 -0.32157442 -0.108782865 -0.14822783 0.0029528106 0.055931527 -0.0888016
993 0.09220746 -0.023601249 0.029044963 0.24718799 0.11598303 0.014503011 -0.020159096 0.025860094 0.01745644 -0.116836734 0.011866333 -0.119508035 -0.022122756 0.20812029 0.029161828 -0.036813963 -0.118518814 0.00025540745 0.21479301 0.010773881 -0.22218668 0.15658899 -0.036777914 -0.054860767 0.03669123 0.12260036 -0.116875954 0.028154938 0.03505298 -0.13425122 -0.27154118 0.010486751 0.1497067 0.049825132 0.006504585 -0.07392441 0.07618953 0.045192204 0.17104945 0.23020588 0.20311615 -0.17893296 -0.28668955 -0.0737239 -0.102673754 0.0709496 -0.23794179 -0.09560197 -0.21021727 -0.0630452 -0.014432939 -0.05228965 0.074024044 0.056718104 0.06789799 -0.25452563 0.2179696 -0.06440542 0.47093922 0.25452062 -0.39964798 0.037170537 0.10014521 0.06097551 -0.10624016 -0.113995664 0.05379517 0.13515599 0.37474182 -0.12183589 -0.16452582 -0.026898863 0.062278286 0.08610034 0.03562873 -0.1620557 0.021951452 0.03385814 0.05152082 -0.38983527 -0.12699349 0.2741387 0.15207179 -0.21372023 0.012369771 -0.021823779 0.08135163 -0.06451748 -0.06940064 0.13878925 -0.20997696 -0.008889604 0.18397607 0.059508327 0.046960086 -0.14365107 -0.043357424 -0.10050673 -0.14830047 0.0641614 -0.104285814 -0.064286955 0.20934428 0.08494539 0.15726702 -0.33896598 -0.087598346 -0.1088553 0.19946337 -0.052594107 0.17687333 0.09592452 -0.03226458 0.064697094 -0.002068369 -0.19673288 -0.15095429 -0.16351493 -0.13711798 -0.04361909 -0.0067610876 -0.133287 -0.34440595 -0.19268925 -0.14107206 -0.08203897 0.0956158 -0.13224708
994 -0.032932267 0.14766692 0.21191335 0.10247642 0.047393084 -0.14624748 -0.048348267 -0.21650861 -0.17316109 -0.48095465 0.016150445 -0.20175284 0.29092997 0.07708726 -0.12373069 -0.052297536 0.13811293 0.1938821 0.10093014 -0.050468333 0.011030334 0.1612874 0.110053085 0.004084446 0.011971015 0.02139362 -0.06828919 0.07765385 0.16385493 0.21221863 -0.22591819 -0.093045376 -0.0083916485 -0.029749671 -0.08998089 -0.21862979 0.08694138 0.023394207 3.3307966e-05 0.22162335 0.26265213 -0.30796888 -0.16223899 -0.03949576 -0.18746026 0.32058883 -0.15804319 0.022232667 -0.05596098 0.09613023 0.2604136 -0.17986573 0.13631043 0.15275644 0.0761544 -0.07778475 0.09233898 0.100906365 0.24259171 -0.02905037 -0.23136179 -0.1029403 0.13633443 0.0798482 -0.018870283 -0.14173152 0.020143 0.085092336 -0.018841678 0.07856876 0.17618889 -0.20419663 -0.08547721 0.19789506 0.22721568 0.107905604 0.11485672 0.026070034 0.18990205 -0.074236356 -0.036378272 -0.18753566 -0.21226147 0.09852067 -0.052785896 -0.27068093 0.26562476 0.037056014 -0.079454094 0.03368147 -0.22287793 0.073170505 0.034070857 -0.023141585 0.13056375 -0.21872345 0.18348894 -0.0029160134 -0.39112315 0.05088164 -0.059891894 -0.13111524 0.24255149 0.0508857 0.040093787 -0.39294708 -0.18674448 -0.35716212 0.041146304 -0.15705064 0.2907273 -0.045949668 -0.06863483 0.1172224 -0.09893937 -0.28901106 -0.09358158 -0.11312215 -0.24003233 0.024038551 -0.22722457 0.17084077 -0.056233782 -0.08769692 0.11125273 -0.05110557 -0.0012867961 -0.2777894
983 0.0028013575 0.1423029 0.24538258 0.22225554 -0.0028725194 -0.10461574 -0.09432415 -0.21450533 -0.10564986 -0.4014828 0.02063696 -0.21432155 0.19105141 0.060916103 -0.18031092 -0.09022539 0.23501146 0.20541759 0.15832053 -0.048360493 0.06587113 0.2329281 0.13629365 0.05285529 0.008901436 -0.031042209 -0.1111055 0.035519995 0.11376224 0.12487391 -0.31150496 -0.09759507 -0.017556047 -0.007323407 -0.09896778 -0.20254964 0.04745731 0.053008936 -0.0068888706 0.20697023 0.34633788 -0.35517943 -0.13908182 0.05637202 -0.10641036 0.24241418 -0.25725326 -0.071617566 -0.102315836 0.07920356 0.18638858 -0.11988524 0.16345213 0.25339887 0.04696902 -0.018567286 0.021234624 0.011363335 0.21378917 0.027801944 -0.18239753 -0.12552112 0.11614043 0.08334028 -0.059557762 0.0053231856 0.091481455 0.070105724 -0.014812481 0.08269633 0.09593844 -0.17938505 0.0063947514 0.14716297 0.23923741 0.11505122 0.008562531 -0.014961558 0.234995 -0.025776807 -0.008908289 -0.18264385 -0.19267818 0.07507603 -0.12849465 -0.24147214 0.29721895 0.00026292264 -0.122780845 0.028697016 -0.11326825 0.06727951 0.048644602 0.018838398 0.14751521 -0.2274483 0.16999598 -0.052834548 -0.3457815 -0.017874176 -0.04962345 -0.07671657 0.30636066 0.024117488 0.08662918 -0.3403241 -0.13265538 -0.24624173 0.048017927 -0.21679297 0.2898715 -0.16808297 -0.068058856 0.1800293 -0.10970052 -0.22796893 -0.05897297 -0.08943457 -0.22298563 -0.029914234 -0.28838328 0.13499488 0.011211228 -0.06849475 0.089574106 -0.038578026 0.011971826 -0.28375402
996 0.116817385 -0.0021876416 -0.051214498 0.21067047 0.13476993 0.03717424 0.06566336 -0.030097883 -0.03892391 -0.14535652 0.016530823 -0.17716575 0.0136627415 0.21156341 0.03957322 0.0046599973 -0.14144492 0.0848125 0.121904604 -0.020882858 -0.21274498 0.12604974 -0.01659344 -0.14376272 0.087327525 0.11646515 -0.08031657 0.030877799 0.09432242 -0.10854471 -0.25419617 -0.021258434 0.17756815 0.026920116 0.06345317 -0.063350186 0.10567971 0.078312285 0.283824 0.27741835 0.20642178 -0.20390695 -0.32403937 -0.06751774 -0.13966765 0.061924048 -0.23044518 -0.10930903 -0.22837381 0.02561967 0.022597676 -0.06461632 0.069927596 0.012837403 -0.013163763 -0.2587499 0.25667357 -0.045221895 0.5458137 0.30707148 -0.4594223 0.02274277 0.13101429 -0.005444492 -0.13348074 -0.06558554 0.023773493 0.15653417 0.44494578 -0.10494524 -0.12327502 -0.017549217 -0.0017714 0.08696403 -0.029777117 -0.19701065 0.07353136 0.11384987 0.0781382 -0.4758149 -0.056168657 0.2982686 0.12585072 -0.23620577 0.070063695 -0.0814388 0.04532986 -0.11130576 -0.04762388 0.15708733 -0.2382129 -0.041380394 0.26365715 0.049680382 0.023801746 -0.13011241 -0.08210796 0.017024137 -0.20630021 0.07853079 -0.13075805 -0.028684277 0.22318833 0.10346576 0.08387543 -0.3714523 -0.09900642 -0.04019326 0.1548597 -0.0462861 0.10603358 0.17446533 0.07805299 0.07759152 -0.011560472 -0.25139067 -0.14489682 -0.14656976 -0.163706 -0.033592768 0.027794506 -0.146889 -0.34591806 -0.17121927 -0.12755689 -0.06888385 0.11846398 -0.09039055
981 0.116020545 0.14677863 0.13400404 0.0039002104 0.0156893 0.09578072 -0.17816123 0.06298309 0.19710805 0.3155145 -0.126981 -0.067356005 0.23219027 0.15400028 -0.38863364 -0.39330497 -0.040082827 -0.37982073 0.018666668 0.07623648 0.0126883425 -0.11046072 0.2186505 -0.1569161 -0.0696442 -0.060510844 -0.2012866 -0.18132557 -0.013142378 -0.17806484 -0.3233356 0.15735608 0.11523181 0.32983354 0.09721047 -0.23873688 -0.098606095 0.11160573 0.06578894 0.1765072 0.079090334 -0.11379177 -0.10073785 -0.07634048 -0.134632 0.104884356 -0.27580965 -0.18356462 -0.19995786 -0.06178378 -0.09391964 0.041296158 0.11144233 0.20986888 0.02031345 0.17096868 0.031260327 -0.02610127 0.12275163 0.035111837 -0.16727471 0.014026619 0.121709235 0.2670224 -0.25133333 -0.06970206 0.1677591 -0.04608292 0.16623981 -0.03687371 -0.09532399 -0.08223199 0.2195172 -0.07412651 0.18751357 -0.13970795 0.070492886 0.10542808 0.07208252 0.19902085 -0.20604026 0.019555328 0.1347105 -0.15628904 -0.14463344 0.047225453 0.26866227 0.01969347 -0.18571842 0.11194218 -0.11046074 0.06261337 -0.036715582 0.18046969 -0.25844473 -0.20085837 -0.010103406 -0.13295338 -0.11577617 -0.057266302 0.27227843 -0.027144456 0.25998595 -0.1969759 0.16819537 -0.22214757 0.021076208 -0.27863112 0.2564022 -0.1244597 0.2832601 -0.21221782 -0.17616455 0.02066129 -0.31012893 -0.06412966 -0.04384746 -0.051949445 -0.051024035 -0.29575723 -0.25322595 -0.21530023 0.059868146 -0.16898708 0.05205119 -0.30020034 0.12411493 -0.19898082
989 -0.03263364 0.07120864 0.24298342 0.12876752 0.08652076 -0.16193692 -0.083108105 -0.22180633 -0.17743637 -0.40435788 -0.1621198 -0.15519921 0.25710097 0.07199915 -0.16013831 -0.024897056 0.18652461 0.21508546 0.06411526 -0.035825357 -0.01702572 0.19923504 0.10857658 0.01175141 -0.0852139 0.002892609 -0.09266104 0.034308556 0.17102945 0.104844615 -0.22257291 0.019214146 0.016927818 -0.0106324125 -0.10970367 -0.14890368 0.06337256 0.06679564 -0.062252752 0.18169601 0.31153253 -0.34433395 -0.14842437 -0.0094811665 -0.09664056 0.3015832 -0.15352216 -0.08209758 -0.040593605 0.10502021 0.26827782 -0.17214139 0.14550608 0.13312697 -0.013940809 0.0019243922 0.062438488 0.07261362 0.23576018 -0.040205058 -0.20339072 -0.0466808 0.1651032 0.1514632 -0.09803102 0.009680888 0.050298963 0.13489512 -0.08596143 0.08526091 0.14559266 -0.24422401 -0.09520137 0.14706378 0.23059605 -0.012795636 0.015440106 -0.021339249 0.1830914 -0.046136685 -0.0033127267 -0.22331867 -0.13830143 0.16206452 -0.059250664 -0.22956121 0.29244158 0.0064429576 -0.14765713 -0.0056041838 -0.1797102 0.12028773 -0.04788654 -0.041881997 0.11507745 -0.19863456 0.16134085 -0.04249151 -0.34282893 0.030783908 -0.024811007 -0.089227 0.24870759 0.07025337 0.17136444 -0.19479217 -0.21276493 -0.29181126 0.04394305 -0.10004297 0.22405957 -0.08494062 -0.13593931 0.13844873 -0.07955241 -0.22051464 -0.039513774 -0.15139568 -0.24125305 0.07303158 -0.19681975 0.14228712 -0.00750875 -0.078377195 0.15404716 0.009471294 -0.000545897 -0.26517594
987 0.20050304 0.06608616 0.19405997 0.19623758 0.30435342 -0.1620981 0.2438501 -0.18187286 0.007589466 -0.079937056 -0.090255685 -0.16329966 0.0038473238 0.20111261 -0.17231618 -0.11867574 0.037165657 0.07157388 -0.14469127 0.11861506 0.029132755 -0.20222211 0.14195666 -0.5154652 -0.10686787 -0.18966083 -0.081676655 -0.19318306 0.16930228 0.30604497 -0.038219515 -0.0055724233 0.16251385 0.032484904 -0.020538686 -0.20298035 -0.12910813 0.15072992 0.11217928 -0.003183121 0.1386283 -0.1145503 0.03311976 0.18646578 -0.16453071 0.27766258 0.06083211 -0.014919868 -0.10450827 0.28630164 0.3547339 0.083463095 0.16671206 -0.076453105 -0.10853351 -0.019611156 0.24085754 0.23339921 0.2822736 -0.013034257 -0.014524524 0.035039026 0.1626442 0.13102625 -0.07295306 -0.08619996 0.039735515 -0.17645678 0.11056067 0.09639222 0.12046559 -0.029448913 -0.021022428 -0.08299294 -0.09913248 -0.4008514 0.16074614 0.07387895 0.36973786 -0.12804005 -0.076969 -0.07083717 0.032194223 -0.25445879 0.19094497 -0.05895039 -0.055724677 -0.038308807 -0.19644476 0.09127278 -0.33840406 0.010042884 0.08646004 0.045886833 0.08555442 -0.22452733 -0.18996772 0.16920842 -0.16196053 -0.06384399 0.24032323 -0.00084500236 0.063623615 0.15286456 -0.08485156 -0.11883218 -0.30715245 -0.26162973 0.08869368 -0.059878387 -0.03235702 0.004840379 0.03635622 -0.015067916 -0.17313045 -0.09768385 0.06340082 0.088056885 -0.24848834 -0.1409036 -0.007085657 0.18295649 -0.10505009 0.07897938 0.16214356 -0.22094731 0.16411687 -0.041015677
992 0.027094312 0.10568179 0.22495386 0.18974507 0.008148155 -0.13461873 -0.0941873 -0.24933672 -0.14843202 -0.41099808 -0.06715489 -0.10085233 0.29878452 0.085405074 -0.21704863 -0.10745976 0.16355498 0.13658983 0.116188794 -0.082272135 0.04119071 0.23310223 0.17795035 0.049928438 0.014286425 -0.011237024 -0.100122415 0.026523117 0.15778063 0.13287939 -0.24216 -0.024917984 -0.04416594 -0.022563772 -0.07715022 -0.17476878 0.083939925 -0.016879588 -0.06671571 0.18820427 0.29008698 -0.31684628 -0.15186833 0.014460787 -0.13729142 0.28773353 -0.22644901 -0.019806912 -0.076983646 0.046443693 0.17034635 -0.11806118 0.13491471 0.21116364 -0.0020808412 -0.028649855 0.0122690145 0.073229976 0.21033129 -0.016180776 -0.20590708 -0.06307145 0.11725833 0.15768842 -0.04957517 -0.022231163 0.099419445 -0.010301584 -0.05325868 0.096131176 0.16924462 -0.24357948 -0.028279163 0.19949323 0.23844308 0.06845543 0.033378664 -0.046287246 0.23300916 -0.008183159 -0.048050318 -0.19237119 -0.21749368 0.058919337 -0.13011502 -0.25931874 0.31307468 0.01394737 -0.090087496 0.024546951 -0.116042994 0.1175609 0.023017067 -0.015447393 0.10361614 -0.16056186 0.2531768 -0.0083305435 -0.4148444 -0.003740088 -0.056424357 -0.06615827 0.25429705 -0.01924601 0.11004036 -0.34630823 -0.15742496 -0.332401 0.033849902 -0.20874904 0.27066046 -0.12815519 -0.04338645 0.16608286 -0.13047372 -0.24593626 -0.04610138 -0.15483402 -0.24464856 0.014340789 -0.20950869 0.14105542 -0.021527587 -0.10403004 0.1348703 -0.07306659 0.05259923 -0.2746136
985 0.18713585 0.11890165 0.18716861 0.0908562 0.23668654 -0.15915224 0.3329675 -0.13190064 -0.004483919 -0.0633468 -0.02684963 -0.14144091 -0.0414628 0.3040532 -0.20139067 -0.08529733 -0.049367968 0.028852057 -0.11105331 0.17311895 0.016323859 -0.17250234 0.124077424 -0.5309632 -0.16048796 -0.097484544 -0.07556851 -0.20568442 0.15729457 0.29304913 -0.027908245 0.049348086 0.15207073 -0.0027690986 -0.0044973525 -0.19978023 -0.07541178 0.16773957 0.1466806 -0.033618283 0.1290496 -0.09572255 0.030407894 0.14949651 -0.14800906 0.25211334 0.044493657 -0.0454311 -0.11607196 0.25389463 0.34727493 0.064237766 0.14962356 -0.119348906 -0.0565464 0.04500085 0.2551946 0.2921444 0.33008006 0.04937528 -0.108741924 0.07736207 0.113999955 0.23496792 -0.09767731 -0.07294262 0.07154645 -0.112895675 0.16681097 0.059173007 0.14276205 -0.039600585 -0.03639656 -0.05095031 -0.12274576 -0.4526029 0.12888889 0.0583124 0.3806875 -0.16306773 -0.09054602 0.0004527828 0.087773755 -0.2017948 0.1594601 -0.07498305 -0.123900115 0.025548514 -0.21009673 0.13412806 -0.33031705 0.012193429 0.09914025 0.084946215 0.044497307 -0.2001407 -0.13512461 0.14930648 -0.14368516 -0.03752652 0.24523261 0.07940296 -0.050976086 0.12635604 -0.020652257 -0.10369407 -0.31782305 -0.3027692 0.10236809 -0.009870817 0.026264649 -0.012742322 0.0493205 -0.015439818 -0.18505743 -0.100985505 0.00807006 0.006039866 -0.20028614 -0.14640447 0.016522955 0.17756851 -0.17775853 0.013310187 0.15228404 -0.20448892 0.18958151 -0.073562466
991 0.10878787 -0.024310699 -0.002210618 0.25408965 0.16316506 0.043935463 0.07684349 -0.046430066 -0.037417416 -0.108563334 -0.009632328 -0.14924337 0.0022106275 0.19534464 0.04979518 0.025090229 -0.09937587 0.07410123 0.23988566 0.014827613 -0.23236829 0.23441283 -0.006058923 -0.06681511 0.03129084 0.08219085 -0.026994227 -0.00086927897 0.08291584 -0.061710846 -0.29572386 0.037436917 0.23112383 -0.0200304 0.043210283 -0.064760745 0.10511699 0.09914798 0.1852269 0.30244574 0.19465159 -0.19280557 -0.3248919 -0.12663506 -0.096599594 0.09961955 -0.25387233 -0.11044921 -0.22034994 -0.03821187 0.020875845 -0.033859693 0.083250985 0.047162913 0.058442924 -0.2976566 0.23346317 -0.04186068 0.5093781 0.28979596 -0.45668823 0.059153832 0.1383389 0.0523907 -0.14726284 -0.06038119 0.024195343 0.15662971 0.4067111 -0.10985404 -0.173428 -0.079124175 0.03515657 0.050151806 -0.0503821 -0.17092298 0.0062553734 0.07152494 0.020200582 -0.48318994 -0.08736306 0.25277725 0.13676466 -0.20947663 0.07910434 -0.059175648 0.02196386 -0.112248324 -0.01017145 0.21129057 -0.2009905 -0.0060103904 0.16709967 0.036255557 0.0397468 -0.068394385 -0.026924329 0.008343696 -0.21736638 0.06920845 -0.11500958 -0.069617085 0.1792937 0.049547926 0.082027785 -0.35728878 -0.0931626 -0.0369919 0.1645466 -0.0022540484 0.09329855 0.15108827 -0.009030412 0.09097012 0.02945938 -0.12272596 -0.14298806 -0.19257686 -0.1447471 -0.011860997 0.004840664 -0.13061126 -0.3643563 -0.14873327 -0.116628565 -0.05965435 0.07536094 -0.079512164
984 0.06827748 -0.05534409 0.021264665 0.36022955 0.32403222 -0.24082637 0.12914827 -0.16488011 0.042205267 -0.027069345 -0.23853704 0.13234223 0.056351382 0.27128753 -0.19429109 -0.018554525 0.11548403 -0.031935453 0.2679455 -0.10192191 -0.09489974 0.23709765 0.13924445 -0.24156155 -0.026719628 0.03978602 -0.13751979 0.0018908726 0.10446924 0.040229373 -0.021770146 0.09295734 -0.009210513 0.07016012 -0.015368235 0.03927235 -0.04458247 -0.09521435 -0.15762371 -0.18591951 -0.104452126 -0.21816103 -0.03041874 0.34943885 -0.14109415 0.13660291 -0.032740634 0.04076967 -0.07553543 0.12470839 -0.15119012 0.34350267 0.15101512 0.12573317 0.08480491 -0.08125996 -0.1527052 -0.2178819 0.30570853 0.032279197 -0.2681817 0.02950537 0.029112367 0.2988573 0.071359344 0.075199194 0.087645106 -0.19401418 0.027664373 0.12746683 -0.01002248 0.0037611604 0.28252503 -0.04371125 0.07522334 -0.23615898 -0.1462512 -0.34820905 0.2477818 -0.3111733 -0.2809577 0.29555643 0.074737586 -0.07702207 -0.09585437 -0.17813328 0.2410861 -0.24832833 -0.20356615 -0.13879557 -0.033219725 0.08421606 0.046208404 -0.08196924 0.19382656 0.106357135 0.16325162 0.0058735413 -0.30031332 0.018109161 0.12092887 0.061643995 0.05045356 0.23236702 0.14297333 0.08420844 -0.109942816 -0.2419206 0.050055135 -0.24137656 0.018407749 -0.11439957 0.015210362 0.16908032 0.020780474 -0.077862464 0.09118341 0.030469341 -0.074323505 0.047869235 -0.02167178 0.09981317 -0.36334077 -0.050715055 0.25988847 -0.27278164 0.32066745 -0.13561632
976 0.008215052 -0.056104176 0.055927813 0.40148544 0.22873032 -0.23906355 0.066491716 -0.15271036 0.06421958 0.012083144 -0.1885917 0.120583594 0.10001704 0.2143665 -0.18634391 -0.09149501 0.09322608 -0.0713419 0.2606955 -0.12550639 -0.10335406 0.25156245 0.1277065 -0.19478856 0.0064822994 0.03878575 -0.19803986 -0.030063637 0.048725136 -0.0116568 -0.04130944 0.05793529 -0.051219743 0.12127758 0.000566169 0.028243909 -0.056782782 -0.102957115 -0.092236936 -0.18231244 -0.1017893 -0.21027394 -0.041836414 0.30831468 -0.13157377 0.11829272 -0.033725277 0.08792739 -0.098057084 0.098876365 -0.22705059 0.31239554 0.13873997 0.19048533 0.12278756 -0.07043843 -0.18179117 -0.2440316 0.24498324 0.08283433 -0.24582264 0.038793568 -0.005412825 0.23627663 0.02332397 0.016017057 0.06869639 -0.18133435 0.06173884 0.13016129 0.0057772314 -0.0071409284 0.33014262 -0.037991207 0.13871431 -0.15599109 -0.15581079 -0.33514065 0.200066 -0.2680709 -0.2962767 0.32171345 0.0933807 -0.11332209 -0.15206374 -0.15460047 0.27583152 -0.28016025 -0.19991887 -0.16462253 -0.0074741784 0.107445076 0.044051673 -0.08260528 0.16920744 0.06421103 0.14773785 -0.025585776 -0.30499104 0.0057501914 0.10121453 0.032722533 0.16166575 0.17842665 0.18673809 -0.019305807 -0.124398574 -0.22691941 0.05535748 -0.24026972 0.073157825 -0.119697735 -0.011302333 0.22512995 -0.031390805 -0.07382555 0.077594556 -0.002222416 -0.062699124 0.021347042 -0.076493405 0.02840645 -0.38314652 -0.08212931 0.27830115 -0.33012322 0.2811572 -0.19494013
988 0.18180278 0.12096237 0.14055943 0.08321058 0.28839412 -0.17583899 0.31725466 -0.13392597 0.0018604031 -0.058405828 -0.09190543 -0.109884836 -0.00035297373 0.24555817 -0.20138867 -0.09839925 -0.034611292 0.04302116 -0.14095005 0.10398004 0.003938897 -0.21915318 0.13298583 -0.5508634 -0.15092248 -0.1232111 -0.076317266 -0.17594227 0.16513567 0.22070378 -0.017434727 0.054051254 0.12814026 0.04900221 -0.011126112 -0.21334514 -0.12581345 0.10546515 0.16805081 0.04166843 0.08732628 -0.10056905 0.022798158 0.19819747 -0.19445099 0.32302055 0.089029685 6.841941e-05 -0.101079404 0.3090759 0.31869763 0.06607623 0.15519586 -0.085416555 -0.12915589 -0.0061045624 0.26148915 0.26040748 0.38842517 -0.025424495 -0.1132828 0.058907405 0.107962154 0.18366927 -0.09549116 -0.13449197 0.05150505 -0.08628839 0.14032957 0.061342612 0.14411455 -0.0011394823 0.011855665 0.0004651535 -0.09143092 -0.4107998 0.17020129 0.0957736 0.33566907 -0.09299817 -0.087259784 -0.040224977 0.048732165 -0.2426061 0.15877928 -0.070142545 -0.024833659 -0.030767942 -0.24086212 0.084658876 -0.35117796 0.0077759516 0.055180844 0.094895035 0.061230164 -0.19103651 -0.15465681 0.14785911 -0.14155471 -0.02275409 0.22304575 0.10874497 -0.03573273 0.14102194 -0.0014299479 -0.10252735 -0.32972434 -0.25620085 0.09577368 -0.017312448 0.043467093 0.050495356 0.10178839 -0.06581655 -0.1851559 -0.10698726 0.036350045 0.09327412 -0.21499324 -0.06970498 0.044713926 0.19285905 -0.102719255 -0.02537002 0.16347371 -0.21280356 0.21886104 -0.028095076
986 0.20692673 0.14244276 0.13326055 0.17851564 0.31622285 -0.15402612 0.30711222 -0.16013268 -0.0033306142 -0.088689916 -0.018232763 -0.092931494 0.027457006 0.2845823 -0.19219682 -0.10873672 -0.047116354 0.012323634 -0.14681596 0.07913509 0.011035674 -0.2145525 0.11300425 -0.58541185 -0.09581426 -0.1490161 -0.054189548 -0.15346347 0.18038176 0.1951538 0.028940791 -0.022583934 0.10381944 0.051788304 0.03413226 -0.20558226 -0.074208766 0.099207275 0.20580739 0.022739736 0.097015545 -0.103218205 0.010985456 0.25029725 -0.17276008 0.26975214 0.09629724 0.016239222 -0.12500735 0.34371778 0.3116002 0.10811559 0.08444789 -0.087490246 -0.16861907 0.039442994 0.20648055 0.26376343 0.38371983 0.013676006 -0.113148026 0.055026997 0.11904675 0.15987653 -0.008251891 -0.08868605 0.077340946 -0.11647347 0.14712875 0.15132163 0.15256211 0.030882461 0.042168584 0.01868201 -0.08119212 -0.4191934 0.15382203 0.05184425 0.36813956 -0.15831862 -0.08770832 -0.028827753 0.010827283 -0.32808086 0.11684077 -0.11240158 -0.066139616 -0.0072938874 -0.22610933 0.09715457 -0.3803701 -0.015383021 0.16122635 0.072027884 0.04928488 -0.19184254 -0.12531747 0.18543403 -0.09022658 -0.013449954 0.2085776 0.06781668 0.04175712 0.10443184 -0.042387623 -0.1355637 -0.3119953 -0.2978802 0.061904445 -0.05300634 0.010669646 -0.014006636 0.11415631 0.011348298 -0.18940161 -0.14202012 0.09290623 0.10838621 -0.21970528 -0.09934373 0.0032687518 0.17048825 -0.14480144 0.031178594 0.16077885 -0.27419162 0.21114142 -0.002288111
975 -0.041360244 0.16410837 0.26032957 0.101120606 0.13712744 -0.19735603 -0.050486337 -0.25329894 -0.18926021 -0.37855107 -0.073813684 -0.15893869 0.2969098 0.037604265 -0.21476035 -0.051817816 0.27338928 0.16004005 0.1326389 -0.00088758045 -0.03582297 0.096561864 0.18378831 -0.022224402 -0.07058031 0.0044059684 -0.09519515 0.05686514 0.13396321 0.15904877 -0.1887995 0.0021587696 -0.022799084 0.00079130847 -0.1989642 -0.23069033 0.03846124 0.021033835 -0.10649625 0.1426916 0.24835716 -0.44570673 -0.06818459 0.05584746 -0.14973912 0.33268732 -0.1776295 -0.016558401 -0.090323545 -0.028975256 0.27856427 -0.11066546 0.19149505 0.21434401 0.011325039 -0.016396571 0.04803202 0.07868385 0.23584965 -0.06079185 -0.22694165 -0.05949227 0.13523133 0.24455583 -0.07027603 -0.043235328 0.009755022 0.07486521 -0.12630437 0.04383287 0.14635973 -0.23181388 -0.030451382 0.10951356 0.20490083 0.03191171 0.03313822 -0.0038005929 0.25332257 -0.017064728 -0.07624929 -0.21160494 -0.22393121 0.086716056 -0.07567099 -0.23572248 0.31802726 -0.0057360022 -0.10315633 0.015106516 -0.16511352 0.12264174 -0.05755345 -0.004194576 0.15078513 -0.1777052 0.18762624 -0.023177586 -0.3739103 0.0112288585 -0.07006934 -0.10012797 0.25672594 0.03059249 0.10104461 -0.3000143 -0.14409457 -0.28783804 0.02936649 -0.113012396 0.28859589 -0.16715862 -0.15256542 0.1645482 -0.16272011 -0.2574162 -0.06800188 -0.17048794 -0.22234818 0.028396 -0.19067794 0.20178795 0.03383961 -0.10351601 0.15481563 -0.05372338 0.058950342 -0.24103597
977 0.15866973 0.01338336 -0.0042574285 0.23716286 0.11579293 0.045913775 0.013034773 -0.010329602 -0.047204394 -0.06945387 -0.004371789 -0.108417325 -0.038311243 0.254357 0.0027953293 0.01582985 -0.095054254 0.025781339 0.1731263 0.011647016 -0.23765813 0.16314174 0.046037134 -0.08038923 0.026007121 0.06301696 -0.04325393 -0.008221108 0.08853629 -0.18573509 -0.27144393 0.01824391 0.19665343 -0.01913896 0.03565396 -0.06436207 0.09779515 0.07750726 0.17249274 0.27115548 0.21238081 -0.15854962 -0.28620884 -0.156056 -0.07116498 0.11769294 -0.31009066 -0.13414885 -0.23917942 -0.11052852 0.01571429 -0.035704255 0.07884398 0.041285563 0.07735958 -0.2592895 0.21626426 0.014441971 0.49162287 0.25395223 -0.4727623 0.08458364 0.1789254 0.09512282 -0.15812953 0.008668753 0.07109031 0.1768396 0.41002238 -0.13615125 -0.15425016 -0.07920221 0.10287161 0.095183484 -0.0045487806 -0.2101965 0.013732604 0.10254831 -0.038259737 -0.40892586 -0.05354855 0.24427322 0.15997629 -0.1940223 0.016795924 -0.03270929 0.05457459 -0.112515815 -0.066314645 0.19650467 -0.21606337 -0.0002334193 0.1820027 0.07072724 0.014213775 -0.08260596 -0.068786085 -0.03563873 -0.20567678 0.03984812 -0.11567777 -0.10821596 0.22190864 0.06057095 0.1269179 -0.37040803 -0.0033540851 -0.090876885 0.22979869 -0.0071643675 0.10624375 0.14819019 -0.049115397 0.11168463 0.017368656 -0.18827635 -0.15182766 -0.22233282 -0.14379518 -0.04210204 0.008791308 -0.192574 -0.29871762 -0.13766186 -0.18590386 0.028951967 0.10649369 -0.09151221
982 0.027879447 -0.10103255 0.085671045 0.41881564 0.3337752 -0.3231834 0.13714342 -0.15170366 0.026578221 -0.024168119 -0.20141745 0.12936123 0.05811573 0.2339129 -0.21230346 -0.07451037 0.09966138 -0.050822426 0.19875602 -0.1461748 -0.040447604 0.20729543 0.069117084 -0.210753 0.046368513 0.05896076 -0.15515459 -0.050089184 0.013527377 -0.0026970243 -0.034937877 0.09978084 -0.012774682 0.14284508 -0.03708407 0.027400812 -0.04188433 -0.061839666 -0.11549852 -0.20216031 -0.10203861 -0.21378663 -0.07448517 0.34641856 -0.13419402 0.10114095 0.008549925 0.06508442 -0.060659617 0.18828866 -0.17138028 0.3245164 0.16110899 0.18331447 0.06756653 -0.01223604 -0.17907421 -0.25091803 0.29316905 0.052074123 -0.1760233 -0.025604313 -0.04456971 0.26807806 0.033503804 0.037259467 0.13273084 -0.2076261 0.05092469 0.13999468 -0.042841315 0.03974797 0.24070269 -0.06915316 0.124828175 -0.2004046 -0.13013281 -0.33886725 0.25102705 -0.3172916 -0.33252025 0.3463241 0.09744312 -0.11168924 -0.103738695 -0.16482267 0.25503072 -0.2508914 -0.20015886 -0.18102318 -0.014640576 0.07498496 0.087631755 -0.08242866 0.18914546 0.075667076 0.19922419 0.00086403295 -0.31285092 -0.0037416653 0.120582014 0.034546316 0.082969435 0.25278687 0.14396226 0.09839273 -0.13769208 -0.21816269 0.07102887 -0.25418988 0.029191472 -0.06473802 0.06994777 0.18200888 0.040084932 -0.08865827 0.059401643 0.12608944 -0.047783956 0.011312197 -0.049084604 0.07527297 -0.40282956 -0.04236197 0.28444564 -0.3277138 0.23807795 -0.20958668
972 -0.01714118 -0.029002884 0.04995384 0.37275314 0.25895584 -0.2557583 0.18056239 -0.1502144 0.09217066 0.02670071 -0.20105116 0.1325391 0.06869193 0.25293303 -0.18764241 -0.108501874 0.045787536 -0.08608678 0.2563237 -0.09739376 -0.07149354 0.19336751 0.12011434 -0.27248275 -0.015570738 -0.0016828633 -0.14637825 -0.0391853 0.02384137 -0.02179222 -0.029342359 0.089569695 -0.037607472 0.13518618 0.06565239 -0.013522186 -0.081215 -0.067378215 -0.09855949 -0.15264896 -0.08442362 -0.20066652 -0.033003602 0.3555364 -0.19153456 0.09557598 -0.0020928471 0.045022108 -0.121617496 0.15506472 -0.21585687 0.31906444 0.07234702 0.21961978 0.04936845 0.01186867 -0.21883641 -0.2568801 0.21975622 0.010683933 -0.20272677 -0.012966988 -0.0025143644 0.23541495 0.055629227 0.041877218 0.099068716 -0.19361621 0.082399786 0.15875018 -0.02592915 0.056264814 0.31068712 -0.009950332 0.10842834 -0.18066813 -0.04775076 -0.30796403 0.22766985 -0.18193348 -0.2789242 0.29554895 0.043537438 -0.16443361 -0.11040282 -0.16911155 0.27099627 -0.23673217 -0.17156547 -0.15114856 -0.012699154 0.021211183 0.13563596 -0.08369736 0.14951989 0.047007926 0.17564403 0.015486188 -0.26094964 0.041192506 0.19205542 0.03223884 0.11466709 0.18488207 0.12134478 0.058874216 -0.1311111 -0.2661802 0.059570175 -0.24200954 0.089909464 -0.12776558 0.07602275 0.13479091 -0.019214533 -0.090143755 0.069705315 0.14155142 -0.0002741357 0.012440374 -0.119392484 0.017560562 -0.31563842 -0.089702 0.2843141 -0.35910758 0.28290293 -0.17731547
979 -0.06490055 0.1406557 0.22003517 0.07861218 0.003575803 -0.1394699 -0.04326021 -0.21085279 -0.16781205 -0.38118693 -0.032781385 -0.17882988 0.32295632 0.04896253 -0.17834283 -0.084888555 0.19172911 0.16547559 0.17081086 0.0065267193 -0.012486516 0.14579785 0.17341447 0.0075336862 -0.032590084 0.022254027 -0.07996437 0.040472798 0.13190252 0.22595337 -0.2694116 0.039006066 -0.025761522 0.03653013 -0.17124315 -0.19796747 0.06458242 0.042732276 -0.10561669 0.17377982 0.2883989 -0.40177083 -0.0877807 0.011885785 -0.12905614 0.28336674 -0.19856411 -0.024526345 -0.06148576 0.041267905 0.2235069 -0.11167569 0.15308906 0.20986356 0.01439968 0.01961137 0.0041189427 0.120845504 0.18453072 -0.009366129 -0.16722907 -0.05801226 0.1257454 0.1849966 -0.053818423 -0.14892547 0.062108677 0.06659379 -0.09343981 0.048397016 0.16056159 -0.23946267 -0.06452549 0.07225149 0.21993493 0.0222475 0.05722265 -0.021443918 0.26043537 0.024045013 -0.09450551 -0.24568492 -0.20825592 0.108166024 -0.06362993 -0.2565033 0.30888507 0.0050297203 -0.10086986 -0.016591758 -0.12654535 0.090342574 -0.08102112 -0.01802947 0.15398812 -0.22452371 0.24402943 -0.0053407038 -0.35431468 0.042201664 -0.034330063 -0.053663 0.2499528 0.039045405 0.11471275 -0.26656732 -0.18578105 -0.28655884 0.04242412 -0.15662502 0.27993062 -0.14461182 -0.13175337 0.11075737 -0.15943956 -0.23280959 -0.04192987 -0.14487062 -0.19472691 0.021368807 -0.23930323 0.20757413 0.031209836 -0.11212688 0.19254516 -0.07883628 0.05570758 -0.239709
970 0.16882657 0.06503312 0.095310085 0.21754058 0.116550334 -0.031541176 0.02930236 0.006924075 -0.028612824 -0.11055751 0.07797387 -0.23411798 -0.0008154263 0.22180435 -0.024417905 -0.068560295 -0.13965169 0.0030690262 0.16149263 0.031496324 -0.18826617 0.16129564 -0.037575033 -0.15086988 0.0067868014 0.08207975 -0.04692021 -0.021788938 0.05464975 -0.11765289 -0.25930956 0.008683396 0.21898572 0.02544057 -0.033501144 -0.14451312 0.08553222 0.13679266 0.2825937 0.20899074 0.30596364 -0.1224802 -0.3119405 -0.12987345 -0.10867013 0.12904555 -0.24945839 -0.117955714 -0.19184873 -0.044538558 0.056733597 -0.088849664 0.11735235 0.035789102 0.07825997 -0.21944158 0.30232605 0.015129057 0.53948724 0.3355489 -0.39454415 0.06572249 0.083684206 0.038042285 -0.15077092 -0.12094468 0.113203175 0.15315786 0.42324936 -0.14861411 -0.12213843 0.008207711 0.003576719 0.10884414 -0.008757848 -0.15495326 0.01316328 0.11377245 0.039281916 -0.44103858 -0.05026175 0.2444708 0.148956 -0.2400853 0.048298746 -0.063862085 -0.040884055 -0.044088382 -0.041100394 0.22140662 -0.25344416 0.00072935456 0.18368149 0.11712409 0.004722202 -0.1732511 -0.06113848 -0.063820265 -0.14892809 0.045416478 -0.12034273 -0.084183484 0.22651504 0.029465344 0.13512261 -0.3584532 -0.06849721 -0.09112973 0.16361502 -0.018132582 0.130604 0.12311454 0.044709124 0.101146765 -0.0659723 -0.22069307 -0.16094796 -0.1876121 -0.18673107 -0.120636165 0.05714327 -0.08958862 -0.33187437 -0.14595206 -0.16245797 -0.041216757 0.03585926 -0.123647586
968 0.24977116 0.040889308 0.21049154 0.22257869 0.29987967 -0.12896918 0.2288475 -0.16243096 0.027260145 -0.0031330707 -0.033430543 -0.12088919 -0.033414472 0.19535708 -0.16624038 -0.17279838 0.045508135 0.0028043152 -0.13717422 0.08769733 0.03174286 -0.20219216 0.17006 -0.50223887 -0.08482252 -0.14997393 -0.074863665 -0.16887076 0.1291425 0.25954816 -0.025724996 -0.07197245 0.16195557 0.059090175 0.01686464 -0.2320766 -0.14750558 0.15335348 0.15405858 -0.009897849 0.0754115 -0.10814782 0.077104665 0.2193325 -0.17971759 0.21542023 0.0082202675 -0.0143731125 -0.16812076 0.31869894 0.27482837 0.13647202 0.17173105 -0.041127764 -0.10326638 -0.007021315 0.23981455 0.21774475 0.32945237 0.04285351 -0.043428574 0.013363406 0.107679546 0.13331322 -0.09676537 -0.0810118 0.04649506 -0.23297389 0.13340852 0.08218042 0.11351173 0.033549756 0.004933939 -0.13402998 -0.11522822 -0.4040636 0.10422975 0.014856461 0.3797888 -0.13272762 -0.109416224 0.0012388222 0.05222888 -0.30670297 0.13146377 -0.08878163 -0.08895185 -0.029278168 -0.19493464 0.10864193 -0.3041699 0.003992019 0.12933457 0.07348733 0.013048765 -0.16693959 -0.1530768 0.22015487 -0.11727042 -0.04381698 0.22319521 0.084910534 0.05934419 0.11048116 -0.07355662 -0.112610556 -0.24622336 -0.25235653 0.09026714 -0.11670218 -0.013869099 -0.039913725 0.07671811 0.012105309 -0.22858036 -0.08800514 0.0349959 0.14072706 -0.18119079 -0.21236072 -0.00952022 0.16537313 -0.16196027 0.03727247 0.14314586 -0.29952362 0.22576055 -0.06483979
980 0.19473186 0.11489142 0.15417938 0.18269856 0.24753736 -0.18825476 0.21709456 -0.12183156 0.008177768 0.0008506089 -0.11909884 -0.035964098 -0.0019178459 0.25964627 -0.17505792 -0.10469027 0.0012200444 -0.0018001761 -0.1718565 0.091586754 0.038142458 -0.1958488 0.1497744 -0.55943954 -0.09392877 -0.18008798 -0.055160914 -0.21999839 0.16587156 0.2435542 0.029774291 0.022414658 0.14466384 0.015022205 0.053016864 -0.19652745 -0.123449445 0.1379618 0.13307875 -0.02564802 0.07763528 -0.058076594 0.068707176 0.21540079 -0.1569717 0.27336717 0.04901052 -0.037472125 -0.0858961 0.34573433 0.2962219 0.11417121 0.0977012 -0.060460996 -0.12695228 0.064541124 0.18070574 0.21121523 0.31379554 -0.023215517 -0.07769272 0.08610819 0.12160498 0.1835529 -0.09212523 -0.07447264 0.095057875 -0.16627043 0.13678248 0.11436345 0.1312116 -0.023027059 0.0426497 -0.024540864 -0.0695387 -0.46583256 0.13093641 0.081150904 0.40069997 -0.098622516 -0.10244206 0.020109111 0.028546914 -0.24592683 0.15969095 -0.15411201 -0.052677214 -0.034794245 -0.2238196 0.06667732 -0.29556832 -9.16824e-05 0.13667299 0.05458463 0.030956114 -0.15073436 -0.1433829 0.18564011 -0.11634293 -0.024520017 0.27154687 0.075099364 0.0036209996 0.10453413 -0.025613947 -0.07069987 -0.3264058 -0.28592965 0.05044954 -0.07132836 -0.005766404 0.022038573 0.123401046 -0.028422762 -0.16944353 -0.09226413 0.05103538 0.15815386 -0.21379545 -0.12414891 -0.0023343465 0.12817247 -0.118864246 0.038870912 0.22289805 -0.29557386 0.21976465 -0.047417924
963 0.21622801 0.16288464 0.22331157 0.115668245 0.07843327 0.001640873 -0.13834442 0.059709467 0.15739883 0.1873088 -0.15039848 -0.14173561 0.13633157 0.1813622 -0.45688996 -0.41521674 0.05932385 -0.3377821 -0.095793314 -0.007443386 0.026000813 -0.16113172 0.18449953 -0.22689663 -0.10901053 -0.07370454 -0.2285849 -0.1879372 0.033103824 -0.09894264 -0.26235294 0.09313091 0.07731527 0.26962796 0.040861364 -0.2876983 -0.13126934 0.08812757 0.13577189 0.064698316 0.14347328 -0.06065606 -0.09043487 0.041591305 -0.07054475 0.105830394 -0.21318045 -0.13179453 -0.15633921 0.050714478 -0.017307073 0.017735194 0.1311592 0.120713994 -0.05785661 0.21134043 0.13491845 0.014950964 0.18088038 0.009790776 -0.11869384 -0.057008464 0.09989266 0.25446892 -0.21227975 -0.047999375 0.13960874 -0.09148946 0.112853326 -0.015588258 -0.011742417 -0.0657357 0.13513817 -0.08294855 0.15017606 -0.2143031 0.037722174 -0.022439793 0.18339692 0.20198955 -0.16823433 -0.08996134 0.09742088 -0.22342467 -0.08854979 0.059210602 0.18653455 0.03815879 -0.18909682 0.12551482 -0.19451901 0.093826815 0.006514753 0.18362279 -0.17440322 -0.2191163 -0.009766302 -0.0710238 -0.118079804 -0.06963281 0.24174023 0.013438293 0.2634343 -0.15231189 0.14419112 -0.20437813 -0.07539478 -0.33546007 0.22883628 -0.13952568 0.22678378 -0.21699008 -0.12371728 0.036789827 -0.2589535 -0.12707768 -0.016329527 -0.05535594 -0.14603664 -0.2981108 -0.12479516 -0.10150835 0.04397831 -0.0810625 0.047186263 -0.28104928 0.16333304 -0.18976912
978 -0.0072348677 -0.33065572 0.25389993 0.42076406 0.23264797 -0.01929149 -0.2877036 -0.1627286 -0.061269738 -0.058045924 -0.1746396 -0.0075060073 0.17183863 -0.20386882 0.10190007 -0.20568676 0.18108688 0.06596855 -0.020010049 0.10099176 -0.16081533 0.12941496 0.109286554 -0.052162006 0.01672171 -0.20612015 -0.08085225 -0.2055172 0.019496355 0.16606098 -0.4453638 -0.10406264 0.28151736 0.2714985 0.16734901 -0.041916814 -0.14423147 0.060922336 0.018019333 0.15016112 -0.021666003 -0.24258777 -0.1367119 0.09652527 -0.06930337 0.14811099 -0.09017413 -0.08175795 -0.21080935 0.15846881 0.020515509 0.040381636 0.19815402 0.19423622 -0.19068116 -0.099555135 0.17763929 -0.06917474 -0.019408222 0.0960578 -0.005242807 -0.09180786 0.2232542 -0.22131866 -0.38360164 -0.0727225 0.032289483 -0.21628578 0.2700896 -0.046299856 -0.08622982 -0.13872516 -0.14822628 -0.27593198 0.056242444 -0.2859624 0.16639617 0.27290156 0.13231313 -0.11353796 -0.1334587 0.104494475 0.14073539 -0.06034629 0.11477956 -0.003097275 0.2718026 -0.21839225 -0.16261466 -0.11226321 -0.02868997 0.056124154 0.08698452 -0.19043845 -0.11530577 -0.1634412 -0.37512398 0.12444147 -0.33855262 -0.06058841 0.117842995 -0.13019879 0.31204194 0.24371722 -0.12422681 -0.15193248 -0.11614726 0.030513637 0.14261723 -0.18092644 0.025311632 0.07976768 -0.20915613 0.10719101 -0.2889307 0.011699241 -0.053197533 0.2335592 -0.076499216 -0.11842849 -0.25994375 -0.11451717 -0.13231227 0.058842327 0.15042518 -0.19699013 0.07282214 -0.13216248
969 0.17296863 0.050167397 0.13270941 0.17675708 0.26106486 -0.18731855 0.41432747 -0.17264937 -0.020883398 -0.043023385 -0.078384206 -0.10213001 -0.08953761 0.265693 -0.11093485 -0.01259408 -0.024123462 0.087682866 -0.13238181 0.07236543 0.104204185 -0.15269278 0.11558461 -0.5017227 -0.09051028 -0.15926495 -0.048834737 -0.20105514 0.0863503 0.30754727 -0.02764922 0.03537675 0.18767269 0.004631055 0.0661389 -0.12507589 -0.10711743 0.18347141 0.15107436 -0.013933633 0.07290302 -0.06147723 0.004755674 0.21168867 -0.14093591 0.24864922 0.059002955 -0.05267106 -0.0840826 0.37569427 0.2754125 0.14184445 0.1050491 -0.06754487 -0.07449249 0.038958654 0.099333204 0.22671159 0.347172 0.019018557 -0.012009058 0.046507888 0.08240621 0.18263501 -0.10189856 -0.027718225 0.12722345 -0.10531786 0.12547025 0.10053119 0.12827268 0.048854146 0.029133834 -0.03206496 -0.16779877 -0.44943875 0.063877344 0.108050644 0.3583382 -0.24901271 -0.07978784 0.09753981 0.11535725 -0.22231571 0.16225122 -0.13090456 -0.1372038 -0.017500537 -0.24443667 0.08736229 -0.3358377 -0.031048575 0.15003447 0.1261824 0.11661416 -0.1099431 -0.124977015 0.13904347 -0.13198592 -0.018906742 0.23929718 0.092435405 -0.078351334 0.19436789 -0.04545375 -0.051196408 -0.27882153 -0.21425928 0.06775548 -0.07207964 0.0144849485 0.0868647 0.13590278 -0.015353045 -0.1560699 -0.09719163 0.009549945 0.1433191 -0.120581076 -0.10507833 0.036193978 0.12935969 -0.21636538 0.0623475 0.18502109 -0.23530068 0.17043039 -0.09986923
967 -0.0387526 -0.331055 0.19139443 0.4032813 0.25789395 -0.039819326 -0.14982101 -0.13893421 -0.043201253 0.032905605 -0.12885824 0.042408694 0.2195678 -0.19137241 0.14724354 -0.13350125 0.11532728 0.05157598 -0.010860061 0.13457872 -0.16138439 0.13234903 0.027132543 -0.09098737 0.032718286 -0.18031226 0.0026260256 -0.19310176 0.012753119 0.17000996 -0.38586783 -0.026886327 0.31366855 0.28911465 0.22056662 -0.03040441 -0.12828377 0.085927285 0.04301251 0.15904783 -0.107276045 -0.20592314 -0.17368309 0.009523324 -0.11097675 0.13654855 -0.028986 -0.08074663 -0.15157068 0.20649494 0.034999188 0.044261392 0.14764063 0.17090558 -0.13228524 -0.11301656 0.09903432 -0.08052072 0.04653758 0.08174553 -0.04178881 -0.098654695 0.1993557 -0.20551763 -0.36174062 -0.1309384 0.060061205 -0.1265894 0.3318617 -0.040838666 -0.15715247 -0.09866554 -0.12391869 -0.16218562 0.03637412 -0.26346275 0.19986719 0.3670138 0.014461491 -0.2098604 -0.17956701 0.20847744 0.1413777 -0.041124184 0.12466847 -0.03779502 0.24675626 -0.17932832 -0.12515081 -0.16036813 -0.013674143 -0.03241802 0.14694148 -0.23852669 -0.13366002 -0.15238936 -0.31840327 0.09651484 -0.33895928 0.00043762755 0.15173209 -0.16789281 0.24221762 0.28806183 -0.14794865 -0.124757014 -0.14136292 0.02222671 0.16433758 -0.13035749 0.0779096 0.17928623 -0.12417431 0.051928945 -0.249725 0.0017114914 -0.06534303 0.33274987 -0.047113717 -0.05511849 -0.23279345 -0.15344223 -0.19876641 0.07390099 0.18156613 -0.14888604 -0.017973522 -0.10518276
971 0.19572516 0.067484945 0.10028263 0.14029324 0.28688413 -0.1151488 0.31079054 -0.19933483 -0.06268292 -0.08260638 -0.0006788656 -0.07508104 0.028617313 0.18167998 -0.117903575 -0.12263414 0.00035950163 0.04904482 -0.085743986 0.04654622 0.05154839 -0.19159472 0.12622349 -0.49339205 -0.049937498 -0.1390968 -0.02260948 -0.12925234 0.12814145 0.3124475 -0.0043902285 -0.044979803 0.10562366 0.053617373 0.048936196 -0.22383882 -0.082851015 0.1422117 0.16639039 0.018202255 0.088510975 -0.11607631 0.094227046 0.2042725 -0.24068502 0.27408656 0.058305055 0.017549679 -0.11421106 0.3308006 0.30383798 0.1314339 0.13025405 -0.0224314 -0.12607354 0.008692143 0.16402 0.26486775 0.3397908 -0.0027175094 -0.11992127 0.038474575 0.11607648 0.120662495 -0.07800418 -0.18963687 0.0593254 -0.14657713 0.12163271 0.13346814 0.1702287 0.0010964074 0.037331764 -0.01697914 -0.08731838 -0.41313896 0.184948 0.09579054 0.32442376 -0.11555338 -0.11123256 0.012057002 0.0051984047 -0.23617877 0.106300555 -0.14879203 0.013964312 -0.0076762387 -0.1981795 0.0688353 -0.30110067 -0.0172525 0.094600566 0.036985137 0.057413436 -0.17381358 -0.06930237 0.20148325 -0.12131597 -0.011605075 0.2283571 0.06755937 0.049154643 0.14807951 -0.07899761 -0.15360059 -0.30346128 -0.27573332 0.10749665 -0.09845058 0.054897826 -0.0022093202 0.09917605 -0.038593788 -0.2588253 -0.16089863 0.07158648 0.1682631 -0.14937189 -0.10056879 -0.0058144354 0.20306902 -0.13843125 0.008340278 0.20442836 -0.26642826 0.22230983 -0.032144852
966 -0.014121512 0.17605631 0.15776807 0.07646885 0.05971161 -0.11117588 -0.033044644 -0.24058443 -0.13898095 -0.33449036 -0.047402013 -0.12157938 0.23806371 0.038717676 -0.13814643 -0.10332876 0.16188177 0.15934893 0.122150965 -0.014124869 -0.026104962 0.14649558 0.16616765 0.012425441 -0.06691702 0.0127738 -0.06102649 0.0854226 0.17087436 0.07913247 -0.19429597 0.02114059 -0.012219402 -0.012599518 -0.15091006 -0.17140499 0.07617952 -0.0056172004 -0.07092253 0.17302749 0.22162797 -0.3711066 -0.051950444 0.024889505 -0.15381528 0.28030318 -0.21249138 -0.088555016 -0.09059317 0.020016039 0.19363599 -0.10748522 0.102995485 0.17980665 0.0014494592 9.4732124e-05 0.046929788 0.1428947 0.18646103 -0.025742522 -0.21333942 -0.04174583 0.11287878 0.18545257 -0.046831638 -0.050987355 0.058013167 0.058508515 -0.098573655 0.047295198 0.16474637 -0.19871758 -0.0067908275 0.11281042 0.1460345 -0.015610736 0.030849839 0.017846221 0.19487904 -0.013335226 -0.025767868 -0.23649542 -0.15983298 0.10377445 -0.071407475 -0.28046414 0.30257988 0.029188126 -0.12853792 0.055691432 -0.1628061 0.1064574 -0.05316185 0.049064323 0.149151 -0.17066152 0.22802491 -0.015400515 -0.3569068 0.037234377 -0.03270085 -0.043363888 0.23706736 0.041638386 0.14028935 -0.30258185 -0.1786576 -0.35095608 0.025077812 -0.19531219 0.33866578 -0.18182324 -0.116426505 0.15131135 -0.1461454 -0.19629532 -0.037464876 -0.18345222 -0.17855686 0.014430534 -0.22620022 0.15264076 0.014368892 -0.124363646 0.12726423 -0.09254658 0.09003818 -0.27955315
960 -0.054946024 0.10511116 0.2343678 0.15850767 0.06298396 -0.1977559 -0.011405547 -0.23221484 -0.15330552 -0.36656407 -0.073102675 -0.11130756 0.24147302 0.05588683 -0.15863697 -0.05202652 0.1734465 0.18016507 0.114904016 -0.051808156 0.052639432 0.18010014 0.095678575 0.003828607 0.011886025 -0.017912177 -0.052553847 -0.014771647 0.1285119 0.22289753 -0.27932444 -0.030287445 0.0017724895 0.009749508 -0.089474455 -0.15956938 0.06896519 0.061222542 -0.058322724 0.14897467 0.23910719 -0.25105312 -0.17850746 0.002069226 -0.13743278 0.28591192 -0.1041822 -0.055872258 -0.021632312 0.1380261 0.18138193 -0.1318823 0.09166334 0.17918153 0.016300434 -0.009093273 0.023650827 0.077256314 0.16009566 -0.029987542 -0.101431295 -0.055691637 0.14203425 0.089683086 -0.0664083 -0.0763981 0.097974285 0.06004772 -0.043248497 0.07823867 0.15250845 -0.21045014 -0.09072176 0.17075245 0.20327981 0.036852013 0.1129367 0.035244387 0.23774329 0.0114123905 -0.051299457 -0.2004093 -0.21398005 0.11471111 -0.049054287 -0.23935153 0.26094183 0.036410622 -0.10522521 -0.006513377 -0.13946669 0.07955403 0.038993515 -0.05053571 0.1534455 -0.21325727 0.18845418 0.0015463417 -0.37402406 0.009741256 0.0010624088 -0.101699516 0.19932373 0.021304736 0.018960942 -0.257553 -0.21999265 -0.33257192 0.06366957 -0.14171709 0.31763834 -0.032724686 -0.040606447 0.0930156 -0.11850586 -0.21253498 -0.034258883 -0.06466198 -0.18872114 0.065743096 -0.2857292 0.1253449 0.024309685 -0.08985011 0.18727635 -0.03910559 -0.050906103 -0.2911296
973 0.15691575 0.090082824 0.060166564 0.10753853 0.2364113 -0.11365427 0.40566725 -0.22803804 -0.060813 -0.103055626 0.013771273 -0.047431614 0.034553263 0.20830214 -0.1384941 -0.087350816 -0.013157815 0.13436471 -0.08155137 0.1179774 0.0020751744 -0.13857672 0.18880843 -0.58674103 -0.10923302 -0.19006173 0.024736375 -0.11669009 0.14026994 0.3050628 0.032951333 -0.03671971 0.14652696 -0.04585645 0.033304684 -0.216235 -0.05022328 0.104564786 0.17568196 0.08055555 0.12863787 -0.18118788 0.1163382 0.2246213 -0.23589799 0.34951645 0.0450655 -0.051932 -0.15176332 0.31596166 0.35436678 0.1272185 0.13344827 -0.034482647 -0.10746074 -0.061392255 0.16321722 0.31795278 0.40832707 0.02077344 -0.101560146 0.11001341 0.13523069 0.15177393 -0.07509134 -0.06586125 0.08770961 -0.11771834 0.09662371 0.13402566 0.25087893 -0.01378745 0.03447261 0.026687577 -0.13865493 -0.42806992 0.117568985 0.1723618 0.39730045 -0.10769438 -0.041058093 -0.018818727 -0.013747159 -0.24135807 0.13450676 -0.2051773 -0.11679709 -0.019080894 -0.19497901 0.15514134 -0.32917243 -0.02270449 0.11114484 0.053618573 0.077330224 -0.16680883 -0.1330972 0.21643521 -0.16280037 -0.009582768 0.22940433 0.1069623 0.0062891874 0.08373469 -0.04368534 -0.20349483 -0.29398477 -0.24130993 -0.010594293 -0.10614919 -0.009842632 -0.031376548 0.15971075 0.02062124 -0.2653616 -0.08192212 0.08935469 0.09351977 -0.19983524 -0.09685644 -0.034587976 0.24277148 -0.14067039 -0.035178505 0.16655129 -0.2843446 0.2856896 -0.018323755
952 -0.055275545 0.08305955 0.20654893 0.21005328 0.0155976685 -0.122663334 -0.05105227 -0.23641153 -0.14753157 -0.41867864 0.04037416 -0.16174725 0.27138203 0.014520276 -0.1404485 -0.13640955 0.13869601 0.20685005 0.12074917 -0.023763955 -0.016793773 0.22556667 0.09138274 -0.015948988 -0.0051079527 -0.04938238 -0.032301854 0.03904846 0.122794606 0.13767965 -0.28694114 -0.08417583 -0.00081261137 0.04380683 -0.0909071 -0.21425423 0.100402735 0.07372953 0.03988447 0.18030302 0.2873479 -0.32527903 -0.14142154 0.007729079 -0.16153328 0.27116528 -0.19921829 -0.077949986 -0.06675828 0.107783854 0.20104778 -0.15460877 0.11695364 0.21007325 -0.008423299 -0.021352567 0.042396944 0.059683666 0.19732624 0.015239825 -0.16878824 -0.12233291 0.11946246 0.03439182 -0.023300365 -0.08989886 0.13597818 0.06987301 0.021052664 0.052602272 0.16876642 -0.20746447 -0.054456048 0.18285064 0.21608107 0.04010153 0.090022124 0.057537004 0.20766945 -0.052861758 -0.038951896 -0.19251934 -0.23689769 0.09389507 -0.11944035 -0.27211007 0.31023276 0.022156818 -0.1476843 -0.001449068 -0.16815776 0.052551236 -0.014673503 0.009015564 0.13055134 -0.22141573 0.19419093 -0.030191835 -0.32261682 0.071507074 -0.053780362 -0.09500322 0.31146044 0.03586954 0.071257085 -0.28400785 -0.19893533 -0.25438958 0.019941008 -0.2358958 0.327863 -0.15401517 -0.03164274 0.13546453 -0.14614564 -0.2538103 -0.033064436 -0.05169057 -0.2239123 0.019246757 -0.32377052 0.14081429 0.053358495 -0.11802554 0.13055451 -0.04522368 -0.041604474 -0.21232237
955 0.16985196 0.112834096 0.19008717 0.094270065 0.0040576486 0.03530329 -0.21070789 0.09738381 0.22389473 0.16200955 -0.15555805 -0.12144714 0.13572812 0.15013 -0.43550858 -0.39983782 0.033453956 -0.36595708 -0.030166259 0.015817558 0.066197604 -0.10931314 0.15771058 -0.11934588 -0.098269686 -0.0073402915 -0.28067842 -0.1771405 0.021227393 -0.16280566 -0.28787136 0.14704359 0.050235126 0.30753636 0.04985857 -0.26425728 -0.106379226 0.079894446 0.05138311 0.07512061 0.15733033 -0.07999737 -0.15444888 -0.04707889 -0.029862603 0.062492177 -0.28493324 -0.17438349 -0.1730634 -0.024188131 -0.04349892 -0.023691181 0.12626922 0.13628006 -0.014207657 0.21257216 0.12105751 -0.023776257 0.15232648 0.015536457 -0.13059783 -0.023319053 0.10987755 0.26933315 -0.21173623 -0.03630388 0.15958005 -0.08938074 0.13848568 -0.03343234 -0.089537665 -0.10079171 0.16189623 -0.08882616 0.1803612 -0.17713729 -0.021064023 -0.030400971 0.10494788 0.14639883 -0.17614688 -0.048892822 0.13915358 -0.19145723 -0.105879664 0.05386537 0.2057288 -0.0014119552 -0.21345825 0.12162534 -0.16095902 0.08688143 -0.037132815 0.17608039 -0.19467635 -0.22761093 0.021892868 -0.10396816 -0.15945694 -0.073647596 0.26431775 -0.09346493 0.2984744 -0.071907185 0.18221267 -0.1899413 -0.023931334 -0.32614526 0.24312699 -0.10208763 0.23485285 -0.19371669 -0.1790129 0.031952783 -0.20091872 -0.1514232 -0.0599686 -0.11245252 -0.12106121 -0.30752796 -0.1429693 -0.16461702 0.048086297 -0.09648733 0.07630373 -0.2641375 0.13171595 -0.18892014
949 -0.031128772 -0.33603406 0.20645279 0.3486296 0.11681765 0.009260977 -0.25415617 -0.11677877 -0.075492285 -0.122909 -0.051575635 -0.051970083 0.17531842 -0.17990571 0.12512968 -0.19240515 0.12020624 0.09281753 0.013286911 0.05870751 -0.114209265 0.20082334 0.04285239 0.033147242 0.04238014 -0.18423927 -0.062382728 -0.16661571 0.014977832 0.19627747 -0.49797487 -0.1489857 0.24152793 0.25699258 0.1210437 -0.0900013 -0.049997244 0.12208446 0.051466953 0.19068654 0.068179555 -0.26710105 -0.19888388 0.022301232 -0.06577468 0.13991533 -0.14796603 -0.10890783 -0.17494188 0.16839744 0.055043206 -0.047352973 0.23247482 0.21880996 -0.16229162 -0.13337664 0.19311859 -0.08781549 0.055016186 0.12739015 -0.037275016 -0.14742722 0.21673825 -0.26412684 -0.3730174 -0.10947476 0.06239741 -0.16191837 0.23637347 -0.058727626 -0.11076994 -0.10300439 -0.13000473 -0.20728295 0.117704116 -0.16058144 0.14523692 0.2604037 0.103111826 -0.1835566 -0.11447659 0.18663682 0.11568597 -0.017172627 0.080298156 -0.049429283 0.24907395 -0.18352613 -0.14274493 -0.13679892 -0.014973005 0.014598221 0.15224627 -0.14343558 -0.08809356 -0.15954135 -0.32443652 0.08401276 -0.33704638 -0.0469912 0.11783165 -0.17507583 0.3156875 0.21119137 -0.13280863 -0.2271848 -0.056776978 0.03629292 0.17321861 -0.21830644 0.08895745 0.10360999 -0.16696462 0.14273025 -0.23469608 -0.038587406 -0.13779096 0.21869761 -0.11909244 -0.13338062 -0.29105031 -0.10260075 -0.13270906 0.06414524 0.058981758 -0.1162209 -0.069752105 -0.1711258
950 -0.011386393 -0.33892533 0.22078374 0.40070125 0.17347927 -0.033551134 -0.24568313 -0.086820506 0.003464267 -0.046414226 -0.1494577 -0.030200865 0.13529712 -0.19202071 0.061664965 -0.21802129 0.1305429 0.028850365 -0.039690945 0.06987225 -0.08457078 0.15472294 0.030235866 -0.01816254 0.03800409 -0.22559361 -0.119747795 -0.20677547 0.001955489 0.22094615 -0.5300929 -0.06445923 0.3003921 0.32814777 0.24265216 -0.094431564 -0.079690695 0.12501875 0.029601239 0.1655484 0.01059708 -0.1879137 -0.24985026 0.01528286 -0.05581532 0.1342634 -0.08717389 -0.11528046 -0.11413597 0.19993186 0.020057775 0.017954297 0.16706978 0.17703097 -0.18289614 -0.09747093 0.18276942 -0.109523445 -0.027014157 0.10660676 -0.008436833 -0.07279896 0.16010657 -0.25826108 -0.36076722 -0.09028641 0.11050525 -0.17314906 0.27595037 -0.048228864 -0.14022295 -0.13669045 -0.124828644 -0.18565844 0.13546897 -0.18613984 0.14950816 0.25918275 0.10401715 -0.17002895 -0.11990401 0.1492363 0.116064504 -0.020663427 0.112585 -0.007052162 0.24056074 -0.20116393 -0.1426847 -0.10359481 0.025176605 0.044590116 0.14928252 -0.20655873 -0.1451247 -0.1568268 -0.28117767 0.078213334 -0.31447217 -0.053372666 0.15160684 -0.20748195 0.28766438 0.19639 -0.12993586 -0.13668291 -0.08758831 0.042889286 0.18416649 -0.21309231 0.05123873 0.13290475 -0.17511128 0.06799205 -0.19214159 -0.026041854 -0.07986981 0.20638327 -0.15760708 -0.117243044 -0.29237464 -0.15662974 -0.14450735 0.091749445 0.18009472 -0.11657788 -0.046806727 -0.1565058
962 -0.060848694 0.092926815 0.21138082 0.1381137 -0.009499228 -0.12591416 -0.09347042 -0.22232349 -0.14311211 -0.3560561 -0.012066305 -0.15723526 0.31733164 -0.0121005075 -0.1945493 -0.1427264 0.18516885 0.13966411 0.117404096 -0.054500457 0.050916556 0.18735445 0.12503187 0.047766663 -5.5191413e-05 -0.04992346 -0.098431274 0.036666196 0.12314974 0.22620678 -0.3439652 -0.025062812 0.0314638 0.03777887 -0.10430481 -0.19645603 0.07071871 0.06885353 -0.037954252 0.21766183 0.26789302 -0.34025872 -0.16024257 -0.0012748848 -0.118313745 0.26377076 -0.20285578 -0.06016348 -0.05273363 0.088589706 0.2052674 -0.11264182 0.13190158 0.209981 0.023320582 0.0029944845 0.025376312 0.055697333 0.16855581 0.022385836 -0.13976394 -0.11759962 0.09351606 0.07643914 -0.08439874 -0.16862205 0.08780908 0.0015194872 -0.06836295 0.07280663 0.12508717 -0.22635426 -0.028849335 0.09484364 0.22806515 0.086994454 0.01748791 -0.022636542 0.20916566 -0.008935696 -0.107326865 -0.19130743 -0.19370192 0.102748275 -0.09159482 -0.26252648 0.3071948 0.009307022 -0.10131873 0.021305216 -0.1258646 0.09504783 -0.021690326 -0.009833038 0.08986456 -0.24982327 0.22388956 -0.004626831 -0.38680077 0.02361522 0.010981445 -0.095780656 0.29821175 0.021749094 0.08011371 -0.2609498 -0.18744552 -0.28317624 0.025088126 -0.21194096 0.31952477 -0.13706774 -0.050447587 0.1519577 -0.20640332 -0.21593063 -0.019030772 -0.093719125 -0.19786197 -0.039681472 -0.28012234 0.15153956 -0.00041082638 -0.07290808 0.166381 -0.11683865 -0.058336962 -0.25803912
956 0.0093253795 -0.13706422 0.048045117 0.42380732 0.2531369 -0.18284953 0.06808751 -0.15318233 0.056485444 -0.020013012 -0.18012588 0.17162691 0.07196688 0.18097678 -0.1320418 -0.12553345 0.10603723 -0.03968936 0.2589936 -0.124594085 -0.084850974 0.26737103 0.082381636 -0.1166382 0.052749697 0.031962376 -0.1723003 -0.016439214 0.06096963 0.01117095 -0.09391063 0.039544106 -0.038943276 0.13488255 0.012878682 0.02839356 -0.037488777 -0.07319702 -0.11811684 -0.14819653 -0.087556064 -0.22749652 -0.062416106 0.32787228 -0.10651754 0.11412148 -0.076909795 0.05647695 -0.09591309 0.16068691 -0.18669482 0.30074206 0.1450553 0.19550674 0.058472 -0.038370986 -0.21191065 -0.23759477 0.23423208 0.033092327 -0.223101 -0.0012270309 -0.0063123466 0.18723638 -0.0023880745 0.08676589 0.093388826 -0.23079261 0.07064174 0.13205878 -0.029005172 0.015839081 0.2935763 -0.03561959 0.12436949 -0.18042588 -0.14094828 -0.27527177 0.21410105 -0.28987825 -0.3253377 0.40098637 0.070278026 -0.052676648 -0.09298468 -0.1701143 0.26330352 -0.2586556 -0.21045384 -0.1969344 0.025342068 0.046714824 0.1061168 -0.08740213 0.13987999 0.08647426 0.15457691 -0.001112714 -0.3058648 0.053354222 0.11528414 0.024440171 0.15307921 0.28732157 0.145519 0.068554334 -0.11676897 -0.1881999 0.06991567 -0.31137112 0.071553126 -0.06785111 0.001587465 0.20628929 0.030079402 -0.06497698 0.03485223 0.10936343 -0.053845085 0.03971045 -0.06530783 0.01874812 -0.3862584 -0.025913136 0.27236864 -0.32279372 0.2753285 -0.20445488
959 0.14000387 0.17570366 0.17411654 0.03756411 0.07048315 0.011876905 -0.07357814 0.04064563 0.16506742 0.28016987 -0.18660013 -0.050945535 0.15155117 0.17079684 -0.42476422 -0.3690338 0.023344666 -0.388884 -0.03066335 0.025654659 0.09421486 -0.13277273 0.19157696 -0.12507153 -0.062828265 -0.046488028 -0.17301485 -0.20116335 -0.041168824 -0.16044474 -0.2996488 0.21998693 0.078275435 0.29183763 0.09045291 -0.22017421 -0.123281434 0.095005795 0.016492575 0.11101418 0.065096274 -0.056328364 -0.13840549 -0.06534716 -0.10902586 0.07903107 -0.24179803 -0.19100851 -0.15729573 -0.0009380295 -0.07327888 0.026919538 0.08462128 0.21518922 -0.01230052 0.29673794 -0.023562679 -0.026381267 0.10310382 -0.034841593 -0.14474769 -0.040138304 0.07199575 0.35623428 -0.21389939 -0.0064187865 0.19906518 -0.068762764 0.17153114 -0.030683422 -0.10481791 -0.06576095 0.22913106 -0.04624068 0.17174272 -0.16098095 0.04348487 0.08965356 0.060583234 0.19200338 -0.20352083 -0.034759805 0.1344681 -0.1799083 -0.12527339 0.02314539 0.23008086 0.010057811 -0.20265645 0.11625447 -0.08228065 0.08284191 -0.020266091 0.18282418 -0.16526417 -0.13620755 0.06460335 -0.10436153 -0.14970832 -0.03651052 0.30084437 -0.038385045 0.16984802 -0.14738652 0.21438174 -0.13158713 0.0024413436 -0.3313316 0.26776597 -0.05242414 0.32198498 -0.17873678 -0.14474155 -0.0036144708 -0.20732686 -0.11936542 -0.07113761 -0.01674626 -0.02476797 -0.28179282 -0.20144744 -0.2442845 0.062182765 -0.16699834 0.09910087 -0.29177785 0.13701679 -0.22501847
941 -0.28207362 0.13340284 -0.030342704 -0.017217407 0.4208029 -0.19075972 0.4225829 -0.13526526 0.0024632036 0.07492692 -0.12725012 0.015177721 0.26810244 0.18327083 0.012335267 -0.06528087 -0.15150283 -0.09744132 0.1816686 0.054043382 0.04999676 -0.040170956 -0.09721827 -0.18889241 -0.016817192 0.19670334 0.028217535 -0.2032425 0.030206827 0.24132983 -0.18680578 0.22116931 0.058359977 0.21086629 0.12036337 -0.029819397 0.049857173 0.07587167 0.000996789 0.02366149 -0.23063803 -0.11438285 -0.2656503 -0.19191672 -0.35496804 0.18002793 0.11320084 -0.014527919 0.06205035 0.30406967 0.00830143 0.037133414 -0.024778282 0.1482073 0.16846356 0.07381211 -0.22447073 -0.009423998 0.19861929 -0.09824653 -0.09146846 -0.11631214 0.08659822 0.13417898 -0.09609076 -0.347465 0.042517614 0.124059394 0.28138298 0.07923633 -0.11832933 -0.028950106 0.059861224 0.21675414 -0.05004472 -0.08790444 0.39954975 0.2259882 -0.066640586 -0.17265531 -0.37382692 0.19717327 -0.059390713 0.0650318 0.03568766 -0.12989649 0.3613426 0.0061391066 -0.08281637 -0.08828037 -0.20449507 -0.11703282 0.013998648 -0.049138956 0.10058589 -0.052582912 0.23396827 -0.04909755 -0.21849233 0.21192653 0.21393715 -0.18241307 -0.10861941 0.22199681 -0.03599847 0.049257357 -0.2305739 -0.39031997 0.30012023 0.022828577 0.43227407 0.23226708 0.11483475 -0.17684358 -0.024849717 -0.26308528 -0.08467965 0.27165875 0.009950171 0.14486404 -0.22357824 -0.12189883 -0.21129264 -0.15007208 0.29049855 -0.14318264 -0.14096168 -0.15904242
957 -0.3215636 0.14415973 0.035431437 -0.017023543 0.3772645 -0.18579455 0.43352363 -0.13247342 -0.020835951 0.09630716 -0.024940366 -0.05199788 0.29248562 0.0801499 -0.04082355 -0.14055605 -0.17538993 -0.104677364 0.13055001 0.011205367 0.146323 -0.04852818 -0.10335737 -0.14597762 0.04242635 0.20518826 0.0018614414 -0.18497099 -0.030446649 0.26077124 -0.22348835 0.18847919 0.079514794 0.22312796 0.110787645 -0.08882967 0.076838754 0.20465866 0.09805439 0.027660938 -0.16439201 -0.14105718 -0.24621126 -0.20073247 -0.3538907 0.088376634 0.06596258 -0.025664847 0.033671718 0.2909731 -0.013788562 0.009119806 -0.015779726 0.20188245 0.13564053 0.17462169 -0.20830204 0.013611464 0.21013473 -0.043438707 -0.031138191 -0.18221515 0.009135038 0.07780946 -0.09769884 -0.36711922 0.09710067 0.0677652 0.28084528 0.04353702 -0.097966395 -0.0021475588 0.04041473 0.13955611 -0.00881635 -0.040121794 0.3922046 0.2444478 -0.05116324 -0.10710015 -0.36028343 0.18113102 -0.07905298 0.055626303 0.0065539456 -0.14005822 0.28558668 0.048579827 -0.05729965 -0.10443771 -0.19853222 -0.15452898 0.025394913 -0.022696275 0.041196544 -0.09292122 0.24744725 -0.023496764 -0.20735964 0.21814041 0.23595947 -0.16157909 -0.038665693 0.1721284 -0.05904819 0.040865507 -0.24774913 -0.38263634 0.29702145 -0.007831189 0.43851683 0.14095204 0.14078118 -0.13724351 -0.08568732 -0.28097177 -0.105721384 0.29546145 0.0847881 0.015969023 -0.2337045 -0.10040338 -0.19079223 -0.14282149 0.25819537 -0.22765096 -0.17763205 -0.18421033
965 -5.7246303e-05 -0.085408464 -0.0067435047 0.3693514 0.1916301 -0.21025689 0.22431166 -0.16344236 0.036215242 0.06432346 -0.10401653 0.183461 0.104799174 0.22159712 -0.17075054 -0.09792849 0.028482996 -0.016023483 0.40961742 -0.15533496 -0.06369983 0.31566128 0.14766116 -0.12959711 0.074404694 0.019716553 -0.07999582 -0.02421726 0.01913247 0.0018627017 -0.10086096 0.03705435 -0.043578144 0.09124175 0.0038730311 0.06076585 -0.009703091 -0.034749497 -0.0906072 -0.090639465 -0.08522703 -0.25855172 0.0051617 0.29972687 -0.19361392 0.0767994 -0.08335981 0.047674675 -0.11282538 0.107652925 -0.2543685 0.37478486 0.11051164 0.26303008 0.15817136 -0.07922304 -0.30848834 -0.23181911 0.25126994 0.10765696 -0.27453738 0.008757721 -0.024735719 0.21676363 0.049996153 0.0522036 0.15467589 -0.18119259 0.10287631 0.13687079 -0.0063945726 -8.3961284e-05 0.33679694 -0.014483075 0.11367894 -0.16288245 -0.13357812 -0.2810954 0.19633369 -0.3482265 -0.33991125 0.38929397 0.07107732 -0.09183422 -0.14959303 -0.24562342 0.24166946 -0.2513447 -0.15982479 -0.18035072 0.059739705 0.03809344 0.050835744 -0.101262376 0.1978589 0.095977634 0.21915027 -0.01715092 -0.27268764 0.08587559 0.14671572 0.03963954 0.0457942 0.19945943 0.18261926 0.11447921 -0.090577915 -0.21324842 0.053332385 -0.2537757 0.16892292 -0.110982485 0.05517277 0.19561191 0.036686476 -0.06965234 0.057011496 0.096898325 0.016392315 0.0053664516 -0.111958094 0.02755147 -0.40057737 -0.10057994 0.29122123 -0.36468974 0.27696845 -0.16923797
953 0.04556094 -0.37332147 0.22411722 0.48593852 0.14977281 -0.059465222 -0.2711677 -0.12657034 -0.013266448 -0.03550267 -0.21675959 0.007040109 0.10666126 -0.17603031 0.017728211 -0.21182735 0.228916 0.087889165 -0.080937386 0.07703741 -0.08394625 0.18589313 0.11125415 -0.07969379 0.032518703 -0.2992995 -0.113793164 -0.25795582 0.041361336 0.17821185 -0.44905645 -0.056777406 0.32249865 0.30467528 0.23702897 -0.057637025 -0.16009176 0.102425806 -0.040039986 0.08856559 0.016070787 -0.17761488 -0.17603953 0.14820194 0.0046650013 0.14970487 -0.10041256 -0.14014769 -0.18652037 0.20620258 0.027208079 0.06194213 0.21931982 0.19034216 -0.17466299 -0.071680754 0.1435064 -0.082076415 -0.023600157 0.07386691 0.065657355 -0.09314255 0.18311898 -0.17175601 -0.35779253 0.06261836 0.1363874 -0.2712517 0.22513197 -0.006523057 -0.081975795 -0.12529795 -0.09085966 -0.22248499 0.07903663 -0.2896273 0.08326783 0.26370114 0.16216888 -0.16983546 -0.10038953 0.1178828 0.149794 -0.05486572 0.11839352 -0.012020603 0.21948849 -0.20940049 -0.17036264 -0.1258181 0.0477394 0.08369127 0.165053 -0.17025287 -0.12241758 -0.14074838 -0.3285501 0.13529405 -0.32780772 -0.08379638 0.21522994 -0.17313918 0.26547942 0.23217441 -0.105743095 -0.10836952 -0.101418614 -0.012412253 0.117526904 -0.23798448 -0.010966563 0.05422618 -0.15734605 0.13978939 -0.24992706 -0.020376954 -0.0758452 0.22654086 -0.109512895 -0.17292914 -0.23791935 -0.13058421 -0.12666704 0.14840502 0.19626544 -0.1802003 0.029798385 -0.16039674
951 0.00818585 -0.1466156 0.110226065 0.4700821 0.27774557 -0.31760836 0.20491876 -0.1574007 0.033060342 -0.012394724 -0.2469781 0.15485106 0.03535882 0.23575832 -0.18409114 -0.044937458 0.111966535 0.014122565 0.26092178 -0.16327596 -0.020963414 0.28730813 0.08938823 -0.19685304 0.009243207 0.012948783 -0.16501723 -0.076900795 0.03981554 0.06409524 -0.07807585 0.108146116 0.015091306 0.10417136 0.0032292546 0.054774463 -0.03679856 -0.01643987 -0.11164478 -0.20175593 -0.06540466 -0.226262 -0.08557691 0.36353213 -0.11030481 0.11463997 -0.03830696 0.014328402 -0.06863207 0.19414708 -0.1517778 0.33803138 0.14061564 0.17192712 0.11606601 0.0009668209 -0.19359796 -0.27135155 0.3042097 0.04188633 -0.18254845 -0.009478353 -0.039171845 0.25259033 0.015908943 0.112535104 0.14343329 -0.21778235 -0.0004740291 0.13484828 -0.030703338 -0.00097470055 0.24810745 -0.033910397 0.069095425 -0.23209335 -0.22321048 -0.33489054 0.23292428 -0.33438754 -0.28374168 0.38359737 0.12179326 -0.0692417 -0.085074 -0.22932066 0.19104156 -0.25257102 -0.20542422 -0.13757549 0.005021284 0.057709064 0.07556921 -0.09657381 0.23066613 0.13752982 0.15602304 -0.01778971 -0.31263918 0.0388888 0.16968945 0.026504252 0.032901924 0.2945932 0.1560106 0.13199654 -0.14436261 -0.24125369 0.03476564 -0.2694957 0.033432905 -0.0500415 0.06540991 0.25352123 0.09388012 -0.088848054 0.023234863 0.08391847 -0.05346781 -0.030576743 -0.028427716 0.052875206 -0.48067462 0.010781036 0.29796353 -0.34483498 0.24083014 -0.23924328
961 -0.36003795 0.07372424 0.0027417939 -0.13717502 0.3345178 -0.17085283 0.3591118 -0.10630495 0.0035982234 0.11720117 -0.10125834 -0.060822446 0.32037 0.07405777 -0.026497345 -0.12860009 -0.16436797 -0.16970289 0.16378349 0.072143845 0.084687844 -0.09847752 -0.08243989 -0.107174605 -0.013233266 0.27083144 -0.0058889384 -0.22011915 -0.011281223 0.25509053 -0.28012428 0.2667267 0.06477698 0.27632955 0.07398849 -0.05894517 0.04145453 0.18844822 0.009954625 0.077442974 -0.18176569 -0.13743319 -0.2270772 -0.2688938 -0.34961656 0.09724936 0.012676509 -0.040763702 0.027455594 0.17348497 -0.034923922 -0.026307315 0.008461934 0.18121488 0.16832434 0.13829578 -0.17953089 -0.016727928 0.17128125 -0.049785327 -0.055735886 -0.14192201 0.08708741 0.13446541 -0.19334482 -0.39151275 0.065457396 0.0773529 0.33377558 -0.017756157 -0.15118627 -0.06794421 0.012217758 0.044906233 -0.03416627 -0.048130613 0.3983492 0.2577794 -0.0821814 -0.07327006 -0.40230405 0.18914585 0.028235082 0.10909681 0.015604842 -0.07051656 0.35403895 0.039463162 -0.06268119 -0.0689108 -0.13725184 -0.13165417 -0.060593255 -0.02436739 0.030243795 -0.09686078 0.16858654 -0.038033396 -0.22357191 0.23817964 0.22922851 -0.19533923 -0.04625079 0.1837564 -0.04147183 0.084895514 -0.20267834 -0.34686616 0.3630218 0.0622001 0.42996347 0.16178764 0.010093202 -0.174347 -0.12592594 -0.24239881 -0.12503864 0.22936769 0.104036726 -0.007076225 -0.21521524 -0.10652473 -0.18927656 -0.18482658 0.25636587 -0.19652113 -0.11388864 -0.17413072
958 0.07984052 -0.03187722 0.10192299 0.42796904 0.25176072 -0.25421295 0.1057097 -0.09700975 0.081059314 0.047751933 -0.16123852 0.10391745 0.09089842 0.23895681 -0.29194194 -0.19192958 0.09419649 -0.13360727 0.19003671 -0.165268 -0.022388984 0.20408924 0.120072834 -0.2530493 0.034275673 0.033831477 -0.23366933 -0.039204855 0.056404103 -0.07162978 -0.04232679 0.033610355 -0.06640702 0.13275644 0.018460438 -0.044228695 -0.09389724 -0.041396886 -0.013643207 -0.23056279 -0.077838704 -0.20180546 -0.02658776 0.3957215 -0.1321589 0.06806492 -0.07503164 0.06368451 -0.11359818 0.18064412 -0.25850946 0.33112532 0.16192593 0.23986529 0.044757836 0.035149205 -0.1463238 -0.2914331 0.28029814 0.047157463 -0.25703314 -0.010681248 -0.034132034 0.22331423 0.015906714 0.058361117 0.1256421 -0.25564834 0.05348193 0.14764194 -0.012760695 0.06789238 0.3366658 -0.04080541 0.20734352 -0.20901549 -0.12506445 -0.37756976 0.3034041 -0.21251418 -0.32227597 0.3166336 0.04257393 -0.19745308 -0.14292002 -0.16760543 0.2633667 -0.2750745 -0.2095359 -0.14828135 -0.013528144 0.068957925 0.122286394 -0.05605257 0.16346349 0.07992883 0.16520748 0.0020015296 -0.26270464 0.006906857 0.16746844 0.088957176 0.18638544 0.14276473 0.14722994 0.014347277 -0.13071282 -0.22252603 0.04512098 -0.32052594 0.07950867 -0.17588542 0.07531932 0.22038834 0.005733502 -0.089998424 0.09211293 0.10078141 -0.08710529 -0.07470961 -0.064927645 0.06302918 -0.33826512 -0.05038172 0.24709085 -0.3853685 0.31099346 -0.15801662
936 0.06852465 -0.022511894 0.059093628 0.25915602 0.20360401 -0.005620744 0.0070880842 0.04738473 0.033000425 -0.1099892 0.048029467 -0.17994599 0.03389317 0.1951703 0.09239071 -0.039444733 -0.12968412 -0.029519927 0.2235392 0.05894227 -0.32348403 0.12867281 -0.092520885 -0.08341213 0.020306708 0.16043228 -0.117073044 -0.00237471 0.04401161 -0.061797395 -0.30040556 -0.039294425 0.151034 0.06379214 -0.027168522 -0.12301362 0.09973938 0.07784763 0.22850746 0.2117567 0.17812194 -0.21464549 -0.33917803 -0.1445644 -0.1464093 0.10573534 -0.19661063 -0.07478 -0.18610467 2.5171652e-05 0.03804292 -0.03503407 0.11502351 0.06026629 0.11047759 -0.28781793 0.3039422 -0.042215064 0.5219294 0.31295866 -0.42205936 0.05712016 0.12840171 -0.03089434 -0.14507122 -0.22723526 0.015355697 0.11862237 0.39981577 -0.110783994 -0.17917562 -0.031401962 0.033327393 0.038152006 0.017646294 -0.15405515 0.037698373 0.014720936 0.028064193 -0.45921147 -0.16082235 0.29211497 0.10730198 -0.21095556 0.0745483 0.0067923544 0.07812194 -0.10668062 -0.02277609 0.16595222 -0.26062062 -0.0017515324 0.14554392 0.042564385 0.008167842 -0.14003594 -0.11277377 -0.029624987 -0.19007942 0.10576355 -0.14295782 -0.13379198 0.2436841 0.100500345 0.058848616 -0.29975873 -0.07026971 -0.09098029 0.17188625 -0.0029827768 0.11752553 0.15147774 -0.05882744 0.08880002 -0.0018276868 -0.19164743 -0.15495394 -0.14717992 -0.16418341 -0.015208371 -0.007993235 -0.11874631 -0.3754336 -0.14402334 -0.1705283 -0.049618457 0.027315095 -0.08874719
944 -0.32876515 0.08937746 0.0027823427 -0.06725449 0.33330646 -0.17865933 0.42374545 -0.16084304 0.002483989 0.15733178 -0.09681206 -0.03828998 0.3086729 0.09065038 -0.014137534 -0.09884836 -0.15308963 -0.12755454 0.16707416 0.084883265 0.09717804 -0.039911076 -0.09021685 -0.13516848 -0.038604114 0.21896546 0.0727739 -0.25870347 -0.029431237 0.34959733 -0.22440085 0.25799295 0.05435077 0.2537009 0.10857346 -0.0623749 0.039870393 0.15049571 0.029558843 0.009849052 -0.20520626 -0.13240972 -0.18477848 -0.21863975 -0.3540941 0.11140293 0.08873438 -0.06303493 0.06928512 0.2298456 -0.014844164 0.018833203 0.020271923 0.16596481 0.17196696 0.117930286 -0.21126433 0.05099845 0.15027322 -0.08976817 0.0043141725 -0.16043057 0.07972808 0.1257425 -0.18071757 -0.3764876 0.046175268 0.051654767 0.31771147 0.032171935 -0.121185414 -0.046112414 -0.00016382837 0.08816572 -0.065644674 -0.10980171 0.424304 0.30687433 -0.03196284 -0.07975935 -0.36652014 0.15139237 -0.024178613 0.10317997 0.029669495 -0.12772249 0.30641696 0.05821751 -0.035314165 -0.11222115 -0.14335182 -0.12888119 -0.017457346 -0.036818508 0.052896995 -0.060892813 0.18397926 -0.032477796 -0.24217582 0.2228295 0.2891464 -0.15094624 -0.12528351 0.19563948 -0.041355453 0.06568959 -0.23061961 -0.40437636 0.2948387 0.0124937035 0.44679403 0.15106344 0.11174352 -0.16055709 -0.11914372 -0.21018718 -0.1259246 0.31277874 0.0944207 0.04050811 -0.25144196 -0.06462782 -0.17478007 -0.1559384 0.31934717 -0.20821899 -0.112596355 -0.15725787
946 0.11802535 -0.015113613 0.06097727 0.019930366 0.39913136 -0.0817323 -0.020146195 -0.19269176 0.05028396 0.044139616 -0.42125508 -0.0068408092 -0.020748781 0.2724192 -0.13527082 0.16055745 0.12558948 -0.020231556 0.09106957 0.3337126 -0.24906267 -0.06589257 0.23056844 -0.10705613 -0.3390134 0.036976174 -0.026283285 -0.18890697 0.120345555 0.020358864 -0.19973701 0.358844 0.14749166 0.019937404 -0.06927166 0.021781033 -0.06878843 -0.039296094 -0.3226756 0.06094469 -0.03093296 -0.2120212 -0.02874318 -0.11222258 -0.042668547 0.32648903 -0.051622108 -0.28634748 -0.066847816 -0.15857051 0.23357682 0.057139877 0.13745096 -0.06524411 -0.0061814226 -0.037872463 0.17365971 0.12739226 0.052998755 -0.1024572 -0.1797054 0.21525092 0.31842452 0.5615373 -0.2547539 0.20485339 -0.062639184 0.07010817 -0.004175795 -0.070065126 -0.13506669 -0.27400512 0.03270508 -0.15087396 -0.14214453 -0.42056066 0.026856558 0.14601798 0.14728218 -0.09761484 -0.0686887 -0.064208284 0.23482624 0.13183936 0.1132829 0.038893767 0.21372654 -0.017930191 -0.31066656 0.12483168 -0.20102184 0.21926604 -0.1962803 0.07381723 -0.061212014 -0.092595205 -0.23327048 -0.003641355 -0.38735145 -0.08042302 0.2039549 -0.07499845 -0.14908832 0.21864921 0.14970696 -0.060806718 -0.060574125 -0.3235786 0.2734352 0.21385859 0.16731729 0.10153337 -0.4497607 -0.044003695 -0.041381273 0.060231924 -0.083204925 -0.24320026 -0.139734 0.10663323 -0.09657946 -0.11766785 -0.087650776 -0.094768174 0.19079098 -0.009476371 0.26457486 -0.0751351
943 -6.924712e-05 -0.36960354 0.17094289 0.43147555 0.15400389 0.029849414 -0.295674 -0.10850237 -0.038614627 -0.13365334 -0.07468729 0.00831137 0.18813628 -0.17346084 0.106646866 -0.18644097 0.15185143 0.103896834 0.02490689 0.04867813 -0.18167062 0.2150708 0.079405285 -0.015153312 0.09014603 -0.1960935 -0.11116154 -0.12746401 0.028109722 0.10148769 -0.42428178 -0.1417825 0.25740638 0.25417897 0.18426313 -0.078275666 -0.085210875 0.06239099 0.042557795 0.14394161 0.039671443 -0.3081752 -0.16089246 0.14237094 -0.023489602 0.14216287 -0.15063746 -0.07217137 -0.2061551 0.14983834 0.04641589 0.0022471624 0.19202977 0.22523157 -0.18598463 -0.16551866 0.1546109 -0.11882325 0.07441613 0.13864532 -0.07309695 -0.120659806 0.2283052 -0.26286826 -0.3516322 -0.038778197 0.07270046 -0.16753745 0.2340776 -0.045896433 -0.106093965 -0.12183825 -0.1263731 -0.17890164 0.13461445 -0.21595655 0.1344916 0.2637777 0.12699161 -0.20759298 -0.10293745 0.16355687 0.09124359 -0.0497151 0.06374018 -0.054986186 0.29772493 -0.24680312 -0.14947775 -0.15254584 0.004485753 0.04629122 0.19702528 -0.17037785 -0.096595615 -0.14112107 -0.29657662 0.085905194 -0.32663763 -0.02819481 0.056282535 -0.16924536 0.36760494 0.22966667 -0.098873526 -0.23789302 -0.08271936 0.06862761 0.10410599 -0.26691285 0.04889588 0.078575075 -0.17089674 0.1908781 -0.22289969 -0.060941555 -0.086267196 0.22550464 -0.13736387 -0.07654421 -0.22931105 -0.08238913 -0.14960422 0.032606274 0.09293885 -0.16577095 0.036536362 -0.14020154
933 0.20903267 0.19804199 0.13895261 0.049002226 0.058667418 0.100566246 -0.14262074 0.05022232 0.1911641 0.2561043 -0.15850066 -0.103507124 0.091119744 0.21648474 -0.41687688 -0.3629815 0.012450867 -0.3085884 -0.06094945 0.066004954 0.06321212 -0.07992586 0.21533404 -0.09880607 -0.055532396 -0.055128783 -0.19220708 -0.20419128 -0.012776009 -0.20180759 -0.3003311 0.16926461 0.096740715 0.17661932 0.077535875 -0.22656363 -0.10658896 0.092080325 0.053141065 0.11202867 0.12874198 -0.0517235 -0.11299023 -0.07212329 -0.03580953 0.086507365 -0.29427764 -0.21592858 -0.18645497 -0.041880745 -0.037046306 0.022898087 0.0829554 0.1464658 -0.025416417 0.21398297 0.028633012 -0.02026691 0.08744412 0.014585261 -0.14588328 -0.04220364 0.0909999 0.32252413 -0.22972256 0.09290451 0.15510175 -0.03927109 0.17463651 -0.054888863 -0.06531031 -0.09186265 0.19170448 -0.037644994 0.14777304 -0.23720786 0.029071838 0.12215962 0.13303162 0.1325897 -0.1253319 -0.07418653 0.12510559 -0.18868172 -0.087899245 0.061124768 0.18772802 0.009653024 -0.2076276 0.19614539 -0.14041634 0.09782822 0.03771686 0.21703263 -0.19828762 -0.15925246 -0.005804132 -0.11889333 -0.12155109 -0.06889313 0.2447119 -0.057187222 0.21388356 -0.14119875 0.1628629 -0.2654284 0.0074915793 -0.31960094 0.25941128 -0.10561204 0.28621644 -0.16426131 -0.15780818 0.048822805 -0.16143034 -0.08730711 -0.088606425 -0.08423637 -0.15039454 -0.30635828 -0.20863104 -0.24378935 0.027972782 -0.1440622 0.031030927 -0.28142685 0.19654372 -0.17388839
938 0.06803199 0.03809873 -0.08726084 0.12092971 0.19206136 0.020687943 0.16158868 0.096531324 0.055907477 -0.017715188 0.007593161 -0.13666055 0.008705081 0.32619643 -0.022320705 -0.0061794436 -0.1401044 -0.061178807 0.2501163 0.014640059 -0.24649197 0.1388525 -0.0002276875 -0.15212688 0.07259128 0.14381026 -0.07043317 -0.0067113168 0.058565363 -0.14340594 -0.21047404 0.10559257 0.13825074 0.06301706 0.029223992 -0.13026088 0.088531315 0.039861795 0.19886333 0.28041998 0.16345444 -0.17240873 -0.35517693 -0.071758166 -0.17434907 0.10286317 -0.18274824 -0.0491912 -0.1858681 -0.047754604 -0.012267601 -0.02761269 -0.010710781 0.07623821 0.10429257 -0.18421662 0.14111824 -0.05904128 0.53471774 0.26868048 -0.48526657 0.06930647 0.11013411 0.14556588 -0.06917629 -0.08297391 0.09640524 0.19018346 0.4000429 -0.10048662 -0.17539187 -0.011408299 0.16939294 0.1666755 -0.0035913265 -0.07240445 0.04542332 0.07967216 -0.025364703 -0.44886732 -0.13279185 0.3211962 0.11260922 -0.23600078 -0.008401967 -0.03904576 0.0797086 -0.07288619 -0.051588688 0.13704322 -0.22261116 -0.036202155 0.16005139 0.059000093 0.056062777 -0.099262215 0.054083534 -0.07958628 -0.13890588 0.14253327 -0.13324882 -0.06490545 0.15871617 0.018721476 0.15518028 -0.32879713 -0.05969868 -0.13249886 0.18138589 0.03241577 0.21756239 0.09675416 0.0320055 0.04080784 1.8282008e-05 -0.2431053 -0.114161775 -0.11157944 -0.08884556 0.010411558 0.039464075 -0.16338687 -0.31077695 -0.21171878 -0.0914731 -0.035065837 0.060577057 -0.09994703
940 0.107935965 0.11383412 0.17140476 0.12756397 0.30431136 -0.14539751 0.3394586 -0.27570397 -0.04671837 -0.09906468 -0.03203617 -0.12456628 0.089293174 0.16581844 -0.14837785 -0.076527305 -0.0028763812 0.11877277 -0.12923697 0.1350802 -0.0070736073 -0.20630594 0.17617002 -0.5551043 -0.14196472 -0.130277 -0.006734561 -0.123052865 0.12081715 0.35461482 0.007788926 -0.013289337 0.13414909 0.0034503725 -0.034370176 -0.19536534 -0.07438683 0.14630167 0.1541409 0.01830265 0.06944877 -0.19103889 0.11993707 0.15423365 -0.23794 0.35419336 0.09916496 -0.007643947 -0.1152431 0.31100142 0.40015572 0.07756878 0.16732115 -0.01658866 -0.08293805 -0.016036648 0.17521694 0.2935203 0.3206502 -0.03439793 -0.06728875 0.047943503 0.14601585 0.14132395 -0.09826202 -0.12531202 0.013920014 -0.10573052 0.10680715 0.10832237 0.20485441 -0.057105225 -0.012279278 -0.026787419 -0.122763924 -0.39118043 0.18079174 0.1835408 0.34204742 -0.084966734 -0.08961229 -0.09536322 -0.040542487 -0.14330143 0.15172362 -0.14943458 -0.023325639 0.033707 -0.1902096 0.11162076 -0.3279388 -0.0157061 0.04837464 0.031967126 0.08925795 -0.1887324 -0.14126275 0.18416372 -0.17925699 0.05130556 0.20836465 0.03874719 -0.009881612 0.1316051 -0.06515619 -0.1090083 -0.33520737 -0.2667403 0.031962335 -0.052845947 0.05796982 0.009685655 0.035023578 -0.029634144 -0.25572088 -0.10677029 0.041116405 0.09482621 -0.20014566 -0.07088565 -0.04014421 0.21227688 -0.11883923 -0.015902154 0.21384455 -0.23865004 0.2142193 -0.061078552
937 0.17130181 0.07595274 0.13016772 0.1667636 0.29705968 -0.12059142 0.30640557 -0.14851524 -0.016203126 0.01172405 -0.09232015 -0.11026617 0.033509262 0.24376863 -0.18033981 -0.10702977 -0.024235763 -0.058410097 -0.2204491 0.16359523 0.010746757 -0.27453154 0.14239575 -0.5732511 -0.16636185 -0.13304614 -0.060953494 -0.23544389 0.16833289 0.21164821 -0.009772857 0.043701455 0.14124288 0.12713069 0.050935995 -0.18303029 -0.15515938 0.1776059 0.19018511 0.012360386 0.046389345 -0.10536229 0.04126215 0.17850013 -0.19787517 0.2733657 0.03132099 -0.052103333 -0.093487166 0.3672809 0.30019817 0.07278251 0.15573037 -0.049936365 -0.14285375 0.01479344 0.20891178 0.25871295 0.33787572 0.0011312912 -0.11920536 0.06920732 0.16158216 0.18300383 -0.110516064 -0.104316995 0.058687992 -0.09285117 0.15761068 0.08228825 0.11012294 0.0068474268 0.019555762 -0.08248565 -0.105069704 -0.48097166 0.14762855 0.13012643 0.34302017 -0.10609921 -0.10300511 -0.007828487 0.06039229 -0.26997662 0.13931724 -0.06702214 -0.04182407 -0.00050288555 -0.26771426 0.04670306 -0.35608444 -0.025515141 0.13808018 0.11456938 -0.045709148 -0.21120466 -0.19108728 0.20613925 -0.043055914 -0.042660516 0.27472392 0.09383589 0.059470102 0.15377484 -0.044024657 -0.088620745 -0.30529216 -0.22759779 0.11041781 -0.019532096 0.017547324 0.016144628 0.07549241 -0.096825786 -0.20697542 -0.11537973 0.059626702 0.16349843 -0.15932941 -0.13546543 0.015059473 0.10096679 -0.080000445 -0.022556834 0.18101008 -0.25386527 0.20048791 -0.0004231109
931 0.19092758 0.12798697 0.21772726 0.117723115 0.04862539 -0.0036849664 -0.15952209 0.07889791 0.20500307 0.24089828 -0.20727421 -0.108764425 0.13403396 0.15607211 -0.45434752 -0.4025395 0.05668746 -0.36845195 -0.14012417 0.03381918 0.055569466 -0.08467144 0.1550001 -0.19805078 -0.112740315 -0.0658267 -0.22180632 -0.21238595 0.041526653 -0.19509354 -0.24455294 0.22972901 0.089466445 0.29556578 0.11306799 -0.2074174 -0.12021602 0.09933301 0.07379959 0.031803932 0.14024223 -0.025994586 -0.20811348 -0.015893232 -0.056231935 0.06768876 -0.2367132 -0.20404252 -0.16028635 0.02161966 -0.08107258 0.030543922 0.1493287 0.15370189 -0.031003935 0.27463743 0.10933721 -0.029879566 0.12836546 -0.0065787267 -0.14801347 -0.0044075847 0.09978165 0.32783747 -0.19150959 0.046545308 0.20590869 -0.06452384 0.09933979 -0.012677482 -0.059012536 -0.07247598 0.15225372 -0.052009217 0.16751379 -0.24237812 -0.029507603 -0.0037579506 0.14433764 0.12346701 -0.11616454 -0.09318822 0.14338821 -0.19480161 -0.117949545 0.07665245 0.16882113 0.013399797 -0.23830846 0.11175339 -0.09883383 0.12760952 0.0076216212 0.19250834 -0.20851095 -0.161674 0.01579005 -0.10483856 -0.14856586 -0.11861119 0.34020698 -0.028175358 0.29530537 -0.08650489 0.2189578 -0.18096876 -0.03060109 -0.38173255 0.24303736 -0.10449507 0.22464636 -0.23087995 -0.123400964 0.047857046 -0.23233248 -0.124269165 -0.042772606 -0.12744185 -0.12631531 -0.35118753 -0.16269106 -0.17113116 0.050320573 -0.10924907 0.06643247 -0.29426485 0.1451189 -0.18366556
929 0.1288729 0.036445234 0.13220069 0.1216897 0.28904667 -0.15171422 0.3523176 -0.14251001 -0.016241899 -0.009844611 -0.08596505 -0.13591488 -0.034110334 0.21602254 -0.12758836 -0.08565517 -0.021744583 0.02619172 -0.120077275 0.08248941 0.052475013 -0.14661764 0.12204515 -0.47626325 -0.11100526 -0.06255743 -0.04953157 -0.21461742 0.105709806 0.29314604 -0.010842035 0.038841978 0.15457846 0.02112944 0.031239714 -0.18327145 -0.111542664 0.18063542 0.172414 -0.07557071 0.03280494 -0.12126539 0.041906253 0.17008625 -0.14400874 0.21320368 0.07208197 -0.017927187 -0.058438957 0.3205707 0.24748869 0.09917745 0.13487594 -0.06764347 -0.05563192 0.06619066 0.15615763 0.23065697 0.30189484 0.02775053 -0.028631456 -0.012558225 0.09800118 0.17045471 -0.14805901 -0.078153655 0.04987301 -0.1834185 0.10670239 0.09518621 0.11573848 0.008074018 0.009490493 -0.07590079 -0.13687064 -0.4292768 0.13741471 0.11379601 0.3544116 -0.15606238 -0.11593327 0.03127036 0.05021138 -0.21050346 0.15929472 -0.10839537 -0.07996704 -0.028412238 -0.21267799 0.08312798 -0.3036671 0.016199011 0.12626839 0.09561015 0.04956863 -0.08294597 -0.12549163 0.17357917 -0.13852637 0.014155929 0.27783772 0.07300995 -0.08608171 0.15495043 -0.04070523 -0.084709615 -0.30790177 -0.2837699 0.08927435 -0.026443204 0.05678411 0.040521 0.09924672 -0.0051765116 -0.14796835 -0.10723801 -0.004387533 0.15007572 -0.1627583 -0.14476144 0.021735223 0.1543803 -0.21523641 0.021568855 0.1970292 -0.28134763 0.14874503 -0.05718993
945 0.14676523 0.018941276 0.10566306 0.17581551 0.35067776 -0.1499343 0.3339555 -0.20043552 -0.021172866 -0.03732529 -0.09992312 -0.1042412 -0.00023464259 0.23639494 -0.09544332 -0.054403957 -0.048056804 0.012904671 -0.13048854 0.16491997 -0.07439199 -0.22910836 0.10220879 -0.57385886 -0.14855485 -0.107410744 -0.014988964 -0.16062744 0.14839509 0.28563043 0.032017224 0.042241126 0.18267524 -0.0047555184 0.045033813 -0.18369317 -0.101002686 0.14134948 0.1688591 -0.025529332 0.02317574 -0.108123206 0.0672336 0.18289271 -0.22410211 0.25223616 0.10894444 -0.02370206 -0.09388894 0.29844943 0.3258996 0.09712455 0.14255562 -0.12541379 -0.14393684 -0.054931134 0.25665376 0.28849316 0.3501224 0.032412186 -0.12540552 0.085468724 0.14540818 0.13497104 -0.10304909 -0.14548597 -0.03649307 -0.1276781 0.19062845 0.06453049 0.09327362 -0.0076194895 -0.054541253 -0.0835769 -0.15560438 -0.5004206 0.20194146 0.12553413 0.3208838 -0.17905842 -0.09435387 0.008887807 0.091211624 -0.24899006 0.22289456 -0.08702774 -0.040765576 -0.028963456 -0.18841295 0.06270758 -0.33498836 -0.014978482 0.09942008 0.028138522 0.03554204 -0.16336502 -0.20339525 0.19842121 -0.16252996 -0.027574666 0.22702609 0.07484773 -0.009594335 0.16581915 -0.052721772 -0.11407353 -0.3161877 -0.2789936 0.11405263 -0.016979976 0.011697147 0.101922475 0.04679891 -0.0815123 -0.17986508 -0.083512835 0.035190362 0.1091584 -0.19487505 -0.061072502 0.03475005 0.13367827 -0.18992011 -0.0045195655 0.18128815 -0.20211153 0.21607772 -0.014395662
932 0.090262935 0.014076078 0.08930115 0.2655326 0.26170754 -0.050332837 0.11282348 0.01716341 -0.022382943 -0.14111823 0.04699588 -0.16847566 0.0052282955 0.2686813 0.013597921 -0.012778236 -0.11841672 -0.030720009 0.18855321 -0.053324204 -0.20251994 0.09890528 -0.072943635 -0.16132735 0.067968465 0.14714536 -0.101077355 -0.017628865 0.063755564 -0.10698683 -0.2034615 -0.020742757 0.1414078 0.05408433 0.0014625434 -0.15578498 0.08663762 0.11000902 0.2698569 0.20227657 0.15191889 -0.14433739 -0.3224334 -0.06987818 -0.1394844 0.071602106 -0.20302518 0.0011619666 -0.1815279 0.017374476 -0.0010187812 -0.03773965 0.07129943 0.07960306 0.097004585 -0.18410368 0.22681852 -0.062189713 0.5447316 0.26922083 -0.44175273 0.028981382 0.08677244 0.04315817 -0.08815529 -0.18717048 0.076799415 0.11557838 0.43836918 -0.08265375 -0.17184898 0.023363797 0.042069808 0.10417784 0.042732593 -0.10855366 0.07045797 -0.028908646 0.033240207 -0.49103153 -0.15512668 0.31906533 0.08540314 -0.23584943 0.041739367 -0.062208455 0.06658652 -0.10569596 -0.039931 0.055460524 -0.26235625 -0.053802986 0.22396933 0.074315175 0.07529618 -0.07685925 0.0055918056 -0.010374329 -0.1596937 0.1080381 -0.16729306 -0.081518814 0.22895746 0.11941679 0.06719596 -0.28857365 -0.079404205 -0.09560267 0.21261655 0.0021015655 0.11411481 0.16504103 0.028309504 0.060679138 0.035908144 -0.26541552 -0.15014476 -0.10290234 -0.13836132 -0.03311896 0.06831605 -0.08667986 -0.37165555 -0.16988535 -0.12308882 -0.08230725 0.011307206 -0.11448466
942 0.19224724 0.074165344 0.17675106 0.15349163 0.25976744 -0.12046866 0.26406127 -0.17098975 -0.07834212 -0.17644306 -0.026602516 -0.17432123 -0.023157593 0.19114777 -0.117135525 -0.08342538 0.0031490033 0.111569196 -0.16845317 0.09605525 0.059702612 -0.18073142 0.11582105 -0.51525027 -0.12601295 -0.16158755 -0.015423005 -0.14385642 0.16525581 0.29161656 -0.04023723 -0.009425706 0.21288688 -0.05115169 0.007424544 -0.23621313 -0.07713928 0.22216913 0.1952054 0.025986334 0.14666209 -0.092960425 0.01579414 0.1821987 -0.15165608 0.28504318 0.018279398 -0.051503293 -0.114512324 0.33857495 0.35902324 0.054293793 0.16743961 -0.057945825 -0.13607949 0.013338151 0.22578157 0.27708137 0.36256576 0.052252334 -0.08198357 0.05699908 0.087300874 0.14184195 -0.12524162 -0.044403598 0.07752335 -0.1056047 0.13638905 0.050373238 0.15032203 0.013642285 -0.03760263 -0.03958832 -0.15190889 -0.4021129 0.10118207 0.15901846 0.35355797 -0.18656623 -0.029046616 -0.017066054 0.05228336 -0.20052686 0.23939572 -0.14570586 -0.14418432 0.022406934 -0.21716458 0.123683274 -0.37284955 -0.019191056 0.14942825 0.104384385 0.05485368 -0.16761747 -0.15453954 0.19717634 -0.16265616 -0.03362378 0.1951951 0.073639914 0.0058278465 0.14066617 -0.03763922 -0.13194925 -0.29233128 -0.24367036 0.08407097 -0.07479284 0.050805543 0.08071677 0.10043802 0.00399781 -0.18695888 -0.0951179 -0.014277963 0.07948734 -0.2108372 -0.13387369 0.018739374 0.16707756 -0.16943881 0.027321026 0.15152188 -0.22073162 0.18639657 -0.0813774
927 -0.020433998 -0.35036483 0.18889569 0.3209439 0.21581326 -0.0069353767 -0.17403871 -0.11526574 -0.025015151 0.021731988 -0.13535246 -0.085997544 0.1692302 -0.20666936 0.11264231 -0.17054284 0.12525599 0.072885856 -0.04158493 0.089184746 -0.10280248 0.09931918 0.11238122 -0.09249677 0.022601474 -0.16762316 -0.04705045 -0.17009823 -0.014346635 0.25197092 -0.4062444 -0.0625922 0.27783218 0.25936225 0.16161479 -0.09616707 -0.13323821 0.13095348 0.07974589 0.12915872 -0.026512213 -0.27058703 -0.09766372 0.046988405 -0.09818333 0.09979077 -0.103930905 -0.07300435 -0.18212873 0.13169299 0.058259316 0.0736327 0.17209454 0.16236398 -0.1414433 -0.110667944 0.19094582 -0.03701122 0.05242467 0.079505995 -0.017087765 -0.09338682 0.24064438 -0.23576964 -0.3933797 -0.13305227 0.032490846 -0.20424826 0.2549471 -0.038071364 -0.1134064 -0.1549778 -0.12657177 -0.26610106 0.037466846 -0.2524559 0.15998869 0.29258746 0.092849724 -0.18104501 -0.11207581 0.12745406 0.16284266 -0.04259961 0.12714824 -0.049395915 0.22404179 -0.18898778 -0.09638542 -0.10328319 -0.037371278 0.018083928 0.089318305 -0.18694234 -0.10331931 -0.15353759 -0.35258946 0.11031406 -0.34374067 -0.010511605 0.16322619 -0.16634078 0.27443677 0.20753688 -0.11430528 -0.17319202 -0.10692864 0.010053508 0.16385353 -0.16368215 -0.002096238 0.09015526 -0.18259881 0.11629296 -0.2761582 -0.0021546576 -0.0791341 0.23858927 -0.11172427 -0.1974227 -0.22747187 -0.041564398 -0.20316549 0.09613678 0.13500755 -0.19799742 0.03918284 -0.06655136
926 -0.0656261 0.09466591 0.2317381 0.17068358 0.041290864 -0.1474819 -0.14639562 -0.23207743 -0.13123131 -0.37399623 -0.051903937 -0.09788465 0.29551154 -0.029730855 -0.15511884 -0.11747116 0.23064964 0.21093982 0.08249487 -0.04477097 0.024777051 0.20032163 0.08102773 0.03550045 0.013121582 -0.04817345 -0.12005798 0.024651632 0.117046185 0.18741465 -0.27382958 -0.03862204 -0.04923022 0.0730325 -0.0980513 -0.17853901 0.031653095 0.043486666 -0.066417426 0.08766811 0.22803664 -0.33257502 -0.13635513 0.050645705 -0.13761427 0.28192055 -0.08375921 -0.047564637 -0.014541297 0.15425889 0.21534964 -0.10970306 0.16571784 0.20419307 -0.024064384 -0.00011173842 0.027973639 0.0635527 0.12763593 -0.019168425 -0.086864345 -0.11877742 0.08496424 0.044424586 -0.05620794 -0.08008766 0.059284616 0.000846957 -0.13898626 0.09669264 0.16138525 -0.1831384 -0.062692955 0.14722423 0.22252725 0.018978529 0.111193836 0.021232234 0.23435327 0.017458117 -0.05436562 -0.20085984 -0.22980839 0.13143739 -0.084422365 -0.2658019 0.36123818 -0.017481927 -0.14857331 -0.043380212 -0.12091167 0.10775658 -0.019127095 -0.05535759 0.1580559 -0.22290951 0.19752795 -0.021436278 -0.40883452 0.0066892025 0.035804562 -0.11928148 0.27684647 0.09920036 0.032503277 -0.24153732 -0.2209807 -0.31815556 0.05835099 -0.23440236 0.3216389 -0.084860824 -0.090092465 0.1620976 -0.1504181 -0.23753263 -0.028136194 -0.007821021 -0.25292027 0.07691463 -0.30302805 0.16420384 0.00185397 -0.07087534 0.230678 -0.083568394 0.012936632 -0.29784444
924 -0.0032742412 -0.29250368 0.18192881 0.35262403 0.17874517 0.0064861467 -0.24510698 -0.16332379 -0.073501535 -0.045208197 -0.11832133 -0.03700065 0.22450057 -0.23133194 0.093744904 -0.20551005 0.122156546 0.06377334 -0.09068147 0.05438917 -0.07735938 0.088533506 0.09248991 -0.09452867 0.084971845 -0.22930948 -0.07171655 -0.18315445 0.06398131 0.19111188 -0.39747277 -0.1133685 0.2621946 0.29644734 0.19109651 -0.056455135 -0.15541391 0.09096804 0.0688429 0.122097425 -0.012437242 -0.23264027 -0.10790593 0.08633569 -0.08395677 0.1260636 -0.06948 -0.06036224 -0.14767219 0.22335869 0.09766726 -0.011550116 0.16604508 0.20558539 -0.22862041 -0.09786743 0.17602603 -0.028996678 0.008708923 0.053440813 -0.007138518 -0.116778694 0.23029952 -0.23736733 -0.32861307 -0.13215056 0.06234176 -0.18429364 0.27988744 -0.02035797 -0.08101694 -0.14100513 -0.120972 -0.20221503 0.16075449 -0.24479932 0.23232354 0.3271121 0.13172172 -0.08645885 -0.11560857 0.07269347 0.081848174 -0.06634793 0.10522382 -0.036374602 0.32164636 -0.1658037 -0.17316662 -0.15331589 -0.03405606 -0.005408492 0.15295014 -0.20329204 -0.13648194 -0.22937381 -0.29722926 0.10606228 -0.30779576 -0.026858825 0.1616959 -0.16574015 0.32793048 0.23633355 -0.09886789 -0.18615976 -0.17032088 -0.02544435 0.14737585 -0.23375054 0.07618515 0.07749512 -0.14517319 0.103923485 -0.29982057 -0.07328881 -0.042982195 0.3108382 -0.12124604 -0.13939111 -0.2662857 -0.086836554 -0.04992817 0.05750016 0.15745722 -0.1865682 0.0072260313 -0.13911201
922 -0.07359927 0.06443917 0.17627786 0.13225225 0.06664107 -0.13760346 -0.16463903 -0.22235192 -0.13271 -0.3692499 -0.05013237 -0.08184307 0.30051872 0.036361974 -0.11416131 -0.09722339 0.14695913 0.13209336 0.16210736 -0.017016355 -0.06809761 0.23261122 0.14283992 0.11015874 -0.021411264 0.08017932 -0.078084074 0.0820295 0.11592589 0.09529717 -0.28561106 -0.022383802 -0.061290894 0.043828785 -0.17145105 -0.14934863 0.12880664 -0.0040570023 -0.08664183 0.16463767 0.25416505 -0.41546208 -0.14596923 0.00259217 -0.17552345 0.2836119 -0.18703169 -0.016046371 -0.08355906 -0.03572194 0.1690553 -0.1370948 0.15843906 0.2009985 -0.00596454 -0.102112226 0.057295665 0.085166514 0.24923055 -0.0006274182 -0.2279957 -0.045330435 0.19574511 0.106003664 -0.0943192 -0.075910114 -0.021313667 0.062957495 -0.096690655 0.045225713 0.09383162 -0.24475527 -0.043630816 0.11552195 0.22832611 0.041240565 0.068512134 -0.02903972 0.18104425 -0.050035354 -0.11172168 -0.1156152 -0.15451752 0.12906432 -0.12854138 -0.24610808 0.39787757 -0.05464389 -0.13597077 -0.01603304 -0.14737743 0.11348101 -0.06354279 -0.049454305 0.14182593 -0.17395364 0.20909734 -0.05164617 -0.39632 0.015235471 -0.12338408 -0.11788988 0.29884845 0.07218741 0.0851145 -0.33724484 -0.120912865 -0.31255433 0.100642 -0.2056323 0.2984117 -0.009004588 -0.1432137 0.16240501 -0.15091935 -0.27693486 -0.058358993 -0.13065928 -0.24345352 0.103336655 -0.2506226 0.13073102 -0.031728085 -0.14128605 0.11555014 0.022030504 0.067689955 -0.22198227
