1000 128
997 -0.22635874 -0.022374159 -0.4434374 0.11131875 -0.05503126 0.13880228 0.37108234 -0.0246448 0.24318106 -0.056229226 0.37992695 0.2324133 0.03894919 0.23824635 -0.09833628 0.4127474 -0.05066732 -0.008233253 0.17203669 -0.08061324 -0.081137836 -0.1697592 0.384504 0.04982509 0.14945124 0.23837106 -0.23148395 -0.3246045 0.016265957 -0.20679787 -0.20321149 -0.29801574 0.05976828 0.13428356 -0.4595685 -0.20260693 -0.2328796 -0.16698165 -0.0043514003 0.069247365 0.020046663 0.118308105 -0.03264199 0.05974139 -0.19858994 -0.1029587 0.12051171 -0.20007382 -0.28902662 0.075208716 0.078926735 -0.24437863 -0.00061025005 -0.06361516 -0.1603771 -0.103896305 0.29056245 -0.07689335 0.5965441 -0.13946411 -0.35798272 -0.11165492 0.08426099 0.3677294 -0.09329143 -0.12790823 0.2743239 0.2283803 0.18471271 -0.13271058 -0.2331445 0.029095637 0.02943061 -0.018831594 0.124511436 0.13181025 0.17482321 -0.046630953 -0.28710032 0.10016372 0.0006540344 0.037197623 -0.38604987 -0.03840032 -0.22825661 0.15035185 -0.13038954 -0.17597564 0.077588364 -0.4466518 -0.20179686 0.31339988 -0.22429936 -0.03866834 -0.19408228 -0.09901794 0.0033149081 0.26493776 0.11778394 0.103877805 -0.34813294 0.29492667 0.12810574 0.09853186 0.15851925 -0.283463 -0.14957565 0.42264107 -0.12987107 -0.13749339 0.056025375 0.1665785 -0.41493952 -0.10876683 0.13442072 -0.024937503 0.3240814 -0.055681493 -0.39503378 -0.076506 0.10496797 -0.17017134 0.018792056 -0.07841148 0.13178869 -0.13915478 0.20894434 -0.11659251
996 0.14863734 -0.037351225 -0.09081531 0.13003372 0.11025435 0.037963323 0.3777626 -0.007979315 0.047254056 0.16840672 0.025947448 0.29428878 0.00038588556 0.09314149 0.07908647 0.20607093 -0.031611715 0.08448248 -0.17087214 0.07750497 0.18696864 -0.27129638 0.08705129 -0.12878321 0.20573811 0.15653451 -0.27472994 -0.19222471 -0.082827136 -0.12505078 -0.24444506 -0.3957037 -0.42279834 0.15236062 -0.45116147 -0.20815758 -0.33903337 -0.06279682 -0.15385073 0.035632588 -0.12094002 0.35749292 -0.24244116 0.05439543 -0.13654253 0.005691148 0.101243585 0.14205429 -0.2612852 0.12948093 0.12251862 0.057055198 0.021388156 -0.039479077 -0.15495645 -0.059265863 -0.1323064 -0.25460505 0.7159991 -0.0619756 -0.12431787 -0.24873626 0.16288534 0.20753652 0.0071884985 -0.23546384 0.055638254 0.012871503 -0.020578852 -0.15407142 4.3905708e-05 -0.10520787 0.36424866 0.13297606 0.48426256 0.09291219 0.070300594 -0.40645814 -0.08355936 0.33092135 0.13615309 -0.01379415 0.10773544 0.21484636 0.0730252 -0.21541637 -0.07165379 -0.33244827 -0.042664286 -0.19707072 -0.107380904 0.028861476 -0.08096492 -0.22863132 0.047965724 -0.42918268 0.07960563 0.34170097 -0.11867167 0.008719938 0.0044312915 0.53872544 -0.046199366 -0.25815344 -0.11843662 -0.46902695 -0.16201437 -0.13932663 0.22245948 -0.10554669 -0.06831184 0.26540777 -0.05528752 -0.10674129 0.39700842 0.09087045 0.33168864 -0.35943773 -0.39795282 -0.18927366 -0.056734532 -0.30329412 -0.014383102 -0.13097923 -0.012752036 -0.106643245 -0.06070133 -0.06288265
994 0.17561796 0.15623516 -0.2442463 0.13630818 -0.08917646 0.12070093 -0.060415898 -0.054020207 0.23567842 0.065616675 0.1280302 0.029054906 0.015428574 0.17204659 0.17997774 0.39450574 -0.08259975 0.27327967 -0.088263094 0.034865268 -0.025119726 -0.3834429 0.39823705 0.15147655 0.11089087 0.29294908 -0.25264344 -0.40748748 -0.28061575 -0.24109904 -0.367681 -0.16483895 0.10957563 0.284696 0.004847321 -0.23771895 -0.3336932 0.08179642 0.09721927 -0.03289063 -0.2138515 0.1172103 0.09913334 0.052982558 -0.0027682777 0.043555368 0.19969931 -0.34506032 -0.44779694 0.31398925 0.22922485 0.13785078 -0.29180676 -0.035641156 -0.28518444 -0.026347382 0.038198825 -0.15210979 0.4600628 -0.22795023 -0.2593561 -0.25649157 0.05970241 0.2351023 -0.18398423 0.0724234 0.4056427 0.33438668 0.23876522 0.09344348 -0.04821206 -0.032295138 0.06454025 0.015827656 0.12568055 0.038956743 0.027378336 -0.16737609 -0.13585353 0.29304692 -0.05271643 0.060684416 -0.04664618 -0.033849854 -0.3972163 0.020436365 -0.34648177 0.052479465 0.14630969 -0.23062022 0.017366482 0.007255216 -0.37611374 -0.026224295 -0.12799291 -0.2067031 0.23882568 0.1888179 -0.24188107 -0.14997442 -0.43661186 0.18905939 0.09064899 0.02209632 -0.048419375 -0.46707574 0.50868547 0.3318766 0.08295285 -0.12337155 0.31787643 0.21723203 0.120149106 -0.28683558 0.110516615 -0.02429598 0.24822108 0.15386586 -0.43469885 -0.23008206 0.10554269 -0.10397243 -0.018251684 -0.3257268 0.11147465 -0.08710764 0.109782375 0.063349046
990 -0.07685145 -0.25042686 -0.10026246 0.20671378 0.077613465 0.20353855 0.4649332 0.20029937 0.18714358 0.06382726 -0.067885526 0.28107524 -0.14941446 0.15204042 -0.35545787 0.19227943 -0.07782095 -0.0072871824 -0.117886886 0.22031614 -0.039986677 0.067813575 0.10824243 -0.19644009 -0.45546824 0.19733377 -0.13294202 -0.4040277 0.030992156 -0.4085877 0.036179792 0.18406558 0.005908818 0.13075016 -0.22421576 -0.16425754 -0.25804356 -0.17361437 -0.08037974 -0.07910418 -0.013285727 0.27197546 -0.035314955 0.016979152 -0.31912774 -0.00911246 0.09780489 -0.11886261 -0.46955925 0.1655464 0.15959948 -0.26426736 -0.18628733 -0.15180816 -0.044141702 -0.16695364 -0.19884036 -0.11203877 0.21770513 -0.22298424 -0.21411224 -0.40548858 0.14630494 0.20004642 0.1811425 -0.09520475 0.102353 -0.010404501 -0.11462832 -0.06938708 -0.2822465 -0.059752207 0.5322881 0.14436382 0.09962308 -0.038183533 0.10099069 -0.3164589 -0.09263228 0.35641393 0.13751481 0.06400033 -0.0173262 0.14751951 0.050597236 -0.21083479 -0.065506354 -0.25604555 -0.0028217528 -0.3362403 -0.12956624 0.024733283 -0.027426392 -0.22517182 0.14673413 -0.5893157 -0.21946773 0.4156526 -0.27528223 -0.05522777 -0.3951655 0.5429478 0.07865807 -0.07114792 0.12010452 -0.099127516 -0.22557913 0.11065006 -0.032423984 0.015798932 0.3326787 0.14739762 0.005683708 -0.08002276 0.11584005 0.028471453 0.07170703 -0.30863383 -0.2564719 -0.0019569243 -0.0858027 -0.34293994 -0.23667851 0.3696812 -0.15877856 -0.07710052 -0.15732753 0.33370107
992 0.17511384 -0.26966083 -0.23603465 -0.26854432 0.0024220897 -0.034465656 0.13452426 -0.082080536 0.11515249 -0.13703734 0.14616615 0.14718787 -0.0062043765 -0.014277359 0.51896614 0.26041836 0.105385914 0.34287527 0.43091264 0.045287848 -0.31429362 -0.19223587 0.25351745 0.28111026 0.18601443 0.47730216 -0.14116326 -0.01642423 -0.11084883 0.118312426 0.22865829 -0.13266744 -0.2626627 0.15474418 -0.41182995 -0.2937914 0.017317317 -0.09254125 0.105494924 -0.03414207 -0.3397857 0.06771011 0.20997952 -0.17270704 -0.5284635 0.097539045 -0.00020650552 -0.30089357 0.0563258 -0.090776674 0.41735306 0.15113759 -0.07192377 -0.25963742 0.58310014 -0.20208853 0.12687396 -0.05901231 0.200097 0.11523932 0.099750645 -0.111804545 0.028090416 0.1389405 0.1545149 -0.17769401 0.07659181 -0.07522261 0.06377315 0.07204539 0.1609766 -0.031683113 -0.004071951 0.08282806 0.1475225 0.01599836 0.006528475 0.14808352 -0.4914725 -0.29669386 -0.008599844 0.13195467 -0.5560655 -0.31116474 0.2765925 0.06226546 0.16186598 0.19346364 -0.13148923 -0.10782604 0.09776881 -0.25173947 -0.091617584 -0.071274355 0.26123157 -0.24162999 0.17390683 0.3102768 -0.46157125 0.09024218 0.045191895 0.29941007 -0.40897858 -0.12090262 -0.06426138 -0.14529298 0.17147364 -0.40444937 0.20524393 -0.12949923 -0.15280876 -0.19312909 0.4122618 -0.28876784 0.030760108 -0.06199152 0.14664312 0.0030337374 -0.17267083 -0.07260607 -0.082077384 0.085330985 -0.12311515 0.22211054 -0.05434015 -0.01398911 -0.21551341 0.39104503
993 -0.053912584 -0.1966005 -0.018937403 0.0658732 -0.2584053 -0.17276165 -0.12904479 -0.16782755 -0.06630963 -0.10277555 0.1336292 -0.11445553 0.27549842 0.035123 -0.0931953 0.017383868 0.17011616 -0.023982514 -0.31689304 0.0037596542 0.19538863 -0.0053898706 0.045021985 0.23984006 0.07230241 0.13860911 0.016895302 -0.0452051 0.15535419 -0.002665059 0.07126196 -0.020917336 -0.062333368 -0.078891546 -0.1386316 -0.13984367 -0.31018814 -0.5339154 -0.05193431 0.15102822 -0.07396057 0.49478638 0.006125754 -0.070923366 0.11720475 0.3062624 0.0883146 -0.20949353 -0.2252089 0.2818009 -0.19877975 0.115175225 -0.06368946 0.019970158 0.1030489 -0.24618451 -0.08291352 0.276612 0.1247631 -0.12913513 0.10405322 -0.41483033 0.24170057 0.05780943 0.1240873 0.023884721 0.4664111 0.20189425 0.032041475 0.19323356 0.12573971 -0.4754516 -0.13478597 0.07128281 0.06844418 -0.37024364 -0.27867055 -0.08517202 0.11688473 0.00524613 0.11707869 -0.23524712 -0.30335626 -0.272366 0.043285966 0.02674216 -0.039299387 -0.22334886 0.088180475 -0.22164874 0.38142097 -0.024047306 -0.029545285 -0.04312104 0.13150221 -0.04484662 -0.04044336 0.427572 0.18752585 0.10206742 0.026696127 0.28220868 -0.2037357 0.4362261 0.10176097 0.0009673367 -0.298389 -0.16220126 -0.1438592 -0.0377563 0.10249086 -0.16746442 0.44978738 -0.055275902 0.08327805 0.3234587 0.20015615 0.31434557 -0.21566522 0.023261122 0.08991774 -0.246662 -0.17975387 -0.13095288 0.24422422 -0.28687543 -0.16126901 0.41105556
989 0.07643146 -0.024910323 -0.09780579 -0.15858 -0.17228308 0.27527478 0.18819441 -0.0058129383 0.16007443 0.12348364 -0.11040823 0.10600965 0.3354132 0.1580109 0.04987524 0.1728351 0.10833502 0.20637053 -0.20953926 0.031179048 -0.17375863 -0.039666567 0.24305096 0.22724654 0.3093141 0.18193159 0.23337525 -0.23547193 -0.33824366 -0.3366913 0.034969196 -0.08846665 -0.047107033 0.32339084 -0.5329549 0.057540733 -0.40438733 -0.1202187 -0.065176606 -0.058821313 0.161627 0.27220002 0.058706034 0.015239335 -0.0011163056 0.019481443 -0.08025552 -0.38875625 -0.39810547 0.3683847 0.14441574 0.23982483 -0.37229452 0.0396279 -0.010080065 -0.10708644 0.19257258 0.077287994 0.3544975 0.039580632 -0.06548065 -0.2916625 0.07571865 -0.11507841 -0.27295104 -0.349006 0.36562952 0.22887173 0.3042365 -0.062358264 0.0024338362 -0.21329616 0.44988304 0.11824752 -0.07226592 -0.12339305 0.08815694 0.019965068 0.043892857 0.31387725 0.027882906 -0.07578725 0.010112589 0.27513117 0.12516013 -0.23859365 0.16910799 -0.29810843 -0.06180475 -0.40220425 -0.29391754 0.086627424 0.014099279 -0.20377764 0.11282809 -0.267408 0.17584418 0.2498798 -0.108673885 -0.08141412 -0.25628102 0.013727617 0.007725267 0.12806384 0.16359337 0.003014 -0.21776661 -0.09633213 0.14066505 -0.1984472 0.11855032 0.14182146 0.21624267 -0.24937695 0.21740256 -0.123347975 0.3974416 -0.21936524 -0.07847076 0.04718488 -0.07102494 -0.038866572 0.05242179 -0.014794389 -0.28801224 0.16014326 0.104199864 -0.056631327
984 0.5016408 -0.45249724 -0.21703134 -0.27994564 0.062630415 0.08733819 -0.09465057 0.107399665 0.26337916 0.01876771 0.34999165 0.1906518 -0.07895514 0.014994688 -0.19036426 0.26792663 -0.04410591 -0.055019937 0.2487624 -0.48769978 0.36644533 0.32482463 0.24939415 -0.071366504 -0.16422546 0.20297308 0.027610736 0.28029472 0.23120883 0.034137666 0.08673709 -0.17386389 -0.25960782 -0.10332556 -0.34271312 -0.2955462 0.006749737 -0.2282552 -0.30207357 0.122416504 -0.074648395 -0.26876265 -0.020694114 -0.12841433 -0.26070994 0.0679295 0.117673114 0.06783627 -0.13447511 0.13968246 0.17021625 0.40867227 -0.1636737 -0.029523749 -0.30952653 -0.17251319 0.030686239 0.11667995 -0.21818313 0.15185612 0.4213995 0.029064495 -0.0138966 0.16751854 0.030549819 0.105941184 0.40715262 -0.06230712 0.37047553 -0.25172082 -0.033554107 -0.08271869 0.18797562 -0.17465115 0.078077085 -0.12146754 -0.0030263881 0.060774982 -0.06437117 -0.15874226 0.04776482 -0.09507231 -0.49873006 -0.3736185 -0.039020587 0.21890678 0.011196117 0.15137987 -0.080364995 0.06730504 -0.033153098 0.13308527 0.08501365 0.062337924 0.0030142013 -0.2637225 0.09295397 0.065178975 -0.103570305 0.45859236 -0.21740313 0.20244755 -0.30756465 0.34928933 0.20339891 -0.15035759 0.20157875 -0.15127411 0.3423081 -0.29162884 0.09633562 -0.15215494 0.043434314 -0.43612581 0.18271515 -0.0013501963 -0.22761193 -0.4284987 -0.18909964 0.29115987 -0.28840756 -0.32934943 -0.29361597 -0.12610804 -0.056318358 0.3019234 -0.10671587 -0.03691172
983 0.070153065 0.22493573 -0.12964374 0.048467595 -0.07242356 -0.25694194 0.012252296 0.23324354 0.0431996 -0.085828826 0.22244295 -0.239664 -0.13356099 0.3532282 0.053125598 0.26600495 -0.0621919 -0.1621836 -0.08198878 -0.12880577 -0.06226263 -0.052966647 0.23794897 0.072950974 0.057057817 -0.23698151 -0.31443194 -0.03237735 -0.13057531 0.037721843 -0.08799011 -0.16163084 -0.12372289 -0.0030168504 -0.21853313 -0.10911169 -0.30499548 -0.7084002 -0.104308434 0.106242016 0.21867086 -0.15119743 0.0063139335 -0.14226869 -0.16640973 0.2839102 -0.045702703 0.5000629 -0.26196626 0.07340285 -0.11183749 -0.17779946 0.09173563 -0.18970896 -0.14318058 -0.44579652 -0.08615756 0.15332626 0.46960354 -0.48492616 0.11936541 -0.32284072 -0.088161185 0.20360607 0.27423757 -0.013199666 0.13327193 0.43302262 0.3193263 0.06066503 -0.040879283 0.10876424 0.32910332 -0.15881425 0.18390347 -0.31620336 0.022180555 0.31656986 -0.07605105 0.023057062 -0.17289384 -0.31019464 -0.023890525 0.0735926 0.10329565 -0.30070153 0.036451764 -0.08615404 -0.028362364 0.27226785 0.060611613 -0.59045213 0.036425173 0.13572823 -0.0036526576 0.06514116 -0.08627912 0.08098287 -0.44645548 0.07429394 0.18908857 0.09892093 0.042574257 0.36166728 0.06000897 -0.25013438 -0.16832553 -0.071837515 0.14192022 -0.23099706 -0.16889098 0.347863 -0.021202257 0.18460257 0.0003714927 0.15521525 0.21216579 -0.19077718 0.16051838 0.14752766 0.07643142 -0.19030468 -0.012148273 0.39930707 -0.0010155224 -0.26059863 0.054546103 0.17678353
988 0.13507059 0.11025206 -0.052191164 0.0983966 -0.23437986 -0.38124835 0.112418115 0.06886206 0.38689548 -0.3098969 0.074733794 -0.37667528 0.067674935 0.22790816 -0.095165186 0.166379 -0.011253087 0.121091016 0.25360242 0.19244032 0.3350457 -0.020364964 0.12618978 -0.06035237 -0.18391532 0.22561207 0.007392959 0.032095745 0.09939504 0.18513688 -0.20369402 -0.37973082 -0.28053007 0.16608499 -0.11916939 -0.07528202 -0.30558422 -0.12104714 0.47740826 0.037612516 0.30970716 0.012844411 0.0161269 -0.01637939 0.07941483 0.43236205 0.28972274 -0.061523005 -0.23051043 0.27543044 -0.27755472 -0.01553613 -0.101272665 0.12508814 0.08880426 -0.24055706 -0.15265815 0.11412731 0.11061072 -0.054244347 0.30416334 0.02913978 0.14894103 0.02521917 0.15833172 -0.10170603 -0.00193134 -0.014203246 0.21707222 0.17270032 0.09173895 -0.15426838 0.22185315 0.021824362 -0.08061218 -0.29665 -0.052744284 -0.19184588 0.23817773 0.40634984 0.02560837 0.019786008 0.05599302 0.119428955 -0.12279519 -0.474203 0.109621644 0.15280081 0.32081068 -0.09681747 -0.036870796 -0.13410926 -0.1217969 -0.4123193 0.06892132 -0.29796782 -0.019353542 0.1789546 -0.15063529 0.5470821 -0.11000376 -0.049232226 0.06555333 0.13253978 0.08683385 -0.33073014 0.005799109 0.39346945 -0.10595892 0.14415446 0.16716832 0.035624098 -0.036595047 -0.07535333 -0.17381364 -0.07695572 -0.021869179 0.056824975 -0.20862308 0.11756268 -0.048091885 0.1397244 -0.3090185 0.42666662 0.3648695 0.11421735 -0.14647657 0.00083481683
991 0.23095348 -0.09716674 -0.021192437 0.0451363 -0.05877862 0.04771238 0.013054203 0.16745235 0.06040933 0.02540617 0.27859983 -0.0066268863 -0.2129928 0.28848454 0.18617542 0.26549712 -0.111494176 0.19991608 0.07185536 -0.12769179 -0.16920811 0.23508279 0.15508525 0.35074833 0.12567943 0.55839735 0.2563188 -0.056714807 0.16330352 0.222651 -0.010691022 -0.25098413 -0.100374475 0.023110066 -0.46083325 0.052100047 -0.06809542 0.023962809 0.0084274225 -0.01332437 0.18064436 -0.104089014 -0.037378266 -0.118485205 -0.20977807 -0.11433499 0.0585793 0.2862613 0.080143094 0.11575672 -0.06126671 0.17344846 -0.082609 0.0977241 0.23000538 0.112984076 -0.08365926 -0.22107035 0.31622776 0.07240633 0.6069242 0.14044295 -0.304169 0.4161083 -0.26117435 -0.33479768 0.52411574 0.0861203 0.3998552 -0.22088613 0.08658967 -0.21945061 0.098886244 -0.098734565 -0.10696816 -0.12889656 -0.18760204 0.19281371 0.17532937 0.39633182 -0.34648106 0.39866844 -0.36671898 -0.2905132 -0.07077571 0.12581338 0.5009368 -0.1820229 -0.041561555 -0.22951956 0.019968295 -0.1515195 0.069211185 -0.11691452 -0.3707962 -0.109448165 0.069482654 0.327413 -0.24821472 0.30816078 -0.35521412 0.23501836 0.053725485 0.18931815 -0.011053541 -0.41388935 0.06656945 0.036729205 -0.086501874 -0.20817612 -0.3381258 -0.03761914 -0.1065722 -0.2065036 0.095755674 0.15868208 -0.0070774294 0.22789538 -0.02752309 0.110857636 -0.084224895 -0.048659522 -0.016528398 0.09368076 0.25944266 -0.1021592 0.07041314 0.14558293
981 0.11340514 0.11688589 -0.4931926 0.036832757 0.03967335 -0.17470968 0.064596586 -0.13152803 -0.0856736 0.08826418 0.09889016 0.03514825 0.24219379 -0.21387212 0.43900594 0.078517035 0.19500932 0.07109427 0.077749535 -0.004064863 0.14287297 -0.04818716 0.012086619 -0.05450928 0.07556938 0.13612196 0.077427514 0.099040404 -0.046909224 -0.33507335 -0.08715069 -0.20382889 0.080369726 -0.049145278 -0.12109372 -0.6435451 -0.1755436 -0.37342575 -0.38426134 0.30172625 0.14771466 -0.104821995 -0.48376063 0.065553635 -0.268524 -0.38639942 0.22518556 -0.26212955 0.13026537 0.37538838 0.12716196 -0.35192826 -0.20211768 -0.15741068 0.18383655 -0.19405076 -0.1495058 -0.3392826 0.048417423 -0.0022504455 0.124100015 -0.19715314 0.070384495 0.13130315 0.13744521 0.1694113 0.4689484 0.16256776 0.109368004 -0.4164538 -0.099889226 -0.28235027 -0.004760644 0.22369936 0.12114275 0.032956354 0.23496124 -0.46792132 0.0214806 0.17641425 0.105833165 0.10541166 -0.37053615 0.2674697 -0.04432237 -0.1539477 -0.13134685 0.10378854 -0.020119641 -0.08961403 -0.07942807 0.30493814 -0.113340296 -0.1716937 -0.09526079 -0.0714508 0.042066384 0.2768455 -0.24276513 0.216219 0.120248675 -0.12658808 0.21953993 0.34895927 0.0072894143 -0.33300978 0.13323045 -0.08520845 -0.17857818 -0.35613963 0.035445217 0.23449273 -0.11774441 -0.21557611 -0.14614679 0.018071104 -0.083645105 -0.026625853 -0.28213856 -0.0513885 -0.23847684 -0.043139167 -0.24667725 0.22216646 0.007945321 -0.18338533 -0.17610401 0.15727141
982 0.31141266 -0.32958496 0.25260547 0.012718948 0.044753257 -0.21152039 0.05541644 -0.02669356 -0.09836295 -0.28314233 0.18923508 -0.029112924 -0.12226696 0.14542806 0.57101274 0.018046893 0.072020516 0.1388337 0.11747348 -0.073773764 0.14640811 -0.26135978 -0.08864837 0.048803654 -0.36971593 0.2417159 -0.1163397 -0.21458483 0.4261554 -0.25908872 -0.05580182 -0.097469054 0.1059509 0.048015088 -0.30935752 -0.13514924 -0.49106902 -0.5505631 0.049065128 -0.21211816 9.049778e-05 -0.1104965 -0.09630961 -0.11400715 0.14057088 6.183844e-05 -0.20375346 0.04732213 -0.022420144 -0.35744128 0.046125647 0.042021718 -0.22255823 0.07672854 -0.107472636 -0.18122081 -0.17254455 0.7011432 0.30464506 -0.28105584 -0.26563755 -0.09422585 0.3121625 0.29521522 -0.17048031 -0.24077183 0.090988465 0.08424814 0.024994636 0.035581857 -0.2606095 -0.047833882 0.02964808 -0.09566357 0.124366924 0.105156474 -0.14507498 -0.26880133 -0.22667554 0.29034618 -0.122097574 0.33106348 -0.26441148 -0.06317712 -0.04908247 -0.050014503 0.08471188 0.13118319 0.2058372 0.123139195 -0.058100447 -0.22928017 0.3466356 -0.049595598 -0.048000872 -0.021001847 -0.18141592 0.24521984 -0.19692416 0.2963042 0.012390405 0.016899072 -0.13344982 0.26134688 0.057518497 0.15864608 -0.12797877 -0.10838186 0.1360073 0.20503475 0.12183315 0.20805246 -0.011944485 -0.4109374 0.29355317 0.058088526 -0.1416718 -0.30733147 -0.05418462 0.07411062 0.11786527 -0.3201143 -0.04734432 0.14773321 0.26629257 0.1906327 -0.11487787 0.2941853
979 -0.045054942 0.20139466 -0.08410795 0.05906808 -0.444586 -0.17781314 0.32551607 -0.14163813 -0.06892459 -0.36970997 0.015247125 -0.21686716 0.045994774 0.25318414 0.023848195 0.100766666 0.03251084 -0.1598404 0.14263524 -0.1184382 0.37070256 -0.115575455 0.028796915 0.16520552 -0.01830623 0.18145211 0.13247488 -0.06729342 -0.18376929 0.236382 -0.027954955 -0.29806808 -0.29437348 0.026749672 -0.0597099 -0.042231854 -0.31570703 -0.30679208 0.3692791 -0.17605555 0.2126911 -0.08747087 -0.13462585 0.23301116 0.257082 0.028511131 0.36595094 -0.18609862 -0.029096399 0.2678669 -0.38177365 0.038902458 -0.594084 0.080980085 -0.07710411 -0.47921562 -0.22798051 -0.17277907 -0.049228866 -0.23579364 0.31852105 -0.37308493 0.028097562 -0.21377164 0.07522097 0.04350537 -0.22849153 -0.16861333 0.05609982 0.2688341 0.020353058 -0.34350482 0.16367818 0.017456876 0.060223777 -0.10513064 0.012685002 -0.34492743 0.17491926 0.2911431 0.21738966 -0.18241662 0.0971925 -0.08200435 0.24807395 -0.7094391 -0.06640431 0.15209922 0.25058186 -0.42118794 -0.16404504 -0.11401555 -0.09211271 -0.34739873 -0.0020144312 -0.16633542 -0.05346092 0.11981391 -0.3814191 0.5865206 0.03004001 0.07292753 -0.23002186 0.20535418 0.22082138 -0.56127536 -0.08079425 0.022206299 -0.19103071 -0.20981573 0.24941213 -0.037923712 -0.0044654985 0.07788226 -0.01858644 -0.11631735 0.06279539 0.21216778 -0.16318882 -0.08241811 -0.22091071 0.09830914 -0.17720422 0.14127007 0.050894894 0.09294592 0.007603311 0.050065
975 0.14934771 0.014282435 0.1080857 0.134236 0.12764923 -0.04935943 0.17615616 -0.32950133 -0.1254842 0.06721781 0.24014576 0.022667848 0.09850257 0.17182335 0.40326563 -0.023783324 0.11983828 0.3343971 0.14681476 -0.17358123 -0.13109925 -0.15569605 -0.11809343 0.44682366 -0.1770561 0.23993392 -0.24804415 -0.2655745 0.10648531 -0.25465706 0.04815561 -0.008866804 0.06454761 -0.0017072285 -0.44947585 -0.0335877 -0.51508904 -0.40931976 -0.13154408 -0.21398838 0.2161538 -0.11377256 0.25701284 -0.057258543 -0.1956752 0.049983684 -0.11979201 -0.1834528 0.091689594 0.14634252 -0.14553583 -0.19300635 -0.3455536 0.09477828 -0.3612743 -0.19648282 -0.23806751 0.42721412 0.33209923 -0.48453125 -0.47420838 -0.4074347 0.259198 0.22624233 -0.006074524 -0.22729945 -0.13080974 0.0820574 0.11936179 0.004941397 -0.12384636 -0.05553947 0.22555548 0.012951986 0.22241262 -0.09540577 -0.10629434 -0.4552337 -0.089674085 0.14780147 0.054027125 -0.05680222 -0.31730008 0.09451051 -0.11017815 0.1875983 -0.0058193654 0.18530597 0.13137507 0.06981221 -0.019861372 -0.19628158 0.060578234 -0.0872988 0.11831116 0.33725727 -0.09844533 0.26542202 -0.15636049 0.21235171 0.21052326 0.2172144 0.32342482 0.22791469 0.10936576 0.13165279 0.011185964 0.14842576 0.08672128 0.0757523 0.2859507 0.0774614 0.21354109 -0.055080745 0.19337536 -0.16197011 0.2837017 -0.045603823 -0.007807416 0.15652834 0.1045005 -0.34342465 0.3507185 0.15637986 0.31772986 0.40004 0.21368444 0.40044886
978 0.53297174 -0.32290387 -0.17264189 0.17730625 -0.19367053 0.113058716 0.1383801 -0.038144745 -0.031747058 -0.070963204 0.09521784 0.047561433 -0.1908877 0.2653316 0.14465171 -0.06045934 -0.083773375 0.1058278 0.20788704 0.22090432 0.01243545 0.24227908 0.007027264 0.34038153 0.032401912 0.17550895 -0.1698137 -0.25670722 -0.024229012 -0.13756262 -0.16294615 -0.12167448 -0.1041642 0.13021596 -0.3852597 -0.21220103 -0.26957268 -0.5748167 -0.3348215 -0.2174463 0.037213985 0.06532184 -0.046479553 -0.13139555 -0.18793479 0.05663434 0.08900171 0.08430014 0.09175493 0.16722931 0.11543977 -0.026281293 -0.10887769 0.06677178 0.23484947 -0.078601174 -0.3295227 0.55802196 0.22217615 -0.3847566 0.16001116 0.08233878 0.19639432 -0.02960286 -0.05631612 0.0614502 -0.5595207 0.016632328 -0.35923243 -0.036198508 0.0017480444 -0.071401864 0.32937393 0.24690087 0.18875682 -0.2039767 0.26040348 0.09117418 0.074005336 0.29872677 0.010147489 0.0794061 -0.3751647 -0.0552968 -0.0071919304 0.2508878 0.1665918 0.2919634 -0.022200149 0.27569303 -0.14071852 -0.4996456 0.045778546 0.04816431 -0.2367395 0.29791677 -0.13967055 0.18777561 0.039410934 0.39589205 0.079192296 0.31758165 0.33094496 0.38967252 0.061201844 -0.026724214 -0.0048296587 0.07980843 0.03433442 -0.29294008 -0.052556306 0.1596755 0.36905426 -0.1533795 0.2433869 -0.054571696 0.048077196 -0.025220107 -0.12917428 0.11872366 0.029947877 -0.08083506 -0.059641305 0.3496301 0.17816229 -0.20266528 0.14380164 0.35219765
974 0.09963121 -0.30405492 0.13576657 -0.19055355 -0.091163315 -0.3963101 0.09700727 -0.23732689 -0.16727473 -0.058590353 0.13120522 0.059422117 -0.0888038 0.3448277 0.18550944 -0.017860781 -0.2412499 0.01728059 -0.1801268 -0.18812712 0.21730258 -0.12557366 -0.04300863 0.2999286 0.18779865 0.09534403 0.251754 -0.050644077 -0.049891375 -0.14499366 -0.17237744 0.21294026 -0.30781746 0.19183989 -0.08542534 0.20159346 -0.0075775855 -0.33234888 -0.1904376 0.5587701 0.18561041 0.38025856 0.051674943 -0.048063662 0.09140349 0.3204037 -0.17455594 -0.34496036 -0.094248384 0.13079493 0.48096326 0.08519467 -0.50641036 0.11772877 -0.0050875545 -0.3148065 0.0051657353 0.13382047 -0.07002823 0.08029498 0.13923681 -0.09296729 0.114226334 0.027310995 0.13714258 -0.06754736 -0.040979806 0.27693412 -0.12270276 0.16120416 -0.18783145 -0.3818155 -0.035966765 -0.115124606 -0.15961604 -0.22441882 -0.06554226 0.09823809 0.26660904 0.29571322 0.3481173 -0.26494962 -0.118282184 -0.32076147 -0.29048404 -0.3737412 0.12432269 0.006673425 0.41703236 -0.22152524 0.47854128 -0.30930752 0.23740032 -0.23771057 0.22209325 0.40511814 -0.0048537017 0.42220291 0.11098855 0.33902705 0.06083937 0.32080734 -0.35017878 0.24202085 0.1988918 -0.22087012 -0.2856147 -0.023588158 -0.123066865 -0.12433713 -0.029664012 0.43317527 0.2056299 -0.07589251 -0.051511828 0.31597567 0.17288533 -0.1577659 -0.28089663 0.26861936 0.08404238 -0.1907043 -0.13067532 -0.09541356 -0.039477546 -0.24293172 -0.28845286 0.31662503
972 0.3335138 0.09193104 0.070426896 0.052460838 -0.033178438 -0.014863527 0.20819356 0.18169536 -0.026601959 -0.28812012 0.035066787 -0.07711018 -0.17607196 0.076856315 0.098273054 0.06882472 -0.24853626 0.33907947 0.10057857 -0.071261115 -0.26119334 0.014729652 -0.22208671 -0.08195323 0.11427618 -0.032305602 -0.06026177 -0.1506699 0.12715675 -0.10024079 -0.018077867 0.04499628 -0.07883189 0.076899916 0.0610859 0.056583684 -0.5833309 -0.471822 0.22753437 0.0033608675 -0.026596164 -0.048200615 0.28086692 -0.2451597 -0.29439953 -0.17452207 0.09509177 0.36721104 -0.4837848 0.106786534 0.14962903 0.0866463 -0.15857641 -0.13367572 -0.19866978 -0.3910139 -0.19901985 -0.041114412 -0.01715312 -0.16536169 0.24094328 -0.12812859 -0.078712694 0.27725345 0.41518623 -0.06749421 0.36159664 0.12044592 0.29198354 -0.07381925 -0.08271606 -0.3037115 0.18005265 -0.24813135 0.19274177 0.08078705 -0.009281795 -0.015120942 -0.014789142 0.29974172 -0.30401152 -0.4686146 -0.21553175 -0.3226321 0.1666586 -0.09267421 -0.5723421 0.25478476 0.10330587 -0.05324993 0.24661778 -0.40887058 -0.09588269 -0.20389712 0.22779833 -0.090818666 -0.076942064 -0.17126296 -0.37839597 0.107910454 0.4151926 0.22274458 -0.20634402 0.14424025 0.044172052 -0.23268074 -0.012508752 -0.13654616 0.1042972 -0.1636993 0.004322065 0.14361416 -0.30652088 -0.22920047 0.2528875 -0.0924323 0.40116206 -0.31203786 -0.06513292 -0.008826445 -0.04797631 -0.32042313 -0.1282306 -0.3286676 0.06590432 -0.13003506 0.0018783845 -0.026790015
971 -0.006110955 -0.03533068 -0.3548756 -0.13130996 0.08203972 -0.22327994 0.02116183 0.00949612 -0.042587526 -0.10734283 0.0930675 0.050480157 0.08308867 0.08096185 0.15730305 0.13114038 0.006800981 0.07583334 0.30412054 -0.03482806 0.012774748 -0.07595568 -0.16411848 0.02890692 0.23588951 0.21525331 0.12447299 0.20896657 0.051164187 -0.41877756 -0.177836 -0.18377645 -0.06596365 0.24334297 -0.39101732 -0.31959555 -0.14496523 -0.4915993 -0.22538708 0.18321218 0.20449707 -0.20507413 -0.24730417 -0.18576111 -0.14593296 -0.33228806 0.26730445 -0.22043717 0.25195378 0.4589095 0.30534407 -0.5286546 -0.28338468 -0.098605216 0.19552852 0.027256122 -0.19987647 -0.3154128 -0.1704864 0.017562682 0.21614532 -0.30660215 -0.21795316 0.43230236 0.2101354 0.1910247 0.48818412 0.114612445 0.18640304 -0.4147453 -0.075148374 -0.35370713 -0.1467441 0.22073694 0.0615032 0.116296664 0.21674734 -0.21787031 0.008225686 0.29110128 0.027071262 -0.2665173 -0.33244625 0.13370687 -0.16043879 0.12129363 -0.06631475 0.16584463 -0.059903197 -0.07953325 -0.25688645 -0.042642552 -0.22886723 -0.11588683 -0.25367662 0.23991531 0.052033514 0.036245495 -0.26460955 0.20329903 0.08745209 -0.033906475 0.33249056 0.24319117 0.11325015 -0.39970967 0.02899059 0.066468224 -0.17353232 -0.16674742 -0.038479585 0.4227916 0.012728364 0.0054995166 -0.21717249 -0.1322822 -0.2865202 -0.03345194 -0.24139756 -0.0033401458 -0.43615383 0.06537816 0.06457175 0.45711133 0.22979254 0.013515095 -0.038928993 0.3380038
977 0.058506433 0.09837601 -0.33230555 -0.07216163 0.030821888 -0.08984779 -0.062153578 -0.13108146 -0.2572611 0.07506484 0.0994733 -0.002325488 0.22629607 -0.10401486 0.3325371 0.13489743 -0.02792926 0.041883036 0.24124874 0.14943771 -0.017640926 0.15962553 -0.07896084 0.024399396 -0.05588191 0.019270893 0.022367625 -0.06888968 0.011146297 -0.3497011 -0.2345988 -0.015240955 -0.027657373 0.03199396 -0.40705448 -0.48613477 -0.12654693 -0.3767086 -0.01721433 0.40207383 0.15185378 0.09141121 -0.118380465 -0.1692823 0.055639442 -0.24559475 0.26858026 0.19376864 -0.067786574 0.28517622 0.36436528 -0.50861084 -0.1037074 0.011547993 0.14250043 0.21073155 -0.025350502 -0.5021782 -0.15710801 -0.07291152 0.09067384 -0.1860273 -0.2362688 0.15190876 0.095984496 0.28238252 0.42197305 0.11997604 0.24406964 -0.50162524 -0.11143381 -0.283796 0.011250347 0.03730265 0.06754499 -0.0064440356 -0.11868738 -0.44101155 0.15114053 0.45454338 -0.07527524 0.112913825 -0.40790552 0.16302498 0.0106061185 -0.098165125 -0.14380698 0.33369893 0.080166064 -0.084983654 0.01535071 0.10197886 -0.10938531 -0.13252115 -0.45105132 -0.029950717 0.2552781 0.29326907 0.021575939 0.13450266 -0.08127777 -0.08446857 0.2802706 0.37812856 -0.07918422 -0.48348442 0.1834564 -0.03806162 -0.11253099 -0.24556248 -0.25236315 0.3270531 -0.1257261 0.03453618 -0.0649358 0.027898442 0.27034014 -0.19968699 -0.3089333 -0.17448115 -0.30046594 -0.036719423 -0.2079933 0.3469316 0.29019845 -0.17910081 -0.1499755 0.22514156
973 0.2740148 -0.20894356 -0.094327785 0.11882906 0.008414364 -0.20766449 0.001171646 -0.35342366 -0.26254824 0.051690914 0.28992197 0.023935257 0.107905425 0.32131344 0.1595204 -0.16054107 -0.15611361 -0.10002401 0.1510324 0.06367092 -0.1564659 -0.031698253 0.008670876 0.35279968 -0.10914712 0.13392451 -0.3476308 -0.39606354 0.14469384 0.17670956 -0.09206934 -0.04346123 -0.20799129 0.303489 -0.22765367 -0.13626908 -0.035137583 -0.54538757 -0.16653854 0.11480152 0.08985384 -0.120672025 0.018213015 0.28479812 -0.08299483 0.08339843 0.14694405 -0.071073875 -0.029030366 0.10280495 0.10012823 -0.37211236 -0.0817334 -0.050952807 -0.22462928 -0.22346248 -0.37805498 0.18481484 0.1336003 -0.39479074 -0.045110583 -0.30450118 0.48866653 -0.024403436 0.1659872 0.11780636 -0.32174447 0.0023918902 0.24271604 -0.08337901 -0.40381518 -0.07375532 0.1516444 0.05815647 0.19425052 0.096477255 0.23628621 -0.18075913 -0.30857232 0.25340515 -0.062027425 0.29435405 -0.4394776 0.42701104 0.2456115 0.08492491 -0.05502818 -0.047321234 0.1597742 -0.022252727 0.11396636 -0.1505581 0.15320227 -0.04172876 0.23329656 -0.0030997288 -0.042210706 0.18805762 -0.09703393 0.24681914 -0.20305333 0.5432702 0.27466053 0.49726495 0.26003665 0.032285698 -0.19904129 0.14714509 0.1309696 -0.064143255 -0.045948036 0.16411358 0.49255267 -0.18068041 0.28419644 -0.19140244 0.38896316 0.051248427 0.1204253 0.024833968 0.27522305 -0.030561307 0.050081074 -0.14885485 0.35945934 0.2702011 -0.1324673 0.3676181
964 -0.022193836 0.06526927 -0.1587106 0.2151068 -0.00791192 0.2922145 0.14107294 0.14242189 -0.038114753 -0.40977213 0.039599698 0.23653562 0.16295567 0.41455236 -0.12719178 0.081149384 0.21497358 -0.20525232 0.18176116 0.031109273 0.2029531 -0.058635127 0.17687522 -0.14608435 0.5350169 -0.19727066 -0.44059893 -0.09396386 -0.02341147 -0.06334954 -0.116770275 -0.09437232 -0.19537748 0.28443572 -0.24244863 -0.11094638 -0.3043523 -0.051821418 -0.17427318 0.5029896 0.021341825 0.32781637 0.16364516 -0.07780023 0.1365903 0.07042505 0.07080583 -0.15016912 -0.0864422 0.036043826 0.13899878 -0.16665876 -0.40110296 0.108021334 -0.07098483 0.09732298 -0.21635902 -0.14589015 0.40810913 -0.15923105 -0.006415663 -0.31407765 0.086670846 0.11719618 -0.10013109 -0.15125684 -0.005989502 0.26090387 0.22442377 0.031496003 0.02726837 -0.44085634 0.44617352 0.1662058 -0.103191674 -0.008709201 0.15800348 -0.055816453 -0.12383432 0.06625907 -0.11644244 0.14577104 -0.07500901 0.18297857 -0.025157034 -0.16132192 0.0040190155 -0.0075763264 0.118709296 -0.39297348 0.049465057 0.19220243 0.16194065 0.08627173 -0.13960762 -0.44146916 -0.061373785 0.47769228 -0.17025538 -0.15608543 -0.2578844 0.5033521 -0.14710943 0.15677512 -0.07659975 -0.38067964 -0.34422323 0.29972765 0.15070294 -0.12679586 0.2831694 0.05281626 0.13082473 -0.03729832 0.038913075 -0.34969944 0.11535392 -0.13773781 -0.39562306 0.10907003 -0.13053446 -0.16715047 -0.2832425 -0.17502148 -0.06460312 -0.08785319 0.25096968 -0.085493565
998 0.1302967 0.1793024 -0.48761684 0.053326923 -0.23228875 -0.056895647 0.036041792 -0.1569629 -0.04385095 -0.2904034 0.3215233 0.3929009 -0.4892748 -0.0017121683 -0.2942124 -0.1880456 -0.05617716 -0.102801315 0.33136675 0.49451986 0.17098111 0.4088115 0.07858985 0.063132145 -0.14644966 0.30759585 0.03072722 -0.15561947 -0.12626235 -0.32948476 0.09803174 -0.15389882 0.21676214 0.2827976 -0.2082152 -0.18368536 -0.20800911 -0.18777728 -0.29988852 -0.40781218 0.022628952 0.2300993 0.20495346 0.052010976 0.020055294 0.28662625 0.04712072 -0.108895615 -0.039362878 0.12847352 0.09117915 -0.07694622 -0.46474937 -0.3010024 0.22081695 -0.15942405 -0.4473069 -0.18881452 0.20417579 -0.2535883 0.31276578 0.1548847 0.25308388 -0.10825004 0.3345916 0.08758209 0.44293422 0.12830864 0.20390803 -0.064148866 0.011410741 -0.11189341 0.024834504 0.18932435 0.08109904 -0.0813668 0.23921683 0.42300135 -0.1803675 0.20667586 -0.1963832 -0.060588967 -0.24700242 0.006345605 -0.07955697 0.05696248 0.19961658 0.16728249 0.2176544 0.011694668 -0.16688883 0.1930113 -0.05252606 -0.033832677 -0.10169159 0.084298775 -0.0057497537 0.06314759 -0.4167455 0.25513566 0.09656522 0.016911903 -0.27807897 0.17413388 -0.06738274 -0.43135455 -0.09169691 0.27598655 -0.1598988 -0.2901433 -0.005082375 -0.012699958 -0.07000225 -0.18964271 0.3373347 -0.055958193 0.21762544 -0.062111285 -0.15172318 0.29842484 -0.2700336 0.07616817 0.32770604 -0.048689563 -0.08352563 0.082043335 -0.13158163 0.304197
963 0.23876815 0.05917212 0.1681719 0.010906297 -0.27023062 0.37821224 -0.048339047 0.100193754 0.36853528 -0.14219394 -0.032860473 -0.24348183 -0.09092046 0.1777769 0.09263158 -0.05927271 -0.47012943 0.082765244 0.32874626 -0.037785478 0.11741039 0.13100387 0.28181618 0.10595727 0.23238134 -0.13247031 -0.20424083 -0.16622256 0.042738356 0.20476933 -0.28808784 0.014921612 -0.03950702 0.0022939725 -0.06617978 -0.06435384 -0.43580595 -0.64576906 0.2271678 -0.15360138 0.1040186 0.108323015 0.28044844 -0.29131392 -0.29642466 0.0086602485 -0.077296086 0.08498374 -0.04858583 0.44034633 0.32268494 -0.026676385 -0.05931778 -0.20922922 -0.3552261 -0.09482757 0.0063945143 0.0048558507 0.19427867 -0.2718254 0.5009385 -0.111212306 -0.04799686 0.033388175 0.3646925 0.46595567 0.37924984 0.10284577 0.21781692 -0.23751909 -0.0069447435 0.10623809 -0.025851356 -0.19793779 0.052896407 -0.069792464 -0.0048109847 -0.09761253 0.03248413 0.32151186 -0.35028297 -0.25890774 -0.09571609 -0.08483871 0.28688255 0.0460809 -0.04002219 0.3247469 -0.12831055 0.010621886 -0.23547284 -0.40149418 -0.09766771 -0.04433302 -0.096023515 0.023268607 0.13774683 0.097189166 -0.23269597 -0.17997453 0.04598207 0.42009562 -0.2868538 0.26232895 -0.0064144363 -0.08982702 -0.15365057 0.060031477 0.37500924 -0.6425296 0.06598541 0.10510476 -0.034029942 0.040167775 -0.09238932 -0.028220924 0.32246587 0.032390583 0.21565439 -0.0910564 0.15608904 0.06305394 -0.12885597 0.20535976 0.2581189 -0.17505108 -0.116392426 0.19639663
968 0.06292787 -0.26270947 0.17886788 -0.28198832 0.15380062 -0.22333936 -0.02821662 -0.05647846 -0.0918461 -0.48943654 0.1816009 -0.28533202 0.13094789 -0.14206871 0.068893634 0.24890906 -0.014242941 -0.0156245325 0.2688648 -0.21712762 0.36861134 0.18495671 -0.02897391 0.27325436 -0.17735548 -0.21240069 -0.018304491 -0.100200996 -0.12920272 -0.30470937 -0.02678452 -0.42523003 -0.26264247 -0.17846702 -0.035490964 -0.12890686 0.07388863 0.009318299 -0.033649564 -0.33966446 0.16140972 0.18632194 0.18608661 -0.13349606 -0.0017532798 0.3629151 -0.18718673 -0.124004595 -0.2368328 0.09673665 0.21459176 -0.16576445 0.016687851 -0.06528745 -0.19519588 -0.14831388 -0.071433716 0.16474102 0.21200688 -0.13596028 0.19485171 -0.11073781 0.3355684 -0.1043861 0.12529124 -0.32539505 0.5235397 -0.35065025 0.29907903 -0.099804044 0.25962082 -0.20302288 0.1345261 -0.0068059703 0.060950343 -0.095872305 0.05053906 -0.16999383 0.05246768 -0.1331504 -0.0638422 0.02765015 -0.010250455 -0.08522522 -0.13436897 0.38303554 -0.016131261 0.4064213 0.20689102 0.0031591181 0.18740809 0.027842768 -0.11070452 -0.5330823 -0.026669618 -0.058547776 0.13535717 0.66893893 -0.46896616 0.0032206185 -0.13641368 0.12646253 -0.07815235 0.23718236 0.1718403 -0.411871 -0.13671018 0.37147537 -0.12979531 -0.11467574 -0.07543896 0.20767546 -0.24249041 0.12610637 0.23526968 -0.027969487 0.11589252 -0.3453115 0.049910575 0.045112453 -0.0735194 0.009132518 0.21438171 0.3910334 0.33581838 -0.12781854 0.19379614 -0.3597495
970 -0.24516855 -0.5100819 -0.16919023 0.00837217 -0.22436315 -0.20272297 0.31746 0.006381254 0.13315572 0.13505557 -0.14779462 0.22124352 0.081937484 0.27854437 0.09981782 0.083710164 -0.11466398 -0.2589935 0.15210232 -0.074764885 -0.012031545 0.0024918765 0.09079066 -0.20733339 -0.11690018 0.107346475 0.247098 -0.044421434 0.18002653 -0.023515195 -0.13460079 0.037188917 0.054109097 -0.16774066 -0.20830669 -0.12145952 -0.447559 -0.2654157 0.16421627 0.19673866 -0.052015975 0.27953577 0.031946164 -0.049648706 0.021252178 0.33371836 -0.32391346 -0.11712603 -0.3174004 0.23499104 0.1506438 0.10521023 -0.40007517 -0.030988963 0.14931048 -0.32286426 0.11369025 0.22272569 -0.114226066 -0.22734836 -0.16311938 0.058828603 0.2960018 -0.016412998 0.0027469487 0.19764145 0.21856783 0.68719834 -0.07568835 0.21463774 -0.3615417 -0.46210733 -0.2681515 0.024985267 -0.16925278 -0.15803254 -0.090315424 -0.13334548 0.2591102 0.12662227 0.13352321 -0.22869445 -0.30664766 -0.21390879 -0.112077355 0.08138043 0.023930749 0.11202981 0.111299634 -0.3362109 0.12593639 -0.41506 0.08025829 -0.1244779 -0.3330779 0.0018386636 -0.16627757 0.49954325 0.23129979 0.18197136 -0.060123917 0.13215895 -0.23849255 0.5566755 0.10608709 -0.21178511 -0.24092397 0.13838229 0.04032897 0.02194667 0.09235949 0.493859 0.3023396 -0.25283876 0.30325904 -0.11078401 0.38564458 0.10578963 0.03272189 0.2974992 -0.049391277 -0.3975656 -0.18262023 -0.17211214 0.16434151 -0.19026813 -0.013651415 -0.28072917
958 0.29152057 -0.23289788 -0.11113998 -0.06964832 -0.28365442 -0.08625259 0.34191445 0.01871139 -0.17935361 0.0474383 0.17681107 0.23295186 0.24068752 0.5388441 0.34951073 0.23780495 -0.11199816 0.14982036 -0.040575407 -0.28834328 0.18097785 -0.19664514 -0.014039478 0.20353845 0.119948015 0.3197174 0.25340718 0.18203452 0.2235624 0.14240149 -0.25629365 -0.11530818 -0.20074746 -0.0750914 -0.22318684 -0.3074922 -0.18557996 -0.36624253 -0.08293345 -0.17709404 -0.04398684 0.10956226 0.4653813 -0.4431761 0.1410468 0.20993036 -0.10830475 0.06624579 -0.12771317 0.22520928 0.15969884 -0.43603846 -0.32270068 -0.18002978 -0.14036119 -0.046074662 -0.26659036 -0.030702872 0.19512208 -0.14280327 0.22322957 -0.110528536 0.30503473 0.0667132 0.24403463 -0.10695085 0.36067492 0.35558847 -0.051096357 0.36972308 -0.1937973 -0.30007067 -0.16688548 0.0013472812 -0.40654418 0.113330856 0.27319193 -0.08889403 -0.14985779 -0.29653668 0.066566885 -0.19834541 0.09391403 0.18495952 -0.13159342 -0.31464326 -0.07399789 -0.15580314 0.07067816 0.067000136 0.07690311 -0.46289727 -0.23639093 -0.05249623 0.1517462 -0.06316788 -0.22502603 0.0352165 -0.3125176 0.16239707 0.12280354 0.0666574 -0.06460178 0.26941496 0.1664908 -0.16229418 0.32829744 -0.08590711 0.12526073 -0.06281506 0.052539106 0.091158114 -0.6241006 -0.07807692 0.07922194 -0.1924843 -0.21425366 -0.07755891 -0.1693151 0.064269416 -0.065464385 -0.14460634 0.055276684 -0.2571121 0.2036354 0.32196546 0.051176935 0.21482943
969 -0.14116122 -0.16945177 -0.30882236 0.20958143 -0.16939539 0.108000584 0.21859306 0.03322274 -0.0045342594 0.12455646 0.029672196 -0.15306172 0.2763732 0.10324649 0.3846642 0.024867829 -0.057985414 0.049061198 0.33273742 -0.1404297 0.13256225 -0.15576148 -0.09364353 -0.15745556 -0.13102609 0.11664236 -0.072761856 0.07681027 0.11030301 -0.27002594 -0.10666181 0.043935772 -0.03096636 0.2719506 -0.16385515 -0.6056446 -0.080559865 -0.40862566 -0.44904315 0.24052513 0.20761612 -0.1128802 -0.17772123 -0.0063732876 0.16979016 -0.54664457 0.15373859 -0.23223093 0.085234955 0.4092407 0.19658107 -0.62566084 -0.104109704 -0.07377188 0.021131609 0.08563728 0.036688108 -0.24937214 0.022458052 -0.016420074 0.091041684 -0.12581797 0.056779295 0.46961886 0.2943057 0.3302222 0.5270257 0.14391589 0.043490287 -0.31714657 -0.016846113 -0.15826377 -0.061340805 0.16608392 -0.02548869 -0.027875075 0.10005196 -0.13550374 -0.034577075 0.27224138 -0.047052745 0.13100281 -0.43090796 0.07839623 -0.15696907 -0.16733854 -0.23815459 0.050931152 0.034867372 0.029522097 0.03626472 0.030799 0.030282564 -0.17789344 -0.2412148 -0.042565957 0.105344884 0.1767495 -0.2533601 0.039346285 -0.020514352 0.07128524 0.25509727 0.4366795 0.16973756 -0.38065612 -0.027778653 -0.18603836 -0.06842156 -0.33003518 0.07027664 0.31657466 -0.074333794 -0.28768644 -0.035153873 0.044002663 0.01553598 0.14189804 -0.17646673 -0.043269914 -0.60196686 0.042039398 -0.30514643 0.21710363 0.2923247 -0.16931672 -0.33384654 0.2989198
961 0.0530425 -0.13935132 -0.4654393 -0.08059209 -0.14245503 -0.28153893 0.35776532 0.07500443 0.05062551 0.14342514 0.25717002 -0.16815701 0.31021774 -0.12819372 0.42852214 0.08202656 0.18784097 0.19999897 0.34768453 -0.10518813 0.12623112 0.07773566 -0.025304876 -0.19488662 0.05881095 -0.18415584 0.2533749 0.033963926 0.05827517 -0.3399741 -0.025392879 -0.117453195 -0.2783736 0.021293731 -0.19378966 -0.439719 -0.20977205 -0.4318069 -0.28486145 0.2652322 0.07020902 0.021616088 -0.35139823 0.13108502 -0.1470589 -0.3562058 0.25802645 -0.10010037 -0.090942584 0.35498026 0.07369756 -0.40096352 -0.035045058 -0.13560829 0.22391441 0.08680843 0.06880767 -0.20875213 -0.08758388 0.08281446 0.21119806 0.083015785 0.066544935 0.24548452 0.37626696 0.11549266 0.14429167 0.21468644 -0.06006498 -0.44919056 -0.050566792 -0.10749404 0.07619382 0.15893732 -0.085080534 0.20369883 0.09806766 -0.17722131 0.110795654 0.29207444 0.05384943 0.05528246 -0.31869006 0.0892757 -0.08186032 -0.059729602 -0.3231614 0.15256692 0.22141097 -0.14856538 -0.017324347 -0.006586731 -0.12593049 -0.08813915 -0.066369295 0.038974505 -0.100980684 0.10731009 -0.15860131 0.11740766 -0.028794065 -0.1724887 0.1049588 0.53743577 -0.083990976 -0.41448092 -0.15853745 -0.008587529 -0.031686418 -0.14453283 0.1797068 0.22076619 -0.21098126 -0.19513907 -0.079658985 -0.0547545 0.04639631 -0.2665824 -0.3205256 -0.057975683 -0.40075228 -0.2102589 -0.10688992 0.37806624 0.3968053 -0.015051456 -0.03388478 0.19137381
999 0.33832106 -0.060260694 0.29475904 0.049162824 0.11326501 0.05081262 -0.1830163 -0.08261745 0.10102537 -0.112220235 -0.023671422 0.34638765 0.2758134 0.37957433 0.28018326 0.3266616 0.058186166 0.26125136 0.0036263755 -0.23613347 -0.013211686 0.46880636 0.12687142 -0.13483088 0.04056747 0.3696786 0.047317594 -0.4735387 -0.4122111 -0.50181776 -0.19174476 0.2836734 -0.0042415913 0.10036043 -0.26256156 -0.049132083 -0.067104176 0.07114768 -0.004606217 0.0044861385 0.020710927 0.15201938 -0.12816988 -0.15626644 -0.14837958 -0.22506438 0.24501628 0.03992695 -0.07938877 0.40816894 0.10299871 -0.05668743 -0.31753716 -0.0032959657 -0.25285378 -0.03861384 -0.30624327 0.17306192 0.27588895 -0.03909229 0.14177719 -0.4695636 -0.011796871 0.21459113 0.09949012 -0.20361327 0.4637381 0.5765484 0.2203907 -0.11866347 0.11210244 -0.1565457 0.04229981 -0.20313632 0.009929426 -0.3261517 0.25501436 -0.22188583 0.04376543 0.0011147414 0.0467408 -0.03903075 -0.058367413 0.3358474 -0.061564077 0.098850794 -0.15995067 0.11277963 0.03545443 -0.2729664 -0.29685685 -0.2779059 0.06925347 -0.17153317 -0.32183623 -0.3069516 -0.49416834 0.3050778 -0.13036533 0.14533174 0.1745816 0.23758939 -0.14414865 -0.020977933 0.047389735 -0.21710388 0.5959276 0.1700934 0.2730867 -0.35733855 0.24640311 0.115537286 0.035122264 -0.03264347 0.10319887 0.11004874 -0.18726534 -0.30473116 0.18876739 0.05968805 0.10273393 0.376295 -0.020372937 0.032334782 0.23715585 -0.17650163 0.20461723 0.24335878
954 0.36725104 -0.12294401 -0.020494312 0.31198934 0.051852196 0.48234054 0.3198353 0.049902778 -0.14834628 -0.25567627 0.07932059 -0.02483343 0.23690021 0.25127319 -0.2220536 -0.029804884 0.016404053 -0.044282433 -0.109589644 0.24976742 0.039882213 -0.18991499 0.11238588 -0.02688948 -0.19555824 0.09158012 0.055557307 -0.6005885 0.045176357 -0.23833518 0.13641603 -0.023929149 -0.08702377 0.16426483 -0.13166952 -0.11126182 -0.3218325 -0.2014336 0.10314803 -0.11972569 -0.18236004 0.4077989 0.0832591 -0.15557557 0.08537868 0.030222306 -0.064519495 -0.11062887 -0.5891326 0.5909823 0.35742986 -0.20867544 -0.16549692 -0.046757646 -0.0013062165 0.028610187 0.048560917 -0.10439267 0.12686144 -0.35537422 0.05692912 -0.21863098 0.026534377 0.15726641 0.023095584 -0.31147772 0.30512616 0.15363143 0.32534823 -0.10692615 0.014300798 -0.20051868 0.5228188 0.09165581 0.16636704 0.036251005 0.073765814 0.09687024 -0.026193343 0.31484503 0.12674367 -0.14411996 -0.19481863 0.25015652 0.1927025 -0.15878533 -0.14892855 -0.16198616 0.23208715 -0.11757011 -0.10969934 0.14738755 -0.14440589 0.12573004 0.42713287 -0.7086321 0.061325938 0.09124035 -0.15051001 -0.08574843 -0.021632139 0.45094323 0.116571225 0.01177134 0.0800347 -0.19541097 -0.09831948 -0.15430598 0.35265163 -0.10822088 0.2878458 0.14762118 0.036344275 0.13693464 -0.07273453 -0.16322626 0.19382538 -0.19369444 -0.250577 -0.17178318 0.19977164 -0.06562851 -0.17639841 0.15629907 -0.05764436 -0.1115122 -0.008922167 0.1050902
955 0.121104866 -0.13986105 0.09250217 0.07420926 0.024971673 -0.23919256 0.38677102 0.08792886 -0.31703693 -0.21736442 -0.09191538 -0.25170395 0.38242897 -0.038890596 0.12682313 -0.014877575 -0.02770528 -0.20759155 0.048292626 0.028391557 0.006344843 0.39637643 0.14505304 0.3761688 -0.26066452 0.481673 0.18651153 0.17915821 -0.30681702 -0.34112653 0.055237707 -0.56325847 -0.21239321 0.23167557 0.11108768 -0.29273567 0.033739004 -0.31547403 0.05391032 -0.45229965 -0.15950501 0.5100617 0.18290894 -0.10521502 0.15396611 -0.08388685 -0.5114316 0.14070556 -0.16655383 0.16063133 -0.043459084 -0.11589448 -0.07684316 0.030727744 0.04794211 -0.17883047 0.048191745 0.113644674 0.26589093 0.21807687 0.06281351 -0.3093677 0.0707906 0.05761898 -0.118827656 -0.24727465 0.3898342 -0.0067240754 0.24141319 -0.16234739 0.10654063 -0.314068 0.05504966 0.18261865 -0.15013143 -0.051025394 0.11045531 -0.27291375 0.026771324 0.07486713 -0.0047640516 -0.13122882 -0.2579403 -0.02795504 0.1039068 0.16451576 -0.011426623 0.2606134 -0.1193594 0.0350937 -0.12203531 0.12996371 -0.046639513 -0.07044287 0.229838 0.055471454 -0.18287611 0.50498873 -0.5069793 -0.1024983 -0.010617521 0.2935869 0.034443446 0.33368236 0.119236134 -0.7098564 -0.0057764393 0.16952758 0.18871309 -0.05730678 0.029423142 -0.01622033 -0.2669297 0.06709774 0.13492168 0.026480692 0.1452397 0.071478866 0.14929886 -0.13338912 0.10821606 -0.2641152 -0.029334107 0.12816752 0.07705441 -0.21296577 0.20473704 -0.1923634
957 -0.120564215 0.044854917 0.016219012 -0.010682751 0.044621535 -0.15838212 -0.12740746 0.3321659 0.11350978 -0.04621765 0.08699465 -0.061716855 -0.21369344 0.2602628 -0.0067618936 0.034227688 0.08781183 -0.15168668 0.0026707407 0.16050439 0.18988866 -0.21138854 0.40390158 0.11906142 0.23056862 0.046247106 0.03304672 -0.29848856 -0.119077444 -0.18255699 -0.062766664 -0.13977797 -0.2723263 -0.05880916 -0.62591136 -0.20928171 -0.12402489 -0.15382044 -0.23176613 0.045614228 -0.09613956 0.31565356 -0.3445821 0.28530398 -0.06329221 -0.12721814 0.28305063 -0.049823143 -0.3793542 0.2376133 0.004909273 -0.054576874 -0.15821797 0.3297328 -0.023216153 -0.11778986 0.114873506 0.019972384 0.25672588 -0.29922792 0.045702536 -0.19292362 0.16773474 0.18824817 -0.15672062 -0.3054717 0.28569683 0.34294012 0.10116166 -0.30447364 -0.192342 -0.19951557 0.2941817 -0.029724995 0.39680734 0.3244032 0.05607411 -0.22486493 -0.42929563 -0.048596233 -0.12358937 0.06336096 -0.34517443 0.3846601 0.07186017 -0.237507 0.004063639 0.050541278 0.19568728 -0.58256936 -0.26619244 -0.18197204 0.018061867 -0.013269022 0.053109404 -0.16722032 -0.040437073 0.28602177 0.01965741 0.09595213 -0.21159907 -0.038022213 -0.1192924 0.012314898 0.20720091 -0.18303496 -0.020680884 -0.028745882 0.13703968 -0.52162087 0.38641915 0.106965326 -0.30522367 -0.16712366 0.13763306 0.35047153 0.1765607 -0.31607503 -0.24919644 -0.008208186 -0.08771219 -0.06579007 -0.043482233 0.33320066 -0.42682463 -0.018253824 0.07331789 -0.17191409
949 0.2915881 -0.029401032 0.160362 -0.14726843 -0.113723956 -0.06702237 0.045215555 0.018965093 0.103371024 -0.046823457 0.19876304 0.41685575 -0.2112782 0.37087137 0.43201628 -0.23426515 -0.00034759636 0.24378707 0.0502303 2.2544962e-05 -0.17459853 0.077902004 0.22363396 0.091258116 -0.32885554 -0.051066488 -0.33217287 -0.08548615 0.20723149 -0.2165083 -0.05211606 -0.18125384 0.08072998 0.021727499 -0.3677047 -0.24035254 -0.45259666 -0.76204056 -0.21130104 -0.0547255 -0.041942295 -0.17747012 0.029738981 -0.12219528 -0.24702168 0.3682254 0.37127241 -0.14780883 -0.18586998 -0.00063602306 0.35545248 0.19314049 -0.20608237 0.10332415 -0.2020358 -0.37727028 -0.13393712 0.28331473 0.042609498 -0.32150537 0.11756287 -0.15728667 0.22876383 0.13277553 -0.32906562 0.04340353 0.08513718 -0.27176905 0.016933454 0.074019164 -0.27292967 -0.218946 0.3659419 -0.09460961 0.11417204 -0.24098842 -0.118358314 -0.061291315 -0.21691912 0.364073 0.14734598 -0.0011411621 -0.3580681 0.10639389 0.063826695 0.097586356 -0.024670986 0.18712457 0.12730186 -0.19604616 -0.1353625 -0.15632208 0.1726034 0.020344734 0.009027019 0.25835982 -0.22545366 0.3494491 -0.11018867 0.087014355 0.22881892 0.2441402 0.12419975 0.1764307 0.37856302 0.23384197 0.039739635 -0.16577636 -0.11493218 0.11950751 0.08555347 0.17902389 0.003584154 -0.31998965 -0.041610014 -0.03409826 -0.14917342 -0.062069487 -0.036117043 0.21661314 0.01917787 -0.00442141 0.22229612 0.30850598 0.03937423 -0.031319715 -0.107792206 0.27247778
953 0.14600195 -0.55067176 -0.24825935 0.35180768 -0.29474008 -0.12102835 0.20140691 0.123066105 -0.05956703 -0.20847352 0.3804806 0.26942635 0.15440771 0.028671179 0.21924046 0.17533058 0.048253033 0.25713563 0.10427025 -0.1905693 -0.040124875 0.39405924 -0.03013357 -0.05536616 0.016234579 -0.039238963 0.096884966 -0.12816738 0.032043878 -0.04261493 -0.19536862 -0.13410786 -0.4452863 0.062468518 -0.2056076 -0.060465746 -0.06577408 -0.569933 0.028046153 0.14194949 0.31026205 0.17210579 0.115429245 -0.05511701 -0.12693997 -0.011826639 0.09413469 0.005120674 -0.3418013 -0.21556662 0.13582903 0.41178113 -0.05699758 0.09850225 0.46799278 -0.14958844 -0.033907585 -0.15238447 0.09569541 -0.14816034 0.09695107 -0.19812766 0.34510484 -0.08029438 0.2842266 0.027870446 0.5169807 0.240792 -0.25271526 0.2621024 -0.19598988 -0.14534377 0.0002813833 0.16371788 0.16957216 -0.36541966 -0.06930929 0.14688614 0.072897166 -0.007941424 0.137065 -0.45757374 -0.28423923 0.071644925 -0.0011300517 0.03982523 -0.18106495 0.041270815 0.3656915 -0.49524632 0.18766376 0.13090938 0.06662279 -0.14655006 0.06574491 0.23525651 0.018015424 0.32924885 -0.055539615 0.18816422 0.22438239 0.295543 -0.2624738 0.5631479 0.05138502 0.118353255 0.15250044 0.010788217 -0.27251968 -0.04627567 0.19307712 0.22994266 0.26277977 -0.039619785 -0.034823142 0.23772492 0.008766456 0.37463123 -0.13505913 0.07444035 -0.014378354 0.11251343 -0.24187449 -0.1136431 0.020107519 -0.1828953 -0.13694112 0.39414465
959 0.14571281 -0.20232205 0.08338932 0.06961212 -0.19833837 -0.25269505 0.010266897 0.29099137 0.11833295 0.13499309 0.41820258 0.17548 -0.15020972 -0.12911658 0.17391004 0.11584915 -0.23569211 0.07487663 0.17411067 -0.03126205 -0.16354884 -0.26188427 0.16849977 0.6415337 -0.0056875153 0.13902181 -0.04191032 0.13343337 0.21557252 0.048972465 0.25431818 0.18822043 -0.22678228 0.43513808 -0.011101121 -0.373116 -0.6985722 -0.37070996 -0.20827736 0.24058254 0.31861836 -0.030218488 -0.0064674253 0.107306734 -0.47760406 -0.05117411 0.19391683 -0.06547183 0.21638595 0.15520366 0.2228553 0.12126368 -0.23501886 -0.4026029 0.34583172 -0.32282448 0.1430612 0.14148276 -0.14131053 -0.3235704 0.100303926 -0.45244345 0.040458288 0.26978275 0.25394514 -0.33560857 0.1381456 0.057602517 0.23372576 0.28535724 0.27694228 0.0037586766 0.11579605 0.27460814 0.10924738 0.0013490905 0.0005349289 -0.053143676 0.005665777 -0.13662995 0.12952438 -0.015702192 -0.31960064 -0.20225044 0.046959817 -0.08973114 0.15490007 0.15925469 0.29983315 -0.03613104 -0.15265748 -0.16013923 -0.5200489 0.12063683 0.23393919 0.024308946 0.2904549 0.19240826 -0.14214215 0.21493216 -0.32607976 0.24561338 -0.034041796 -0.5784435 -0.19569229 -0.20203891 0.06974038 -0.26067942 -0.031045932 -0.14799722 0.07292237 -0.048216578 0.08408142 -0.1605165 0.40739405 -0.0915223 -0.008983396 -0.04586717 -0.13437773 0.043887556 -0.20764752 0.11444378 0.0006010934 0.18600582 -0.12291047 0.04044473 -0.047170624 0.3948655
950 0.10971045 -0.13715044 -0.32908538 -0.10124745 -0.016838124 0.22360617 0.047973447 -0.05501472 -0.04913745 -0.30706596 0.18288285 -0.05698969 -0.13995972 0.38077527 0.1515456 -0.004898292 -0.12142834 -0.14698274 0.1440483 -0.08471609 0.40916884 -0.011334344 0.46246055 0.012957021 0.006047768 0.22960965 -0.29234052 0.13039899 -0.117331035 -0.07612643 -0.001145405 -0.1927063 -0.102678 -0.20599438 -0.71469873 -0.44901395 -0.25657248 -0.4682421 0.08956505 0.19427235 0.093925625 0.044844165 0.42719793 0.27018458 0.19550867 -0.15278189 -0.18066192 -0.091411814 0.05220501 0.04495673 0.24983461 0.04863772 -0.016279336 -0.17122887 0.2830235 -0.30242464 -0.22422436 0.2221007 0.11257335 0.00398509 0.41307563 0.37172398 -0.43873698 0.18629111 -0.16340335 -0.3933581 -0.041870136 -0.013880085 0.20220377 -0.19961055 -0.23461789 -0.0149668185 0.06106225 -0.12906672 0.13952766 -0.046741497 -0.07055535 -0.08728329 -0.13792047 -0.013232065 0.37539744 0.2550258 -0.06632089 0.07671112 0.11144984 -0.2651558 -0.2417203 0.15330948 0.32104668 -0.33355072 -0.070724376 0.054868635 -0.12165024 -0.22103971 0.05357662 0.09605427 -0.16471246 -0.27618873 -0.1535958 0.49907985 -0.07292386 0.20544259 -0.52860904 0.1658459 -0.17681706 -0.24435064 0.38867775 -0.03255574 0.0656089 -0.04777096 0.24929859 0.04588959 0.17574829 0.17043643 0.25191593 0.315694 0.07159237 0.14684275 -0.16519456 0.1188611 -0.1670684 -0.3719234 -0.029703885 0.13601378 0.07589026 -0.048454747 -0.12772445 -0.32417884
956 0.34004563 -0.14102785 0.11913404 0.079223886 -0.17009003 -0.3163752 -0.3564518 -0.12266185 0.11735572 0.15612039 0.16329448 -0.08267804 -0.061020296 0.034433313 -0.08811571 0.016261926 -0.3665227 -0.2226332 0.37026003 -0.24856694 -0.13049275 0.11613552 0.656367 0.15249321 -0.06874097 0.18131723 0.101713665 -0.1991966 0.27736196 -0.033657562 0.20735677 0.047666665 -0.43691152 -0.23106804 -0.28204525 -0.29057145 -0.2597282 -0.020967415 0.017901937 -0.065201916 0.28941822 0.1009668 0.15192372 0.25062233 -0.31407908 0.045424663 -0.17311195 -0.2816172 -0.2469624 0.1541209 0.32292935 0.039121795 -0.1963806 -0.27113554 0.3417084 -0.052663695 0.2641589 -0.05939915 -0.17570905 -0.09168096 0.2794138 0.12900572 -0.089138046 0.2353393 0.23428607 0.07261388 0.0346374 -0.08215295 -0.07554014 -0.042658582 0.17020066 -0.04721825 0.2922352 0.15783845 0.08214546 0.1492986 0.41316718 -0.12290434 0.20825264 -0.38595706 0.019182457 -0.0396692 -0.019480953 -0.2839084 -0.029489607 -0.18118156 0.058871876 0.56508 0.19199738 -0.076885745 0.24626596 -0.18848841 -0.3866436 -0.03159878 -0.03884294 -0.28679043 0.2693331 0.010761172 0.06480627 0.17242908 -0.2897472 0.6355501 0.045319933 0.06470909 0.34484506 -0.26245716 0.24205318 -0.023117261 0.025994636 0.03984224 -0.048887987 -0.019300181 -0.12118167 -0.16466083 0.3235171 -0.09324611 0.3712945 -0.15064712 -0.36087272 0.27972642 -0.13366537 -0.0047925333 0.009372287 0.44778213 0.07749743 0.2736224 -0.22638223 0.28733596
948 -0.10265302 -0.5303295 0.07641764 -0.005127855 -0.12323676 -0.25270057 0.07402035 0.14006786 -0.22310287 -0.0055309073 -0.024938 0.21845981 0.29440656 0.24816482 -0.11687804 0.21354088 -0.13068482 -0.18055263 0.16693239 -0.23318423 -0.119777285 0.11646579 0.3529399 0.15009478 -0.1339925 0.05997503 0.10936797 -0.029495439 0.22963892 -0.31594518 0.15178996 -0.08340366 -0.28801844 -0.036523063 -0.3709842 -0.0631386 -0.17223606 -0.28717846 -0.12571433 0.42797664 0.1268231 0.2409877 -0.099877894 -0.2145881 0.41995192 0.3680059 0.23999476 -0.027076643 -0.38252768 -0.034896903 0.2674417 -0.12372431 -0.2013757 0.008029296 0.44391087 -0.4950194 -0.07835702 0.13298322 0.22013693 -0.13019514 0.03961889 -0.23654386 0.34548587 0.24388394 0.25075856 0.2712397 0.17759003 0.18368857 0.0067457124 0.407353 -0.16119893 -0.3659882 0.01766885 0.29575014 0.107727796 -0.3555675 -0.037125815 -0.122248426 -0.031411275 0.050768264 -0.10049929 -0.22875363 -0.38026893 -0.09008653 -0.12454369 0.15887362 -0.16241129 0.23017772 -0.18587801 -0.22726975 0.1009435 -0.06632662 0.07575004 -0.2257944 0.018776208 0.38987517 -0.14988673 0.23145683 0.07983761 0.17147404 0.100317776 0.15568386 0.2690427 0.2509847 0.3816599 -0.2929096 -0.1305818 -0.16241388 0.080501445 0.15198874 -0.011136955 0.10889845 0.21449932 -0.24926001 0.22183512 0.20047411 0.044754528 0.23835455 -0.03228557 0.3009303 -0.085483566 0.36598438 -0.17305748 -0.12056035 0.08270388 -0.19000004 -0.069984145 0.21426153
946 -0.0218535 -0.07161345 -0.105769604 0.095620275 0.11460426 -0.16486403 -0.13948652 0.09436047 -0.043342013 0.020017706 0.062205788 0.20305945 0.08652214 0.50546217 0.030670516 0.0004907693 -0.4379055 0.21686943 0.2877065 0.27931753 -0.049501 -0.07651776 0.14587863 0.053217642 0.07950379 -0.078549035 -0.39137992 -0.3978199 -0.0642164 -0.33125922 0.0971223 -0.05669385 -0.15787663 0.3976321 -0.3438846 -0.030506313 -0.46852717 -0.22735316 -0.15183683 -0.2307836 -0.27420193 0.4553884 0.072747156 0.2926061 -0.10295173 -0.042686842 0.012279018 -0.2397131 -0.4019618 0.2989734 -0.037048534 -0.027337253 -0.67005706 -0.1510134 -0.15662682 0.21628463 0.34808794 0.19509703 0.49564293 -0.019883145 -0.2714289 0.32345816 0.020924792 0.21173176 0.026921123 -0.28476515 0.21996234 0.2643472 0.27285427 -0.08007562 0.17759109 -0.09174689 0.45172235 0.20207188 0.048699483 -0.014238984 0.2167856 -0.19862549 0.044710986 -0.09325212 -0.0077427677 0.4279499 -0.11664304 0.2044995 0.004986799 0.016410243 -0.4356418 0.07102561 0.007302906 -0.057255924 0.095314346 0.0031351333 -0.18815409 -0.1349144 0.2123344 -0.19761805 0.094827875 0.4215922 0.1238963 0.027539283 -0.3863193 0.115022 -0.09268347 0.1249986 -0.00044320908 -0.1647643 0.12392303 -0.03771225 -0.02945487 -0.15249951 0.25440437 0.13190496 -0.1130396 -0.31406012 0.21584825 0.18604863 0.11336287 -0.13393094 -0.077879556 -0.111364745 -0.117485106 -0.124070086 0.027298274 -0.18009552 -0.10341686 -0.19788589 -0.009912725 0.059062988
951 0.31759286 0.061349202 -0.07099101 -0.07796935 -0.052110173 0.3645059 0.094686925 -0.08945885 -0.14989723 -0.40660694 0.2958653 -0.1283811 -0.058421478 -0.015259065 0.1473339 0.17518096 -0.2509092 0.31593648 0.2044648 -0.26007944 0.038533628 0.15314406 0.0753203 -0.18704408 -0.3389324 -0.010025033 -0.024667285 -0.25642037 0.27033815 0.11307305 -0.3151766 -0.07813332 -0.20862418 0.015562564 0.23107244 -0.15423745 -0.37565514 -0.42588812 -0.0071685477 -0.16566367 0.11925028 -0.09087508 0.23544796 -0.2817602 -0.27484077 -0.035210256 -0.024709992 0.09989225 -0.14019427 0.4325876 -0.060819212 0.055812426 -0.36485568 -0.43388736 -0.059554815 -0.2324237 0.11125265 0.19602627 0.23006184 -0.28606522 0.23185542 0.16191094 -0.39770448 0.12513766 0.15814611 0.04297445 0.34899324 0.27659848 0.21867594 -0.1751497 -0.24520388 0.13463925 0.20010763 -0.4228749 0.5006154 -0.05979735 0.19559628 -0.15467821 0.1164824 0.3143625 -0.018594189 0.09426651 -0.24534224 -0.08806026 0.14320678 -0.30845052 -0.34410733 0.12514865 -0.14893274 -0.11500545 0.3306861 -0.36164895 -0.08250699 -0.21392669 -0.16107613 0.27276742 -0.009144765 -0.26542652 -0.13214555 0.20209914 0.21617657 0.3046254 -0.29701573 0.08438998 -0.10604404 0.11986282 -0.07001932 -0.22974798 0.07425542 -0.11094094 0.17737666 0.100248314 -0.2792931 -0.31714442 0.022592213 0.47569004 0.31337205 -0.03236595 0.21854287 0.43938825 0.11779548 -0.2742552 -0.26883093 0.21193725 0.12551895 -0.017224763 0.23444887 0.034951754
952 -0.046005506 0.119919255 0.12724559 -0.057665717 -0.28400564 -0.3568606 0.24412386 0.044447035 0.11415365 -0.10138291 0.19023061 -0.3252058 0.12208894 0.35304734 -0.026691617 0.14514391 0.083993524 -0.049408708 0.19452795 -0.16521549 0.31643057 -0.026790578 -0.012382559 -0.05553849 -0.023838364 0.38973185 0.11295884 -0.19248977 0.00858252 0.36787146 -0.21154965 -0.15897344 -0.15173647 0.12572807 -0.093298845 -0.14155485 -0.29636002 -0.6461833 0.40727144 -0.033902608 0.09069339 -0.06535923 -0.07448549 -0.0015768548 0.087984696 0.09289627 0.5056785 -0.28349894 -0.09522436 0.19677828 -0.29220247 -0.15666492 -0.07540239 -0.06295077 -0.010311204 -0.12767494 -0.03229804 0.13763371 0.32423636 -0.09291623 0.5376829 -0.2303845 -0.05849738 -0.3128779 -0.06367915 0.15193582 0.018447956 0.051233612 -0.07263813 0.41673684 0.13102712 -0.24844961 0.086631164 -0.02711913 0.12689753 -0.11043613 0.07549884 -0.14148371 0.080389515 0.07360346 0.13263074 -0.13470873 0.21617559 -0.19152501 0.15875424 -0.41771472 0.10047796 0.15199381 0.15365252 -0.15182933 -0.04870218 -0.29741892 -0.18431973 -0.38421285 -0.004089532 -0.1607988 -0.06183609 0.25655806 -0.09313221 0.49457914 0.0004688391 -0.124939926 -0.10397807 0.30566844 0.3226671 -0.23480606 0.20056307 0.15982045 -0.22754107 -0.3214296 0.021706384 0.002915219 -0.36890584 -0.009190487 -0.21341036 -0.17412615 0.020980852 -0.067790665 -0.12358429 -0.005852638 -0.06708907 0.2209667 -0.0022297483 0.3351771 0.23266262 0.12777436 -0.2339651 0.060651768
987 0.4054972 0.32368585 0.32849202 -0.26441348 0.07053152 -0.24480781 0.1270915 0.21692097 0.16963959 -0.09237423 0.07396257 -0.33117393 0.14802633 0.055776957 0.41368282 0.140274 0.036986522 0.42487648 -0.09073812 -0.20092629 0.17099918 0.29397908 0.7004464 0.27719212 -0.11309681 0.06151429 0.19942127 0.1598647 0.22058377 -0.1438193 -0.26378357 -0.00038088148 -0.27879274 0.30542228 -0.37510362 -0.17389373 -0.8240401 -0.074051164 0.002211314 0.32807 0.253429 0.18871978 0.11124887 -0.19360903 0.098934375 0.020998828 0.12299367 -0.02789357 -0.118114725 -0.047013476 -0.05273907 -0.09592303 -0.03594906 -0.13647078 -0.031387553 -0.14368433 -0.29599258 -0.23334436 0.12837344 -0.067834325 -0.070812166 -0.013193209 0.40160114 0.0958749 0.2082013 -0.04938738 -0.19628313 0.00035124688 0.13021097 -0.103933856 0.16094658 -0.15767142 0.076565996 -0.23594919 -0.25666833 -0.17411552 -0.1415529 -0.29352674 0.34363827 0.33828428 -0.18337785 -0.20819469 -0.04805704 -0.009562492 -0.25586993 -0.4685714 0.1020136 0.19101055 0.06762313 -0.18635654 -0.23777664 -0.17021756 -0.11868534 0.09213682 0.115980044 0.002328524 0.053248454 0.269434 -0.28896224 0.13831824 0.032923874 -0.1729027 -0.28760213 0.30316764 0.21124202 0.03167177 -0.14545685 0.11713476 0.36272845 -0.36260504 -0.0012064904 -0.10983892 0.17676029 0.15964451 -0.07441173 -0.05395608 0.28637895 -0.15790406 -0.20809302 0.0024950455 0.32008976 -0.091112345 -0.105793394 0.052094437 0.33520126 0.14916196 -0.02990764 -0.045856982
966 0.16654499 0.07320698 -0.3811032 -0.023089712 -0.080853075 -0.05155461 -0.18155394 -0.1632651 -0.07859947 -0.051055416 0.100621894 0.27902597 -0.23924436 0.04868945 -0.27947092 0.22528991 -0.063899785 -0.21560177 0.35797113 0.009130362 0.25238538 0.35836437 0.26362854 0.101229645 0.37974837 0.053240508 0.079446144 -0.33650827 -0.08919641 -0.18083787 -0.06146953 -0.2533312 -0.103667215 0.28606358 -0.4061437 -0.31638482 -0.11075796 -0.18289222 -0.039742354 -0.43846485 -0.062386163 0.31853485 0.17387846 -0.16699536 0.056024257 0.087716684 -0.18997654 -0.100460574 -0.06270153 0.15429042 0.24372858 -0.056604464 -0.28383383 -0.18441741 0.24895892 -0.13212538 -0.5573462 0.051959302 0.0052304994 -0.5134418 0.2496917 -0.044492282 -0.004279267 -0.26859567 0.46690467 0.16849294 0.43782374 -0.11233308 -0.04901054 0.086749375 0.01655009 -0.31379387 -0.16460685 0.23277009 0.1600374 -0.05400289 0.21691114 0.28744495 -0.25154832 -0.24767753 -0.079234555 -0.07242064 -0.059486676 0.25463536 -0.16756831 -0.055106904 0.14578529 -0.03929966 0.18833151 -0.017403608 -0.04246422 -0.39732406 0.052250933 -0.052571774 -0.1992989 0.15166575 -0.007260151 0.32100642 -0.46666557 0.25376278 0.09649105 0.005953209 -0.22306369 0.2640306 -0.07258156 -0.12308469 0.022783902 0.18423355 -0.18733445 -0.39083803 -0.14884469 0.12818834 0.053934276 -0.2549156 0.4546223 -0.049236763 0.55636305 0.06416008 -0.044795997 0.19683538 -0.49731958 -0.084927075 0.25368723 -0.19285725 0.05353021 0.16002537 -0.4061273 -0.0006983881
965 0.20976901 0.31372195 -0.30938056 0.25505412 -0.012278667 0.12543122 -0.2728761 0.1250997 -0.4410358 -0.053351782 0.037944492 0.14178497 -0.1880504 0.12929757 -0.20844483 -0.041057806 -0.023303498 0.16723228 0.28888154 0.23623666 0.26071665 0.4658381 0.17219406 0.33356044 0.02727922 0.23204699 0.0023037542 -0.08009673 -0.2232258 -0.3120739 0.081989765 -0.302507 -0.07823339 0.17330423 -0.26613438 -0.35497946 -0.3075815 -0.29449353 -0.15335259 -0.3217795 0.07786926 0.3532406 0.40276366 -0.1821192 0.24531873 0.07214674 0.022908673 -0.23259264 -0.2986563 0.39680922 0.04913856 0.16791433 -0.3675353 -0.28898665 0.4025382 -0.17152268 -0.34926504 -0.027273983 -0.0033923225 -0.41434023 0.15419932 0.15387084 0.32864797 0.072918236 0.2983278 0.09595092 0.21639836 0.10835041 0.0770647 -0.13452831 -0.09866439 -0.30891207 0.118512794 0.16366285 0.10283764 -0.18110913 0.09212713 0.42783108 -0.22725908 -0.18090916 -0.14796852 -0.14684497 -0.33520114 0.0037617772 -0.1288498 0.021167103 -0.05410143 0.14536467 0.26878923 -0.13328162 -0.027624138 -0.056991164 -0.05101144 0.023478236 -0.04066294 0.122113846 0.02114764 -0.069052726 -0.27259836 0.10035613 0.2839812 0.019038852 -0.034632146 0.1160841 -0.22551097 -0.31822407 -0.09665608 0.18770793 -0.21926391 -0.14092444 -0.16130573 0.12638152 -0.09732776 -0.11609469 0.22942296 0.022789506 0.46697548 -0.006331087 -0.28687784 0.27856767 -0.14018105 -0.06003214 0.40238827 -0.062196683 0.10250026 0.31820703 -0.15116437 0.0607086
947 0.22187603 -0.08352572 0.1648741 -0.49574015 -0.25608513 -0.020362215 -0.13623711 0.09167541 0.115279846 0.019939821 0.3021445 0.33839938 0.108266234 -0.06533431 0.056932006 -0.07270188 -0.23510882 0.26618424 0.6609687 -0.47442907 -0.11268271 -0.08460137 0.20576836 0.16005495 0.07098321 0.27950928 -0.018484592 0.086179756 0.2263872 0.096401386 -0.13052797 0.07242219 -0.5042201 -0.070413046 -0.46324655 0.22402072 -0.17224216 -0.0550644 -0.06930704 0.39380908 -0.07004988 0.26305276 0.16357131 0.0204433 -0.46018758 -0.3859621 -0.09181154 -0.2765649 -0.28656745 0.16654284 0.0018655241 0.08070468 -0.1875547 -0.0934837 -0.15779957 -0.21581955 0.16341397 -0.022220239 -0.05397656 -0.27968037 0.061988104 -0.096594654 0.03789877 0.16178834 0.18616337 0.05336921 0.35599348 -0.13874117 0.26070642 -0.14729944 0.14999267 -0.069664426 0.1469169 -0.10353631 -0.09674969 -0.24185036 -0.118298724 0.12777671 -0.5231855 -0.015253 0.22503993 0.0055636507 -0.015340596 -0.4104779 0.19445513 0.013708513 -0.13100214 0.4746295 0.22768585 -0.31128487 0.002329037 -0.089099854 -0.36323664 0.19041507 0.074876696 -0.12942952 0.008399568 0.22371367 -0.067643285 0.02836727 0.0739108 0.4759434 -0.19530599 0.27723268 0.036533512 -0.11191729 -0.09207658 0.06431914 0.3888982 0.06609587 -0.10724158 -0.30088747 0.18031722 0.16432038 0.16739498 -0.036761142 0.28052953 -0.0069112056 -0.21605337 -0.079029314 -0.025392119 -0.044388637 -0.060078505 0.407552 0.30004165 0.540079 -0.3137004 -0.10847129
944 0.23823807 -0.1292633 0.034296356 0.07902077 -0.3415795 0.15393156 0.00751642 -0.16286428 0.16873552 -0.1708497 0.0035749297 0.08461157 -0.049755536 0.43928888 0.28015754 -0.09319896 -0.21801266 0.20248154 0.19944306 -0.20297863 0.30796233 0.011425136 0.03593593 0.24078068 -0.45940614 -0.045390356 -0.026391488 -0.52684397 0.26562726 -0.108566396 0.049681913 -0.2305203 0.1619841 -0.19279677 -0.5182088 -0.10527667 -0.27885255 -0.24812558 -0.12291243 -0.30973607 -0.15416105 -0.029179396 0.015138115 0.07064722 -0.3346397 0.22619008 -0.27810866 -0.16310968 0.15718599 0.30397853 0.18233651 -0.39864284 -0.08353369 0.22439888 -0.11470285 -0.0038846969 -0.13531329 0.29169822 0.29099715 0.011045845 0.16608123 0.0571804 0.32798523 -0.05770939 -0.027582685 0.1297505 -0.26861927 -0.17139222 -0.038476486 -0.29661003 -0.08995681 -0.09640684 0.42820638 -0.42745072 0.089482136 -0.25374842 0.08412758 0.05877554 -0.13400933 0.40684038 0.044601455 -0.12626651 -0.4316349 0.30711982 0.21324012 -0.18880169 -0.046430506 0.40607455 0.20139319 0.021295989 -0.019686492 -0.29461372 0.03067567 0.13332686 -0.13634576 0.2463071 0.3549402 0.5108671 0.09916618 -0.123873025 -0.35101128 0.36325514 0.07910952 0.02215672 0.112282135 -0.16895774 0.0114265205 -0.14470406 -0.19019675 0.026763458 -0.07895307 -0.11657616 0.00041647465 -0.12843902 0.07565779 -0.03848018 0.2903623 0.0554622 -0.1918872 0.28245115 -0.01128046 -0.047303416 0.11041158 0.20121454 0.1955824 0.29667294 -0.01607132 0.04240996
940 0.2482266 -0.22730084 -0.20350267 -0.094622485 -0.003985435 0.039507575 0.36469907 -0.027372375 0.09667599 -0.087985076 0.28848252 0.039373446 0.13250457 0.20305938 0.33306044 0.1559366 -0.353255 0.39994183 0.18737695 -0.20129007 0.557829 -0.084747955 -0.0006516668 0.049183168 0.20834666 0.13730969 -0.06601449 0.39687818 0.18490762 0.14316176 -0.022873899 -0.015872534 -0.31422022 -0.21113795 -0.4025643 -0.3578461 0.032327507 -0.5086474 -0.024222018 -0.3768088 -0.030845558 0.28238454 0.5015405 -0.34349927 -0.051001724 -0.031043764 -0.21942736 0.067920946 -0.008577348 0.06033501 -0.0009865243 -0.052666817 -0.081784435 -0.11962599 -0.33858252 -0.03502538 -0.08870525 -0.08230743 0.4854571 -0.04047943 0.34471846 -0.0040469575 0.1540277 0.20183857 0.26077923 -0.14103007 0.061071232 0.30595285 0.033364266 -0.25976446 -0.054180734 -0.2768521 0.11580816 -0.10842079 -0.35043362 0.0065287435 0.3554516 -0.0915185 -0.12586956 -0.21011974 0.098206714 -0.4067751 -0.12966605 0.104103036 -0.106602 -0.16039605 -0.3857403 -0.1848294 0.025759712 0.1777657 -0.015673475 -0.28444606 -0.27450535 0.08479901 0.04903893 0.017826807 -0.35525328 0.0948329 -0.24308085 0.2637254 -0.21593703 0.13054778 -0.23685043 0.18280119 0.018625515 -0.19310679 0.4136998 -0.08261483 0.13991152 -0.053850483 0.028643884 0.22856896 -0.3531064 -0.031200627 -0.10936304 0.059417214 -0.14712185 0.09354089 -0.28964671 0.20235239 0.16383362 -0.14363551 0.29407063 -0.12591228 0.27751803 0.31042948 -0.04709061 0.29347417
932 0.13155758 -0.123182856 -0.15684654 -0.044146642 -0.090237126 -0.08872954 -0.390983 -0.03712185 -0.013008377 -0.37893665 0.15003894 -0.11435672 0.011608489 0.472862 0.17777762 -0.083542995 -0.22494341 -0.13707085 0.30168766 -0.10623779 0.22797784 0.003608493 0.49310663 0.004630441 -0.0024583018 0.37373912 -0.058502126 -0.25304854 0.13487336 -0.038931895 -0.0666246 0.0989706 -0.1587552 -0.10880541 -0.6037752 -0.43618464 -0.3091383 -0.5708693 0.16409688 -0.01664469 0.093753636 0.1951021 0.17877741 0.08180854 -0.025845766 -0.32361966 -0.1206645 -0.071654476 0.18323788 0.19432968 0.16450782 -0.3200058 -0.14991315 -0.11768236 0.2023572 -0.0978037 -0.52386373 -0.13472188 -0.023681216 -0.036850475 0.14888771 0.43386015 -0.16099374 -0.19999976 0.097317964 -0.31139436 0.12143965 -0.38961816 0.12226571 -0.08772077 -0.24300405 -0.044305693 0.19846718 -0.32013193 0.124554686 0.2292074 -0.17245194 -0.17000872 -0.16804905 0.19248186 0.036632072 0.28931847 0.13839123 0.15519811 -0.10187297 0.022232527 0.023297725 0.12950605 0.1772124 -0.34225008 -0.095545 -0.1363029 -0.1788201 -0.30081224 -0.011274934 0.11464113 0.14735526 -0.18940136 -0.2057651 0.25610858 -0.21359971 0.16625302 -0.3838291 0.26276562 0.13682197 0.062112868 0.46439838 0.18223347 0.16776735 -0.14782816 0.36387703 0.20959254 0.43419203 0.16855481 0.061574213 0.28620917 -0.20316567 0.042313963 -0.043896697 0.097908944 -0.2860046 -0.15994747 0.09634443 0.011637167 0.061727155 -0.064271785 -0.27397695 -0.26203418
962 0.25375658 -0.035314683 0.36009407 -0.025678504 -0.06268579 0.041237444 0.020751113 0.034943674 0.08491535 -0.24836002 0.21856809 0.34551162 0.27706105 0.37018046 0.33755845 0.14850447 -0.050632097 0.31498757 -0.04999355 -0.14736308 0.25452194 0.30231786 0.21202695 -0.105023675 -0.19292557 0.5265094 0.25471523 -0.48556614 -0.3964989 -0.47385314 -0.16330838 0.03704353 -0.016352285 0.13902994 -0.36962327 -0.17866474 -0.43419608 0.11143576 -0.08249603 -0.1168818 0.07479331 -0.13449988 -0.17087159 -0.076107815 0.009641748 0.09889712 0.43644622 -0.28224537 -0.046313927 0.22162655 -0.01893153 0.110163465 -0.48791268 -0.09187798 0.09068205 0.1725689 -0.3723597 0.21164112 0.124430194 -0.16370292 0.08498082 -0.17639288 -0.01767798 0.23797828 0.18466921 -0.09596935 0.41908416 0.31154278 -0.017747352 0.14067495 -0.23004562 -0.19128415 0.18149526 -0.34612748 0.18811731 -0.17111538 0.28653827 -0.29570407 0.12070661 -0.124878414 0.038777962 -0.14782794 0.03404303 -0.043222986 -0.036433976 0.14223155 0.21163568 0.29131472 -0.08992175 -0.42978948 -0.28761977 0.0045652795 -0.07432286 -0.08645081 -0.036738623 -0.014632227 -0.3363595 0.42770287 -0.22816652 0.18867123 0.3608799 0.17316248 -0.2633505 -0.17469572 0.006909086 -0.31051704 0.32382584 -0.12913522 -0.08350104 -0.1505026 0.12825133 0.07984758 0.16885684 -0.11937617 0.3434789 0.31857213 -0.22293052 -0.26393878 0.20030256 0.15884514 0.081650555 0.2939597 0.08086366 -0.0055029104 0.06590623 -0.14263585 0.29415706 0.4096204
942 0.17219506 -0.03144068 -0.2831641 -0.39438552 -0.10022184 -0.30252606 0.2759854 0.0018341503 -0.03245417 0.30475062 -0.09914414 -0.0777259 0.14516145 -0.045782093 0.47534615 -0.028277107 0.20184276 0.102735095 0.25130415 0.053157553 0.08875173 0.18242395 0.1593107 -0.2711628 0.22974485 0.16762596 0.2061055 0.054146875 -0.16666876 -0.43035698 0.057033043 -0.018930566 -0.04488839 -0.057325356 -0.45699444 -0.35286918 0.021492364 -0.6830889 -0.09415376 0.28397784 0.044766586 -0.048877433 -0.09427333 -0.100386426 -0.08393332 -0.33163363 0.18248431 -0.064759314 0.08649386 0.36967742 0.25054026 -0.49135378 0.033356853 -0.26651347 0.095446914 -0.08074274 -0.094293475 -0.33735058 0.09612173 -0.18179597 -0.01855687 -0.112489335 -0.14309835 0.114483625 0.09075872 0.15218824 0.532911 0.26312226 0.08490607 -0.13160072 -0.047963563 -0.04760583 -0.119439416 -0.07771303 -0.04386742 0.10938698 -0.014757392 -0.20772187 0.15724789 0.40602964 0.16518848 -0.09928771 -0.28608808 0.1301207 -0.09274053 -0.17337508 -0.16165449 -0.1685868 0.03018711 -0.03431563 0.111196056 0.11411866 0.0031657256 0.0043257237 -0.11165425 -0.2506807 0.44902325 0.20180626 -0.2304972 0.0030908212 -0.07274661 -0.04963836 0.3732694 0.28233406 0.15073715 -0.38242805 0.11689239 -0.029245751 -0.41405508 -0.17919576 0.12875319 0.21849038 0.20429942 -0.22072043 -0.11835721 -0.033187058 -0.07969184 -0.16197757 -0.584611 -0.17794935 -0.36352262 -0.27338365 -0.31164348 0.22092696 0.117383346 -0.27677572 -0.057041574 0.23306696
939 0.059125323 -0.119796365 -0.3781477 0.14316079 0.10655846 0.096941374 0.252006 0.05869597 0.0011944312 -0.04649079 0.08042479 -0.12493294 -0.14117289 0.34820622 -0.02368406 0.28591913 -0.13698092 0.36960545 0.29381856 0.28683788 0.08874352 0.006745865 0.37825525 0.21814321 -0.06457748 0.07812964 -0.22497611 -0.3330465 -0.14655031 -0.11692022 -0.14383045 -0.30385092 -0.029262379 0.3589658 -0.31765792 -0.06552046 -0.48074326 -0.046610236 0.23834561 -0.1872011 -0.34429964 0.28126025 0.12876986 0.23263915 0.03744022 0.18325318 0.11630984 -0.074257284 -0.3319179 0.30866766 0.43610165 -0.05653601 -0.2993046 0.04766355 -0.031495415 -0.32036728 -0.112230755 -0.43441507 0.45240003 -0.0758705 0.045045637 -0.11767091 0.21651444 -0.044684347 -0.15260795 -0.34025893 0.27211654 0.4554392 0.1652384 -0.09711779 0.08594234 -0.049328268 0.27298695 0.13496126 0.0074511804 0.39906088 -0.0613076 -0.11725392 -0.30516234 0.058113817 -0.009763234 0.12787871 -0.07326789 -0.006235095 -0.2543439 -0.1902348 -0.08354701 0.16840294 0.310175 -0.52484727 0.0039323135 -0.08955889 -0.28120193 -0.14333868 -0.05795246 0.075912684 0.025269987 0.27003998 -0.3569172 -0.31095746 -0.20401117 -0.13208297 0.17145118 0.016880445 0.1442812 -0.27283216 0.029483376 0.14172941 0.028229337 -0.016594468 0.094359264 0.19390702 -0.2918304 -0.20095369 0.07721145 0.080567546 0.12769768 -0.097555466 -0.2716862 -0.01816226 -0.16737261 -0.074073195 0.06137043 -0.039312556 -0.22602497 -0.2549111 0.08044696 1.7401282e-05
941 0.10495291 0.26822597 -0.2532582 0.11447451 -0.0036247747 -0.3755945 0.124246046 -0.16659291 0.11256359 -0.26789698 -0.07116644 -0.33901566 0.12765159 0.3771712 -0.19395451 0.17264464 0.06992731 0.062785774 0.2010832 -0.16113184 0.29444873 -0.10884114 -0.09462696 0.0878594 -0.10366418 -0.012289448 0.19175123 0.063976035 0.039543383 0.040776808 -0.09700116 -0.16070367 -0.28876758 -0.06815218 0.13283183 0.047792032 -0.1790075 -0.25662282 0.2778417 0.034309044 0.21099047 -0.063883804 0.1429175 0.17169458 -0.10280141 0.13647738 0.33440775 -0.019417927 -0.30274463 0.35984924 -0.18880558 0.011171277 -0.67140806 0.16534217 -0.015008302 -0.22212881 0.041754752 0.101395875 0.20410734 -0.07892893 0.40874714 -0.09231976 0.18328571 0.014219076 -0.09382787 -0.047124002 -0.15362044 -0.019662539 0.23150419 0.16563366 0.09268457 -0.295663 0.09117198 -0.18969406 0.15675668 -0.24828799 -0.0636348 -0.1798199 0.14231524 0.3945652 -0.036805164 -0.13799748 -0.010161687 0.10674244 0.14008479 -0.5721307 -0.10305321 0.27340534 0.20515966 -0.298273 0.21114872 -0.21538714 -0.09665584 -0.21241537 0.27422658 -0.10199618 -0.1832658 0.03611417 -0.5246032 0.5043644 -0.18007089 0.06418581 -0.14493778 -0.046367455 0.057690702 -0.36289814 -0.15642825 0.25816405 -0.18705657 -0.031876344 0.24997027 -0.041998334 -0.17930408 0.26310962 -0.047329444 -0.043694437 0.23939924 0.073084496 -0.24989903 0.21658508 -0.2004854 0.12248498 -0.002519048 0.506428 0.23434734 0.064041175 -0.1300893 0.28708184
933 -0.029479884 0.29521936 -0.053227592 -0.12197381 -0.09175383 -0.2454204 0.2184977 0.01415436 0.28918734 -0.3358517 0.17120221 -0.21442509 0.17873044 0.33879122 0.043485295 0.023075446 0.04254337 -0.10908356 0.2572697 -0.25017 0.29434505 0.07362675 0.2095183 -0.18815888 -0.13897173 0.10906583 0.24121134 0.006666668 0.102756634 0.17647925 -0.09291221 -0.39222836 -0.1207116 0.2493451 -0.15860991 0.13456962 -0.23040338 -0.3395915 0.41698068 -0.0865629 -0.20008165 0.18255474 0.14650129 0.15401728 -0.024407001 0.14684695 0.26767012 -0.28354532 -0.014637094 0.21413971 -0.22911164 -0.12145197 -0.30928195 -0.15926483 -0.050933402 -0.44760647 0.07300601 0.040507406 0.038346868 -0.34972242 0.26856822 -0.18279998 0.0055877143 -0.1693053 -0.12582715 -0.08843507 -0.19480343 -0.2950197 0.08686813 0.25712526 -0.20191503 -0.20422098 0.1580591 0.14105295 -0.025471594 -0.35353252 0.112541385 -0.27023685 0.11230548 0.5062542 -0.10453818 -0.11185669 0.17106105 -0.0073403325 0.008666911 -0.40699503 -0.12895246 0.09649095 0.17370431 -0.1550069 -0.0393982 -0.08377134 -0.21270974 -0.33069247 0.27334094 -0.32646257 -0.1696159 0.114703886 -0.23754567 0.62327397 0.04985995 0.2540926 -0.38864753 0.07673248 0.15336107 -0.30279392 -0.106448285 0.3904721 0.14336163 0.034974236 0.34033448 -0.19228172 0.030384598 0.033807144 -0.010164623 -0.1267832 0.004203108 0.41648772 -0.28492752 -0.030808717 -0.3946532 0.027974296 -0.08378871 0.325371 0.20997488 -0.07304807 -0.21128641 0.20422761
930 0.24522886 0.24047194 -0.06927056 -0.045222845 -0.3112535 -0.05767382 0.23707052 0.60149235 0.30427307 -0.18492107 0.21262605 -0.38362327 -0.31548855 0.124230556 0.20319788 0.26240528 0.05944873 0.07266621 -0.23189354 -0.2176082 -0.3096274 0.2709336 0.08329028 0.11974827 0.3284768 0.092599116 -0.16569635 0.016086752 0.062061366 0.2289168 -0.3101386 -0.11812397 -0.17397246 -0.10285561 0.026506498 -0.05323138 -0.39478308 -0.5928657 -0.08449955 -0.08935171 0.066025466 -0.091604136 0.19823475 -0.53965193 -0.389543 -0.109495476 0.012910312 0.2739402 -0.38314387 0.18797234 -0.028669186 -0.07265892 0.09877731 0.12589274 -0.16954444 -0.13875219 -0.07684161 0.110258915 0.20694508 -0.4139812 0.23704055 -0.109462306 -0.054173652 0.29353595 0.36125982 -0.25473526 0.401961 0.021886116 0.049777873 -0.06115505 0.06293849 -0.18152371 0.5349113 -0.104528576 -0.19943827 -0.05121405 0.22652097 0.16136716 0.24714768 0.18671106 -0.10876137 -0.2545812 -0.34614813 -0.0768058 -0.1024267 -0.091522045 -0.3703879 0.049144287 -0.011220735 0.04848942 0.38964143 -0.19122778 0.011373126 -0.39808637 -0.13618614 0.17001845 -0.07701242 -0.038571585 -0.2950953 0.16502051 0.11907605 0.34212846 -0.20618154 0.108349934 -0.11957918 -0.36047783 -0.3229162 0.030438676 0.03963963 -0.23219572 0.054716162 0.1865862 -0.05693869 0.2518516 -0.100947306 -0.025502024 -0.0026605474 -0.026131483 0.21573083 0.24290566 0.071975216 -0.099616714 -0.2698998 0.0036683327 0.30271596 -0.22264077 0.30216306 0.11452534
936 0.1612152 -0.26870596 0.23548362 -0.2390881 -0.25312272 0.076386966 -0.15798868 -0.22873206 0.10753983 -0.13079807 0.4812622 0.4009696 0.09436003 -0.11565977 0.25632444 0.024578795 -0.30794117 0.07152089 0.28691542 -0.25065282 0.21434394 -0.04243025 0.10722994 0.28835312 -0.23571357 -0.09784012 0.21609865 0.12672864 -0.14879365 -0.1595087 0.110794306 -0.25354806 -0.30627745 0.45272338 -0.08194028 -0.20631723 -0.28240243 -0.1969048 0.27562195 0.20550103 -0.22276452 0.06312786 0.0021190625 0.07456962 -0.32588485 0.003319009 0.018658256 -0.1761244 -0.08378584 0.026131136 0.22303979 -0.050990377 -0.24815026 -0.30157107 -0.03321477 -0.13259974 0.22848323 0.14886825 0.09927186 -0.3152051 0.43950924 -0.31874573 0.02625935 0.25928965 0.15707889 -0.11835881 0.13720582 -0.11241498 0.20711805 0.24837863 -0.11801032 0.014025174 -0.1308842 -0.011067281 -0.08198886 0.21682572 -0.020405963 0.046005946 -0.21481471 0.10726668 0.14107464 -0.18732351 -0.38827282 -0.2101619 -0.04378128 -0.044454828 0.13611455 0.14817475 0.30217224 -0.03503553 0.09006806 0.117973045 0.12820044 -0.07541464 -0.067476556 -0.33208755 0.2891305 0.10634179 0.28842205 0.0633848 -0.19389442 0.233982 -0.4483267 -0.23456652 0.18084757 -0.51285815 0.17185436 -0.10103293 0.5285272 0.0508428 -0.03508092 0.18286704 0.23011228 -0.28847566 0.23899701 -0.29749498 -0.2136085 -0.0523999 -0.3897547 -0.2744329 -0.14315262 -0.17209229 -0.4427149 0.027465774 0.055441268 0.020598924 -0.2402072 0.04992349
935 0.41187692 -0.26165614 0.045713674 -0.36168572 -0.41170385 -0.03320054 -0.19031899 -0.028875507 0.034301072 0.025639964 0.2710001 -0.048043456 0.10210638 0.2118248 0.15731777 0.3734868 0.018750252 -0.23819162 0.24689142 0.04773246 0.08188827 0.20281363 0.039811794 0.076705866 -0.03711609 0.11310008 0.07158372 -0.13155745 0.28915218 -0.19502927 -0.07537939 -0.1820249 0.04936845 0.02755457 -0.25017196 -0.28866777 -0.50708455 -0.26999885 -0.2130084 -0.3231903 0.08572183 -0.3621413 0.046046853 0.153257 -0.17577037 -0.15237753 0.16802317 -0.18854015 0.071449496 -0.26329118 0.10406071 -0.19869153 0.031607445 0.2390704 0.008301998 -0.15568693 -0.18784884 0.34731427 0.3565236 0.012901711 -0.015562422 -0.15736824 0.60528785 -0.026948774 0.069091804 -0.06945545 -0.17482634 -0.12520741 0.25079796 -0.23838983 -0.2086295 -0.45287973 0.4222094 0.02582843 0.019100253 -0.023586703 -0.26155272 -0.14553908 -0.056949373 0.49488556 -0.1345047 0.27696672 0.021731721 0.12865677 0.20955439 0.5004291 -0.07699661 0.07035311 -0.15337884 0.20200749 0.07065061 -0.28572935 0.14503317 0.033674143 0.26387346 0.38565758 -0.16298401 0.25421846 0.07387485 0.3368896 -0.36656287 0.12125824 -0.09374627 0.2757027 0.23586483 -0.06446694 -0.22339065 -0.26829976 0.048236758 -0.11216721 0.11482683 0.14423192 0.22456188 -0.31270665 0.2533709 -0.08969068 0.084664755 -0.028767433 0.24611709 0.12152562 0.011947008 -0.22557889 0.13244534 0.20736067 0.34282234 0.16953535 0.00019394369 0.14064576
931 0.1622218 0.062109172 -0.17057347 -0.26678678 -0.27599126 -0.00514766 -0.22453523 0.16649361 -0.2378205 -0.05622042 0.23433357 -0.063240305 0.30876425 -0.10504894 0.21316016 -0.10157653 -0.050335195 -0.15791084 -0.015813874 -0.25576562 0.17154106 0.50111437 0.15857793 0.3423009 -0.014661847 0.30303642 0.2644116 0.26845628 -0.09513521 0.11639164 0.22520624 -0.136991 -0.04098206 -0.119399026 -0.092467815 -0.51118445 -0.37050334 0.07458085 0.1523722 0.12933841 0.32157314 0.38086775 0.30433136 0.25107655 -0.059501216 -0.11768722 -0.22588056 -0.2676839 0.021073313 0.29296628 0.02354156 0.17851229 -0.23272447 -0.08019647 0.28835434 -0.25160587 -0.11426736 0.22622229 0.04876115 -0.039093982 0.16434146 -0.12301556 0.23712583 0.25734636 -0.02180717 -0.35946652 0.31146032 0.06691394 0.0022890535 -0.07541099 0.10309928 -0.04105551 0.29931018 0.16219085 0.2568119 -0.030987868 0.6365126 0.11339103 -0.4356985 -0.028534431 -0.07462768 -0.043826196 -0.219857 0.107548416 -0.115304366 0.040185515 0.35546726 0.2004443 -0.10152201 0.106275864 0.1332127 0.11498384 -0.27416453 -0.083971575 0.24918963 -0.1373787 0.09672934 -0.20662107 -0.0433595 0.30987635 0.072651155 0.5274268 -0.31305137 -0.0056655696 -0.06221951 -0.2599592 0.35083568 -0.22745389 0.05920604 0.021633266 -0.11488037 -0.005804401 0.19824287 -0.29548585 -0.060665835 -0.3805105 0.20343664 -0.051606454 -0.15074904 -0.22290424 -0.105821624 -0.50163156 -0.060175218 -0.0077125607 -0.08883989 -0.018144751 -0.26907116 0.2992491
937 0.040170442 -0.29568672 -0.2559589 0.16054803 -0.11783935 0.26799014 -0.099094935 -0.055096112 0.018170627 -0.26716292 0.037561458 -0.13066801 -0.07061879 0.48949456 -0.0766791 -0.1075805 -0.30985928 0.12853615 0.16514768 -0.082981676 0.2303811 -0.16923569 0.19388975 0.012378872 0.049602095 0.37066707 -0.34969944 -0.19917709 0.016915817 -0.06094549 0.051476046 -0.17133172 0.08469236 -0.07393404 -0.48150238 -0.4360844 -0.079359435 -0.12443684 -0.0024319717 0.16041702 0.05098092 0.13514678 0.17632999 0.34714785 0.1586356 -0.31727135 0.008606078 -0.1587154 0.08363123 0.70765865 0.12305988 0.0069443556 -0.19784749 -0.22876436 0.48144683 -0.08521172 -0.25467852 -0.06571755 0.17740798 -0.0802993 0.40959918 0.45905986 -0.13405043 0.07580309 0.099517226 -0.20028016 0.35948032 0.068360746 -0.06980989 -0.12770636 0.052384943 -0.05015968 0.074327275 -0.075944506 -0.086241215 -0.025283614 -0.22552277 -0.23302096 -0.25983414 0.08729274 0.40655395 0.42410648 -0.030963302 0.19765483 -0.005160994 -0.28119043 -0.02700778 0.23723847 -0.11515852 -0.15831798 0.06540418 -0.13128425 -0.35751653 -0.18364152 -0.010755441 -0.15290898 0.17951462 0.1535327 -0.3069832 0.12956707 -0.1620912 0.31337383 -0.29617754 0.0096494565 -0.16533579 -0.23030677 0.2745473 0.021743027 -0.06263126 -0.07203363 0.370425 0.09291517 0.31420597 0.14674567 0.29226992 0.15995856 -0.3115395 0.043319285 -0.34645674 -0.01929941 0.019242601 -0.2363513 -0.31217054 0.12771878 0.1824633 -0.19711217 -0.20679544 -0.05402298
934 0.13139422 0.112920485 0.23659667 -0.050601114 0.03511664 -0.007230091 0.19215368 -0.50285727 0.1991467 -0.06426936 0.25374377 0.15367197 -0.0027082271 -0.053490486 0.15064162 0.106121324 -0.35750732 0.10700364 0.34933808 -0.53972876 -0.10130478 -0.09930733 0.42858446 0.20061375 0.17948166 0.28068605 -0.055736132 -0.1252971 -0.31921673 -0.044223156 0.11000329 -0.23447055 0.024128672 -0.26463878 -0.160489 -0.39219037 -0.27633518 0.04683263 -0.034196496 0.21757638 0.251601 0.33175537 0.29031605 -0.04773288 -0.32076222 -0.19822393 -0.26641062 -0.21239644 0.11283572 0.16778731 0.068509705 -0.022716463 -0.29273316 0.36522433 0.21168728 -0.16279359 0.084359825 -0.078652374 -0.12292335 -0.18441385 0.051228486 -0.3305985 -0.3867154 0.19532956 0.13168344 0.23407352 0.29503986 -0.21612783 0.22401345 -0.2887107 0.22769898 0.06606965 0.27646264 -0.12847158 -0.021151954 -0.2326618 0.036296245 -0.02291428 -0.19929011 -0.10858135 0.09987628 -0.10376978 -0.4578832 -0.5123309 0.27033055 -0.22959927 0.062023968 0.21426062 0.014049231 -0.09814782 0.09316718 -0.2999371 -0.09367654 -0.10565018 0.12103846 0.0847086 0.11628117 0.14345135 0.17115167 0.028605392 -0.05828712 0.3254242 -0.10033617 0.06526898 0.13851635 -0.48834133 0.16868228 -0.0037631756 0.12164237 -0.047639582 0.2468142 0.16605291 0.33263966 -0.35977167 0.1211761 -0.083690435 0.052365102 -0.27233815 0.15926355 0.017424928 0.1472791 -0.078854404 -0.06824001 0.008285385 0.14376365 0.5199313 0.024490964 0.36131707
929 0.55120593 -0.36831895 -0.16566199 -0.17748176 -0.04292292 0.31091288 -0.26857463 0.09845288 0.060318295 0.22974347 -0.010797329 0.17495055 0.22427496 -0.057840493 -0.103229925 0.15020627 0.07936565 -0.05178837 0.30531237 -0.5598239 -0.06563058 0.08760725 0.3168507 0.0668636 0.22288096 0.10547216 -0.0825621 0.14312042 0.15241818 0.08749363 0.060845885 -0.16999689 -0.37441674 -0.020503072 -0.18578744 -0.2939657 -0.4614888 -0.31509355 -0.028724343 0.004168505 0.10769179 0.12548736 0.017607894 -0.1748813 -0.07178581 -0.17799498 -0.12135554 -0.033813234 -0.07200663 0.055288956 0.023737358 0.11765073 0.07016877 -0.31469905 -0.20833114 -0.3679233 0.019158183 0.037334625 0.17756829 -0.09812519 0.38780794 -0.29265612 -0.040568892 0.30471295 0.06426342 0.17082746 -0.09176151 -0.34675723 0.39666426 0.29087847 -0.07435172 -0.2474603 0.39979583 -0.06366952 0.2147341 0.22130379 0.18296228 0.078273304 0.12985523 -0.10862741 0.2734973 -0.28705463 -0.3915154 -0.4330521 0.21337144 -0.24523325 -0.14753482 0.13540371 0.3885286 -0.51275533 -0.024654856 -0.23371314 -0.00059874967 -0.29285035 -0.072131954 -0.3250895 0.30503622 0.13307676 -0.0009461553 0.124664545 0.008086351 0.10303292 -0.21031503 -0.23124653 -0.07443624 0.1199409 0.29681212 -0.30338916 0.14567423 0.16570728 0.11035075 0.261254 0.21179263 -0.032774378 0.25485486 -0.52532476 0.1535956 -0.011995716 -0.3173983 0.061494216 -0.026210103 -0.060367502 0.10522565 0.08729264 0.21424805 0.12805013 -0.30968806 0.111454524
928 -0.43674463 0.060987577 0.04048109 -0.20222652 -0.08877139 0.09250213 0.2548896 0.11792091 0.15857005 -0.2847518 -0.071366355 -0.29880068 0.38754803 -0.24641448 -0.0014196824 0.3687473 0.07930496 -0.16176766 0.14905104 -0.12541813 -0.25152907 0.31288192 0.39495793 0.21534854 0.048341226 0.20012632 0.1610438 0.21443117 -0.3229231 -0.40722868 -0.23689501 -0.58194876 -0.16423889 -0.16381846 -0.255831 -0.3006659 -0.12282193 -0.06954028 0.0358539 -0.014908736 -0.124133795 0.31586033 0.22256766 0.021289658 -0.16737387 0.48997936 -0.32424697 -0.13871528 -0.10851346 0.19242051 0.113538936 -0.09418978 -0.20274016 -0.18037285 -0.058639813 0.040850136 -0.10400077 0.28753117 0.08842852 -0.11404631 -0.10075411 -0.12726572 0.0075350734 -0.028576635 0.17464751 -0.005661778 0.2919973 -0.14622043 0.2819191 -0.13267753 0.094144665 -0.22373106 0.077129066 -0.16888393 0.21187457 -0.17739469 0.010625565 -0.31414035 -0.08733612 0.15665324 0.16182789 -0.05704217 -0.2177949 0.12715551 0.034802012 -0.063488275 0.18464202 -0.004577918 -0.06364626 0.14101519 -0.24521607 0.0385576 0.06250359 -0.10467788 -0.04202766 -0.14681643 0.09747653 0.7474871 -0.6504996 -0.011071524 0.26207486 0.04713911 0.056070976 0.14822747 0.019097112 -0.4174374 0.31276062 0.046442572 -0.021404656 0.17790852 -0.1954861 0.0034069573 -0.39898944 0.031293143 0.51231927 0.12309063 0.19509266 -0.36271372 -0.036738414 -0.18797834 0.046455555 -0.090192534 -0.14108822 0.21006553 0.053257506 -0.3419103 0.2906333 0.2176677
927 0.3189372 -0.47992 0.1468019 -0.10849752 0.04425353 0.11133145 -0.21421215 -0.15886812 0.11506498 0.037143394 0.09218905 -0.025455834 0.1545687 0.1948332 0.042383954 0.1871878 -0.0035508533 0.105789274 0.39558843 -0.44614777 -0.048092473 0.33325222 0.39500389 0.18384942 0.4965255 0.0661431 -0.051952854 0.005011885 -0.015432106 0.1413046 0.13897118 0.06265671 -0.12622184 -0.13940567 -0.014792749 -0.47363973 -0.29933235 -0.023729546 -0.010105985 0.2121985 -0.19406228 -0.07561493 0.2841174 -0.06834591 -0.39547476 -0.024978338 0.2597082 -0.119778425 -0.23559509 0.053690948 -0.18008283 0.04896766 -0.37717733 -0.25219896 0.20026565 -0.4000388 0.10772399 -0.14863235 0.089163385 0.024516433 0.15230446 -0.10673365 -0.05714032 0.6273469 0.24543767 0.019236375 0.24180481 -0.03728385 -0.02770836 0.11190907 0.015733551 -0.040345997 0.08964582 -0.034260303 0.1828636 0.013384052 0.17328538 -0.08543071 -0.24088165 -0.24581361 0.023935879 0.02390461 -0.46244326 -0.28292483 -0.0012250016 0.21759664 0.15755534 -0.09621408 0.07489289 0.049978808 0.5090463 0.018355248 -0.111271374 0.16232103 0.08560021 0.022182962 0.16806702 0.49197283 -0.23758122 0.23432696 -0.31339645 0.21453205 -0.04855621 -0.25232667 0.10354161 -0.09330434 -0.43442369 -0.17841892 0.056241117 -0.17229368 0.055406317 -0.09942681 0.26158 -0.3208199 0.27801841 0.11251033 -0.23858117 -0.07352058 -0.09772444 -0.28061238 -0.051429853 -0.45331806 -0.20655227 0.3871403 0.14676167 0.16298923 -0.124824725 0.31773728
938 0.53037816 -0.011756531 0.18964289 -0.25002792 0.12854996 -0.1258021 -0.31637216 0.21079487 0.30605912 -0.21228579 -0.039072067 -0.36109444 0.37879777 0.254282 0.35178563 0.4270719 -0.18270387 0.29062843 0.08867167 -0.08215366 0.01810948 0.19486088 0.4825079 0.31611314 0.2655828 -0.082358904 0.25490472 -0.1671691 0.3744265 -0.14807796 -0.009759212 -0.1413125 -0.44311535 0.416575 -0.34783033 -0.21588035 -0.549331 -0.017148389 0.22498433 0.47020623 0.111606136 0.15635197 -0.03547975 -0.17585532 0.3955076 0.02542637 0.12869091 0.07635908 -0.14960621 0.14268027 -0.075546585 -0.1329619 -0.07552008 -0.42629525 0.13445194 0.04159589 -0.2883644 0.14078872 0.0033987346 -0.11685934 0.21110049 0.04297197 0.419821 -0.06230439 0.17721577 -0.060379002 -0.019514535 -0.024155049 0.25707066 -0.064964 0.1564272 -0.13883737 0.21667825 -0.28568745 0.020337708 0.24391024 -0.050816827 -0.17517461 0.15623559 0.11670504 0.0060064825 -0.0036335485 0.15553513 0.16863982 -0.1424226 -0.17382756 0.20172538 0.43991634 0.019161792 -0.18520838 -0.32891634 -0.16775066 -0.28568628 -0.009024188 -0.1027927 0.067873694 0.17287025 0.15729825 -0.1723071 0.26053002 -0.14304182 -0.09581144 -0.272994 0.060482014 0.25406784 0.027332438 -0.25548708 0.1661933 0.17587897 -0.28101596 0.032127123 0.09142366 0.25786847 -0.15714175 0.12456268 -0.13077213 0.31386212 -0.20262398 0.08753481 -0.1191176 0.3073701 0.09517421 -0.24000642 0.24408251 0.3095913 0.067213096 -0.12679313 -0.1571338
926 0.58411825 -0.18878973 0.2820241 0.13462055 -0.08510561 0.11814677 -0.11964232 -0.0055021816 0.13046129 0.1587693 -0.004723981 0.10065234 0.06913788 0.22571312 0.18287766 -0.16571158 0.052210283 -0.21061738 0.44446376 -0.12165859 0.07797343 0.07622398 0.26171896 0.1739498 -0.16062857 0.10017116 -0.4673129 0.009372958 0.17770784 0.036181282 0.114976555 0.16000149 0.009337546 -0.24044542 -0.01867323 -0.17706628 -0.2962973 -0.055662025 -0.40289026 -0.1803843 0.05040921 -0.00791042 0.034865916 0.13816494 -0.08454785 0.15503755 -0.028513806 -0.053068765 -0.14586906 -0.028332578 0.067297235 -0.30816653 -0.4156128 0.06604426 -0.06398865 0.033020183 -0.35520568 0.22538455 0.47040832 -0.41820347 -0.13889547 -0.12093547 0.2593001 -0.06710691 -0.13071667 -0.054439653 -0.08659794 -0.032058015 0.31748798 -0.015738156 0.046674598 -0.12608144 0.514512 -0.46345463 0.51787585 -0.31500027 -0.1841015 -0.3669846 -0.04132817 0.30415884 -0.18518199 0.26023546 -0.3314338 0.20249248 0.34279704 0.043706793 -0.037597947 -0.072950065 0.21089764 -0.07604359 0.034196354 -0.16154377 0.23783357 0.20139222 -0.06927808 0.4254264 0.1267197 0.540445 -0.018621618 0.20574643 -0.03945977 0.0755712 0.06516043 0.37074143 0.1951146 0.11060708 -0.2225017 -0.3026168 -0.25213832 -0.25800404 0.057694156 0.32941744 0.18237676 -0.4695579 0.06831336 0.018641915 0.19387855 -0.060217496 -0.051348355 -0.13738443 -0.2776217 0.029591946 -0.16331597 -0.009450969 0.4337072 0.13463876 -0.13524465 0.23771125
914 0.022968894 -0.3010967 -0.10441361 0.07780849 0.017719163 -0.30985466 0.20855357 -0.099432044 0.029561117 -0.3147308 -0.018629627 0.072187826 0.16109502 0.14334108 0.05878225 0.06325402 -0.23962866 0.31009787 -0.42889816 -0.231294 -0.34732068 0.020597983 -0.003405472 -0.360224 0.2690896 -0.1810015 0.33713004 -0.21875654 0.22161278 0.006576008 -0.6001507 -0.06024174 -0.30126166 -0.0359468 0.028473409 0.06950186 -0.2654924 -0.44659716 0.21403123 0.42600033 -0.061004736 0.47445336 0.07286031 -0.2646371 -0.20420428 0.062268622 -0.16404264 -0.044914443 -0.17377385 -0.13543239 -0.09430925 -0.07123121 -0.32356626 0.038888317 0.29972664 -0.24900496 -0.06740953 0.14650123 0.31554717 -0.23439416 -0.008481223 0.08628129 0.0941622 -0.17360595 0.21620175 0.0435355 0.22528061 0.048356697 0.08268175 -0.023272008 0.13385972 -0.3583177 -0.08019421 0.055963535 -0.1726632 -0.28244847 0.025926296 0.036447905 -0.12769116 0.27143452 -0.04996936 0.04623574 -0.29929557 -0.036385044 -0.18547553 -0.0715766 -0.14796633 -0.14920807 0.21716534 -0.43058708 0.45897624 -0.4110213 0.23436107 -0.19676019 -0.09358584 -0.111559816 -0.18570295 0.51217073 -0.14246242 0.5599592 0.21579988 0.16194607 -0.28178793 -0.013365559 -0.07654198 -0.14538892 -0.25891897 -0.039821673 -0.10697503 0.06697627 0.09006118 0.15801895 0.20195574 -0.38242877 0.43652198 -0.072924905 0.21060656 0.06133658 -0.23096144 0.21631022 0.16377118 0.059023906 0.20247202 -0.07383678 0.024369719 -0.37739122 -0.13968325 0.20972928
1000 0.12660258 -0.014598286 0.018826878 -0.17803822 -0.34322226 -0.07161252 0.07224096 -0.060965624 -0.077239044 -0.55314296 0.76966685 0.06370227 0.33808455 0.1608054 -0.18209426 -0.16852029 -0.18608361 -0.09538457 -0.055829436 -0.46778825 0.16938132 0.12560911 0.20378731 0.10907924 -0.08034476 0.3522867 0.17838004 -0.10369002 -0.0910841 -0.029500436 0.0257625 -0.12454142 -0.14255776 -0.0921954 -0.37934977 -0.41153494 0.014680777 -0.07735006 0.13541651 0.33088598 0.12682243 0.121129714 0.19886886 0.06761911 0.021411102 0.119669974 -0.09607843 -0.26835394 0.07156364 0.16823687 -0.092026725 -0.097261414 -0.15352015 -0.46433 0.14644606 0.27178693 -0.18267784 0.29946816 0.31601983 -0.24191259 -0.1133472 -0.13196895 -0.16715439 -0.08499752 0.06476944 0.32909933 0.26931107 0.3316086 0.5378499 -0.025032924 -0.113044634 -0.1834393 0.19230145 0.15602167 0.46157268 -0.005634142 0.3629393 -0.15573849 -0.19070873 -0.03102451 0.3131356 0.09267563 -0.1241438 0.41829807 -0.2748587 0.29961842 -0.28330287 -0.032514278 -0.11954785 0.24065796 0.18501486 0.15027271 -0.07909647 -0.0024584865 0.021837922 -0.5307039 -0.07724906 0.047469947 -0.24103558 0.16209826 0.03832808 -0.16663001 -0.23077695 0.25892913 0.12849247 -0.2365687 0.24704857 -0.17316224 0.19766466 -0.26219773 0.13239095 0.39547244 -0.01611815 -0.19867323 -0.1806932 -0.10609403 0.20339687 -0.029871123 0.2990635 0.2314276 -0.37347034 -0.11323163 0.13052204 -0.008243931 0.083592094 0.07728171 0.108795375 0.031051792
