128 32
109 0.14104053 -0.17977817 0.2523726 0.15404604 0.29032698 0.22213873 -0.014433046 0.12628752 0.08852744 -0.07705517 -0.040634766 0.16380456 0.12633519 -0.14974208 0.1392213 -0.057234824 -0.054077696 -0.22010887 -0.23480527 -0.33489645 0.03935466 -0.20784043 -0.20496713 0.23342824 0.19124685 0.06224508 -0.5326822 0.07968611 0.30169418 -0.3862356 -0.21881412 -0.13635337
62 0.22352509 0.0127783455 -0.011988239 0.27469197 0.1440294 0.3567536 0.008480551 0.3185548 0.23496312 -0.031975646 -0.00041463834 0.40078858 0.088152684 -0.25952262 0.15057354 0.04242844 -0.09356771 -0.3096271 -0.0065524364 -0.051061295 -0.105440326 -0.23386015 0.06658153 0.25884932 0.20526889 0.091779575 -0.2863969 0.2086988 0.1552228 -0.3787106 -0.1590252 -0.41635725
35 0.2611603 -0.040835336 0.039158545 0.26812842 0.15126756 0.31774238 0.0043512457 0.26124582 0.23720632 -0.04962746 -0.028492471 0.3841766 0.10870071 -0.23460262 0.1541366 0.06628727 -0.051722012 -0.2973781 -0.016503751 -0.10132316 -0.047382023 -0.2655555 0.0620084 0.2955149 0.18787682 0.10728568 -0.33987215 0.19533285 0.18829666 -0.3730189 -0.1500974 -0.34990668
77 -0.0072562997 -0.10652491 -0.051699582 0.20242698 0.17109615 0.46522036 0.035721056 0.34006023 0.17972296 -0.029901993 -0.060709115 0.20635836 0.05866627 -0.2489424 0.13625267 -0.0067144926 -0.11459609 -0.38431376 -0.016099561 -0.08659542 -0.15926972 -0.29240456 -0.04177986 0.2476125 0.20357354 -0.017830156 -0.23537642 0.11771506 0.14116462 -0.36554384 -0.21812497 -0.43780196
20 0.22786286 -0.055814467 0.049054947 0.17248376 0.16200142 0.29400563 -0.0024249554 0.2579911 0.15194556 -0.063542634 -0.06753044 0.35709706 0.05961402 -0.20095742 0.15949963 0.0738759 -0.092354596 -0.3472327 -0.022430217 -0.1182378 0.011543958 -0.25610694 -0.0036356044 0.29631186 0.15644519 0.15620613 -0.44207904 0.17370005 0.17233005 -0.39535502 -0.21561658 -0.30321854
31 0.06617563 -0.26907587 0.2332754 0.4809042 0.2734277 0.37435108 0.1007716 0.32322267 0.23261353 -0.02571545 0.15305266 0.060315985 0.26753753 -0.29141968 0.18422122 -0.17499758 0.03920083 -0.12552199 -0.20982713 -0.20945646 -0.19171527 -0.22189277 -0.07965123 0.16387397 0.30978727 -0.22102536 -0.1353576 0.14771935 0.27099928 -0.25649512 -0.042821553 -0.27574348
112 0.08956674 -0.17667063 0.2547732 0.13279997 0.3137271 0.21645543 0.0022493177 0.13809335 0.07342883 -0.0807561 -0.06614982 0.16049786 0.13812728 -0.17287196 0.14153464 -0.09668056 -0.033958066 -0.2428962 -0.24798867 -0.37194854 0.03752081 -0.2194096 -0.23642378 0.22701949 0.1951295 0.035833374 -0.536432 0.084296666 0.30877188 -0.35438216 -0.21925017 -0.13784847
63 0.20496142 -0.030076297 -0.016630122 0.27587873 0.17595589 0.33251628 -0.004865363 0.28899267 0.17654745 -0.07184315 -0.047137972 0.35817876 0.07010103 -0.24729274 0.11744104 0.023817902 -0.06017427 -0.3179071 -0.0013530347 -0.07362108 -0.07489155 -0.2518639 0.01496598 0.27746898 0.18238333 0.08072292 -0.33441344 0.20357592 0.16771464 -0.41988084 -0.19239174 -0.37937367
60 0.31848797 0.020445451 0.03606032 0.28748292 0.15558293 0.27650204 -0.03502191 0.27627444 0.2073738 -0.05773281 -0.031007003 0.41036263 0.0743618 -0.22992314 0.1260047 0.064000934 -0.016629865 -0.31080306 0.0018898031 -0.07274995 -0.0394534 -0.24857493 0.07370642 0.32509342 0.17132385 0.18533295 -0.37495583 0.23405944 0.1851102 -0.41917944 -0.18428092 -0.3683137
116 0.0999412 -0.20857227 0.2605609 0.18321592 0.28374964 0.21319199 0.0023254773 0.091036536 0.084527805 -0.06238212 -0.043528806 0.14223188 0.12996691 -0.15755121 0.1576299 -0.11762304 -0.052710038 -0.1937922 -0.20704395 -0.34959292 0.032809336 -0.23049615 -0.22028571 0.24588256 0.19921711 0.022769457 -0.51930493 0.07258959 0.32077384 -0.36194205 -0.22052392 -0.14602832
18 -0.053086556 -0.20646755 0.0547142 0.1277137 0.2210891 0.39061403 0.017885992 0.26448056 0.07691819 -0.028879771 -0.065802276 0.10660973 0.06080124 -0.17245817 0.1268986 -0.034656595 -0.15792061 -0.35236228 -0.14756781 -0.26715234 -0.09188139 -0.25448468 -0.18039934 0.24290049 0.18694091 0.013843927 -0.38388336 0.056188717 0.18159 -0.3943955 -0.2189552 -0.27480718
119 0.19963993 -0.13333002 0.27078354 0.18376684 0.2898549 0.1918267 -0.026343944 0.1079457 0.124891244 -0.086167075 0.0063107414 0.2222223 0.16610488 -0.15777321 0.1774509 -0.070490144 -0.058711104 -0.20786788 -0.2277091 -0.33246082 0.043291602 -0.19038692 -0.16037983 0.25853372 0.23019956 0.061220486 -0.52479327 0.085540675 0.33300054 -0.32839128 -0.19222678 -0.16542795
68 -0.039475672 -0.16805425 -0.0036213533 0.15817241 0.19124627 0.4130132 0.007439931 0.29939425 0.08650139 -0.06036919 -0.039681174 0.13189414 0.043321453 -0.214988 0.15609033 0.0071118907 -0.17981194 -0.3768283 -0.121007755 -0.17703053 -0.104892306 -0.25074166 -0.09106808 0.21448968 0.19621634 -0.004294032 -0.3434493 0.070645705 0.14397696 -0.40366864 -0.24024478 -0.34183958
100 0.25048834 -0.008414249 0.05351437 0.33385974 0.22552657 0.3230525 -0.015829606 0.32024634 0.2567481 -0.064046286 -0.010923964 0.35842377 0.11114949 -0.2634958 0.1472098 0.025452862 -0.015166897 -0.29664785 -0.048609026 -0.087141804 -0.048182 -0.1993856 0.09793859 0.2637261 0.17766212 0.10331081 -0.29271454 0.19720142 0.17697003 -0.36319786 -0.1570193 -0.36643738
9 0.09878299 -0.25009096 0.35629696 0.34728745 0.3602481 0.25701863 0.05383418 0.18420337 0.17269222 -0.060007762 0.0870676 0.058209475 0.24380757 -0.24921818 0.17068079 -0.16229461 0.06226863 -0.12228966 -0.28329223 -0.3672453 -0.04859517 -0.1819993 -0.19466385 0.1976384 0.28826255 -0.12197067 -0.34161708 0.08465978 0.31441873 -0.2752795 -0.1132658 -0.14640757
106 0.117484465 -0.18863091 0.28509027 0.12304974 0.31904206 0.16551086 -0.04433098 0.07408281 0.056025762 -0.0666368 -0.08492791 0.17295024 0.1145448 -0.13205554 0.17326486 -0.038577955 -0.057956178 -0.24865802 -0.2778939 -0.37948304 0.11057292 -0.20063926 -0.22948654 0.23977558 0.18959974 0.049606748 -0.59775156 0.068449914 0.3083422 -0.38380155 -0.24039792 -0.13966946
22 0.2214607 -0.1282589 0.2285816 0.16045552 0.26546347 0.19664223 0.011724587 0.124492265 0.08287766 -0.07280703 -0.0805345 0.27796546 0.12455751 -0.16980535 0.13833001 -0.00823958 -0.050359618 -0.24925941 -0.15571378 -0.2811186 0.06872534 -0.19533615 -0.1222676 0.2672315 0.18789172 0.12176483 -0.532426 0.13139342 0.27324152 -0.38225356 -0.20482679 -0.17530292
14 0.30211112 0.009045907 0.04213578 0.3675043 0.17938505 0.34896514 -0.0075391205 0.33543724 0.26156753 -0.042556144 0.06310827 0.368156 0.11769757 -0.30695456 0.15746772 0.01412044 -0.037452087 -0.2628525 -0.016266558 -0.08821805 -0.108362086 -0.26016346 0.11180861 0.29838735 0.22736865 0.08956755 -0.22473931 0.23753564 0.21044545 -0.32310426 -0.096030295 -0.36270398
108 0.16671327 -0.11392588 0.14631505 0.20319165 0.22135021 0.2642223 0.0063167936 0.19543129 0.13494983 -0.080137946 -0.03980712 0.2526896 0.08722636 -0.15137716 0.15191229 0.0037299907 -0.05908797 -0.28895077 -0.15352644 -0.23599541 0.012690757 -0.20529906 -0.08069929 0.2584074 0.20532541 0.07635995 -0.4496089 0.11534214 0.24390155 -0.37746724 -0.19704492 -0.24986294
49 0.16323608 -0.049328703 -0.014807826 0.3506174 0.1791175 0.3857414 -0.0017287539 0.33827966 0.2296269 -0.050661873 0.029710034 0.32547328 0.07940165 -0.29514563 0.15120731 -0.0012844086 -0.07846549 -0.302689 -0.011770502 -0.037645027 -0.10400344 -0.25676432 0.101430215 0.24289897 0.19118477 0.037589926 -0.21111163 0.18643364 0.14042282 -0.3823285 -0.16064943 -0.42939025
50 0.3366409 -0.0033959 0.108416125 0.40348744 0.19274844 0.30006176 -0.01479825 0.34229907 0.31688675 -0.05989714 0.10842716 0.38531896 0.14043234 -0.28403082 0.17272766 -0.020024752 0.025237039 -0.23064758 -0.020511579 -0.07522118 -0.10388566 -0.22081652 0.12792772 0.28013685 0.22595917 0.061820313 -0.23721479 0.23802744 0.19575778 -0.3251867 -0.079885475 -0.38600072
87 -0.09629898 -0.16716632 -0.04745615 0.09421339 0.1943369 0.45251748 0.024412576 0.2906913 0.090324685 -0.040306624 -0.0789985 0.14623557 0.03693 -0.19310455 0.14749272 -0.023572376 -0.17993155 -0.4221103 -0.08595409 -0.19189668 -0.10979609 -0.29157203 -0.1337952 0.23406145 0.14676982 -0.0015957622 -0.3295862 0.06189376 0.15906186 -0.3852794 -0.2543692 -0.36664975
126 0.009549868 -0.30528468 0.24950156 0.3991683 0.2981871 0.3567271 0.07716153 0.26980174 0.19045302 -0.038496338 0.11933873 -0.012202481 0.25405416 -0.2680445 0.15477003 -0.18698826 0.007845901 -0.13278705 -0.25568458 -0.32850245 -0.16778031 -0.22495516 -0.15701228 0.1767639 0.30435073 -0.21138236 -0.21890073 0.09469221 0.2966831 -0.23598455 -0.08612811 -0.21467705
19 0.016683456 -0.26656032 0.19508041 0.3750629 0.31165755 0.37421834 0.06767212 0.29105663 0.19394922 -0.057303995 0.118514374 0.030986901 0.24506293 -0.27341947 0.18561359 -0.15498467 -0.0131303 -0.15952706 -0.22507502 -0.2713156 -0.15932874 -0.22000109 -0.13447502 0.15431061 0.2911957 -0.211526 -0.22613843 0.10065884 0.26598626 -0.24523057 -0.09034483 -0.2188222
110 0.095850244 -0.18215285 0.2728365 0.13318372 0.32817793 0.22264373 0.031236375 0.09628459 0.0906046 -0.098761775 -0.06292441 0.16537984 0.13984747 -0.13946499 0.1692559 -0.0850112 -0.029635191 -0.21493271 -0.23865929 -0.3907036 0.08029688 -0.212831 -0.2185111 0.22336738 0.17329156 0.014580732 -0.5422565 0.059732933 0.31916887 -0.39261645 -0.22237793 -0.09476879
57 -0.2567218 -0.27267367 -0.07432727 0.028879156 0.2106148 0.4864243 0.062694035 0.26877394 0.05058035 -0.067924365 -0.11327927 -0.0016406373 0.056148693 -0.1993441 0.1373114 -0.0619392 -0.25344604 -0.39388204 -0.1609375 -0.28576437 -0.13459784 -0.28432307 -0.27402958 0.1791206 0.19328853 -0.07426307 -0.36418873 0.018906191 0.16776577 -0.384973 -0.26390845 -0.30005392
86 -0.013229757 -0.17434743 0.044297256 0.18176222 0.22842674 0.33968645 -0.015500661 0.2385734 0.15959023 -0.046525154 -0.05457775 0.14294866 0.048120923 -0.18676116 0.1458809 -0.04367185 -0.116358355 -0.36751008 -0.12776056 -0.2015213 -0.07382082 -0.22914393 -0.13955374 0.23740548 0.18180832 0.01869235 -0.3487158 0.052222706 0.20173874 -0.37764403 -0.24062139 -0.35068133
113 0.17956012 -0.12986287 0.23856868 0.11747104 0.29559368 0.18083107 -0.02769163 0.08920227 0.08130926 -0.06642886 -0.09420753 0.26100326 0.13580799 -0.13095085 0.14795901 -0.025134465 -0.07722119 -0.22794443 -0.21298714 -0.34851342 0.124856986 -0.17906274 -0.19584318 0.25884926 0.187434 0.11754274 -0.60449195 0.07738639 0.3213067 -0.40219355 -0.24649675 -0.13105683
65 0.11390964 -0.13057515 0.15008633 0.14178446 0.25113744 0.25787356 0.01753986 0.18803161 0.08860159 -0.076119214 -0.06442865 0.20702413 0.121375844 -0.16933975 0.1544934 -0.03458758 -0.0790638 -0.25506592 -0.18022145 -0.2708376 0.03133707 -0.22071645 -0.1195981 0.2697818 0.18989475 0.05466601 -0.48288244 0.11168436 0.26583314 -0.377856 -0.22967514 -0.20647393
6 0.0660639 -0.30601948 0.31962314 0.43758842 0.33579382 0.36784744 0.07534346 0.28754178 0.23825574 -0.028447501 0.16850336 0.02731997 0.27938747 -0.2718095 0.1693241 -0.2115141 0.06409279 -0.10495261 -0.26514468 -0.3001203 -0.16883369 -0.19856524 -0.1752605 0.16707385 0.32793805 -0.21941431 -0.16149 0.108376876 0.30039778 -0.23101574 -0.028245762 -0.20921409
102 0.17085114 -0.19697581 0.31539816 0.15976469 0.29403096 0.15080352 0.0055219196 0.044556275 0.046143673 -0.0761081 -0.06436951 0.17400412 0.16043712 -0.117725894 0.1593756 -0.07715886 -0.05011783 -0.20091638 -0.24264677 -0.3895703 0.10586683 -0.20211017 -0.23189324 0.24076039 0.1780461 0.063474424 -0.6035508 0.06025617 0.3381334 -0.40584648 -0.26103595 -0.07779116
10 0.02574621 -0.16496535 0.057900935 0.26734033 0.2495964 0.41582495 0.040703937 0.29734343 0.15978608 -0.038893096 0.0149985645 0.1658012 0.11460277 -0.24181055 0.1441671 -0.056812838 -0.09618913 -0.30546138 -0.12344573 -0.18786208 -0.13786012 -0.25475904 -0.08786824 0.2295602 0.1910692 -0.06290315 -0.26518765 0.0946891 0.16571808 -0.3486452 -0.17326371 -0.30530432
27 0.035092894 -0.20342198 0.1490084 0.36142656 0.2949937 0.4078346 0.07327358 0.32065642 0.21251835 -0.076114014 0.10163937 0.08202226 0.19222726 -0.27850148 0.1916818 -0.103521675 -0.04743608 -0.21353051 -0.1684424 -0.21967211 -0.15655854 -0.22770607 -0.08197561 0.1987404 0.26236415 -0.15384413 -0.16548997 0.11671935 0.21547309 -0.28101075 -0.09191092 -0.2914605
5 0.10034239 -0.27123725 0.2902218 0.45636925 0.3202839 0.3540718 0.102304846 0.27424183 0.2379723 -0.033462223 0.16894898 0.027196873 0.29413378 -0.2912019 0.18971778 -0.20117691 0.061709467 -0.094407625 -0.23978484 -0.30551213 -0.16653551 -0.2111223 -0.12974387 0.1554627 0.3045388 -0.23594922 -0.19212171 0.13685316 0.3224945 -0.2391784 -0.036937274 -0.19964802
103 0.1300568 -0.15108296 0.19338359 0.16605625 0.28401443 0.25049195 0.017560124 0.16072023 0.119071685 -0.061506193 -0.03301883 0.19319291 0.14356193 -0.18206753 0.170891 -0.083419606 -0.05058721 -0.24550599 -0.20877846 -0.32327753 0.0036066037 -0.21178025 -0.17542368 0.22986317 0.20013562 0.008960377 -0.47747397 0.107792005 0.30166796 -0.35625005 -0.1996617 -0.17534806
13 0.104309715 -0.18544708 0.16223599 0.41049305 0.28792927 0.37199143 0.06356207 0.33149627 0.23711067 -0.019255629 0.13851616 0.116615 0.23977886 -0.2621002 0.1886307 -0.11497969 -0.01317649 -0.15444106 -0.17566238 -0.22093453 -0.17364219 -0.23357809 -0.07767977 0.22067332 0.29574043 -0.16468097 -0.18500489 0.13979143 0.24737999 -0.23650919 -0.04358447 -0.26191685
11 0.07646707 -0.21903332 0.26658216 0.07610885 0.30176583 0.16838779 -0.018145952 0.053342566 0.025742415 -0.07494396 -0.09180073 0.12973435 0.13736342 -0.083659634 0.16354379 -0.074852966 -0.097860575 -0.23355858 -0.28164873 -0.41592982 0.10276397 -0.20517312 -0.2789715 0.19967614 0.17931688 0.046952516 -0.62059325 0.052339062 0.33650815 -0.39647803 -0.2783197 -0.09928432
98 0.3271393 0.03298766 -0.025423024 0.28808913 0.14145121 0.3218084 -0.026160615 0.34063712 0.27268448 -0.063516706 -0.029214712 0.48485276 0.04326999 -0.25386563 0.14477392 0.087218925 -0.05027422 -0.3517633 0.033650313 -0.0031497239 -0.07066687 -0.25419438 0.13926978 0.31131315 0.15836252 0.17925537 -0.288081 0.22602229 0.15168388 -0.3899425 -0.16844527 -0.46073306
95 -0.15923566 -0.20461796 0.037998125 0.13294677 0.24367483 0.4122513 0.037320968 0.2637632 0.071298905 -0.029413503 -0.05128715 0.066059954 0.08587973 -0.22824985 0.13629347 -0.07704539 -0.19783592 -0.32095122 -0.16748813 -0.25476214 -0.126416 -0.30403602 -0.21582821 0.19963658 0.20487852 -0.09395314 -0.34012705 0.067102216 0.17651722 -0.37463242 -0.26176617 -0.29073304
33 0.14803225 -0.13474584 0.21821319 0.12236348 0.26502997 0.20041485 -0.020077141 0.10250102 0.048937917 -0.08092063 -0.09738726 0.21831256 0.10615025 -0.13251695 0.14459674 -0.028277986 -0.057096668 -0.2669932 -0.22760417 -0.37100384 0.0908836 -0.19720843 -0.20782717 0.23755777 0.16455211 0.08314298 -0.57256925 0.07011654 0.3247057 -0.3958071 -0.2444073 -0.12349821
48 0.04160839 -0.28585878 0.2644192 0.4098945 0.31147814 0.36334372 0.07677763 0.26627854 0.19425502 -0.04628717 0.11767217 0.04049218 0.22887158 -0.2538155 0.15638044 -0.16485412 0.043497734 -0.15639406 -0.21671726 -0.29621348 -0.16548514 -0.1875887 -0.10930486 0.19948731 0.28137797 -0.17611223 -0.17445798 0.105174236 0.27315977 -0.26555932 -0.06772324 -0.23860374
88 0.060206965 -0.10389744 0.06782852 0.08535387 0.2041691 0.29224503 -0.021532902 0.18948501 0.06648048 -0.08331336 -0.1048001 0.23818928 0.03790316 -0.17039251 0.1408573 0.012315049 -0.14665316 -0.36178342 -0.117321655 -0.23141316 0.024299392 -0.2587367 -0.16621065 0.27037367 0.17431828 0.07961831 -0.52089715 0.07983238 0.20436025 -0.4193354 -0.29084674 -0.25865012
89 -0.10151021 -0.15822145 -0.02886864 0.12682806 0.20714617 0.47073814 0.049946018 0.3421869 0.122500144 -0.05755013 -0.09104083 0.14837356 0.07665204 -0.22183713 0.14078088 -0.040959947 -0.16932632 -0.38786212 -0.079835445 -0.19043304 -0.11594845 -0.26498884 -0.11434794 0.2016799 0.17577302 -0.009182825 -0.2864889 0.045384534 0.1374566 -0.3854344 -0.2234359 -0.3603184
93 -0.15004101 -0.23695734 -0.031182269 0.13856865 0.22971475 0.45119596 0.04967891 0.28107753 0.10418071 -0.022176031 -0.09862735 0.06689963 0.092995316 -0.2125949 0.11990045 -0.073463924 -0.1463372 -0.38076493 -0.14829999 -0.2556755 -0.14717527 -0.29350573 -0.20457488 0.19138251 0.19227903 -0.114485644 -0.31246713 0.039617814 0.14641604 -0.36094576 -0.20526595 -0.30959192
1 -0.07336462 -0.28728178 0.16183506 0.3072617 0.30982143 0.4120501 0.06704336 0.28154188 0.14785619 -0.02713536 0.0500587 0.024230944 0.20283656 -0.2740162 0.15716183 -0.16434745 -0.030425228 -0.22676256 -0.21468066 -0.31900942 -0.17620192 -0.22200924 -0.15654238 0.16496234 0.26949808 -0.17868823 -0.20505036 0.05277853 0.23018207 -0.27773696 -0.112617895 -0.28120264
37 0.24855337 -0.019053446 0.043170903 0.2766969 0.20982306 0.30221766 -0.007654097 0.28609183 0.22846287 -0.053653844 -0.0010771634 0.38269743 0.07719009 -0.22920863 0.15363908 0.02704059 -0.064733885 -0.30679047 -0.031237638 -0.11752144 -0.063002124 -0.25555864 0.02816717 0.2589364 0.1851362 0.07092388 -0.3432074 0.16647328 0.18851417 -0.346551 -0.17936671 -0.34792176
23 0.13622724 -0.17380561 0.09357924 0.3871148 0.2113235 0.361076 0.0541921 0.31970695 0.18136035 -0.040717945 0.033091385 0.19731076 0.15120102 -0.26543492 0.16465095 -0.047464624 -0.01693009 -0.24967484 -0.11610261 -0.15792133 -0.11876386 -0.21664841 0.0077281427 0.20392324 0.23201722 -0.07038956 -0.25841582 0.15084204 0.19814765 -0.31954154 -0.10858533 -0.3032445
36 0.3321787 0.0013343269 0.07464639 0.27029085 0.18463676 0.27313873 -0.007263521 0.25588357 0.2352819 -0.05935399 -0.015337663 0.42542422 0.07533233 -0.21431454 0.14950658 0.076639056 -0.023529876 -0.32611927 -0.024215665 -0.08641079 -0.0314184 -0.24409588 0.06207411 0.2849664 0.18212138 0.17144921 -0.37694556 0.20321622 0.19053523 -0.37827557 -0.17445572 -0.34984496
7 0.04508593 -0.19049428 0.13087106 0.36427727 0.26265353 0.4445109 0.056952275 0.33894718 0.20461224 -0.055903003 0.066820085 0.11973375 0.20124634 -0.2594741 0.14965414 -0.12525538 0.0007171462 -0.2335291 -0.14902344 -0.16308083 -0.1800954 -0.23501901 -0.043392956 0.23181696 0.26266676 -0.113273315 -0.14315327 0.12631528 0.211759 -0.2915729 -0.10151512 -0.3312852
64 -0.051505152 -0.1467759 -0.03412 0.09570778 0.18954475 0.43195373 0.03311684 0.2716944 0.104149655 -0.049101077 -0.12041806 0.17659234 0.04214013 -0.19462991 0.13542844 4.9898154e-05 -0.19770467 -0.38794112 -0.04257593 -0.17289688 -0.06972006 -0.28931877 -0.100178 0.2631014 0.14983723 0.027194219 -0.36672843 0.0953109 0.13449341 -0.43010432 -0.26519898 -0.35010207
8 0.09015862 -0.24115844 0.2204783 0.41694084 0.2887922 0.38331863 0.07349512 0.31495333 0.2164332 -0.01672627 0.110778086 0.10921186 0.22911441 -0.2803685 0.1721583 -0.13330907 -0.0070363726 -0.15302636 -0.22109093 -0.26382044 -0.16007495 -0.19517618 -0.109578535 0.17016147 0.2741158 -0.15951802 -0.18509093 0.10424744 0.25361627 -0.25544405 -0.071442805 -0.21992277
55 0.31942606 0.04170189 -0.04181955 0.28223333 0.14593999 0.33828974 -0.041762743 0.2996403 0.27831468 -0.03144787 -0.033218198 0.4694718 0.07533608 -0.2518314 0.13490218 0.072690286 -0.079856575 -0.31011027 0.011636416 -0.03293808 -0.05521015 -0.26552206 0.094394624 0.30604088 0.18677084 0.15386777 -0.3029578 0.22573322 0.16931729 -0.3606865 -0.16780578 -0.4394774
72 -0.106022365 -0.13187255 -0.09232939 0.10302456 0.19418252 0.4653593 0.036614224 0.33604768 0.13896444 -0.06513713 -0.11432 0.18199071 0.044545352 -0.20496264 0.12770048 -0.019308254 -0.18769929 -0.43213275 -0.05839881 -0.182005 -0.1398287 -0.2542062 -0.10348904 0.24538854 0.16859594 -0.0089047225 -0.30530047 0.05234922 0.1267998 -0.36986497 -0.23784682 -0.41490662
25 0.065630384 -0.2790005 0.32652816 0.36477372 0.32124645 0.27278328 0.04284938 0.18685934 0.169814 -0.020363538 0.091394745 0.018287478 0.24288979 -0.2314143 0.1622624 -0.19683927 0.01800833 -0.1352704 -0.26116237 -0.34566456 -0.090133965 -0.19801892 -0.21167167 0.22402753 0.29193437 -0.15729567 -0.30875134 0.10650832 0.32545903 -0.27995127 -0.11184237 -0.17073256
56 0.26855865 -0.06503446 0.12458995 0.3872228 0.206688 0.32540855 0.010336759 0.302268 0.23958513 -0.049494818 0.029396947 0.29382315 0.12773195 -0.26213676 0.12848696 -0.019337736 0.02814491 -0.25806594 -0.040603444 -0.07024633 -0.092581056 -0.21790864 0.056477163 0.25503996 0.18970358 0.08324483 -0.25070596 0.19022436 0.19743335 -0.35824385 -0.107687354 -0.3332339
53 0.14116676 -0.06500263 -0.040899023 0.2682606 0.17241421 0.38794652 -0.006298948 0.3617064 0.21098515 -0.074169494 0.011499251 0.30353114 0.062099867 -0.2651982 0.124844246 0.025313936 -0.07789209 -0.34761074 -0.013141931 -0.05138553 -0.12081585 -0.2498144 0.058372352 0.2539801 0.21109049 0.05055448 -0.2519108 0.18237217 0.11399491 -0.37442234 -0.19823262 -0.45217484
41 0.07972914 -0.15197982 0.10934278 0.12528631 0.22591813 0.26724675 -0.027306488 0.1533119 0.058811247 -0.047671642 -0.08890224 0.2199448 0.09868424 -0.16361037 0.11313965 -0.032881584 -0.1601102 -0.3025084 -0.1405027 -0.25461492 0.023819687 -0.22588384 -0.119343184 0.2671003 0.19924468 0.041500513 -0.508904 0.10982394 0.22766115 -0.43074638 -0.23189086 -0.255668
92 0.044824187 -0.2663875 0.28320998 0.32074136 0.31711406 0.32813808 0.07086683 0.20661458 0.15775162 -0.038768392 0.1040222 0.038789645 0.22950634 -0.21647054 0.15882562 -0.18759793 0.015558791 -0.16706435 -0.24621107 -0.34620363 -0.11992438 -0.22434884 -0.19331498 0.18094884 0.28174743 -0.14509849 -0.31724945 0.052481607 0.3364488 -0.25257838 -0.10588525 -0.1865456
118 0.18341494 -0.095562786 0.20939875 0.07171472 0.29582793 0.1773546 -0.047472276 0.060702924 0.03427606 -0.073579475 -0.13710353 0.2533608 0.118025 -0.09546328 0.13780253 -0.037417147 -0.090828784 -0.25586838 -0.1950917 -0.36858037 0.12470564 -0.22400971 -0.20153819 0.27970195 0.16641775 0.13451272 -0.66667026 0.06668963 0.32238394 -0.4285812 -0.28150028 -0.10569168
120 0.044783413 -0.19316429 0.24062873 0.1006475 0.28246322 0.23987961 0.0063186213 0.13225125 0.072204165 -0.08100572 -0.06441435 0.1149919 0.11487938 -0.13303411 0.15530293 -0.06471341 -0.0831407 -0.24989831 -0.21015207 -0.34515765 0.026639417 -0.21624014 -0.24618672 0.26616356 0.18585002 0.024564227 -0.5427456 0.040912226 0.31729025 -0.3978925 -0.23472488 -0.1371217
114 -0.12547067 -0.18678692 0.023646876 0.07397946 0.19676363 0.38233674 0.029766178 0.2491342 0.06990086 -0.03332264 -0.064872205 0.116335504 0.057067934 -0.17360282 0.1629433 -0.05157769 -0.1934791 -0.36961827 -0.12195993 -0.23656811 -0.09240585 -0.2791272 -0.15743275 0.24442898 0.18024856 -0.0068146233 -0.38120168 0.032193948 0.15670638 -0.40682793 -0.27121902 -0.3148612
127 0.20406498 -0.15784253 0.25761852 0.17526408 0.32338414 0.18857476 -0.042026088 0.08596262 0.11130478 -0.10182459 -0.06324385 0.23144844 0.0913484 -0.15728803 0.14819388 -0.048926163 -0.017495915 -0.25302887 -0.21549435 -0.3144613 0.08863209 -0.19537203 -0.16810313 0.23124681 0.16374773 0.083447434 -0.5596874 0.10859077 0.28894803 -0.37325117 -0.22411293 -0.15428577
61 0.00142409 -0.26461312 0.2506472 0.35900915 0.33405167 0.35246348 0.092020184 0.26380786 0.19450322 -0.03931793 0.10427985 0.021286584 0.2728962 -0.24044792 0.19022037 -0.19346763 0.0019239205 -0.12961453 -0.24606672 -0.3491979 -0.13943276 -0.22382629 -0.15782022 0.15895528 0.26742208 -0.18255714 -0.24085842 0.07951105 0.30547783 -0.25153625 -0.0962229 -0.20470105
58 0.20312324 -0.14655526 0.28510398 0.15019001 0.31241813 0.13884847 -0.03861124 0.04615503 0.06530571 -0.090112425 -0.07047408 0.24964735 0.10987077 -0.11816375 0.18331635 -0.049011715 -0.041968994 -0.22448508 -0.2213643 -0.3668319 0.115059875 -0.209202 -0.16691549 0.24522735 0.16955832 0.08299908 -0.60997415 0.08320605 0.34826148 -0.41221362 -0.24605563 -0.11207458
123 0.17500457 -0.14549081 0.31624007 0.09975646 0.3258313 0.12964395 -0.03786366 0.046124935 0.040248115 -0.12315542 -0.105280414 0.22438338 0.11555719 -0.090792455 0.18439241 -0.03777501 -0.03386706 -0.24963908 -0.2539915 -0.40323782 0.1433525 -0.19827242 -0.1785789 0.24214503 0.14841698 0.14738983 -0.63763 0.08628854 0.3185532 -0.40757293 -0.27176976 -0.10080577
39 0.18359274 -0.068989724 0.06305643 0.27123177 0.19890763 0.32485116 0.017221546 0.2843695 0.21471274 -0.045432944 0.009194319 0.30434808 0.10185689 -0.23789865 0.14033043 0.0022334838 -0.049677383 -0.28746465 -0.044677135 -0.09606517 -0.110043295 -0.2306611 -0.0012725873 0.28890836 0.2193715 0.033883855 -0.28971216 0.16990326 0.1824043 -0.34158295 -0.16557194 -0.36599493
94 -0.15372583 -0.19289528 -0.017567215 0.011948433 0.2190505 0.4032877 0.024715494 0.23707259 0.035903398 -0.031026168 -0.15611616 0.09234653 0.061778933 -0.16274358 0.13151233 -0.04228337 -0.21693021 -0.39463726 -0.15078038 -0.30396906 -0.076069474 -0.2920557 -0.2274372 0.23762658 0.18803632 -0.019456958 -0.43458608 0.018911207 0.1833702 -0.43120176 -0.2883711 -0.30476582
40 0.2901389 0.018767567 0.03746605 0.30951896 0.14298204 0.3409232 -0.0069712414 0.31460717 0.2582919 -0.066484585 -0.01571878 0.42730567 0.064838715 -0.25818712 0.12372952 0.067462794 -0.013920423 -0.31928504 -0.01712738 -0.04682907 -0.091426335 -0.23600155 0.10765681 0.29235843 0.16827281 0.1208013 -0.26684177 0.21827725 0.14568739 -0.37361142 -0.17454194 -0.42659035
74 -0.07647142 -0.15344004 -0.044440117 0.09317478 0.18822885 0.42956337 0.007139346 0.3081604 0.107564986 -0.07650608 -0.14800856 0.20849197 0.02567268 -0.1936723 0.1121864 0.013338064 -0.1648147 -0.40450546 -0.09939335 -0.16917217 -0.088236175 -0.25593448 -0.11081806 0.26046276 0.14697622 0.025121111 -0.3810932 0.07329503 0.16255744 -0.41228548 -0.26419073 -0.35315576
128 0.042165644 -0.16462623 0.19953799 0.07116365 0.3131065 0.25631404 -0.010906413 0.104554266 0.05698018 -0.08677108 -0.1012764 0.13653116 0.082364775 -0.13671093 0.15451702 -0.07142226 -0.056825776 -0.2875405 -0.2180515 -0.37027684 0.029507345 -0.21501893 -0.25216702 0.26036546 0.1921786 0.03380189 -0.5462569 0.051774956 0.28297895 -0.3997748 -0.254146 -0.16444041
111 0.082950205 -0.16678871 0.18944101 0.09131527 0.28013483 0.20298249 -0.015071303 0.11914466 0.07387189 -0.08034789 -0.10170412 0.20552726 0.14394563 -0.12757602 0.16331176 -0.039783992 -0.048088077 -0.27996555 -0.22461429 -0.35938743 0.04689797 -0.21002634 -0.19330123 0.23604564 0.17870565 0.03795408 -0.5612294 0.059402246 0.30766508 -0.37512654 -0.23178796 -0.14133097
32 0.11826181 -0.24569999 0.28715122 0.4922135 0.3289941 0.3282957 0.08148829 0.27509847 0.25582203 -0.02337349 0.17882183 0.083863445 0.290637 -0.27258193 0.18002799 -0.17801602 0.041318092 -0.0916106 -0.20914268 -0.25246367 -0.15637542 -0.20042296 -0.06620929 0.19326617 0.30892438 -0.18112142 -0.17379858 0.14114314 0.28738472 -0.23845434 -0.03295573 -0.2516935
99 0.1907661 -0.108755186 0.23277019 0.067472436 0.2659528 0.18574105 -0.009976661 0.07474787 0.06854082 -0.071727015 -0.08428925 0.26506332 0.12376448 -0.118213944 0.15155144 -0.025641436 -0.09655036 -0.25097114 -0.20029369 -0.34645084 0.13682346 -0.23732334 -0.18363565 0.26397315 0.18247862 0.07944642 -0.63703704 0.09711505 0.3303651 -0.41676497 -0.27424687 -0.10952237
26 0.10223676 -0.24524733 0.21841072 0.35146955 0.3032081 0.33365408 0.05130619 0.25982764 0.17792368 -0.049395464 0.078817904 0.12597561 0.22598355 -0.27334276 0.1793421 -0.14094318 0.014269864 -0.16860722 -0.20639548 -0.26479664 -0.09762111 -0.1977938 -0.13148166 0.2015613 0.2215827 -0.120990925 -0.2673947 0.12861085 0.23976012 -0.27872792 -0.12285178 -0.239157
54 0.29495096 -0.0016521967 0.015119359 0.2555215 0.1969353 0.265332 -0.048030015 0.28718805 0.18897171 -0.06863834 -0.016662668 0.42845678 0.0673172 -0.20677052 0.15735888 0.04260448 -0.076105475 -0.3151178 -0.025805466 -0.101728775 0.00852733 -0.24617392 0.06166765 0.29164246 0.17637056 0.14480358 -0.412862 0.19444428 0.21878208 -0.3806919 -0.18034004 -0.34350365
91 0.19834334 -0.11916796 0.27464694 0.032924812 0.28328967 0.11463608 -0.025306255 -0.0014827629 0.010179485 -0.092489414 -0.11660663 0.25682184 0.11110837 -0.04760073 0.16795146 -0.020879662 -0.08356566 -0.26326317 -0.22932497 -0.41049704 0.17177868 -0.19170187 -0.22471909 0.29676592 0.17816737 0.14118633 -0.7359212 0.045619596 0.3556917 -0.4089694 -0.3051329 -0.08235742
97 0.113057256 -0.21972229 0.22753052 0.22981802 0.3069894 0.23309144 0.0022387023 0.14282893 0.11491639 -0.063940324 -0.022483518 0.13173953 0.15969202 -0.18670604 0.15794197 -0.12303289 -0.026548037 -0.20934339 -0.22089642 -0.3529152 0.0020276774 -0.21646452 -0.15657412 0.21081439 0.22985737 -0.021164978 -0.4451118 0.08363704 0.3080801 -0.3463737 -0.19567169 -0.1718814
117 -0.118348986 -0.16730966 -0.069760665 0.16612627 0.21644087 0.47918966 0.02000745 0.32606938 0.11627587 -0.053237546 -0.09315035 0.16723156 0.033109207 -0.18604481 0.11172195 -0.039427657 -0.1570346 -0.42186582 -0.080240086 -0.16713902 -0.16358514 -0.254113 -0.10514238 0.20516096 0.14473031 -0.018070668 -0.2900961 0.04551402 0.12930173 -0.41753754 -0.2500208 -0.39622325
38 0.14301369 -0.25846204 0.25964746 0.5078084 0.3172858 0.3766224 0.076668456 0.3008288 0.28560364 -0.04423498 0.19164774 0.09542301 0.30270112 -0.3075714 0.21898712 -0.18206513 0.048440002 -0.07603153 -0.22213517 -0.23135172 -0.16603889 -0.20811346 -0.06499851 0.13956815 0.29399982 -0.23196736 -0.11626925 0.14112851 0.2992057 -0.19735701 -0.045007985 -0.24076478
43 0.26124305 -0.0047801123 -0.0002485282 0.31522703 0.19513041 0.31050333 -0.026392007 0.3139652 0.21750425 -0.062381577 0.007934354 0.39619836 0.056292687 -0.22365241 0.15314077 0.052694555 -0.071294025 -0.29322043 -0.029782085 -0.06479726 -0.05763783 -0.2473665 0.06602695 0.24679247 0.19992772 0.10104644 -0.31650406 0.19045357 0.15051098 -0.39331967 -0.17575331 -0.40498886
96 -0.08887731 -0.16463651 -0.03391705 0.111302555 0.1811067 0.42789462 0.033679657 0.30245334 0.09693779 -0.03653845 -0.103419505 0.16974041 0.02895851 -0.20205043 0.14671688 -0.0040985784 -0.20045702 -0.40200922 -0.07083893 -0.18169814 -0.09793697 -0.266646 -0.107683666 0.25258383 0.15343016 -0.010466591 -0.3347248 0.03791216 0.16018367 -0.413966 -0.27132314 -0.35544977
78 0.26865983 -0.0062912824 -0.034542993 0.2829822 0.15965411 0.33369496 -0.020699631 0.2828104 0.219457 -0.08132751 -0.072979085 0.390572 0.060217436 -0.25973663 0.13365631 0.087963074 -0.107902266 -0.35110062 0.008819134 -0.05340548 -0.050967034 -0.24019396 0.07294054 0.26333386 0.1665196 0.15344812 -0.34312117 0.1923516 0.16695347 -0.41236866 -0.20941176 -0.388976
84 -0.07329463 -0.1638448 0.03971886 0.13010958 0.18520361 0.39428255 0.020190042 0.24615952 0.093571864 -0.013490715 -0.0413969 0.09980395 0.07368241 -0.18071637 0.13123251 -0.03611681 -0.18517716 -0.37106994 -0.10747432 -0.20235057 -0.11199328 -0.27441773 -0.1672179 0.25833064 0.17421369 0.024985814 -0.3686504 0.06872478 0.18211722 -0.40563983 -0.21653727 -0.30700114
70 -0.05158912 -0.18264505 0.023366317 0.18635374 0.21944296 0.41435686 0.03135562 0.2673883 0.13014193 -0.053714138 -0.08932288 0.15597816 0.08938156 -0.2113615 0.14252864 -0.04634259 -0.09970446 -0.35888666 -0.12949666 -0.21788028 -0.118086174 -0.24232182 -0.13137269 0.22275603 0.19636784 -0.053991355 -0.30993733 0.08686776 0.19557784 -0.3594504 -0.22125237 -0.32191426
66 -0.17462029 -0.20847864 -0.038618557 0.14612177 0.2284731 0.48731014 0.03585798 0.3293498 0.10427977 -0.02735535 -0.055463184 0.08563605 0.07171755 -0.2365753 0.12228097 -0.06433291 -0.2195246 -0.38043424 -0.14696613 -0.22372802 -0.1398829 -0.27929696 -0.13785002 0.17193142 0.19477294 -0.11324494 -0.2875836 0.049907185 0.1326528 -0.36733338 -0.2300957 -0.3224812
51 0.30346853 -0.03238405 0.05261187 0.3973485 0.1858403 0.36634773 0.015344774 0.35547164 0.28703946 -0.03956199 0.07446164 0.36565092 0.12087157 -0.317234 0.1336288 0.014801238 -0.02930417 -0.2430185 -0.020078856 -0.04619839 -0.094836086 -0.21609168 0.122991815 0.26712555 0.23459685 0.047441352 -0.21337983 0.2376778 0.1689359 -0.32553574 -0.12266461 -0.38412318
81 -0.15438752 -0.2113853 -0.07981691 0.10415974 0.1749243 0.51192266 0.038165025 0.32568136 0.072040215 -0.024518523 -0.12487988 0.11242899 0.053801723 -0.2033058 0.09263933 -0.023982268 -0.20761977 -0.44133347 -0.10672699 -0.19589195 -0.15092815 -0.2776652 -0.16037315 0.24628997 0.20230347 -0.055107 -0.32229477 0.02170417 0.1158737 -0.36925408 -0.2515164 -0.36430693
90 -0.056263175 -0.16576254 0.019556198 0.12278246 0.23366962 0.3718865 0.0091328295 0.23596463 0.10275013 -0.055180002 -0.09001783 0.119266815 0.08628384 -0.1997028 0.13041708 -0.0593333 -0.13364735 -0.32634053 -0.14495926 -0.2665165 -0.07337292 -0.24045728 -0.18354069 0.23958634 0.19696322 0.0013182475 -0.39325696 0.054762427 0.22742975 -0.3580128 -0.22078343 -0.2864856
46 0.23121575 -0.01314684 -0.018599669 0.23307247 0.16134404 0.31132057 0.0031994858 0.27882472 0.21100019 -0.04513734 -0.049466603 0.38839126 0.043410774 -0.21989085 0.14709468 0.07181615 -0.059226908 -0.3400591 -0.019591155 -0.09261926 -0.064242505 -0.2606101 0.042079505 0.26685932 0.1441692 0.13586304 -0.36119893 0.14996573 0.14139219 -0.39772528 -0.19139382 -0.38805938
15 0.024535133 -0.26381603 0.21448012 0.38120815 0.29220182 0.4184494 0.08173051 0.2946566 0.1893607 -0.038173255 0.08170372 0.07855598 0.21130596 -0.26237157 0.17815681 -0.17065752 0.017044352 -0.17227603 -0.18670525 -0.23125695 -0.1626846 -0.21854235 -0.10942649 0.19621617 0.2868397 -0.17500128 -0.16652079 0.12602094 0.266908 -0.27313775 -0.08303053 -0.2785752
4 0.21052848 -0.12807655 0.2746791 0.13018347 0.2858507 0.16628309 -0.018929731 0.07522178 0.062614515 -0.05984289 -0.080051385 0.2543308 0.124676004 -0.121497445 0.13919608 -0.028100757 -0.078337915 -0.21990153 -0.23356141 -0.3483816 0.11259831 -0.20366915 -0.20569198 0.2544909 0.1931082 0.10790987 -0.6164184 0.10761957 0.31234854 -0.4010247 -0.23731717 -0.11528982
3 0.050050765 -0.24667169 0.25475144 0.4107561 0.32883376 0.3732101 0.09132251 0.31199983 0.23698317 -0.049987383 0.12680638 0.060955007 0.2737826 -0.27259964 0.18334164 -0.195125 0.024368418 -0.101090536 -0.2480225 -0.28682932 -0.18826513 -0.21562903 -0.11854182 0.13841935 0.32834354 -0.2248357 -0.16914158 0.0933644 0.30098793 -0.2383754 -0.048982065 -0.21496397
52 0.12336442 -0.03486329 -0.06257768 0.23162982 0.18901038 0.39972448 0.01061633 0.3357678 0.17913981 -0.043950196 -0.08524069 0.3406889 0.045829743 -0.237202 0.10448302 0.016032455 -0.08938523 -0.3625243 -0.008676712 -0.1195433 -0.10217107 -0.2516659 0.03894175 0.27806443 0.1665283 0.08021536 -0.29022077 0.17358673 0.14489162 -0.40935603 -0.16668583 -0.38804647
34 0.20368631 0.00060210825 -0.04656864 0.25471193 0.14965542 0.37621227 -0.006663436 0.32866046 0.2390666 -0.045108452 -0.0701017 0.41211843 0.0065122433 -0.2456083 0.11299674 0.073668174 -0.057258673 -0.39732686 0.033730976 0.0012575347 -0.107874125 -0.25427574 0.067574844 0.29361713 0.15540686 0.1460475 -0.28322065 0.19536154 0.11337557 -0.41641364 -0.17058007 -0.45125335
105 0.23713024 -0.05382849 0.021266282 0.31167796 0.16479231 0.35535154 -0.0039063855 0.34181646 0.25082943 -0.051902305 -0.007958231 0.31974018 0.060833964 -0.26886618 0.15180494 0.006849404 -0.025181945 -0.35424012 -0.014933163 -0.05510704 -0.11446015 -0.25467885 0.08150637 0.29995084 0.17706661 0.09200273 -0.24717706 0.20256013 0.15915614 -0.38185185 -0.14345679 -0.39811483
47 0.216537 -0.042828944 0.009708576 0.32594097 0.18461007 0.34950906 -0.004656093 0.34539628 0.23790787 -0.048760526 0.0071301735 0.3750133 0.09810223 -0.2772368 0.13394326 0.04352478 -0.050904416 -0.33028388 -0.02499011 -0.06570871 -0.09031171 -0.2424418 0.09014465 0.238224 0.18082431 0.065629005 -0.25329766 0.17935924 0.14342421 -0.36115378 -0.15737815 -0.39901188
67 0.18383877 -0.14715332 0.37074372 0.12432802 0.33781174 0.15402184 -0.027038323 0.030865999 0.082343824 -0.09866473 -0.076052606 0.19820513 0.16984041 -0.11062826 0.15621372 -0.08853471 -0.012031842 -0.16693218 -0.2897846 -0.40920472 0.13361861 -0.18508187 -0.2555633 0.24996719 0.1975284 0.055408906 -0.6208768 0.06765295 0.36012554 -0.3969371 -0.23271501 -0.09215756
80 -0.19389044 -0.20434436 0.0441665 0.032104082 0.26329744 0.39161092 0.01087203 0.2249519 0.03699704 -0.036088835 -0.12785183 0.015428379 0.055283885 -0.14461909 0.1124638 -0.08015833 -0.17356564 -0.37130982 -0.17980914 -0.32777166 -0.09370827 -0.27246565 -0.2811057 0.2522666 0.20117167 -0.05499343 -0.4223148 0.010529996 0.21810062 -0.36810282 -0.28254896 -0.23687597
45 0.25085425 0.019936573 -0.05667655 0.30979866 0.14157742 0.4014864 -0.013832276 0.39831853 0.24200664 -0.0410086 -0.046103273 0.42579317 0.030067028 -0.28679192 0.10724492 0.055745047 -0.07621801 -0.34300235 0.025556598 0.00023620615 -0.09758135 -0.22351351 0.13788697 0.2949209 0.16802599 0.15267947 -0.2547089 0.22894187 0.11994848 -0.3915828 -0.16286187 -0.40513784
30 0.30008295 -0.022104697 0.023852894 0.34801582 0.20309229 0.34864035 -0.01348205 0.3357008 0.25267285 -0.026905375 -0.013440129 0.43065464 0.07820714 -0.27756146 0.1463362 0.043022566 -0.0029585408 -0.30432907 -0.019228246 -0.052587394 -0.09033713 -0.21910062 0.104355276 0.28070232 0.19143192 0.126658 -0.24816984 0.23267636 0.1838877 -0.3527999 -0.13028109 -0.38322696
29 -0.017266726 -0.24998407 0.109147 0.39991856 0.25017112 0.44402915 0.071682625 0.32673684 0.19800958 -0.025501002 0.09455744 0.003956122 0.18786843 -0.266403 0.15888485 -0.14591517 -0.018259535 -0.20475753 -0.17019673 -0.23191816 -0.23043618 -0.26605505 -0.093064636 0.16490406 0.26999262 -0.19727808 -0.15085213 0.11114369 0.21860899 -0.2945372 -0.12014077 -0.3036199
122 -0.1389374 -0.20685002 -0.03801127 0.14278975 0.17496234 0.433776 0.015046117 0.30967373 0.05990195 -0.03749876 -0.0660263 0.0869882 0.06884645 -0.2003023 0.11966241 -0.02194343 -0.22524013 -0.36718535 -0.1105416 -0.16185561 -0.09665588 -0.25944638 -0.10449902 0.25452152 0.22242862 -0.08314806 -0.3265026 0.08579746 0.1568345 -0.37127498 -0.23747906 -0.35590512
75 -0.05561311 -0.18653409 0.07392035 0.13061523 0.22566937 0.3443829 0.028547343 0.22765261 0.07430919 -0.04623645 -0.024793385 0.09514162 0.08144852 -0.1546544 0.14725289 -0.07521157 -0.14360178 -0.31969088 -0.15505145 -0.25252944 -0.09831255 -0.26433074 -0.18577957 0.25022796 0.21124181 -0.03274167 -0.37091786 0.03407153 0.22861119 -0.38057825 -0.24798705 -0.30173343
101 0.15451984 -0.1269733 0.22336464 0.08260897 0.2728499 0.17590748 -0.029785004 0.08242589 0.045595653 -0.06256433 -0.0991806 0.24032949 0.08841822 -0.10438455 0.15459126 -0.02709988 -0.10852381 -0.26654008 -0.1810515 -0.33663452 0.09994199 -0.21100417 -0.17575814 0.28504476 0.17635298 0.11737203 -0.60780275 0.07916207 0.3206665 -0.3902716 -0.2699375 -0.17731056
44 0.21880567 -0.062783964 0.008199276 0.34361947 0.13665123 0.3787664 -0.003890858 0.36983746 0.25515124 -0.028318271 -0.0025769917 0.38166672 0.08426706 -0.26410124 0.11510338 0.037411742 -0.031081507 -0.33993655 0.017574234 -0.006400374 -0.10816609 -0.24363764 0.10848401 0.26286623 0.17778416 0.079128325 -0.25519264 0.22365257 0.14866142 -0.3744487 -0.13822174 -0.42352012
2 0.042164642 -0.27956116 0.23699516 0.40742585 0.3018268 0.37395048 0.08626375 0.25327986 0.17111285 -0.028063543 0.10546912 0.04703017 0.28883585 -0.26564687 0.1940368 -0.16885753 -0.01818569 -0.12910193 -0.2349995 -0.315357 -0.117831245 -0.2223154 -0.13328055 0.15635014 0.2736567 -0.22527571 -0.23017588 0.093407266 0.27401906 -0.24848337 -0.09588127 -0.2059286
28 -0.02315398 -0.2796384 0.1747994 0.4526547 0.29878113 0.39880186 0.0939256 0.33256215 0.2032842 -0.024295148 0.15163602 0.008669171 0.23695749 -0.3046393 0.18474708 -0.15603796 -0.030630093 -0.13942097 -0.21159483 -0.26385713 -0.205872 -0.23420233 -0.095635526 0.14112198 0.31210536 -0.24319176 -0.11947795 0.101595655 0.24574415 -0.25536713 -0.050172605 -0.28279898
125 0.11900537 -0.22129305 0.24077122 0.38818142 0.31588882 0.3478273 0.052095145 0.24996059 0.17785926 -0.06086541 0.11069287 0.13664599 0.23949988 -0.25229228 0.18556279 -0.109927066 0.024425676 -0.14868829 -0.23556069 -0.2775925 -0.08411223 -0.2044322 -0.07508419 0.16724145 0.26912853 -0.15824722 -0.2671716 0.10711094 0.2777917 -0.2509455 -0.10013997 -0.22540437
12 0.08049853 -0.19699086 0.14362876 0.37515596 0.27279148 0.37285912 0.079362795 0.33620295 0.21715711 -0.034406964 0.08144379 0.15813164 0.18720903 -0.28872088 0.16856323 -0.091297194 -0.0052092066 -0.22280885 -0.12771882 -0.2065339 -0.17246376 -0.20635395 -0.02148285 0.19898358 0.2575819 -0.12124322 -0.19567016 0.10638243 0.20162685 -0.30521798 -0.10535828 -0.3047968
121 0.1471406 -0.1698534 0.30487657 0.08046562 0.2994149 0.15869491 -0.028013127 0.06788684 0.047440432 -0.08520494 -0.066592984 0.22592829 0.091856174 -0.08481454 0.14827791 -0.01050468 -0.049578954 -0.27309775 -0.24208342 -0.3744747 0.13091365 -0.19096829 -0.23386502 0.2565691 0.18430477 0.110369354 -0.6355625 0.06489516 0.3006043 -0.40416273 -0.26225117 -0.13247557
16 0.20393057 -0.25151718 0.3540531 0.44257402 0.3236932 0.27219877 0.041342348 0.22927706 0.2280023 -0.037664983 0.1480482 0.10548778 0.27666804 -0.24505515 0.16417418 -0.1697669 0.066568255 -0.10241259 -0.23578537 -0.25072384 -0.094858564 -0.18317671 -0.080432676 0.20304567 0.29870442 -0.11835291 -0.25524914 0.14552754 0.30973488 -0.25073862 -0.05652342 -0.1941082
59 0.38962594 0.03559346 0.036621567 0.37847954 0.14563511 0.35027328 0.008076087 0.36944652 0.29309285 -0.048218366 0.037363347 0.4582264 0.10701202 -0.32632545 0.14659864 0.07334049 -0.016353786 -0.28138256 -0.0028325957 -0.0015533933 -0.09945158 -0.22386603 0.16543101 0.2924767 0.21620503 0.12272992 -0.2167727 0.2738918 0.1631265 -0.31247768 -0.10792745 -0.41920632
79 0.15448688 -0.11923172 0.063883655 0.34811756 0.20087487 0.35444203 0.0066384603 0.32718107 0.20939434 -0.042671364 0.026682356 0.22403416 0.12660286 -0.27032787 0.13413642 -0.02210747 -0.06876237 -0.2908346 -0.0701483 -0.109163724 -0.12017068 -0.22951332 -0.0049873656 0.22917356 0.22642589 -0.0019988024 -0.2619845 0.15961882 0.16199659 -0.36276126 -0.12942088 -0.36671546
24 0.08331794 -0.1667724 0.21605605 0.23298953 0.27024055 0.31001958 0.04416607 0.230833 0.17065467 -0.07695595 0.04402001 0.14903949 0.1867949 -0.22709654 0.16653554 -0.11572903 -0.016285729 -0.22340927 -0.16179495 -0.26107106 -0.06041419 -0.20794153 -0.11159583 0.21261698 0.2319384 -0.062931456 -0.35161245 0.114447676 0.27520603 -0.320492 -0.14795409 -0.22620349
115 0.18888877 -0.13970359 0.2719408 0.09824622 0.27468085 0.14731653 -0.011618684 0.056581695 0.08506482 -0.076272696 -0.07653711 0.24497853 0.11515006 -0.10755418 0.16864222 -0.07208746 -0.050307337 -0.24677576 -0.22359765 -0.35818335 0.12180817 -0.21135047 -0.18993086 0.2864302 0.18543258 0.09154534 -0.63079053 0.08752653 0.33900923 -0.4116333 -0.25567 -0.09852394
71 -0.09854462 -0.1920368 -0.03988996 0.14207149 0.19331518 0.4223705 0.017862657 0.28337595 0.09159586 -0.050900895 -0.08989069 0.1260735 0.071031556 -0.2068078 0.109832995 -0.03702892 -0.18013251 -0.37830275 -0.10704498 -0.19551048 -0.07990184 -0.261616 -0.13582213 0.21496622 0.18426237 -0.049861874 -0.3614118 0.060460348 0.18052077 -0.39264935 -0.25576738 -0.32231125
104 0.15329164 -0.1713978 0.29656538 0.087950125 0.33818173 0.17879957 0.0028283421 0.051463354 0.047358993 -0.07644507 -0.09297822 0.1876799 0.12314699 -0.12077899 0.15727687 -0.07659193 -0.038596135 -0.25387037 -0.25882804 -0.39816144 0.10504957 -0.2035883 -0.2654876 0.2459251 0.1907996 0.042062353 -0.63581866 0.044549536 0.32712796 -0.38414302 -0.22496344 -0.08446768
17 0.0874005 -0.22378191 0.16845658 0.4299941 0.25325733 0.41962284 0.070805 0.32473877 0.20190513 -0.036663067 0.093941286 0.10846574 0.21272533 -0.29799524 0.15222551 -0.10263372 0.0027466721 -0.19149616 -0.15757777 -0.18323353 -0.18933628 -0.22774497 -0.046482455 0.2104171 0.25812238 -0.12907936 -0.14643405 0.16028622 0.21148014 -0.2825197 -0.070053615 -0.29687908
85 0.10789736 -0.20265271 0.24360979 0.29603514 0.28414017 0.30777 0.046171337 0.22229666 0.15237793 -0.035080586 0.040733874 0.16372456 0.19413172 -0.24555889 0.16437046 -0.091547124 -0.014672185 -0.17670628 -0.19978493 -0.27205175 -0.049791116 -0.19805427 -0.12519582 0.22083133 0.25208992 -0.09543026 -0.34152928 0.120352685 0.286402 -0.30246216 -0.12777539 -0.17642054
83 -0.13886331 -0.17915279 -0.020301417 0.087404035 0.22053646 0.40033415 0.021967774 0.25059733 0.05052926 -0.049540367 -0.09234456 0.11446793 0.053898107 -0.15039966 0.13052641 -0.023864811 -0.19721845 -0.39578363 -0.15513611 -0.27847132 -0.11828501 -0.25203335 -0.18951324 0.21253449 0.20678337 -0.055740245 -0.41676497 0.036869206 0.1903422 -0.35516313 -0.25675696 -0.30989984
82 0.021369508 -0.17954524 0.048467737 0.26703948 0.23411407 0.37002623 0.03502457 0.29233894 0.12936784 -0.044743065 0.0017215436 0.117990285 0.08040027 -0.25292844 0.17132053 -0.0463836 -0.0916553 -0.29146406 -0.1272946 -0.21327263 -0.12938812 -0.2454554 -0.09625288 0.18394332 0.22642307 -0.079752065 -0.29121295 0.08973905 0.18687475 -0.33227214 -0.20048586 -0.31112683
42 0.2895733 -0.00025213693 0.0123629 0.33210716 0.17737052 0.3297095 -0.021915058 0.33408266 0.23822102 -0.0670264 -0.00023529545 0.4244252 0.07505462 -0.27639675 0.14474612 0.0749547 -0.046059266 -0.3235026 -0.012376839 -0.04491476 -0.053123485 -0.24528211 0.12907778 0.3039199 0.18140733 0.13447247 -0.27916762 0.20681202 0.14585032 -0.36588842 -0.14513016 -0.40416047
124 0.17787686 -0.1091126 0.19347547 0.08672732 0.26004657 0.15692002 -0.025777264 0.064757586 0.030202268 -0.0605206 -0.12574683 0.25990605 0.0817014 -0.08113004 0.1551765 -0.011058871 -0.093169264 -0.26889867 -0.16500522 -0.3443082 0.12119932 -0.2176489 -0.16147132 0.29952708 0.16845891 0.12021903 -0.6538854 0.11369499 0.3229742 -0.43088558 -0.28672424 -0.17763102
107 -0.031348743 -0.1626498 0.12286918 0.09374478 0.24285994 0.32376057 0.005637277 0.21083368 0.07641367 -0.0387844 -0.06577353 0.15837038 0.072795175 -0.1598733 0.14316432 -0.064575754 -0.13985762 -0.34660605 -0.1799993 -0.30377054 -0.0149073005 -0.23087142 -0.16324629 0.25105965 0.19331796 0.025638273 -0.45481354 0.018330868 0.24481896 -0.39338532 -0.22126755 -0.2175614
69 -0.14569825 -0.19745526 -0.053136744 0.09095942 0.19294398 0.432291 0.041709736 0.268598 0.071490824 -0.027789924 -0.13715687 0.12835248 0.07630276 -0.20101357 0.14030553 -0.015985494 -0.17093885 -0.41229433 -0.08942842 -0.21989295 -0.102023855 -0.2830427 -0.16097452 0.23504935 0.19225305 -0.031256877 -0.35911134 0.04297173 0.16506864 -0.3972124 -0.25415957 -0.3376176
76 -0.10746032 -0.20924541 0.0049515665 0.18938556 0.23188601 0.47571608 0.034798637 0.3327053 0.105033726 -0.015289708 -0.031238694 0.0765549 0.098966114 -0.2406494 0.15671839 -0.07510045 -0.18663156 -0.30947387 -0.12830825 -0.2137918 -0.12584995 -0.28976807 -0.13907117 0.19369335 0.24027796 -0.11709821 -0.2729351 0.09224868 0.16595672 -0.33657953 -0.17987107 -0.2996675
73 0.056863386 -0.27275565 0.23423544 0.4623155 0.33424577 0.40248135 0.09973201 0.317216 0.2230614 -0.03690307 0.13789175 0.033301514 0.2939815 -0.299877 0.20261914 -0.18734714 0.023241963 -0.095899135 -0.24937057 -0.30684713 -0.20078205 -0.2202526 -0.090219244 0.17348817 0.32938826 -0.25088966 -0.1379649 0.10973878 0.2842973 -0.20486446 -0.04884862 -0.21728876
21 0.09322751 -0.29096118 0.29654694 0.5796066 0.33332983 0.4396671 0.12375256 0.38025305 0.29711947 -0.029848104 0.2446966 0.042722218 0.36076033 -0.33970872 0.18839934 -0.2468488 0.11424524 -0.041700415 -0.22103873 -0.2700053 -0.2745103 -0.22406203 -0.05307712 0.13637267 0.35556534 -0.30317807 -0.0122550335 0.16306971 0.2981248 -0.16707256 0.042646836 -0.24927428
