128 32
34 0.15791966 0.20512316 -0.02128555 -0.064051755 -0.09531372 -0.223006 -0.29707897 0.18172948 0.14625518 -0.08049951 -0.07367814 -0.09223812 0.035079233 -0.2835511 0.1428089 -0.52346396 0.29563108 0.368621 0.13126536 0.08651555 -0.11674719 -0.011938299 0.2918066 0.021483453 -0.2708574 -0.1632313 0.043847814 0.17868933 0.05754859 -0.3891676 0.1410808 0.07898661
33 0.1102174 -0.036222693 0.012353465 -0.0513934 -0.18286985 -0.4475599 -0.09682057 0.12507369 0.0068946294 -0.12234221 0.08152001 -0.11565223 -0.06554591 -0.09330262 0.12639228 -0.58803916 0.21349819 0.401802 0.13302393 0.18221548 -0.34691444 -0.019339832 0.15062593 0.122105844 -0.2762261 0.074750945 0.023507722 0.22810945 0.22070968 -0.55020875 -0.080815636 0.15300247
58 0.04280649 -0.08111919 -0.0042345417 -0.029654728 -0.22302485 -0.4973257 -0.05997246 0.0986768 0.054556128 -0.052376725 0.07410399 -0.10786157 -0.116032876 -0.08368091 0.224212 -0.5272702 0.20652272 0.46515197 0.12700547 0.22059312 -0.31939355 -0.004442299 0.16868931 0.07348245 -0.26340112 0.035114884 0.024158522 0.20786957 0.1908617 -0.4778528 -0.030765057 0.16018875
116 0.06982094 0.0043670093 -0.013839672 -0.084324315 -0.16418098 -0.44107628 -0.10588783 0.1300772 0.09274395 -0.0178774 0.02348605 -0.13375267 -0.05438076 -0.073601924 0.21669824 -0.52577835 0.20049627 0.4975712 0.13684392 0.16922697 -0.18770182 -0.07261105 0.21455759 0.05354255 -0.26310652 -0.008038089 -0.004092203 0.20367575 0.12632102 -0.4332017 0.06343286 0.18062049
99 0.052210797 -0.077688344 0.0013685114 -0.079475366 -0.19227086 -0.5224224 -0.048884887 0.08986357 0.07322706 -0.038376983 0.09256922 -0.11141455 -0.10320925 0.016027618 0.25369027 -0.53948134 0.15634951 0.456503 0.14790575 0.19254695 -0.25796294 -0.08257384 0.17571194 0.108623706 -0.25037122 0.07190732 -0.008685906 0.17806008 0.1796396 -0.49195775 -0.02863521 0.20125291
87 0.2175439 0.15574403 0.053437684 -0.096784234 -0.17450689 -0.21047209 -0.35394815 0.1586196 0.04743502 -0.037943352 -0.1603902 -0.15828912 0.06981364 -0.08376696 0.21560329 -0.49461564 0.20096825 0.37716392 0.09185158 -0.03550442 0.15488338 -0.27672544 0.2974944 0.08034278 -0.14937161 -0.11543411 0.078593075 0.12065402 0.009173342 -0.5108979 0.23295243 0.19394746
73 -0.04776682 0.087816425 -0.11987371 -0.082704745 -0.1456092 -0.30963475 -0.20860656 0.18675444 0.28165904 0.009509963 -0.12900776 -0.094295844 -0.06882792 -0.26442632 0.28469813 -0.44237956 0.28177914 0.5183645 0.10112676 0.15423787 -0.087493084 0.095812865 0.27522814 0.0383393 -0.28126594 -0.1522156 0.060257204 0.18546396 0.04258492 -0.25219032 0.19949542 0.13487236
123 0.014814467 -0.11665458 -0.018728692 -0.065258466 -0.2292629 -0.529215 -0.004356857 0.067015946 0.04769368 -0.035546802 0.100626945 -0.12154532 -0.105703115 -0.0073758815 0.26470688 -0.5677889 0.17736816 0.51585394 0.12625793 0.22870703 -0.31412444 -0.045868468 0.17740616 0.10993457 -0.2900006 0.07987117 -0.0009758032 0.19984303 0.17917515 -0.49504408 -0.08127667 0.2035089
52 0.24945691 0.20811708 0.009856389 -0.0028780787 -0.019050606 -0.2401232 -0.3309114 0.16730799 0.09917496 -0.16684952 -0.053223025 -0.0568536 0.05522504 -0.28821045 0.042025544 -0.5663426 0.29798368 0.28269485 0.1119741 0.1152038 -0.19766247 0.041111685 0.26074612 0.00028150206 -0.26145115 -0.17017902 0.05984352 0.20444617 0.101978056 -0.4595011 0.112229295 0.061600756
93 0.23579594 0.15464802 0.1489609 -0.17562146 -0.20274954 -0.19945472 -0.39588273 0.13204738 0.004176576 -0.040647753 -0.16561241 -0.18833022 0.0850005 0.020566877 0.24027234 -0.49480593 0.191245 0.3531429 0.1297855 -0.09225917 0.2759577 -0.4122733 0.29851976 0.114549026 -0.08398858 -0.106736906 0.056161415 0.090452574 -0.007882536 -0.5776161 0.25376296 0.26127884
124 0.10217126 0.013279892 0.032565605 -0.072435774 -0.15308423 -0.412395 -0.08821445 0.12262626 0.050132114 -0.0848129 0.06913209 -0.09686466 -0.07382325 -0.10438637 0.17662597 -0.5853107 0.23498029 0.3892358 0.15722752 0.1666023 -0.23889296 -0.054642368 0.17721474 0.064589046 -0.26980472 0.02507058 0.010249221 0.21788742 0.16690756 -0.4862049 -0.038231134 0.18298191
29 0.065406874 0.059003085 -0.05642924 -0.087323345 -0.13204695 -0.35408595 -0.19738878 0.13140868 0.16606851 -0.023158677 -0.06917749 -0.12596804 -0.0064882245 -0.17970926 0.25417635 -0.45631886 0.23939659 0.46541 0.0868439 0.13515915 -0.07165302 -0.049965758 0.22979672 0.07157741 -0.240855 -0.1135722 0.07963544 0.17303051 0.06212455 -0.39714494 0.15206774 0.16705915
103 0.066717096 -0.07056011 0.008044388 -0.06774105 -0.17489877 -0.4691494 -0.062146474 0.07168605 0.04384854 -0.070483364 0.054166105 -0.13103454 -0.08824285 -0.05040841 0.19350067 -0.57310134 0.2012792 0.4631398 0.10860511 0.21634924 -0.3450809 -0.028160766 0.16757782 0.09674272 -0.26169357 0.07535055 -0.010615342 0.22448908 0.22608519 -0.51630795 -0.039568223 0.16702747
3 0.0010302754 0.10150515 -0.13212079 -0.06472989 -0.13090165 -0.3330298 -0.18460633 0.16657126 0.24508026 0.0054708375 -0.10005176 -0.07176661 -0.07870133 -0.24604774 0.24795286 -0.45179656 0.25473428 0.5197665 0.088090375 0.17692208 -0.13539512 0.0680145 0.2702187 0.008569888 -0.2878606 -0.15400474 0.091391936 0.1902485 0.014228475 -0.28139725 0.14959419 0.10568138
91 0.079155535 -0.068378486 0.008045859 -0.04075586 -0.20978166 -0.46847993 -0.1019521 0.07895869 0.02767134 -0.07587219 0.08795486 -0.12537466 -0.052426234 -0.063254945 0.2053004 -0.55744934 0.19543548 0.4557713 0.120992154 0.19448337 -0.28189665 -0.04523138 0.18694545 0.11573775 -0.25921372 0.061137203 0.004881113 0.21802966 0.18932948 -0.5078495 -0.025300747 0.20376897
75 0.17814957 0.09275996 0.08996401 -0.15157658 -0.15113966 -0.24449162 -0.35258105 0.15858348 0.04963277 -0.042171147 -0.12296381 -0.12416192 0.07324086 -0.010280081 0.24714833 -0.46683967 0.18638106 0.3769575 0.13898799 -0.011119973 0.17622453 -0.2844411 0.28796592 0.11754713 -0.15416075 -0.10554072 0.05200954 0.1045464 0.024566172 -0.5213031 0.22987223 0.2571618
94 0.15332103 0.09729243 0.08546461 -0.18334392 -0.21586825 -0.24681534 -0.33606935 0.14448878 0.062139545 -0.018626986 -0.1737041 -0.16674842 0.034666378 0.06913848 0.30042595 -0.44733945 0.1669111 0.43322238 0.12873693 -0.07391357 0.2874319 -0.38224196 0.2675895 0.15257955 -0.105297856 -0.111488886 0.05412765 0.09540709 -0.023443839 -0.5011901 0.2461062 0.27452114
24 -0.040069833 -0.03961897 -0.013421313 -0.11598282 -0.222783 -0.4018943 -0.12195664 0.106223695 0.13945071 0.020555677 -0.045993514 -0.10007363 -0.087807424 -0.049555726 0.3163775 -0.46681407 0.17639379 0.5377301 0.0958986 0.16060987 -0.117798634 -0.07726303 0.20770472 0.1002468 -0.246547 -0.024100391 0.014259279 0.17597896 0.08492801 -0.40631345 0.08974934 0.22868674
95 0.08595942 0.012901578 0.06974555 -0.16208611 -0.21431047 -0.3153596 -0.25047207 0.08549281 0.082764454 0.005424618 -0.09940079 -0.17790522 0.044753686 0.04146932 0.31972232 -0.46585298 0.15710351 0.46662417 0.15690754 -0.014970516 0.181339 -0.32395378 0.26064855 0.15392098 -0.11830664 -0.06709837 0.04414823 0.1294889 0.027846774 -0.48428816 0.20697321 0.2837867
44 0.30103514 0.29532525 -0.018376604 -0.015701061 -0.012312548 -0.16241169 -0.41281307 0.2045897 0.13208771 -0.14680399 -0.14162953 -0.06763615 0.047644883 -0.3204415 0.048723795 -0.5564907 0.34565163 0.3066054 0.11629824 0.08400317 -0.079220176 0.014518928 0.30706415 -0.02307326 -0.24334925 -0.24169713 0.0674062 0.15055138 0.0475635 -0.42135206 0.19043869 0.04997152
47 0.19827262 0.19921644 0.005620083 -0.041966897 -0.05032143 -0.21633242 -0.31359768 0.17634757 0.11664704 -0.10107291 -0.06890484 -0.09221344 0.027923813 -0.28039578 0.10313039 -0.5598192 0.32463378 0.3317759 0.10727513 0.11732835 -0.13025041 0.03749887 0.28673548 -0.017739214 -0.24269663 -0.1724281 0.08211282 0.15800127 0.0939355 -0.4229248 0.15398915 0.08118369
61 0.03842408 0.18057339 -0.14220339 -0.110439084 -0.09347997 -0.25312564 -0.32700086 0.20064136 0.28838792 0.017827228 -0.17830093 -0.11113059 -0.026510876 -0.32276502 0.29415816 -0.39537886 0.2864818 0.5141383 0.10430238 0.07382142 0.07246036 0.03020229 0.268202 0.016452484 -0.2579199 -0.2646998 0.11690668 0.15948826 -0.050972547 -0.20911857 0.27478358 0.13431127
19 0.028792571 0.1293031 -0.01177829 -0.13791217 -0.14550807 -0.27846587 -0.25758412 0.15364729 0.18860517 0.03898401 -0.16077942 -0.15678076 0.0047216797 -0.1151553 0.32142663 -0.4508615 0.2051806 0.46186858 0.11702571 0.030802585 0.12151647 -0.14076927 0.27301356 0.06423429 -0.1935018 -0.15874748 0.061117537 0.12617593 0.018020567 -0.38585043 0.23678054 0.21738026
97 0.06520866 -0.04397135 -0.016484685 -0.019949108 -0.14263545 -0.4743283 -0.09529592 0.11424156 0.053983435 -0.082563534 0.07753766 -0.1223403 -0.07862566 -0.117864765 0.16462384 -0.56739783 0.22260116 0.4346994 0.12334226 0.21301104 -0.36932513 0.016108517 0.17522903 0.050732654 -0.304962 0.029655866 0.012209888 0.22651258 0.18540618 -0.503125 -0.015986476 0.14674301
122 0.18003835 0.10061108 0.12378064 -0.13366471 -0.15647879 -0.25190994 -0.2953617 0.0963684 0.032069303 -0.03471978 -0.07959285 -0.15360601 0.05242486 -0.0022132038 0.21906346 -0.5174119 0.19729994 0.38885617 0.14616272 0.013530235 0.06660975 -0.25911826 0.26807088 0.1129341 -0.15827937 -0.030817717 0.011241899 0.12146057 0.055621374 -0.53806376 0.16934393 0.22758801
2 -0.0037461226 0.031187302 -0.09117766 -0.058711465 -0.18438414 -0.38683885 -0.15308103 0.12768392 0.20034382 -0.0016425548 -0.053618137 -0.08206768 -0.06953348 -0.18781367 0.2734392 -0.43042 0.23987982 0.49991015 0.1025928 0.140585 -0.078841425 0.014115763 0.2363504 0.05530775 -0.26150066 -0.110029824 0.07075793 0.18004313 0.020215347 -0.3144969 0.1453225 0.18878552
14 -0.022047758 0.11298759 -0.18899627 -0.054740492 -0.10379175 -0.33802986 -0.23834258 0.18067043 0.30124074 0.013515636 -0.101775624 -0.07899498 -0.07545352 -0.30776834 0.28697366 -0.43297818 0.2745196 0.54935765 0.08012099 0.13231306 -0.031748034 0.12497256 0.2639866 0.025581088 -0.29793048 -0.22905988 0.09151739 0.15330172 -0.0028525058 -0.2227879 0.20309259 0.11693345
28 0.008619957 0.08149244 -0.0661107 -0.11780157 -0.14185324 -0.36204264 -0.21208665 0.122993395 0.20822307 0.036636323 -0.06367791 -0.1294566 -0.048701186 -0.18166703 0.29491168 -0.45956942 0.23748048 0.5198732 0.0987577 0.1260663 -0.010068072 0.0033038144 0.25160098 0.051242292 -0.2759907 -0.108683206 0.05367163 0.17232639 0.04346958 -0.30487674 0.14202112 0.1719859
1 -0.00686337 0.071481496 -0.122996494 -0.055908494 -0.14738208 -0.3393487 -0.16278498 0.17086802 0.2399761 0.03511614 -0.10262272 -0.08073647 -0.096399516 -0.25829524 0.29699057 -0.47762197 0.25345275 0.5351459 0.11369473 0.16684775 -0.072156176 0.061887152 0.26486814 0.021750132 -0.2793691 -0.14820503 0.07424863 0.18004462 0.030707045 -0.27775043 0.16887756 0.14938334
111 0.064382404 -0.011832844 -0.022711197 -0.07883312 -0.19398259 -0.3815696 -0.14610022 0.10436775 0.08128691 -0.026412528 -0.009543375 -0.10008582 -0.023874557 -0.10088253 0.2041449 -0.5266825 0.2292403 0.44904712 0.104223296 0.1654172 -0.1841609 -0.057760753 0.2314004 0.06533115 -0.2515381 0.00049437827 0.03685859 0.17379588 0.13378678 -0.46933424 0.04654976 0.18195799
72 0.14748478 0.03595186 0.14273167 -0.19896983 -0.23620258 -0.26946098 -0.2894493 0.104341164 0.0095338365 -0.012668078 -0.1189594 -0.16422541 0.042116463 0.10365897 0.29587656 -0.48399848 0.10555917 0.4208024 0.15017575 -0.016739037 0.17491691 -0.38669482 0.25715867 0.13284105 -0.123354785 -0.015530284 0.018969586 0.11233842 0.036720686 -0.54060453 0.17790835 0.27402502
112 0.086142495 -0.020291956 0.0074040303 -0.060438443 -0.17063223 -0.4705096 -0.06483646 0.124614134 0.06796486 -0.040028717 0.035246223 -0.12178138 -0.09880076 -0.075267926 0.2043744 -0.57120264 0.19833288 0.43663618 0.1488607 0.19856738 -0.25594407 -0.066001065 0.17584866 0.053924423 -0.28239438 0.043157812 -0.023997353 0.2045482 0.16106492 -0.4593736 0.020978663 0.16954054
101 0.1584375 0.070943736 0.10547085 -0.13117482 -0.19370456 -0.31225002 -0.31263682 0.1085898 0.041152004 -0.06395267 -0.06235776 -0.15663521 0.079912476 -0.052154683 0.21559922 -0.48443964 0.1930454 0.3790099 0.103793114 0.043762725 0.03642149 -0.230601 0.26641378 0.09770623 -0.14759392 -0.08560677 0.05519929 0.15270293 0.07950526 -0.5374844 0.15984511 0.20962651
30 0.2903656 0.34430802 -0.04619828 0.031674497 -0.007132849 -0.16157076 -0.47965798 0.24526908 0.13248125 -0.20366123 -0.12292432 -0.05701107 0.11575903 -0.43505016 -0.001333308 -0.54641634 0.38107923 0.2689643 0.051476654 0.0823708 -0.11591563 0.112079434 0.30606928 -0.030962871 -0.2717157 -0.28592405 0.09321907 0.19198546 0.06574435 -0.40195045 0.22003962 0.005073238
45 0.2119077 0.23814227 -0.016459152 -0.011808834 -0.04166236 -0.2411261 -0.3480671 0.20175819 0.10764332 -0.12710486 -0.060612265 -0.056114 0.0089735165 -0.3097962 0.06202129 -0.5684341 0.33313188 0.30972373 0.1209205 0.12435523 -0.20348021 0.018356744 0.2938462 -0.022676261 -0.2766079 -0.18775913 0.051549483 0.15099916 0.07787172 -0.4411305 0.14467701 0.052175786
35 0.16783568 0.22805084 -0.091741465 -0.046572782 -0.033344068 -0.23878145 -0.35971475 0.20408767 0.2010762 -0.09197747 -0.13667034 -0.08186551 0.03514643 -0.3276979 0.13779798 -0.4933849 0.31731737 0.38083732 0.09150201 0.101173505 -0.02649649 0.036247797 0.28140426 0.019303782 -0.25354108 -0.24441575 0.087382086 0.15124655 0.02393708 -0.36660078 0.21765773 0.07382147
83 0.1408241 0.06575049 0.09865713 -0.16962963 -0.19913884 -0.2592806 -0.3170832 0.087814614 0.045747224 0.0048009246 -0.13180831 -0.16110052 0.061074957 0.062122744 0.29159448 -0.44350612 0.1387224 0.4314437 0.13943717 -0.033682123 0.24027596 -0.37331128 0.27475902 0.12818073 -0.10965566 -0.07774207 0.061937466 0.10099885 -0.019111803 -0.5301702 0.20880504 0.29826164
13 -0.026135098 0.09682223 -0.11617905 -0.092981294 -0.1582534 -0.29135424 -0.23190181 0.14231727 0.286421 0.042011455 -0.15378442 -0.10559016 -0.059461594 -0.28298894 0.33656046 -0.42151752 0.25917023 0.53832746 0.072704144 0.11349214 0.014749948 0.04750888 0.27480736 0.048189722 -0.2569063 -0.21067658 0.10553142 0.1537753 0.0070275394 -0.2933279 0.25072265 0.15292042
56 0.17513873 0.21320555 -0.045223184 -0.04008901 -0.020632686 -0.23713134 -0.33773068 0.18520015 0.17692967 -0.11728242 -0.105632946 -0.078282885 0.03264716 -0.327361 0.09855049 -0.5039908 0.33893442 0.39508298 0.07880872 0.1185234 -0.08848519 0.060730893 0.27384487 -0.0057660104 -0.25527284 -0.22859898 0.06884558 0.19268736 0.051191278 -0.36009538 0.19609572 0.06361557
78 0.17391455 0.22439519 -0.044154823 -0.013737648 -0.0646133 -0.21733475 -0.3571931 0.19841364 0.18771334 -0.12717497 -0.09594302 -0.077417515 0.017846758 -0.34722623 0.113589235 -0.5055465 0.3406771 0.3544071 0.081482746 0.08720261 -0.13222441 0.07535834 0.29026678 0.0035444272 -0.26412085 -0.23141637 0.0745234 0.18844049 0.047572825 -0.33739716 0.19796501 0.077783726
31 0.027135717 0.094242625 -0.06892766 -0.0924481 -0.14630882 -0.30082202 -0.22227193 0.1591434 0.20791578 0.009697075 -0.108820036 -0.08855188 -0.033656947 -0.18661864 0.29945916 -0.4175173 0.22926942 0.4956429 0.09557447 0.11430459 0.024265066 -0.025279589 0.2777445 0.05412014 -0.23230259 -0.1299418 0.088524036 0.15207645 0.0058970386 -0.31252143 0.18122602 0.16055894
86 0.21050923 0.14974448 0.12571208 -0.16429348 -0.16816436 -0.21313074 -0.37748888 0.14280106 0.023639292 -0.035403155 -0.14958566 -0.15970027 0.122757204 0.013449637 0.24169472 -0.49189433 0.15727437 0.38061062 0.13390155 -0.0621195 0.2274632 -0.34739587 0.31928003 0.11613842 -0.10541353 -0.10853378 0.043489225 0.081456006 0.008544945 -0.5672122 0.2293816 0.2563466
11 0.11987004 0.04752845 0.0279854 -0.10154213 -0.16539586 -0.3615361 -0.1749042 0.11054396 0.06300307 -0.056376297 -0.036082402 -0.14546677 -0.029049098 -0.1164742 0.20471318 -0.5377165 0.2139407 0.40527427 0.119334936 0.120564334 -0.14514199 -0.11246503 0.21980625 0.07207051 -0.23973846 -0.022963744 0.030629687 0.20141397 0.12955382 -0.46810418 0.081855394 0.1827528
118 0.108993 -0.006018931 0.043494202 -0.10002325 -0.20748259 -0.4117786 -0.12700476 0.11216439 -0.004515745 -0.066395395 0.048506986 -0.12015011 -0.06788174 -0.05273141 0.17239052 -0.5562515 0.18744585 0.3891845 0.14265063 0.16102591 -0.248606 -0.08972359 0.1662132 0.09922349 -0.24033202 0.070227146 0.00048123524 0.22251374 0.1516904 -0.52516973 -0.032339733 0.19261423
22 0.08413772 -0.09278982 0.07770962 -0.08749766 -0.25158074 -0.5065216 -0.012902529 0.085685134 -0.02624984 -0.05495148 0.11272692 -0.1158944 -0.08316709 0.049213767 0.20226853 -0.5858763 0.13728172 0.44544744 0.15076922 0.19020858 -0.34735638 -0.119479805 0.16736586 0.12636524 -0.27575397 0.14023305 -0.035989266 0.24128442 0.21690753 -0.5840496 -0.09377867 0.2268117
110 0.060909104 -0.054065857 0.00646491 -0.039017897 -0.20467341 -0.47759148 -0.051621944 0.09859306 0.077447616 -0.044815008 0.07424375 -0.10271414 -0.07892862 -0.08095964 0.20925754 -0.570961 0.21048728 0.48441783 0.112102434 0.20595068 -0.33125475 -0.008047061 0.20448446 0.0892228 -0.30041537 0.039515097 -0.008660403 0.22574173 0.17748769 -0.47761604 -0.040653642 0.17994605
9 -0.07136102 0.070191704 -0.11717355 -0.11317505 -0.14370099 -0.27669147 -0.21032748 0.1750509 0.29756486 0.0728428 -0.15177733 -0.11327261 -0.062325146 -0.21828839 0.3643216 -0.41596603 0.2473252 0.5808573 0.07818191 0.08844282 0.025899356 0.0052627283 0.2920462 0.021195007 -0.2628047 -0.17401735 0.08642 0.11775944 -0.02443723 -0.23141803 0.2592948 0.16820614
127 0.069554865 -0.094208114 -0.023995675 -0.039617874 -0.24182154 -0.49360704 -0.0019878892 0.08135882 0.008195147 -0.055887673 0.11400676 -0.11637858 -0.14060578 -0.04185532 0.20361322 -0.6099197 0.20657904 0.46736467 0.1532209 0.22625063 -0.41107175 -0.04209846 0.160271 0.12087184 -0.27113914 0.11555264 0.011374199 0.22970836 0.23395118 -0.5274727 -0.09802979 0.2023349
109 0.10928718 0.031793557 0.019030761 -0.051819365 -0.15263371 -0.37552813 -0.16035765 0.12759738 0.060739696 -0.08933 0.03326239 -0.10832492 -0.06027446 -0.16847734 0.15962921 -0.576512 0.2341647 0.40011445 0.12586333 0.16904782 -0.27039194 -0.033790745 0.17795733 0.064225145 -0.2577624 0.047721375 -0.009570326 0.20519003 0.18427935 -0.45531893 -0.0008985366 0.15525593
64 0.10057331 0.020662108 0.088025235 -0.15548876 -0.19756915 -0.31435847 -0.24642377 0.08440167 0.032183837 -0.021308558 -0.061335057 -0.18381009 0.045689575 0.009248959 0.2654883 -0.46968102 0.14137802 0.46542937 0.13070618 0.038920064 0.07152971 -0.2936418 0.23981136 0.13722149 -0.17484894 -0.008257957 0.036065858 0.11942674 0.08033801 -0.53929514 0.1458805 0.25634393
89 0.13117187 0.03136029 0.0908893 -0.13594049 -0.21732797 -0.3220445 -0.25358748 0.1182939 0.057619154 -0.012905775 -0.057372596 -0.14749482 0.0066342894 0.027854193 0.29030758 -0.48621607 0.1470559 0.44142058 0.14334887 0.01826138 0.11882271 -0.3084312 0.23150943 0.14138632 -0.14974278 -0.04655518 0.059082802 0.13596012 0.038957305 -0.50433004 0.16737318 0.2761849
114 0.103279114 0.011886445 0.11981062 -0.17835914 -0.25700638 -0.32508042 -0.22334059 0.10855709 0.05879886 -0.01465195 -0.08548934 -0.19151829 0.018200306 0.107819036 0.32395104 -0.48114592 0.11374122 0.4576742 0.11228878 0.0014626968 0.14681838 -0.3557087 0.2717474 0.13984515 -0.14620644 -0.020635085 0.037497014 0.14612634 0.05262716 -0.5230392 0.18884227 0.28982735
43 0.24654919 0.3276149 -0.04343032 -0.019637637 -0.008024265 -0.18409191 -0.43505263 0.24302736 0.1816042 -0.14295581 -0.13733861 -0.07763426 0.06783611 -0.40896133 0.0641081 -0.51941454 0.34773463 0.30982107 0.08545913 0.09058356 -0.09933299 0.05739684 0.33892748 -0.036909256 -0.28906515 -0.25166592 0.09074913 0.15830396 0.032154728 -0.36970916 0.20242372 0.01858265
20 0.079906404 -0.007426129 0.12077457 -0.2029573 -0.22655848 -0.34900117 -0.2806607 0.112803236 0.020581542 0.001685498 -0.0704346 -0.1771265 0.03705953 0.103900835 0.33841065 -0.46645755 0.10362778 0.44102904 0.1691138 -0.024853623 0.18761888 -0.35729352 0.2381617 0.16498375 -0.13279957 0.007511992 0.013185636 0.09616709 0.0501953 -0.55965793 0.15777934 0.32658234
74 0.15621273 0.062055055 0.09761626 -0.16145721 -0.17257242 -0.27465427 -0.2952002 0.09833741 0.06467689 -0.030697394 -0.058643233 -0.12523942 0.04432624 0.07969272 0.26579186 -0.47473422 0.16450408 0.39677143 0.1759067 -0.05397256 0.15182826 -0.35661098 0.25706476 0.15441982 -0.106193565 -0.061329287 0.061098002 0.11043251 0.006872152 -0.54109514 0.21041277 0.28365043
128 0.06643628 -0.031464893 0.016321305 -0.08722875 -0.20913681 -0.45262071 -0.085608825 0.09661997 0.060926847 -0.050255626 0.040227056 -0.12876755 -0.08004569 -0.029109703 0.24505529 -0.55258065 0.17446914 0.4546156 0.15170422 0.15689923 -0.21218675 -0.083711684 0.1788365 0.08264266 -0.24075657 0.043227885 -0.0044905 0.18847178 0.16551629 -0.47611317 -0.032208465 0.22367573
50 0.23775168 0.27240545 -0.026551712 -0.030162862 -0.015804596 -0.21439621 -0.34804606 0.21229497 0.13986406 -0.12682542 -0.058893815 -0.071295604 0.077307284 -0.34268048 0.07022024 -0.56576264 0.35197225 0.3375539 0.09469083 0.1160473 -0.16681597 0.031216342 0.30418184 -0.015989147 -0.28677878 -0.20065135 0.042459626 0.17161809 0.082129925 -0.4167796 0.14891838 0.03235958
98 0.25088358 0.23996936 -0.04074344 -0.041073404 -0.019493956 -0.2502994 -0.36055234 0.18985869 0.13419202 -0.12084111 -0.05556063 -0.06439864 0.06034656 -0.2898661 0.078092605 -0.54323345 0.30535918 0.33731756 0.118442796 0.09043071 -0.11787869 0.042371698 0.29653773 -0.02110963 -0.2730371 -0.21165046 0.055706307 0.17479898 0.046379488 -0.390442 0.13844523 0.06464723
8 -0.0075392905 0.08446734 -0.085704125 -0.11004103 -0.14136031 -0.30661535 -0.2623466 0.14864725 0.2630825 0.017941494 -0.1152489 -0.09913835 0.0016025382 -0.18979576 0.28755596 -0.44465733 0.22756948 0.52146864 0.1309308 0.07670986 0.011487828 -0.04781153 0.2750699 0.076793656 -0.25321352 -0.13680547 0.055303704 0.13150744 0.0036264309 -0.2987103 0.19570754 0.19294754
68 0.14632973 0.057753596 0.06144087 -0.1590495 -0.19589315 -0.3104396 -0.29885578 0.14595361 0.06815112 -0.039915115 -0.10071726 -0.12562138 0.02638268 0.013906679 0.26941723 -0.46774498 0.15360118 0.41624224 0.12307636 0.0038157818 0.11982309 -0.27408016 0.25509593 0.11021309 -0.15737778 -0.05904085 0.021141177 0.13649881 0.040376734 -0.4886131 0.15320224 0.2547853
16 0.06961413 -0.11096396 0.07031679 -0.10837517 -0.23734598 -0.49496877 -0.065383665 0.058482252 -0.0008182015 -0.03400673 0.089192465 -0.15262102 -0.07532688 0.034743067 0.2238112 -0.5700512 0.13361284 0.438254 0.15586503 0.14870621 -0.22148794 -0.15961263 0.1668826 0.13084295 -0.22162718 0.11475385 -0.007973589 0.17078595 0.18827873 -0.5756384 -0.060899008 0.2559726
26 0.031611085 0.14735942 -0.07890305 -0.13232778 -0.14909817 -0.20992565 -0.3161896 0.14523362 0.2543304 0.021202466 -0.17511429 -0.09882208 0.013810247 -0.2043589 0.295731 -0.408135 0.2540627 0.5006326 0.08986769 0.046760228 0.14034049 -0.0488227 0.33392438 0.047445867 -0.20215794 -0.23803976 0.081931196 0.13900813 -0.030846624 -0.2946883 0.29872608 0.1622162
120 0.12430341 0.08750055 -0.0060111037 -0.087669194 -0.1585542 -0.30392233 -0.21118551 0.12624192 0.107904255 -0.0465165 -0.040348757 -0.14045757 -0.00023127276 -0.12927043 0.21258555 -0.4886078 0.22181943 0.39266914 0.1293209 0.11266604 -0.10059506 -0.100512885 0.27998173 0.04929229 -0.21946189 -0.0726989 0.053008687 0.17874584 0.07483522 -0.44062823 0.13631777 0.18595788
108 0.11326226 -0.071196824 0.04439837 -0.09020859 -0.23284742 -0.522367 -0.07173513 0.097498745 -0.01927778 -0.08142887 0.09874699 -0.13343786 -0.07538413 -0.0047333795 0.21892096 -0.59242344 0.16763395 0.43552104 0.15601718 0.16668499 -0.29554245 -0.10677363 0.15822771 0.131829 -0.2578541 0.11528792 -0.009883656 0.21433711 0.18586756 -0.56823206 -0.061713178 0.20945424
7 0.1016902 0.11318294 -0.03212144 -0.05944278 -0.13701162 -0.2856262 -0.24650969 0.15500112 0.14339797 -0.025078474 -0.08650389 -0.09393965 -0.007336787 -0.18308063 0.22502938 -0.48824394 0.26752776 0.45510277 0.08472865 0.090975165 -0.05749728 -0.04492373 0.2726215 0.04705709 -0.21467566 -0.15304996 0.051084593 0.17989334 0.043759 -0.3646938 0.18911536 0.13358988
70 0.16986167 0.024625432 0.11739244 -0.1750372 -0.24000978 -0.36068815 -0.24000107 0.088364996 -0.03651986 -0.017134042 -0.03752792 -0.17392884 0.022049364 0.117447734 0.25079158 -0.48824474 0.11909641 0.4029543 0.15998733 0.017868955 0.06666846 -0.37126365 0.22216383 0.15264586 -0.12493052 0.023153769 0.021042822 0.119855866 0.05117798 -0.57763594 0.14357542 0.28742072
67 0.08621244 -0.13161787 0.03842166 -0.079779044 -0.2706734 -0.5186227 -0.041413464 0.075776875 -0.032715634 -0.0626806 0.09464895 -0.12181812 -0.092405185 0.067917176 0.24223875 -0.570475 0.12342608 0.47263443 0.12326459 0.19581538 -0.2789208 -0.16250688 0.17023753 0.14522128 -0.2652039 0.13599627 -0.016766617 0.21294068 0.18316346 -0.5839565 -0.09109694 0.22966988
106 0.06663788 -0.033699907 -0.00843949 -0.04148285 -0.18973865 -0.4620128 -0.053301882 0.10262965 0.03006473 -0.071713276 0.08240859 -0.12517747 -0.09128818 -0.04674646 0.19171531 -0.5492219 0.21535128 0.45308012 0.14374676 0.20794164 -0.33466035 -0.041132517 0.1856925 0.07574402 -0.2759767 0.05179155 0.0030547637 0.21074711 0.19224653 -0.49485493 -0.013636723 0.18897355
115 0.11817374 -0.062779725 0.054463577 -0.0515299 -0.18839185 -0.5040084 -0.021694373 0.08256729 -0.045957834 -0.08377605 0.1352822 -0.10553685 -0.097617514 -0.022321336 0.16095899 -0.612094 0.15603383 0.42303628 0.16837032 0.24011227 -0.3988255 -0.070223235 0.13052748 0.10420186 -0.30052495 0.14953071 -0.040037353 0.25874326 0.23861845 -0.56619626 -0.11957756 0.18505049
90 0.1428903 0.04079713 0.09798563 -0.16052614 -0.22956596 -0.28015548 -0.32439142 0.113959216 0.08239455 -0.0064289505 -0.09519588 -0.17458142 0.04747308 0.05091997 0.30476677 -0.4838335 0.14303643 0.43683177 0.1348474 -0.035212155 0.17660892 -0.32616428 0.27311826 0.12816902 -0.14793772 -0.07205945 0.068379536 0.09241838 0.0054076067 -0.5289865 0.18817723 0.27051863
39 0.25307247 0.2742019 -0.09367813 -0.01042602 0.01943398 -0.18644091 -0.36830324 0.19694673 0.18231653 -0.12329913 -0.09283191 -0.0029238388 0.042270444 -0.3825001 0.049479585 -0.54386973 0.36215955 0.31081936 0.11322745 0.13020585 -0.22521769 0.15011485 0.30359668 -0.023330214 -0.2999808 -0.25209758 0.0787551 0.18794997 0.064308345 -0.36940223 0.13312982 0.0099752145
51 0.22784443 0.28918594 -0.025287645 -0.010661416 0.0011142509 -0.14172901 -0.42922696 0.20373471 0.19150166 -0.11424147 -0.14013743 -0.07896011 0.0729127 -0.39474335 0.095128834 -0.5061182 0.33262405 0.34167054 0.06483921 0.06645194 -0.0079766335 0.050193068 0.337974 -0.03040823 -0.25556377 -0.26606336 0.10682021 0.16217454 0.01327851 -0.3645093 0.271222 0.060157243
4 0.07736399 0.009879045 -0.018505165 -0.066541374 -0.16320036 -0.4160048 -0.14421108 0.10551803 0.08074404 -0.059159428 0.033158693 -0.10137759 -0.054050535 -0.10813881 0.19647735 -0.5588641 0.20299551 0.4201441 0.13033791 0.1393326 -0.17752181 -0.07518557 0.22114965 0.06158109 -0.22690429 -0.012201955 0.015181395 0.18885134 0.12281682 -0.4623013 0.05046862 0.16807498
17 -0.03002981 0.09561207 -0.15012106 -0.09778518 -0.1275039 -0.34574717 -0.18676186 0.16725238 0.29692915 0.026652634 -0.13867491 -0.07678759 -0.069413565 -0.19958122 0.30661088 -0.42642242 0.25982627 0.5254447 0.12780316 0.08957052 -0.029189462 0.031478237 0.24251848 0.031870924 -0.25007102 -0.20259666 0.09567132 0.12966295 0.005699199 -0.23367617 0.21663389 0.16038494
21 -0.013076924 0.048325267 -0.08345307 -0.07713051 -0.15866587 -0.35721755 -0.17674036 0.13951865 0.2316286 -0.0095862085 -0.07218051 -0.105458744 -0.0540965 -0.19360732 0.29131356 -0.43865925 0.23683544 0.5363902 0.097933844 0.14077394 -0.0731204 0.0024606157 0.24030484 0.045720465 -0.2547211 -0.1488838 0.07891554 0.18078648 0.03599688 -0.30852205 0.16101667 0.18302499
102 -0.02925586 0.015108681 -0.08142658 -0.09839498 -0.1752587 -0.32951355 -0.15251449 0.15365517 0.2302859 0.009216848 -0.0707285 -0.107284434 -0.077426456 -0.18963759 0.3016328 -0.44560495 0.22458304 0.4975553 0.08467019 0.14255749 -0.047549844 0.0211627 0.23419179 0.04647583 -0.2585643 -0.117357634 0.07356235 0.15949483 0.06620959 -0.32281637 0.14763522 0.17005508
100 0.10308337 -0.09213916 0.07922347 -0.10030962 -0.24257292 -0.5159152 -0.025900114 0.06395108 -0.043568917 -0.048992317 0.087506995 -0.15865238 -0.09568249 0.06654445 0.21408482 -0.5922732 0.15004636 0.446753 0.19036761 0.16313909 -0.22222513 -0.19546393 0.14533156 0.10646138 -0.23740475 0.13184741 -0.03745771 0.17706841 0.18820882 -0.57772547 -0.058843475 0.24739578
69 0.14323974 0.08083156 0.11496175 -0.15171184 -0.21799046 -0.22562453 -0.33584276 0.11626179 0.07485084 -0.019316008 -0.16271488 -0.21398684 0.079067394 0.026406223 0.25787193 -0.45644066 0.17564987 0.4107139 0.11207457 -0.042926695 0.23483066 -0.35389823 0.3127723 0.15015961 -0.11836508 -0.077509865 0.05033783 0.10887136 0.007197511 -0.5263932 0.24783067 0.27218154
82 0.17841972 0.10699424 0.057991054 -0.1210806 -0.16701634 -0.233058 -0.33571562 0.12974347 0.09784368 -0.01632709 -0.12854002 -0.14742737 0.08433377 -0.04582942 0.20325398 -0.48779592 0.17527793 0.36919028 0.13182282 -0.0013325709 0.10315552 -0.27092585 0.29009384 0.06604733 -0.1692459 -0.09359054 0.047020923 0.123509854 0.028523149 -0.47535115 0.22475766 0.21324877
5 0.04491674 0.15699011 -0.102959506 -0.05648549 -0.089897364 -0.27301544 -0.2916304 0.15363207 0.27773133 -0.019397724 -0.13117549 -0.066924736 -0.04996417 -0.27495542 0.25120014 -0.45327994 0.29118896 0.45480987 0.09620064 0.11437645 -0.06013406 0.08296371 0.28948095 -0.004681848 -0.2714674 -0.21456619 0.059866812 0.14996372 -0.0110221105 -0.28275543 0.20524533 0.13287209
85 0.016118027 0.15677229 -0.11545539 -0.10754338 -0.092244335 -0.2796221 -0.2748441 0.16308661 0.22554193 -0.0050658467 -0.09258826 -0.104210295 -0.04799332 -0.2453622 0.21969377 -0.48459557 0.2703978 0.4540601 0.12175632 0.09582297 -0.05947865 0.05415385 0.26151687 -0.007032077 -0.25755337 -0.17239486 0.07837948 0.14959534 0.014179183 -0.30857864 0.21066505 0.14124225
59 0.26852843 0.2554244 -0.06618113 0.011458923 -0.00979915 -0.23333585 -0.35338148 0.20160465 0.13965796 -0.14641373 -0.053703465 -0.08628729 0.05815321 -0.3525115 0.057781115 -0.5808707 0.35059914 0.32370165 0.08989942 0.1326361 -0.19387811 0.09390785 0.298319 -0.014277249 -0.28949296 -0.20163646 0.060481478 0.19150154 0.078783244 -0.40751985 0.13638371 0.009047736
125 -0.02399259 0.051927246 -0.07254236 -0.11294111 -0.20387082 -0.37201756 -0.20949703 0.13414605 0.22120151 0.020022847 -0.061591197 -0.11416072 -0.07242822 -0.13063471 0.33242044 -0.4469727 0.18280149 0.5109447 0.13437355 0.11158061 0.0007354893 -0.042272978 0.22336951 0.10953848 -0.21659125 -0.112290286 0.081683174 0.15661293 0.04533897 -0.33897352 0.14605133 0.23601632
40 0.26250136 0.31158927 -0.039050616 -0.046289254 -0.017358262 -0.19187136 -0.3987181 0.20169276 0.15361342 -0.11212377 -0.104332335 -0.052863788 0.064830065 -0.3420993 0.081815116 -0.5364892 0.33872047 0.28460565 0.12140463 0.05319532 -0.079337515 0.025015458 0.3067886 0.011608719 -0.25311145 -0.23634247 0.058610424 0.1712553 0.013642039 -0.40590328 0.19130966 0.051251005
25 -0.023818292 0.028631136 -0.10879812 -0.10953215 -0.1797997 -0.36806053 -0.21263194 0.15647388 0.24493508 0.062141918 -0.1299974 -0.10187276 -0.0558578 -0.17619435 0.32319948 -0.37901834 0.2011494 0.54680395 0.10060777 0.123462826 0.00735889 -0.054072514 0.26123238 0.04152097 -0.27235445 -0.1580818 0.06407912 0.16197199 -0.017371174 -0.28556177 0.20637132 0.21573515
27 0.24399489 0.25901464 -0.030426273 -0.00093109615 -0.010848618 -0.20396222 -0.37124714 0.19464277 0.15820785 -0.15197061 -0.072638 -0.083261184 0.04927249 -0.34969327 0.04186767 -0.5862607 0.33763808 0.32258472 0.08009953 0.13668317 -0.17534836 0.0895341 0.30744952 -0.035229567 -0.27230737 -0.21257673 0.071321175 0.17482024 0.094859965 -0.4071917 0.13536876 0.038536415
117 0.15195696 0.02896232 0.16682936 -0.21956053 -0.21072237 -0.2651752 -0.27701238 0.10324337 -0.00032659582 -0.012585082 -0.11742418 -0.17750958 0.040202674 0.111105606 0.30357447 -0.5074258 0.11675658 0.42808032 0.16545282 -0.043751843 0.19628768 -0.41767856 0.24261558 0.16937265 -0.10059655 -0.0035946374 0.010798841 0.1239856 0.04916846 -0.5750656 0.18302597 0.31234968
42 0.28480136 0.26214132 -0.017541494 -0.029840002 -0.0016657776 -0.23135357 -0.38463598 0.19906153 0.141653 -0.18180552 -0.054179247 -0.062164422 0.08284872 -0.353424 0.031507894 -0.54377264 0.32757363 0.2754956 0.09208715 0.10313963 -0.16239065 0.039746225 0.28024593 -0.024295365 -0.27942565 -0.21717371 0.09168162 0.21090895 0.04156719 -0.41652274 0.15929459 0.020328822
76 0.15475167 0.17373167 -0.009300205 -0.113911934 -0.0953907 -0.253406 -0.30193883 0.1425194 0.11266103 -0.04516931 -0.12107332 -0.0897556 0.040790282 -0.18344581 0.18727864 -0.48668608 0.24249637 0.3980135 0.13429171 0.074893385 -0.0038155718 -0.10679883 0.29013187 0.03224691 -0.21081857 -0.14960355 0.035220854 0.13893755 0.011671102 -0.4141797 0.21328953 0.1422486
18 0.11310387 0.11995039 0.04041094 -0.14230031 -0.17453468 -0.24784459 -0.31392965 0.15560004 0.10679403 0.009762534 -0.14469025 -0.13103467 0.03596325 -0.089552365 0.2882443 -0.46922252 0.19018276 0.44293737 0.12411683 -0.01381711 0.1708948 -0.21927987 0.29936835 0.078659095 -0.15979302 -0.11023815 0.049622927 0.10693831 -0.012600874 -0.39438552 0.24993642 0.2034005
37 0.2668425 0.29186383 -0.0067768134 -0.008933014 -0.0245811 -0.21361801 -0.42925575 0.2354404 0.106059745 -0.16724463 -0.09897707 -0.08345695 0.08088546 -0.34186038 0.043540217 -0.5336546 0.36062765 0.29041204 0.08116942 0.08449061 -0.10659307 0.025697915 0.29828322 -0.029873341 -0.25150144 -0.21142994 0.062041476 0.16672759 0.04967996 -0.42218462 0.19579542 0.034950126
23 -0.03215241 0.14167947 -0.12176985 -0.10345833 -0.1437952 -0.2612821 -0.28080875 0.1610737 0.30430448 0.0046975925 -0.17558423 -0.100389265 -0.041866217 -0.2823631 0.3058917 -0.40652204 0.28202945 0.4963082 0.0784443 0.095299564 0.050962344 0.057825305 0.28950492 0.04509032 -0.22149454 -0.21896932 0.11746215 0.15048602 -0.009809936 -0.267832 0.2681037 0.14202277
15 0.016294843 0.17916876 -0.12594822 -0.052259173 -0.109574124 -0.25598255 -0.26368585 0.16759813 0.27789834 0.012653566 -0.12582643 -0.07573076 -0.05223435 -0.3082905 0.26592916 -0.43792555 0.27762428 0.5012386 0.089544296 0.11184613 0.0097900005 0.067174755 0.29520556 0.005203465 -0.28244817 -0.23375934 0.075993955 0.13297439 -0.035451274 -0.25810316 0.23251468 0.10413315
62 0.19241844 0.2492337 -0.07093223 0.0039220825 -0.033505876 -0.2758421 -0.33203998 0.19950119 0.17042677 -0.11007637 -0.072832495 -0.056440145 0.05353132 -0.33020282 0.072483346 -0.5163471 0.3330539 0.34454626 0.06477692 0.15278667 -0.16142336 0.09313545 0.3119168 -0.0402678 -0.28630835 -0.18765914 0.053183198 0.18921348 0.0752011 -0.37417915 0.16821566 0.029997712
84 0.22590423 0.12780486 0.031239081 -0.11282086 -0.106138326 -0.27370158 -0.30587572 0.1300333 0.064327836 -0.0928977 -0.07025855 -0.13335373 0.04609675 -0.13157451 0.14079744 -0.5482442 0.26209024 0.33435166 0.15183754 0.05184188 -0.06712254 -0.12511206 0.24055581 0.054737814 -0.19526872 -0.10126372 0.044782456 0.14131366 0.08014921 -0.5063499 0.13433443 0.16727002
104 0.24093208 0.27840796 0.001558117 -0.035416666 -0.06094126 -0.15952255 -0.43508032 0.19420691 0.11517742 -0.12931289 -0.11654165 -0.099855855 0.083079524 -0.35048795 0.07601428 -0.5230272 0.32964233 0.30148822 0.10044822 0.081593305 -0.045296613 0.014557375 0.3257487 -0.0053778733 -0.24476965 -0.2518821 0.06774969 0.19548978 0.04911686 -0.41689664 0.21464717 0.073806986
60 0.2672863 0.2879346 -0.011799741 -0.022080008 -0.04241675 -0.17422394 -0.39218837 0.20413202 0.14148977 -0.14579217 -0.1362603 -0.08571952 0.07503802 -0.37834492 0.054205123 -0.5451562 0.35579765 0.29100522 0.1005125 0.09422126 -0.09590283 0.04458101 0.3148382 -0.023785768 -0.2586081 -0.23419657 0.07178249 0.1946499 0.033366665 -0.39553347 0.18690637 0.03278142
36 0.15688692 0.15260448 -0.05364852 -0.055863414 -0.076871246 -0.2854168 -0.27427283 0.14013347 0.15136883 -0.081113525 -0.06124802 -0.082471184 -0.0022259485 -0.23686837 0.1394679 -0.527471 0.2761852 0.35136753 0.12420473 0.09024361 -0.1277349 0.00043444143 0.26449645 0.018949144 -0.26047102 -0.16230011 0.07406173 0.12564696 0.044886034 -0.43782198 0.13333282 0.105122276
46 0.28221115 0.22138497 0.015346241 0.014640164 -0.07470553 -0.20985152 -0.3555803 0.1746116 0.05000114 -0.14965296 -0.088489376 -0.08760946 0.05860793 -0.24716677 0.041170098 -0.5596258 0.31573927 0.31403804 0.07638242 0.097135305 -0.12233566 -0.02840873 0.29836404 0.011262554 -0.24314283 -0.16331892 0.06421026 0.19950089 0.06567645 -0.46733162 0.14939179 0.08469558
121 0.045525283 -0.06093051 0.040925752 -0.08889976 -0.21232197 -0.42115337 -0.088687226 0.081250265 0.05197024 -0.041459516 0.06053942 -0.10130252 -0.08169562 -0.014341545 0.22016084 -0.53854537 0.16540739 0.4399474 0.12721568 0.15144984 -0.26288247 -0.092963554 0.17321792 0.11217667 -0.24033806 0.061088108 0.008464428 0.2251654 0.18811147 -0.52744156 -0.026471172 0.21433592
71 0.03498517 -0.18709417 0.036376193 -0.07598165 -0.26316878 -0.5785002 0.05372767 0.060828738 -0.017684426 -0.049895912 0.1481098 -0.14516057 -0.1517198 0.081426844 0.23067406 -0.5848103 0.13993995 0.47364962 0.1843571 0.22402197 -0.37538043 -0.12356044 0.1298789 0.123278506 -0.2878304 0.18198122 -0.019635705 0.23429857 0.24953158 -0.5840126 -0.12310056 0.23745534
41 0.04493736 -0.13682966 0.10018076 -0.10603539 -0.25332725 -0.49207595 -0.031954516 0.085706346 -0.03770783 -0.05021288 0.102514066 -0.14799902 -0.0697751 0.06682174 0.24724716 -0.5905386 0.12670317 0.43889198 0.12747286 0.17111896 -0.29589948 -0.1653108 0.15572536 0.13191494 -0.23890017 0.13498068 -0.011094932 0.22197992 0.24160801 -0.5804651 -0.05639888 0.24916603
6 -0.05475501 0.06412786 -0.11385252 -0.07919808 -0.16606304 -0.2966538 -0.24184856 0.16475698 0.29057142 0.022201309 -0.13976747 -0.12973459 -0.0320802 -0.24580212 0.3177392 -0.39061624 0.27208018 0.53262585 0.07759945 0.100702 0.044972815 0.010329024 0.2808074 0.039903343 -0.25653768 -0.19985564 0.10480507 0.1539433 -0.010089767 -0.26802856 0.25915372 0.1808046
63 0.23359111 0.24941641 0.012214235 -0.01616516 -0.060192406 -0.2193605 -0.35459316 0.2103362 0.111225195 -0.16453263 -0.08531366 -0.0936623 0.047691014 -0.3450352 0.051913954 -0.56662756 0.35039246 0.2992496 0.07712147 0.11940668 -0.22777703 0.08756309 0.29874307 -0.04672225 -0.2693769 -0.1926314 0.07189336 0.21635753 0.07292757 -0.399601 0.15359487 0.03215765
92 0.04500784 0.078649856 -0.023814173 -0.08304956 -0.17576419 -0.27806476 -0.2988073 0.17818686 0.1941805 -0.015275901 -0.13594417 -0.10740105 0.008325571 -0.14280084 0.2981164 -0.41506645 0.2098086 0.46528175 0.083479576 0.07833305 0.07198591 -0.104390636 0.30036554 0.04376923 -0.21832657 -0.14439619 0.07606349 0.12517053 -0.004506336 -0.37107414 0.23547499 0.17924449
38 0.03625276 0.073716216 0.0057672965 -0.14100246 -0.20671932 -0.291623 -0.23746745 0.14932919 0.11439775 0.0058445525 -0.09682266 -0.12705594 -0.037833992 -0.0837202 0.2680781 -0.46384823 0.1982546 0.48169288 0.12395021 0.072616324 0.019757839 -0.15880871 0.2790093 0.03845968 -0.19818689 -0.09314746 0.045590926 0.12609118 0.06493209 -0.4265331 0.17002007 0.18730292
96 0.269917 0.34598652 -0.055709552 -0.06218495 0.014161842 -0.14101528 -0.47347432 0.25757593 0.2154741 -0.13279088 -0.14382143 -0.0636578 0.06956234 -0.3544268 0.08018389 -0.5023211 0.36854267 0.319354 0.101352826 0.06454942 0.0028961923 0.009603782 0.33785227 -0.045632534 -0.24177535 -0.29021955 0.104138315 0.15311319 0.013109732 -0.366086 0.26054782 0.02110249
10 0.1070904 0.041852515 0.04689995 -0.15817142 -0.16364372 -0.3232678 -0.29139116 0.13815363 0.10454027 -0.019817423 -0.09947034 -0.11623532 0.018385874 0.009496426 0.25778762 -0.46239606 0.1706394 0.45287097 0.0992931 0.021398423 0.12917367 -0.24614339 0.22905949 0.13878486 -0.13461635 -0.10158003 0.08518291 0.11682555 0.035794917 -0.47276133 0.18119797 0.24690731
105 0.19470096 0.29192513 -0.075834274 -0.017610945 -0.008346082 -0.21427953 -0.36149105 0.21796806 0.21925397 -0.10251803 -0.109697886 -0.065316856 0.049383588 -0.4418573 0.06923971 -0.5029864 0.37021688 0.36787227 0.07331945 0.15671913 -0.1695318 0.15182415 0.3179694 -0.033776924 -0.30359983 -0.23754354 0.08646849 0.18207632 0.0714952 -0.31868437 0.16606171 0.0013047684
48 -0.05234605 0.10189778 -0.17557345 -0.06442488 -0.13761054 -0.31790325 -0.21952249 0.15139 0.33395648 0.06676652 -0.1569041 -0.06910577 -0.07010939 -0.2719007 0.34290415 -0.40893102 0.26800856 0.5730728 0.07466376 0.14306173 0.027283756 0.10153293 0.28084952 0.04687322 -0.28906304 -0.23113279 0.0908848 0.1264391 -0.028937891 -0.21452756 0.23106986 0.13874711
80 0.13040638 0.027472006 0.11024779 -0.17527261 -0.21742041 -0.3504695 -0.20514701 0.08319528 0.028350264 -0.006069715 -0.064543694 -0.1617281 0.026068598 0.09493581 0.27926287 -0.48881012 0.1346405 0.45512712 0.14137231 0.031790398 0.08889294 -0.31295264 0.23618475 0.14604807 -0.12961689 -0.017029753 0.029499095 0.14928569 0.050671507 -0.5529403 0.120452024 0.28086355
79 0.20360577 0.23702182 -0.016488481 -0.0508419 -0.05147425 -0.20467618 -0.3916391 0.19490637 0.16672565 -0.13055725 -0.121136196 -0.09621657 0.082331166 -0.3129339 0.10746542 -0.50666904 0.32584304 0.34810004 0.07278998 0.0793192 -0.082703784 0.019322066 0.30120108 -0.010608059 -0.24830599 -0.20192921 0.08729966 0.20744903 0.05598917 -0.3878762 0.21348058 0.051850807
88 0.062075406 -0.030988658 0.10463108 -0.16732803 -0.25447676 -0.34871024 -0.19469137 0.099380836 0.0464201 0.012153042 -0.06400481 -0.15885893 -0.032879274 0.04346305 0.31681293 -0.46003875 0.13971205 0.47833455 0.13683662 0.055551454 0.09020296 -0.27081615 0.23546815 0.13874584 -0.1562791 -0.013813986 0.010272382 0.12931395 0.084028214 -0.49345067 0.16337587 0.26844308
53 0.26298574 0.24784356 0.023368737 -0.06808568 -0.09430777 -0.1981876 -0.44880828 0.20588613 0.13113078 -0.11296633 -0.15825476 -0.123944536 0.07922392 -0.2317094 0.14174643 -0.4972808 0.28177541 0.29376495 0.081305325 0.031266313 0.0429442 -0.0961736 0.34014916 0.05058523 -0.21522528 -0.1952107 0.09170413 0.15883262 0.0128199365 -0.42051542 0.20552282 0.1256505
54 0.17066006 0.2240485 -0.051535085 -0.056985497 -0.09378444 -0.23333131 -0.3501523 0.18767442 0.16947688 -0.06428775 -0.15598431 -0.11277075 0.033876535 -0.31501123 0.13288419 -0.51252854 0.32402018 0.35935995 0.092653036 0.07113521 -0.039721686 -0.012890679 0.28931355 0.015308976 -0.23798896 -0.20505306 0.08006312 0.17320609 0.049034283 -0.3744631 0.2299161 0.10951062
113 0.16007535 -0.043646026 0.07984173 -0.06477343 -0.1946441 -0.43925822 -0.0763519 0.0844669 -0.04663078 -0.115980975 0.12103523 -0.15972885 -0.08039539 -0.0762523 0.12520602 -0.6320593 0.21815318 0.392932 0.14715408 0.21871716 -0.40227157 -0.04918565 0.14215669 0.085733846 -0.2529586 0.120914266 -0.027794238 0.2506591 0.26388994 -0.5897998 -0.10312885 0.17478926
49 0.2459747 0.18524884 0.029485945 -0.061746877 -0.08783117 -0.23284772 -0.31630963 0.16523246 0.089033335 -0.14203452 -0.069904305 -0.10805646 0.020833824 -0.20806864 0.10970525 -0.5650654 0.27778527 0.32948342 0.1211928 0.08194465 -0.08193559 -0.048692383 0.26239955 0.048537873 -0.21643418 -0.13212349 0.06466666 0.17449374 0.06852603 -0.49176478 0.14799786 0.10415429
57 0.12200798 0.08533296 0.099928886 -0.17423655 -0.20133427 -0.22372282 -0.36090168 0.119368084 0.08810327 0.016037043 -0.17264193 -0.18231033 0.073951356 0.017935175 0.3240628 -0.45675427 0.15547879 0.46024638 0.13780095 -0.08384404 0.3298282 -0.37501872 0.3008348 0.13282208 -0.092068985 -0.14271587 0.05612699 0.10843173 -0.043237336 -0.4974963 0.27119753 0.28262046
119 0.09354176 -0.037562497 0.013714352 -0.054020554 -0.20002282 -0.47270355 -0.0343496 0.06523916 0.03387379 -0.09034332 0.105572775 -0.13546655 -0.08073567 -0.054850694 0.20445283 -0.6063381 0.20724706 0.43193147 0.14831129 0.20773432 -0.30606386 -0.06404672 0.18071543 0.10456058 -0.25978556 0.08498596 0.010217521 0.21629338 0.21478683 -0.55454737 -0.072963394 0.19255175
107 0.055958137 0.005968887 0.0865173 -0.16817391 -0.19870025 -0.30892357 -0.20999183 0.1035339 0.042217564 0.01940254 -0.084901154 -0.14506055 0.0071870903 -0.00023204058 0.27638647 -0.46532497 0.16600811 0.45295444 0.14017907 0.046458732 0.06872365 -0.2472972 0.23839301 0.110967115 -0.14644897 -0.00066518155 0.010329498 0.14475003 0.089965634 -0.47935072 0.16641693 0.2547047
32 -0.036791563 -0.0031104628 -0.035509426 -0.10742028 -0.17066224 -0.37017956 -0.14197531 0.09271292 0.19440529 0.05768078 -0.07750427 -0.09555507 -0.08102472 -0.09713794 0.33718297 -0.46272403 0.18331385 0.5370544 0.12302608 0.13632964 -0.032586925 -0.055065315 0.222746 0.067139335 -0.2390659 -0.069018714 0.04343146 0.1684514 0.047593474 -0.3417085 0.11295228 0.21782698
65 0.07526138 -0.098718435 0.031995922 -0.09388177 -0.22329406 -0.48653433 -0.027352393 0.08810017 -0.032978225 -0.049231347 0.088893555 -0.14187674 -0.08643517 -0.0016580711 0.22850363 -0.5764999 0.16203736 0.46277 0.14839682 0.2121064 -0.321618 -0.120627485 0.17776617 0.099874824 -0.24348904 0.12324288 -0.020182868 0.23636244 0.2228361 -0.57550496 -0.050900344 0.20517467
126 0.14606917 0.12035826 0.08649302 -0.11824438 -0.20809023 -0.20855421 -0.30557817 0.14056757 0.06885343 -0.025850352 -0.15390384 -0.154239 0.037537735 -0.01060518 0.26298767 -0.45293948 0.16309606 0.40020943 0.11541258 -0.015148454 0.19853832 -0.2986586 0.28097776 0.14502229 -0.15186982 -0.0783345 0.054269627 0.117305905 -0.014942179 -0.4925771 0.21508965 0.22903985
81 0.109371856 0.08190437 0.06382811 -0.10266718 -0.17199107 -0.25343913 -0.29844397 0.12548251 0.06501322 -0.032514554 -0.1284811 -0.16512863 0.017158793 -0.073423505 0.2383513 -0.46095514 0.21008043 0.41812745 0.08505683 0.042051524 0.1372344 -0.21928827 0.24191155 0.12696382 -0.16278034 -0.09153638 0.06775719 0.13359776 0.01887378 -0.48845184 0.19636294 0.20750958
77 0.08768661 -0.0050525754 0.10977447 -0.19999452 -0.26714805 -0.30301252 -0.2543701 0.08911375 0.052342627 0.045062557 -0.10289401 -0.20145641 0.007498509 0.118283 0.35827023 -0.47420138 0.1000142 0.47798792 0.1705277 -0.027426735 0.1869154 -0.3772171 0.2614464 0.1607521 -0.11975518 0.014478281 -0.0017618748 0.099051364 0.06615319 -0.5167788 0.16367535 0.32581407
55 0.2340761 0.32125044 -0.067253634 -0.019134413 -0.0119339805 -0.15489815 -0.42405748 0.22680792 0.2031894 -0.1363941 -0.121290594 -0.09404094 0.07873213 -0.41718745 0.055882778 -0.5079484 0.34864601 0.32547188 0.095283076 0.091191135 -0.103728175 0.07198396 0.33073282 -0.025631081 -0.2709916 -0.251025 0.09683559 0.20572641 0.060097773 -0.3605576 0.19503535 0.019472586
12 -0.026639055 0.0968562 -0.10252962 -0.09089136 -0.13973397 -0.32294166 -0.20200698 0.13662118 0.2659986 0.037933152 -0.1347021 -0.10242878 -0.062388495 -0.2325995 0.32229236 -0.47402477 0.24605042 0.5439973 0.12336419 0.12661597 0.015338138 0.026931299 0.27329472 0.08307731 -0.24486098 -0.16682424 0.07002736 0.16740009 0.0009358793 -0.26673755 0.19633457 0.16018699
66 -0.006242248 0.15510437 -0.16855 -0.089429066 -0.092319004 -0.29656562 -0.28999388 0.18516831 0.32849345 -0.013608212 -0.13826412 -0.064598724 -0.030882116 -0.33162615 0.27695468 -0.4612119 0.3132282 0.4916322 0.09034139 0.110575356 -0.009627075 0.10414912 0.29463834 0.0034252303 -0.26340875 -0.2434994 0.104711466 0.13913174 -0.0027713552 -0.23519368 0.2157002 0.09795842
