128 32
93 -0.23326573 0.1283334 -0.018135952 0.28189504 0.32456794 0.013076349 0.2810756 -0.28164035 0.0032494813 -0.19033894 0.012600586 -0.2915549 -0.54632586 0.08612205 0.14865471 -0.08602738 0.24051403 -0.07246127 -0.008361515 -0.32028252 -0.079837985 0.37153447 -0.10754825 -0.13298494 -0.10730406 0.010166122 0.19921224 -0.2690311 -0.15961225 -0.15629299 -0.042370703 -0.050275553
53 -0.033279695 0.0606034 -0.30102098 0.25856727 0.4077082 -0.04466996 0.17176576 -0.10521501 -0.10278062 -0.12531859 0.022643073 -0.27546978 -0.62487596 -0.007889912 0.044768684 -0.15267082 0.089419104 -0.09960598 0.06588146 -0.3545485 0.309752 0.361303 -0.13464747 -0.045767657 -0.004991142 0.08985729 0.3215007 -0.073013544 -0.16553447 -0.109485015 -0.07219069 -0.169441
91 -0.1593705 0.24499725 -0.24630919 0.28742883 0.47505924 -0.1607926 0.22034134 -0.28217417 0.0050518163 -0.011830077 0.008371312 -0.24300736 -0.41322318 -0.13489905 0.041564137 -0.20470574 0.1778818 -0.00093806814 0.078794986 -0.25970712 0.16401948 0.38943118 0.06694848 0.08855119 0.1402787 0.12055032 0.29700342 -0.09841546 -0.1800783 -0.14512946 -0.14748213 -0.10870733
87 -0.1321093 0.222528 -0.29460558 0.24954197 0.4871766 -0.19738449 0.19939156 -0.25303394 0.031076223 -0.029616492 -0.0225352 -0.2524295 -0.45147157 -0.1289346 0.004946158 -0.22706637 0.17048165 -0.02513149 0.07918374 -0.296146 0.20692638 0.3469062 0.021495758 0.11492087 0.111462705 0.107610986 0.25521898 -0.11188429 -0.20678222 -0.15718184 -0.18731305 -0.10601182
30 -0.07428792 0.041222848 -0.2714229 0.21722418 0.39458513 0.00042813452 0.24724531 -0.12433879 -0.09510864 -0.18646297 0.028893486 -0.3370799 -0.65905005 0.059552938 0.056963544 -0.099249735 0.06862273 -0.09658616 0.024259659 -0.31892017 0.28418604 0.32972154 -0.16858077 -0.059267376 -0.013692587 0.087974645 0.27088013 -0.039781984 -0.1722396 -0.10043655 0.03800123 -0.1597601
35 -0.15836945 0.13137041 -0.14035112 0.26318726 0.36261764 -0.05280618 0.23305003 -0.2353729 -0.014347538 -0.18051693 -0.0027851795 -0.29147738 -0.5457456 0.006775327 0.10770244 -0.109074324 0.17382447 -0.054199394 -0.028031722 -0.3326402 0.06923575 0.3503874 -0.06680948 -0.06599752 -0.07099162 0.036240563 0.25069398 -0.169142 -0.17680137 -0.15554485 -0.090520866 -0.09721851
21 -0.3560448 0.15979864 0.05717671 0.3428922 0.32710943 0.00022416425 0.4622274 -0.3955976 -0.042501055 -0.118688956 0.12745151 -0.2955917 -0.43021008 -0.0098929545 0.1976548 0.04399906 0.1579512 0.0032334942 0.04404449 -0.14782277 -0.10077466 0.44110596 -0.0151387155 -0.09335631 0.039169047 0.15190083 0.21501808 -0.100065574 -0.037906677 -0.18341702 0.11463664 -0.06260067
117 -0.20811409 0.14010511 -0.072101444 0.2883626 0.35731444 -0.010710054 0.28324997 -0.24411769 -0.0016716969 -0.16788039 0.0126506835 -0.2954643 -0.49846885 0.073567174 0.11598278 -0.104736425 0.233009 -0.030219974 -0.018526983 -0.27814117 -0.0387852 0.40863767 -0.08943704 -0.07134754 -0.11105108 0.02227978 0.24659777 -0.197237 -0.18305637 -0.17592256 -0.039678216 -0.06561534
99 -0.21297489 0.21797584 -0.16343102 0.27997118 0.44185242 -0.14887175 0.2530503 -0.31948784 0.02753033 -0.1022414 -0.009929727 -0.25298777 -0.42584792 -0.0632201 0.09366748 -0.1948678 0.22841933 -0.0021534467 0.03600753 -0.24589083 0.029803 0.37731606 0.034904014 0.044487774 0.037839696 0.094567284 0.2009276 -0.15113868 -0.19322604 -0.19860755 -0.13745075 -0.03900329
31 -0.3151189 0.20000114 -0.0037391908 0.3152516 0.34726024 -0.05144637 0.39747056 -0.3592209 -0.025790041 -0.07495192 0.08795837 -0.2749439 -0.42368898 -0.04032885 0.1500101 -0.03291779 0.16009799 -0.00523444 0.04098177 -0.14174786 -0.024463585 0.4160608 0.00030104964 -0.06339852 0.096783325 0.16325587 0.2531225 -0.096108854 -0.068906724 -0.20944293 0.06437012 -0.05795889
89 -0.19531542 0.13490742 -0.09092029 0.25990328 0.3326514 -0.007734558 0.23902752 -0.25241596 -0.010207946 -0.15865949 -0.029189184 -0.2878618 -0.56069684 0.089315146 0.09498462 -0.10163187 0.23393449 -0.06754811 -0.007513124 -0.31080163 -0.003173763 0.38067594 -0.10594929 -0.097569756 -0.09911307 0.0021738303 0.23342052 -0.21840799 -0.1861503 -0.15013105 -0.03566842 -0.06571471
107 -0.2922459 0.14804761 -0.0005205448 0.30046737 0.30683658 -0.0068038316 0.2783454 -0.33686665 -0.002099768 -0.20091951 -0.009700656 -0.31813192 -0.53888035 0.09657287 0.17517418 -0.032529622 0.2677715 -0.053344697 -0.058065195 -0.32298058 -0.1885516 0.38255692 -0.10585812 -0.1258315 -0.19476129 -0.022573704 0.18222035 -0.29033893 -0.14605641 -0.15370415 -0.06749173 -0.020095285
9 -0.26536807 0.1822675 -0.09665355 0.33634 0.37305847 -0.07493621 0.37189245 -0.34028953 -0.042990003 -0.07112761 0.05923021 -0.27472475 -0.44844794 -0.049637385 0.14450637 -0.031630054 0.13446034 0.017091665 0.06889556 -0.19873816 0.0106203025 0.41449764 0.02061056 -0.045228574 0.06771612 0.16767108 0.238457 -0.09719193 -0.087325 -0.1719945 0.022778332 -0.080750555
45 -0.16728842 0.12876758 -0.14213207 0.26666516 0.3956892 -0.039002873 0.30189806 -0.24063106 -0.050550982 -0.14362183 0.045283664 -0.28441995 -0.55212605 0.016460776 0.12638378 -0.11165701 0.12643619 -0.049306564 0.024809513 -0.2482548 0.08441613 0.354363 -0.058378566 -0.0638392 -0.012099544 0.10097724 0.26102352 -0.105918445 -0.14681017 -0.16195601 0.008343689 -0.07798346
72 -0.2618696 0.19256695 -0.04039629 0.28247288 0.3435115 -0.03884098 0.27740955 -0.29730988 0.010893562 -0.1939842 -0.008744194 -0.2815611 -0.51156735 0.06807626 0.124336965 -0.1094616 0.2622125 -0.033787798 -0.044789687 -0.30814883 -0.11608208 0.3793524 -0.025153408 -0.07373061 -0.10111803 -0.013540498 0.16200128 -0.25576136 -0.16937639 -0.1827201 -0.07799839 -0.013535803
113 -0.17854907 0.2614904 -0.26905707 0.28121004 0.5099297 -0.20969544 0.24449499 -0.30792522 0.045815945 -0.006718561 -0.00039111235 -0.22157195 -0.41199866 -0.15137723 0.024410464 -0.19174315 0.19513683 0.004157881 0.09367426 -0.25594053 0.16625668 0.3395184 0.079042666 0.12979962 0.13337395 0.14069843 0.24490586 -0.09590559 -0.18698125 -0.16540416 -0.19742957 -0.06432454
50 -0.05704318 0.06958795 -0.33815694 0.25882757 0.42815605 -0.045148924 0.1872427 -0.12552586 -0.06690166 -0.14240055 0.021780698 -0.2906342 -0.5939238 -0.03824884 0.013167591 -0.15062891 0.06602098 -0.06286873 0.07430012 -0.37175754 0.31089526 0.33104295 -0.13320205 0.010070089 0.06211345 0.08978924 0.3164169 -0.039466854 -0.18423684 -0.09445743 -0.060431484 -0.15014024
128 -0.26979992 0.19208571 -0.036936276 0.3243007 0.3704369 -0.019302698 0.38598996 -0.3277618 -0.06524782 -0.06590939 0.07594966 -0.28243494 -0.43527493 -0.020522071 0.13255812 -0.02091027 0.17470273 -0.009041699 0.028646829 -0.20989797 -0.041435204 0.4039171 -0.034443732 -0.067094244 0.043235637 0.11740515 0.22979751 -0.10804486 -0.08538728 -0.17934282 0.058601495 -0.08522447
60 -0.064495854 0.07407254 -0.3045325 0.25320792 0.41118878 -0.031905126 0.24665739 -0.12932818 -0.10917905 -0.09809846 0.054142196 -0.30218256 -0.6175866 -0.017891273 0.04166478 -0.107714266 0.041708417 -0.07317266 0.09454142 -0.34540394 0.31080276 0.3725964 -0.12858628 -0.039417207 0.06302029 0.12595883 0.30111113 -0.043487217 -0.1339548 -0.11413102 0.017144475 -0.18973401
95 -0.10992459 0.20848763 -0.33822584 0.2793929 0.5231048 -0.21765956 0.2026998 -0.22796388 -0.022038415 -0.017075721 -0.004990343 -0.24359903 -0.4539002 -0.14383511 -0.0030316773 -0.26613536 0.118560344 -0.013128428 0.10831378 -0.2994933 0.29300562 0.36174658 0.040821955 0.13726103 0.16303615 0.14589302 0.28913495 -0.051087197 -0.17931952 -0.13782611 -0.18530169 -0.11171138
80 -0.3175913 0.13216281 0.015805073 0.33226517 0.3244337 0.020141767 0.4233558 -0.37245628 -0.06455776 -0.118906125 0.12106379 -0.30430034 -0.4785969 0.021861918 0.20433488 0.025112145 0.14779732 0.011507342 0.04705753 -0.14654338 -0.034654353 0.41384017 -0.038083628 -0.12319364 0.025294624 0.1679694 0.22854173 -0.07846709 -0.060656838 -0.19265956 0.119455 -0.06450794
26 -0.15397693 0.24533296 -0.23574677 0.25718385 0.47683594 -0.16695704 0.19502571 -0.29443145 0.038835272 -0.046309378 -0.019173868 -0.21784346 -0.4192017 -0.08300114 0.040150754 -0.22315456 0.22154276 -0.0032897815 0.077653736 -0.29436716 0.12430506 0.36972556 0.056354403 0.10725109 0.05841519 0.09060401 0.25604454 -0.14699963 -0.20916991 -0.18651594 -0.2189969 -0.04631908
122 -0.20684399 0.14591621 -0.038098663 0.27014285 0.34312817 -0.062012766 0.26937196 -0.2598694 -0.0053595314 -0.15675537 -0.01433701 -0.2943916 -0.5281168 0.064073175 0.12986808 -0.07085772 0.2204811 -0.07786874 -0.026261995 -0.32618436 -0.033632807 0.3721639 -0.08266431 -0.07483647 -0.053926136 0.03130387 0.23329891 -0.19566749 -0.16908069 -0.14480418 -0.05696706 -0.10258514
19 -0.12727627 0.21207456 -0.28885806 0.26743987 0.5056726 -0.19368786 0.2134803 -0.2680992 0.025063923 -0.024803147 -0.020248147 -0.21339475 -0.43388477 -0.14547387 0.024495943 -0.2504537 0.17072605 -0.036904123 0.09771984 -0.29187718 0.2202863 0.36236522 0.048560534 0.12067347 0.13076326 0.14065388 0.27943322 -0.10375173 -0.19017309 -0.18475558 -0.16114579 -0.067682594
73 -0.3366205 0.19810018 0.025230357 0.33824316 0.31781965 -0.0072786245 0.4129566 -0.39910287 -0.053267792 -0.090307355 0.10960848 -0.2861548 -0.4160103 -0.003350249 0.20099701 0.006908087 0.1662431 0.021462953 0.0594852 -0.15904093 -0.08434083 0.43060425 -0.009895379 -0.084957264 0.029870363 0.11886159 0.25109565 -0.11574158 -0.051472206 -0.21608989 0.076457076 -0.060933333
81 -0.10154746 0.096154615 -0.2752947 0.2938485 0.4321655 -0.07219426 0.2251436 -0.14958332 -0.050336152 -0.07230137 0.03521714 -0.30033818 -0.56378937 -0.02578804 0.0016219891 -0.1190033 0.10446651 -0.07755487 0.06479503 -0.34602377 0.27504066 0.34020618 -0.108437195 -0.004431636 0.03421702 0.08554785 0.3188337 -0.07214337 -0.19278032 -0.09247555 -0.024429351 -0.18278795
44 -0.05836204 0.066044584 -0.31407353 0.2624498 0.43662462 -0.06704398 0.16958088 -0.10672844 -0.10686096 -0.15281343 -0.008548582 -0.2935116 -0.59993804 -0.017473811 0.025991913 -0.12532921 0.05684739 -0.101230875 0.06436886 -0.39950892 0.3169125 0.33344436 -0.14219889 -0.023591543 0.056230474 0.11088413 0.30517608 -0.05608581 -0.16534394 -0.09574221 -0.02899003 -0.19269712
109 -0.21014717 0.23465317 -0.23229972 0.30695596 0.47124806 -0.17301236 0.24595703 -0.31963465 0.022149699 -0.03059805 0.009323943 -0.25503474 -0.4262622 -0.114678286 0.0391058 -0.15110502 0.17379186 -0.0052742288 0.08046711 -0.26125887 0.14311649 0.3710991 0.07342559 0.09163512 0.14274581 0.14121418 0.27446258 -0.1020676 -0.13432671 -0.15167177 -0.15475565 -0.09205092
57 -0.1647471 0.080136426 -0.123177536 0.28760198 0.34043914 0.007883912 0.26856923 -0.20812643 -0.05765791 -0.13730158 0.015668547 -0.29237136 -0.57199115 0.07156508 0.12073638 -0.07621697 0.15782155 -0.08046757 0.023475464 -0.3430736 0.03743841 0.3701907 -0.14005333 -0.09914804 -0.085259885 0.036033295 0.28534618 -0.17127062 -0.13001952 -0.11445357 -0.021122972 -0.10898789
22 -0.20901473 0.26358503 -0.22494346 0.2972627 0.4765072 -0.2061999 0.27460995 -0.34165865 0.06735276 -0.014632166 0.012416521 -0.20710792 -0.35421687 -0.14650024 0.07065123 -0.24079667 0.22441615 -0.003966863 0.09108161 -0.23339379 0.1127222 0.3792389 0.120990805 0.11612384 0.116974704 0.14867033 0.27871883 -0.13591665 -0.16942203 -0.21046728 -0.18175878 -0.040544536
102 -0.30067855 0.16564405 0.0096259145 0.3403609 0.34754965 -0.031173864 0.42394233 -0.4086205 -0.016357662 -0.088853754 0.10241867 -0.27145213 -0.43009853 -0.015181584 0.19954407 -0.051948518 0.17839164 0.03137609 0.048270676 -0.12848443 -0.08284596 0.4248156 -0.0068870806 -0.065794915 0.030405127 0.14975768 0.23773448 -0.12560654 -0.08002907 -0.21433666 0.058979414 -0.050554052
23 -0.21712019 0.11567025 -0.07720535 0.29715994 0.35541868 0.0011306627 0.34989297 -0.26992196 -0.06469023 -0.089919604 0.11467141 -0.3099911 -0.5220359 0.0081438515 0.13178664 -0.02090497 0.095823705 -0.025360566 0.040699556 -0.20248158 0.12109528 0.39972538 -0.07512053 -0.099547595 0.044784293 0.14204267 0.30211192 -0.043995026 -0.08288016 -0.1585199 0.11613942 -0.13699687
118 -0.19427648 0.23280253 -0.19801153 0.27954885 0.46035558 -0.15651941 0.25205287 -0.31100753 0.001697934 -0.06434509 -0.004944406 -0.2228244 -0.40207422 -0.1262162 0.087643586 -0.17667794 0.20518076 0.014611336 0.07813212 -0.22533473 0.08416567 0.3626501 0.053914182 0.09556677 0.12485359 0.13930808 0.25258178 -0.11513789 -0.16511098 -0.17597654 -0.16764137 -0.048940595
120 -0.23838376 0.2687188 -0.13394575 0.28885472 0.45827225 -0.16794424 0.28077853 -0.33885372 0.05670617 -0.038004458 0.003926364 -0.2554589 -0.39641976 -0.089605376 0.095108524 -0.16667417 0.237798 0.030309925 0.028300934 -0.25006598 -0.0032694517 0.384016 0.06416744 0.06990245 0.050077636 0.08330528 0.21911837 -0.19062468 -0.19279039 -0.1943681 -0.16062503 -0.039711166
64 -0.2564579 0.121503666 -0.013861869 0.29822034 0.3310898 0.006402592 0.26892474 -0.26155242 -0.0024548802 -0.14556178 -0.025972184 -0.27979708 -0.54040724 0.088678375 0.14874402 -0.06154934 0.25950938 -0.06523206 -0.041155547 -0.32495382 -0.13431378 0.39023858 -0.13323742 -0.12749323 -0.17693345 -0.025525436 0.24172476 -0.3001427 -0.1730218 -0.1620727 -0.056469433 -0.07352275
25 -0.21122059 0.16221082 -0.08070349 0.29202107 0.3596007 -0.050202895 0.2778182 -0.2695907 0.004384498 -0.15921476 -0.0021838287 -0.26370475 -0.49417543 0.033731874 0.11723569 -0.09068339 0.21790318 -0.04669805 -0.008376012 -0.29106963 -0.036406863 0.39512214 -0.051333107 -0.05413814 -0.05863896 0.05867021 0.2275853 -0.21653223 -0.14222974 -0.1498057 -0.06662067 -0.054975647
47 -0.038681395 0.097327866 -0.35634583 0.22258638 0.4542912 -0.05608116 0.18645097 -0.101152904 -0.070472956 -0.13382404 0.00049876416 -0.27422786 -0.6014671 -0.037227675 0.0022636952 -0.18411954 0.067617945 -0.077587575 0.03858505 -0.34760597 0.29937184 0.35142303 -0.112092644 0.0014742828 0.03377324 0.08325358 0.3176631 -0.07859107 -0.19044101 -0.11381911 -0.05255139 -0.16928355
69 -0.13136429 0.11372465 -0.26627332 0.23254341 0.43084574 -0.06031216 0.24850889 -0.19639394 -0.027732434 -0.14560886 0.029356232 -0.27029285 -0.5574704 -0.036119923 0.04829117 -0.13392666 0.113718316 -0.04178854 0.03632954 -0.31799203 0.21036121 0.3533746 -0.06766769 0.012057826 0.031949546 0.077192366 0.24834122 -0.07755943 -0.18011093 -0.12624396 -0.054023746 -0.100376606
2 -0.107228145 0.088051446 -0.27036455 0.2581434 0.42137405 -0.06583555 0.25380173 -0.16395807 -0.07871578 -0.14038812 0.032372028 -0.28488705 -0.57204175 -0.020158138 0.0807537 -0.120809354 0.09614135 -0.07361059 0.06170193 -0.30353212 0.26721156 0.35274014 -0.11321835 -0.021869825 0.0455206 0.12328665 0.29538238 -0.07290955 -0.12958466 -0.11876884 -0.023565996 -0.13741182
59 -0.08075803 0.035683487 -0.25565323 0.26693007 0.39530724 -0.014047376 0.22871372 -0.1380196 -0.12905777 -0.16207877 0.03455799 -0.31509134 -0.63941544 0.03550119 0.04551861 -0.09777127 0.06329091 -0.090076715 0.06439628 -0.34668547 0.27391776 0.3577057 -0.15301414 -0.06544236 0.0477818 0.08013341 0.25935635 -0.05027056 -0.12867768 -0.07392655 -0.011541818 -0.16949381
76 -0.1419605 0.22963423 -0.27778414 0.24102496 0.48760864 -0.19329548 0.2206236 -0.26628348 0.042470858 -0.015034727 -0.013554706 -0.22884418 -0.4147768 -0.1250096 0.011812942 -0.22119923 0.18300103 -0.029344155 0.07890561 -0.2807376 0.19632214 0.36937898 0.05160949 0.11517606 0.12605557 0.117157705 0.24115427 -0.12223838 -0.2006404 -0.15793896 -0.1584176 -0.106592305
84 -0.21412478 0.113745496 -0.018570807 0.25679725 0.30810735 0.03843273 0.2865669 -0.27955133 -0.00030430692 -0.19739945 -0.026557157 -0.3144967 -0.57135147 0.09965892 0.14110702 -0.05090837 0.23454805 -0.0390918 -0.051690184 -0.33778393 -0.1170063 0.38491434 -0.097022064 -0.12514643 -0.1914964 -0.003770113 0.21923861 -0.25391906 -0.16114618 -0.14963748 -0.024178376 -0.06894941
82 -0.22616501 0.1704328 -0.11693658 0.282185 0.38499522 -0.051322553 0.257152 -0.24567813 0.0077386857 -0.1346164 -0.048233252 -0.29773733 -0.4976453 0.059818346 0.08596715 -0.10164605 0.2414428 -0.03756865 -0.030995969 -0.32899234 -0.05361493 0.37688857 -0.07206806 -0.053470824 -0.10901756 -0.018031701 0.19420727 -0.25106257 -0.1976719 -0.14979254 -0.11031337 -0.06299724
17 -0.34110326 0.15615338 0.08963805 0.32170093 0.2975289 0.05000343 0.44298536 -0.38862276 -0.034920473 -0.090630844 0.08303252 -0.29466656 -0.48572472 0.027748257 0.20435102 0.022458615 0.20103562 -0.0066054426 0.002042738 -0.17361484 -0.18256435 0.4496064 -0.03991153 -0.1378412 -0.059165806 0.0957464 0.22265369 -0.1918378 -0.07456922 -0.18840016 0.104877904 -0.04758389
49 -0.13446973 0.0720268 -0.18647192 0.26699007 0.38575333 -0.0186397 0.2404574 -0.15018688 -0.08367161 -0.17786925 0.022574205 -0.29947922 -0.6022091 0.05001139 0.085730575 -0.06651475 0.10239715 -0.066397585 0.031388115 -0.3179278 0.1883493 0.3540196 -0.16565932 -0.05147019 -0.0011385478 0.09604906 0.2728714 -0.07603409 -0.1286346 -0.087680385 0.0046811313 -0.1874073
38 -0.29164654 0.1855192 -0.01779345 0.33993274 0.34670928 -0.033507813 0.39154702 -0.36053583 -0.023882179 -0.11119089 0.103127755 -0.25777152 -0.41938615 -0.05340463 0.15256776 -0.02158247 0.18649699 0.009109541 0.019464474 -0.16081697 -0.047548316 0.44985446 0.011896275 -0.07317507 0.067682035 0.14705054 0.23474583 -0.12753558 -0.08492305 -0.21149418 0.021836229 -0.042386033
12 -0.21313378 0.12073737 -0.089569405 0.27449355 0.36371398 -0.03925847 0.31845286 -0.28992218 -0.058806438 -0.14593555 0.060960997 -0.28828412 -0.52764 -0.010669489 0.12800395 -0.07733232 0.14984058 -0.030093938 0.026016384 -0.22428602 0.056131877 0.3670817 -0.053981546 -0.075210914 0.028885776 0.10597941 0.23054072 -0.13865289 -0.12384643 -0.16927092 -0.011561422 -0.06462872
67 -0.17382035 0.25541377 -0.22441106 0.25529572 0.4772479 -0.18963937 0.24994291 -0.31138203 0.07775569 -0.029734654 -0.012248548 -0.22432177 -0.3926408 -0.1274146 0.05931313 -0.2235588 0.19088589 -0.012110067 0.0688547 -0.2393082 0.115637876 0.394188 0.10928812 0.11041492 0.115425184 0.14734921 0.26768804 -0.12637937 -0.17296764 -0.17671193 -0.16017035 -0.056725234
88 -0.23606591 0.14388104 -0.077254795 0.28471154 0.3726723 -0.0077954223 0.2622368 -0.2620257 -0.017351318 -0.18004237 -0.021205213 -0.30405602 -0.5630422 0.08602671 0.11643457 -0.10317046 0.222423 -0.04754671 -0.027936053 -0.31438634 -0.06547446 0.35485253 -0.095851436 -0.076952405 -0.11192434 -0.020093588 0.21332422 -0.21176171 -0.18563807 -0.11926111 -0.06184024 -0.04629996
18 -0.026858378 0.049486052 -0.31519917 0.25501424 0.42965266 -0.06077587 0.21094066 -0.102313 -0.1000768 -0.10815933 0.009010353 -0.28813282 -0.60604733 -0.022861978 0.00086313894 -0.16520998 0.067224346 -0.0957503 0.09066959 -0.358079 0.32528412 0.36042693 -0.16180596 -0.004438158 0.058179986 0.09053662 0.3237082 -0.01703145 -0.1927044 -0.12806019 -0.0015014284 -0.17084032
78 -0.016225275 0.08705873 -0.33259976 0.22182143 0.43593016 -0.06446543 0.17804247 -0.08774272 -0.07749075 -0.17291458 -0.002422613 -0.30678043 -0.63649917 0.012992954 0.021050472 -0.17291543 0.073436625 -0.10635265 0.046307255 -0.36831835 0.32528168 0.34014842 -0.11686884 1.1554774e-05 0.014250042 0.09000512 0.3009305 -0.06114677 -0.20069812 -0.09346102 -0.06401319 -0.18391418
42 -0.05628076 0.095472135 -0.37276867 0.23276854 0.44987097 -0.09091826 0.21247356 -0.1263216 -0.064976245 -0.062458433 0.00058331084 -0.2885134 -0.5624877 -0.043088254 0.0020454458 -0.16674414 0.057028424 -0.10711292 0.08063759 -0.33859727 0.38968876 0.32984564 -0.10563262 0.028449396 0.08384125 0.13116272 0.32700512 -0.03590676 -0.1582215 -0.10507177 -0.053758953 -0.1924196
8 -0.35955727 0.18814789 0.022178836 0.32007593 0.30592537 -0.026859058 0.4344294 -0.3841057 0.006501242 -0.080867544 0.084180035 -0.2795674 -0.38736704 -0.0076922327 0.18459237 -0.02016604 0.1804561 -0.002602684 0.03749408 -0.17184012 -0.10780668 0.4575116 0.0059712213 -0.09474442 0.017719436 0.14206211 0.24817318 -0.1717803 -0.06953141 -0.21993914 0.053409018 -0.040202253
13 -0.30873314 0.14274393 -0.04823066 0.31163427 0.3664798 -0.04295967 0.4021098 -0.35418978 -0.03415516 -0.09746007 0.10748699 -0.2806654 -0.4500218 -0.029673323 0.17015189 -0.0053023538 0.13778292 0.012619603 0.036080904 -0.1868637 -0.02311643 0.44084576 -0.003610521 -0.070090905 0.06370334 0.15947247 0.23120888 -0.077180214 -0.05927523 -0.19915819 0.060061116 -0.06923627
112 -0.19715935 0.12730214 -0.056231845 0.29016265 0.3433678 0.019689305 0.2583828 -0.26977786 -0.060322136 -0.21223833 -0.022213887 -0.29115248 -0.5827176 0.113382936 0.10128567 -0.06333393 0.19413263 -0.063875854 -0.041790616 -0.35345796 -0.04549714 0.36746407 -0.1286912 -0.12939294 -0.0960214 -0.004809041 0.22842033 -0.22973144 -0.1918641 -0.12639901 -0.035061944 -0.09955392
96 -0.038141992 0.059648685 -0.33649594 0.2674547 0.4437968 -0.083037905 0.2262837 -0.11134368 -0.060064334 -0.10344209 0.03455837 -0.29252496 -0.5826887 -0.034705784 -0.010045209 -0.14888912 0.053882614 -0.09683569 0.08295329 -0.34116963 0.38278478 0.3516072 -0.089830734 0.027466813 0.10617133 0.15056974 0.33199257 -0.027675167 -0.18679862 -0.08895692 -0.05243635 -0.20522878
36 -0.09385536 0.0820559 -0.26204273 0.27412084 0.40623277 -0.048935343 0.22254597 -0.1565221 -0.08517773 -0.12829548 0.03048214 -0.29475576 -0.54880434 0.0064883013 0.048869073 -0.09833116 0.10498416 -0.0720511 0.053138185 -0.2779435 0.23681872 0.3728615 -0.085393496 -0.025545921 0.07658584 0.12430182 0.31505302 -0.0608437 -0.16549775 -0.11284104 -0.041209705 -0.1690694
5 -0.35387498 0.14742337 0.0902644 0.33648193 0.30525032 0.028796839 0.44450766 -0.40227494 -0.070120126 -0.13367496 0.093497105 -0.28994823 -0.48306024 0.017752914 0.2024957 0.055514753 0.1782015 -0.0049009016 0.031927396 -0.16033685 -0.12569866 0.44372678 -0.039149508 -0.14857925 0.0026954182 0.1525811 0.2455455 -0.090075545 -0.060091153 -0.1495902 0.1189672 -0.07028354
61 -0.34951213 0.16719262 -0.0022690871 0.34283558 0.36066195 -0.019075781 0.44528186 -0.3854512 -0.051279366 -0.13200366 0.119993456 -0.29066703 -0.4588209 -0.04615023 0.19376287 0.0076557463 0.14828035 0.008763248 0.047295574 -0.15274718 -0.0584315 0.40211272 0.012648442 -0.08260478 0.062155902 0.14732884 0.20513766 -0.10192989 -0.057271644 -0.18242717 0.100649744 -0.058736164
104 -0.27688488 0.11705678 -0.032965936 0.33254093 0.31034908 0.0051302235 0.37163562 -0.3263658 -0.10184002 -0.05782087 0.10388551 -0.30735564 -0.47245657 -0.01716221 0.11847261 0.003108773 0.13949296 -0.010334768 0.07828413 -0.20872442 0.019272622 0.4477007 -0.07364296 -0.06887445 0.0458249 0.13553584 0.2565536 -0.062116195 -0.07399108 -0.19151449 0.12341931 -0.12564403
16 -0.34985435 0.1334119 0.052450348 0.3160853 0.30492583 0.00886317 0.425957 -0.39018822 -0.03683384 -0.1260244 0.066845186 -0.2967185 -0.4548398 0.031421684 0.19608568 0.009025006 0.1904746 -0.02832753 0.014069177 -0.1693798 -0.09509157 0.40300545 -0.02400609 -0.123870194 -0.020991007 0.13184476 0.2501818 -0.1486515 -0.06713633 -0.20070395 0.071972065 -0.092700034
11 -0.20452803 0.27452525 -0.26928222 0.30364513 0.5080444 -0.2492113 0.26532143 -0.33723822 0.060761224 0.025384057 -0.00013224116 -0.20102522 -0.3562215 -0.18824622 0.036235508 -0.26734436 0.20088194 0.028871765 0.08180198 -0.24449396 0.15770407 0.39053681 0.13219789 0.14115162 0.15155543 0.15634345 0.26733243 -0.10208134 -0.19549201 -0.20528172 -0.21298496 -0.025220856
77 -0.22292909 0.12298884 -0.052847315 0.2837061 0.34547442 -0.00408187 0.25684986 -0.26511583 -0.048946574 -0.16205361 -0.01104568 -0.31217867 -0.5357145 0.0612627 0.105114475 -0.05804892 0.24281956 -0.06811121 -0.025729412 -0.3358332 -0.06220244 0.36328444 -0.09982856 -0.10036255 -0.10603127 -0.010450483 0.22983275 -0.2462413 -0.17136715 -0.14383468 -0.032233316 -0.09570902
29 -0.29684442 0.14801322 0.00987087 0.32425553 0.3227441 0.008528336 0.42817134 -0.3400917 -0.0769179 -0.13264446 0.12115111 -0.31510752 -0.49607438 0.042974073 0.18422447 -0.0062935944 0.1427146 0.0021129136 0.062322248 -0.18158522 -0.053372573 0.40926927 -0.06488168 -0.0946667 -0.011072809 0.10727026 0.22637309 -0.08789342 -0.060044087 -0.20539834 0.10408107 -0.08042643
74 -0.2628716 0.123314455 -0.006752933 0.29143912 0.30470023 0.043036617 0.29551736 -0.26771492 -0.022376312 -0.21107517 0.009968142 -0.30992526 -0.5706708 0.11016673 0.12796824 -0.016566778 0.22288333 -0.061779883 -0.05238002 -0.33069438 -0.15339363 0.3964296 -0.15699303 -0.14451273 -0.16656958 -0.033330366 0.21450755 -0.27703393 -0.14784977 -0.10170887 -0.027482448 -0.07730629
79 -0.29706997 0.14422366 -0.03800779 0.33981442 0.3224657 -0.035203893 0.37015185 -0.34331012 -0.034176055 -0.06720122 0.08296328 -0.2959945 -0.4412211 -0.011993557 0.14368568 -0.02727684 0.16022542 -0.017915312 0.04460762 -0.20042783 -0.009346944 0.44551975 -0.027234519 -0.06272128 0.04747767 0.12555274 0.2534932 -0.10788568 -0.06884945 -0.19052377 0.066524066 -0.08023411
101 -0.16066787 0.24265939 -0.2899517 0.25382045 0.50138766 -0.23241943 0.2232996 -0.28994203 0.049366247 -0.009629097 -0.033330318 -0.21055292 -0.41791663 -0.12918435 0.05557994 -0.25971326 0.19058529 -0.0023406295 0.07692162 -0.24659683 0.14543201 0.36982492 0.076780364 0.11408386 0.09987653 0.12533407 0.26481354 -0.13765208 -0.21399358 -0.19133043 -0.20272112 -0.067023404
110 -0.08893402 0.07430362 -0.26373622 0.2529406 0.3911255 0.009501346 0.1969217 -0.14894637 -0.1111418 -0.19665451 0.024915524 -0.30323058 -0.6388203 0.046749815 0.06548587 -0.12527895 0.06951006 -0.07558213 0.06322778 -0.33237633 0.2581043 0.3398779 -0.17309321 -0.04277125 -0.02702953 0.074589536 0.28570288 -0.033804502 -0.15784872 -0.11664986 0.005562118 -0.15388118
43 -0.16175394 0.14324996 -0.14419383 0.26383948 0.37267464 -0.02588034 0.24596614 -0.23327683 -0.016663007 -0.13095711 -0.0025402426 -0.2703501 -0.545557 0.03509985 0.091093354 -0.07520844 0.17383213 -0.05365541 -0.010341519 -0.33440936 0.020862782 0.3804583 -0.081464134 -0.08173563 -0.057963364 0.044229943 0.24647407 -0.20466207 -0.17434613 -0.13069308 -0.070620365 -0.10446809
37 -0.21955316 0.15868767 -0.050811898 0.27257448 0.35402063 -0.0031970672 0.2939337 -0.32495257 -0.033537142 -0.15088141 0.021996463 -0.29837602 -0.51700187 0.0442548 0.10717165 -0.05291422 0.21062157 -0.02178269 0.016211025 -0.28252268 -0.04447005 0.39170527 -0.08623553 -0.061268143 -0.02376208 0.036866684 0.23476934 -0.20211458 -0.14269264 -0.14828151 0.002882307 -0.11006334
34 -0.07900329 -0.0056804847 -0.25873163 0.23466037 0.3829188 0.016557747 0.24445234 -0.09755005 -0.1344159 -0.20735472 0.042867806 -0.34825537 -0.6826922 0.072035216 0.04703804 -0.07269483 0.060410593 -0.11568873 0.052806452 -0.36387882 0.27486143 0.33903685 -0.21421568 -0.10343297 -0.042645253 0.08550671 0.27164382 -0.039273664 -0.15467757 -0.073337935 0.0796013 -0.16579227
127 -0.16156468 0.24854489 -0.3044087 0.2461468 0.5075257 -0.21784683 0.20743938 -0.26580948 0.024465354 -0.007788149 -0.01967518 -0.23395118 -0.39550474 -0.13698424 0.041326802 -0.26415652 0.18049219 -0.013532338 0.08253323 -0.27069685 0.20864832 0.36969197 0.049336538 0.14102192 0.15204084 0.13274564 0.26004043 -0.102448516 -0.19712842 -0.18692905 -0.18072884 -0.08850104
56 -0.006773465 0.08925968 -0.37693325 0.24917182 0.46241972 -0.085086286 0.19268325 -0.09995449 -0.08245401 -0.070136026 0.003918945 -0.29536462 -0.6015269 -0.024760896 -0.024546618 -0.19267783 0.04757537 -0.09903346 0.090124376 -0.36869672 0.39879504 0.3083204 -0.11728665 0.026443077 0.11375874 0.1473877 0.32233813 -0.022991432 -0.18495011 -0.06832483 -0.04567181 -0.22032277
68 -0.2362691 0.10438065 0.054296687 0.30457625 0.28699043 0.08672116 0.319678 -0.2911806 -0.07832356 -0.19546042 0.04035133 -0.31837413 -0.59930384 0.15110858 0.1778098 -0.008356057 0.19193698 -0.07020084 -0.012872938 -0.31711552 -0.13924903 0.42751634 -0.17866854 -0.18491234 -0.1416793 -0.0067202053 0.18827179 -0.2279723 -0.14069447 -0.13428906 0.06812012 -0.08887817
111 -0.0062590237 0.062363293 -0.40394658 0.21120968 0.47012985 -0.10200268 0.13868397 -0.07936135 -0.07671708 -0.15468308 -0.0013612369 -0.2971047 -0.6597665 -0.015516614 -0.014694605 -0.16530403 0.043356266 -0.08675866 0.098498814 -0.39117125 0.4527838 0.29606742 -0.13771433 0.027451754 0.08302301 0.11124708 0.31044203 -0.018085573 -0.20332676 -0.09477331 -0.11534019 -0.21212225
108 -0.21027413 0.19931397 -0.18344936 0.30089107 0.45077744 -0.13260025 0.29769552 -0.3024975 -0.0057458263 -0.06601254 0.034988515 -0.25224364 -0.43474004 -0.09502329 0.10297894 -0.1832149 0.17714997 0.018589372 0.054523136 -0.2391155 0.07852429 0.3654187 0.022622578 0.02339669 0.05754037 0.11861743 0.23287176 -0.119414285 -0.16040628 -0.16464105 -0.088799395 -0.054951012
90 -0.2673707 0.13873918 -0.02229051 0.26938507 0.31090122 0.007476963 0.29943308 -0.2910692 0.02795966 -0.13423808 0.0026685742 -0.29566905 -0.514068 0.102097146 0.13983892 -0.08538034 0.2480784 -0.03889808 -0.0553562 -0.31192338 -0.14809331 0.42536303 -0.112161286 -0.1300207 -0.18889616 -0.025853744 0.25662854 -0.29948556 -0.15550792 -0.16325921 -0.036492042 -0.023792326
10 -0.29508132 0.12829545 -0.0015996158 0.29599008 0.32340768 0.041588493 0.35655126 -0.32189408 -0.038026363 -0.18868104 0.053104576 -0.34122515 -0.5469014 0.10392991 0.15450889 -0.008136994 0.1921044 -0.048607837 -0.0034348588 -0.2723759 -0.104704656 0.40145817 -0.10341045 -0.15905759 -0.11563084 0.02706501 0.19695741 -0.18979463 -0.10980516 -0.16717443 0.06510117 -0.04837306
28 -0.27211925 0.17680393 -0.05307424 0.32292977 0.35149646 -0.033991896 0.37529317 -0.33190066 -0.012886812 -0.08234961 0.07456454 -0.27800828 -0.4477083 -0.0127865905 0.15678959 -0.03192665 0.15386744 0.0062557133 0.04889142 -0.1745513 0.007326659 0.40197837 -0.026367052 -0.039893553 0.060862865 0.1627239 0.24727732 -0.11426712 -0.07898291 -0.1886429 0.030711332 -0.06427301
97 -0.23868154 0.10871313 0.055435807 0.29318792 0.26868853 0.06300002 0.35895237 -0.30789557 -0.049310587 -0.20950273 0.023402086 -0.31649527 -0.58523095 0.13656624 0.18629585 -0.0061259614 0.1981149 -0.034620363 -0.04273436 -0.25244182 -0.1398031 0.39612445 -0.12851913 -0.16026376 -0.16328429 -0.0015955574 0.22874376 -0.21434213 -0.14607927 -0.17560814 0.046319168 -0.0644747
106 -0.23115039 0.26701635 -0.22127883 0.285039 0.45623645 -0.18136863 0.25203404 -0.33158845 0.03339198 -0.04094264 0.0386905 -0.22003247 -0.37887144 -0.15180627 0.057294555 -0.19019791 0.17126617 0.023083992 0.09090461 -0.234041 0.09037478 0.40329322 0.087247044 0.08973515 0.10071368 0.12860994 0.2544698 -0.13090119 -0.14318666 -0.20381036 -0.13213277 -0.06288648
48 -0.3405679 0.1418888 -0.011150183 0.36401296 0.3200181 0.0053289137 0.46234322 -0.3934417 -0.09347056 -0.11103237 0.1195142 -0.28223494 -0.45804486 0.015127307 0.1940429 0.007001705 0.109584995 0.0023073498 0.07907919 -0.15332378 -0.0525035 0.42702192 -0.016628502 -0.09502811 0.04171692 0.17630787 0.216882 -0.057414666 -0.019424899 -0.1906335 0.11637858 -0.08331467
51 -0.11576757 0.16635439 -0.26302117 0.25695598 0.4681987 -0.1265154 0.2360686 -0.24967727 -0.009003868 -0.04160654 -0.016095214 -0.26140887 -0.49133435 -0.042327974 0.04246798 -0.21270037 0.15767857 -0.051691417 0.0635769 -0.28131258 0.1563381 0.34563464 -0.015377193 0.04525043 0.02055604 0.09250301 0.23047185 -0.12321386 -0.18540819 -0.15114205 -0.12751895 -0.08229754
62 -0.13019091 0.06998984 -0.21157275 0.23852448 0.3725574 -0.043488856 0.2434249 -0.17894208 -0.048136793 -0.18200912 0.0019302508 -0.30470693 -0.57768106 0.008850326 0.075880826 -0.10185311 0.099785656 -0.07561552 0.012836707 -0.33154535 0.19372953 0.34324712 -0.13663378 -0.05702328 -0.007944506 0.08422498 0.30305314 -0.11448353 -0.17462191 -0.12452622 -0.008396971 -0.15070832
103 -0.123118415 0.21027356 -0.26197502 0.25153637 0.47628552 -0.1636956 0.23993267 -0.2753842 -0.013991803 -0.02314077 0.009755389 -0.23906572 -0.43014824 -0.12936352 0.025899434 -0.22915715 0.15740016 -0.01703275 0.07521925 -0.27791682 0.18489002 0.38189596 0.03288025 0.08170401 0.115871035 0.15181912 0.27833873 -0.07345037 -0.18025649 -0.1914828 -0.14327016 -0.094505884
105 -0.03292107 0.107954524 -0.34794828 0.26472962 0.47053584 -0.094281405 0.20136893 -0.11116631 -0.07018985 -0.071298845 -0.0049229763 -0.27486023 -0.55622566 -0.040226948 0.0065727 -0.15200374 0.0868803 -0.099071346 0.086190894 -0.3543785 0.35506517 0.33386502 -0.09665854 0.013102068 0.089257106 0.13281688 0.30250576 -0.04795225 -0.17594983 -0.08741973 -0.087385185 -0.17560694
20 -0.2722313 0.12922718 0.0038807425 0.28175595 0.3087653 0.015307293 0.3086175 -0.3218778 0.0003016529 -0.1620157 0.019241452 -0.2987917 -0.52618694 0.071095556 0.13660443 -0.045719173 0.19326927 -0.034614403 0.016832264 -0.28325942 -0.09036313 0.39592692 -0.08903162 -0.12290083 -0.08778947 0.01936006 0.21743967 -0.23498172 -0.147049 -0.14114612 -0.0125186145 -0.070362024
1 -0.22204983 0.17602792 -0.05952745 0.31484854 0.373861 -0.055236027 0.34964696 -0.33632982 -0.03413276 -0.111911654 0.046623543 -0.2804709 -0.4946469 -0.042223595 0.12132904 -0.069498174 0.14923005 -0.05050114 0.0659741 -0.23660272 0.03664895 0.3605863 0.01267601 -0.02596492 0.088220574 0.14607036 0.2218714 -0.10456956 -0.10602146 -0.16457035 -0.0013622348 -0.10263218
114 -0.2044718 0.15662555 -0.09450123 0.28325042 0.3291342 -0.0072349985 0.2736073 -0.27767292 -0.02157457 -0.20713371 -0.012400293 -0.28478667 -0.5235252 0.07247845 0.103781894 -0.07558326 0.22601224 -0.06406238 -0.034324996 -0.30804336 -0.07902479 0.40575576 -0.0763542 -0.098075494 -0.11456001 -0.0076710996 0.22395276 -0.26476443 -0.16128626 -0.14039989 -0.061576664 -0.057721864
32 -0.3237087 0.13957123 0.04452554 0.32699823 0.30352524 0.046256837 0.45966122 -0.37219152 -0.068657465 -0.111213915 0.120077915 -0.3031457 -0.46122992 0.0020469069 0.19526134 0.053458817 0.13077918 0.015739035 0.047400933 -0.1627269 -0.06390058 0.45972815 -0.078651994 -0.1342417 0.009162365 0.15172836 0.26162297 -0.07267663 -0.052228753 -0.20881207 0.16537619 -0.11146175
55 -0.0935701 0.07138241 -0.20909837 0.26872036 0.39727253 0.00091187604 0.24070339 -0.15964782 -0.0964748 -0.12409443 0.0015136902 -0.2929781 -0.6008384 0.020181024 0.04801535 -0.09195913 0.11093326 -0.08997085 0.04287825 -0.3082186 0.20067011 0.35337055 -0.15697151 -0.06864118 -0.013565827 0.06796944 0.29707387 -0.09219088 -0.16917986 -0.12927845 0.034133293 -0.16531864
52 -0.12641431 0.09601564 -0.2511439 0.2665589 0.3946716 -0.04870917 0.26008224 -0.18284467 -0.060553268 -0.07134001 0.05779017 -0.27751088 -0.55222136 -0.046858348 0.07392599 -0.12705788 0.099658 -0.046172947 0.06929266 -0.2909853 0.24157734 0.37568414 -0.088133 -0.024749672 0.082759194 0.1297804 0.30454016 -0.06934812 -0.15958251 -0.15408249 -0.006329176 -0.12844115
94 -0.21548906 0.11909797 -0.064724945 0.2905319 0.33565283 0.046114784 0.29555652 -0.21300526 -0.037850365 -0.16876227 0.025300201 -0.3158133 -0.5384006 0.1246312 0.111736655 -0.03577376 0.20712084 -0.058178578 -0.0022300775 -0.29249784 -0.04949697 0.42153785 -0.14760092 -0.10677042 -0.1290935 0.0007265279 0.26905003 -0.2235235 -0.16245279 -0.14585668 0.017173486 -0.08820691
65 -0.113281414 0.056105647 -0.12023774 0.24963474 0.31574565 0.08532535 0.26287317 -0.18006825 -0.11297367 -0.22687328 0.037918344 -0.332191 -0.6688957 0.12343446 0.12097019 -0.041345183 0.10324823 -0.08568196 -0.00603284 -0.3073655 0.11351514 0.3509971 -0.18747327 -0.1629697 -0.11503478 0.038050625 0.25548863 -0.12925681 -0.12649424 -0.0879111 0.03457914 -0.15236045
63 -0.2712117 0.19019757 -0.12660094 0.29784748 0.38777283 -0.07409137 0.33908725 -0.28749862 0.03486352 -0.07480542 0.08722941 -0.25172803 -0.44530052 -0.026083183 0.10990108 -0.08169909 0.17861278 -0.023078388 0.03515411 -0.21526946 0.041810103 0.4052221 0.015496914 -0.02524628 0.063959084 0.12896775 0.266532 -0.13714842 -0.123109706 -0.16360159 -0.04083203 -0.037288297
125 -0.26204032 0.18164118 -0.07020802 0.31164554 0.36113775 -0.079831146 0.41630822 -0.37463242 -0.0007444816 -0.05766375 0.06619641 -0.28210166 -0.4058383 -0.08091156 0.11944387 -0.08072419 0.15992917 0.03087455 0.021503607 -0.17160116 -0.0029587315 0.415482 0.011738276 -0.02233691 0.05181554 0.17226605 0.2684616 -0.09499583 -0.104584664 -0.21588023 0.032684315 -0.08079065
58 -0.18638048 0.26202062 -0.2842557 0.27287006 0.5185088 -0.22682269 0.25055322 -0.29736716 0.060695406 0.0023460363 -0.012927757 -0.20278576 -0.37375262 -0.14012957 0.046228442 -0.25418338 0.20265272 0.008715704 0.08832337 -0.24231131 0.15076387 0.38275686 0.0882477 0.12951382 0.1472006 0.12901713 0.26314557 -0.11078932 -0.22131132 -0.21583301 -0.1864899 -0.038331088
15 -0.25235635 0.1461561 -0.021606006 0.2832777 0.32906163 0.01019896 0.28975627 -0.30925658 0.033349875 -0.17392895 0.0012375235 -0.31291068 -0.5444704 0.10692429 0.13627195 -0.093407564 0.244504 -0.04009206 -0.060137026 -0.30693078 -0.14126487 0.42791396 -0.087686524 -0.120939404 -0.16986012 -0.030366328 0.20553778 -0.31252313 -0.18301055 -0.15710133 -0.03992544 -0.057245653
123 -0.25389525 0.24089113 -0.18298781 0.29256442 0.44854015 -0.16204408 0.30660793 -0.35496938 0.029646596 -0.027082924 0.049834076 -0.24252826 -0.38154188 -0.12879209 0.07362279 -0.16257885 0.17509648 0.024684936 0.08451074 -0.22625756 0.118513264 0.38852063 0.10744966 0.052526064 0.14055467 0.172201 0.257037 -0.11414963 -0.14171645 -0.20357022 -0.11821419 -0.053725895
40 -0.060103547 0.0644865 -0.3099316 0.223695 0.40717942 -0.040537886 0.24022019 -0.13906424 -0.111376956 -0.13567431 0.049760733 -0.2923341 -0.6098053 -0.03686157 0.04582666 -0.11919578 0.049077056 -0.08180724 0.03275314 -0.30654135 0.335719 0.36424768 -0.107428595 -0.026209049 0.078866325 0.13866584 0.31580207 -0.030183882 -0.15054692 -0.108136944 -0.003327648 -0.19113411
98 -0.07882865 0.06580925 -0.29039338 0.24331096 0.4407814 -0.05554129 0.23185004 -0.13550076 -0.052128103 -0.13037734 0.016116489 -0.30884194 -0.57759506 -0.0049324897 0.044712316 -0.16135854 0.09611085 -0.077756554 0.057556976 -0.3558581 0.31758478 0.346978 -0.11892504 -0.003307552 0.034981042 0.11993107 0.3129135 -0.06641357 -0.18064997 -0.1081791 -0.044483606 -0.18675219
70 -0.22222333 0.19440965 -0.20115861 0.2824283 0.44718346 -0.16623522 0.23844849 -0.28006834 0.049965408 -0.07243386 0.022328118 -0.2687355 -0.42175773 -0.058504436 0.07334853 -0.15560383 0.22552799 -0.027573137 0.051139664 -0.28009513 0.077612475 0.38091215 0.038432516 0.04857731 0.06332554 0.068945296 0.22601435 -0.14330304 -0.2017088 -0.1551153 -0.12562357 -0.07046112
66 -0.29703698 0.07300037 0.022985313 0.33562887 0.29208368 0.038940594 0.39545158 -0.34313744 -0.12217717 -0.20623304 0.11197789 -0.3454817 -0.55310065 0.057331502 0.19511366 0.030339222 0.14435731 -0.014001237 0.020270975 -0.18513349 -0.023930097 0.42571658 -0.101763755 -0.17173722 -0.008931159 0.13400315 0.21357805 -0.061091017 -0.035933126 -0.14337137 0.12486836 -0.11800781
33 -0.24043876 0.14985415 -0.02439321 0.2939898 0.3528277 0.01905462 0.27254078 -0.28500366 -0.02645363 -0.1370723 0.008795357 -0.2988368 -0.5211194 0.07491143 0.13827573 -0.061358035 0.23539416 -0.031353883 0.016306708 -0.31154168 -0.083994135 0.39978048 -0.10754694 -0.053633712 -0.108173266 0.013913454 0.22432259 -0.21654208 -0.1888391 -0.14803943 -0.008408166 -0.09540616
46 -0.08650313 0.03341675 -0.23741272 0.27101704 0.38173768 0.027016945 0.22612162 -0.08622401 -0.1437204 -0.14208572 0.047703892 -0.3310898 -0.63919234 0.03476618 0.06065349 -0.064186715 0.03906552 -0.10774134 0.05985261 -0.361354 0.28807575 0.3371451 -0.20162526 -0.08844746 0.035700615 0.092936456 0.31985378 -0.024990192 -0.13483742 -0.100892484 0.04949636 -0.20104246
54 -0.08422847 0.13695014 -0.3262078 0.26314935 0.49167392 -0.12582506 0.23032328 -0.16507798 -0.004182367 -0.090305366 0.009563904 -0.2554092 -0.5124813 -0.04162175 0.0055636726 -0.18498887 0.088082045 -0.027083198 0.08128568 -0.30903217 0.30048332 0.3362574 -0.04833087 0.047547635 0.08478207 0.103810266 0.3061985 -0.07716996 -0.20621383 -0.119297326 -0.120435126 -0.14705442
7 -0.26443568 0.10736644 -0.037859064 0.3158427 0.32841498 0.07326784 0.34920576 -0.296972 -0.10600682 -0.123668715 0.06716546 -0.29615214 -0.5498632 0.05060611 0.1397953 0.040226925 0.14162025 -0.038515363 0.017456647 -0.23877814 -0.026794191 0.4113966 -0.1438017 -0.12787047 -0.067572504 0.07381658 0.25360215 -0.14323115 -0.08934346 -0.1402696 0.12288821 -0.111690916
6 -0.35039657 0.098642185 0.12381477 0.32483163 0.25610375 0.07799364 0.47884196 -0.39145708 -0.08091516 -0.12921481 0.12582932 -0.3171113 -0.49889666 0.023969041 0.25325257 0.10277666 0.14238158 0.015703734 0.010552147 -0.14944302 -0.13429908 0.4613518 -0.054271325 -0.1749992 -0.047471974 0.16751385 0.2570817 -0.11947467 -0.050102968 -0.21490702 0.19455256 -0.07206837
75 -0.20355295 0.16541083 -0.10305482 0.27561292 0.3771655 -0.041585892 0.27784687 -0.30098623 -0.023901181 -0.13088435 0.00047484942 -0.2657209 -0.5023798 0.024771355 0.097324885 -0.1397315 0.18828833 -0.025749438 0.011584043 -0.2840745 -0.021194331 0.39139897 -0.04789899 -0.041995216 -0.055087764 0.042563707 0.22189453 -0.19924527 -0.15688974 -0.19349329 -0.07960262 -0.046082675
85 -0.27222475 0.12941022 0.023682425 0.30118522 0.30877024 0.05700534 0.32924765 -0.30240864 -0.022615088 -0.20880577 0.0039121853 -0.3139519 -0.5379076 0.13926925 0.1502383 -0.0182204 0.24685182 -0.06515305 -0.02375987 -0.30023992 -0.16221555 0.4154819 -0.13332342 -0.13277547 -0.17245267 -0.017562103 0.20628506 -0.24745767 -0.13111973 -0.13541855 -0.021584013 -0.050002854
124 -0.1611843 0.24546255 -0.25428572 0.2878405 0.504781 -0.22121003 0.2284288 -0.29262537 0.06693843 -0.01442282 0.013873205 -0.22939192 -0.38032213 -0.11455017 0.03344564 -0.2506781 0.1897748 -0.007286591 0.08727485 -0.25134084 0.15238528 0.40098104 0.1285022 0.113181345 0.14705503 0.14454746 0.2633347 -0.13591415 -0.20257089 -0.17494297 -0.20096472 -0.056163114
83 -0.3041849 0.14277743 0.059913177 0.30702156 0.29361627 0.08519108 0.37455538 -0.34876364 -6.884293e-05 -0.15377812 0.046877146 -0.30185866 -0.5256509 0.108143955 0.1758027 -0.024307927 0.2516774 -0.010132428 -0.04944787 -0.23832923 -0.19739634 0.4218101 -0.10288156 -0.16602582 -0.15912877 0.015305276 0.2185349 -0.24685678 -0.12572984 -0.15068051 0.03180412 -0.015687173
39 -0.13087115 0.14683908 -0.23599036 0.24136387 0.46359444 -0.13878076 0.23792414 -0.25153488 0.02332715 -0.056225795 -0.022634467 -0.25345793 -0.4863042 -0.085135125 0.050738733 -0.21294133 0.17451593 -0.049049612 0.039862417 -0.32110396 0.20249401 0.35389897 0.0108517585 0.0463633 0.05202267 0.14082114 0.25005203 -0.12745383 -0.19912691 -0.1944475 -0.10959518 -0.0726228
3 -0.34792817 0.12856111 0.10747714 0.35098708 0.28858143 0.027162442 0.4412165 -0.35543036 -0.032065846 -0.09788387 0.12937911 -0.2871544 -0.4457309 0.032943267 0.20022966 0.059230268 0.1911102 0.0012629001 -0.0108189415 -0.13383281 -0.13733704 0.47449183 -0.037402578 -0.16799912 -0.00073652784 0.114112414 0.25867096 -0.1390367 -0.059702657 -0.18270612 0.15232548 -0.08074377
126 -0.15220174 0.23171599 -0.28346798 0.26139465 0.4860505 -0.20890239 0.2502952 -0.2859501 0.023853974 -0.013117539 -0.0019407392 -0.2495684 -0.42911914 -0.12630804 0.03291784 -0.2322234 0.17522018 -0.010821676 0.07122701 -0.27249432 0.16619232 0.3412837 0.074268945 0.120961726 0.12746477 0.119203895 0.25965884 -0.11019592 -0.19281639 -0.17096455 -0.18565376 -0.075385
121 -0.25624615 0.16948842 -0.025246581 0.2938993 0.3350602 -0.020784743 0.3085292 -0.3194745 0.01839365 -0.1991104 0.018005924 -0.28331915 -0.5117191 0.06858716 0.13419408 -0.049657907 0.22955024 -0.058254723 -0.032626905 -0.30342537 -0.13741367 0.39973623 -0.04987401 -0.13044643 -0.09243144 0.0281654 0.18390507 -0.26395044 -0.123163655 -0.16370125 -0.03501644 -0.03169463
71 -0.23915283 0.2458195 -0.2149304 0.26183188 0.4484128 -0.18807212 0.27846867 -0.32428724 0.043663163 -0.028036887 0.020654611 -0.2475851 -0.37764135 -0.113202624 0.091744475 -0.17158881 0.2089534 0.016922923 0.09983722 -0.20176356 0.09874419 0.3882199 0.069097236 0.10598841 0.10978657 0.12775677 0.23766044 -0.108061306 -0.17475961 -0.1762337 -0.14370705 -0.039588757
14 -0.27893886 0.079055555 0.0641418 0.32249177 0.2676944 0.05226294 0.40311742 -0.301219 -0.070852086 -0.12367364 0.06641594 -0.33347484 -0.538719 0.099170044 0.14590785 0.040500388 0.16595256 -0.06449383 0.025541674 -0.24710639 -0.068645224 0.45223764 -0.13238133 -0.13896601 -0.024195401 0.09079813 0.25281858 -0.13340509 -0.07901007 -0.14305897 0.12588042 -0.14679392
41 -0.20411098 0.2726839 -0.24023306 0.26876968 0.48581028 -0.2163819 0.27819833 -0.35008407 0.07458892 0.017593972 -0.01637024 -0.2310248 -0.35206026 -0.16610117 0.039229635 -0.21952884 0.21915899 0.02771134 0.086096734 -0.24558595 0.14438507 0.378745 0.1023928 0.14868452 0.15511738 0.15313175 0.26857662 -0.13188338 -0.19361499 -0.20562756 -0.17745826 -0.064334944
115 -0.1799607 0.24063924 -0.20879424 0.24402389 0.47465917 -0.20575257 0.23564163 -0.33990306 0.053722624 -0.029997125 -0.055726513 -0.22848381 -0.4076701 -0.1101679 0.082265176 -0.26306173 0.23695377 0.0043615894 0.05199446 -0.22790465 0.092259884 0.37256745 0.08383956 0.119782425 0.04957096 0.11681874 0.26404533 -0.13882768 -0.20323084 -0.21405877 -0.18928106 -0.07068263
24 -0.17795195 0.25837976 -0.30066514 0.27119932 0.51481354 -0.21234699 0.20937154 -0.28269875 0.036918424 0.017694276 -0.0011296158 -0.21424979 -0.3791279 -0.14979297 0.011422877 -0.24262348 0.19416784 0.023527507 0.12336067 -0.2398274 0.17888615 0.38039485 0.108255714 0.15371653 0.18443511 0.13842072 0.28724143 -0.102777906 -0.19212697 -0.16200069 -0.21763255 -0.060586974
116 -0.14893194 0.20388655 -0.23522893 0.27748486 0.45239398 -0.16559653 0.2481465 -0.29229793 -0.0059801466 -0.042702753 -0.010157194 -0.22387807 -0.4317691 -0.10480908 0.05632006 -0.22161865 0.16324426 -0.008788073 0.08930496 -0.25836137 0.19027278 0.36761776 0.035477675 0.07164913 0.122791775 0.13885151 0.27107206 -0.097905114 -0.18589713 -0.19593638 -0.12805861 -0.09439031
92 -0.2737074 0.13835491 -0.018634671 0.30839226 0.32256618 -0.0102914795 0.38987893 -0.32124916 -0.045568947 -0.11773279 0.09956343 -0.2924979 -0.49184152 -0.0068376143 0.181798 0.009342826 0.1449771 -0.024287209 0.0021004688 -0.19982852 -0.029442318 0.41040048 -0.04564283 -0.1208507 0.03529814 0.11485395 0.24556133 -0.11375066 -0.06734451 -0.15610829 0.07976226 -0.09879405
86 -0.069649994 0.10896076 -0.3131977 0.2574043 0.43634978 -0.08698303 0.21640122 -0.1611808 -0.054194625 -0.08098594 0.016380614 -0.24587506 -0.53438395 -0.057505816 0.051139653 -0.1642492 0.097897366 -0.08006969 0.04353698 -0.33897364 0.23685388 0.35367426 -0.04888711 -0.014492906 0.049358714 0.120713755 0.3071796 -0.09640611 -0.18163852 -0.14066522 -0.11266487 -0.13523489
119 -0.17650072 0.18497741 -0.18973753 0.26114434 0.43539253 -0.108848944 0.25728846 -0.27997074 -0.016653694 -0.04658447 -0.010384666 -0.23672278 -0.43876067 -0.093356825 0.06814809 -0.14169371 0.16859724 -0.04057783 0.074176736 -0.29772684 0.14086436 0.36522758 -0.019857423 0.037287742 0.07083957 0.12947616 0.27312988 -0.12648335 -0.16598268 -0.17959912 -0.114482686 -0.0930715
100 -0.2826435 0.14649977 0.0007702268 0.3121358 0.31775308 0.019234166 0.29647398 -0.30176505 -0.025601454 -0.19594498 -0.023763403 -0.3035788 -0.5584138 0.100228205 0.13643888 -0.054182004 0.23057964 -0.06577662 -0.04465023 -0.31431562 -0.15253174 0.4043819 -0.13255957 -0.13927115 -0.18224934 -0.042133532 0.19554202 -0.29395783 -0.12611383 -0.12604888 -0.058648963 -0.069329076
27 -0.055134773 0.083124846 -0.3006358 0.26892295 0.41470993 -0.045101777 0.19705345 -0.11751538 -0.06342823 -0.06087858 -0.00016638896 -0.2764996 -0.5826969 -0.0012248426 0.023215987 -0.15080647 0.096929595 -0.08887792 0.08903747 -0.33423704 0.3250161 0.33082417 -0.12059101 -0.010785405 0.06263345 0.101834625 0.36479518 -0.07205341 -0.19339663 -0.118178576 -0.061535332 -0.16779509
4 -0.31228247 0.10226253 0.018502532 0.33311495 0.32276648 -0.008008253 0.40580744 -0.34230107 -0.091924675 -0.1476475 0.123687595 -0.30397633 -0.4906795 0.012680508 0.18262386 0.04033053 0.12249788 -0.011631607 0.086188726 -0.17948337 0.0031109774 0.41597116 -0.056563493 -0.11738135 0.09171565 0.18523446 0.21764924 -0.066692054 -0.050017975 -0.18636249 0.118317105 -0.10199301
