128 32
36 -0.09077216 -0.14935921 0.21368806 0.08563906 0.1631088 -0.03248304 0.037761897 -0.13259903 0.15292127 0.12685087 0.25436598 0.21313763 -0.30925176 -0.21376002 0.09746053 -0.2609038 -0.0045878477 0.5197023 -0.114519894 -0.31615 0.08126856 0.07822992 0.056773428 -0.17445846 -0.2575581 0.0020491462 -0.11385547 0.21717271 -0.08836932 -0.25681987 -0.10257614 0.54346216
114 -0.107600145 -0.14961897 0.216418 0.06500536 0.1672345 -0.008807436 0.10078938 -0.12839782 0.13554008 0.15285374 0.26274246 0.18329391 -0.32251143 -0.17427574 0.05485766 -0.27199265 0.006725261 0.52065897 -0.13034202 -0.3345213 0.048145723 0.05649646 0.066801585 -0.16292113 -0.19991727 -0.017855452 -0.08971202 0.21606603 -0.09813167 -0.29343098 -0.14920427 0.5238111
108 -0.042581145 -0.16382368 0.15822357 0.09764503 0.090169914 -0.10248985 0.1037185 -0.1891642 0.16271883 0.19132032 0.29844475 0.22161773 -0.28913862 -0.12964694 0.076332144 -0.24158718 0.008519498 0.5522058 -0.21212028 -0.23477225 0.08250435 0.027688812 0.010574295 -0.21279506 -0.20643976 0.009063021 -0.051094636 0.16638935 -0.04591496 -0.21796863 -0.09144833 0.45653462
33 -0.01871741 -0.30769166 0.1206751 0.13065703 0.2163179 -0.23600386 0.06662497 -0.26865253 0.26352012 0.19470352 0.45287046 0.20828639 -0.20785423 0.11312271 0.24627377 -0.23705757 0.22366609 0.46987748 -0.21758425 0.03660213 0.25605685 0.018363379 -0.09561421 -0.2744321 -0.3498654 0.04608699 -0.006552091 -0.0011043701 0.20631011 0.060653646 0.00659876 0.25771996
38 -0.06097279 -0.12293843 0.155662 0.038865197 0.14453138 -0.074060634 0.113250695 -0.18828452 0.164006 0.19839492 0.27463686 0.22231211 -0.2812113 -0.1639202 0.08482544 -0.25240576 0.048158914 0.5097191 -0.21161906 -0.29518795 0.08647509 0.0764949 0.037383053 -0.15910015 -0.22202949 -0.017715238 -0.027587678 0.19151515 -0.021689469 -0.20667493 -0.0944504 0.5020867
81 -0.0975418 -0.20471443 0.18358585 0.11473977 0.2476837 -0.05726219 0.05344956 -0.15419342 0.15127134 0.14264277 0.37253666 0.19536091 -0.2718573 -0.046560258 0.13555156 -0.28017056 0.08476953 0.50096565 -0.14224112 -0.21241668 0.085177585 0.05739237 0.04331466 -0.16834201 -0.22620535 -0.0063074618 -0.08171063 0.113856904 0.033842497 -0.13419192 -0.090427175 0.47346932
47 -0.051051576 -0.14962459 0.17940739 0.09904559 0.11846337 -0.019259794 0.100540034 -0.16762657 0.15663898 0.13890189 0.3112726 0.21529599 -0.28405192 -0.13569812 0.07507997 -0.27043205 -0.046131723 0.5355162 -0.17403224 -0.27135068 0.11847557 -0.0009504478 0.08012088 -0.19931535 -0.25811613 0.048715405 -0.08398723 0.19913188 -0.027077114 -0.21909004 -0.11424834 0.47510102
125 -0.15138747 -0.17671613 0.263798 0.04760001 0.28795916 -0.045397792 -0.03695777 -0.1397426 0.040171057 0.034159474 0.29363173 0.24189527 -0.32243058 -0.044235595 0.23267482 -0.26326057 0.11815457 0.5139379 -0.025293207 -0.16083863 0.0227333 0.08149536 0.03249553 -0.077140845 -0.21169177 -0.11951495 -0.06979734 0.12281812 0.043646872 0.058217395 -0.09333533 0.5626533
119 -0.086866386 -0.18787092 0.22619428 0.06874729 0.25799048 -0.116946585 -0.021075493 -0.19907519 0.110460594 0.09356488 0.31155658 0.21868385 -0.29875568 -0.05192397 0.2494018 -0.27893537 0.18266305 0.49329272 -0.081227936 -0.14548807 0.06107114 0.07548494 -0.010289292 -0.12896453 -0.23724586 -0.039812364 -0.021452399 0.0987687 0.012963767 -0.0416925 -0.07314274 0.51306915
52 -0.08539125 -0.13777515 0.21579532 0.045463476 0.16260825 -0.043708954 0.06585147 -0.16391715 0.14836088 0.1340286 0.27806482 0.2075932 -0.31861 -0.16889149 0.074546464 -0.281994 0.0118952915 0.5403566 -0.15469341 -0.34708405 0.01695333 0.07916519 0.077875435 -0.14815019 -0.18535222 -0.06256552 -0.07275752 0.20509858 -0.081431635 -0.24736765 -0.1485144 0.53190476
97 0.0071366765 -0.26602525 0.13787952 0.11925021 0.23116428 -0.23547848 0.10039509 -0.25541222 0.25785375 0.17353262 0.45237508 0.16075563 -0.23340118 0.08807345 0.22219214 -0.2598314 0.24501505 0.45737445 -0.1922219 0.0022058464 0.23732357 0.013715506 -0.07122362 -0.3366437 -0.36827698 0.01079358 -0.019820776 -0.0011222507 0.25127843 0.089397386 0.009478149 0.25927415
16 -0.07769469 -0.19126885 0.21753219 0.05229642 0.25705 -0.13105835 -0.0046330052 -0.18617795 0.14560877 0.1241487 0.31384096 0.1889848 -0.2848421 -0.04653005 0.24163672 -0.27339244 0.18106195 0.47070634 -0.0765096 -0.13979565 0.031158159 0.05265177 0.008045144 -0.11487451 -0.23603238 -0.06611807 -0.04185638 0.089055404 0.03923529 -0.01806174 -0.0986971 0.49051464
96 -0.18405141 -0.22319674 0.29847795 0.09450689 0.30362117 -0.02964799 0.002234422 -0.13782538 0.09332047 0.09590911 0.378534 0.15181212 -0.26529402 -0.06708387 0.13692456 -0.3179791 0.0895477 0.4288538 -0.036809172 -0.15156953 0.0101916725 0.072836995 0.07353067 -0.14723286 -0.24448946 0.0024004274 -0.12846667 0.16129264 0.07074811 -0.14070989 -0.105861954 0.5212959
58 -0.21004292 -0.19431998 0.28224027 0.090758696 0.31830746 0.0690891 -0.0004155876 -0.041796654 0.08574743 0.043593373 0.3059501 0.15056585 -0.3085791 -0.13633843 0.10632126 -0.30210853 0.046215955 0.50079364 -0.006377663 -0.30437475 -0.045503356 0.06782573 0.13864896 -0.11266191 -0.19099623 -0.07455971 -0.15177824 0.22778948 -0.068506755 -0.21698472 -0.14197227 0.6028138
107 -0.009121607 -0.25959086 0.16798253 0.1151411 0.2757298 -0.22313826 0.048994176 -0.23667201 0.21633239 0.14699087 0.44372287 0.18383545 -0.20745777 0.096142136 0.24948277 -0.26887068 0.26482606 0.43104702 -0.15456834 0.0411689 0.16000703 0.038299266 -0.10174199 -0.27956215 -0.3494651 -0.008033973 -0.039461665 -0.023937404 0.18063565 0.13009039 0.012402584 0.32252637
73 -0.09930018 -0.16628689 0.27354774 0.08732953 0.17516245 -0.064236395 0.015640914 -0.20154804 0.14201172 0.09404605 0.3572485 0.21987961 -0.31108123 -0.057842046 0.16756183 -0.25091648 0.07513945 0.5495661 -0.14040008 -0.11464881 0.08819726 -0.00088371336 0.020437913 -0.1634694 -0.19435132 -0.054669194 -0.063411824 0.079156965 0.087600864 -0.03509611 -0.104629055 0.45318913
110 -0.107778765 -0.123848006 0.25943232 0.058847893 0.13254134 -0.032889508 0.12004486 -0.16540049 0.12203437 0.13101411 0.2757414 0.182876 -0.33090624 -0.18768919 0.053252306 -0.24573773 -0.022137234 0.585058 -0.17905521 -0.2818157 0.05530269 0.03850159 0.08521704 -0.14310251 -0.1816073 -0.054666508 -0.08778958 0.2172319 -0.0438616 -0.2421939 -0.13629459 0.52035946
40 -0.11634043 -0.1657325 0.2370158 0.07528443 0.13544485 0.019140791 0.1095921 -0.10048546 0.12216458 0.15180281 0.29112306 0.18545792 -0.33360064 -0.19904278 0.04506888 -0.2793639 -0.053076208 0.5587778 -0.13769883 -0.35507667 0.012467469 0.04279149 0.10254226 -0.14468396 -0.15656473 -0.01720339 -0.09945828 0.25563037 -0.105245635 -0.3498976 -0.15449934 0.5557875
42 -0.118872546 -0.14285377 0.20256813 0.09725276 0.13878624 -0.08249972 0.087634996 -0.13256018 0.17799313 0.17276391 0.33134773 0.18405993 -0.29947338 -0.131181 0.0956561 -0.27932608 -0.00014141982 0.5397436 -0.16215609 -0.20963795 0.060910508 0.045615815 0.093740344 -0.16526785 -0.265158 0.002119878 -0.10016646 0.21303368 -0.04575063 -0.17975758 -0.074220516 0.5149317
2 -0.068874374 -0.19057947 0.19660932 0.0947815 0.09108188 -0.08949646 0.10231887 -0.116779335 0.17595099 0.2085091 0.31778032 0.16121973 -0.27703366 -0.14130881 0.054003127 -0.25409326 0.038485106 0.56555086 -0.21842417 -0.270717 0.07438439 0.034126874 0.08195171 -0.16453838 -0.21211895 -0.04747968 -0.06158002 0.18932396 -0.04817238 -0.24054185 -0.10232976 0.47747773
79 -0.052167453 -0.19204603 0.2081703 0.06345013 0.23306018 -0.097709045 -0.009647347 -0.16043727 0.10073988 0.09809061 0.2961411 0.21271563 -0.32537434 -0.029560758 0.24334645 -0.26220432 0.17156579 0.4956173 -0.07619855 -0.12556037 0.056925397 0.10353085 -0.042155072 -0.102713995 -0.25587964 -0.077756174 0.0048325867 0.09705349 0.02158326 0.0075589884 -0.06514394 0.50610006
49 -0.061866783 -0.1870451 0.20584552 0.06873649 0.21522647 -0.068174735 0.0577716 -0.14020497 0.12424368 0.15420622 0.31799775 0.2162857 -0.31537881 -0.11884773 0.13622074 -0.26884207 0.079743 0.4999287 -0.11443706 -0.22731304 0.06513786 0.033724997 0.015174204 -0.17161068 -0.25614887 -0.011349126 -0.082180515 0.15049613 -0.021805054 -0.16127747 -0.08188336 0.47673893
122 -0.0700527 -0.26378617 0.16171283 0.08139616 0.22619104 -0.19148725 0.052849647 -0.2399407 0.1915695 0.12881029 0.38730988 0.18553051 -0.22204152 0.031346127 0.24005052 -0.24886592 0.19613966 0.4727346 -0.21649544 -0.039050467 0.17046678 0.064628586 -0.016798005 -0.20105666 -0.30021846 -0.029766634 -0.03896807 0.06351989 0.17615192 0.035587724 -0.011924793 0.37076384
63 -0.06334492 -0.15021867 0.18964006 0.058293827 0.20058255 -0.055052113 0.026058791 -0.14765427 0.13938908 0.11615001 0.3127427 0.24613117 -0.31529385 -0.075868696 0.16393599 -0.27116215 0.07890708 0.52182794 -0.09122538 -0.2269672 0.039554045 0.08888559 0.0073181414 -0.12561414 -0.24175915 -0.068893775 -0.031527735 0.14503422 -0.008234064 -0.09965504 -0.11199984 0.50891674
64 -0.06342527 -0.24406095 0.10691283 0.09823752 0.28122503 -0.19784753 0.049998254 -0.21280365 0.25406957 0.16513704 0.42887458 0.16717076 -0.14601733 0.07790535 0.23167522 -0.27988696 0.2893314 0.45763156 -0.1425749 -0.0064240578 0.19544362 0.059050262 -0.024648838 -0.25469851 -0.35185874 0.045323335 -0.025997745 0.0260182 0.19979388 0.041376084 -0.011087157 0.34510544
60 -0.060037605 -0.20450678 0.15650317 0.057670094 0.21200605 -0.1336618 0.057636984 -0.16008411 0.17617668 0.16849308 0.29121122 0.20320053 -0.28777334 -0.07905472 0.15548697 -0.2467501 0.13510834 0.5507473 -0.17443992 -0.19778214 0.09538366 0.08203219 -0.021735672 -0.1812052 -0.22539552 -0.02244392 -0.051269352 0.10817969 -0.015869929 -0.1383883 -0.081137665 0.44866312
55 -0.012024098 -0.21215838 0.09451334 0.08241679 0.1961569 -0.16301505 0.043620232 -0.16950324 0.17935993 0.17428552 0.30110288 0.18176755 -0.24199489 0.013843659 0.22092468 -0.26869625 0.19004932 0.5613638 -0.120643154 -0.18022935 0.051571116 0.05992596 0.032122787 -0.14096023 -0.20159698 -0.027905267 0.010091808 0.07551631 0.021298312 -0.028425151 -0.11068777 0.47720537
54 -0.071499914 -0.19989242 0.27773267 0.052406844 0.22558035 -0.07703229 -0.051530406 -0.17563798 0.098518796 0.021620158 0.28866294 0.23328772 -0.3413223 0.0052077407 0.25509045 -0.28761488 0.15294166 0.50943387 -0.07429673 -0.17318474 0.012270521 0.07070198 -0.0018824415 -0.07428537 -0.19052622 -0.14080514 -0.007688757 0.07142028 0.0069965417 0.048196133 -0.1071381 0.5738961
15 -0.049303964 -0.29456413 0.17629936 0.13068418 0.21269879 -0.2052638 0.06915088 -0.26586235 0.22661732 0.1780041 0.478999 0.19040088 -0.20430799 0.057192307 0.19527668 -0.26667517 0.17866716 0.46027744 -0.20316905 0.036185242 0.25179362 -0.014580381 -0.05962411 -0.3429781 -0.35336706 0.047098227 -0.080063745 -0.010507344 0.26269522 0.08323846 0.00361965 0.26101297
26 -0.15156007 -0.197523 0.27439266 0.04890135 0.26927418 -0.0029783915 -0.009123386 -0.12518016 0.14510341 0.0572099 0.254662 0.16327463 -0.31721112 -0.10916397 0.1786501 -0.29790726 0.08813778 0.4683802 -0.057831615 -0.2635721 -0.038852382 0.079238325 0.101331495 -0.08157456 -0.22370549 -0.0565894 -0.111649245 0.15896201 -0.06984905 -0.1491878 -0.15267965 0.61961305
3 -0.03533748 -0.30351493 0.10455933 0.12170204 0.254375 -0.28855848 0.123783305 -0.2994248 0.33183742 0.21895713 0.5087064 0.16461563 -0.16015097 0.13645692 0.23291072 -0.21597682 0.28081098 0.41737056 -0.26046303 0.08895268 0.3314513 0.002120156 -0.089032434 -0.38102514 -0.44554305 0.07256195 -0.020884361 -0.021059504 0.34571832 0.08274589 0.0627818 0.18004085
103 -0.19088435 -0.22871731 0.33745265 0.11419864 0.32665917 0.010463776 -0.051860802 -0.10729741 0.045052152 0.043197762 0.34749612 0.17304644 -0.30264118 -0.09627725 0.23537064 -0.3117635 0.1297797 0.44475308 0.01704873 -0.17359808 -0.026633786 0.08853998 0.0753066 -0.054995388 -0.22830889 -0.060070228 -0.11256372 0.1437318 0.0055597327 -0.06822619 -0.08001034 0.56304914
89 0.012280501 -0.34560964 0.10356305 0.15258469 0.22892964 -0.28418797 0.14597234 -0.2965546 0.3357725 0.22248803 0.5713742 0.18448977 -0.16434707 0.15275545 0.21946236 -0.23528741 0.28557205 0.39320123 -0.27918184 0.18075739 0.38588905 -0.022177368 -0.12522054 -0.41132203 -0.4572091 0.07623378 -0.02638291 -0.077642776 0.38683775 0.13536242 0.07684896 0.18350133
21 -0.1273002 -0.20426787 0.23469736 0.10331769 0.29276392 -0.10428916 0.017981505 -0.19575642 0.13725631 0.10870586 0.38441375 0.18598333 -0.2632174 -0.023765111 0.240383 -0.25734833 0.15854353 0.45351774 -0.08889427 -0.0900197 0.11546657 0.059991844 -0.01962862 -0.19036835 -0.25609055 -0.0045559453 -0.07646335 0.085235864 0.08973288 0.012991608 -0.04319389 0.42666876
66 -0.07218278 -0.16291945 0.23765329 0.08295553 0.1838574 -0.052659545 0.033225574 -0.18781842 0.09778536 0.12378136 0.30569854 0.2200033 -0.30852643 -0.102541365 0.17691973 -0.26873547 0.10798903 0.51196307 -0.15153609 -0.16558361 0.046124857 0.09111307 -0.027145687 -0.15264526 -0.18873623 -0.05678768 -0.06936539 0.10443866 -0.00019266273 -0.065992944 -0.09620909 0.5123296
88 -0.049888205 -0.28415352 0.18284734 0.117759705 0.22137284 -0.22115864 0.050671503 -0.2607833 0.23240396 0.1553932 0.42023695 0.20091052 -0.23685771 0.06259428 0.21243683 -0.250911 0.23858966 0.46665612 -0.19852686 0.022642644 0.20788519 0.04538196 -0.08492662 -0.24498849 -0.3073506 -0.03077353 -0.026257595 0.004781263 0.18756843 0.041033998 0.02255193 0.30298677
27 -0.19049527 -0.1448327 0.31074598 0.10023393 0.23909037 0.124727294 0.05834476 -0.0887856 0.10991861 0.09047082 0.30809435 0.16693597 -0.30339468 -0.2244796 0.0287945 -0.31628042 -0.09368163 0.50244695 -0.071696475 -0.38372415 -0.017848672 0.051161367 0.15757263 -0.12709698 -0.21124843 0.014997009 -0.18418255 0.2803771 -0.09905346 -0.36601532 -0.1786374 0.6020988
75 -0.0017203426 -0.24372624 0.1286645 0.09939731 0.2669555 -0.2470587 0.08556834 -0.26278204 0.23362462 0.15539682 0.45465875 0.18414246 -0.20415564 0.09991787 0.27236587 -0.24241288 0.29591063 0.45009786 -0.18397997 0.046165716 0.23578429 0.013939397 -0.06347056 -0.28104854 -0.3346554 -0.0006385216 0.016067915 -0.04060829 0.22318952 0.11153948 0.019566491 0.3176198
59 -0.11896762 -0.1898751 0.19457534 0.11114972 0.2305324 -0.016354265 0.070858814 -0.15035835 0.1574951 0.12884389 0.32843247 0.19716515 -0.26621166 -0.0944683 0.17475994 -0.26550487 0.047923982 0.50092846 -0.11669114 -0.17702317 0.10138958 0.05339026 0.0788825 -0.15691715 -0.28394312 0.047248263 -0.0631362 0.181491 0.035242513 -0.16263531 -0.08708466 0.48229364
45 -0.087446645 -0.14491402 0.21974106 0.04407915 0.12343105 -0.037833065 0.10504392 -0.13931884 0.14389306 0.15480202 0.25816965 0.2221846 -0.31590852 -0.16071756 0.10910904 -0.24108881 -0.018997505 0.6014581 -0.17526335 -0.30875024 0.029718146 0.049121115 0.07165076 -0.12409225 -0.1788441 -0.031272464 -0.034035563 0.21961354 -0.10796024 -0.26765808 -0.15198831 0.55108404
100 -0.015332498 -0.2704723 0.12257 0.13772815 0.23864013 -0.2758745 0.08241575 -0.31413308 0.2779591 0.17595002 0.4304333 0.19356066 -0.19275245 0.1139804 0.26383108 -0.250949 0.28646684 0.45050594 -0.24276954 0.04524091 0.22581847 0.02028954 -0.13341619 -0.2713838 -0.34258735 0.051870275 -0.001637658 -0.05271728 0.2260918 0.09066414 0.019551976 0.28522754
1 -0.036327165 -0.27247843 0.20112494 0.06475302 0.2875468 -0.16705988 0.011309894 -0.23409523 0.17258239 0.1348339 0.3698301 0.21584272 -0.29676813 0.070304245 0.27529287 -0.2398681 0.23509008 0.48380175 -0.15377893 -0.051584236 0.10766272 0.067941144 -0.080308594 -0.1646234 -0.22474903 -0.041876517 -0.01198424 -0.018941088 0.10419751 0.05351162 -0.064316966 0.4177537
85 -0.052061304 -0.27483878 0.14055209 0.11286941 0.27958253 -0.23468216 0.10277026 -0.27736592 0.23896724 0.19040324 0.48304972 0.18379681 -0.17739783 0.07695248 0.22170512 -0.2740282 0.23311041 0.42842546 -0.21188581 0.039961856 0.2888926 -0.021158738 -0.06741265 -0.32086715 -0.35877088 0.046177853 -0.053555142 -0.041033585 0.2720753 0.035382 0.03610128 0.22991538
48 -0.063618995 -0.18674284 0.19972663 0.05406451 0.19568193 -0.07097219 0.01831532 -0.1576859 0.121705696 0.10596526 0.25107503 0.22613205 -0.33092907 -0.060642924 0.16011861 -0.26564685 0.07408081 0.5262354 -0.09698154 -0.20444542 0.010004579 0.06921525 0.03856183 -0.10160987 -0.22474091 -0.08596254 -0.046640497 0.14561746 -0.028870616 -0.08314752 -0.09755068 0.58607835
41 -0.18314205 -0.18791115 0.24793072 0.09696381 0.38448372 -0.062750585 -0.0023704597 -0.15966037 0.124796525 0.06801023 0.33505827 0.16469382 -0.23125108 -0.07722244 0.21755233 -0.33002982 0.19174881 0.39542526 -0.042791035 -0.11363669 0.08436608 0.06506427 0.03592026 -0.12619272 -0.30480313 0.013725268 -0.093123235 0.08272283 0.053558614 -0.045825385 -0.029557692 0.45703742
86 -0.10271131 -0.17011534 0.20112593 0.13332824 0.11963853 -0.02997201 0.08484218 -0.098442815 0.15266767 0.1696653 0.3579743 0.1811329 -0.28381556 -0.15420203 0.058151938 -0.28630424 -0.014846828 0.54315406 -0.16395406 -0.23933618 0.06717111 0.008635465 0.101614505 -0.18971358 -0.24580254 -0.002747848 -0.05935212 0.19120689 -0.006368164 -0.23461926 -0.10704314 0.47140765
56 -0.109369956 -0.21294045 0.16836873 0.053708054 0.2073106 -0.07386061 0.016721413 -0.16279423 0.1645819 0.12100452 0.32269356 0.18919513 -0.26691014 -0.018173795 0.19665314 -0.26095676 0.11351303 0.5236521 -0.13816836 -0.15167367 0.13729908 0.09396077 0.019993233 -0.172393 -0.24885806 -0.012632103 -0.04836076 0.084249884 0.045990694 -0.12177939 -0.08495143 0.48624247
72 -0.034543313 -0.22342841 0.10986357 0.11104112 0.21963894 -0.20734334 0.09011214 -0.23443641 0.2213785 0.21630874 0.38308492 0.18102916 -0.23130882 -0.004089351 0.17198214 -0.25377318 0.20876086 0.47006935 -0.20877184 -0.05851902 0.14836128 0.06321109 -0.046338804 -0.26192603 -0.2953361 0.04813155 -0.032769572 0.071276285 0.13559803 -0.029665442 -0.046322934 0.36453265
51 -0.19001515 -0.18245643 0.28728753 0.057055913 0.30429354 0.029002927 -0.030163236 -0.13291556 0.026914291 0.07144932 0.28980267 0.16122815 -0.32145923 -0.10212329 0.20653328 -0.30104658 0.1323547 0.4943222 0.020407472 -0.23994374 -0.06259316 0.11659767 0.122337215 -0.040739156 -0.18680595 -0.08125456 -0.101943865 0.17433502 -0.036087044 -0.09962299 -0.16183734 0.62769234
113 -0.1736535 -0.16618282 0.23818766 0.07737057 0.2836594 -0.042404126 0.0004843714 -0.18341708 0.13424103 0.09624284 0.30017245 0.18398583 -0.25813568 -0.10216149 0.19412443 -0.3099417 0.11524105 0.40849343 -0.057115495 -0.21358983 0.050365318 0.080375805 0.07993373 -0.104609594 -0.25937358 0.01139312 -0.08974195 0.14603853 -0.009245233 -0.12738751 -0.09464173 0.5178382
115 -0.18623853 -0.20699541 0.25598276 0.111525424 0.33910382 -0.051767103 -0.009504902 -0.1457001 0.12725328 0.0984608 0.34004143 0.18910515 -0.25889266 -0.0538261 0.2387072 -0.29812884 0.14749762 0.4141409 -0.04917069 -0.14922102 0.033994798 0.07208747 0.056726187 -0.09643586 -0.27593827 0.017109364 -0.07333864 0.1240349 0.017421756 -0.095484205 -0.07344238 0.5213313
92 -0.06344862 -0.24410774 0.22509356 0.061320983 0.20320044 -0.11640253 0.013700815 -0.21686004 0.080679126 0.12686776 0.2911635 0.21685614 -0.34054336 0.006407262 0.23523292 -0.2312709 0.171049 0.5359678 -0.106788054 -0.13276453 0.0441328 0.063344575 -0.011999762 -0.13231058 -0.18691742 -0.08413949 -0.012087325 0.059102777 0.03614784 0.021514915 -0.09224222 0.5085163
19 -0.097325444 -0.21213761 0.20200683 0.11106617 0.3354373 -0.13481443 0.0029231235 -0.16492212 0.1477039 0.14445153 0.375833 0.18332924 -0.27721965 -0.0244212 0.22324675 -0.30081853 0.22594193 0.4043824 -0.044667654 -0.12712674 0.03868076 0.06897202 0.038221512 -0.13478406 -0.2846084 -0.025848594 -0.0810916 0.06994152 0.058668736 -0.0151195945 -0.07216765 0.44901973
91 -0.14531681 -0.2079876 0.26692623 0.1033499 0.3014541 -0.08133146 -0.093387224 -0.1444766 0.0782698 0.05370261 0.334462 0.22558008 -0.30853707 -0.028991431 0.27293417 -0.29055524 0.19808252 0.48959273 -0.008207199 -0.080657035 0.012224585 0.08466603 0.0121502485 -0.09591854 -0.22674263 -0.06675059 -0.064482994 0.0896808 0.0049338597 0.03333279 -0.08543423 0.5106324
31 -0.07672986 -0.1745684 0.26718527 0.03831644 0.23497501 -0.046222858 -0.053019386 -0.15100914 0.0542509 0.067245506 0.22679242 0.2180016 -0.38466555 -0.049663875 0.2199691 -0.25441155 0.106093004 0.5546292 -0.04599537 -0.19596037 -0.016848056 0.06443366 0.03045011 -0.058967616 -0.17028095 -0.14981578 -0.043126747 0.077212065 -0.04965281 0.011381816 -0.16054341 0.6043369
69 -0.0951781 -0.13224289 0.22544177 0.032554712 0.1051584 -0.018789139 0.07286951 -0.16063438 0.1162782 0.13859215 0.18815203 0.222718 -0.349886 -0.15745777 0.0961726 -0.2745032 0.009431902 0.6181288 -0.17197181 -0.33119032 -0.03323012 0.060391594 0.061649878 -0.08420709 -0.122122735 -0.069608584 -0.03537571 0.1834048 -0.12323405 -0.2614975 -0.16253191 0.5914981
10 -0.025617726 -0.24606262 0.13829458 0.12480145 0.13427784 -0.18485552 0.10541976 -0.24986404 0.2995974 0.18686014 0.4166624 0.17371601 -0.20367745 -0.002216815 0.13763116 -0.25212047 0.14934175 0.47210163 -0.25941944 -0.041374665 0.2813188 1.4951056e-05 -0.03595059 -0.3539945 -0.39104804 0.07136726 -0.06178149 0.04750646 0.19255836 -0.031280167 0.026012953 0.2612117
32 -0.054423165 -0.21793984 0.253271 0.04020183 0.26568362 -0.10495501 0.004306084 -0.17933375 0.1308906 0.12114218 0.30072853 0.1843296 -0.30525395 -0.0062827505 0.22350521 -0.2879235 0.16023472 0.47850603 -0.084529996 -0.1542525 0.05473588 0.078751504 -0.02899247 -0.10231329 -0.23675534 -0.08379811 -0.020611139 0.041859794 -0.005480578 -0.05257757 -0.077262916 0.46541768
80 -0.10266699 -0.1909087 0.20023769 0.042917047 0.21581168 -0.09215281 0.036220506 -0.18358564 0.13294353 0.093409024 0.29731634 0.19077562 -0.33231443 -0.018666452 0.19708551 -0.24147373 0.10240937 0.51829666 -0.08925382 -0.12178559 0.10974825 0.0716874 0.01211722 -0.13355388 -0.25390494 -0.04898948 -0.035832845 0.10223497 0.08272369 -0.036525585 -0.081580386 0.5097759
82 -0.0003931623 -0.32887125 0.10712225 0.13361618 0.22348005 -0.2720836 0.10617704 -0.27865803 0.3118798 0.19699168 0.54036945 0.15207541 -0.18621206 0.15702872 0.20283045 -0.22391693 0.26256633 0.39963076 -0.26147413 0.13084768 0.33906132 0.01682173 -0.098715685 -0.4222832 -0.40409777 0.07858787 -0.057237204 -0.054558225 0.33503327 0.13448615 0.07015219 0.18706454
44 -0.066891156 -0.1563404 0.17608505 0.11742378 0.046254296 -0.07975654 0.16593294 -0.13733278 0.19537784 0.20813029 0.28659266 0.21286848 -0.28746602 -0.20570296 0.011054023 -0.24709262 -0.08479761 0.6019202 -0.2550187 -0.31953275 0.06789382 0.024189359 0.0519889 -0.16726166 -0.1994093 0.018245395 -0.048744265 0.25501856 -0.090892896 -0.32248846 -0.11557947 0.484946
87 -0.2177873 -0.15581198 0.27195624 0.09188422 0.37278464 0.031443056 -0.043984957 -0.14650112 0.069486685 0.037909117 0.3203069 0.18860424 -0.28241313 -0.14275777 0.25821102 -0.32227436 0.1180627 0.39470285 -0.001525327 -0.21053231 0.04310776 0.08132261 0.08444191 -0.08030115 -0.25372633 0.039863862 -0.11058971 0.14756335 -0.008604012 -0.119201735 -0.09042686 0.5829048
83 -0.015701855 -0.27527228 0.10937282 0.10393976 0.25389808 -0.27849427 0.078504905 -0.29106048 0.23955797 0.205692 0.45055124 0.16863672 -0.17860758 0.10216619 0.2639583 -0.23493452 0.3148981 0.46740735 -0.21128015 0.0863883 0.23934269 0.024876248 -0.05925855 -0.26084918 -0.35180148 0.013262073 0.012195347 -0.06258889 0.25767818 0.13296877 0.0043264613 0.2727985
67 -0.058905136 -0.3262715 0.13698536 0.14271046 0.2615513 -0.23470037 0.07417585 -0.23617333 0.2754242 0.13696079 0.50145507 0.12476517 -0.16091421 0.14069362 0.24749734 -0.26468623 0.28122613 0.38935483 -0.20579562 0.08549069 0.2885266 0.004774898 -0.06959522 -0.35215232 -0.4091063 0.037134603 -0.044576507 -0.029049864 0.335012 0.13559374 0.067431025 0.27616078
28 -0.09714338 -0.17788531 0.23197165 0.07180408 0.22839154 -0.1130298 -0.007679627 -0.17450084 0.14312543 0.083827294 0.31872445 0.209798 -0.30368382 -0.0442815 0.21469669 -0.28500503 0.13753659 0.5211347 -0.10305648 -0.11956865 0.068853304 0.07854142 0.017722335 -0.12470471 -0.25969526 -0.1071086 -0.023736423 0.10580499 0.03716801 0.04391506 -0.04942107 0.47893286
53 -0.08208743 -0.2760723 0.1756288 0.1085063 0.25181997 -0.1822287 0.0796946 -0.25549814 0.20841846 0.17712034 0.4753228 0.13668647 -0.20068684 0.057207193 0.2291687 -0.2727011 0.19425268 0.40978664 -0.16522665 -0.005629887 0.18909726 0.033533014 -0.052586395 -0.24835536 -0.3514972 0.040906947 -0.045202896 0.04677132 0.2486028 0.052570354 -0.0075329444 0.34048793
118 -0.11761343 -0.2882264 0.22264521 0.12610829 0.3368475 -0.12647408 -0.01795249 -0.20701997 0.16787723 0.11019222 0.42429975 0.16673239 -0.20440628 0.018146997 0.2424936 -0.29234132 0.24628784 0.39630502 -0.13292745 -0.023648709 0.11797334 0.04793858 -0.013266414 -0.2202194 -0.27480575 -0.021231502 -0.07655994 0.010728072 0.16422597 0.04604318 -0.038910303 0.40852517
84 -0.030017918 -0.287004 0.1253027 0.16923483 0.22475457 -0.19684117 0.10985448 -0.28196716 0.27422506 0.17777851 0.4836549 0.16617839 -0.19091465 0.063714966 0.22089256 -0.23949544 0.21338138 0.40812582 -0.23433068 0.015748437 0.2720631 -0.0084992945 -0.03240613 -0.30812812 -0.43032032 0.070730045 -0.029549148 0.027267694 0.28848606 0.07532175 0.015905697 0.27384773
126 -0.0891354 -0.2151344 0.2132186 0.10291356 0.2891031 -0.11011801 0.042178582 -0.17620549 0.15348218 0.1389255 0.36212614 0.15239441 -0.22125183 -0.02087905 0.16621478 -0.25726372 0.16640377 0.48111963 -0.10914745 -0.15387146 0.054951992 0.03886041 -0.0031139995 -0.15410483 -0.21327755 -0.0355185 -0.0959473 0.07896675 0.04855685 -0.09418213 -0.10179205 0.42566848
102 -0.08274116 -0.2087614 0.23780082 0.06584205 0.20373958 -0.077321135 0.029180508 -0.17782162 0.11016884 0.117570594 0.27995765 0.22684611 -0.3173506 -0.081996895 0.17056885 -0.27472946 0.08609207 0.52221435 -0.10965437 -0.20051207 0.09440958 0.07429098 -0.0063454653 -0.15659778 -0.23355433 -0.04035034 -0.04301816 0.10172268 0.007979862 -0.09717208 -0.0894428 0.515536
50 -0.05932526 -0.14707235 0.21995279 0.113624595 0.03234706 0.0026926065 0.15764758 -0.094533294 0.14609292 0.19528668 0.31218496 0.21331516 -0.32076004 -0.22972377 -0.027570007 -0.28077498 -0.15387572 0.6326394 -0.20839205 -0.35756516 0.050258577 -0.014259787 0.09648016 -0.1547907 -0.17266408 -0.0087106805 -0.092447095 0.2842571 -0.10422456 -0.336994 -0.17180473 0.50241804
34 -0.11430125 -0.14506428 0.24744338 0.04614435 0.14508599 -0.024063824 0.05095313 -0.13358723 0.13239436 0.14290982 0.26760325 0.2144237 -0.33860505 -0.17281224 0.067402095 -0.2649679 -0.00661316 0.555536 -0.14789249 -0.30294722 0.07172548 0.0752357 0.048241112 -0.12800962 -0.20583406 -0.069267 -0.08070886 0.20299661 -0.06615797 -0.22553177 -0.11236923 0.5490697
24 -0.2508203 -0.23008083 0.29421887 0.14304188 0.42365092 0.06395236 0.0074280524 -0.11198529 0.12741145 0.019922387 0.4027295 0.0989176 -0.24350916 -0.075104326 0.17413123 -0.33029965 0.11203673 0.3746198 -0.0045206547 -0.23368132 -0.028767675 0.07737471 0.103984736 -0.11796986 -0.25076926 0.03561837 -0.17543313 0.17436843 0.07137514 -0.17289081 -0.081453495 0.542882
23 -0.19171034 -0.20860083 0.30982018 0.12444325 0.32957146 -0.03736182 -0.02967615 -0.17325214 0.083245605 0.040905297 0.38596624 0.15632418 -0.28306636 -0.03946407 0.20648986 -0.3038011 0.1299871 0.4203355 -0.027122092 -0.108354114 0.05570583 0.065072864 0.030977298 -0.15611334 -0.24471992 -0.023690173 -0.11566222 0.08776638 0.09351641 -0.03386687 -0.047191802 0.45482433
70 -0.17019281 -0.248522 0.28490713 0.095119536 0.30359143 -0.047503896 -0.07251456 -0.14645095 0.1002612 0.053972878 0.3387422 0.1660369 -0.28243363 -0.026578913 0.21062493 -0.34547943 0.19489099 0.44560283 -0.040773224 -0.12008423 0.016806427 0.106278665 0.070410796 -0.14037353 -0.23663247 -0.0849433 -0.07383677 0.07325795 0.06138634 -0.026896175 -0.10538058 0.524768
7 -0.12300579 -0.19986743 0.226672 0.07851146 0.2509556 -0.075980276 -0.014652467 -0.14373042 0.1065458 0.10798583 0.32994214 0.19219546 -0.31567383 -0.0105565945 0.22220905 -0.27159074 0.16234078 0.5170729 -0.022338904 -0.10552977 0.07886579 0.09704267 0.02395283 -0.13517626 -0.24731286 -0.06764475 -0.031070888 0.08960239 0.016977893 -0.0024453483 -0.100264765 0.52178484
18 -0.07563071 -0.13695975 0.19001675 0.097882815 0.13314193 -0.05286997 0.10811003 -0.15560675 0.17661333 0.16202642 0.31545514 0.21249247 -0.26816395 -0.155729 0.07725068 -0.27636454 6.158766e-05 0.544714 -0.17106181 -0.2779975 0.08814726 0.06474883 0.0743257 -0.17781422 -0.2180913 0.0074081835 -0.1061949 0.2004728 -0.032256078 -0.2424779 -0.12660056 0.46047232
76 -0.20774451 -0.25921145 0.28992313 0.12060854 0.35979867 0.013483045 -0.013498755 -0.13249418 0.12316682 0.029724963 0.40059584 0.11823376 -0.2757293 -0.044034272 0.191096 -0.27902305 0.11939199 0.39439988 -0.04272011 -0.13358037 0.063669465 0.08110525 0.08815731 -0.17488882 -0.253121 0.0020445986 -0.15066816 0.14441435 0.12812307 -0.0809121 -0.037353653 0.51216567
112 0.002510039 -0.25428477 0.105973385 0.10171838 0.2654002 -0.2660675 0.067556016 -0.30321348 0.2822653 0.16139098 0.4658896 0.17326461 -0.16780214 0.12391914 0.3038808 -0.26829168 0.32495856 0.38579515 -0.20504862 0.09252498 0.27644145 0.030759046 -0.10520248 -0.29129475 -0.40578222 0.054039653 -0.0073093325 -0.06763523 0.29109424 0.15204 0.027734093 0.28224736
109 -0.22980979 -0.21653841 0.32530174 0.10491447 0.40475214 0.019827554 -0.09109055 -0.12704985 0.050744683 0.013513537 0.3432208 0.16660301 -0.280575 -0.05862766 0.25298715 -0.30806398 0.16950001 0.4065868 0.02478613 -0.12065288 -0.0028721553 0.0819229 0.0720781 -0.07782021 -0.243241 -0.027026592 -0.1035543 0.093635514 0.024407493 -0.048415523 -0.08404426 0.5529471
90 -0.049469315 -0.26712623 0.1799078 0.17885931 0.1395464 -0.1487123 0.06700618 -0.18900782 0.23295742 0.19080344 0.45397767 0.1956499 -0.23282403 -0.04940204 0.12512408 -0.26681462 0.11391876 0.43547112 -0.20250237 -0.03764497 0.1960354 -0.007982337 -0.028586373 -0.29492724 -0.34193763 0.041397043 -0.06044952 0.07197934 0.13610128 -0.026921842 -0.012822503 0.32767808
61 -0.10219668 -0.16724898 0.25513968 0.010270023 0.22231273 0.012605393 -0.03123741 -0.16651076 0.06648003 0.060287494 0.2214677 0.23714511 -0.35929444 -0.066861674 0.21291785 -0.2696893 0.08269023 0.52584267 -0.073393896 -0.25171745 0.035593864 0.07154969 0.053183272 -0.08806469 -0.17314991 -0.0771993 -0.05120872 0.105329216 -0.06754356 -0.093187034 -0.13040349 0.6118312
5 -0.10009094 -0.23411594 0.22602578 0.0660914 0.25185862 -0.10442594 0.025933653 -0.1756873 0.109607674 0.10986246 0.34492835 0.19385302 -0.30101532 0.009435968 0.1948082 -0.26264697 0.16649234 0.55987155 -0.07871557 -0.08635167 0.07299068 0.042916905 -0.030301835 -0.15424319 -0.19971909 -0.10061515 -0.043309417 0.06047073 0.055658735 -0.0014059084 -0.077500515 0.46084023
77 0.026766757 -0.29094282 0.048984926 0.15019272 0.21550475 -0.30830947 0.10558134 -0.30791825 0.3151627 0.22236688 0.49861792 0.18613178 -0.14753774 0.14297488 0.2676144 -0.24936213 0.2938527 0.43867376 -0.23412545 0.10118193 0.30179563 -0.0020667848 -0.120744 -0.34461325 -0.39173388 0.054555967 0.0019529053 -0.07086565 0.28887618 0.14673278 0.036077157 0.1994565
8 -0.11173064 -0.2188554 0.24517678 0.048169013 0.2493306 -0.057685617 -0.02340904 -0.21748613 0.12883778 0.1140419 0.33578417 0.21695247 -0.3077634 0.030940684 0.20338774 -0.28115404 0.16089141 0.5075218 -0.13386618 -0.20898026 -0.006398271 0.09765767 0.030164681 -0.12192921 -0.15143962 -0.08551217 -0.012391168 0.06080567 0.011265841 -0.0051913173 -0.1477904 0.58059007
127 -0.18148422 -0.22779717 0.26500803 0.10008941 0.32292897 -0.018879239 0.01491043 -0.14244427 0.12305208 0.06627047 0.33889425 0.16027696 -0.2952617 -0.05947695 0.19583435 -0.29179096 0.1330658 0.40385693 -0.040849496 -0.15386386 0.04227615 0.089888185 0.047878217 -0.14779584 -0.25502977 0.0050456817 -0.10536197 0.1623758 0.03810126 -0.14076908 -0.07258568 0.55403507
71 -0.23802513 -0.21906123 0.35020208 0.118776165 0.3752995 0.094835855 -0.048063774 -0.12044841 0.034522943 0.01601463 0.3414263 0.14472197 -0.31246626 -0.10880374 0.2022519 -0.33201534 0.06566073 0.40400276 0.025946308 -0.2242288 -0.027575504 0.101782255 0.13816687 -0.07789683 -0.20774087 -0.024546962 -0.14576532 0.20059109 0.019117657 -0.16238894 -0.10829903 0.6177752
46 -0.078604065 -0.19702755 0.1989503 0.094629005 0.23472604 -0.10381663 0.05294779 -0.1984514 0.13482638 0.15292801 0.29395306 0.2270289 -0.26843986 -0.08161157 0.17369951 -0.279787 0.1457509 0.51766944 -0.14782935 -0.2238653 0.02452572 0.04919277 0.007754485 -0.106387734 -0.22575375 -0.037289966 -0.03768004 0.10218819 -0.05414014 -0.15393184 -0.11128572 0.47473413
105 -0.12643932 -0.12466285 0.22899467 0.08816253 0.20094314 0.028764237 0.07451665 -0.13618809 0.13063832 0.119758 0.2976455 0.1874985 -0.3206777 -0.16517502 0.08232073 -0.2814882 -0.036276903 0.5152237 -0.10305987 -0.32767215 0.023190558 0.06651077 0.11891541 -0.109927446 -0.22401445 0.014169783 -0.095868655 0.24674945 -0.05500065 -0.26363713 -0.14912617 0.5924157
22 -0.15573096 -0.20651269 0.2177516 0.12118966 0.32066873 -0.08798322 0.029586717 -0.19398466 0.13658287 0.13384506 0.35575256 0.18734732 -0.26127213 -0.049755268 0.22938754 -0.31645456 0.15357055 0.41913572 -0.09084453 -0.10460273 0.07637193 0.0792853 0.004925902 -0.16527586 -0.29596338 0.078743026 -0.099490024 0.10768138 0.04676981 -0.048440725 -0.059663884 0.46851948
68 -0.103646845 -0.22760756 0.28383923 0.06646847 0.24267145 -0.028981717 -0.046417393 -0.11706646 0.08821546 0.11635323 0.27159324 0.2042434 -0.31453365 -0.06449253 0.17183968 -0.29413062 0.11990453 0.5183744 -0.09364456 -0.2210801 -0.009536914 0.07566172 0.030209512 -0.09466126 -0.18894957 -0.097760156 -0.07120655 0.11689274 -0.06288843 -0.12699448 -0.13760024 0.5777522
78 -0.11020981 -0.22494937 0.17020947 0.13195196 0.15309419 -0.045258325 0.080308 -0.120150946 0.15035835 0.16550094 0.3461538 0.17807956 -0.273624 -0.102850646 0.100181274 -0.3103708 -0.011922352 0.5834168 -0.17297925 -0.2104652 0.07511008 0.01090845 0.07420543 -0.16289248 -0.23863757 0.03729035 -0.042688034 0.20731911 -0.0111321 -0.21488376 -0.1138948 0.45922714
13 -0.030762477 -0.17917097 0.18976372 0.0118996855 0.21392733 -0.11043082 0.01160789 -0.21410768 0.116899855 0.11582258 0.26386935 0.24007218 -0.32592145 0.024717027 0.24115169 -0.24743707 0.14390424 0.5738864 -0.107762754 -0.14575918 0.070285626 0.081312515 -0.0039316383 -0.13076083 -0.1753141 -0.09227635 0.00668743 0.060298983 0.050689522 0.040710643 -0.11813192 0.5147622
93 -0.026030049 -0.28283238 0.15646623 0.16278778 0.20848943 -0.24801235 0.07881156 -0.21552902 0.25648734 0.19471882 0.5285557 0.18394096 -0.22031423 0.08177446 0.20719704 -0.2503044 0.20900966 0.45197308 -0.2210471 0.062594645 0.27120417 0.017333115 -0.06798123 -0.35060957 -0.36508965 0.0064654225 -0.04325417 -0.004128825 0.28186232 0.119745724 0.04264086 0.2176008
4 -0.10304844 -0.1808445 0.29311168 0.037561 0.24824421 -0.04857378 -0.0697627 -0.20037264 0.056664363 0.03623753 0.24694133 0.23052138 -0.3771854 -0.04106412 0.25049272 -0.29354173 0.1161138 0.502199 -0.07421038 -0.20772454 0.02495808 0.106503725 -0.029576872 -0.05588737 -0.19031145 -0.110829435 -0.008560783 0.052702896 -0.06460581 -0.023363512 -0.13173577 0.5886557
25 -0.03723188 -0.24424097 0.093675755 0.10821201 0.20312122 -0.27654344 0.10061697 -0.21509111 0.2501635 0.18788734 0.43261078 0.16048062 -0.19277012 0.094673164 0.21468598 -0.25351888 0.24585766 0.49694714 -0.19121058 0.031168409 0.22624646 0.04838234 -0.032342754 -0.3085772 -0.35148948 0.02022792 -0.02291818 0.019700143 0.22683631 0.065374024 0.01675622 0.2704267
124 -0.2226187 -0.1738119 0.283972 0.10768721 0.33266452 0.01685566 -0.01751021 -0.1487399 0.07513134 0.082994156 0.30253416 0.17556083 -0.28396946 -0.10293365 0.2213722 -0.31175634 0.11350595 0.41516966 -0.0015227987 -0.20114425 0.02239303 0.08795999 0.05605677 -0.059656706 -0.22894956 -0.0016183559 -0.11948463 0.15103649 0.016016103 -0.14636528 -0.08114964 0.57873005
14 -0.10486131 -0.25821224 0.30337894 0.07912121 0.1913475 -0.062899075 -0.029379953 -0.16920209 0.11084806 0.04115205 0.32484275 0.22002523 -0.2929982 -0.033249997 0.19028734 -0.2790362 0.096725054 0.52404225 -0.1072449 -0.13746081 0.07503331 0.024508726 0.0016570487 -0.1432499 -0.19932921 -0.12450308 -0.040962193 0.057199623 0.07238005 0.01251968 -0.058471 0.49591765
121 -0.079046324 -0.28129587 0.17638145 0.12453012 0.20669581 -0.1844328 0.043020528 -0.22784844 0.23601939 0.14462398 0.41800395 0.19036725 -0.24003431 0.08278858 0.20678453 -0.25286525 0.21123649 0.47608277 -0.189185 0.023471989 0.22309011 0.0060965135 -0.047709376 -0.25075743 -0.33340716 -0.025373964 -0.055555418 0.033142738 0.21590097 0.024394697 -0.01719381 0.2736214
120 -0.14502531 -0.19841433 0.25537455 0.1061201 0.34521297 -0.06272257 -0.025949478 -0.15348664 0.09146065 0.08011235 0.34131855 0.17604089 -0.27800286 -0.071355835 0.21731219 -0.30916494 0.16403998 0.42294413 -0.0037841254 -0.1374052 0.036697 0.08766341 0.051766098 -0.1220095 -0.2742105 -0.0038163308 -0.092986375 0.10283257 0.05447557 -0.075002484 -0.086190306 0.48662403
116 -0.116027735 -0.20001711 0.20388114 0.07938443 0.30531737 -0.11163259 -0.017739698 -0.18707351 0.102821745 0.11619234 0.3003343 0.1796645 -0.27752784 0.028024534 0.27532282 -0.30374306 0.2304859 0.5214734 -0.060465265 -0.13633057 -0.006724761 0.07309134 0.039127305 -0.06970652 -0.19310261 -0.05173579 -0.039315574 0.042245686 -0.0035916106 0.0066073104 -0.11451197 0.52269524
94 -0.08064156 -0.24932832 0.16238116 0.11180185 0.25753838 -0.19284815 0.0104656955 -0.23447774 0.18649091 0.14249092 0.39806128 0.17562424 -0.24617219 0.027712012 0.27382812 -0.27776384 0.23311101 0.41639918 -0.16739194 0.018920086 0.21752954 0.06496686 -0.022110904 -0.2109925 -0.35240477 0.018503575 -0.02438092 0.041661337 0.17336 0.038977828 0.012380708 0.346462
99 -0.20484738 -0.28861842 0.34053236 0.10962041 0.36772013 0.017977173 -0.08482999 -0.13957886 0.06391324 0.0041685873 0.3726152 0.13699074 -0.28771237 -0.0018388471 0.2254566 -0.33575523 0.192853 0.46578023 -0.010890585 -0.15348196 -0.028007057 0.089278124 0.0898156 -0.10123187 -0.1742347 -0.10055911 -0.10832077 0.08025642 0.0919421 0.020873275 -0.120856725 0.53368884
12 -0.13723834 -0.20664805 0.2837046 0.07154752 0.26405025 -0.0949515 -0.031267554 -0.17778279 0.11129268 0.05655168 0.33645704 0.22711027 -0.3404477 -0.041505735 0.19648857 -0.2744053 0.12590647 0.46132198 -0.03130606 -0.15341783 0.047078814 0.081386715 -0.0049899714 -0.10643504 -0.2284623 -0.087367766 -0.07700163 0.121521816 0.024435608 -0.005071401 -0.06511579 0.5318585
9 -0.058381245 -0.18818994 0.25403482 0.055241454 0.16355349 -0.06543549 0.0015124769 -0.21358097 0.08094228 0.08497066 0.27848712 0.22757515 -0.33967414 -0.036043853 0.20664808 -0.26884872 0.11550773 0.5386328 -0.13404639 -0.18423344 0.042352747 0.07448623 -0.004988597 -0.13679886 -0.18381214 -0.13637353 -0.005367163 0.047759384 -0.008021096 -0.038698293 -0.12762205 0.5202484
101 -0.19527888 -0.19431803 0.28997752 0.06689992 0.2636826 -0.014283713 -0.024342429 -0.11804371 0.0642991 0.09375507 0.26925477 0.18035814 -0.3427062 -0.13760038 0.17786208 -0.30103448 0.11171219 0.49315447 0.0029872707 -0.23773572 0.0023239849 0.13373399 0.10856467 -0.111293055 -0.18214196 -0.06591769 -0.07817363 0.1617717 -0.066228755 -0.1744742 -0.122984745 0.60579616
106 -0.20878364 -0.18449761 0.27479982 0.09273503 0.35483068 -0.02031645 0.032875206 -0.14167386 0.08745704 0.06231505 0.40159276 0.16955015 -0.2956105 -0.048593506 0.1965934 -0.30127153 0.11833954 0.395989 -0.02621814 -0.10265541 0.07235824 0.05498102 0.043398093 -0.12802498 -0.26268017 -0.0094464095 -0.09179927 0.1539684 0.11571934 -0.095150374 -0.025397863 0.49336645
117 0.011505497 -0.3201003 0.14190114 0.14395398 0.25336444 -0.2504001 0.07995094 -0.284499 0.2794262 0.15298633 0.49676856 0.17667317 -0.1902423 0.120874144 0.2837031 -0.23619351 0.30760434 0.38208333 -0.22551452 0.115203366 0.3035112 0.021394957 -0.11803982 -0.32020643 -0.4066154 0.026896615 -0.0074420474 -0.0701893 0.32432434 0.17024733 0.0829724 0.26299924
30 -0.09806654 -0.21656494 0.27731642 0.09713893 0.15259977 0.035970666 0.07619167 -0.1382101 0.10378239 0.095800065 0.35950702 0.18015099 -0.32184842 -0.102673575 0.12937473 -0.25577518 -0.0102375485 0.51039636 -0.13090293 -0.26196143 0.07051706 0.032250404 0.07319919 -0.16198926 -0.2170286 -0.0035556427 -0.06302394 0.18972161 0.0024413122 -0.17149647 -0.1069938 0.5142068
6 -0.057538148 -0.23853132 0.22820263 0.08395216 0.21536213 -0.09148712 0.02784645 -0.2189161 0.115508765 0.1054717 0.38958806 0.20795703 -0.3129464 0.019320093 0.20304225 -0.2687822 0.14978035 0.5115272 -0.15034431 -0.08714147 0.13094287 0.017190203 -0.040335137 -0.22164609 -0.22692685 -0.03520358 -0.030965282 0.064352244 0.11498341 0.054479063 -0.06888552 0.4408767
57 -0.009434909 -0.25996923 0.12854463 0.089367986 0.21524203 -0.2375901 0.03820671 -0.25287455 0.23371336 0.14387931 0.4488238 0.16474839 -0.19510385 0.09105601 0.2691753 -0.22203495 0.28013843 0.45978096 -0.2332477 0.0047146087 0.25454542 0.03676209 -0.03774787 -0.2840179 -0.30904043 -0.03295908 0.012946055 -0.025755024 0.20893218 0.087320276 0.022516334 0.2789708
65 -0.13683146 -0.17814302 0.20863073 0.090662874 0.26058796 -0.02087301 0.02125756 -0.1670399 0.10128201 0.13564953 0.29903188 0.20370442 -0.2877367 -0.09074808 0.17838281 -0.27932915 0.08523342 0.50472057 -0.076028846 -0.2293752 -0.01190987 0.100653194 0.06105889 -0.119210295 -0.16093141 -0.010008697 -0.050987203 0.17721877 -0.04542732 -0.12711196 -0.12232401 0.568391
20 -0.059592854 -0.24528742 0.15010054 0.11050756 0.3114874 -0.2294335 0.0452382 -0.27741513 0.24381468 0.16890453 0.4315409 0.1496903 -0.17486401 0.078759655 0.28985062 -0.28096047 0.30342314 0.40285805 -0.20392697 0.024070784 0.19664791 0.042125583 -0.071339406 -0.2348665 -0.3485272 0.056341816 -0.014797132 -0.038908895 0.20169637 0.056932304 -0.0026832584 0.31664893
123 -0.089493304 -0.23025894 0.2263265 0.07929136 0.26477876 -0.06965279 -0.02517008 -0.14665651 0.09916933 0.08386735 0.32198855 0.196194 -0.30510178 -0.014187942 0.2269088 -0.29818043 0.19048066 0.4997167 -0.07400464 -0.14666596 0.03430692 0.08939757 0.018239375 -0.13131583 -0.20897329 -0.058671515 -0.022818245 0.09007758 -0.0040580966 -0.06549576 -0.11541 0.48515993
111 -0.12587437 -0.123133376 0.2629319 0.06478303 0.11141481 -0.030793829 0.08254982 -0.1291248 0.14278595 0.14816555 0.31000417 0.20409389 -0.29076046 -0.2112096 0.050692875 -0.24857457 -0.0319436 0.5600659 -0.17715126 -0.286186 0.052848246 0.07669656 0.06953526 -0.12570633 -0.17190506 -0.045014404 -0.09346797 0.25653607 -0.050866116 -0.23457533 -0.123300634 0.53599477
11 -0.19895053 -0.16253129 0.2600513 0.12404757 0.26335186 -0.052554626 0.031732604 -0.12746824 0.14932065 0.13536768 0.37337917 0.17760578 -0.313261 -0.12246514 0.08846782 -0.30351254 0.07159363 0.44887698 -0.084243156 -0.2054092 0.062377278 0.06532142 0.098942466 -0.19301286 -0.26089048 0.03684239 -0.12470598 0.20611803 0.05860843 -0.18860441 -0.07097979 0.48124477
95 -0.16322862 -0.17358163 0.25194785 0.108590394 0.26967424 -0.042060744 -0.0017672757 -0.13568066 0.10308953 0.0818104 0.3214649 0.19669192 -0.298258 -0.07136259 0.2056992 -0.28522372 0.15880673 0.49739778 -0.0055558896 -0.08974026 0.054266002 0.094715945 0.088077396 -0.12573254 -0.2487508 -0.06473047 -0.053393938 0.15435685 0.046242904 -0.04392842 -0.07245647 0.52894115
74 -0.04363969 -0.33597317 0.10942499 0.15139422 0.24698682 -0.30915803 0.10511617 -0.25003794 0.29275233 0.20014045 0.5361034 0.1750093 -0.17449744 0.1751199 0.251315 -0.20633198 0.32130852 0.45125145 -0.24324983 0.14333077 0.31501037 -0.0014541132 -0.06514704 -0.3775919 -0.3830778 0.0024657678 -0.03810985 -0.045467645 0.3438062 0.17819406 0.08551369 0.19764616
98 -0.094749264 -0.20092699 0.19173363 0.08047763 0.20837077 -0.068682164 0.056970786 -0.17748187 0.15987256 0.14479186 0.3207563 0.17154367 -0.25611043 -0.11564391 0.12284459 -0.28644451 0.073646605 0.5110001 -0.17526427 -0.25464228 0.04996067 0.053135164 0.06103582 -0.16219383 -0.2146479 -0.0010736629 -0.11123447 0.14841357 -0.004928588 -0.20519277 -0.12401587 0.51260525
17 -0.029075345 -0.22355454 0.16012263 0.07175498 0.23208487 -0.19160533 0.032945804 -0.2000378 0.16583745 0.12918998 0.33105138 0.18024088 -0.27191696 0.06677548 0.22760081 -0.26752147 0.21318747 0.54509574 -0.07531113 -0.03185886 0.08872395 0.0752966 -0.04852983 -0.19943975 -0.25548682 -0.065134615 0.0017474117 0.026646394 0.094595104 0.10809269 -0.06753278 0.39529574
128 -0.14043318 -0.1456508 0.21397616 0.06132073 0.23792173 -0.07080324 -0.06389012 -0.14882037 0.097962976 0.072774425 0.27013353 0.22323878 -0.31888592 -0.03820783 0.23624776 -0.29070413 0.15220231 0.57837844 -0.026175395 -0.20834865 -0.0076089725 0.088898756 0.08325604 -0.067085735 -0.17809299 -0.10647781 -0.058622442 0.09920827 0.007682952 -0.04643541 -0.14064139 0.57266414
62 -0.06287324 -0.16477273 0.18249236 0.09434553 0.094591685 -0.11553373 0.13409902 -0.1716194 0.18838878 0.20754136 0.3248734 0.19535844 -0.29744735 -0.14770585 0.049691677 -0.26120538 0.026174093 0.5273653 -0.16341302 -0.22332212 0.09660894 0.026808135 0.03967281 -0.24304123 -0.2658757 0.004690343 -0.06623128 0.17754011 -0.017438648 -0.19595838 -0.0978722 0.41472158
104 -0.12211446 -0.18765265 0.2595712 0.050015457 0.22618924 0.012775736 -0.048625953 -0.14231674 0.07543377 0.04387858 0.2178963 0.23232037 -0.33718354 -0.07409542 0.2171662 -0.25790086 0.082265615 0.5291471 -0.045538325 -0.2457881 0.047607016 0.08560613 0.024288177 -0.07096139 -0.18550701 -0.087512985 -0.017701382 0.12210129 -0.061871864 -0.08851138 -0.13290171 0.5940226
29 -0.07427995 -0.27464446 0.2463939 0.09704833 0.24738342 -0.09754837 -0.016500013 -0.21637405 0.14400165 0.08411722 0.39199564 0.23367117 -0.28524885 0.037976597 0.20971839 -0.2778029 0.13540404 0.4857221 -0.14952011 -0.055338427 0.15454341 -0.0036543477 -0.04533641 -0.18126644 -0.2464989 -0.035120815 -0.017824631 0.0110765165 0.106599435 0.030557457 -0.074137636 0.40091982
39 -0.15774491 -0.26826715 0.2611857 0.12075577 0.31340158 -0.05761925 -0.05982362 -0.16246794 0.0871072 0.07082677 0.35448855 0.18419974 -0.2630395 -0.020986296 0.28489152 -0.28127813 0.19582665 0.4269167 -0.057545174 -0.048783652 0.10390104 0.08617742 0.0048783584 -0.14348213 -0.2623123 -0.036750853 -0.051752843 0.084230475 0.06603491 0.023039171 -0.044995576 0.45489287
37 0.010702458 -0.26889375 0.09008927 0.10472019 0.24559048 -0.2647738 0.08093831 -0.25023726 0.30268687 0.20080703 0.47837725 0.14634661 -0.15513867 0.10310546 0.23035155 -0.25888982 0.29761362 0.40061185 -0.23604524 0.009631534 0.26323754 0.050862655 -0.050350998 -0.3629898 -0.38925216 0.052932072 -0.033193246 -0.018893154 0.26893032 0.06539234 0.02015504 0.21590373
35 -0.11071027 -0.21773966 0.22071062 0.15718676 0.18541712 -0.032175355 0.09267053 -0.124936715 0.17926502 0.13931686 0.42888263 0.14662719 -0.24683003 -0.10528862 0.12221299 -0.3028247 0.064665176 0.4454648 -0.13657787 -0.187977 0.12812303 0.029061668 0.089022964 -0.21958274 -0.31258532 0.017664269 -0.098952636 0.15113105 0.09825878 -0.11251259 -0.07072497 0.40682462
43 -0.20248944 -0.17540911 0.2623986 0.071145356 0.32808107 0.007982637 -0.0063018533 -0.14936973 0.10118568 0.077978104 0.29964682 0.1744892 -0.25111663 -0.10035838 0.113559105 -0.33123046 0.049048994 0.47763178 -0.035918362 -0.27116835 -0.014642877 0.07649794 0.13388515 -0.12621465 -0.20468235 -0.027014181 -0.14970532 0.16583732 -0.025439607 -0.19561236 -0.11636408 0.572958
